solver_type L2R_LR
nr_class 2
label 0 1
nr_feature 105
bias 1
w
0 
-0.0002622877178033569 
-0.0002419788577105552 
6.264874192580611e-05 
-0.0001286087378960278 
2.204433261493641e-05 
-4.918916900369284e-05 
-8.500868483404665e-05 
-7.07427534144352e-05 
-4.721584073213735e-05 
-1.394701055130128e-05 
3.146651590035076e-05 
2.603920342025661e-05 
4.545841485732709e-05 
6.86652240269482e-05 
8.771026694108774e-06 
1.936959620244929e-05 
3.155937114280629e-05 
1.818295406352029e-05 
9.210230799905322e-06 
2.091942338775722e-05 
2.407199238691094e-05 
2.271599961168658e-05 
1.355271462064499e-05 
9.122928530193978e-06 
1.066308031390579e-05 
1.401437178243832e-05 
7.853112077892122e-06 
1.693785011382216e-05 
1.623778299886374e-05 
1.27381771006288e-05 
1.337510883684618e-05 
8.695739031163132e-06 
1.622191694980338e-05 
1.759941371968067e-05 
1.354481819376805e-05 
1.47296764961673e-05 
1.341643346762787e-05 
1.42939718303525e-05 
1.123050288847556e-05 
1.114352944896288e-05 
1.131464564457443e-05 
6.388890441585939e-06 
6.589576492009988e-06 
8.329870231558885e-06 
8.422203959649505e-06 
7.819848490923105e-06 
1.036516357360758e-05 
9.756396679193131e-06 
7.328505169728652e-06 
5.939548940712282e-06 
7.543983803259815e-06 
7.066874749380252e-06 
6.252223311392999e-06 
6.237525479294443e-06 
5.777959577286401e-06 
4.82067314707427e-06 
4.704490891762284e-06 
4.942656220522268e-06 
4.994129598027472e-06 
4.582258838780409e-06 
4.953350688956186e-06 
5.137810915242953e-06 
4.92567791235831e-06 
4.139754094627161e-06 
3.533900457934828e-06 
4.190354996715179e-06 
3.466318950038683e-06 
2.70150679607835e-06 
2.614996873792606e-06 
2.850635693279327e-06 
2.449907581397831e-06 
2.299249386544408e-06 
1.764666061281624e-06 
2.047770371337819e-06 
1.806583590114086e-06 
1.814809978988281e-06 
1.75983803108226e-06 
1.800359129340835e-06 
1.709789422156061e-06 
1.531459499563552e-06 
1.855692690784804e-06 
1.626820107088602e-06 
1.374804072356594e-06 
1.210336996846925e-06 
1.443896798664777e-06 
1.445319707061606e-06 
1.195467678246282e-06 
1.357747321973842e-06 
1.071178408576657e-06 
8.518895434512448e-07 
8.133124180860725e-07 
5.024605731908265e-07 
4.012528467384305e-07 
3.458701433517382e-07 
3.534740203171886e-07 
2.096788239913689e-07 
1.980565216419811e-07 
8.790194696438215e-08 
2.193242846542133e-07 
3.674369456003329e-07 
4.1052168765256e-07 
4.749629636463878e-07 
2.753514885559671e-07 
1.932346360232286e-21 
1.057644443469841e-05 
