solver_type L2R_LR
nr_class 2
label 0 1
nr_feature 105
bias 1
w
0 
0.000731420742983885 
0.0003175803395397891 
-5.578714460267676e-05 
0.0002840658030395785 
0.0001849417469044875 
0.0001626448549533728 
6.565298033767543e-05 
8.659843347448725e-05 
5.443594219890442e-05 
6.426795499340349e-05 
8.063390787260947e-05 
5.447854967109316e-05 
9.211249932554452e-05 
5.4101618688281e-05 
3.582437866075446e-05 
1.079605848645223e-05 
-2.657963639242088e-05 
1.29559313443323e-06 
-9.236532911557841e-07 
-7.818478350944928e-06 
1.861431846926736e-06 
-5.286038072534167e-06 
-1.867134148205654e-06 
3.830830964023464e-06 
2.090593483917419e-06 
1.65885323179549e-05 
6.705607206219622e-06 
2.963518011991028e-06 
2.979591858672199e-06 
2.513564876489428e-06 
-1.71707156897233e-06 
5.579868489501566e-07 
3.535311344142314e-06 
6.071829847629268e-06 
7.69735622241561e-06 
6.508158357058766e-06 
9.012357519200659e-06 
9.396877536567895e-06 
1.01406274111326e-05 
8.608345086798512e-06 
6.772024890877076e-06 
1.073431207248533e-05 
8.621841064975843e-06 
1.140689255429443e-05 
8.660052198674753e-06 
5.478036327386706e-06 
5.315215233753357e-06 
4.336025521423324e-06 
3.776334769972698e-06 
3.300654652375601e-06 
2.457766651423922e-06 
1.771156115033562e-06 
2.384447999523218e-06 
2.38473148420679e-06 
4.228136537594059e-07 
1.317555582392807e-06 
8.264055360731416e-07 
1.245463981503184e-06 
2.829950027987798e-06 
1.627985798005251e-06 
1.136046636825954e-06 
1.132551489432496e-06 
1.14554709042479e-06 
1.070009180132505e-06 
9.915452796537445e-07 
9.371234933867644e-07 
2.739648753798003e-07 
4.37118169927406e-07 
4.531206013251014e-07 
1.764985047734492e-07 
8.30693266500068e-07 
1.124060677419078e-06 
7.685856392335268e-07 
4.230268105664368e-07 
5.385489849217402e-07 
3.367564325321934e-07 
3.715151868613828e-07 
6.430679831094781e-09 
-7.667045024933739e-08 
-1.411282947186498e-09 
-2.508762305032621e-07 
-4.044596343483869e-07 
-4.886837087643167e-07 
-3.326464025226632e-07 
-3.361016788679272e-07 
-2.995258706889489e-07 
-5.773354812011579e-07 
-4.225432391066274e-07 
-1.866364366986581e-07 
-6.480163944955214e-08 
-1.387308789645713e-07 
-1.948034765282517e-07 
-1.78678289104157e-07 
1.114401886123931e-08 
-5.115467972305118e-08 
-2.101658279113043e-07 
-1.829167381514593e-07 
-7.375335483954721e-08 
-3.056948754258355e-07 
-3.844074115579778e-07 
-2.770018855492468e-07 
-1.473728302099046e-07 
-2.252889763791136e-07 
-6.577381458909501e-20 
-3.202163592016001e-05 
