solver_type L2R_LR
nr_class 2
label 0 1
nr_feature 105
bias 1
w
0 
0.001222188007178359 
0.001354857643100366 
0.001265348334562356 
0.0001352850671321454 
0.00021981632012386 
0.0001285955076023223 
9.602936182722289e-05 
9.779794838567324e-05 
7.693374146972548e-05 
4.298322452683635e-05 
2.230708879872965e-05 
3.339791107726336e-05 
4.002124745405167e-05 
6.213906282050113e-05 
3.319132197150566e-05 
4.837804968143433e-05 
5.28107624541339e-05 
4.081413088512163e-05 
3.420906387677708e-05 
3.751329575947946e-05 
3.475799124180561e-05 
2.379635368940421e-05 
1.717293788879166e-05 
1.265391863377363e-05 
8.734598837955333e-06 
9.078281867683367e-06 
6.359432814408489e-06 
7.113053859869338e-06 
4.568134030778582e-06 
-1.625845934026911e-06 
-1.405309560876698e-06 
-1.848753607685683e-06 
-1.265736243413696e-06 
-5.483284422141034e-06 
-7.788257021424215e-06 
-6.769378241336004e-06 
-5.733017140546847e-06 
-2.377873377329746e-06 
-5.729765991720321e-06 
-3.100702707764509e-06 
-3.536957375510852e-06 
-6.891765194200849e-06 
-3.177447749510391e-06 
-4.283950239406525e-06 
-5.046660195917914e-06 
-5.63384829772784e-06 
-2.162996777432609e-06 
-4.367322785840648e-06 
-5.313530610481143e-06 
-6.378361323810908e-06 
-4.614768779428187e-06 
-4.23956190384003e-06 
-4.27921992176704e-06 
-4.266720095822753e-06 
-4.331440245644386e-06 
-4.680439436372303e-06 
-4.147361800923362e-06 
-4.385563075624048e-06 
-4.178115755771252e-06 
-3.603831608261634e-06 
-3.171975968915644e-06 
-3.117608390551173e-06 
-3.177362489849899e-06 
-3.077793182010098e-06 
-2.822683547643389e-06 
-2.543818643802146e-06 
-2.930525431272002e-06 
-3.438136528076734e-06 
-3.364948598273289e-06 
-2.641502205243713e-06 
-2.708149295783913e-06 
-2.789101395887094e-06 
-2.806532033490074e-06 
-2.10675828829704e-06 
-2.229027032064683e-06 
-1.908924564849599e-06 
-2.181877838720975e-06 
-2.118332738355141e-06 
-1.813195622983564e-06 
-2.154448020472482e-06 
-1.466790596182302e-06 
-1.416992384559082e-06 
-1.515978199674767e-06 
-1.433624878529955e-06 
-1.531032350300983e-06 
-1.303674487963068e-06 
-1.211528476965384e-06 
-1.182050192589361e-06 
-1.291623144820438e-06 
-1.602992451558683e-06 
-1.479352727472256e-06 
-1.406455510396383e-06 
-1.436622861448794e-06 
-1.441705702879708e-06 
-1.134263711793363e-06 
-1.227886544411084e-06 
-9.392084549473429e-07 
-8.975730052877467e-07 
-8.436701721151152e-07 
-8.257434542199521e-07 
-5.789797188067267e-07 
-4.73824369039047e-07 
-8.676770396824298e-07 
-2.419555974516116e-19 
-6.858715609131153e-05 
