solver_type L2R_LR
nr_class 2
label 0 1
nr_feature 105
bias 1
w
0 
0.000446119475119754 
0.001458144883784633 
0.0008900106152951584 
0.0002616643989652739 
0.0002399938100582761 
0.0001359448180607934 
0.0001859380528376542 
0.0001958465979662598 
0.0001526436828517912 
0.0001481697245248821 
0.0001285878008554261 
0.0001123106371556426 
7.202066599241359e-05 
5.355083485973841e-05 
5.67448962674735e-05 
2.582212447519663e-05 
3.466832069838052e-05 
1.706063429222881e-05 
3.178545763796808e-05 
1.751740711077444e-05 
1.978941663030923e-05 
1.222829779988045e-05 
1.169979492560691e-05 
-1.475713175145622e-06 
9.793367205190284e-06 
6.654195058383069e-06 
8.820206571551143e-07 
5.080423220620714e-06 
-1.092519239851807e-06 
-4.014913956077577e-06 
-4.425574830937512e-06 
-5.873161996437136e-06 
-6.692700610197248e-07 
-1.602258744389444e-06 
1.978715020809302e-06 
-5.95972534136596e-07 
1.808180235238996e-06 
2.610015565912248e-08 
-3.646115200013241e-06 
-4.741900599751855e-06 
-4.202022339049889e-06 
-6.077050682228806e-06 
-4.695255580460373e-06 
-5.099839442766849e-06 
-3.751931846122017e-06 
-5.192068058310029e-06 
-4.022667365572693e-06 
-3.457333767157656e-06 
-5.405803848546144e-06 
-5.620796569083929e-06 
-3.780382053458099e-06 
-4.076993608410635e-06 
-3.34526594103076e-06 
-4.301435179404815e-06 
-4.16238148328345e-06 
-3.897754362513157e-06 
-4.185910025631584e-06 
-3.403337273531586e-06 
-3.010316144196648e-06 
-3.289930090370253e-06 
-2.859616564305883e-06 
-2.197882614426135e-06 
-2.152369969576265e-06 
-2.17822763518151e-06 
-2.259205932222129e-06 
-2.39463473098288e-06 
-2.094903721447723e-06 
-1.480849350251487e-06 
-1.589184032327406e-06 
-2.008669690462502e-06 
-2.230870246853934e-06 
-2.060280055516507e-06 
-2.006249003383292e-06 
-2.175609272421976e-06 
-2.224251110409357e-06 
-2.304330860458509e-06 
-2.005311223589726e-06 
-1.702301756355754e-06 
-1.520538270185307e-06 
-1.562177445747509e-06 
-1.49319073326983e-06 
-1.958108387856216e-06 
-1.667514214266924e-06 
-1.582932999483026e-06 
-1.697223552356957e-06 
-1.690422353841359e-06 
-1.276818952010781e-06 
-1.750694046698542e-06 
-1.303899802688341e-06 
-1.063751248256208e-06 
-9.200494203608222e-07 
-9.829883954706194e-07 
-1.354543306602836e-06 
-1.308108827173403e-06 
-1.116803331624531e-06 
-1.208487446364761e-06 
-1.118811073479743e-06 
-1.017501984326121e-06 
-8.412676309032224e-07 
-7.270830872499522e-07 
-7.266270500733015e-07 
-8.224895887437772e-07 
-7.597727817573375e-07 
1.019610595652345e-19 
-5.929325040279438e-05 
