solver_type L2R_LR
nr_class 2
label 0 1
nr_feature 105
bias 1
w
0 
0.0001825419231500642 
0.0002607369279538436 
0.0003548016110542176 
-2.194716901429062e-06 
4.305580657669804e-05 
8.149519408969537e-05 
0.0001362597670872556 
0.0001028527256075205 
5.654022561814977e-05 
1.095767505133815e-05 
-2.163897128846194e-05 
-2.955498326063017e-05 
-4.211658092956317e-05 
-7.99414107850809e-06 
1.065733714050796e-05 
-1.587928607604325e-05 
-6.016895549649574e-06 
-5.490691077628744e-06 
-5.739602549713854e-07 
-2.484574071995617e-06 
-2.40306666002094e-05 
-1.571265347559678e-05 
-1.487081006977487e-05 
-2.309418442117066e-05 
-1.564012891911398e-05 
-8.274828593615801e-06 
-1.054309341035506e-05 
-8.402029424520522e-06 
-9.565939688329127e-06 
-1.736860092419454e-05 
-1.612684021055361e-05 
-1.504483188407541e-05 
-1.288247132025681e-05 
-1.508720598412964e-05 
-1.32012963720581e-05 
-1.322431131383464e-05 
-1.411969245841764e-05 
-1.307393840583885e-05 
-1.046707451052333e-05 
-1.216403318344505e-05 
-9.475952876696665e-06 
-9.012896363849667e-06 
-6.894941035199187e-06 
-5.827973734359123e-06 
-4.302047168545714e-06 
-3.218051701950013e-06 
-3.215018204013089e-06 
-3.595828790392975e-06 
-1.059439216052586e-06 
-1.998840378754893e-06 
-1.796040654780181e-06 
-1.070570002139148e-06 
-4.119455527004083e-07 
-1.093746333041923e-06 
-7.823926428931988e-07 
-1.833862178369136e-06 
-2.339064915794055e-06 
-1.859667065352728e-06 
-2.28030198973268e-06 
-1.805724756411594e-06 
-1.586716057038762e-06 
-2.081589200207094e-06 
-1.582273577371163e-06 
-1.425551883944467e-06 
-1.549622194774893e-06 
-1.459475753181318e-06 
-1.250138744652146e-06 
-7.442952761636616e-07 
-6.15641677464657e-07 
-6.57198364285696e-07 
-4.691067858769557e-07 
-1.016671901229896e-06 
-9.235604144901115e-07 
-5.743758220396807e-07 
-5.717268656713996e-07 
-9.108570066664137e-07 
-8.960578086403149e-07 
-1.00607849183703e-06 
-9.791575023334391e-07 
-1.337090710706128e-06 
-1.274014819469009e-06 
-9.461768299797786e-07 
-1.028663858084094e-06 
-6.122012096158149e-07 
-5.497142292967584e-07 
-7.636457659063403e-07 
-5.034644243235737e-07 
-5.968741513583731e-07 
-5.93522968345505e-07 
-4.254224852702371e-07 
-6.823189320368035e-07 
-7.775650380109752e-07 
-6.158114633117383e-07 
-4.168828201660501e-07 
-4.378712483694035e-07 
-1.728965290489489e-07 
-1.828107637673456e-07 
-3.001901529988185e-07 
-1.811068179579411e-07 
-4.584262121487245e-07 
-2.834875427569524e-07 
-3.230832928267232e-07 
-9.644692660072676e-08 
-4.21260748938323e-20 
-1.245923630143144e-05 
