solver_type L2R_LR
nr_class 2
label 0 1
nr_feature 105
bias 1
w
0 
-0.001502550286325657 
-0.001552219270669672 
-0.001045528901112426 
-0.0002427428913341397 
-0.0002184403441638765 
-0.0001650183321666993 
-4.925048170048522e-05 
-0.0001015379631907746 
-4.095554051551858e-05 
4.028459563874176e-05 
2.397917621648025e-05 
7.355835437645961e-06 
-1.585748716320121e-05 
1.077832897471667e-05 
1.896660251185769e-06 
-3.34633544860288e-06 
-2.033869769774094e-05 
-1.131140377848465e-05 
1.542093524974809e-06 
-7.098369616866364e-06 
-3.841188179705995e-06 
-4.87939664373778e-06 
2.585597878813949e-06 
-2.113469646704508e-07 
-3.648391669497553e-06 
-5.641679379303416e-06 
-6.0187774279511e-06 
-6.79142652976018e-06 
-4.370809608264935e-06 
-4.181436449578363e-06 
-1.017518295900098e-05 
-1.192014267810733e-05 
-7.882407349353591e-06 
-7.867348639749516e-06 
-8.204322304882247e-06 
-3.578918456091552e-06 
-4.198995465283317e-06 
-4.275567002726943e-06 
-3.910501543137676e-06 
-3.543131817960624e-06 
-3.39867043774084e-06 
-3.462409510999339e-06 
-7.604022353761876e-07 
-9.58931698304545e-07 
-2.028172445489177e-06 
-3.105649228239798e-07 
-2.69032397968222e-07 
-7.188432462391786e-07 
-1.262628721869532e-07 
-9.447896192276434e-07 
-9.687153274453851e-07 
-1.136414552926233e-06 
-7.531383569037637e-09 
-4.373796992879121e-07 
-1.14991114969955e-06 
-4.412456040546463e-07 
-1.765151203782069e-07 
-5.972558813232745e-07 
-5.296344699925817e-07 
-4.02164835608372e-07 
2.806357890412145e-07 
1.876428783868546e-07 
6.903124002011181e-07 
6.333418547301388e-07 
7.98229074635347e-07 
2.623198902729517e-07 
1.032707417393958e-06 
7.468237059598769e-07 
1.396996865819485e-06 
1.422966841789827e-06 
1.640156091589611e-06 
1.222676347012929e-06 
1.405120238919839e-06 
1.522829335030998e-06 
1.802907980230911e-06 
1.570111085868876e-06 
1.520821324510687e-06 
1.430721995114664e-06 
1.647706382260951e-06 
1.48623309028501e-06 
1.589857119447782e-06 
1.571733048929358e-06 
1.742436552689946e-06 
1.643300612164033e-06 
1.630170313588093e-06 
1.610885736947686e-06 
1.750669501631655e-06 
1.573180808994752e-06 
1.516628960255659e-06 
1.685017004861892e-06 
1.473131959757846e-06 
1.52948042892465e-06 
1.482245062734866e-06 
1.637169060626715e-06 
1.534902946037587e-06 
1.465304296384638e-06 
1.484576199004421e-06 
1.39605285683393e-06 
1.444475663299758e-06 
1.058766887411525e-06 
1.091025649902704e-06 
1.003013204726512e-06 
1.064673961825691e-06 
1.798293550723841e-19 
6.063030903050855e-05 
