solver_type L2R_LR
nr_class 2
label 0 1
nr_feature 105
bias 1
w
0 
0.000915226777670395 
0.002067193465536857 
0.001352759679414928 
0.0004958617778181888 
0.000542429452768041 
0.0003873372836081185 
0.0004186341329787957 
0.0003699612522795949 
0.0003448238200063552 
0.0002995691451648999 
0.0002894727086424462 
0.0002517873713979505 
0.0001858414365445132 
0.0001834301997222071 
0.0001601244013700192 
0.0001465315649742372 
0.0001352925154795217 
0.0001202554950704273 
0.0001178412658717525 
9.891034445816662e-05 
7.880461354149333e-05 
7.137464976568108e-05 
6.557554165041614e-05 
5.082198097414001e-05 
5.078204923511753e-05 
4.03586237632404e-05 
3.308468214700239e-05 
3.39930812517934e-05 
3.091511609021994e-05 
2.752174476928281e-05 
2.127280653655451e-05 
1.282269460331081e-05 
1.356297620482553e-05 
1.051493600379498e-05 
1.154201906757548e-05 
1.064798545940628e-05 
1.58254559662252e-05 
1.358445407906279e-05 
9.269217080506013e-06 
7.697236896975719e-06 
5.486887958545045e-06 
4.548852104029592e-06 
5.397049204617303e-06 
4.429782612939119e-06 
5.153711598149184e-06 
6.113913529249089e-06 
5.201949202703821e-06 
5.43288630605419e-06 
3.890393381737295e-06 
3.814635973314822e-06 
4.508556287336336e-06 
4.845241362753074e-06 
3.897884037307725e-06 
3.307437684004456e-06 
2.480537876656786e-06 
2.284592472417053e-06 
3.287920325351378e-06 
2.77905533225083e-06 
2.981762101028635e-06 
3.04528644568462e-06 
3.047780792598718e-06 
2.199907028340667e-06 
1.349223447144368e-06 
1.352380635838824e-06 
1.312302326923413e-06 
5.643184890597748e-07 
3.711770506557722e-07 
8.19722149470901e-07 
8.300902250637491e-07 
4.478520586640429e-07 
6.805469485341177e-08 
2.83342235592303e-07 
-9.565744477149165e-08 
-3.233210639273839e-07 
-6.283839514201685e-07 
-5.91539322957545e-07 
-4.445305208508451e-07 
-2.274248506068727e-07 
-3.936753071126681e-07 
-7.04014950176264e-07 
-9.416581040604011e-07 
-8.936183877493342e-07 
-8.16385189832566e-07 
-9.041581478899447e-07 
-7.481231497498645e-07 
-9.029076763137377e-07 
-7.209017321893534e-07 
-1.004245333836274e-06 
-7.414536443084754e-07 
-5.990962846353772e-07 
-4.351368874007351e-07 
-6.743296640325171e-07 
-8.61519746726433e-07 
-8.528705281715306e-07 
-8.631266382221471e-07 
-1.145703030417946e-06 
-1.124214672021223e-06 
-9.780687578041556e-07 
-8.454716553733054e-07 
-9.903275993368581e-07 
-9.516135848239058e-07 
-8.118621933629453e-07 
-8.162675017448089e-07 
7.888867645426027e-20 
-0.0001027129479149878 
