solver_type L2R_LR
nr_class 2
label 0 1
nr_feature 105
bias 1
w
0 
-3.068847123311168e-05 
-0.0006635989874448136 
-0.000298034233600661 
0.0003497282165427439 
0.0002334361471992677 
0.0002427243616185336 
0.0002758188664755908 
0.0002586270683516051 
0.0002006010467995786 
0.0001891253225848392 
0.0001491370783607948 
0.0001522914958144022 
0.0001124056775575197 
0.0001179340674968014 
0.000111035536068127 
9.854414688067986e-05 
6.256693097132402e-05 
7.005539160211005e-05 
6.535743598304377e-05 
6.062305315708544e-05 
6.361161259309702e-05 
5.847461155384383e-05 
7.302263870422028e-05 
6.784923033329552e-05 
5.926422376571893e-05 
6.441331390112364e-05 
6.98422374847385e-05 
7.029154575765411e-05 
6.67052834058356e-05 
6.507012666454188e-05 
5.651624085474806e-05 
5.656053847268493e-05 
5.394423330571104e-05 
5.544786396423214e-05 
5.485921142487583e-05 
5.426129767465142e-05 
5.043672687538789e-05 
5.170924091700639e-05 
5.082168283783544e-05 
4.723158449519733e-05 
4.212042882396689e-05 
3.949416796924843e-05 
3.440023657839453e-05 
3.429385413087876e-05 
3.241305048111714e-05 
2.970034687134088e-05 
2.855148227795392e-05 
2.565772113154784e-05 
2.394184132556227e-05 
2.104905463256257e-05 
1.914567853158748e-05 
1.909356176576685e-05 
1.991920814337451e-05 
1.842179695981427e-05 
1.638634932183115e-05 
1.529691558744528e-05 
1.452313385985461e-05 
1.445904517521786e-05 
1.397748426029991e-05 
1.30366309029729e-05 
1.145313640805939e-05 
1.049426357630253e-05 
1.064882834785152e-05 
1.039369397106237e-05 
1.005968980297928e-05 
9.515319622101505e-06 
8.886217451996091e-06 
8.161218917661732e-06 
8.165750048669446e-06 
7.601104357065893e-06 
7.352703034193332e-06 
7.240693937887025e-06 
6.551670737535148e-06 
6.07399206385031e-06 
5.644244084305734e-06 
5.227337769104919e-06 
4.802591727540663e-06 
4.274752125010818e-06 
4.145998281730996e-06 
4.002555114578687e-06 
3.812069544069031e-06 
3.654649676141103e-06 
3.280350738995217e-06 
2.998062375171217e-06 
2.725786743649616e-06 
2.45058723744183e-06 
1.980881452929649e-06 
1.854552366311344e-06 
1.992846857475444e-06 
1.965256545133576e-06 
1.806453806011981e-06 
1.628409481911868e-06 
1.599390896285385e-06 
1.538052094286555e-06 
1.435071897895401e-06 
9.301858077154195e-07 
9.79269037776849e-07 
9.7661663536777e-07 
7.373733571175895e-07 
5.744666406173593e-07 
5.185112475826024e-07 
6.195796068170292e-07 
4.182615136773451e-07 
4.009060451095491e-19 
-2.858058419158882e-06 
