solver_type L2R_LR
nr_class 2
label 0 1
nr_feature 105
bias 1
w
0 
-0.0006443059132889316 
-0.0007517276844835744 
-0.0007925639062118857 
-0.0003872571668959984 
-0.0003731073422879794 
-0.0002984059970925092 
-0.0002797826785453842 
-0.0002861791315568972 
-0.0002228883870174038 
-0.0001590741262093348 
-0.0001031285544776728 
-0.0001146443013625632 
-0.0001031543434835533 
-8.153684944101753e-05 
-8.30005738796554e-05 
-7.891274333851052e-05 
-7.074662305185261e-05 
-7.286151306824692e-05 
-7.844787277975862e-05 
-5.280338928975809e-05 
-5.715702139896686e-05 
-4.338980882656618e-05 
-4.580406812358895e-05 
-4.169443660553426e-05 
-4.150882666737055e-05 
-3.49154377010998e-05 
-3.090541780725731e-05 
-2.419345075075877e-05 
-2.598539374139633e-05 
-2.584060353145145e-05 
-1.868633640615664e-05 
-1.770131511804367e-05 
-1.338803493731274e-05 
-7.461142271197893e-06 
-1.128314919381146e-05 
-1.061778731483741e-05 
-1.163854732380825e-05 
-1.203074666759353e-05 
-1.191978008640828e-05 
-8.862985061230116e-06 
-1.109134079929603e-05 
-1.172182785502894e-05 
-1.038931739044403e-05 
-5.602527509426682e-06 
-6.145608377204467e-06 
-5.703915470866965e-06 
-3.536497398852019e-06 
-2.737231107506468e-06 
-3.175334836124186e-06 
-2.768032100891849e-06 
-1.986695436030973e-06 
-1.831602941590989e-06 
-2.330623956906002e-06 
-8.51232858799441e-07 
-9.077089381089488e-07 
-1.350961240054713e-06 
-2.350140200523083e-06 
-1.126424251843164e-06 
-6.443469711642486e-07 
-7.341475882745307e-07 
-5.76327841087698e-07 
-6.310958420867868e-08 
6.193306716282821e-07 
-2.973119734222622e-07 
-1.675666906523765e-07 
2.652562726303563e-07 
-1.303796341211574e-08 
-1.065320754291804e-07 
-5.388976944778543e-07 
-6.381164933233786e-07 
-7.002162195633478e-07 
-3.123801435959476e-07 
-2.518800282098431e-07 
-3.01080870444859e-07 
2.529057488669081e-08 
8.5978625545321e-09 
3.573296762991846e-07 
3.01399852597112e-07 
2.348798387083806e-07 
3.186223660817878e-07 
5.770649731518068e-07 
5.29442320837599e-07 
3.344140676020343e-07 
2.854196115840806e-07 
5.991919709292902e-07 
5.440026655775823e-07 
4.681191481849061e-07 
5.214607026111842e-07 
3.737704699796172e-07 
4.607182603467014e-07 
4.570259169602698e-07 
4.254612263185163e-07 
5.203671270728678e-07 
5.026844353038518e-07 
4.541888916106138e-07 
4.099589288532317e-07 
5.942913682158374e-08 
1.82138815173705e-07 
2.230201382889655e-07 
3.336074446487014e-07 
3.190590524446258e-07 
4.850654092271835e-07 
5.48970216314955e-07 
-1.277684144892418e-20 
5.683614336312725e-05 
