solver_type L2R_LR
nr_class 2
label 0 1
nr_feature 105
bias 1
w
0 
-0.0005892376243898709 
-0.0004365032854165034 
-0.0005410842135339987 
-0.0002188457756573695 
-0.000283265016595892 
-0.0002275536523872092 
-0.0001932191420175248 
-0.0001644106668703879 
-9.332614014951167e-05 
-9.573457067736833e-05 
-5.898846035852033e-05 
-7.047055126679383e-05 
-5.464396359308388e-05 
-4.208833594685047e-05 
-5.066954148251564e-05 
-3.660454128869089e-05 
-6.104407832284199e-05 
-6.979351045677678e-05 
-7.279089588219089e-05 
-6.743116007318152e-05 
-7.076098724908433e-05 
-5.639298255630839e-05 
-6.024208382392265e-05 
-5.486235755126375e-05 
-4.240902377978992e-05 
-5.052108929270376e-05 
-5.718772188958579e-05 
-4.481850304816862e-05 
-4.752632629359589e-05 
-4.34526031072781e-05 
-3.468411946537402e-05 
-3.569907401423204e-05 
-3.743419606135605e-05 
-4.010506531155945e-05 
-3.596339467091208e-05 
-3.954499637565641e-05 
-3.740121479727846e-05 
-3.809707815803623e-05 
-3.365841204284181e-05 
-3.2230989718112e-05 
-3.088602145375749e-05 
-2.938882477798291e-05 
-3.046189475271767e-05 
-2.540135260852642e-05 
-2.285414904658161e-05 
-2.353049753049803e-05 
-2.138360527022198e-05 
-2.002310931736215e-05 
-2.07654045520219e-05 
-1.688976209513627e-05 
-1.663672536476178e-05 
-1.414962527131177e-05 
-1.382777616327934e-05 
-1.257720000129652e-05 
-1.048193945527655e-05 
-1.058818718029353e-05 
-1.012478854481478e-05 
-9.266977320452573e-06 
-8.935968336484615e-06 
-8.292297176222957e-06 
-8.580060704729389e-06 
-7.67822899092772e-06 
-8.196027839880611e-06 
-6.818059767808027e-06 
-7.043243183834905e-06 
-6.577513163542254e-06 
-6.142636114123008e-06 
-5.192171930848878e-06 
-5.302452424333938e-06 
-5.452524380768727e-06 
-4.620664906146447e-06 
-4.13381670403967e-06 
-3.818152977487765e-06 
-3.441946902391525e-06 
-2.887637224961553e-06 
-2.917513425530449e-06 
-2.865017617479366e-06 
-2.428122682655097e-06 
-2.796006102894547e-06 
-2.077471311825711e-06 
-2.178086266765724e-06 
-1.830191717685207e-06 
-1.68025535275664e-06 
-1.692950422837077e-06 
-1.757760083351224e-06 
-1.582612445502722e-06 
-1.534643948085823e-06 
-1.172189006997902e-06 
-1.170789151449948e-06 
-1.126068216121513e-06 
-9.348532973887044e-07 
-1.081093721872677e-06 
-7.120682609562626e-07 
-6.292172889377796e-07 
-7.111511042392741e-07 
-5.856608504536502e-07 
-4.30030968230036e-07 
-4.083420522563625e-07 
-3.918559358455102e-07 
-2.432554900749218e-07 
-1.890006320458431e-07 
-5.905154548431522e-08 
3.125360110100139e-08 
4.443771999017286e-20 
4.274149345821129e-05 
