solver_type L2R_LR
nr_class 2
label 0 1
nr_feature 105
bias 1
w
0 
0.001386934119940783 
0.001262831792381659 
0.001009586467966734 
0.0004847865707195645 
0.0004346991487615928 
0.0002586004134221467 
0.0003375803056332177 
0.0002730347772709965 
0.000250746917086261 
0.00019327115850918 
0.0001959486625671223 
0.0001833095502557554 
0.0001143678312533835 
0.0001169513258772349 
0.0001025033430670452 
0.0001157991897275436 
9.433403810061628e-05 
8.489401839645546e-05 
9.026094835278884e-05 
7.712913124985647e-05 
5.843797277334231e-05 
5.71778067268744e-05 
5.880333358063263e-05 
5.650742752779238e-05 
4.911095715984213e-05 
4.12016057153481e-05 
4.699593906687839e-05 
5.105450472638389e-05 
4.948692012877805e-05 
4.856412740781351e-05 
3.588104874527922e-05 
2.844085524357616e-05 
2.823840503807995e-05 
2.712682004724833e-05 
2.74076637124955e-05 
2.735651146100211e-05 
2.756954121459086e-05 
2.955286084642397e-05 
2.684676804649443e-05 
2.257227699436089e-05 
2.053865029345204e-05 
1.824736499333212e-05 
1.700642424211773e-05 
1.504280035916021e-05 
1.422013271489958e-05 
1.497813406649897e-05 
1.306212834711854e-05 
1.165907604758621e-05 
1.008368730810526e-05 
8.817165527949524e-06 
7.762461550034435e-06 
8.388371857728571e-06 
8.707768196941968e-06 
7.276013223850497e-06 
5.938359058856876e-06 
6.092100411303306e-06 
6.523409414148085e-06 
5.995432403952661e-06 
5.48979361552906e-06 
5.787340758186332e-06 
4.772999367315297e-06 
4.023060244062951e-06 
3.518464631083338e-06 
3.550381038035047e-06 
3.076153195508732e-06 
2.666432546463631e-06 
2.279852123063265e-06 
2.101994996177652e-06 
2.471215595817915e-06 
2.257541942613443e-06 
1.866850062492101e-06 
2.021860127411768e-06 
1.374096021212499e-06 
1.185522462362123e-06 
8.006322993315449e-07 
6.486091525951806e-07 
5.558910516369328e-07 
6.749665426771474e-07 
5.244226357961724e-07 
3.028491025191002e-07 
1.4654844468262e-07 
5.679344226416122e-07 
4.520041562123551e-07 
1.743055322221241e-07 
3.03447902907398e-07 
-3.738162140704418e-09 
-1.152261621130868e-07 
-3.648938583952012e-07 
-2.350679335810375e-07 
-2.320175359989335e-07 
-7.290306292555313e-08 
-2.915173426897007e-07 
-3.276664208477567e-07 
-3.346451549642105e-07 
-4.189967862831076e-07 
-8.309634325643757e-07 
-6.871918234135703e-07 
-5.747917260815253e-07 
-5.527148331449502e-07 
-5.665855587127933e-07 
-6.275679256607142e-07 
-4.446833988407713e-07 
-5.343941967436595e-07 
7.146420097645067e-20 
-9.153615458030724e-05 
