solver_type L2R_LR
nr_class 2
label 0 1
nr_feature 105
bias 1
w
0 
0.0006467067844708044 
0.0006121875428019721 
0.0001642063277549273 
-0.0002328295726423229 
-0.0002905691791611065 
-0.0003582586460844884 
-0.0003464999022139337 
-0.0003116855512355329 
-0.0002695312864749066 
-0.0002613201162857329 
-0.0002143182687594999 
-0.0002281866321327109 
-0.0002017259796136289 
-0.0001957804045930931 
-0.000182035278810446 
-0.00017404788268527 
-0.0001731183602394431 
-0.000181389505299099 
-0.0001567165678171528 
-0.0001525211254953945 
-0.000139397472047202 
-0.0001143347277281899 
-0.0001233110441345482 
-0.0001156613919680373 
-0.0001094482921467194 
-0.0001035876236291992 
-0.0001118105164335841 
-8.388928910079167e-05 
-8.663497931171524e-05 
-8.761405901609044e-05 
-8.104878630797231e-05 
-7.749229101353506e-05 
-7.095418291254595e-05 
-6.948670450957983e-05 
-6.551031032271262e-05 
-6.90945479702181e-05 
-6.399307839930397e-05 
-6.355050461778977e-05 
-6.292760220437547e-05 
-6.078846894028407e-05 
-5.596696026447334e-05 
-5.358742460762173e-05 
-5.185073434851559e-05 
-4.506840409992579e-05 
-4.394531599568106e-05 
-4.457570424591302e-05 
-4.226153361545975e-05 
-4.021937986531896e-05 
-4.025183538282133e-05 
-3.536112584750774e-05 
-3.328705747602879e-05 
-3.177603334201414e-05 
-2.992392421794259e-05 
-2.943572764257885e-05 
-2.661324035634128e-05 
-2.560727054362527e-05 
-2.529242015971324e-05 
-2.356650349395144e-05 
-2.227939096366062e-05 
-2.038216566097192e-05 
-2.003401804218953e-05 
-1.781995750861568e-05 
-1.72870499904399e-05 
-1.595816479942824e-05 
-1.606499608211591e-05 
-1.510605098527523e-05 
-1.402662951555312e-05 
-1.234035317727753e-05 
-1.231030742289965e-05 
-1.193624058758151e-05 
-1.150691767019369e-05 
-1.070862006214462e-05 
-1.014336559541238e-05 
-9.65932829029466e-06 
-8.231009449757471e-06 
-8.321625535849819e-06 
-7.979722665904863e-06 
-7.228015729508525e-06 
-7.136846337140838e-06 
-6.556590693002911e-06 
-6.003540925533357e-06 
-5.853706964547154e-06 
-5.270796174326415e-06 
-5.059551860671053e-06 
-5.19851458478157e-06 
-4.743705886880334e-06 
-4.151647592802933e-06 
-4.100265361816442e-06 
-3.833031834154608e-06 
-3.552182284285941e-06 
-3.394615082596868e-06 
-3.246746267978877e-06 
-3.026850285468816e-06 
-2.637560845328581e-06 
-2.600860977604564e-06 
-2.507453283738244e-06 
-2.097688084827855e-06 
-1.960232858168486e-06 
-1.674701026807457e-06 
-1.242946315287586e-06 
-1.184817613524346e-06 
-1.174503813422221e-06 
-9.089172849497967e-07 
-3.547801995372711e-19 
-2.874187013540743e-06 
