solver_type L2R_LR
nr_class 2
label 0 1
nr_feature 105
bias 1
w
0 
0.0002120131638841039 
3.259493618248779e-05 
-0.0004891247405188053 
-0.0001968873629873018 
-0.000286894540856866 
-0.0002771241980784146 
-0.000259277158150111 
-0.000200745314221204 
-0.0002219341479260335 
-0.000168646222664848 
-0.000224758995242384 
-0.0002117686673746461 
-0.0001678377391757858 
-0.0001881852511742084 
-0.0001723411261848445 
-0.0001621111511086462 
-0.0001456885428897042 
-0.0001234666917492083 
-0.0001180574643478272 
-0.0001134535605180088 
-0.0001010499015430822 
-9.409987680173517e-05 
-7.830977782689291e-05 
-7.57822497170873e-05 
-8.013081515091498e-05 
-8.766655590469462e-05 
-6.881177959658156e-05 
-7.014750395929143e-05 
-5.825405200020487e-05 
-5.200083428959447e-05 
-4.818794547601914e-05 
-4.528236457580925e-05 
-4.271146720675612e-05 
-3.736720467349336e-05 
-3.668210027968572e-05 
-3.561393254644522e-05 
-3.377318181776546e-05 
-3.283587180773251e-05 
-2.981148021282756e-05 
-2.69831897309479e-05 
-2.807580920781867e-05 
-2.652767231890045e-05 
-2.602176230105262e-05 
-2.3462204744696e-05 
-2.063281916648055e-05 
-2.170756755666332e-05 
-2.009282032786143e-05 
-2.053213675609004e-05 
-2.072065035936017e-05 
-1.762809190020884e-05 
-1.651330085713162e-05 
-1.549408382839935e-05 
-1.430935220415829e-05 
-1.295971820321466e-05 
-1.240264137992025e-05 
-1.094593450993207e-05 
-1.150883103990248e-05 
-1.133831995934311e-05 
-1.119683171802311e-05 
-1.026334888500282e-05 
-9.037297504135927e-06 
-8.610282014329609e-06 
-7.471193028545251e-06 
-7.017712503159092e-06 
-7.545278695264787e-06 
-6.255932320158316e-06 
-5.34980523282173e-06 
-5.250403118835242e-06 
-5.512541559464824e-06 
-4.882564093972916e-06 
-4.468201059914721e-06 
-4.175877034024974e-06 
-4.164972872376722e-06 
-3.591491353943426e-06 
-3.529263478111304e-06 
-3.309131765845376e-06 
-3.043212242167855e-06 
-2.905609564104965e-06 
-2.778575348588789e-06 
-2.679529825898414e-06 
-2.509134169405115e-06 
-2.409515835611069e-06 
-2.43146978837584e-06 
-2.151613283183329e-06 
-2.246441060000275e-06 
-1.869520970132228e-06 
-1.55300215798585e-06 
-1.603647831628332e-06 
-1.544239744870277e-06 
-1.354785063823669e-06 
-1.315643566228981e-06 
-1.185321163514294e-06 
-1.256331879207696e-06 
-1.152453446026424e-06 
-8.566288617244006e-07 
-7.335856373336663e-07 
-5.947701390537962e-07 
-4.497878878525613e-07 
-5.501730154083905e-07 
-4.408690144237997e-07 
-4.981941607882383e-07 
-4.834300212478938e-07 
-4.334313423316404e-07 
-2.578171612833398e-19 
2.193670172651041e-05 
