solver_type L2R_LR
nr_class 2
label 0 1
nr_feature 105
bias 1
w
0 
0.0009331564478864339 
0.0007391423511025699 
0.0002113749490963397 
1.447019613632078e-05 
3.360009437386319e-05 
-5.36629902150064e-05 
-4.176374713075735e-05 
-1.489499881116494e-05 
-7.870041388176816e-05 
-4.925742970194588e-05 
-5.746309204206501e-05 
-3.577511619170612e-06 
-1.275276156242937e-05 
-1.864703783457204e-05 
-1.554294435994424e-05 
-2.560981757208225e-05 
-2.189388348084267e-05 
-3.098113459500231e-05 
-3.456524607030231e-05 
-2.637377069452749e-05 
-1.98681533756651e-05 
-2.268753318197936e-05 
-2.189827015786501e-05 
-2.219910441020154e-05 
-2.358625971164264e-05 
-2.170445046989902e-05 
-2.177749997485657e-05 
-1.730938625267037e-05 
-1.81938624135626e-05 
-2.479651141001385e-05 
-2.086734573025255e-05 
-2.329380838538242e-05 
-2.738260292162462e-05 
-2.315693987762175e-05 
-1.979717546330002e-05 
-1.891180019948796e-05 
-1.864595961468802e-05 
-1.642195302418108e-05 
-1.667359508344211e-05 
-1.448264822727827e-05 
-1.339460595414017e-05 
-1.030428854153305e-05 
-1.282123563159514e-05 
-1.376231616931659e-05 
-1.055428953253452e-05 
-1.177199244941085e-05 
-1.117913581923127e-05 
-1.055896481329348e-05 
-7.979985388970886e-06 
-7.973345232830795e-06 
-8.484043619478488e-06 
-8.37866535703976e-06 
-7.578223366380047e-06 
-7.649786092392003e-06 
-7.759816920141738e-06 
-7.239757891003942e-06 
-5.77325509421494e-06 
-4.999738835330539e-06 
-5.252071241028519e-06 
-5.058028224840013e-06 
-4.685417665360678e-06 
-4.986988015707757e-06 
-4.800878817353145e-06 
-5.365986496347069e-06 
-4.795902005638253e-06 
-5.14111041023216e-06 
-4.786604117164598e-06 
-3.889685527323668e-06 
-3.905115284800143e-06 
-3.792878137295539e-06 
-3.694715888144472e-06 
-3.586761211531082e-06 
-3.043081438313236e-06 
-2.691247577307437e-06 
-3.035672099566804e-06 
-3.128216858868776e-06 
-2.80916635285837e-06 
-2.614288725426726e-06 
-2.242647387828022e-06 
-2.049465969005041e-06 
-2.205461205890285e-06 
-1.838241134060648e-06 
-1.978445388255074e-06 
-1.709713633913743e-06 
-1.209634749571926e-06 
-1.449956823697472e-06 
-1.472313825239682e-06 
-1.457176550071111e-06 
-1.157794371555042e-06 
-1.073392403900208e-06 
-1.094671525716062e-06 
-8.273838548635467e-07 
-9.176361266484608e-07 
-7.631945273459588e-07 
-9.232355036678635e-07 
-7.797765090369119e-07 
-6.702008152615486e-07 
-4.589460568123224e-07 
-7.698558022954813e-07 
-5.827592366507912e-07 
-7.582234502848387e-07 
-6.049128301228005e-07 
-5.060323742615752e-07 
-1.114428383221265e-19 
-3.416251824555892e-05 
