solver_type L2R_LR
nr_class 2
label 0 1
nr_feature 105
bias 1
w
0 
0.0005185576767019163 
0.0005696803518039255 
0.0006262582338759862 
0.0003457700973842668 
0.000395421229482606 
0.0002369684759860876 
0.0002014926226365114 
0.0001807278367919101 
0.0001838021748516651 
0.0001804036412820861 
0.000234569841647372 
0.0001952254300948257 
0.0001618568122155306 
0.0001318815318060029 
0.0001289865216369474 
9.767649093838442e-05 
0.0001057971480233632 
9.654983359636603e-05 
7.535721519526985e-05 
8.254007630205984e-05 
7.569505298711174e-05 
6.436544168580482e-05 
5.0443535860184e-05 
5.334280280456881e-05 
4.321223073111154e-05 
3.625459170554731e-05 
3.563416373788297e-05 
2.60308533116335e-05 
3.310408421717113e-05 
2.827029540833991e-05 
2.907417229209954e-05 
2.810693534052665e-05 
2.649892098854443e-05 
1.671486990668007e-05 
2.019576469936554e-05 
1.913049305815393e-05 
1.507736935233956e-05 
1.190540733041353e-05 
1.220440378250019e-05 
1.201932729436017e-05 
8.437150128949503e-06 
1.057852269966925e-05 
1.280533119260652e-05 
1.21741084489119e-05 
1.022125791764047e-05 
8.921431983106638e-06 
1.06457997746707e-05 
9.862127141813302e-06 
6.860998786783676e-06 
6.773680250118415e-06 
6.537359768554712e-06 
4.494167913894836e-06 
5.05122885233909e-06 
4.622651232726316e-06 
3.951963105144057e-06 
3.343207143303891e-06 
3.235613490510381e-06 
2.946430221606828e-06 
2.763609686987751e-06 
2.290055044621196e-06 
2.170038623693597e-06 
2.693482812072194e-06 
1.902837301611149e-06 
2.040913237130938e-06 
2.63666064114797e-06 
2.144518546858564e-06 
2.188854306945461e-06 
1.881538259021981e-06 
1.964073368698739e-06 
1.621261533114681e-06 
1.313417059268929e-06 
1.400447954856528e-06 
1.274806212566402e-06 
1.188738687981674e-06 
1.596568626874407e-06 
8.047811098627913e-07 
1.335877631652595e-06 
1.117747049098531e-06 
8.522359957075289e-07 
7.471805531101778e-07 
7.261762944775554e-07 
7.524942082577522e-07 
7.079468445642723e-07 
8.152602322018249e-07 
6.465446210917702e-07 
8.295571771337968e-07 
7.067785051095496e-07 
8.785219882512719e-07 
7.442978927823235e-07 
6.498783570539826e-07 
2.319300901565639e-07 
1.86744350499773e-07 
7.910560300882354e-08 
1.00416547644373e-07 
-5.222122757231159e-08 
-6.699219277367155e-08 
-3.271067814685256e-08 
1.179562303179166e-07 
-5.211226032001205e-09 
-2.543116503950826e-07 
-1.077309822672602e-07 
-2.451430183060019e-07 
-1.581713599718001e-07 
6.476593953385274e-20 
-4.979482128457858e-05 
