solver_type L2R_LR
nr_class 2
label 0 1
nr_feature 105
bias 1
w
0 
0.0003330769578493104 
4.189040835710748e-06 
0.000119634687708046 
9.422592593176304e-05 
9.621374158531568e-05 
6.231956240190144e-05 
4.938639728424733e-05 
5.392752045001279e-05 
-2.412797507850555e-05 
-1.978012434723423e-05 
-1.707723479192596e-05 
-4.029853380711022e-05 
-2.563098419265889e-05 
2.865684182923833e-06 
-1.902595792445577e-06 
-2.414567802345484e-05 
-2.882611259531664e-05 
-2.791316920566307e-05 
-1.896956904801977e-05 
-2.170850177730396e-05 
-8.072970332570327e-07 
-6.853729673759652e-06 
-1.568831190884963e-05 
-3.846130291832595e-06 
4.745406968673723e-06 
3.427386682682182e-06 
1.703681492111365e-06 
6.400056883599241e-06 
9.102636541149706e-06 
3.982210986529333e-06 
3.443491290513132e-06 
7.495783480453406e-07 
3.148743229341471e-06 
6.889788784059821e-06 
9.584733185112263e-06 
6.735615382390611e-06 
7.728479535637794e-06 
6.692511481477479e-06 
5.563382376626861e-06 
5.783544552343291e-06 
4.455028284157875e-06 
3.927657370707979e-06 
6.819483233665449e-06 
3.961388222415301e-06 
5.083770868426257e-06 
5.661221759145895e-06 
4.52010719908533e-06 
7.70513830231557e-06 
5.467299089613007e-06 
3.126643662444042e-06 
3.822023485933287e-06 
3.875222652651965e-06 
4.417423543685514e-06 
3.506335063273324e-06 
3.607622804743371e-06 
4.901436139982851e-06 
4.375339553386199e-06 
2.420982996148309e-06 
2.886263688504079e-06 
2.739729965289124e-06 
2.809006637647094e-06 
2.77354155018496e-06 
2.214255923862618e-06 
1.896780953710573e-06 
1.949211476321488e-06 
1.737631698125131e-06 
1.109442839504479e-06 
1.074002231687969e-06 
1.173485963884575e-06 
1.304867091210021e-06 
1.722117016112091e-06 
1.345951176184231e-06 
9.904510400713195e-07 
1.189057328674678e-06 
7.211177084329643e-07 
8.608454963307736e-07 
6.982944841502521e-07 
6.059717931214886e-07 
4.540050715800279e-07 
2.852686048196678e-07 
6.183399869801794e-07 
2.982154703247966e-07 
4.214097253178219e-07 
1.57537818649097e-07 
3.081538620360746e-07 
4.025593436895474e-07 
2.27560459076267e-07 
-5.136497951195158e-08 
1.288587636738471e-07 
2.024081544504815e-07 
1.972996343498648e-07 
1.470146453775752e-07 
-4.632085932130089e-08 
9.048479860656665e-08 
-9.625206628059344e-08 
-2.613896924002912e-07 
-3.932245153382781e-08 
-1.074338826541355e-07 
-2.77415374530501e-07 
-3.096145219626232e-07 
-2.140747810384257e-07 
-1.82078860266301e-07 
-2.661544036487946e-07 
3.952603343846797e-20 
-9.211440319873074e-06 
