solver_type L2R_LR
nr_class 2
label 0 1
nr_feature 105
bias 1
w
0 
0.0009623926776520258 
0.0005963443274505507 
0.000286065561216972 
-2.24639810478103e-05 
6.557454332101918e-05 
-6.021098287500287e-05 
-4.099437726762362e-05 
-1.198538943171201e-05 
-4.242713462510199e-05 
-8.90772899989616e-05 
-5.674748804385757e-05 
-3.8631374883835e-05 
-1.427130789750912e-05 
-3.605817996156131e-05 
-3.322742428313045e-05 
-2.5199116883101e-05 
1.9775404653387e-06 
-6.720565700164414e-08 
-1.268164756133149e-05 
-1.315929364336983e-05 
-1.556948191075616e-05 
-9.263287465174731e-06 
-1.435458442590221e-05 
-1.513692132197245e-05 
-2.530143030346083e-05 
-2.307727196167202e-05 
-1.881161505929984e-05 
-2.21074776598131e-05 
-1.398778931017844e-05 
-1.880385007771001e-05 
-9.327518692815084e-06 
-1.078849560340751e-05 
-1.154074955928857e-05 
-1.501787982875143e-05 
-1.38585250359489e-05 
-1.481322148666215e-05 
-1.116324827402814e-05 
-8.117325432348865e-06 
-9.324235820731528e-06 
-6.643310780580942e-06 
-7.552480995328117e-06 
-7.691864219849448e-06 
-6.836284318827655e-06 
-4.445634708775476e-06 
-2.935474804026854e-06 
-3.714372777019747e-06 
-1.344352955108777e-06 
-1.922257607777696e-06 
2.681624879900922e-07 
-1.550977074700227e-07 
-1.211245262800584e-06 
-2.384179445861672e-06 
-1.014503854609359e-06 
-6.759216996377394e-07 
-9.758596826695079e-07 
-1.051840500802292e-06 
-1.333120928328147e-06 
-1.121626627657473e-06 
-1.314204527627073e-06 
-1.436418941093845e-06 
-1.156442008062302e-06 
-8.825692487191353e-07 
-1.451622789305816e-06 
-1.423162139517236e-06 
-1.076760133218401e-06 
-1.497942268375132e-06 
-1.336210586681391e-06 
-6.398183531187083e-07 
-1.257833230119515e-06 
-1.094554100331781e-06 
-8.453690687408548e-07 
-8.088393746203929e-07 
-6.655704607213601e-07 
-2.561305956678458e-07 
-5.56382248919636e-07 
-8.968741341138072e-07 
-4.110443639002641e-07 
-4.344535429868058e-07 
-4.392573230125586e-07 
-5.785118254612621e-07 
-8.042093191923165e-07 
-4.686816448110623e-07 
-4.817495530453168e-07 
-3.091140436510666e-07 
-2.799810250329949e-07 
-3.151619165714342e-07 
-2.616862991338153e-07 
-4.115545818945253e-08 
-2.372797521349187e-07 
-3.099423211478167e-07 
-4.39411789251694e-07 
-2.052628306154768e-07 
-2.572369898272445e-07 
1.007889976422672e-08 
-2.243562697400743e-07 
-1.372527829756873e-07 
-2.663815877150312e-08 
-8.372529951498546e-08 
-2.902241147897259e-07 
-4.207909039872668e-07 
-2.657238534160342e-07 
-3.575967802479982e-07 
-8.421163301256173e-08 
-1.85930767321235e-19 
-3.394891295234462e-05 
