solver_type L2R_LR
nr_class 2
label 0 1
nr_feature 105
bias 1
w
0 
0.000818592328361858 
0.000529344430089185 
0.0003046963719823961 
0.0001180969331471856 
5.196761969993365e-05 
4.191782573062472e-05 
3.457465001881301e-05 
2.678467538729997e-05 
-3.61332905793048e-05 
-5.233587991382677e-05 
-3.189041271279814e-05 
-4.669092807178897e-05 
-4.135693787322919e-05 
-4.851776267506237e-05 
-5.129032987983972e-05 
-5.509034812244653e-05 
-4.974341462995116e-05 
-4.230141516425725e-05 
-4.962297012184207e-05 
-4.768540065239461e-05 
-3.474585234004483e-05 
-2.352736905528618e-05 
-2.651253338467084e-05 
-3.248607855957633e-05 
-3.062165220706152e-05 
-3.50437456435426e-05 
-3.11613068285801e-05 
-2.809164076907673e-05 
-2.450677453533365e-05 
-2.513994781639445e-05 
-2.232211800427119e-05 
-2.409014828478429e-05 
-2.010200111277672e-05 
-1.592465823798757e-05 
-1.613011896284252e-05 
-1.229152530886492e-05 
-1.004646451093056e-05 
-9.816857563815931e-06 
-1.149675975863273e-05 
-1.232707588996515e-05 
-1.518903137013958e-05 
-1.10098606184527e-05 
-6.765550452221917e-06 
-7.687355649271932e-06 
-6.291103751561705e-06 
-4.736847398312179e-06 
-4.631366163784904e-06 
-3.181402231229299e-06 
-4.743328373046892e-06 
-4.742256757820647e-06 
-3.571475296942528e-06 
-4.548864525202715e-06 
-4.049805813034635e-06 
-3.976027384348181e-06 
-4.550794232861084e-06 
-3.437376850894752e-06 
-3.034017325524413e-06 
-3.418675448222467e-06 
-2.744261006310629e-06 
-2.21560166772107e-06 
-2.332304323116943e-06 
-2.544517512122843e-06 
-2.404170332963284e-06 
-2.742312335230434e-06 
-2.650012306537127e-06 
-2.910265559892852e-06 
-3.152471478370146e-06 
-2.769911554422703e-06 
-2.436795481694977e-06 
-2.213468784840187e-06 
-1.992792371487623e-06 
-2.160384349747296e-06 
-2.132136522078138e-06 
-1.835940466382917e-06 
-1.72234780719749e-06 
-1.59433801269142e-06 
-1.340373187930579e-06 
-1.404511122838242e-06 
-1.493955752835667e-06 
-1.311551529385134e-06 
-1.105036120208459e-06 
-1.203509151369649e-06 
-1.147385987449066e-06 
-1.256554991683119e-06 
-1.337845235066392e-06 
-1.041548512110876e-06 
-1.155298293996066e-06 
-1.481475319241614e-06 
-1.056000187882218e-06 
-9.84991009727625e-07 
-1.02268569180467e-06 
-9.702797768536146e-07 
-8.713554777004081e-07 
-8.496707827164685e-07 
-6.654543327353943e-07 
-6.099362035627116e-07 
-4.147932830212207e-07 
-4.53388684096296e-07 
-5.628975625516263e-07 
-6.190568596217515e-07 
-5.71844068970042e-07 
-5.221856582415391e-07 
-6.30774624112482e-07 
-1.572418125155587e-19 
-2.658937842899564e-05 
