solver_type L2R_LR
nr_class 2
label 0 1
nr_feature 105
bias 1
w
0 
-0.001015193685852941 
-0.001218791707208855 
-0.00108067050113761 
-0.0002466930508884398 
-0.0002675142966848062 
-0.0001631612262082696 
-0.0001497142790040535 
-0.0001182895461162635 
-0.0001162537578763093 
-0.0001023733660741353 
-0.0001143727605956974 
-0.0001352081052085665 
-0.0001160961701249876 
-0.0001056710437421183 
-7.47600996119564e-05 
-6.46255583202632e-05 
-7.375676395695101e-05 
-6.81190597581163e-05 
-7.306728445377e-05 
-6.977614547580809e-05 
-6.815527064708604e-05 
-3.986148580709382e-05 
-5.261932751014381e-05 
-4.971614545057064e-05 
-3.240737558906492e-05 
-3.309287376235452e-05 
-3.470752572817063e-05 
-2.926302204296434e-05 
-2.39922459500714e-05 
-2.842813895658168e-05 
-1.785266259983251e-05 
-1.24824718377814e-05 
-1.465307661013182e-05 
-1.993908182278543e-05 
-1.705210572144839e-05 
-1.68439116701562e-05 
-1.55857985718876e-05 
-1.787724540940936e-05 
-1.632153262090549e-05 
-1.2254763604334e-05 
-1.140103183369782e-05 
-1.401282949667751e-05 
-1.204684969922182e-05 
-1.059910864220721e-05 
-9.273525100896849e-06 
-1.00859322885502e-05 
-8.739782690142298e-06 
-9.117543257880324e-06 
-7.797802856336165e-06 
-6.3851669140269e-06 
-5.9238567711968e-06 
-5.784104615576303e-06 
-5.251522998488719e-06 
-4.907692040444072e-06 
-3.938046178474044e-06 
-4.119458661315039e-06 
-3.058941641451202e-06 
-3.362090147519442e-06 
-3.130497027749445e-06 
-2.933632854590414e-06 
-3.450063716321659e-06 
-3.669262683161779e-06 
-3.279829113434912e-06 
-2.719645038616865e-06 
-2.130041909628608e-06 
-1.94924909286255e-06 
-2.04779388734402e-06 
-1.484087329295526e-06 
-1.487342880619005e-06 
-1.798174787074795e-06 
-1.352352250550727e-06 
-9.183359439393865e-07 
-4.46004632922017e-07 
-4.368063575735531e-07 
2.369243068370465e-07 
-1.678347166768534e-07 
-3.05344291131362e-07 
-1.957011385499746e-07 
-2.19636676336627e-07 
-1.593235035719084e-07 
-6.041487420201242e-08 
-9.277365518683134e-08 
-1.510294663206279e-07 
1.910359555263191e-08 
2.008120220171121e-07 
2.944776134585689e-07 
2.212278859300697e-07 
2.525033933473202e-07 
4.497797585485814e-07 
4.840947817280247e-07 
4.607901126905081e-07 
4.336982227779317e-07 
5.342958133679454e-07 
2.529709285828266e-07 
2.557755508316556e-07 
4.041724042456978e-07 
2.373831740419532e-07 
2.764855449065908e-07 
4.93066687087029e-07 
4.24327033991127e-07 
5.908343852972488e-07 
2.895321091917005e-07 
1.348916479997403e-07 
-2.75285692807566e-20 
6.968044154642087e-05 
