solver_type L2R_LR
nr_class 2
label 0 1
nr_feature 105
bias 1
w
0 
-0.001720049407721137 
-0.001567331273958584 
-0.001208420137972732 
-0.0002079419759476719 
-0.0002099985789797249 
-8.944889853010423e-05 
-0.0001363023632488703 
-4.772629461252677e-05 
-2.898544982894886e-05 
-1.333389636151905e-05 
-3.94038144076696e-05 
-1.635301897475905e-05 
-1.357621620778466e-05 
-1.567382395857064e-05 
1.221940077577518e-05 
1.410846860433133e-05 
7.275371502152986e-06 
1.707959814455821e-05 
1.805829745331106e-05 
2.966444313927676e-05 
3.401159369910136e-05 
4.547825807590585e-05 
3.056379966859768e-05 
2.630414433332436e-05 
3.49498830222542e-05 
3.703786052742343e-05 
3.162232356317051e-05 
3.158924228492618e-05 
3.17217487167606e-05 
2.158247593014623e-05 
2.867719281518068e-05 
3.50808557977984e-05 
3.297113645158075e-05 
3.096840753623308e-05 
2.572508613201087e-05 
2.809496799456643e-05 
2.994700489121413e-05 
2.323366629255484e-05 
2.157320358500476e-05 
2.262221251199253e-05 
1.956840807270809e-05 
2.091227533550398e-05 
1.894856779016329e-05 
1.746855881008217e-05 
1.851894846270522e-05 
1.634008630388268e-05 
1.506754748082419e-05 
1.360538629550943e-05 
1.249280187450454e-05 
1.113811804895747e-05 
1.11786276693188e-05 
1.154442923333767e-05 
1.066927824622481e-05 
1.078402885100746e-05 
1.063883520730857e-05 
9.462828816276559e-06 
9.217588041118478e-06 
9.009246748490014e-06 
8.657968967388765e-06 
8.067046186733846e-06 
7.152195374291513e-06 
6.110529326583917e-06 
5.92155557758946e-06 
6.012165747349878e-06 
6.178132647347317e-06 
5.415784659624855e-06 
5.67277509711128e-06 
5.753982693579858e-06 
5.723534882509683e-06 
5.57459005792727e-06 
5.453376977815037e-06 
5.340254296293249e-06 
5.39520048212441e-06 
5.070490294971592e-06 
5.069343705294204e-06 
4.664745493370713e-06 
4.489849779065222e-06 
4.471056846052396e-06 
3.985901557507506e-06 
3.945740087417421e-06 
3.78451661342425e-06 
3.487928680742886e-06 
3.258729247062701e-06 
3.31394856760805e-06 
3.073736130829826e-06 
3.116032931609253e-06 
2.949539170738171e-06 
3.057710444719324e-06 
3.058414615527431e-06 
2.697303988130179e-06 
2.473590890649695e-06 
2.33692239932609e-06 
2.381683033737757e-06 
2.203909846653475e-06 
1.810166235117539e-06 
1.94001408590574e-06 
1.759673770415319e-06 
1.653301362638129e-06 
1.671165939615269e-06 
1.5452571384956e-06 
1.373785769007119e-06 
1.1663386575395e-06 
8.509467010671046e-07 
3.548703485084787e-19 
8.377422220673592e-05 
