solver_type L2R_LR
nr_class 2
label 0 1
nr_feature 105
bias 1
w
0 
0.0009192005380799118 
0.001111188946616436 
0.001268671765971295 
0.0006327843537040645 
0.0005990191101841266 
0.0005522787198762496 
0.0005261487110469742 
0.0004148524416695762 
0.0003299737857750072 
0.0002714850016658178 
0.0002547498881097745 
0.0002277127737599618 
0.0002156124140441978 
0.0001914786570783378 
0.0002031424232526999 
0.0001822426520350955 
0.0001571154129363181 
0.0001590417241010447 
0.0001549491077245229 
0.0001485491109926597 
0.0001548666981773057 
0.0001139625190748223 
0.0001079890946625465 
9.563520218249308e-05 
9.919524335396286e-05 
9.421378330189687e-05 
9.425945882941705e-05 
8.02295365713911e-05 
7.099902509519533e-05 
6.657810063793768e-05 
6.317746184472946e-05 
5.958951969818583e-05 
5.097273269307213e-05 
4.715565206141151e-05 
4.667996914187867e-05 
4.511203984949679e-05 
4.042142772347258e-05 
4.061196095036969e-05 
4.130491942404261e-05 
4.034857070542376e-05 
4.135730038472335e-05 
3.719101945599698e-05 
3.464907432621357e-05 
3.041014632960163e-05 
2.899826544107766e-05 
2.79005924697425e-05 
2.371683820922355e-05 
2.272479116928703e-05 
2.199229741089025e-05 
1.942333095755085e-05 
1.875587144325703e-05 
1.767683424556155e-05 
1.743727433870699e-05 
1.63821636022563e-05 
1.635990152483334e-05 
1.555217606240135e-05 
1.415405028244623e-05 
1.338191106506602e-05 
1.283113777350239e-05 
1.14081584594312e-05 
1.043776989707952e-05 
9.408889277422817e-06 
8.416258885449267e-06 
7.75614041561568e-06 
7.433789352662576e-06 
6.992912377617246e-06 
6.669506624261081e-06 
5.674987363448541e-06 
5.803457982902138e-06 
5.376473449015433e-06 
4.671333646911144e-06 
4.342532368441178e-06 
4.144277996846109e-06 
4.029216597274497e-06 
3.59540367458785e-06 
3.389962664599456e-06 
3.079717404095515e-06 
2.833515577422739e-06 
2.178150444547203e-06 
1.912657202705708e-06 
1.883251812798275e-06 
1.713709948389577e-06 
1.640026031992773e-06 
1.915052229195212e-06 
1.901401645382546e-06 
1.901307135148081e-06 
1.480951946014605e-06 
1.176438758189213e-06 
1.514308066134532e-06 
1.391157183378004e-06 
1.155965464164462e-06 
1.030192109329486e-06 
6.42565203766174e-07 
5.181138819349886e-07 
6.702905694776534e-07 
4.289454410070994e-07 
7.408588075044598e-07 
6.821892568562187e-07 
5.997406236836686e-07 
3.532426022132995e-07 
1.722706425593541e-07 
6.004412894960421e-08 
-4.995973125396205e-08 
8.196691983462005e-21 
-8.834816663108996e-05 
