solver_type L2R_LR
nr_class 2
label 0 1
nr_feature 105
bias 1
w
0 
-3.972048379978075e-06 
-1.219861620278651e-05 
6.367484443195509e-05 
0.0001204130643737132 
0.0001121293308920226 
9.879287154381184e-05 
0.0001132787191140389 
9.998672593538135e-05 
5.284218038198703e-05 
7.467167286993047e-05 
7.720724088662501e-05 
0.0001062371276918593 
8.717604315712084e-05 
8.085437392017753e-05 
9.87923009345135e-05 
7.981220258479234e-05 
5.52322586171299e-05 
4.926806724651317e-05 
4.161455600925568e-05 
4.704157454552642e-05 
5.71656009358498e-05 
3.572238931818732e-05 
3.856612731912282e-05 
3.521323360505619e-05 
3.838136954923805e-05 
3.854927914231016e-05 
3.945467715845444e-05 
4.127073051669061e-05 
3.61887361369664e-05 
3.405829796476041e-05 
3.247799696288332e-05 
2.941502035923909e-05 
2.112531735476723e-05 
2.338333158921931e-05 
2.444467785438639e-05 
2.542348537834723e-05 
1.963813633138193e-05 
1.71734777299289e-05 
1.639564040416709e-05 
1.801332929048285e-05 
1.746810681629135e-05 
1.87857895208524e-05 
1.518172175584874e-05 
1.104209104579905e-05 
1.106819037634478e-05 
1.00147833602782e-05 
6.916379154764527e-06 
6.435866660003775e-06 
6.129736175833872e-06 
5.81738900937018e-06 
6.624907051820207e-06 
6.422811699546192e-06 
5.541182413168538e-06 
5.371484107015906e-06 
5.005732631566239e-06 
4.788257337302046e-06 
5.220593165777748e-06 
5.296942464707956e-06 
5.266554616087156e-06 
4.607519965911002e-06 
4.293539423394149e-06 
3.482096314818538e-06 
3.068952083643432e-06 
2.513686079011262e-06 
2.693543838562605e-06 
2.740013515536005e-06 
2.732363089042356e-06 
2.351705619162267e-06 
2.688508467972838e-06 
2.112931106015051e-06 
1.661353951111087e-06 
1.553473933476547e-06 
1.654738754326089e-06 
1.472044049567642e-06 
1.362441753669261e-06 
1.152207511430427e-06 
9.595637556081731e-07 
8.744924600711635e-07 
7.429369212581848e-07 
7.271767501984388e-07 
6.010212445537264e-07 
5.910333565567069e-07 
3.75621927369261e-07 
6.597175970541416e-07 
9.258405056539848e-07 
8.769912095277546e-07 
5.781195536634477e-07 
3.941447669029948e-07 
7.663802774420221e-07 
7.224679691727783e-07 
6.163227106287257e-07 
6.320839316533439e-07 
3.860911445382345e-07 
1.732452280434747e-07 
2.495100800454161e-07 
1.511065451439372e-07 
1.936119627889509e-07 
3.728406481228376e-07 
3.03579147644705e-07 
4.248759267845452e-07 
9.423898434389393e-08 
1.031945166451736e-07 
-1.430263163629587e-07 
-4.540874719475848e-21 
-9.060248762492625e-06 
