solver_type L2R_LR
nr_class 2
label 0 1
nr_feature 105
bias 1
w
0 
-0.001269978612891878 
-0.001129413593451108 
-0.0007746160469052056 
-9.786770750067544e-05 
-0.0001217466717173544 
-8.734934258553331e-06 
-5.09886814009649e-05 
4.166601798112944e-05 
2.712221526410963e-05 
8.14761941713437e-06 
2.685980425800268e-05 
7.292218132199636e-05 
7.247766059451823e-05 
4.209291906632881e-05 
6.069977759602526e-05 
4.797638238409694e-05 
5.339346122943256e-05 
5.359257856836466e-05 
4.873627094761467e-05 
5.551842595770594e-05 
6.047298271029638e-05 
7.311325164889826e-05 
5.865706478358307e-05 
5.143159192190215e-05 
4.908763065922449e-05 
5.653549539992793e-05 
5.560265116200901e-05 
5.300523093623112e-05 
5.283251535416711e-05 
4.694898002575406e-05 
4.664601745946353e-05 
4.93489696090251e-05 
4.876388241774388e-05 
5.161982888370953e-05 
4.456455117104904e-05 
4.809543854172661e-05 
4.775407441889182e-05 
4.410754753972859e-05 
4.281414588416148e-05 
3.943827368652628e-05 
3.359362487986307e-05 
3.750564176334637e-05 
3.601397254395774e-05 
3.359936968866353e-05 
3.28473755927419e-05 
3.111114108070678e-05 
2.873125452945209e-05 
2.629752439002818e-05 
2.444106136938345e-05 
2.225415031298867e-05 
2.201436738385585e-05 
2.108688016128909e-05 
2.002655475436218e-05 
1.957929902135902e-05 
1.768571900657106e-05 
1.599766862727574e-05 
1.601420325098368e-05 
1.566287647497429e-05 
1.533630973124095e-05 
1.460053324142246e-05 
1.354761896189559e-05 
1.253871840839738e-05 
1.202319533211361e-05 
1.1398377744867e-05 
1.088111876234523e-05 
1.000542607647148e-05 
9.479434282294628e-06 
9.499428859124892e-06 
9.435702130200167e-06 
9.129199108308759e-06 
8.375677421500588e-06 
7.705801939885274e-06 
7.297924346978924e-06 
7.227858790209628e-06 
6.794717577263524e-06 
6.447110316970829e-06 
6.388084544041554e-06 
6.462655414028401e-06 
5.825055436871252e-06 
5.840708160928402e-06 
5.439115247887435e-06 
5.131448482356365e-06 
4.806731151201253e-06 
4.718529572622087e-06 
4.359852220075718e-06 
4.302192089057162e-06 
3.916490184548077e-06 
3.734036032357637e-06 
3.781279741210927e-06 
3.334930519552732e-06 
3.041753592538872e-06 
2.876574374718217e-06 
2.733770532706167e-06 
2.507546735978073e-06 
2.330326707157181e-06 
2.523430078138115e-06 
2.283918560574756e-06 
2.151317438180554e-06 
1.811684252494728e-06 
1.559067921424973e-06 
1.256660687832189e-06 
9.975454154071479e-07 
6.491829462739489e-07 
3.462148237559717e-19 
5.219492747801399e-05 
