solver_type L2R_LR
nr_class 2
label 0 1
nr_feature 105
bias 1
w
0 
0.001870123210913681 
0.002003016947000118 
0.001053908352611039 
0.0004076663273925276 
0.000296235473827432 
0.0001915103983710149 
0.0001878906294001593 
0.000171391863496467 
0.0001208705318675845 
9.291085418610252e-05 
-3.371863402496456e-06 
3.784639398085255e-06 
2.240559810555303e-05 
1.07452204165121e-06 
1.706718307624921e-05 
1.8684208288607e-05 
2.341657760412922e-05 
2.72288464094384e-05 
2.618416580515987e-05 
2.671572882170304e-05 
2.247996194014293e-06 
-1.299794622830177e-05 
7.949283704828257e-06 
1.435069661798878e-05 
1.143354835709326e-06 
-4.676506291837357e-06 
1.19788682863865e-06 
-8.325672541135837e-06 
-6.449839616344793e-06 
-8.348975655599546e-06 
-9.915707359585833e-06 
-8.700353650089273e-06 
-9.494396804142434e-06 
-7.80812973438942e-06 
-6.331169558758089e-06 
-7.162902534494466e-06 
-7.291703809509739e-06 
-7.566938379007478e-06 
-2.888073376927071e-06 
-5.68864679129281e-06 
-6.99301428602605e-06 
-9.175270196038103e-06 
-9.119933702040208e-06 
-1.120215861669909e-05 
-1.11452109631749e-05 
-1.17525495367364e-05 
-1.030486620991046e-05 
-1.067662429851493e-05 
-1.112882494499383e-05 
-8.561012456553465e-06 
-9.205083391045504e-06 
-7.887785383202278e-06 
-8.147537954085117e-06 
-7.622473912312329e-06 
-7.183094356965377e-06 
-6.819442456924996e-06 
-7.412472569111335e-06 
-6.847886107944248e-06 
-7.077588112345324e-06 
-6.679538497213841e-06 
-5.79184084048705e-06 
-6.054172595631028e-06 
-5.972009437175135e-06 
-5.673940314379796e-06 
-5.524286058375171e-06 
-5.284394333368774e-06 
-4.451566000591637e-06 
-4.62202527842454e-06 
-4.678535021018836e-06 
-4.463928198469083e-06 
-4.500852880312354e-06 
-4.011395365911376e-06 
-4.565622635318134e-06 
-4.223258490473454e-06 
-4.598910448977899e-06 
-4.194390603994617e-06 
-4.089963565335318e-06 
-3.702969809472676e-06 
-3.670069062905651e-06 
-3.417917081185487e-06 
-3.57774436524902e-06 
-3.392145586388032e-06 
-3.148994167940858e-06 
-3.111551527266156e-06 
-2.915249670700809e-06 
-2.735905496305632e-06 
-2.865460866172607e-06 
-2.804115393678405e-06 
-2.617670647444478e-06 
-2.663024171676441e-06 
-2.472277696748809e-06 
-2.397028873017117e-06 
-2.572907053600774e-06 
-2.434286573649596e-06 
-2.222990950301515e-06 
-2.049660942058313e-06 
-2.026347035025838e-06 
-1.832412267788196e-06 
-1.762600509171331e-06 
-1.641533490320356e-06 
-1.689920353548972e-06 
-1.519545750940017e-06 
-1.223832478287649e-06 
-1.359833634675323e-19 
-0.0001050288560272951 
