solver_type L2R_LR
nr_class 2
label 0 1
nr_feature 105
bias 1
w
0 
-0.002081486549354928 
-0.001539109651128791 
-0.001291627068512318 
-0.0002044773181648572 
-0.0002611582868660082 
-0.0001972275809847059 
-0.00015638324304748 
-0.0001342427929918248 
-0.0001006395126171614 
-1.761293053658312e-05 
-2.91144838254124e-05 
-8.52700555366247e-05 
-4.964203641846754e-05 
-6.113980137240792e-05 
-6.8190389397388e-05 
-9.001383730543518e-05 
-8.012979953909956e-05 
-6.84950281162657e-05 
-7.992203402131743e-05 
-7.604760729928744e-05 
-5.063631032933399e-05 
-5.474445075627794e-05 
-5.399361033647196e-05 
-5.961371085464963e-05 
-4.260440085417004e-05 
-4.532299936848137e-05 
-3.77495619607854e-05 
-3.204413580968156e-05 
-1.942098909346518e-05 
-1.776234419454075e-05 
-1.431267947534332e-05 
-1.287137779572386e-05 
-1.407889295397781e-05 
-1.112318042523552e-05 
-5.690450774542915e-06 
-7.576698792180978e-06 
-3.566773611197475e-06 
-2.887395983875938e-06 
-2.732728156033342e-06 
-2.672602862538555e-06 
-3.271051121667313e-06 
-2.569449321184897e-06 
-3.009247947753345e-06 
-2.820550274265933e-06 
-2.388989429159983e-06 
-3.196491032161311e-06 
-1.045049884481645e-06 
-3.211466558601727e-06 
-2.948200747085692e-06 
-2.175536886475468e-06 
-1.202838602169049e-06 
-3.700127191671977e-07 
-2.167412594356743e-07 
-1.389664338383705e-07 
-1.532848863351467e-07 
5.122231742677534e-07 
7.921561274947719e-07 
1.126023783555463e-06 
1.581764530251022e-06 
1.692621081394199e-06 
2.497351318960553e-06 
1.370190823953579e-06 
2.298508052807329e-06 
1.788369266235932e-06 
1.405874769441193e-06 
2.439378529483593e-06 
2.576042835846665e-06 
2.522210356696273e-06 
2.516718507285161e-06 
3.110467853695189e-06 
3.394240541266001e-06 
3.159403393059561e-06 
3.4077981257195e-06 
2.997798967088405e-06 
3.194518544510804e-06 
3.229292540162318e-06 
3.017054929424002e-06 
2.78981668802829e-06 
2.896890716854606e-06 
2.487726104234291e-06 
2.739467500699293e-06 
2.428454055372623e-06 
2.23194064311075e-06 
2.0982226827293e-06 
1.944994931022941e-06 
2.088538406717508e-06 
2.380284484731553e-06 
2.158705874767641e-06 
2.186965710025821e-06 
2.266542075549188e-06 
2.068633203758537e-06 
2.087181297330123e-06 
1.996238433006661e-06 
1.950000801590219e-06 
2.009774539989785e-06 
1.842592699869372e-06 
1.925684281381734e-06 
1.958274458690957e-06 
1.62248287307751e-06 
1.397303573979697e-06 
1.427795988313121e-06 
1.286276965409257e-06 
9.549876707315704e-07 
1.912604867992343e-19 
0.0001113186257010156 
