solver_type L2R_LR
nr_class 2
label 0 1
nr_feature 105
bias 1
w
0 
0.0001731772948549198 
8.701320055308922e-05 
-0.0001974218736334149 
-1.496921573846441e-05 
-1.778170594129536e-05 
2.187057729471073e-05 
1.735361006880458e-05 
3.405567304886778e-05 
4.896960149383355e-05 
7.847152356809018e-06 
2.885498902400164e-05 
3.057675325420131e-05 
3.866301676888699e-05 
3.212986073717691e-05 
-1.162762088853611e-05 
-1.636642710883944e-05 
9.184955487798583e-07 
1.31901154853001e-05 
-5.38653070951755e-06 
1.761739981885515e-06 
-1.437123542038253e-05 
-7.905210096701809e-06 
-9.254162085765657e-06 
5.663362338275139e-07 
-1.333114789485205e-05 
-7.510484100891793e-06 
2.718184824322824e-07 
2.326756914392421e-07 
-7.98726906578193e-06 
-3.569862800929958e-06 
-4.222817144246252e-06 
-5.500290460104763e-06 
-5.124274497887673e-06 
-1.828112957322655e-06 
2.524042091496248e-06 
-1.875291132648186e-06 
-8.553545722864628e-07 
-2.784696371094949e-06 
-5.487933306838422e-06 
-2.733629790449978e-06 
-3.509311773197779e-06 
-1.148274016461427e-06 
-1.164078108326093e-06 
-5.792537891506683e-07 
9.082741076898299e-07 
-6.328742885981e-07 
-6.854484065519482e-07 
-1.521794233200956e-06 
-2.092441080452969e-06 
-6.470531110979667e-07 
-5.022287868523316e-07 
5.539203924843069e-07 
3.970691141713254e-08 
-5.723339783328248e-07 
-1.400828459075367e-06 
-6.010762938246754e-07 
-7.201929925357772e-07 
-5.02768093428821e-07 
3.013105058838769e-07 
6.523186798524138e-07 
-2.735604166484164e-07 
-4.008410471505025e-07 
-6.489589550446594e-07 
-2.389538993234169e-08 
-7.241996348804103e-07 
-2.512714945216278e-07 
-6.565076595405674e-08 
3.513569018758387e-07 
-3.720177920132622e-07 
-1.424272798125292e-07 
-2.574197402948378e-07 
-1.6177571618002e-07 
-6.430551396032985e-08 
-3.487499769094341e-07 
3.364830724125134e-07 
6.168480053604143e-10 
-2.091793262054522e-07 
-5.134692742153725e-07 
-2.005102930356093e-07 
-4.602975008240587e-08 
-1.561975187847258e-07 
-5.214296020521482e-07 
-1.524392854481159e-07 
-1.395355702835504e-08 
-5.052960845409795e-08 
-3.200431898071527e-07 
-1.725977819790988e-07 
9.598266574808607e-08 
2.90316387613331e-09 
-1.947073306990643e-07 
7.244755920727349e-08 
-1.235217739869561e-09 
1.399335361587151e-07 
2.088461271332817e-07 
6.374246207939843e-08 
-1.631738038868948e-07 
3.5308360304533e-07 
4.190974364447056e-08 
1.226563815467115e-07 
3.553283444298274e-07 
3.99479233230987e-07 
2.464666884857433e-07 
3.125174085721273e-07 
7.974060988992e-21 
-3.902518889191908e-06 
