solver_type L2R_LR
nr_class 2
label 0 1
nr_feature 105
bias 1
w
0 
0.0006611577833053705 
0.00107795264374442 
0.001225557222170215 
0.0001577185452350419 
0.0002632836326392504 
0.0001613520377783197 
0.0001418489723344806 
9.835182321042677e-05 
7.333180646283944e-05 
0.000109314938069855 
0.0001242174176167368 
9.877731338736801e-05 
8.256757754060763e-05 
8.772602449762776e-05 
6.102540575573135e-05 
3.538072994825273e-05 
4.11992304219176e-05 
3.931609656104211e-05 
5.010128704741009e-05 
4.042629779248527e-05 
3.143884583151384e-05 
3.751704440144264e-05 
3.52660894497084e-05 
2.74406352092222e-05 
1.074719004189266e-05 
1.492213883885674e-05 
5.752201500522583e-06 
5.048825191864629e-06 
7.385817483231418e-06 
4.290830003476366e-06 
-1.30545248051889e-06 
-5.027814297500151e-06 
-3.198262408284905e-06 
-9.21212203337026e-06 
-8.061524280472871e-06 
-9.637209998047537e-06 
-1.003166384174141e-05 
-1.239308752829033e-05 
-1.061390588699837e-05 
-1.223821322755646e-05 
-1.298952118072862e-05 
-1.446462284626316e-05 
-1.379449351680692e-05 
-1.1024347035631e-05 
-1.124649217599437e-05 
-9.429416655003164e-06 
-1.065660782722207e-05 
-1.086025744225021e-05 
-1.029856713240392e-05 
-9.484830478839941e-06 
-9.946929457817959e-06 
-9.170058804097429e-06 
-8.887291582681583e-06 
-7.332504356730425e-06 
-8.826468464764214e-06 
-8.304171858815391e-06 
-7.716764318432299e-06 
-7.29612423167109e-06 
-6.440924107900323e-06 
-6.423114284723564e-06 
-6.239796429695446e-06 
-6.20591647356212e-06 
-5.003982566857295e-06 
-5.232617274757932e-06 
-5.299002463500406e-06 
-4.222410638991998e-06 
-4.758650591986729e-06 
-4.64694600974757e-06 
-3.994308014668363e-06 
-3.476225633489627e-06 
-3.568730478554068e-06 
-3.465051087056862e-06 
-3.154076059664853e-06 
-2.946563903832752e-06 
-2.751259546508774e-06 
-2.660829960855522e-06 
-2.317214156453488e-06 
-2.397163794344119e-06 
-2.979065085391755e-06 
-2.286041690702419e-06 
-2.157401574730781e-06 
-2.024483803039579e-06 
-1.909684106905172e-06 
-1.748938056626213e-06 
-1.844062484643055e-06 
-1.381939326957582e-06 
-1.214664353562069e-06 
-1.316897178740243e-06 
-1.351700993772191e-06 
-1.303547024959235e-06 
-1.053578030042711e-06 
-1.162694607889055e-06 
-1.218540698689646e-06 
-1.179936568609386e-06 
-1.078073667589775e-06 
-9.358933734105933e-07 
-8.288474945679193e-07 
-7.347636551090503e-07 
-4.477323677649543e-07 
-5.56624037304116e-07 
-5.09668426031082e-07 
-4.051978154834257e-07 
-4.454315335775317e-07 
-1.789144585820668e-19 
-5.610309416906706e-05 
