solver_type L2R_LR
nr_class 2
label 0 1
nr_feature 105
bias 1
w
0 
-0.0004649243740141942 
-0.0008493490719886068 
-0.0007712805915280787 
-0.0001563341014673762 
-0.0002588363047012144 
-0.0001615114354695731 
-0.0001248905553259925 
-0.0001060464210696662 
-9.644954918310231e-05 
-6.816119450228595e-05 
-7.995858016873248e-05 
-8.846471747754954e-05 
-0.0001091711768973458 
-7.732628136985817e-05 
-5.025818197282215e-05 
-5.401577212025534e-05 
-4.230511083166117e-05 
-5.63883143621025e-05 
-6.120301213904635e-05 
-5.545048087146552e-05 
-4.498764627839093e-05 
-3.788695560350047e-05 
-3.634273337180757e-05 
-2.77564801136522e-05 
-1.538087229460816e-05 
-1.058779952980117e-05 
-1.162271336665234e-05 
-8.14268777155517e-06 
-1.423783387678715e-05 
-5.25778976607919e-06 
7.356547038581298e-07 
2.568957726703164e-06 
2.401799135168378e-06 
4.197770736094092e-06 
8.681891967863953e-06 
9.856148767455242e-06 
1.094218415319537e-05 
1.011994278076174e-05 
1.177758790964511e-05 
9.786003985896758e-06 
8.691815617952575e-06 
1.031564158127391e-05 
9.41349078641583e-06 
7.745313346200977e-06 
7.548221830525757e-06 
8.213578209631244e-06 
8.70074165575293e-06 
9.446413714154934e-06 
9.43227223495173e-06 
9.295731238814386e-06 
7.016377628466713e-06 
6.899769380088323e-06 
7.057594016446784e-06 
7.119427751610825e-06 
6.516210771026111e-06 
6.481450049279356e-06 
5.237334748069848e-06 
5.74628442659595e-06 
4.757809400869671e-06 
4.577567154822282e-06 
3.869065427899703e-06 
4.724749464052349e-06 
4.179219958499352e-06 
3.832044113844143e-06 
3.984549098219004e-06 
3.508423442412893e-06 
3.119544799179475e-06 
2.972641255857589e-06 
2.934398864465697e-06 
3.275582759266033e-06 
3.115593417450462e-06 
2.806261911186666e-06 
2.513279063744116e-06 
2.805168894704271e-06 
2.02180655574163e-06 
1.916849592277991e-06 
2.339909765436831e-06 
2.023218878953672e-06 
2.178940127452059e-06 
1.963458897682343e-06 
1.961323079836147e-06 
1.572859522543534e-06 
1.541916042327365e-06 
1.424127089255679e-06 
1.350342466516651e-06 
1.020370048973772e-06 
9.952559713280193e-07 
1.058866189993977e-06 
8.67163153021739e-07 
7.960905062830094e-07 
6.40696341004343e-07 
5.057542320226226e-07 
3.118193552433822e-07 
5.829790339972685e-07 
5.166269319927409e-07 
6.986105057256892e-07 
5.727666420019964e-07 
5.516253263142601e-07 
6.50085087204188e-07 
5.358531757558838e-07 
3.376351636059435e-07 
6.106290746298282e-07 
4.719783030840194e-07 
1.830158322497503e-19 
3.873080422046265e-05 
