solver_type L2R_LR
nr_class 2
label 0 1
nr_feature 105
bias 1
w
0 
-0.001128243152583034 
-0.001666673585710594 
-0.0009631477181306557 
5.169657517235464e-05 
-9.412391830969057e-06 
0.0001074102100641572 
0.0001561460201935486 
0.0001713625115069453 
0.0001047841134952147 
7.47931639820925e-05 
7.031808178281755e-05 
8.031866879126611e-05 
6.368012092922322e-05 
8.355773634571316e-05 
8.806833996230441e-05 
7.357395936624459e-05 
5.981079349263e-05 
4.314363017387966e-05 
4.146624970288912e-05 
5.873765473669002e-05 
5.453387653548748e-05 
6.02416694562951e-05 
4.928349672870799e-05 
4.779412461972726e-05 
6.253413024562498e-05 
5.9546057006567e-05 
6.49694883828581e-05 
6.247213134570454e-05 
6.392621743106581e-05 
6.525437339249066e-05 
6.53418616369354e-05 
6.368877011687105e-05 
6.382376810729426e-05 
6.440406942397369e-05 
6.373460709793054e-05 
6.32523517958328e-05 
6.051034014912333e-05 
5.651744946363014e-05 
5.74754040565684e-05 
5.472367961779301e-05 
5.020371778432024e-05 
4.882887936964213e-05 
4.596724708513729e-05 
4.301045421166068e-05 
4.000372153233754e-05 
4.00565047903994e-05 
3.807548084365895e-05 
3.758010783878311e-05 
3.388132931116651e-05 
3.240785085318384e-05 
2.944358521003155e-05 
2.777044976993424e-05 
2.829856027263297e-05 
2.801793400003685e-05 
2.591611897319489e-05 
2.47939608459786e-05 
2.333882200647274e-05 
2.198051693073505e-05 
2.041069954916722e-05 
1.917939177913729e-05 
1.833286411480251e-05 
1.805252366244918e-05 
1.697833378448522e-05 
1.659410071127836e-05 
1.601517361368581e-05 
1.529334356643418e-05 
1.450917107976703e-05 
1.32845199923969e-05 
1.259150317153718e-05 
1.238631236496123e-05 
1.197590439668322e-05 
1.095760103266367e-05 
1.015892182394023e-05 
1.004868673668847e-05 
9.080959054540336e-06 
8.335097447936368e-06 
8.377312780313387e-06 
7.803023256669356e-06 
7.567250728706309e-06 
7.038762656394611e-06 
6.594650277121442e-06 
6.182545974093262e-06 
6.119971887277137e-06 
5.514607599877885e-06 
5.557789099060572e-06 
4.962233441812416e-06 
4.676025390060275e-06 
4.317884012413062e-06 
4.026442148270023e-06 
3.811625262389063e-06 
3.539611041770507e-06 
3.345685470560867e-06 
3.104418436048741e-06 
2.817054295219915e-06 
2.531240638246524e-06 
2.392826802223381e-06 
2.326326860503454e-06 
2.24570795943432e-06 
1.906476715218109e-06 
1.945658764362854e-06 
1.414633303880419e-06 
1.6105679321497e-06 
1.197936004096339e-06 
4.195557102193273e-19 
5.264282861307906e-05 
