solver_type L2R_LR
nr_class 2
label 0 1
nr_feature 105
bias 1
w
0 
-0.001244954183771799 
-0.00131281928378258 
-0.001335382418199667 
-0.0003653286030479635 
-0.0003838013294465968 
-0.0002365646529371074 
-0.0002545234317426656 
-0.0002032881254623693 
-0.0001823017240961272 
-0.000144002665091712 
-0.000130701739124585 
-7.57544752584931e-05 
-8.315617404823024e-05 
-6.170857628117611e-05 
-8.264485906013771e-05 
-6.611641658120855e-05 
-6.290270233428822e-05 
-6.258114431267962e-05 
-6.507594780328813e-05 
-5.009325690498297e-05 
-4.431666751051154e-05 
-4.271380349537351e-05 
-3.33261292637238e-05 
-3.270099354566062e-05 
-2.848833331632335e-05 
-3.380436697488587e-05 
-3.199850462136883e-05 
-2.821065245799021e-05 
-2.311364327932444e-05 
-2.143513290892517e-05 
-2.959031394873977e-05 
-2.071106569702715e-05 
-1.966967049029462e-05 
-1.94481381529203e-05 
-1.970785921836097e-05 
-1.948861848229383e-05 
-1.464054521965709e-05 
-1.722134312598188e-05 
-1.648745977531657e-05 
-1.549466354838426e-05 
-1.498419276982048e-05 
-1.37946020811374e-05 
-1.105325523610589e-05 
-1.148978343162328e-05 
-1.051667920229957e-05 
-8.162416305872719e-06 
-1.018735054930415e-05 
-9.943327855716757e-06 
-9.334842455940067e-06 
-7.998481479872621e-06 
-8.176735238629229e-06 
-7.247833816166998e-06 
-6.311938642442819e-06 
-4.659806258014355e-06 
-3.698845166962002e-06 
-3.403968777090277e-06 
-3.712995020007987e-06 
-2.794330864630785e-06 
-2.909192577052529e-06 
-1.997032690520464e-06 
-2.104199652552328e-06 
-2.364224871679192e-06 
-1.589219268930235e-06 
-1.605326363070731e-06 
-9.476869791661105e-07 
-5.584955033453938e-07 
-5.067058654933778e-07 
-5.594699386952444e-07 
-4.916733005163781e-07 
-6.934493786135303e-08 
4.192651692755486e-07 
3.899715554987411e-07 
2.443144569970247e-07 
-3.288500101822198e-07 
7.19667490955569e-08 
3.730810270541878e-08 
-6.107700796312275e-08 
2.900884755807495e-07 
7.018253580894495e-07 
3.798843752379311e-07 
5.884827302299898e-07 
3.826640791829294e-07 
6.45413938733508e-07 
6.071841235139423e-07 
5.349837823069635e-07 
6.215104175637835e-07 
8.542538059842685e-07 
5.951976028010726e-07 
5.548315740605464e-07 
2.726877853603709e-07 
6.215322675020203e-07 
5.39062028627586e-07 
6.658306438046885e-07 
6.232425805946144e-07 
6.843946711073146e-07 
6.934283898044427e-07 
7.573278773631773e-07 
5.871787576991878e-07 
6.539478592364235e-07 
8.637592188162299e-07 
7.249115299729212e-07 
1.146506248123429e-06 
8.124226023958942e-07 
3.5530178592893e-20 
8.917197958503417e-05 
