solver_type L2R_LR
nr_class 2
label 0 1
nr_feature 105
bias 1
w
0 
-0.0002938237807454201 
0.0004391097999056547 
0.0007151027897976492 
0.0003163027954777977 
0.0003827982200184251 
0.000385184155849803 
0.000369992278281156 
0.0003521557649802814 
0.0003328877899742169 
0.0002985336841681233 
0.0002984343745555334 
0.0002828598071007391 
0.0002071360636639767 
0.0001966350599596342 
0.0002217187323973254 
0.0001944836567637864 
0.0001867861733799894 
0.0001662303228653242 
0.000161799263706494 
0.0001520252477768106 
0.0001155057862838439 
0.0001042816486767491 
0.0001039009487979304 
0.0001026063574733113 
7.958610649410198e-05 
7.467540818971175e-05 
7.037615914286473e-05 
6.891844170019654e-05 
6.041523366883085e-05 
5.155941893648091e-05 
4.433520452203323e-05 
4.352752416391849e-05 
3.942679151796535e-05 
3.596725083738878e-05 
3.612293454728594e-05 
2.856181004899674e-05 
2.71185108301194e-05 
2.366114791339037e-05 
2.240744143947974e-05 
2.012182501865192e-05 
2.003698627156761e-05 
1.603960347102626e-05 
1.52079396483847e-05 
1.614463383820784e-05 
1.47427523939265e-05 
1.378775295015752e-05 
1.115098668442053e-05 
1.139530258358186e-05 
1.196934302058226e-05 
1.033212866216428e-05 
9.398371227031186e-06 
9.455335451219243e-06 
8.396895933568009e-06 
8.992894648545449e-06 
8.598690121306704e-06 
7.082334793337912e-06 
7.768067609318071e-06 
7.463889194746022e-06 
7.34740298501252e-06 
6.536505731750374e-06 
5.482994080232724e-06 
5.198111403370979e-06 
4.655991918000366e-06 
4.530382287052746e-06 
4.053450585040275e-06 
4.202312422950667e-06 
3.70391729032178e-06 
3.224788977420082e-06 
4.064511224776854e-06 
3.803303376641871e-06 
3.430724561476498e-06 
3.060181175113886e-06 
3.00645244149733e-06 
2.93045717615954e-06 
2.579423686654548e-06 
2.230559580225702e-06 
2.300818764800521e-06 
2.033135626880046e-06 
1.803342865768078e-06 
1.782335812216177e-06 
1.696922754109501e-06 
1.725999045077973e-06 
1.64463308877447e-06 
1.441907831993813e-06 
1.384853982942142e-06 
1.457042085151217e-06 
1.25226983415322e-06 
8.502266496468121e-07 
9.519899815686556e-07 
8.425874945483665e-07 
9.294182758811104e-07 
6.810768246228997e-07 
4.570247397814222e-07 
5.01167255220692e-07 
3.031208882461115e-07 
3.246540816007913e-07 
2.376299142102214e-07 
1.667624947992281e-07 
3.35028725948426e-07 
1.774991681348855e-07 
2.657658971097633e-07 
3.041836370809613e-07 
1.398166300461785e-07 
2.389182753703716e-19 
-3.520357514535043e-05 
