solver_type L2R_LR
nr_class 2
label 0 1
nr_feature 105
bias 1
w
0 
0.0004499032346370754 
0.0007053167029857226 
0.0007791867903855502 
0.0001008410676323642 
2.879972442351748e-05 
8.783074683194437e-06 
-3.458192231700647e-05 
-6.876286303469196e-05 
-7.341210736131342e-05 
-3.205745538306951e-05 
-2.812691434203639e-05 
-8.140103313368609e-05 
-7.854099702206706e-05 
-5.460058792349058e-05 
-4.228146712076852e-05 
-4.485064933302429e-05 
-2.326718065782902e-05 
-2.980780134653669e-05 
-1.969463104150936e-05 
-3.015499786310047e-05 
-2.934259499899947e-05 
-2.37377676609368e-05 
-2.449224630404045e-05 
-1.988853439972943e-05 
-2.524203048564559e-05 
-1.943948948507283e-05 
-2.283636357086128e-05 
-2.482105084654442e-05 
-2.843328249084852e-05 
-1.990345421876857e-05 
-1.66166025550409e-05 
-2.126290024994037e-05 
-2.126292207686529e-05 
-2.141480153808425e-05 
-2.073491136268144e-05 
-1.954070925564336e-05 
-1.889166562904655e-05 
-1.636259814662181e-05 
-1.768140999677416e-05 
-1.908911587261219e-05 
-1.721577189298945e-05 
-1.55183591908972e-05 
-1.515465644511175e-05 
-1.395048404876376e-05 
-1.382362347484561e-05 
-1.380875715063585e-05 
-1.220038871877872e-05 
-1.171135100945934e-05 
-8.654953310906952e-06 
-9.300240523976466e-06 
-9.85703885102402e-06 
-8.87880104251073e-06 
-8.939108075136617e-06 
-8.009647761489183e-06 
-7.492744458808875e-06 
-7.387212525946372e-06 
-7.659317754765031e-06 
-6.792137799488726e-06 
-6.873821712551402e-06 
-6.237518595338812e-06 
-5.759302102105863e-06 
-5.545270751658536e-06 
-5.271554106927171e-06 
-5.295057093638309e-06 
-5.078607366610827e-06 
-4.940702106741763e-06 
-5.352095553146235e-06 
-4.511545229207249e-06 
-4.190996627259326e-06 
-3.772045117656418e-06 
-3.722403923530883e-06 
-3.491917388159335e-06 
-3.293627525788908e-06 
-2.752930591431661e-06 
-2.998598391892712e-06 
-2.936400956731422e-06 
-2.622527463325561e-06 
-2.600016667927632e-06 
-2.213795391177274e-06 
-2.246601178504354e-06 
-2.049842610837872e-06 
-1.961422603933874e-06 
-1.960244485614271e-06 
-1.699501286646897e-06 
-1.914204381285007e-06 
-1.844221337734603e-06 
-1.525101620889079e-06 
-1.467870884016939e-06 
-1.378644215626067e-06 
-1.307302956631691e-06 
-1.298775542300754e-06 
-1.184819240918893e-06 
-1.189223674277118e-06 
-7.680296501679509e-07 
-7.093084281237734e-07 
-7.344376149675167e-07 
-6.234271624037929e-07 
-5.736535956373289e-07 
-4.258475007149046e-07 
-4.440151591384942e-07 
-4.404328027717406e-07 
-2.166898675536991e-07 
-4.358334412306133e-08 
-1.238906449886221e-19 
-2.327222431590402e-05 
