solver_type L2R_LR
nr_class 2
label 0 1
nr_feature 105
bias 1
w
0 
-0.0001961016139683284 
-0.0002662450559604485 
-6.670055678306747e-05 
-7.420909729008698e-05 
-4.540767334388691e-05 
1.087368913522586e-05 
2.352290475475443e-05 
2.109016539272858e-05 
-1.614900293987411e-05 
-1.385866571972504e-05 
-7.416823490404845e-06 
2.093274632468189e-05 
1.941569050912132e-05 
3.464732234931045e-05 
2.004248105826023e-05 
1.688206864867184e-05 
2.920108890169314e-05 
3.280729921643159e-05 
2.222524687733504e-05 
2.130820450582554e-05 
1.488323312580151e-05 
2.153915398059932e-05 
2.315124588511477e-05 
2.183967129658637e-05 
2.140839551789532e-05 
2.47790146136626e-05 
1.712460351892291e-05 
2.954363623905908e-05 
2.036025162777669e-05 
2.684772753747008e-05 
2.321887885860275e-05 
2.077699050269205e-05 
1.931003868039899e-05 
1.98027515659705e-05 
1.86776665948507e-05 
1.971342716874975e-05 
1.789102787027687e-05 
1.696604811549218e-05 
1.598725005978369e-05 
1.572920338006632e-05 
1.249272089783991e-05 
1.39263077472807e-05 
1.262941260342863e-05 
1.104325156010525e-05 
1.107482712561799e-05 
8.282215752738925e-06 
8.877332916629966e-06 
1.005903323897195e-05 
8.46739725054024e-06 
8.375392488080856e-06 
7.304354198163669e-06 
6.906275800506431e-06 
7.072982143842975e-06 
6.768680995172824e-06 
5.915785081948022e-06 
5.159062141914881e-06 
4.63587174720329e-06 
4.970735713374051e-06 
4.362340086462497e-06 
4.882852627646715e-06 
4.152620534992956e-06 
4.195617891509499e-06 
3.547641076746405e-06 
3.652554637151702e-06 
3.837477058915598e-06 
3.447652775628917e-06 
2.859732733723233e-06 
2.86617599973576e-06 
2.589017993391501e-06 
2.08059443173417e-06 
2.329973925158932e-06 
2.60960917754017e-06 
2.416617669142551e-06 
2.402285829669351e-06 
2.524615484827961e-06 
2.040141563587074e-06 
1.741097781979315e-06 
1.807914302785777e-06 
1.590059732061997e-06 
1.49944696780499e-06 
1.378189806123353e-06 
1.21710778810863e-06 
1.185969916233023e-06 
1.103403756633156e-06 
9.84821439538425e-07 
9.609849993011021e-07 
8.814098443883027e-07 
7.677707927858818e-07 
7.294894503243621e-07 
5.895517343974479e-07 
6.535611454212968e-07 
4.815950157948955e-07 
6.34775012263112e-07 
7.140569086497298e-07 
5.760971648225605e-07 
5.642843115101387e-07 
5.473747824334202e-07 
3.726873190490716e-07 
3.761835695252251e-07 
1.242141982809503e-07 
6.646686485094898e-08 
3.21980263247088e-07 
2.556410031572639e-07 
1.405717371827773e-19 
5.713604114010431e-06 
