solver_type L2R_LR
nr_class 2
label 0 1
nr_feature 105
bias 1
w
0 
-0.0001699027948182953 
-0.0007203315563697218 
-6.26807525317252e-05 
0.0001782519105465247 
0.0001528663331615932 
0.0001611676776529895 
0.0002461522144900673 
0.0002338615071951529 
0.0001394973999776497 
9.508191575994374e-05 
0.0001226001985584315 
0.0001167342076917857 
0.0001057636207024951 
8.262691222996651e-05 
0.0001209779133454881 
0.0001026215816270026 
9.702036549934825e-05 
8.790518925779743e-05 
9.72278771504861e-05 
9.417276272302349e-05 
8.210094289597679e-05 
7.697969125682857e-05 
7.427353438113598e-05 
6.025177451837739e-05 
6.65384146591489e-05 
6.0771929421696e-05 
6.145055458705989e-05 
5.5160929021076e-05 
5.022780521744141e-05 
5.302849981467701e-05 
4.732663576254295e-05 
4.641516057149073e-05 
4.257921523573565e-05 
4.167323583597493e-05 
4.191793199729876e-05 
3.745430541850988e-05 
3.397216773045326e-05 
3.627379961933207e-05 
3.474450798150722e-05 
3.274310303690908e-05 
3.019286946993645e-05 
2.794251225399941e-05 
2.315165826597912e-05 
2.257178080006386e-05 
1.851520782961158e-05 
1.795555846332635e-05 
1.878348819360325e-05 
1.624098115610422e-05 
1.459054208643498e-05 
1.396590910796071e-05 
1.403462151764071e-05 
1.202598154343003e-05 
1.075593584946679e-05 
1.028734499097324e-05 
1.067392668590853e-05 
9.964533084760606e-06 
1.007146575263339e-05 
8.528589223979025e-06 
8.200373291119339e-06 
8.992288879099628e-06 
8.963709131698565e-06 
8.681348665905325e-06 
8.163060091370581e-06 
7.780212398133956e-06 
7.397741900269641e-06 
6.799786284027333e-06 
6.123510821903016e-06 
5.885488320014071e-06 
5.575223733845314e-06 
5.472855733300117e-06 
5.212414952423642e-06 
4.637297406398404e-06 
4.520667137098004e-06 
4.516744576030958e-06 
4.519225788864413e-06 
3.996618926921438e-06 
3.58887901577176e-06 
3.624327953743533e-06 
3.51536313599848e-06 
3.183682088947013e-06 
3.019175131337721e-06 
2.875010262885485e-06 
2.801031975956227e-06 
2.611060626299379e-06 
2.553368504574119e-06 
2.251589596987328e-06 
1.691295542685139e-06 
1.955638545185408e-06 
2.014650872397933e-06 
1.944156359032234e-06 
2.032618526246611e-06 
1.807749288731098e-06 
1.676595802596095e-06 
1.420577175642147e-06 
1.156337156465442e-06 
9.577723989059521e-07 
9.615033630590245e-07 
1.044291273788864e-06 
9.8364883516797e-07 
8.428540888010809e-07 
7.151802736993923e-07 
5.395767818103214e-07 
5.734259605108713e-07 
3.898439227024781e-19 
2.887300956817524e-06 
