solver_type L2R_LR
nr_class 2
label 0 1
nr_feature 105
bias 1
w
0 
1.448780839197895e-05 
-0.0002822182514372734 
0.0003339384301048008 
9.761457886758268e-05 
9.809573581480652e-05 
7.285151463284533e-05 
7.676223726990249e-05 
5.933714816475244e-05 
1.533181571848536e-07 
-1.859935170252857e-05 
-1.736785289305369e-05 
-1.281145900808552e-05 
-2.596803392355814e-05 
6.85974299538906e-06 
2.716186390641008e-05 
9.622676070796262e-06 
-1.600101652774254e-05 
-1.229266819265493e-05 
-1.195490911143851e-05 
5.448643807484184e-06 
2.134701246650934e-05 
3.308536716570359e-05 
1.276034433069699e-05 
1.062170821952252e-05 
1.810459931591083e-05 
8.00940470214927e-06 
1.642853636729884e-05 
1.807806522290567e-05 
1.496852815998228e-05 
1.447717820590688e-05 
9.532941954695101e-06 
6.618726628180879e-06 
8.491442278085871e-06 
1.189942256446989e-05 
7.962225717423477e-06 
7.242327535171259e-06 
7.910574335437863e-06 
4.844018727491602e-06 
4.485359425669848e-06 
5.623941410680079e-06 
4.259114169244226e-06 
5.342406728535124e-06 
4.240373354828364e-06 
4.477016529843037e-06 
4.330287852850282e-06 
5.523703880180663e-06 
4.272371705929628e-06 
5.925279383389447e-06 
4.089248872860325e-06 
4.392061132674027e-06 
2.202649848375211e-06 
1.983353686576696e-06 
3.375770533863601e-06 
4.245433667320794e-06 
2.912602389557496e-06 
2.622644928812548e-06 
3.307870576768306e-06 
1.879557983242257e-06 
2.119767547037368e-06 
2.159482377587644e-06 
2.335741380147416e-06 
1.304998053699867e-06 
1.399135278548341e-06 
1.495910333529902e-06 
2.004033394637626e-06 
1.658161964750686e-06 
1.864361165718957e-06 
1.533406829660186e-06 
1.618587503617373e-06 
1.162648520103214e-06 
1.092973169108029e-06 
9.361854497212894e-07 
1.033790081609639e-06 
1.036556634465656e-06 
1.103487792527962e-06 
6.550849716413188e-07 
7.282746071875943e-07 
8.923828852303583e-07 
8.578470141535163e-07 
7.274751662054645e-07 
5.153882963333894e-07 
5.546437395525029e-07 
6.821925394452611e-07 
4.423841065755489e-07 
6.748602157325162e-07 
5.953471084956423e-07 
2.625954033240932e-07 
4.590925731671075e-07 
2.622394845891188e-07 
3.9145197704921e-07 
3.060784495511545e-07 
5.59393595228551e-07 
7.848746622244096e-07 
5.167984700796211e-07 
3.529432686974308e-07 
1.755265359534926e-07 
2.227181000071442e-07 
3.036811225454798e-07 
1.645225442775761e-07 
4.720008835869674e-07 
2.974803520076286e-07 
3.14123143059448e-07 
3.008151390330755e-07 
-9.966536297239441e-20 
-3.437253854874391e-06 
