solver_type L2R_LR
nr_class 2
label 0 1
nr_feature 105
bias 1
w
0 
-0.0007239222602373435 
-0.001012296130834277 
-0.0008754268451953361 
-0.0004451214568883664 
-0.0004434539413709983 
-0.0003673719233014926 
-0.0003347893681545837 
-0.0003469970662730242 
-0.0002657480309738266 
-0.000256001631979863 
-0.0002613971995807966 
-0.0002194940596739757 
-0.0001968556772221367 
-0.0001630155267457368 
-0.00014592706031845 
-0.0001469977032631699 
-0.000127694727228189 
-0.0001329325857552317 
-0.0001157199116512167 
-0.0001105994635732541 
-9.529440603110335e-05 
-8.888101635519636e-05 
-9.870581841766481e-05 
-9.290030321857668e-05 
-8.696683235650843e-05 
-7.710966235801861e-05 
-7.831254082020403e-05 
-6.151968612653781e-05 
-5.18497805866283e-05 
-4.449593500437246e-05 
-4.155651327705431e-05 
-3.973748620415487e-05 
-3.513876203960396e-05 
-3.413097695985018e-05 
-2.737566402673301e-05 
-2.687346908784001e-05 
-2.316767256862819e-05 
-2.076614938015888e-05 
-1.683597733210689e-05 
-1.929738773107623e-05 
-1.785237583980002e-05 
-1.681250101382819e-05 
-1.681192174399922e-05 
-1.202140378798478e-05 
-1.350951264569936e-05 
-1.145620260113981e-05 
-9.201620951489265e-06 
-7.590228621756613e-06 
-7.460859132119636e-06 
-5.090137951570864e-06 
-4.707112253839659e-06 
-4.291251211866617e-06 
-4.636998062472655e-06 
-3.925274929639327e-06 
-5.372982112642084e-06 
-3.898953366451357e-06 
-3.526015842922365e-06 
-3.245993623181894e-06 
-3.64887957060177e-06 
-2.644163626784489e-06 
-2.259673395157909e-06 
-1.900522949187047e-06 
-1.583178836406463e-06 
-1.784456722861663e-06 
-2.306799971364601e-06 
-1.733075761159091e-06 
-1.632895597803348e-06 
-1.206900432651035e-06 
-1.179753128828824e-06 
-1.171248460726869e-06 
-1.164208824241877e-06 
-7.274287995224384e-07 
-5.721487494358147e-07 
-5.8752178464202e-07 
-2.413694161759151e-07 
-4.477440398801308e-07 
-5.389862549248578e-07 
6.707373584202358e-08 
-1.660668184927934e-08 
3.158127782811372e-07 
2.86706801415528e-07 
3.869652874926046e-07 
3.295890225722222e-07 
1.60779287412312e-07 
1.047382309989337e-07 
-1.934945915001471e-08 
3.162313756543563e-07 
2.589705357882166e-07 
2.086142189494287e-07 
1.764280550146959e-07 
4.217264108736213e-07 
4.020768029396075e-07 
4.348582073569899e-07 
4.690570675108569e-07 
7.804032096037654e-07 
6.673414162669497e-07 
4.773390568133312e-07 
4.24513677645832e-07 
3.618775386635288e-07 
3.93245777681186e-07 
4.408860203889508e-07 
4.980743830130853e-07 
6.058165613435943e-07 
-1.806269690810309e-19 
7.36738133349736e-05 
