solver_type L2R_LR
nr_class 2
label 0 1
nr_feature 105
bias 1
w
0 
-0.001400722587820186 
-0.001165155552234319 
-0.0006769755752126387 
-0.0004352901966211265 
-0.0003559617191669619 
-0.0003343555395100984 
-0.0003339816732456851 
-0.000283707217940946 
-0.0002289908312518164 
-0.000202149176080294 
-0.0001675994201592217 
-0.0001691557891273904 
-0.0001080721920709362 
-0.0001190004046326658 
-0.0001166805790511495 
-0.0001001661404557151 
-9.838110124183785e-05 
-9.586690146077084e-05 
-9.624940096375102e-05 
-8.852288739431327e-05 
-7.769838222752425e-05 
-6.815656291019825e-05 
-7.153462188445853e-05 
-5.64649909777328e-05 
-5.666981012660725e-05 
-2.270993643441918e-05 
-2.003382152778208e-05 
-2.367468777313691e-05 
-2.23635792389806e-05 
-1.578239791861143e-05 
-1.888383449881664e-05 
-1.537389993292156e-05 
-1.650058862680342e-05 
-1.24630902869144e-05 
-1.149064004710284e-05 
-1.283635610999948e-05 
-1.350175019260916e-05 
-1.350691834715188e-05 
-1.087646462474177e-05 
-9.270464653628668e-06 
-8.635409992972906e-06 
-1.633673789922009e-06 
-1.720539601167582e-06 
-2.459954644369782e-07 
4.492877353718188e-07 
-1.529010169272874e-07 
-2.873358408049124e-07 
1.048301586385603e-06 
2.070521746841413e-06 
2.496181085022521e-06 
2.29928853751085e-06 
2.258451835084523e-06 
1.247528448118811e-06 
2.320215407231491e-06 
1.839774412524006e-06 
2.35967488478025e-06 
2.081144210880472e-06 
1.9195528967645e-06 
2.200492839531678e-06 
2.44339528954696e-06 
2.228689223187607e-06 
2.284448472506393e-06 
1.849295671415519e-06 
1.40303341224133e-06 
1.12982629937946e-06 
1.578168788106867e-06 
4.507977325497543e-07 
1.129477748016885e-06 
1.103224121800196e-06 
1.351682645922636e-06 
1.316737372693343e-06 
1.182310040228473e-06 
1.123736402694529e-06 
1.143628343892215e-06 
1.36870107163804e-06 
1.31708742587049e-06 
1.400244663635617e-06 
1.441143485539033e-06 
1.324112138501559e-06 
1.381684823432452e-06 
1.408804542632924e-06 
1.227580831721867e-06 
1.440616475326057e-06 
1.438832241285643e-06 
1.546628991934008e-06 
1.312330952341026e-06 
1.09223660851098e-06 
1.215819881685743e-06 
1.058757542879108e-06 
9.157901614113918e-07 
9.264017775772164e-07 
8.464081362302471e-07 
8.645655936924041e-07 
7.80076052367593e-07 
3.868047630709744e-07 
3.911185267270404e-07 
5.204800581832656e-07 
6.03560418432744e-07 
5.501890103759239e-07 
6.009793634352707e-07 
3.485929839317032e-07 
1.225902512573393e-08 
-2.255870162781456e-07 
1.257686605100269e-20 
8.909449118310505e-05 
