solver_type L2R_LR
nr_class 2
label 0 1
nr_feature 105
bias 1
w
0 
-0.001557523657936955 
-0.001827016296792618 
-0.001282722565252157 
-0.0003616809109760016 
-0.0003048249173719245 
-0.0002386036742546107 
-0.0001862094931267019 
-0.0001455534615374533 
-0.0001420991888853783 
-0.0001590232236424548 
-0.0001195843073391526 
-0.0001345479283169902 
-0.0001040731139237078 
-0.000101186553879865 
-4.97761539660701e-05 
-4.677454359541483e-05 
-3.438505267520771e-05 
-3.421655635362766e-05 
-2.121297774575346e-05 
-2.128727903271109e-05 
-1.69058299086567e-05 
-1.403641598588089e-05 
-2.305144401685561e-05 
-1.613511709920871e-05 
-1.062657928174037e-05 
7.516244713644325e-07 
1.136331579707889e-05 
2.331855282773138e-05 
1.931977675687497e-05 
2.434416951921189e-05 
2.157267783509027e-05 
2.177088348582089e-05 
1.930266237577295e-05 
2.140747589689661e-05 
2.069775373311323e-05 
1.706613476413761e-05 
1.581747166008697e-05 
1.971279422872215e-05 
2.30516578667402e-05 
2.182121263079449e-05 
2.11855658196053e-05 
2.396965367048956e-05 
2.278208243140926e-05 
1.93836404050195e-05 
2.167973738899463e-05 
2.016405409257707e-05 
1.850640281581674e-05 
1.713682722159507e-05 
1.856204371678595e-05 
1.803773809442269e-05 
1.735118695714125e-05 
1.609379642947857e-05 
1.549254403843809e-05 
1.538446766699769e-05 
1.3294206555171e-05 
1.398108072121483e-05 
1.268378646122253e-05 
1.239023782579448e-05 
1.193451822028768e-05 
1.10068750937662e-05 
1.022988405483735e-05 
1.036109189362139e-05 
9.305747390172661e-06 
8.797049647271443e-06 
8.336762062457127e-06 
7.895235815659055e-06 
7.232821616904633e-06 
7.256047466596788e-06 
7.116418266812761e-06 
6.456132145803893e-06 
6.304644077441151e-06 
5.705540679217336e-06 
5.581941224830842e-06 
5.15502036304656e-06 
4.546692487125302e-06 
4.706028106110384e-06 
4.652873558508383e-06 
4.486657789295431e-06 
4.120079335582472e-06 
4.231854438050581e-06 
4.003919931530992e-06 
4.13502381253633e-06 
4.012466565470387e-06 
3.854111542830626e-06 
3.643677754756778e-06 
3.346460516596282e-06 
3.110346736546585e-06 
3.143695039164937e-06 
2.913586913753898e-06 
2.680200032932615e-06 
2.624011948672432e-06 
1.983655636514472e-06 
2.134593545392336e-06 
1.918547298718816e-06 
1.585055350313775e-06 
1.527024354671514e-06 
1.599263027744541e-06 
1.558935249004004e-06 
1.316099650359273e-06 
1.230535366964438e-06 
1.033951963109451e-06 
8.676157518217046e-07 
5.240309533548672e-07 
1.794700460045444e-19 
0.0001073166339415029 
