solver_type L2R_LR
nr_class 2
label 0 1
nr_feature 105
bias 1
w
0 
0.000564020098912766 
0.0004006813887910288 
-0.0001199433082889722 
-0.0001721954703788904 
-0.0001041375061696153 
-0.0001193201143546972 
-0.0001676706652712288 
-0.0001284950593587748 
-0.0001107332593923538 
-5.600239126409854e-05 
-8.396772005226513e-05 
-7.647827202894235e-05 
-6.233863844762814e-05 
-4.61157474617141e-05 
-2.068597947124871e-05 
-2.988247290592837e-05 
-3.071427195577448e-05 
-4.404831177582869e-05 
-4.527346901777411e-05 
-4.858416353082279e-05 
-3.836525536794508e-05 
-4.404665494556329e-05 
-4.455827623424271e-05 
-4.021340201155443e-05 
-4.122797965299129e-05 
-3.4519448534147e-05 
-4.219237622050345e-05 
-3.439641097835718e-05 
-2.873046512953416e-05 
-2.750556382311319e-05 
-2.138925042044754e-05 
-1.995323276025e-05 
-1.622987531326959e-05 
-2.045254122663566e-05 
-1.286985996115961e-05 
-1.469085240459935e-05 
-1.521129846562272e-05 
-1.048943205717754e-05 
-7.268112797666902e-06 
-1.147253681396189e-05 
-1.101165947280203e-05 
-1.251916591110875e-05 
-1.334035579906083e-05 
-9.985658149783033e-06 
-1.097018242776462e-05 
-1.010384521356563e-05 
-7.767451338757918e-06 
-4.147415706379912e-06 
-5.490403359448733e-06 
-4.319465589707441e-06 
-3.680545016554752e-06 
-3.094099011991956e-06 
-2.461441829061901e-06 
-3.425375237002454e-06 
-3.535437613594175e-06 
-2.937807254866256e-06 
-2.555804139237353e-06 
-2.430997365097921e-06 
-2.674353878920648e-06 
-2.632650839268328e-06 
-2.500860092913632e-06 
-2.722676079041373e-06 
-2.18693290944058e-06 
-1.958714912743774e-06 
-2.161892569593524e-06 
-1.520831689900063e-06 
-1.857977378095041e-06 
-2.046258559809435e-06 
-2.15680180292478e-06 
-2.080490906000137e-06 
-1.685033805490507e-06 
-1.829648170542635e-06 
-1.510255355792627e-06 
-1.509040276192633e-06 
-1.589236756500896e-06 
-1.706799926902108e-06 
-1.870938903121299e-06 
-1.458929698751556e-06 
-1.382291772983301e-06 
-1.462813534233257e-06 
-1.524800639394183e-06 
-1.354400673581703e-06 
-1.270406907405829e-06 
-1.235539226145208e-06 
-1.154339018088531e-06 
-1.218350607878194e-06 
-1.452545953744352e-06 
-1.54535495045432e-06 
-1.370287188895543e-06 
-1.474287732883895e-06 
-1.334436294685406e-06 
-1.153897733993907e-06 
-1.164403281642792e-06 
-1.03257541403746e-06 
-1.029043918290137e-06 
-9.712471008413806e-07 
-1.180357725633679e-06 
-1.055701714394923e-06 
-9.552419802063893e-07 
-8.430681382804843e-07 
-7.758592348478251e-07 
-6.925256011878854e-07 
-7.148734051730108e-07 
-1.999763626298936e-19 
-8.92874297089467e-06 
