solver_type L2R_LR
nr_class 2
label 0 1
nr_feature 105
bias 1
w
0 
0.0001791896460089754 
-0.0001453174723522239 
0.0002863551336140422 
9.002532218105064e-05 
0.0001831299070340941 
8.398669697020272e-05 
0.0002204902423893561 
0.0002896444678110408 
0.0002420467264301571 
0.0001156180344738585 
0.0001155198784805242 
8.214637843350129e-05 
0.0001392652196443142 
0.0001513882462133397 
9.700437366212568e-05 
8.531733977864897e-05 
9.531424635033774e-05 
0.0001009578779207572 
0.0001091614980393048 
9.139772969164568e-05 
8.220483631082155e-05 
8.968077106084876e-05 
7.009639064789474e-05 
7.374533782369441e-05 
6.305136358604543e-05 
6.436148702936099e-05 
6.861939423703206e-05 
6.846452531116138e-05 
6.576417833529838e-05 
6.329099196279012e-05 
5.475605687758211e-05 
5.658333954690362e-05 
5.492410227301518e-05 
5.448382106642379e-05 
5.147777220928729e-05 
4.986343958952574e-05 
4.771155424537639e-05 
4.197643945618323e-05 
3.936909095284881e-05 
3.567108848569525e-05 
3.24789976099456e-05 
3.077654659824814e-05 
3.090600090787104e-05 
2.752215102072028e-05 
2.461079481252188e-05 
2.431005575871538e-05 
2.368743883903685e-05 
2.358373901030522e-05 
2.254701661000537e-05 
2.040095963099436e-05 
1.853909851322636e-05 
1.831258510994285e-05 
1.727389548143196e-05 
1.594732187560169e-05 
1.44354938577313e-05 
1.427818786411758e-05 
1.229753654800938e-05 
1.189922723580054e-05 
1.097074346979974e-05 
9.782077496660568e-06 
8.836232836331336e-06 
8.761294921240827e-06 
8.33652933078846e-06 
8.288318643339524e-06 
8.301400227078793e-06 
7.10506628377485e-06 
6.71223491815959e-06 
6.621593577263898e-06 
6.730338768812569e-06 
6.51778084322523e-06 
5.236999988502795e-06 
4.971498714330087e-06 
4.763275808516259e-06 
4.660032022481126e-06 
4.332630519911707e-06 
3.87709340164038e-06 
3.77388872169504e-06 
3.336276553680594e-06 
3.034222079801105e-06 
2.810569571322791e-06 
2.955640865214037e-06 
2.604469330229674e-06 
2.464507036416478e-06 
2.693646542320985e-06 
2.569914530842259e-06 
2.300762504366819e-06 
1.787210571043668e-06 
1.870912039771647e-06 
1.544160635488957e-06 
1.281828584693414e-06 
1.500905339564441e-06 
1.250971200656916e-06 
1.090497940299822e-06 
1.003581843602533e-06 
9.828909005697008e-07 
9.287939004131776e-07 
7.880309384870772e-07 
6.957469487554922e-07 
5.131737369016477e-07 
6.441451181116796e-07 
5.029826315432918e-07 
5.281007038840748e-07 
2.262893562645493e-07 
2.340854615721042e-19 
-1.862508505512843e-05 
