solver_type L2R_LR
nr_class 2
label 0 1
nr_feature 105
bias 1
w
0 
-0.0002560768392403237 
-0.0003898137135820912 
-0.0001893847805243221 
3.426536308932068e-05 
8.223180884697173e-05 
7.189644144926811e-05 
0.0001300989555349626 
0.0002438188596502072 
0.0001698124530849472 
0.0001352637562105915 
0.0001497975844403932 
0.0001361378559039437 
0.0001643515199247964 
0.0001632612949019273 
0.0001252393778894341 
0.0001290547110161898 
0.0001322341705143407 
0.0001239014783774531 
0.0001224082632439223 
0.0001047391480944224 
9.336450718526869e-05 
0.0001028357270464115 
9.257704793629285e-05 
8.309348767556449e-05 
8.239552485473334e-05 
8.714415441239558e-05 
9.229611024003906e-05 
8.701867894331245e-05 
8.118528529567816e-05 
7.527361883617254e-05 
6.678113967906303e-05 
7.044905584102147e-05 
6.831470162158041e-05 
6.389684778286613e-05 
6.127643689170715e-05 
6.222375796289619e-05 
5.658617954047058e-05 
5.545350590323075e-05 
5.356804476296673e-05 
4.826974246179208e-05 
4.580817500072381e-05 
4.428223350842464e-05 
4.125564215489105e-05 
3.807537393440167e-05 
3.508297225825717e-05 
3.221772486151613e-05 
3.065661825422413e-05 
3.039800012877364e-05 
2.920919666927235e-05 
2.676512770537562e-05 
2.431715747175827e-05 
2.338514124178618e-05 
2.204423175324955e-05 
2.054555509661635e-05 
1.961598884861786e-05 
1.957125508379488e-05 
1.696735948980719e-05 
1.664819840006833e-05 
1.495959569559654e-05 
1.339856525132448e-05 
1.330879648228042e-05 
1.23743678079554e-05 
1.166291956397245e-05 
1.113468564695033e-05 
1.081066827209671e-05 
1.02623164516435e-05 
9.485082924461221e-06 
8.937386945018432e-06 
8.805480342796701e-06 
8.914429693678088e-06 
7.979065306982833e-06 
7.446459583678361e-06 
7.25313869432619e-06 
6.660189029417781e-06 
6.57939933529768e-06 
6.121041939637122e-06 
5.983421408728916e-06 
5.597493041830443e-06 
5.19779244414561e-06 
4.74902743308756e-06 
4.458479595360352e-06 
4.477987759619438e-06 
4.267310012038872e-06 
4.08777196869792e-06 
3.723102083119919e-06 
3.658226815867832e-06 
3.239690898050948e-06 
2.935068395192958e-06 
2.667185486302796e-06 
2.280904282556156e-06 
2.30322194229777e-06 
2.328797839710567e-06 
2.170763144591437e-06 
1.864157391655241e-06 
1.947350572359652e-06 
1.722747302370054e-06 
1.507101440975333e-06 
1.578088923021914e-06 
1.142815383549797e-06 
1.298472675968845e-06 
9.420658274761143e-07 
9.994821543379627e-07 
7.173335185004286e-07 
2.780425233122488e-19 
2.690663655922689e-06 
