solver_type L2R_LR
nr_class 2
label 0 1
nr_feature 105
bias 1
w
0 
-0.001243051080965624 
-0.0009816808993869121 
-0.0004837743168650748 
-5.459690423914471e-05 
3.240881271520673e-05 
3.360562843012086e-05 
7.540548987849634e-05 
0.0001115154794994114 
6.276742469514417e-05 
2.723024763150509e-05 
9.24363678722488e-06 
4.035581880541442e-05 
4.851405350033704e-05 
4.231953284665683e-05 
5.018564346434532e-05 
4.911183068628506e-05 
5.138518995798224e-05 
4.676803361823202e-05 
4.956882460222812e-05 
5.569169971083102e-05 
5.451482981896502e-05 
4.937387127407036e-05 
5.103314049883632e-05 
4.176304303741226e-05 
4.036288019824454e-05 
3.794916747584054e-05 
3.787626336059382e-05 
2.870144157710674e-05 
2.855710109530636e-05 
2.865764127446568e-05 
2.97320448064673e-05 
3.30231937821074e-05 
3.331110033710583e-05 
2.786806704947719e-05 
2.447853074664786e-05 
2.166269132987869e-05 
2.415831249807458e-05 
2.307821728667212e-05 
1.817794838173655e-05 
1.938525575879724e-05 
2.066208176841871e-05 
2.067605069345976e-05 
1.647409205695512e-05 
1.713810141831268e-05 
1.584425098715935e-05 
1.411706632195429e-05 
1.296117513880224e-05 
1.307721182382366e-05 
1.199923268296769e-05 
1.178658360919225e-05 
1.143876606303933e-05 
9.923347450733195e-06 
9.967529826174864e-06 
9.656197727145873e-06 
8.10025153155073e-06 
8.379775156357139e-06 
7.985388290969235e-06 
7.389436583875616e-06 
6.962143453559802e-06 
6.917260114493411e-06 
6.950874617408407e-06 
6.880578916400834e-06 
6.863937601473907e-06 
6.292844836137165e-06 
5.72626059382445e-06 
6.235087761551411e-06 
5.473301919183547e-06 
5.647087334346168e-06 
4.941047082692416e-06 
4.865285274105232e-06 
5.038174652251647e-06 
5.104988398249322e-06 
4.586181099699716e-06 
4.536669612189257e-06 
4.464776924357146e-06 
4.052580708208406e-06 
3.38624725032095e-06 
3.60379405450303e-06 
3.361939301412203e-06 
3.349422883004117e-06 
3.256391533677438e-06 
3.064091013855826e-06 
3.079172984566687e-06 
2.86065734284097e-06 
2.728898247402114e-06 
2.514727141462425e-06 
2.551202804522654e-06 
2.598641471497865e-06 
2.201028582950113e-06 
2.295685178713168e-06 
2.317917083260592e-06 
2.157266149509478e-06 
2.310201524859109e-06 
1.923974119422463e-06 
1.794295647944852e-06 
1.772368890891497e-06 
1.683911910808376e-06 
1.368810206738508e-06 
1.274011875215453e-06 
1.24106533422014e-06 
1.132420327378714e-06 
8.583261521910069e-07 
1.094554927953896e-06 
1.508833442789355e-19 
3.868368588738385e-05 
