solver_type L2R_LR
nr_class 2
label 0 1
nr_feature 105
bias 1
w
0 
-0.0001421682400915252 
0.0004655555450983885 
0.0001087539554476254 
0.0001671532594411603 
0.0001769465831115877 
0.0002507873585014609 
0.0001680582717180313 
0.0002082828891061942 
0.0001827356875289866 
0.0001850224353686623 
0.0001698869627081513 
0.0001853106174274435 
0.0001490246847754169 
0.0001518852549398096 
0.0001594693971083586 
0.0001665666783964343 
0.0001474878356158509 
0.000124109438690168 
0.0001132032806459227 
9.097134214815331e-05 
7.68049164503042e-05 
8.715628453180028e-05 
8.406775928978128e-05 
6.631799370425494e-05 
6.457695391795952e-05 
6.191612936379903e-05 
6.222728181158619e-05 
5.781734092115094e-05 
6.127881438118202e-05 
5.283779031661653e-05 
4.816272697442694e-05 
4.578724110478654e-05 
4.678068568651241e-05 
4.572936809897958e-05 
4.293338025098117e-05 
4.603950913762595e-05 
3.964221568262821e-05 
3.945038131226186e-05 
3.804355624466266e-05 
3.350197141956302e-05 
3.273699125785757e-05 
3.144832328618441e-05 
3.176836468117866e-05 
2.829586330740754e-05 
2.528084315372876e-05 
2.330525298614547e-05 
2.383258407501566e-05 
2.423312089929275e-05 
2.249869141188677e-05 
2.104967294533389e-05 
1.906661371610517e-05 
1.89862715928193e-05 
1.852192444825735e-05 
1.595041147313362e-05 
1.507868184968212e-05 
1.488770935046855e-05 
1.324575291303249e-05 
1.33337278033194e-05 
1.208688833958491e-05 
1.117960425739669e-05 
1.069960897901365e-05 
1.060018725280596e-05 
1.00594872726747e-05 
9.216526405579258e-06 
8.781122549177655e-06 
8.094264475041101e-06 
7.630011992388785e-06 
6.96993544044793e-06 
6.69057876118833e-06 
6.519045417896679e-06 
6.159240016174129e-06 
5.990492077732567e-06 
5.294118271475029e-06 
4.856897004295018e-06 
4.595028534486522e-06 
4.660821728953721e-06 
4.439940688284269e-06 
4.07107571176241e-06 
3.615147329936416e-06 
3.396453370397431e-06 
3.333504820663928e-06 
3.320616261178431e-06 
3.199795687105106e-06 
3.050161062376367e-06 
2.668176408886901e-06 
2.761656757088227e-06 
2.646064338304512e-06 
2.01424004250198e-06 
1.911213393339923e-06 
1.498404690484969e-06 
1.40292059282381e-06 
1.670992111079472e-06 
1.273365824091243e-06 
1.086692202969794e-06 
1.334794594444319e-06 
1.160288546401879e-06 
9.147819834980201e-07 
1.002572409295681e-06 
8.593823566117918e-07 
1.002097817367819e-06 
7.857259292016064e-07 
7.327404492990177e-07 
7.336204653629421e-07 
2.550499720516854e-19 
-2.140196812175476e-05 
