solver_type L2R_LR
nr_class 2
label 0 1
nr_feature 105
bias 1
w
0 
-0.0005155274289916099 
-0.0005655985066594669 
-0.0002674551111117612 
2.446980491929554e-05 
-1.008795135035305e-05 
7.126847602456063e-06 
1.544840155146906e-06 
2.288932819934229e-05 
5.078341374611745e-05 
1.722224376616158e-05 
4.091310897424641e-06 
1.798568289937669e-05 
5.531826061992386e-06 
-8.121040626355342e-06 
-9.310133676851263e-06 
-3.114970404489118e-05 
-1.446480471826036e-05 
-1.273179977932869e-05 
-1.431015431477841e-05 
-1.488758342437835e-05 
-5.09329720421015e-06 
-7.648058276168955e-06 
-1.169770324476046e-05 
-3.369727562037651e-06 
-3.6672994668173e-06 
-9.761582733009481e-06 
-7.389753444339604e-06 
-7.683539697964985e-06 
-7.24307930682033e-06 
-6.821898391355166e-06 
-2.9998299789967e-06 
-1.300912908376608e-06 
-2.122323281021652e-06 
2.245410269672325e-06 
-9.015821958907299e-07 
2.342431147718117e-06 
7.113947924986401e-06 
3.322829105353333e-06 
5.556695799334941e-06 
2.744670872887488e-06 
3.530097985016516e-06 
5.474864887612526e-06 
3.34332406399557e-06 
2.513416153582305e-06 
4.778348587630274e-06 
4.068558704909871e-06 
3.227998084567407e-06 
2.565073749736427e-06 
2.934928143631807e-06 
2.618540280257694e-06 
2.172247740101229e-06 
1.380247837301644e-06 
1.920163357786794e-06 
1.85043183778669e-06 
1.666354759098474e-06 
1.618726349347906e-06 
1.45395272051304e-06 
1.463414953729512e-06 
1.728105318843158e-06 
1.415341963016631e-06 
1.473342209216819e-06 
1.339815830016373e-06 
1.47898407188944e-06 
9.216937035881606e-07 
1.109473562131131e-06 
6.16639974388003e-07 
6.050727605958633e-07 
3.062485149421895e-07 
8.185278926413291e-07 
7.274378414825529e-07 
5.495098830832407e-07 
4.118632997351797e-07 
6.757525355968835e-07 
6.916594929209298e-07 
3.229504084423127e-08 
5.505030719175473e-07 
8.417008700247585e-07 
7.815466659011022e-07 
5.302303738115305e-07 
4.65216004646623e-07 
6.652346673622915e-07 
6.35026202762372e-07 
4.28820323632253e-07 
5.868310196710981e-07 
8.118842534523989e-07 
7.627251188466127e-07 
6.109131917371193e-07 
6.417840267714288e-07 
6.45264002203161e-07 
5.320466343918235e-07 
6.893699325218362e-07 
6.181237619553778e-07 
4.487575356993605e-07 
3.364904380706874e-07 
2.391421083553252e-07 
2.093754869781274e-07 
2.54037484169947e-07 
5.23984499746002e-08 
2.132229211834989e-07 
3.553780739999041e-07 
4.142603929895447e-07 
3.92707964820314e-07 
4.248204664894849e-07 
6.575578010940164e-20 
1.44429766318549e-05 
