solver_type L2R_LR
nr_class 2
label 0 1
nr_feature 105
bias 1
w
0 
0.00101291495368461 
0.001001628354138815 
0.0005356039698642212 
0.0001663032840293041 
0.0002273203840933531 
0.0001311052985567987 
0.0001136280203811145 
0.0001340030694483472 
6.464077384436508e-05 
2.802305523180513e-05 
2.543945383726343e-05 
4.906150031781144e-05 
3.749939234134276e-05 
4.498036688293488e-05 
5.619475338960817e-05 
5.738606831964315e-05 
7.493105825379543e-05 
4.879545381549366e-05 
4.447413314992709e-05 
5.359714361272382e-05 
5.326326747629643e-05 
5.107042145952918e-05 
5.506158268167478e-05 
4.459926883724284e-05 
4.329890736367174e-05 
4.531274270290604e-05 
4.256320026313093e-05 
3.464038850477518e-05 
3.334641629169492e-05 
3.763606434427197e-05 
3.52005013056444e-05 
3.531802655850513e-05 
3.387880859056998e-05 
2.973524471635233e-05 
3.045225017746833e-05 
3.163650490362867e-05 
3.051341717294745e-05 
3.111192221395361e-05 
2.991162293388781e-05 
2.891899146190772e-05 
2.798369170855772e-05 
2.369600456952238e-05 
2.308626155215459e-05 
2.204635171349582e-05 
2.155948614939748e-05 
2.125258338815213e-05 
2.026771900626533e-05 
1.897961214651123e-05 
1.791016764580169e-05 
1.776578350533436e-05 
1.811384367995984e-05 
1.684113047882571e-05 
1.63954223908915e-05 
1.427842727996661e-05 
1.369429496662708e-05 
1.318648352270291e-05 
1.204465394140835e-05 
1.135498982171487e-05 
1.044243814068214e-05 
9.925941932930855e-06 
8.546841700742403e-06 
6.935239923380121e-06 
7.395984893181917e-06 
7.366353909913531e-06 
6.744195855984649e-06 
6.032443578398944e-06 
5.633714258997014e-06 
4.956942032187277e-06 
4.771902930540911e-06 
4.128811747547678e-06 
4.225444975129755e-06 
3.84014175034191e-06 
3.511576764826835e-06 
3.327362548557945e-06 
2.856433836934572e-06 
2.569757036739062e-06 
2.005328265127995e-06 
1.994760826478352e-06 
1.937890295612984e-06 
1.611797052376836e-06 
1.716421024142034e-06 
1.570980683237526e-06 
1.545374211142387e-06 
1.066649638092859e-06 
1.23535119043105e-06 
9.429587912846034e-07 
8.607737436494667e-07 
5.721888796671001e-07 
2.459449620372111e-07 
4.953949631533243e-07 
5.556191341004839e-07 
5.970288344465305e-07 
3.531279003908455e-07 
1.944200165496996e-07 
7.482922876624294e-08 
-1.17586742510343e-07 
-1.743414142603853e-07 
-2.61970600459996e-07 
-2.494418225494616e-07 
-1.074810105052815e-07 
-3.762113269179964e-07 
-3.23078152846225e-07 
-5.164394837424055e-07 
-3.652521414895543e-21 
-4.983574158693313e-05 
