solver_type L2R_LR
nr_class 2
label 0 1
nr_feature 105
bias 1
w
0 
-0.002170290453162135 
-0.001057172624771023 
-0.0005956861179002717 
-0.000402531560406791 
-0.0002268107044955892 
-0.0001859232665604819 
-0.0002350243580759394 
-0.0001426664614543452 
-0.0001232085154879307 
-0.0001216406582705316 
-9.983019160645124e-05 
-9.94718273608424e-05 
-8.884390708575167e-05 
-9.134198305587311e-05 
-6.961343041193374e-05 
-6.032108632626838e-05 
-6.511151526609328e-05 
-5.873360733449641e-05 
-7.488817949400343e-05 
-7.605652232073608e-05 
-6.952870184891578e-05 
-5.823913464753163e-05 
-4.414427318094636e-05 
-4.269200650210147e-05 
-5.190936193094178e-05 
-2.389939197074028e-05 
-2.638743872550925e-05 
-2.849501327370259e-05 
-2.382316434743286e-05 
-2.523671123591364e-05 
-2.381990734721406e-05 
-1.453261691272541e-05 
-2.091103983042804e-05 
-1.150603425841915e-05 
-1.454911214378242e-05 
-1.410998979986615e-05 
-1.384726269265473e-05 
-1.355179241428935e-05 
-1.116137815852066e-05 
-9.921352666206551e-06 
-8.059844552107036e-06 
-3.078788397303183e-06 
-3.514680910222621e-06 
9.260839798127739e-07 
-3.093141801477774e-07 
-4.280659864559612e-07 
1.152416268477536e-06 
2.462535782741681e-06 
3.771373905244274e-06 
5.607028812105039e-06 
4.012688217308698e-06 
4.230771944561233e-06 
2.975439353389538e-06 
3.997671310060126e-06 
3.407267382955338e-06 
3.607531091669416e-06 
3.32340858915868e-06 
3.250847419526605e-06 
2.798288482840322e-06 
3.111927867097414e-06 
3.556719214693306e-06 
4.018948082735045e-06 
3.562414519491386e-06 
3.371760903587025e-06 
2.958693011371049e-06 
3.632772510616735e-06 
2.787542449876906e-06 
3.14612714658116e-06 
2.820230575073715e-06 
3.134375461406372e-06 
2.912006602791803e-06 
2.627420313996569e-06 
2.420897740001638e-06 
2.61977836856999e-06 
3.21366330807991e-06 
2.918346372591989e-06 
2.970969269639298e-06 
2.488801430250377e-06 
2.361587657311261e-06 
2.486035412579496e-06 
2.520240804807144e-06 
2.133407380333739e-06 
2.189932421483376e-06 
2.204630655961535e-06 
2.280084086705258e-06 
2.013519279692103e-06 
2.02930324318516e-06 
2.125046505982694e-06 
1.863052306583209e-06 
1.714029138908942e-06 
1.695037794306844e-06 
1.809535450586813e-06 
1.675778320786633e-06 
1.62359198771716e-06 
1.323564644589646e-06 
1.698095217778644e-06 
1.350086192129183e-06 
1.260847196695253e-06 
1.412326307368243e-06 
1.434523020033669e-06 
1.114844195024287e-06 
1.039632373763715e-06 
7.561694151645773e-07 
4.480927000834616e-20 
9.778588738898745e-05 
