solver_type L2R_LR
nr_class 2
label 0 1
nr_feature 105
bias 1
w
0 
0.001789751630588257 
0.001736320722313029 
0.00127893039761676 
0.0003592573028013879 
0.000324832472384475 
0.0002601290242581066 
0.0002341263492325311 
0.0001465037706284499 
0.000149437712254979 
0.0001249901504488157 
9.845052054142136e-05 
0.0001028134061706985 
5.751265313122163e-05 
5.251531760820073e-05 
6.056715937849183e-05 
5.078230625495172e-05 
3.519428633614072e-05 
3.894771654367535e-05 
2.05962512980958e-05 
3.211783445429211e-05 
2.595212120999178e-05 
2.29849608991698e-05 
2.136867645571301e-05 
7.875490908414976e-06 
1.207718309367672e-05 
7.697083815937205e-06 
4.844290819255778e-06 
-3.546416471667916e-06 
-1.206642118305676e-05 
-6.995300467045525e-06 
-2.446498296153617e-06 
-2.853368906985424e-06 
-6.601491281150986e-06 
-1.068038995403844e-05 
-1.2324535803414e-05 
-1.272753645358647e-05 
-1.153854931195088e-05 
-9.471665505306927e-06 
-9.869074663365437e-06 
-1.112226757724016e-05 
-1.090683371798321e-05 
-1.352078962963224e-05 
-1.478402406415405e-05 
-1.400658330853247e-05 
-1.315543046568434e-05 
-1.132945696597742e-05 
-9.443749734253675e-06 
-1.063917272199692e-05 
-8.535793388499013e-06 
-8.328744613590476e-06 
-8.033296905891982e-06 
-7.6507427610127e-06 
-7.077067338627724e-06 
-7.274679378749356e-06 
-7.082318744850514e-06 
-6.817270098410544e-06 
-6.13564813755242e-06 
-5.977466264488284e-06 
-5.630610019630341e-06 
-5.500852860490794e-06 
-6.168928684924188e-06 
-6.585456342891618e-06 
-5.671426032015764e-06 
-4.674943042448803e-06 
-5.193688506373587e-06 
-4.768384377209767e-06 
-4.339371743085422e-06 
-4.84500006264718e-06 
-4.55742369118029e-06 
-4.651602275431458e-06 
-4.311630455977564e-06 
-4.206173231365428e-06 
-4.263545404343963e-06 
-3.680855784784614e-06 
-3.65431594697992e-06 
-3.46592700943983e-06 
-3.595114340056655e-06 
-3.522384288837171e-06 
-3.393581637905217e-06 
-3.324382961559234e-06 
-3.194973753780461e-06 
-2.935665088966455e-06 
-2.871123116751076e-06 
-2.993673755269962e-06 
-2.760086270861206e-06 
-2.59899740057601e-06 
-2.478991376372503e-06 
-2.364286218584898e-06 
-2.555458351472625e-06 
-2.258109349365102e-06 
-2.336027464803466e-06 
-2.248329237553848e-06 
-2.085930905444542e-06 
-1.790541434047357e-06 
-1.883623334410123e-06 
-2.033650040552056e-06 
-1.741487841816432e-06 
-1.735105519146006e-06 
-1.648364043106921e-06 
-1.507860945484192e-06 
-1.400932400135207e-06 
-1.256620767085845e-06 
-1.308649956028535e-06 
-2.372430834680189e-19 
-9.087043581692315e-05 
