solver_type L2R_LR
nr_class 2
label 0 1
nr_feature 105
bias 1
w
0 
-0.001177933914427959 
-0.0005068634836476352 
-0.0004258113075991318 
-0.0003079457002711598 
-0.0001407564277583008 
-0.0001249038012048029 
-0.0001749752405893185 
-6.569506093020919e-05 
-4.398612395378409e-05 
-4.277329639713153e-05 
-4.338354591781288e-05 
-4.006664388126271e-05 
-7.903054605861255e-05 
-4.287979307904505e-05 
-9.757095535159704e-06 
-5.837990529536758e-06 
-1.405635996381829e-05 
-1.808552871337047e-05 
-3.263662275623192e-05 
-4.030802825561993e-05 
-3.585448497432787e-05 
-3.057382708755095e-05 
-1.611085839537034e-05 
-2.26218901185071e-05 
-2.753676406248958e-05 
-1.939710916072045e-05 
-2.439296800371268e-05 
-1.876149751340195e-05 
-1.824531297592087e-05 
-1.716874597521914e-05 
-1.229118157603428e-05 
-5.86236004077561e-06 
-8.082566833389704e-06 
-6.135363817885423e-06 
-4.80127521107728e-06 
-5.964201549952402e-06 
-1.083297975772724e-05 
-4.557551108661337e-06 
-3.152313256319504e-06 
-5.826891567158853e-06 
-4.850316995333825e-06 
-3.738542770922749e-06 
-4.85888350139563e-06 
-9.051594310607344e-07 
-2.356593017181828e-06 
-2.124896431480722e-06 
-5.121450263620049e-08 
1.786532069403753e-06 
8.44946476087471e-07 
2.92261385425167e-06 
2.010300641001575e-06 
2.502228256530501e-06 
3.136549912107212e-06 
1.768645946268647e-06 
1.869589130893344e-06 
1.997076713904662e-06 
2.072541143344774e-06 
2.378577825349751e-06 
2.071082315751698e-06 
2.086333251805089e-06 
2.46646935317326e-06 
2.184366192836646e-06 
2.460976748604745e-06 
2.192995543832876e-06 
1.723063303034181e-06 
2.491301089567314e-06 
2.204106733619259e-06 
1.991632207406789e-06 
1.794281657162582e-06 
1.408738997524243e-06 
1.64807211189002e-06 
1.210641031612618e-06 
1.468781383204176e-06 
1.436157427963805e-06 
1.840058171646615e-06 
1.748428524912823e-06 
1.659489405604492e-06 
1.550741644315326e-06 
1.33750555603081e-06 
1.269650120734988e-06 
1.179246671014527e-06 
1.045035771647157e-06 
9.315161050890184e-07 
9.974976387219398e-07 
9.025850012685705e-07 
9.308895491254896e-07 
8.961651269808275e-07 
7.828235849771095e-07 
6.961556612684966e-07 
4.720352990543464e-07 
5.363528541269016e-07 
6.480095626060633e-07 
6.612365013598953e-07 
4.609973128151876e-07 
3.855102647499003e-07 
7.658173020909328e-07 
3.33665656675611e-07 
2.264563445394849e-07 
5.042180010500527e-07 
5.758539438656875e-07 
3.975697089401177e-07 
4.05941468611168e-07 
2.298990241230802e-07 
-8.956127455073405e-20 
5.337771557803388e-05 
