solver_type L2R_LR
nr_class 2
label 0 1
nr_feature 105
bias 1
w
0 
0.001270304954291401 
0.0009185803592066521 
0.001132873456005262 
0.0002093939751578509 
0.0002933093102321021 
0.0001969742477236742 
0.0002952241502700705 
0.0002382630598934554 
0.0002246016556792274 
0.0001269497430895585 
0.0001226913693864899 
0.0001375004076936771 
0.000121831944854392 
0.0001242953090500289 
9.467580094907812e-05 
8.747679184201253e-05 
6.285396597882937e-05 
7.92072634879704e-05 
7.266630111425312e-05 
6.023866698335033e-05 
4.990639884677909e-05 
5.910448357291975e-05 
4.539889277521132e-05 
4.515206987910176e-05 
3.903676155843472e-05 
3.395786036188016e-05 
2.802834571733909e-05 
2.621410903060623e-05 
1.900616168764289e-05 
1.474723834509562e-05 
1.402115399920653e-05 
1.351128917962789e-05 
8.759074491852174e-06 
8.300016967910309e-06 
7.388657308840646e-06 
4.998941090325054e-06 
2.730044500759054e-06 
-3.672666386355403e-07 
-2.735628508635565e-06 
-2.996113015097066e-06 
-5.034706480550277e-06 
-6.311758816478805e-06 
-3.163879292846589e-06 
-4.606460834819924e-06 
-5.800343699578308e-06 
-4.223738916107104e-06 
-1.278291882903171e-06 
-2.061261831712998e-06 
-1.19511130517814e-06 
-1.363111383248371e-06 
-3.086145279282835e-06 
-2.492977389530493e-06 
-1.892969624193318e-06 
-2.519642256628106e-06 
-2.912332533768412e-06 
-2.646236520387033e-06 
-2.435441294594868e-06 
-2.530005555242131e-06 
-2.247607021906168e-06 
-2.634296402692002e-06 
-3.063598693410003e-06 
-2.516813267158202e-06 
-1.932545639968293e-06 
-1.557766333185049e-06 
-1.843907270734852e-06 
-2.038942654320018e-06 
-1.699873858367466e-06 
-1.975463876478147e-06 
-1.523543702435568e-06 
-1.818320178549557e-06 
-2.116706527538047e-06 
-1.968561751306615e-06 
-2.02665386907644e-06 
-1.425849294862332e-06 
-1.848211306152588e-06 
-1.673625313127645e-06 
-1.655113047838509e-06 
-1.924508422723199e-06 
-2.002734304401022e-06 
-1.799139284673756e-06 
-1.680106510400508e-06 
-1.629583732531066e-06 
-1.601933069381297e-06 
-1.31391423635186e-06 
-1.143741487414724e-06 
-1.146684261604608e-06 
-1.386244722435907e-06 
-1.214933803630305e-06 
-1.273425628305691e-06 
-1.118847479596323e-06 
-1.222775493541382e-06 
-1.150026935563828e-06 
-1.108634573660147e-06 
-7.981416385739753e-07 
-9.975804491169415e-07 
-9.406177352247029e-07 
-7.943483379200375e-07 
-7.849006455642743e-07 
-8.750538077466335e-07 
-7.968484438071451e-07 
-4.854143575216668e-07 
-6.439906110081024e-07 
-6.247486836636132e-07 
-5.078610990362123e-20 
-6.974300986553235e-05 
