solver_type L2R_LR
nr_class 2
label 0 1
nr_feature 105
bias 1
w
0 
-0.0005117739718662459 
-0.0007831028079792451 
-0.0005554628487285452 
-0.0001265791892164927 
-0.0001987468492713313 
-0.000251010788432027 
-0.0002040791261822634 
-0.00014710068778366 
-8.607426894997141e-05 
-0.000101544058590347 
-0.0001132001838115944 
-9.913677079561605e-05 
-0.0001249330334632659 
-0.000124699573415682 
-0.0001191451692608114 
-0.0001232467799397794 
-0.0001179868811406722 
-0.0001093592291011809 
-0.000106480218717458 
-9.295303948724296e-05 
-8.97247094801493e-05 
-8.412575067552539e-05 
-8.21459221627506e-05 
-7.301838250684464e-05 
-7.146702830948102e-05 
-6.945610756848078e-05 
-6.585645578874057e-05 
-7.260843727991376e-05 
-6.420332199428957e-05 
-6.3630362915296e-05 
-6.410892318635423e-05 
-5.88436101904153e-05 
-5.327846617714675e-05 
-5.139145950950814e-05 
-4.935341406042162e-05 
-4.703048763417806e-05 
-3.928931604675108e-05 
-3.791473206114455e-05 
-3.81830648753435e-05 
-3.648072856567977e-05 
-3.404518925734402e-05 
-2.834608970655811e-05 
-3.012879561385864e-05 
-2.917825689796883e-05 
-2.656453900089123e-05 
-2.608957143489461e-05 
-2.591751500808858e-05 
-2.324480887771904e-05 
-2.313988353648185e-05 
-2.21847967524394e-05 
-2.082401483846009e-05 
-2.094377712933571e-05 
-1.862794353978151e-05 
-1.716926782439341e-05 
-1.755089684684727e-05 
-1.634605566502549e-05 
-1.489467955280426e-05 
-1.404025002157663e-05 
-1.284283978334754e-05 
-1.202251113646373e-05 
-1.115388114528359e-05 
-1.018325105924861e-05 
-9.617978910013489e-06 
-9.618823967859158e-06 
-9.173649591079027e-06 
-8.803030306024053e-06 
-8.069184747842892e-06 
-7.649568510066484e-06 
-7.367920883994182e-06 
-6.992017181621811e-06 
-6.369175792864006e-06 
-5.953845978352179e-06 
-5.469669249402941e-06 
-5.156677428604912e-06 
-4.82996628890733e-06 
-4.311920813707201e-06 
-4.108790706997949e-06 
-3.426474351813921e-06 
-3.594127304096295e-06 
-3.421127283914576e-06 
-3.090599343750926e-06 
-2.865547073905921e-06 
-2.746859206027532e-06 
-2.529536988675613e-06 
-2.224974327797359e-06 
-1.978859778726754e-06 
-1.972841021070466e-06 
-1.537282101535778e-06 
-1.50015679080146e-06 
-1.413039631845957e-06 
-1.004623638084605e-06 
-9.850150929378345e-07 
-7.321840008036588e-07 
-8.489177643816341e-07 
-6.813003274235573e-07 
-5.454682652710055e-07 
-5.622673499595561e-07 
-5.532667532654685e-07 
-3.327009453848418e-07 
-8.5064001704698e-08 
-9.771143656380006e-08 
-1.447939291193727e-07 
1.05572089936394e-07 
-2.221097289628044e-19 
3.332810570681148e-05 
