solver_type L2R_LR
nr_class 2
label 0 1
nr_feature 105
bias 1
w
0 
0.0005214227406095254 
0.0003537390359260659 
0.0003822431539728912 
-0.0001345467343795555 
-6.582727245549915e-05 
-0.000144701499246034 
-0.0001181972199737733 
-0.0001186295213837838 
-9.007305446644165e-05 
-6.201204413652297e-05 
-5.485379537454491e-05 
-8.620366064329643e-05 
-4.995288671065966e-05 
-4.502572262279202e-05 
-6.027235556581637e-05 
-2.924558037418086e-05 
-2.261180342420168e-05 
-2.477704105376972e-05 
-2.828754739417914e-05 
-2.343683160891495e-05 
-3.036045503081371e-05 
-2.016192450123673e-05 
-1.486545655589573e-05 
-1.116198094414774e-05 
-1.856813833995843e-05 
-1.022512475519906e-05 
-8.177205304547293e-06 
-6.422555321952885e-06 
-1.918422859696279e-05 
-1.972721619669074e-05 
-1.195599565327668e-05 
-8.400832794189957e-06 
-1.227526207311767e-05 
-1.40374459375785e-05 
-1.834257401442989e-05 
-1.670478199929274e-05 
-1.989987553373823e-05 
-1.67548213926625e-05 
-1.522693785282381e-05 
-1.518925182582193e-05 
-1.7700573374964e-05 
-1.639247378655493e-05 
-1.598379662233879e-05 
-1.476124008235269e-05 
-1.46903314220287e-05 
-1.557217695421303e-05 
-1.393392059959806e-05 
-1.250831579051845e-05 
-1.228407571207268e-05 
-1.10412149522446e-05 
-1.04742835765727e-05 
-1.133112647055311e-05 
-1.012972955465859e-05 
-9.935866818924758e-06 
-8.631888177555241e-06 
-7.47743036987e-06 
-7.76855609709724e-06 
-7.740737332983339e-06 
-7.015048264151025e-06 
-6.504408684897909e-06 
-7.004866263789563e-06 
-6.642992863128671e-06 
-6.044018227304088e-06 
-5.491148856811228e-06 
-5.239480948887936e-06 
-5.253364853921927e-06 
-5.057041535657871e-06 
-4.074395502515832e-06 
-4.411140373839084e-06 
-4.629185666963911e-06 
-4.148155383719503e-06 
-3.965043979577323e-06 
-3.4319772689955e-06 
-3.168250078844591e-06 
-2.815404014228606e-06 
-2.817908602838834e-06 
-2.701213433916922e-06 
-2.675818632147784e-06 
-2.980265872600618e-06 
-2.601049542351793e-06 
-2.598868195932623e-06 
-2.438217349055219e-06 
-2.190282861451629e-06 
-2.06931108204964e-06 
-1.753138424579411e-06 
-2.088775824968976e-06 
-2.030319356002637e-06 
-1.740753531838999e-06 
-1.780851458696066e-06 
-1.617104800017101e-06 
-1.649552098492915e-06 
-1.397445677809937e-06 
-1.129719943019208e-06 
-1.147630533107426e-06 
-9.863977061984657e-07 
-8.883417193664046e-07 
-7.806242009839673e-07 
-1.037386215912499e-06 
-1.078005938210443e-06 
-9.038434712523122e-07 
-7.914653495306555e-07 
-5.793410097272537e-07 
-2.881729945744976e-07 
-4.979393322425008e-20 
-1.08683723002306e-05 
