solver_type L2R_LR
nr_class 2
label 0 1
nr_feature 105
bias 1
w
0 
0.0007091640378113113 
0.0005180182192946794 
7.811681832988329e-05 
2.658586298895106e-05 
4.121128144447526e-05 
4.48766054063473e-05 
7.918353482432128e-06 
1.835679827566727e-05 
9.572638755358232e-06 
6.914837418426172e-05 
9.934968427227234e-05 
4.728275436365876e-05 
4.63822138060385e-05 
2.167563878450844e-05 
4.205075900984629e-05 
1.257394703453403e-05 
1.140986102812165e-05 
8.267261480238705e-06 
6.05491464088951e-06 
9.890835317164658e-06 
6.969458440367605e-06 
-5.318625165546017e-06 
-2.067783632237828e-07 
-9.967325304303168e-07 
-7.810444304477332e-06 
-1.116253943785614e-05 
-1.162619459073343e-05 
-1.033603850299639e-05 
-5.044294379493162e-06 
-3.637249893950814e-06 
2.683356932834251e-07 
-4.45579016909586e-06 
-1.008064220905894e-07 
-3.471427989962444e-06 
-4.504222940386737e-06 
-1.011693980543186e-06 
2.615811982461153e-06 
1.97960228407946e-06 
-4.358750110532492e-08 
1.939913669462062e-06 
2.363337120842074e-06 
8.221254171050203e-09 
2.012683821128489e-06 
8.782764368693518e-08 
2.177003259797211e-06 
2.197287812918347e-06 
6.575109182727089e-07 
9.353679558507122e-08 
1.898987575095705e-07 
7.064813932189033e-07 
1.640009547409287e-06 
1.62438520946957e-06 
1.049299338739902e-06 
-1.687063428996433e-07 
5.632611329635754e-07 
2.445966025890969e-07 
4.039313895276598e-07 
4.98041748457478e-08 
-3.639367443328244e-07 
-6.60988076082958e-07 
-9.998046241499064e-07 
-1.092666771313306e-06 
-1.442144411367297e-06 
-7.009363698876827e-07 
8.001433557084917e-08 
2.82435588443822e-07 
8.220712234628741e-09 
-1.382617642831461e-07 
-4.185458596029914e-07 
-4.026311073733823e-10 
3.501539472830638e-08 
3.809193870631141e-07 
2.14505803644587e-07 
2.734498598352702e-07 
-2.095070092258455e-07 
4.299165746481713e-08 
-2.296298150849045e-07 
-4.04513809977577e-07 
-6.452275726835698e-07 
-4.955371009891492e-07 
-5.317586626295876e-07 
-6.256814382899969e-07 
-3.982975298975287e-07 
-4.196950929428152e-07 
-4.648109467251246e-07 
-7.480830243763118e-07 
-4.920270727465244e-07 
-5.613766979295684e-07 
-7.890106061224013e-08 
-1.273619018875449e-07 
6.601596665307976e-08 
-1.561914044006168e-07 
-4.266908417856939e-07 
-3.60064833192729e-07 
-2.186556049463887e-07 
-3.301588790162527e-07 
-5.251545355829178e-07 
-2.525915597188167e-07 
-3.27225978740661e-07 
-2.597810059676467e-08 
2.580499086403358e-08 
-2.593381514783475e-07 
-3.553308978349768e-08 
6.38367064095325e-20 
-2.87040508851191e-05 
