solver_type L2R_LR
nr_class 2
label 0 1
nr_feature 105
bias 1
w
0 
-0.001195611451101152 
-0.001752999839835096 
-0.001650621244344659 
-0.0005016248248387427 
-0.0005224769679524302 
-0.0004502217647013944 
-0.0004212766089725831 
-0.0003374232248789359 
-0.0003121544507873487 
-0.000264950207318432 
-0.0002420742685382924 
-0.0001933076843667696 
-0.0001946925536584395 
-0.0002111654356313807 
-0.000176186498037866 
-0.0001655372502969039 
-0.000138671305964843 
-0.0001383315802793981 
-0.0001288749970027642 
-0.0001294870098568005 
-0.0001321079694604818 
-8.875325462151945e-05 
-8.862203439963489e-05 
-9.216472975562829e-05 
-7.823552179477312e-05 
-8.381990061496877e-05 
-7.79714824513773e-05 
-6.063165198990528e-05 
-5.913115212994812e-05 
-5.642370468901094e-05 
-4.843454699306846e-05 
-4.658867714578351e-05 
-4.65469433296602e-05 
-3.901685522677057e-05 
-3.747851573587035e-05 
-3.346659519486736e-05 
-2.994113159727236e-05 
-3.048004053147714e-05 
-2.716417782803865e-05 
-2.85801812150899e-05 
-2.49405293079914e-05 
-2.112684547497246e-05 
-2.130365096696509e-05 
-2.094567546548465e-05 
-1.815728678576846e-05 
-1.848678562617561e-05 
-1.537109967458929e-05 
-1.545708978431212e-05 
-1.45544689427232e-05 
-1.474208502435946e-05 
-1.397026633517158e-05 
-1.399449845019485e-05 
-1.160652293020949e-05 
-1.293700068005235e-05 
-1.124445843168627e-05 
-1.113344433470916e-05 
-9.300720482085912e-06 
-8.933509312634107e-06 
-8.432289272264149e-06 
-7.865207529521908e-06 
-6.553651332636354e-06 
-5.721092657127012e-06 
-5.521165049562433e-06 
-5.520155748205759e-06 
-4.938176272371455e-06 
-4.54271467360059e-06 
-3.73789161038328e-06 
-3.636845356276488e-06 
-3.208501193381211e-06 
-3.052697523932264e-06 
-3.239548848676575e-06 
-2.510586657982772e-06 
-2.289814973200054e-06 
-2.311043103558313e-06 
-1.558767897482734e-06 
-1.525319050714625e-06 
-1.345345271188029e-06 
-1.108673421008226e-06 
-5.620110901480053e-07 
-5.482033005004538e-07 
-3.784664858491514e-07 
-6.395073818779913e-07 
-5.363038704530979e-07 
-3.216457526669534e-07 
-7.518976161629676e-08 
-1.407643439029927e-08 
1.637309447762193e-07 
2.805771511482735e-07 
2.57802605393498e-07 
1.628927952141705e-07 
3.032777033975393e-07 
4.63333700493395e-07 
2.546963344885924e-07 
4.232538128441996e-07 
3.404537361145507e-07 
5.277366334715304e-07 
4.139100878946478e-07 
7.123554266680102e-07 
5.913350079712434e-07 
7.842213638064052e-07 
6.447143108288299e-07 
4.807514674428446e-07 
5.971500973442395e-07 
-1.384297289604924e-19 
0.0001055921492580919 
