solver_type L2R_LR
nr_class 2
label 0 1
nr_feature 105
bias 1
w
0 
0.001736264054292997 
0.001150555773276497 
0.0007309231535480162 
0.000432110751357357 
0.0003479694062583554 
0.0002659202018258669 
0.0002564853180494836 
0.0001849521417899944 
0.0001568715859970358 
0.0002301419031457781 
0.0001921942243268058 
0.000195820673370884 
0.0001557409823921531 
0.0001397268348344295 
7.072525850074412e-05 
9.85243188218451e-05 
7.891006302689795e-05 
8.478008449975585e-05 
6.868624664674338e-05 
6.499353548616835e-05 
6.836399203518677e-05 
6.841066929271784e-05 
4.044866461539933e-05 
4.162106356542087e-05 
3.037348304659589e-05 
2.11130319776174e-05 
1.658280974951698e-05 
8.467294800819077e-06 
1.003567996883498e-05 
4.977047017698718e-06 
2.823630821963993e-06 
4.013209795118635e-07 
1.181908682008787e-06 
4.745298402662636e-08 
3.366778561924444e-07 
-6.442393683566743e-07 
-9.094617261627966e-07 
-5.932198300806371e-07 
-5.979737946566572e-07 
-1.148420067716068e-06 
-7.289905057984287e-07 
-3.978370462219507e-06 
-4.778805250206265e-06 
-3.418848331177889e-06 
-6.599738709913906e-06 
-4.645922143720497e-06 
-4.44016631305964e-06 
-5.631009283606812e-06 
-3.622483860340416e-06 
-4.964188322666401e-06 
-5.832469629556798e-06 
-4.572393757184011e-06 
-3.965111013595377e-06 
-3.78991475530186e-06 
-4.512619701634591e-06 
-5.173622104900853e-06 
-4.721980768051727e-06 
-4.326601093852633e-06 
-4.488171973044411e-06 
-5.279491667606159e-06 
-4.684440386313419e-06 
-4.099443100004986e-06 
-3.994292083370815e-06 
-3.601177713134032e-06 
-3.601785108485333e-06 
-3.164415188198297e-06 
-3.531709806052615e-06 
-3.391320932650663e-06 
-3.084998130794902e-06 
-3.351850116937988e-06 
-2.97646456394666e-06 
-2.559214538733717e-06 
-3.090824412285884e-06 
-2.597840314764104e-06 
-2.712278512185937e-06 
-3.059099888325523e-06 
-2.532995563711927e-06 
-2.454722864463642e-06 
-2.209727570434078e-06 
-2.161573416443959e-06 
-2.100067421884673e-06 
-2.085146836729716e-06 
-2.102012167061341e-06 
-1.976154786093519e-06 
-2.22489962970725e-06 
-1.787388587939932e-06 
-1.37950505372186e-06 
-1.629729400380085e-06 
-1.623239131245475e-06 
-1.445057858623141e-06 
-1.37293029892737e-06 
-1.296387129182656e-06 
-1.081247431570062e-06 
-1.215204414821167e-06 
-1.201285411752184e-06 
-1.09992145048406e-06 
-9.99032336730822e-07 
-9.493707380310757e-07 
-1.124212438986816e-06 
-1.283521949675429e-06 
-1.109401709516169e-06 
-9.32320282686921e-07 
-9.115820777943022e-07 
-1.662477633749288e-19 
-8.532709268672358e-05 
