solver_type L2R_LR
nr_class 2
label 0 1
nr_feature 105
bias 1
w
0 
0.0002076118609673684 
0.001186939981003627 
0.0007229098650258629 
0.0004324560222480165 
0.0004904540190237386 
0.0003757842642900589 
0.0003451111825634616 
0.0003059363678953328 
0.0003038364794561874 
0.0003270167640263295 
0.0002918081930108922 
0.0002436827487280648 
0.0002602111934271439 
0.0002054930539963722 
0.000233966284864949 
0.0001989495651370951 
0.000185386650966106 
0.0001607516321435234 
0.000145469420907605 
0.0001257779478275434 
0.0001214628802336032 
9.516647875067261e-05 
9.05724357341196e-05 
9.721913794527793e-05 
8.475385399331601e-05 
7.224840480238596e-05 
6.40842141496318e-05 
5.736443775269182e-05 
5.440578500698353e-05 
5.17401690623407e-05 
4.886854570885897e-05 
3.995996122890462e-05 
4.361441529018737e-05 
3.836848620212859e-05 
3.428695079665201e-05 
3.328635689344045e-05 
3.151582879776525e-05 
3.125625902276863e-05 
2.80832817791483e-05 
2.399089648811891e-05 
2.122021467775859e-05 
1.854752796214809e-05 
1.920594205985154e-05 
1.918580508606449e-05 
1.483506762537882e-05 
1.124292488346896e-05 
1.248015391400789e-05 
1.071968186233726e-05 
1.071216837751463e-05 
9.97555257676015e-06 
8.487273360076383e-06 
8.191634398592905e-06 
7.934196715159746e-06 
7.40053441247114e-06 
6.496118599630051e-06 
5.213252712327616e-06 
5.598585980919678e-06 
5.426648918902977e-06 
4.747829635672766e-06 
5.085773619775767e-06 
4.383658343902285e-06 
4.109152830917167e-06 
3.917325425842781e-06 
3.627172140567272e-06 
3.513180515340577e-06 
3.19586656439343e-06 
3.053241428527618e-06 
2.716565087744274e-06 
3.002352372376412e-06 
2.375563686311449e-06 
2.125602584679257e-06 
2.405085812302898e-06 
2.243858157579674e-06 
1.740842850491293e-06 
1.493199762268642e-06 
1.455877902463921e-06 
1.531370724288481e-06 
1.454566204914446e-06 
1.296089120413112e-06 
1.240938505503567e-06 
1.266775589889935e-06 
1.323876372512941e-06 
1.241240967025788e-06 
1.142658481469468e-06 
1.143910918813574e-06 
1.027689594492738e-06 
8.298821681223755e-07 
6.864082406175613e-07 
5.992088939875623e-07 
7.317727350524405e-07 
7.619722037552285e-07 
1.022175191889007e-06 
5.893657432217019e-07 
5.316270733396537e-07 
4.88231096484282e-07 
4.353881071911902e-07 
3.311217931414271e-07 
2.877683503059227e-07 
3.643714328798118e-07 
3.223915843077762e-07 
2.907451726389718e-07 
3.605220624285974e-07 
1.743647820158695e-07 
1.711387365074855e-19 
-5.101080335150674e-05 
