solver_type L2R_LR
nr_class 2
label 0 1
nr_feature 105
bias 1
w
0 
-0.00181966897017466 
-0.0004475814988995164 
1.904696627162691e-05 
0.000155475913188537 
0.0002732241771118511 
0.0002282172303958295 
0.0002509425442660838 
0.0002386533029761898 
0.0002482031996195693 
0.0002751968415064484 
0.0002773858748247925 
0.0002375342251933214 
0.0002323249248974296 
0.000196262385820531 
0.0002143646828274333 
0.0001996331524586064 
0.0001764714097636514 
0.0001558112550339943 
0.0001546596233115593 
0.0001383684278345471 
0.0001301519470516488 
0.0001179472092869676 
0.0001076971157439943 
0.0001052516143098551 
9.554008477455738e-05 
8.655790726914002e-05 
7.872318286090427e-05 
7.697256795208019e-05 
6.722298973638217e-05 
6.222233535281044e-05 
6.075830542874834e-05 
5.097666323073409e-05 
5.448683865908537e-05 
5.065026030638562e-05 
4.946437535069458e-05 
4.252390484575533e-05 
3.783898678921255e-05 
3.976778995760907e-05 
3.769373695361008e-05 
3.22716384746598e-05 
3.25467426038079e-05 
2.768377928971222e-05 
2.408515318656323e-05 
2.609698735442346e-05 
2.378137010440212e-05 
1.983124864775169e-05 
2.060218495195638e-05 
1.848513478918224e-05 
1.682971831377946e-05 
1.680705257896421e-05 
1.549257577865607e-05 
1.645927854236599e-05 
1.54063784197646e-05 
1.40962731070402e-05 
1.286705144582085e-05 
1.275168618030244e-05 
1.287449944004291e-05 
1.149846425944681e-05 
1.020985441378435e-05 
1.003650355468868e-05 
9.569737046345088e-06 
8.842731488987329e-06 
8.729176665560267e-06 
8.802480188511781e-06 
8.32329520433555e-06 
7.818107161893647e-06 
7.620712086365465e-06 
7.801108109685031e-06 
7.244631483005751e-06 
6.809528568087397e-06 
6.198305692235982e-06 
6.219777588450808e-06 
6.076040900997721e-06 
5.635441436775969e-06 
5.526346675552403e-06 
5.337799371879603e-06 
5.236152100895044e-06 
5.043169729683381e-06 
4.982547764018597e-06 
4.731757996670254e-06 
4.688501822700379e-06 
4.315691621752928e-06 
4.117364537596594e-06 
3.731042460219451e-06 
3.508816248415307e-06 
3.51946813734491e-06 
3.408603195765745e-06 
3.099198608848496e-06 
2.863895591904252e-06 
2.836020470549896e-06 
2.826082996661415e-06 
2.860210625030514e-06 
2.494174019696173e-06 
2.303603056349573e-06 
2.173823819468142e-06 
1.919953934119077e-06 
1.766157055063167e-06 
1.720596878912404e-06 
1.577589774397918e-06 
1.518619513083739e-06 
1.421739025694524e-06 
1.037670772996917e-06 
1.188270508500682e-06 
4.689291266417275e-19 
2.700078847742273e-05 
