solver_type L2R_LR
nr_class 2
label 0 1
nr_feature 105
bias 1
w
0 
-0.002436908279719101 
-0.002679748728489703 
-0.001749463017648337 
-0.0005694782290909293 
-0.0005665697291936581 
-0.0004503901404139168 
-0.0003776063672188791 
-0.0003227696936326082 
-0.000248634495752487 
-0.000215454512767873 
-0.0001687209855230894 
-0.0001565997004525702 
-0.0001656672122935776 
-0.0001774021196893848 
-0.0001218095419838404 
-0.0001044128278368972 
-0.0001021753968244367 
-0.0001025078295344208 
-8.924719502166102e-05 
-8.597764645389249e-05 
-8.34276736557146e-05 
-5.217234149907351e-05 
-5.352474699334802e-05 
-5.390815351581464e-05 
-4.240606782327467e-05 
-4.202913198588805e-05 
-3.786283753100832e-05 
-2.482264787775448e-05 
-2.181365499183952e-05 
-2.620301490645069e-05 
-1.837332513892016e-05 
-2.215491936693763e-05 
-1.563917963263958e-05 
-1.223756993753729e-05 
-1.042935362612495e-05 
-1.069429847445471e-05 
-1.141799611743463e-05 
-8.006675907283645e-06 
-7.931182063442592e-06 
-1.01508425245791e-05 
-6.906729216478296e-06 
-7.959491474920412e-06 
-1.10153549651185e-05 
-5.550420376530546e-06 
-4.939357410585662e-06 
-8.236651121170621e-06 
-5.000423079288854e-06 
-6.929486878246407e-06 
-7.369254147407632e-06 
-6.266342069148701e-06 
-4.467924154308659e-06 
-3.721906296610031e-06 
-2.808550607228584e-06 
-4.096882485580403e-06 
-3.479215050319472e-06 
-3.010023620727415e-06 
-1.449472264480224e-06 
-2.190212597802953e-06 
-2.22657149481942e-06 
-1.162725935807996e-06 
-3.066260624840896e-07 
-4.357696488515117e-07 
-1.192233508811563e-07 
-9.575493084795842e-08 
9.670261375184282e-08 
4.487855413944715e-07 
8.425408756351959e-07 
1.180232509847277e-06 
1.204165580416006e-06 
7.707582270478958e-07 
5.196800967403494e-07 
1.131018749312658e-06 
1.385950120868339e-06 
1.450848869651076e-06 
2.022667445758894e-06 
2.207256495097998e-06 
2.217747443188047e-06 
2.209849706390893e-06 
2.256896197396576e-06 
2.483767748754341e-06 
2.509466476605405e-06 
2.149489565297931e-06 
2.016340329214684e-06 
1.88675087981584e-06 
1.701752391023441e-06 
2.176088455269035e-06 
2.139156745850784e-06 
2.105783011312259e-06 
1.832931402794043e-06 
1.860341528033136e-06 
1.929341175162802e-06 
2.165930966885562e-06 
1.984800669425536e-06 
1.79000363746371e-06 
1.821201161282995e-06 
1.793893857339591e-06 
1.541949247609108e-06 
1.753431255099256e-06 
1.53969272339567e-06 
1.627385256151255e-06 
1.560216350630917e-06 
1.188415320713663e-06 
1.516761225022544e-06 
2.150779866092965e-19 
0.000145212575531509 
