solver_type L2R_LR
nr_class 2
label 0 1
nr_feature 105
bias 1
w
0 
0.0009749015980298802 
0.0007291452034672492 
0.0002980568110347707 
6.09040561722448e-05 
8.054784181578116e-05 
2.550935316385391e-06 
9.938611131745807e-06 
2.143655099016744e-06 
-2.503226893735638e-06 
-5.526540186479629e-06 
-1.730728703055431e-05 
-4.76207730041583e-05 
2.426941709644526e-05 
-1.734885527972847e-05 
-3.756746161402417e-06 
-5.576079938708841e-06 
-9.529014734258223e-07 
-4.466398664406204e-06 
-1.032524139554946e-05 
-1.196095700082353e-05 
-4.056933933531096e-06 
-2.007015513353654e-05 
-3.661695056373701e-06 
4.466213941172176e-06 
-1.051471982829657e-06 
5.915620297299879e-06 
3.707286610627004e-06 
2.823825834482613e-06 
2.577091128162234e-07 
-8.445070083549742e-07 
3.596963765802802e-06 
3.28653514274432e-06 
5.277153826652339e-06 
4.115282544644879e-06 
1.865195557618402e-06 
4.452950730994188e-06 
4.439006840721894e-06 
4.247900013054087e-06 
3.031803462317058e-06 
1.606638036546937e-06 
9.695881494666545e-07 
2.075071018953419e-07 
3.207270879317426e-06 
2.796621625170893e-06 
2.104863453659689e-06 
-4.279177287291259e-07 
2.312587132470761e-07 
9.767410752129573e-07 
2.619762528430626e-06 
1.013769365725286e-06 
1.592652852901465e-06 
1.292122098807873e-06 
1.286548310333979e-06 
9.174543541781898e-07 
1.297363975994203e-06 
1.018089744180635e-06 
4.032243566395588e-07 
1.000180333436164e-06 
4.016554379193672e-07 
4.60085321478154e-07 
1.905028990758014e-07 
3.255356153063279e-07 
1.561876013082619e-08 
-1.668698492124903e-07 
-2.120866746688708e-07 
-5.672779021149811e-07 
-8.154943185429224e-07 
-3.035655241932092e-07 
-1.007053096165445e-07 
-8.949522638250176e-07 
-6.895203986716302e-07 
-5.828427992961606e-07 
-3.878764168548155e-07 
-4.305001276673013e-07 
-8.871837201130868e-07 
-6.577229740472574e-07 
-6.384253532056592e-07 
-5.678403179309077e-07 
-9.182666672703063e-07 
-6.861924283862127e-07 
-7.437439444619621e-07 
-6.6419247228354e-07 
-6.705373048024094e-07 
-6.224985927137365e-07 
-5.086444610860463e-07 
-6.768756351728898e-07 
-7.790599298352365e-07 
-8.867301578035808e-07 
-9.39084748522432e-07 
-6.23750362110573e-07 
-7.030933291074899e-07 
-5.963045681081913e-07 
-5.886204709184623e-07 
-6.874482214564069e-07 
-5.778838345336165e-07 
-2.786217138586955e-07 
-4.187716027432633e-07 
-5.233108563767242e-07 
-5.958102791433402e-07 
-4.892912173312657e-07 
-4.919619979975362e-07 
-1.274018065934758e-07 
-2.732472973137946e-07 
1.318743270397357e-20 
-3.064620373440655e-05 
