solver_type L2R_LR
nr_class 2
label 0 1
nr_feature 105
bias 1
w
0 
0.0004783765308517302 
-7.322125086445476e-05 
4.700290051054228e-05 
0.0001744092588724278 
0.0001514160226998188 
0.0001483312204485513 
0.0002228241804533376 
0.0001483001201239434 
8.670439584405234e-05 
9.239199874979958e-05 
8.014141214373359e-05 
6.958309262663846e-05 
5.995024283755022e-05 
0.0001035544041625704 
5.989166935486597e-05 
5.123672303955733e-05 
5.012546755775408e-05 
4.743440597761303e-05 
2.809056301886173e-05 
3.578429829892843e-05 
3.469432421380616e-05 
3.969615751366783e-05 
3.95380113764338e-05 
3.475174233694573e-05 
3.03253842806682e-05 
2.689654455029225e-05 
2.193894826747742e-05 
2.394253135375606e-05 
1.560792752268247e-05 
1.578680955906467e-05 
2.346835301427312e-05 
2.100464524723158e-05 
2.138911288664212e-05 
2.043924703750367e-05 
1.618336766447274e-05 
1.640912229130362e-05 
1.594224394902443e-05 
1.218987595183704e-05 
9.19256917660417e-06 
1.078366984261437e-05 
1.024017914274803e-05 
5.698331056459199e-06 
6.737629435764354e-06 
7.126150916848175e-06 
6.030555028399154e-06 
4.409953392741148e-06 
5.610598027723337e-06 
5.626668203038958e-06 
3.198184646547667e-06 
4.60166470343764e-06 
4.167775800952465e-06 
4.603899671307545e-06 
4.582256306790972e-06 
3.468091042255117e-06 
3.192785730556224e-06 
2.904204804390791e-06 
2.601360469519029e-06 
1.693541366075084e-06 
1.00758276117265e-06 
2.095958520026157e-06 
1.939220573529079e-06 
1.805981221275081e-06 
1.439211687631404e-06 
1.314389228384624e-06 
1.070055868984056e-06 
1.023962633173425e-06 
1.055410678364028e-06 
9.427979477867224e-07 
1.021506224719145e-06 
8.009283493216057e-07 
2.158142281246917e-07 
8.273136583927494e-07 
8.17292204241028e-07 
5.229897922526284e-07 
9.384602112982854e-07 
5.930815438871007e-07 
8.477813997087894e-07 
5.122567521999504e-07 
5.726622240625447e-07 
8.611585776376032e-07 
6.214729435525676e-07 
4.820982296289235e-07 
1.468804737438372e-07 
4.4157852973307e-07 
2.557076267189778e-09 
3.086407236204609e-07 
3.005586515544821e-07 
-1.752530577511533e-08 
2.255139991828958e-07 
-2.461672261715531e-08 
-6.721467512543468e-08 
-2.666256725149045e-07 
-5.80523027118191e-08 
-1.031687191662326e-08 
-2.662952699089116e-08 
-1.050143508420175e-07 
6.349478349330174e-08 
1.670844844269355e-07 
-1.964167761217843e-08 
-5.730772750098702e-08 
-7.394326601817474e-09 
-2.239521709610107e-07 
7.199682237328216e-08 
1.023645183734264e-19 
-2.166367932492708e-05 
