solver_type L2R_LR
nr_class 2
label 0 1
nr_feature 105
bias 1
w
0 
0.001267636007910263 
0.0007561882357198838 
0.0001719365164691303 
0.0001762136929863841 
8.144752886469808e-05 
2.290949197773237e-05 
2.77774118728839e-05 
5.516272912026391e-05 
4.474920876018874e-06 
4.902015865984715e-05 
5.426690911050108e-05 
5.729302496514076e-05 
4.78991615265924e-05 
7.788175330686277e-06 
-1.292496301672898e-05 
-7.778946701742352e-06 
6.36140473560985e-06 
7.773679190621974e-06 
-1.435481250698271e-06 
1.244518903291885e-06 
1.183908341818758e-05 
1.025444837329443e-05 
-3.794688696568988e-06 
-1.286037457281656e-05 
-2.300115539317191e-05 
-3.129305242898918e-05 
-3.114256205121133e-05 
-3.036426977120384e-05 
-2.303688854899756e-05 
-2.793562516374985e-05 
-2.57811792334256e-05 
-2.369212063478019e-05 
-2.293784770980927e-05 
-2.18538123128878e-05 
-2.546768420886617e-05 
-2.15563537058128e-05 
-1.808285368086068e-05 
-1.694522890992045e-05 
-1.821474211175696e-05 
-1.582844390935624e-05 
-1.55666706100841e-05 
-1.627272908816475e-05 
-1.401821632441443e-05 
-1.409231006055865e-05 
-1.468340435069571e-05 
-1.315391365852876e-05 
-1.301528369440191e-05 
-1.237455625894585e-05 
-1.11445944746552e-05 
-1.126351644741252e-05 
-1.009825912409613e-05 
-9.531899799320296e-06 
-9.816579847166302e-06 
-9.459501523766197e-06 
-8.939343029612113e-06 
-9.489944786475459e-06 
-8.869798363201899e-06 
-8.643224141562429e-06 
-8.026575140333395e-06 
-8.432938585008662e-06 
-8.089958754650024e-06 
-7.126967326869205e-06 
-7.068563296013216e-06 
-6.496160326636092e-06 
-5.751034463322449e-06 
-5.350994593244176e-06 
-5.498397587325576e-06 
-5.372920732170017e-06 
-4.935787737215072e-06 
-4.648081541940994e-06 
-4.223859984037929e-06 
-3.573716573134126e-06 
-3.85904757066072e-06 
-3.283265169018578e-06 
-3.432746366104291e-06 
-3.402026740936891e-06 
-2.874314832784885e-06 
-2.689141847585388e-06 
-2.443854941474213e-06 
-2.470139487883686e-06 
-2.290557991784008e-06 
-2.194830721637258e-06 
-2.280025675344585e-06 
-2.258668355094778e-06 
-2.345963704282045e-06 
-1.944149847661102e-06 
-1.481910725928656e-06 
-1.725147364210337e-06 
-1.433523853283247e-06 
-1.243681659526006e-06 
-1.125001989291749e-06 
-1.023450112862174e-06 
-9.609967402125989e-07 
-8.47289641511879e-07 
-7.127034927247326e-07 
-8.196041992958519e-07 
-7.851794534935852e-07 
-6.295368272766726e-07 
-6.737778032726708e-07 
-7.657938221345761e-07 
-5.21212438379825e-07 
-6.679427770101911e-07 
-3.38056923955472e-07 
-1.24526393601027e-19 
-4.714318073052133e-05 
