solver_type L2R_LR
nr_class 2
label 0 1
nr_feature 105
bias 1
w
0 
0.001452458522751798 
0.0007289834679464589 
0.000696665804956495 
9.241163793230105e-05 
5.033927051805885e-05 
4.71768697462371e-05 
5.85160968816095e-05 
9.703202709560678e-06 
-2.869718376250315e-05 
-3.873444510810276e-05 
-6.388896530253686e-05 
-9.734776880216359e-05 
-8.880633698909473e-05 
-7.213257229123001e-05 
-5.389574171940362e-05 
-6.917866521371e-05 
-4.95008539500508e-05 
-5.622146216117342e-05 
-5.117049664727341e-05 
-3.922438671108875e-05 
-5.102476507697706e-05 
-4.740991892748795e-05 
-4.528043525615e-05 
-4.400987877618138e-05 
-4.496095838386387e-05 
-4.926150530218523e-05 
-4.649712140533451e-05 
-4.855193169216874e-05 
-3.493913477927761e-05 
-3.537145365036242e-05 
-3.910768094950847e-05 
-3.577432368074103e-05 
-3.175058256621562e-05 
-3.275392845746093e-05 
-3.140702454578158e-05 
-3.166478848177721e-05 
-3.099807102731058e-05 
-2.925923177813984e-05 
-2.551552337219345e-05 
-2.359975787212333e-05 
-2.232424785346672e-05 
-2.36048875561694e-05 
-2.373317622352615e-05 
-2.51932240316477e-05 
-1.840306855070363e-05 
-1.853646266657334e-05 
-1.689708772895173e-05 
-1.60619000577741e-05 
-1.6733237313475e-05 
-1.729837778411717e-05 
-1.56220856421542e-05 
-1.330480074695025e-05 
-1.331139692587836e-05 
-1.213390173894215e-05 
-1.226593842705518e-05 
-1.224916859668019e-05 
-1.223308993952183e-05 
-1.070064235244838e-05 
-8.926226172844907e-06 
-8.724289952753827e-06 
-8.157735513461128e-06 
-8.227379986864827e-06 
-8.570663929405812e-06 
-8.069490449337691e-06 
-7.282974620416001e-06 
-6.872425217617395e-06 
-7.273750613522807e-06 
-7.095749183954403e-06 
-6.695909582969599e-06 
-6.524080566588751e-06 
-6.693994383775509e-06 
-5.951467773293107e-06 
-5.548122482255657e-06 
-5.487737449890634e-06 
-5.416663580418712e-06 
-4.984467372533632e-06 
-5.122314018186765e-06 
-4.866564606281316e-06 
-4.197171660144464e-06 
-4.386074010253003e-06 
-3.901565558745963e-06 
-3.679243249714632e-06 
-3.653875464038047e-06 
-3.683765217883138e-06 
-3.616220933229204e-06 
-3.630642654150867e-06 
-3.25880605506994e-06 
-2.99544900814561e-06 
-3.113294881450488e-06 
-2.857961793924695e-06 
-2.635954098866169e-06 
-2.568989246191158e-06 
-2.342515882357612e-06 
-2.500516926388644e-06 
-2.114952144327577e-06 
-2.081659746692548e-06 
-2.04664615165534e-06 
-1.974168885269445e-06 
-1.795389563235637e-06 
-1.515955389137365e-06 
-1.498891305147326e-06 
-1.116250224087246e-06 
-1.159160500766095e-06 
-1.845649280352114e-19 
-4.995064078034511e-05 
