solver_type L2R_LR
nr_class 2
label 0 1
nr_feature 105
bias 1
w
0 
0.001853804309981551 
0.00219438955583684 
0.0009203603349083435 
0.0002543646129827552 
0.0001781724695183195 
2.314426594033975e-05 
-3.326714463850187e-06 
-3.671195645771431e-05 
-7.971021678146079e-05 
-6.033538606771833e-05 
1.327602529226617e-05 
-1.175536474827537e-05 
-1.700081545858767e-05 
-4.577605660806373e-05 
-5.479153989204826e-05 
-6.335639220040137e-05 
-4.654664721695012e-05 
-3.727634892098087e-05 
-5.253293757284416e-05 
-6.750407797177069e-05 
-4.820419047339875e-05 
-4.656814049704446e-05 
-5.173210714531431e-05 
-4.5877160869805e-05 
-4.976254359447893e-05 
-5.820791314747145e-05 
-5.515432164800374e-05 
-4.698428151850295e-05 
-4.498416982950919e-05 
-4.633213754904299e-05 
-5.05802174475712e-05 
-4.589636651650865e-05 
-3.961857473123192e-05 
-4.297107660580861e-05 
-4.331172967427293e-05 
-4.18136949437414e-05 
-3.725375689266306e-05 
-3.623652758888944e-05 
-3.450314853085656e-05 
-3.31201979188161e-05 
-2.8855873818808e-05 
-2.741792431953873e-05 
-2.419034648583382e-05 
-2.592463521595872e-05 
-2.329167986123661e-05 
-2.109847316923517e-05 
-2.046189668708477e-05 
-1.757680987016125e-05 
-1.803937568284555e-05 
-1.889797668909342e-05 
-1.796055586783882e-05 
-1.786987305146567e-05 
-1.577224277160632e-05 
-1.528099220367036e-05 
-1.480258011821385e-05 
-1.40062104515189e-05 
-1.318172709042292e-05 
-1.285954401943223e-05 
-1.176315856351523e-05 
-1.09196681946464e-05 
-1.102605218672389e-05 
-9.996469219909592e-06 
-1.008784989052961e-05 
-9.809605123102273e-06 
-9.588529803594598e-06 
-9.469248177071206e-06 
-9.463825123301438e-06 
-8.951698977028009e-06 
-8.336409283741067e-06 
-8.099319092672508e-06 
-7.82502021589356e-06 
-6.834585406663192e-06 
-6.73934977532289e-06 
-6.641800773063928e-06 
-6.553948152221147e-06 
-6.077443579141312e-06 
-5.723461743227915e-06 
-5.479111428560397e-06 
-5.419774222697405e-06 
-4.991962386400659e-06 
-4.890685044547197e-06 
-4.757656749045451e-06 
-4.298200743661979e-06 
-4.288077921280559e-06 
-3.880025710416891e-06 
-3.746348624613625e-06 
-3.696881882913845e-06 
-3.407274643893685e-06 
-3.395303561329272e-06 
-3.03449917206141e-06 
-2.723589219552991e-06 
-2.937295205443515e-06 
-2.945896728468361e-06 
-2.653715764260567e-06 
-2.687020836370412e-06 
-2.248699528117437e-06 
-2.19835342057707e-06 
-1.922128997679732e-06 
-1.840034297968909e-06 
-1.862121381097962e-06 
-1.67446333629046e-06 
-1.556204902602517e-06 
-1.33953185066119e-06 
-3.151069883567555e-19 
-8.891843489128293e-05 
