solver_type L2R_LR
nr_class 2
label 0 1
nr_feature 105
bias 1
w
0 
0.0005359974351907846 
0.001112352349161547 
0.0008152343051450767 
0.0001921011170081238 
8.882781475300503e-05 
8.856796200997982e-05 
2.12498274035755e-05 
4.071437591665005e-05 
7.386692219463694e-05 
7.135189229145816e-05 
5.761566246085181e-05 
1.260800276077066e-05 
3.613034352707398e-06 
-1.081583183814499e-05 
1.074988440790771e-05 
-1.056284549424348e-05 
3.240286973191956e-06 
1.916526888531611e-05 
1.4361879061954e-05 
3.419909548124798e-06 
-1.058210559185804e-06 
-1.307998138617713e-06 
-4.200450803915286e-06 
-6.987127174329454e-06 
-4.941631366119431e-06 
-8.146636034056489e-06 
-1.012249364652999e-05 
-1.16172502117882e-05 
-1.856243650243944e-05 
-1.807875355850775e-05 
-1.850699977326429e-05 
-9.563041495561806e-06 
-1.581348271648417e-05 
-1.61025546827046e-05 
-1.483899037515392e-05 
-1.850196078126806e-05 
-1.973669939011975e-05 
-2.060314105159048e-05 
-1.996839141126645e-05 
-2.069855325137611e-05 
-2.045131495869551e-05 
-1.43329493609124e-05 
-1.625061259956906e-05 
-1.581307588398948e-05 
-1.72710993951005e-05 
-1.628538102400316e-05 
-1.297522489315666e-05 
-1.406375812891081e-05 
-1.163688735101079e-05 
-1.252364163938068e-05 
-1.272278210859659e-05 
-1.14977110457798e-05 
-1.121050868933799e-05 
-1.056468806130351e-05 
-1.003427618197883e-05 
-9.572932355556473e-06 
-1.038469185014626e-05 
-9.441115749724411e-06 
-9.153208675835806e-06 
-8.634289533365474e-06 
-8.065265405486301e-06 
-7.309505385364611e-06 
-6.907464058525123e-06 
-6.660393458667898e-06 
-6.257591366767875e-06 
-6.515700433878374e-06 
-5.734547774742859e-06 
-5.280580521037428e-06 
-5.287934191176142e-06 
-4.891757987655599e-06 
-4.78823383604061e-06 
-5.241759621372864e-06 
-4.441048440854632e-06 
-4.532948557205753e-06 
-3.796644937898521e-06 
-3.869724983100955e-06 
-3.238707195284121e-06 
-3.204218107655548e-06 
-2.946470841537739e-06 
-2.674612463402964e-06 
-2.717337922830211e-06 
-2.917752674678385e-06 
-2.399875971505848e-06 
-2.220895701119231e-06 
-2.334734470610129e-06 
-2.037657021749236e-06 
-2.159691431125571e-06 
-1.888876393144609e-06 
-1.769675216869659e-06 
-1.738073777288601e-06 
-1.533300233406467e-06 
-1.369022903798226e-06 
-1.106700068658631e-06 
-1.137022180139305e-06 
-1.004681943526755e-06 
-1.075481878112824e-06 
-9.003997237302656e-07 
-8.081902196652392e-07 
-8.683608217187417e-07 
-6.51178302853569e-07 
-4.424029134753279e-07 
-3.984225439565228e-07 
-1.38700562059914e-07 
-1.122597222639243e-19 
-4.69594263232557e-05 
