solver_type L2R_LR
nr_class 2
label 0 1
nr_feature 105
bias 1
w
0 
-0.0003738728195092554 
-0.0001008122015025282 
7.903798747790425e-05 
-4.56284064526892e-05 
-5.137475477052969e-05 
-9.882178371561912e-05 
-4.345101956564573e-05 
-1.402225868676362e-05 
-1.877482914514202e-05 
4.262820696264702e-05 
4.697779614080966e-05 
6.257215007525437e-07 
-1.984688170529905e-05 
-1.18798417929403e-05 
-1.390476729853251e-05 
-2.887172461730123e-06 
-6.433826343543553e-06 
1.042272318865247e-05 
-1.235592436295708e-05 
-1.191941588905808e-05 
-1.50665629802345e-05 
-2.508519824507403e-05 
-1.266452277555334e-05 
-9.246914258816802e-06 
-1.613816280573793e-05 
-3.685363690225296e-05 
-3.256342326469676e-05 
-3.120686913704757e-05 
-2.921919859562532e-05 
-2.949850401257633e-05 
-2.929575586173091e-05 
-3.151994015150947e-05 
-3.277322766944561e-05 
-2.929281388356338e-05 
-2.902628082322753e-05 
-2.555019517475023e-05 
-2.419034028803208e-05 
-1.904758279708111e-05 
-1.983451608375841e-05 
-1.780523765550468e-05 
-1.725988606669124e-05 
-1.655352580169777e-05 
-1.511334992024159e-05 
-1.713370414102791e-05 
-1.387078977013596e-05 
-1.194780440691819e-05 
-1.269092722765014e-05 
-9.871400150469535e-06 
-1.071863150437144e-05 
-9.759439059867381e-06 
-8.802421017130016e-06 
-8.948584987632021e-06 
-8.951680047011821e-06 
-8.106295226546477e-06 
-8.013638336389048e-06 
-5.880612183745631e-06 
-5.635196187192612e-06 
-7.011007084959673e-06 
-5.959062253044609e-06 
-5.595051568099321e-06 
-5.480906725109221e-06 
-6.159392378217919e-06 
-4.75201436361832e-06 
-4.487678129609631e-06 
-4.124355020444909e-06 
-3.740615941926608e-06 
-3.693343624594865e-06 
-3.645373779687289e-06 
-3.349199461209175e-06 
-3.14337057742386e-06 
-2.721312585749581e-06 
-2.784975335157041e-06 
-2.61049348061859e-06 
-2.519416646207808e-06 
-2.474234421890869e-06 
-2.338006808500015e-06 
-2.228714432115348e-06 
-2.257114520414542e-06 
-2.117393679793535e-06 
-1.707844964418916e-06 
-1.878294795643729e-06 
-1.789684143996837e-06 
-1.204604543131716e-06 
-1.254141517485085e-06 
-1.151892835315457e-06 
-8.378867561255916e-07 
-1.151014842770922e-06 
-1.264372681889186e-06 
-1.245398115346464e-06 
-1.117491457756895e-06 
-8.663868832656751e-07 
-7.323204637100965e-07 
-8.665504721938613e-07 
-9.249318766498562e-07 
-6.89585751658079e-07 
-5.139410321739555e-07 
-5.728642649095581e-07 
-4.437817821976575e-07 
-3.101957757875741e-07 
-2.368131592438956e-07 
-2.363827950088762e-07 
-2.995609866677027e-07 
-1.744827776470662e-07 
-6.129246947353001e-20 
1.052694116363908e-05 
