solver_type L2R_LR
nr_class 2
label 0 1
nr_feature 105
bias 1
w
0 
0.0006421849862910399 
0.0005583862179067417 
0.000260740720872215 
0.0001049565482419184 
1.615473467487938e-05 
1.406331701771264e-05 
2.638487421849377e-05 
7.92741185330731e-05 
5.95981320762167e-05 
0.0001048038035563254 
9.473720904021317e-05 
5.865084865290087e-05 
2.203147602448304e-05 
-2.538794456841854e-06 
1.831712812541746e-05 
2.071716187230946e-05 
6.431518504183513e-06 
6.204697451386918e-06 
-4.322548306863347e-06 
-5.879268267281044e-06 
-9.26441116376449e-06 
-1.599823410962068e-05 
-1.250823827277935e-05 
-8.734882592701111e-06 
-1.178879906647631e-05 
-2.602995068048915e-05 
-2.523792598878572e-05 
-2.58147906150452e-05 
-1.831900886507655e-05 
-1.933990833704529e-05 
-2.176879379461118e-05 
-2.185162993172198e-05 
-2.014407719662642e-05 
-2.176386967752731e-05 
-2.255820878609713e-05 
-1.775087281483406e-05 
-1.848309995733933e-05 
-1.23913724324155e-05 
-1.454201689190465e-05 
-1.173676285807318e-05 
-9.753177749989606e-06 
-1.025837580611232e-05 
-1.041931393081758e-05 
-1.288922542070369e-05 
-8.99360613075121e-06 
-9.121279797712541e-06 
-1.007311152420426e-05 
-8.076634508597035e-06 
-9.365958441204214e-06 
-9.656919427774186e-06 
-9.317301706624681e-06 
-8.311447588551341e-06 
-8.607295989640921e-06 
-8.392543530883713e-06 
-8.192699846180183e-06 
-6.412547105151968e-06 
-6.021885214584806e-06 
-6.644752240974194e-06 
-5.025733309517577e-06 
-5.035793294530644e-06 
-4.891559517404256e-06 
-6.090859869482628e-06 
-4.781747907692724e-06 
-4.964730115219134e-06 
-4.322209723608055e-06 
-4.034447281410366e-06 
-4.177532188694842e-06 
-4.434650101984191e-06 
-3.982108294614508e-06 
-3.909413886546811e-06 
-3.942915354144049e-06 
-3.325699242741908e-06 
-3.135672911306556e-06 
-2.718375075506474e-06 
-2.819511857413682e-06 
-2.60080248561377e-06 
-2.652139405369541e-06 
-2.547468438466717e-06 
-2.242801334834382e-06 
-2.243149828076743e-06 
-2.274915742122715e-06 
-2.129573074105823e-06 
-1.943471266220723e-06 
-2.04256482687005e-06 
-2.005327435111154e-06 
-1.798422607092665e-06 
-1.691632220666606e-06 
-1.769306700865948e-06 
-1.802666665346521e-06 
-1.619470671987631e-06 
-1.245027199264991e-06 
-1.127582980684046e-06 
-1.273422376042428e-06 
-1.509325149749562e-06 
-1.103814375469555e-06 
-1.137437409248119e-06 
-1.039243347670378e-06 
-1.175837412337738e-06 
-8.836327623199746e-07 
-1.019132633412415e-06 
-9.193324827019022e-07 
-8.391970153013819e-07 
-8.261184248069602e-07 
-8.470481073015129e-20 
-2.805714050153541e-05 
