solver_type L2R_LR
nr_class 2
label 0 1
nr_feature 105
bias 1
w
0 
-0.0002970783332532486 
-0.0008233547522777678 
-0.0008360387265486847 
-7.042735347896839e-05 
-0.0001403904846417545 
-9.192363442601325e-05 
-6.449806674531479e-05 
-0.0001041319311930584 
-8.028515284545164e-05 
-7.967985648081144e-05 
-6.724557201737482e-05 
-7.73496721517267e-05 
-5.89202479361741e-05 
-2.594003250509517e-05 
-6.072714325621661e-05 
-5.923037926935813e-05 
-2.942023924863345e-05 
-4.564176258993625e-05 
-5.287885329396889e-05 
-5.687343883861902e-05 
-5.548858209379419e-05 
-3.591777085821429e-05 
-2.690122520505155e-05 
-2.369712788420177e-05 
-1.814200466171446e-05 
-8.502428982529503e-06 
-4.119479179461893e-07 
4.955679357214964e-06 
9.652766354472179e-06 
2.252177720169551e-05 
1.813816914117165e-05 
1.984822744414131e-05 
2.571501365107149e-05 
2.016717836646065e-05 
2.074337539296552e-05 
2.148037411859567e-05 
2.224292522395688e-05 
2.325488805242078e-05 
2.010525797497736e-05 
1.939948348393019e-05 
2.135760896733265e-05 
2.054155609475335e-05 
1.683524655117672e-05 
1.59924937421849e-05 
1.566307546460701e-05 
1.567941483372913e-05 
1.770884716061149e-05 
1.377001855299901e-05 
1.275834013633759e-05 
1.158187487249077e-05 
1.138301961749642e-05 
1.202973358524389e-05 
1.057344967656691e-05 
9.747684784259909e-06 
9.748801432905034e-06 
9.938156001022635e-06 
8.792301355532234e-06 
9.035967177812107e-06 
7.411819038938184e-06 
7.243285275864449e-06 
7.063821905353005e-06 
7.274332129002087e-06 
6.001595115276766e-06 
5.434759370454225e-06 
5.424598057272399e-06 
5.536007774741995e-06 
5.251687537100959e-06 
4.837717152559807e-06 
4.696804380557276e-06 
4.968851597766701e-06 
4.841819726680494e-06 
4.275839718671753e-06 
4.368107101456753e-06 
3.573023734678814e-06 
3.44452273481758e-06 
3.259376747340742e-06 
2.95640935854684e-06 
2.600658327519235e-06 
2.587640186198364e-06 
2.577819505163828e-06 
2.197331298984908e-06 
2.295906330776105e-06 
2.060691921967248e-06 
1.96226347308666e-06 
1.933593937777615e-06 
1.774521204309659e-06 
1.713909468985443e-06 
1.645406123169881e-06 
1.148374593679134e-06 
1.340161699639503e-06 
1.225067959017554e-06 
1.250530486501947e-06 
1.109467903510179e-06 
1.000684612263472e-06 
6.603874087445682e-07 
6.195460072279208e-07 
4.602699585067612e-07 
5.124725570033957e-07 
4.819425329516608e-07 
7.569294235003402e-07 
4.893493679911649e-07 
3.182398933119604e-07 
5.698856818117111e-07 
2.04688260826366e-19 
4.098468435090404e-05 
