solver_type L2R_LR
nr_class 2
label 0 1
nr_feature 105
bias 1
w
0 
0.0001322513524114216 
-0.0002078095200548294 
-0.0004470171444060998 
-0.0001625320888162983 
-0.0001146371642621494 
-0.000122146852656182 
-0.0001001371414172987 
-5.743535936651155e-05 
-9.983112933183821e-05 
-0.0001493628528182388 
-9.640339696435915e-05 
-4.652918333696775e-05 
3.915511960641024e-06 
-2.266990824019775e-05 
-3.709779600833364e-05 
-1.410854682518327e-05 
-1.444611411374024e-05 
-1.696552541149588e-05 
-2.213386178694051e-05 
-3.382661578851142e-05 
-1.238697610185343e-05 
-6.156143025847241e-06 
-7.792225174015824e-06 
4.6719468238049e-07 
3.998126246147872e-06 
1.337384448980318e-06 
7.143943618600618e-06 
1.272894807649319e-05 
8.136299714349343e-06 
9.045220308319477e-06 
1.17995433177926e-05 
1.392355509336464e-05 
1.708655461461661e-05 
1.405413665565249e-05 
1.064686887593451e-05 
1.143514536524776e-05 
1.183566499662411e-05 
1.10676699013836e-05 
1.005896339623436e-05 
1.068374601314508e-05 
1.466579919646314e-05 
1.364484625997853e-05 
1.546167444721358e-05 
1.411394478689527e-05 
1.30393163133825e-05 
1.191752166843324e-05 
1.186059036852703e-05 
1.105166351918668e-05 
1.020089249417013e-05 
8.832836202114787e-06 
9.280269872625985e-06 
9.785873632726146e-06 
8.432273894768553e-06 
7.637626202128489e-06 
7.038552643247096e-06 
5.879694124645917e-06 
6.637961216260181e-06 
5.533572332102664e-06 
5.725543765840344e-06 
5.70352607629097e-06 
4.476630349975554e-06 
4.704294706819143e-06 
4.136088689308286e-06 
4.635101575269468e-06 
4.178088894462187e-06 
3.678506778493153e-06 
3.345290500358457e-06 
3.515467495928997e-06 
3.328069441528147e-06 
2.796746064301511e-06 
2.661063725824844e-06 
2.589302592378018e-06 
2.579582398060264e-06 
2.202298104262538e-06 
1.701460342924988e-06 
1.530665961031634e-06 
1.740915518815288e-06 
1.383891282045029e-06 
1.346369692495292e-06 
1.114029335890847e-06 
8.587328449343624e-07 
1.179871037726915e-06 
1.060898810374954e-06 
9.56266394466592e-07 
7.756501867356846e-07 
8.026731940387178e-07 
5.368301853668564e-07 
5.739273030407497e-07 
1.71145363366975e-07 
2.833922858032623e-07 
4.699380980365696e-07 
2.330142522577552e-07 
-4.948192616599771e-08 
2.502464870784047e-07 
-9.360771122184969e-08 
9.328050075322291e-08 
-3.045220765648648e-08 
-8.08267688818679e-08 
-6.33802313340971e-08 
-1.864130705244595e-07 
-9.952643694478159e-08 
-3.172565626310093e-07 
-4.149048160626331e-07 
1.355919752051366e-19 
1.365773027096018e-05 
