solver_type L2R_LR
nr_class 2
label 0 1
nr_feature 105
bias 1
w
0 
0.001026099894687383 
0.001212298217409869 
0.000468584664767188 
-0.0001071847820908868 
-7.871174568715097e-05 
-0.0001184770716958034 
-0.0001388063387362187 
-0.0001056393263963815 
-0.0001616615109135798 
-0.0001456724015957892 
-0.0001265221298959762 
-0.0001020594698533048 
-7.513126852259727e-05 
-5.974173402785691e-05 
-6.323811768151786e-05 
-6.432386014157038e-05 
-4.754053283202671e-05 
-5.798842342688228e-05 
-3.800699262647584e-05 
-3.91740199061445e-05 
-3.825137040149992e-05 
-2.914231250582795e-05 
-2.021652463928131e-05 
-2.185963557286247e-05 
-3.47072515275647e-05 
-3.238287068775038e-05 
-2.971620882277511e-05 
-3.612457079386764e-05 
-3.561607418577773e-05 
-3.259991509925637e-05 
-3.434790176601144e-05 
-2.643936253398102e-05 
-2.999726722383604e-05 
-2.882324154660623e-05 
-2.868758116758271e-05 
-2.535400209320558e-05 
-2.352714031043468e-05 
-2.227439945202543e-05 
-2.034859910564103e-05 
-1.937993856917943e-05 
-1.674749185817641e-05 
-1.869948303016902e-05 
-1.480750773112788e-05 
-1.464043759679322e-05 
-1.372660385043614e-05 
-1.362721356755703e-05 
-1.177777487559688e-05 
-1.020634578975261e-05 
-9.860866890620596e-06 
-9.760182613452115e-06 
-9.385209460476755e-06 
-9.850901440202274e-06 
-8.875308765702617e-06 
-8.208470352712565e-06 
-7.887528512467513e-06 
-7.4118921906756e-06 
-7.248830344918367e-06 
-7.141856812664562e-06 
-6.455825494449299e-06 
-7.348490630917646e-06 
-6.605984157283326e-06 
-5.455693621987059e-06 
-5.360618835283384e-06 
-5.384894968899083e-06 
-5.286422337131696e-06 
-4.846205404104293e-06 
-4.165953476913516e-06 
-4.363739634037141e-06 
-4.082564205341727e-06 
-4.194122153472758e-06 
-4.342526093668529e-06 
-3.912687197476419e-06 
-4.033847069684801e-06 
-3.757455848476399e-06 
-3.775855822460774e-06 
-3.33861988060322e-06 
-3.411181381370274e-06 
-3.17710287967991e-06 
-2.965627743092323e-06 
-2.812671668397651e-06 
-2.805288055042574e-06 
-2.758553828972213e-06 
-2.695784052197051e-06 
-2.437833432576368e-06 
-2.389088529404e-06 
-2.096755320742165e-06 
-1.602067325433696e-06 
-1.661260101234796e-06 
-1.578059574593279e-06 
-1.778216688271688e-06 
-1.660677956785339e-06 
-1.54087810286066e-06 
-1.433533636180314e-06 
-1.390558289914018e-06 
-1.18033262464174e-06 
-1.192706597404063e-06 
-1.116706903865012e-06 
-1.103429504874478e-06 
-1.062502706129625e-06 
-9.409400342861714e-07 
-1.046889716283703e-06 
-9.339540839776186e-07 
-6.401100642351026e-07 
-2.750706379794885e-19 
-3.002362854414261e-05 
