solver_type L2R_LR
nr_class 2
label 0 1
nr_feature 105
bias 1
w
0 
0.0006358048793803422 
0.0009342673977028968 
0.0003580537669392419 
4.294954883299267e-05 
4.29798316954098e-05 
-8.850855019949459e-06 
-2.938783701817846e-05 
-4.436669609554275e-05 
-7.404526876098714e-05 
-3.511151761332398e-05 
-3.998606717494193e-05 
-2.974064965339182e-05 
2.527795533617166e-06 
-1.196826589258921e-05 
-1.120451289661982e-05 
-8.063803739907309e-06 
5.965470713508321e-06 
-8.106088200955772e-06 
9.181984294159083e-06 
9.894616668755662e-06 
4.154773324385885e-06 
-2.642998454116177e-06 
6.797045734129309e-07 
7.656710657733029e-07 
6.534207058837859e-06 
2.257342312526988e-06 
4.096550942972536e-06 
-3.674754126027129e-06 
-5.303578694997312e-06 
3.66225580586382e-06 
5.933840490659886e-06 
5.755858305556128e-06 
3.048091117981529e-06 
3.813426137117215e-06 
2.784845067899223e-06 
4.299725915430697e-06 
3.343765644126208e-06 
6.092966230463243e-06 
4.232421664648184e-06 
5.752861589718376e-06 
7.078501962789154e-06 
2.913923114204495e-06 
6.032249336958336e-06 
1.879840950177013e-06 
3.317315238909786e-06 
4.880328331378032e-06 
4.919864584274943e-06 
5.342716746997895e-06 
4.703468161240727e-06 
2.989648345821738e-06 
2.856516933526087e-06 
2.585408359084655e-06 
2.365099204827616e-06 
2.738058685752712e-06 
2.352567890339054e-06 
3.279365466067204e-06 
2.827057352158916e-06 
1.691179521270264e-06 
1.762817655489208e-06 
4.436604485530349e-07 
7.566393952782283e-07 
1.202248104130884e-06 
4.948659125380778e-07 
3.279052188680834e-07 
2.156221763751116e-07 
2.66127791824023e-07 
5.447317011614479e-07 
-1.206152763644585e-08 
-1.028471735058208e-07 
-3.389382421250835e-07 
-8.290640520873434e-07 
-7.162324505090277e-07 
-9.361365044882614e-07 
-8.947900326496657e-07 
-1.120638408217365e-06 
-7.811258782154586e-07 
-9.470546015364103e-07 
-9.85205660034918e-07 
-6.829821002182109e-07 
-7.902835047491533e-07 
-9.065056326683639e-07 
-9.430832294125044e-07 
-7.678455110705403e-07 
-6.865798878139149e-07 
-6.674962907985967e-07 
-7.598684352416342e-07 
-6.259282151442189e-07 
-8.501790855378818e-07 
-5.974384959225546e-07 
-6.761517930690581e-07 
-8.602144446375249e-07 
-8.703170203955737e-07 
-7.474720635946e-07 
-8.479065814381616e-07 
-5.78382993212928e-07 
-6.874409550779507e-07 
-6.322595339792197e-07 
-6.133168638275275e-07 
-5.419981309996205e-07 
-6.001547017099521e-07 
-7.190767839345149e-07 
-5.113952609998767e-07 
-7.443492357619511e-07 
-8.616038215192315e-20 
-2.138638206657397e-05 
