solver_type L2R_LR
nr_class 2
label 0 1
nr_feature 105
bias 1
w
0 
-0.001007282538416081 
-0.0008714971898661658 
-0.0001984627435315977 
-3.454984002515375e-05 
3.819865263382598e-05 
6.439478444049008e-05 
2.623170435383887e-05 
8.926585721552263e-05 
5.338359793415714e-05 
0.0001198377976213937 
0.0001602170812262979 
0.0001298458601354995 
0.0001215435059049263 
0.0001116373304881581 
0.0001035102644785915 
0.0001175988435093697 
0.0001202660737164295 
0.0001134350648539166 
0.0001040048698871501 
9.43596453541062e-05 
9.243412354641095e-05 
8.106376270219011e-05 
9.346261747085444e-05 
8.228075366262832e-05 
7.073903818898847e-05 
7.885613206068032e-05 
8.558829877379488e-05 
7.327645860351739e-05 
6.844274452785101e-05 
6.494450144139533e-05 
6.437540096604005e-05 
6.477455992614537e-05 
5.939457504935867e-05 
5.867751964852655e-05 
5.747242243398048e-05 
5.507234361663842e-05 
5.03543346053893e-05 
4.515085331959429e-05 
4.188191134325463e-05 
4.089766135733025e-05 
4.318455898238731e-05 
3.726590715690027e-05 
3.901691872667238e-05 
3.367677908640208e-05 
3.423622354243867e-05 
3.011191428222964e-05 
2.808742424333749e-05 
2.687030092477038e-05 
2.706794573180822e-05 
2.374310525654057e-05 
2.329708375540298e-05 
2.212988163052567e-05 
2.02145304552075e-05 
1.920040350665173e-05 
1.810011074811452e-05 
1.755275771312371e-05 
1.772230450053798e-05 
1.669640961120942e-05 
1.543060259725113e-05 
1.436965470313609e-05 
1.318065328910843e-05 
1.215118023670904e-05 
1.189399089555423e-05 
1.14551398095581e-05 
1.158194088533168e-05 
1.113666364750616e-05 
1.011935887570297e-05 
1.000095411239975e-05 
9.433677682316321e-06 
9.319662509359261e-06 
8.262599451716987e-06 
7.663122324578802e-06 
7.501647173499988e-06 
7.559232469883358e-06 
6.911081096165743e-06 
6.571342794669664e-06 
5.863139839954183e-06 
5.556745493342839e-06 
5.187781843210093e-06 
4.859979757158352e-06 
5.030358900877659e-06 
4.806695304296648e-06 
4.679988296049669e-06 
4.680389018672103e-06 
4.282765966569598e-06 
4.071740657021291e-06 
3.8740307885726e-06 
3.371249957779315e-06 
3.307439575703377e-06 
2.835567275969768e-06 
2.599144782486415e-06 
2.276085153379387e-06 
2.311306006093563e-06 
1.869607753784867e-06 
1.704254552005606e-06 
1.584140005364624e-06 
1.659827626013489e-06 
1.393848450506562e-06 
1.093309223071819e-06 
1.250862646298887e-06 
9.197402778083761e-07 
7.702695004841813e-07 
5.415329505499801e-07 
3.165725234585801e-19 
3.509212150070414e-05 
