solver_type L2R_LR
nr_class 2
label 0 1
nr_feature 105
bias 1
w
0 
-0.0004900796319180621 
-0.0009392415717673458 
-0.0003116008168676875 
-7.508581583478406e-05 
-6.310596834060306e-05 
-1.488266271447171e-05 
-6.407311686930299e-05 
1.61727175582201e-05 
2.902820469019534e-05 
3.971638155313367e-05 
-5.872930221602867e-06 
7.653101169133109e-06 
-1.48162946137408e-05 
-2.028115079315656e-05 
-1.998253803248744e-06 
7.732052173935301e-06 
5.12629714152635e-06 
8.165494991858134e-06 
-4.884548980650557e-06 
-3.349189490210634e-06 
-1.695496753415354e-06 
5.950275894957552e-07 
3.490795455764821e-06 
2.131245377055902e-06 
-6.534187524231789e-06 
-6.694298967504595e-07 
5.788626908401929e-06 
-3.491359033870569e-06 
3.186302850572163e-06 
2.175878125166467e-06 
8.066082146669428e-06 
3.978196064387846e-06 
4.847361532340864e-06 
4.998515179195367e-06 
6.048078571032344e-06 
7.294373956235282e-06 
1.889271387561568e-06 
5.228360199792989e-06 
7.423542845808026e-06 
2.164160756769939e-06 
2.797551898458481e-06 
3.811679739652369e-06 
5.723740239381411e-06 
6.697412578205525e-06 
4.986681359003923e-06 
6.051611440733289e-06 
4.423124152062762e-06 
3.778291863624172e-06 
5.288550129175753e-06 
4.852585661968074e-06 
4.344154838706124e-06 
3.490389255404092e-06 
4.14774985776341e-06 
3.063898761030371e-06 
2.44964235521125e-06 
2.844551836743656e-06 
2.944727054404641e-06 
2.958419272314455e-06 
2.902865480610351e-06 
2.755114348930157e-06 
2.837761970086497e-06 
2.263075847632832e-06 
2.581725983983933e-06 
2.068760117679483e-06 
2.164384125981171e-06 
1.679343961523497e-06 
2.175249507913248e-06 
1.748979491852617e-06 
1.640077239931827e-06 
1.389936055137595e-06 
1.283506414886788e-06 
1.250627136032905e-06 
1.438718111763161e-06 
1.379398409785963e-06 
1.238038378889476e-06 
9.92608301395954e-07 
1.739854890528483e-06 
1.383243125061802e-06 
1.446449621617955e-06 
1.181963896522317e-06 
1.32135054589494e-06 
1.027154441930916e-06 
1.068494838211053e-06 
1.156102659462475e-06 
1.200715630290664e-06 
1.108468090650723e-06 
1.276499517858439e-06 
1.011828979933761e-06 
1.193017000417769e-06 
1.046695911601806e-06 
8.537400440717351e-07 
9.328123401996519e-07 
7.647742905473645e-07 
9.022619290590764e-07 
8.896762307876787e-07 
8.80474541507759e-07 
7.246532192772352e-07 
6.153744001575496e-07 
6.064897202721329e-07 
6.767303451954899e-07 
4.204475596624741e-07 
2.113431198370499e-07 
4.827641894652702e-07 
7.853849984451915e-20 
2.314807776143719e-05 
