solver_type L2R_LR
nr_class 2
label 0 1
nr_feature 105
bias 1
w
0 
-0.0006596281785783632 
-0.0005936740620286908 
-8.998852187643475e-05 
0.0001425854308346613 
0.0001455631946617484 
0.0001666076158262829 
0.0001756927726750947 
0.0001639085082473145 
0.0001650029286570751 
0.0001409255414096466 
0.0001532734220765422 
0.0001365324662345765 
0.0001519079687619733 
0.0001455309409883022 
0.0001329610910435802 
0.0001116590529499279 
0.0001340820390685812 
0.0001114063587991524 
0.0001304197345935419 
0.0001147693334321453 
9.030376084439915e-05 
8.557272271708367e-05 
8.760688819971324e-05 
8.945839295134015e-05 
8.874823503762289e-05 
9.632872877448294e-05 
9.240278218024263e-05 
9.230832518993039e-05 
8.394165224502977e-05 
8.780535591712755e-05 
7.632899232861844e-05 
7.847638580967896e-05 
7.607260080958035e-05 
7.157433266956239e-05 
7.277159717171949e-05 
6.853512740506474e-05 
6.62148010253066e-05 
6.276195577341242e-05 
6.387210907055543e-05 
6.021728762211629e-05 
5.520682204632294e-05 
5.197256372932422e-05 
4.910632335147992e-05 
4.328337732953875e-05 
4.199894732179975e-05 
4.000469577396378e-05 
3.8806821268417e-05 
3.653618841093189e-05 
3.586572898223048e-05 
3.211916557811287e-05 
3.13003750970651e-05 
2.898758081729003e-05 
2.727152149089302e-05 
2.64549561830648e-05 
2.523523898768933e-05 
2.403650500727152e-05 
2.188039388806882e-05 
2.15051285554753e-05 
2.054825247530694e-05 
1.92039039024385e-05 
1.802049053374614e-05 
1.697002091472462e-05 
1.584748481094184e-05 
1.502757115312207e-05 
1.471177000769082e-05 
1.426226808511232e-05 
1.337601242663194e-05 
1.177101108705973e-05 
1.124005657068539e-05 
1.064285272384239e-05 
9.857550724371379e-06 
9.357929153207989e-06 
9.297263145692252e-06 
8.872213720168523e-06 
8.074893285962989e-06 
7.812670757216635e-06 
7.221868564158374e-06 
6.753277735238274e-06 
6.544165464709785e-06 
6.176529992578233e-06 
5.594877262076431e-06 
5.345736063016534e-06 
5.311926439779648e-06 
4.997627971075813e-06 
4.571448561809972e-06 
3.964453420533403e-06 
3.761873064506292e-06 
3.442046674180288e-06 
3.401855565069536e-06 
3.408276551309728e-06 
2.826197527455714e-06 
2.634177118865187e-06 
2.1225732064903e-06 
1.994462215874785e-06 
1.849964645568755e-06 
1.624110160361941e-06 
1.491214535693367e-06 
1.36143706295641e-06 
1.064934912977759e-06 
9.004472082229332e-07 
6.91525709283803e-07 
7.459913701120869e-07 
3.861112580634854e-07 
3.853303824384576e-19 
1.174101285362863e-05 
