solver_type L2R_LR
nr_class 2
label 0 1
nr_feature 105
bias 1
w
0 
0.001764714133138329 
0.002016010384066857 
0.001011253742779699 
0.0001555694712553629 
0.000106318197801426 
0.0001228710129468979 
1.104118787227058e-06 
-5.316833221991699e-05 
-0.0001011392381100963 
-0.0001523024299566466 
-0.0001127175873973349 
-0.0001425102840755694 
-0.0001117890251323145 
-8.887253758646982e-05 
-0.0001066624540198063 
-0.0001127021987191386 
-0.0001226836642220238 
-0.0001046406761446207 
-0.0001187643762955809 
-9.84629862195381e-05 
-9.673272669974961e-05 
-0.0001025440355165462 
-8.477269079685598e-05 
-8.108284485836906e-05 
-9.218025075744138e-05 
-8.990002583473369e-05 
-9.51343702591012e-05 
-9.054005935026313e-05 
-9.102404428886308e-05 
-8.771558652795238e-05 
-8.419926554464673e-05 
-8.552560809953482e-05 
-8.498534873208826e-05 
-8.43720004629992e-05 
-8.524904715525538e-05 
-7.896842334197657e-05 
-7.493739088524905e-05 
-6.729582884917392e-05 
-6.558121332468129e-05 
-6.414708801154023e-05 
-6.522174118749136e-05 
-5.910911796232007e-05 
-5.419137213612152e-05 
-4.732376687607362e-05 
-4.620277516389596e-05 
-4.483067845537383e-05 
-4.455130411005019e-05 
-3.886582530756989e-05 
-3.579545694236733e-05 
-3.366855302957931e-05 
-3.231270125821192e-05 
-3.048385618082876e-05 
-2.830759340071834e-05 
-2.687293705107564e-05 
-2.523119371484622e-05 
-2.347468456871147e-05 
-2.333966046421289e-05 
-2.234997210731056e-05 
-2.192877550575865e-05 
-2.051618805305052e-05 
-2.002846581656449e-05 
-1.891151090995184e-05 
-1.793183888345925e-05 
-1.740960834375259e-05 
-1.66519436512787e-05 
-1.556111157245939e-05 
-1.517413872167538e-05 
-1.493241536767821e-05 
-1.415848412974013e-05 
-1.281257591022754e-05 
-1.197528993793028e-05 
-1.133572956333165e-05 
-1.105993146983155e-05 
-1.063719093977987e-05 
-1.00365635245285e-05 
-9.945478425533386e-06 
-9.633177531078699e-06 
-8.950923348539269e-06 
-8.830655897290578e-06 
-7.951745168326311e-06 
-7.756335980475613e-06 
-7.535664742101597e-06 
-7.158540693682388e-06 
-7.16137083242889e-06 
-6.351388677170107e-06 
-5.899630640223588e-06 
-5.876268142006851e-06 
-5.551621937066863e-06 
-5.189939009677638e-06 
-4.901419159362645e-06 
-4.604079039678835e-06 
-4.576046925902135e-06 
-3.743348959633914e-06 
-3.751930290418663e-06 
-3.427127884122427e-06 
-3.230491808844375e-06 
-3.196876763445945e-06 
-2.674581629081236e-06 
-2.286694855295296e-06 
-2.131666320812184e-06 
-2.029830851373291e-06 
-1.637506482012192e-06 
-1.597474841777109e-06 
-6.678856557264952e-19 
-8.352722439491463e-05 
