solver_type L2R_LR
nr_class 2
label 0 1
nr_feature 105
bias 1
w
0 
0.0006408914881080193 
0.001149330387566639 
0.001104197687119862 
0.0003843511781824202 
0.0004273373406057695 
0.0003723326660808927 
0.0003415229407477966 
0.0003144220476990368 
0.0002589830331329811 
0.0001754666409800108 
0.0001909891331606972 
0.0001780504461052326 
0.0001115154599426704 
0.0001236405843840316 
0.0001254959679456356 
0.0001075754213619278 
9.440135384971902e-05 
8.119843956498455e-05 
8.63693688755788e-05 
6.249006844130863e-05 
5.845527217217945e-05 
5.376599618196378e-05 
4.837986233943341e-05 
4.327749927620974e-05 
2.776718565831399e-05 
1.835825970366271e-05 
1.961009089784847e-05 
1.675677170476476e-05 
1.263010925382292e-05 
1.486347586519533e-05 
1.451873409734715e-05 
5.68504152087589e-06 
6.807426694538312e-06 
5.975390512037021e-06 
8.946773300195825e-06 
6.349072458346604e-06 
3.330506123818683e-06 
2.207410413573185e-06 
2.455837463004173e-06 
2.689698228357072e-06 
1.175661518220294e-06 
8.138473132231984e-07 
-4.713736483717765e-07 
-4.247930851604002e-08 
3.498371456723901e-06 
1.271354993055533e-06 
-1.613744880113772e-07 
5.789753309853808e-07 
3.787318142202396e-07 
1.843766744937854e-06 
1.361213128272505e-06 
7.334921911653315e-07 
1.181085692343187e-06 
1.329373671240205e-06 
6.901056644419782e-07 
6.192885528399844e-07 
1.068489504697086e-06 
8.610194366019066e-07 
6.917482920570695e-07 
3.91921293742313e-08 
-3.43427383161571e-07 
-1.849338779634567e-07 
-7.166272581042562e-08 
-4.795960894315457e-07 
-5.495420090356849e-07 
1.205347774527013e-07 
-6.173383660669811e-07 
-4.232455364379799e-07 
-3.263782091068274e-07 
-6.847698603917522e-07 
-2.310286058031419e-07 
-3.373316186382469e-07 
-4.17999702346043e-07 
-4.564379873374821e-07 
-2.907411025878507e-07 
-4.049460828799735e-07 
-1.929228699591844e-07 
-4.441192626285478e-07 
-7.13522882817664e-07 
-6.433193274753728e-07 
-7.582207620873937e-07 
-5.311322018963431e-07 
-5.456963495149636e-07 
-5.866901019397853e-07 
-6.428373622305848e-07 
-7.19654641239927e-07 
-9.717688338320005e-07 
-8.604126797884838e-07 
-6.462514124643698e-07 
-5.877602870500098e-07 
-5.428599834785871e-07 
-4.549721793184952e-07 
-6.792470926925298e-07 
-6.381521725468517e-07 
-6.724869003747613e-07 
-8.102414248160159e-07 
-5.883887831205642e-07 
-6.613323224295194e-07 
-7.423740529736446e-07 
-6.260069842462304e-07 
-4.70866203429774e-07 
-1.922338340672255e-08 
-1.162731126167137e-07 
5.063957465969202e-20 
-6.447219196880972e-05 
