solver_type L2R_LR
nr_class 2
label 0 1
nr_feature 105
bias 1
w
0 
-0.001252750450793058 
-0.001403982883049963 
-0.0008712307696138355 
-0.0004193317206249615 
-0.0003365512179207462 
-0.0002355142383631003 
-0.0002790480742465713 
-0.0001869971814965173 
-0.0001880923867637765 
-0.0001424173791214217 
-0.0001566436039105982 
-0.0001433543824130722 
-0.0001234969382000417 
-0.000111147623904466 
-8.398513919362104e-05 
-7.005294160293851e-05 
-7.878777372532826e-05 
-6.70226862415367e-05 
-7.805781859497635e-05 
-6.451489365508075e-05 
-5.420461226195966e-05 
-3.984850614371834e-05 
-3.601991052465479e-05 
-3.895187113045254e-05 
-4.33398099888004e-05 
-3.762121795848364e-05 
-3.25072187070872e-05 
-2.412983284594659e-05 
-2.251694739436105e-05 
-1.99637793414847e-05 
-1.062866355512811e-05 
-1.25238813889248e-05 
-6.958944176775286e-06 
-1.004960940460423e-05 
-1.124623149501001e-05 
-6.944839998148859e-06 
-1.112037121852359e-05 
-7.4342975627332e-06 
-6.307326136101405e-06 
-8.551220100071378e-06 
-4.671276115470785e-06 
-3.974446501245789e-06 
-3.424777796380031e-06 
-1.922568532398215e-06 
-1.886862586500031e-06 
-3.655823127139004e-07 
4.086061427005789e-07 
-3.301295826338843e-07 
1.510766924430419e-06 
8.682129329464e-07 
7.244437501095115e-07 
9.996391674518478e-07 
1.405856206875286e-06 
6.253417010379988e-07 
-2.571158829464959e-07 
6.326486357399956e-08 
3.00054831154487e-07 
3.529040398359877e-07 
7.781395699533323e-07 
5.161819058634975e-07 
1.134326273465944e-06 
4.198811669988708e-07 
1.025614390558059e-06 
6.433592028035599e-07 
9.720892573672647e-07 
5.470540488230967e-07 
8.050457386922305e-07 
8.656563940205229e-07 
9.137029195719506e-07 
8.942677742972686e-07 
8.141156470331124e-07 
1.140326718774665e-06 
1.260733529532151e-06 
1.635756681009004e-06 
1.615959564847494e-06 
1.418913122032152e-06 
1.616520217388551e-06 
1.890168193325504e-06 
1.617587460163248e-06 
1.396611889160813e-06 
1.791824803534499e-06 
1.957620404672408e-06 
1.631390341617556e-06 
1.673802196198494e-06 
1.732250225369474e-06 
1.676870766077963e-06 
1.728635014394157e-06 
1.805701208617349e-06 
1.502402744773031e-06 
1.447879976492593e-06 
1.430117003614732e-06 
1.442398575528157e-06 
1.440434780989706e-06 
1.437625786188881e-06 
1.277269654286517e-06 
1.265984586854953e-06 
1.340134148016116e-06 
1.123417245217299e-06 
8.905928831928455e-07 
1.081314057636941e-06 
8.809768075304017e-07 
6.311107871997271e-07 
7.798538550444134e-07 
-9.046245320887301e-20 
6.659632565871565e-05 
