solver_type L2R_LR
nr_class 2
label 0 1
nr_feature 105
bias 1
w
0 
-8.355761217058429e-06 
-0.0003248522417011606 
-0.0006323986014639826 
-4.909982119927432e-05 
-7.495187083182753e-05 
-2.204837377406986e-05 
2.008081971797663e-06 
-2.097590742783105e-06 
-9.805142135474282e-05 
-0.0001127758040059889 
-8.592023030351701e-05 
-3.196516877355396e-05 
1.15203592360383e-05 
1.218875424596956e-05 
-1.282824174458053e-05 
-4.689189008484158e-06 
-2.935495843343535e-05 
-2.274194588719966e-05 
-2.604192386078885e-05 
-1.757346616572847e-05 
-2.776263797228234e-06 
-1.972121429038553e-05 
1.372108220094151e-06 
-9.415528119979736e-08 
-2.468438067310366e-06 
1.168789437136458e-05 
1.640154309178038e-05 
2.294891856504879e-05 
2.954760975235605e-05 
2.532892794239862e-05 
2.237478378714754e-05 
2.676512233045938e-05 
2.909063004742275e-05 
3.194308083158579e-05 
3.090673279089798e-05 
3.42388738420357e-05 
3.308810583198992e-05 
3.126951031157985e-05 
3.094385840898229e-05 
3.411252886143528e-05 
3.252597040199454e-05 
3.338047905732993e-05 
3.250924123983848e-05 
3.180676844486458e-05 
3.055786694645034e-05 
3.122585819782448e-05 
3.064819398638731e-05 
2.910512183860073e-05 
2.761774253068036e-05 
2.649407439330874e-05 
2.575853785456862e-05 
2.346390788682153e-05 
2.249851680101369e-05 
2.266720946973014e-05 
2.162319666949715e-05 
2.021327095342319e-05 
1.864328676950708e-05 
1.795970879797654e-05 
1.757078686205622e-05 
1.550537114293762e-05 
1.418907471616534e-05 
1.316199832877467e-05 
1.252733956026347e-05 
1.253263755249494e-05 
1.151362216062716e-05 
1.085833233354716e-05 
1.079381991012485e-05 
9.916998084611547e-06 
9.05808378085122e-06 
8.185926590107299e-06 
8.049439226585097e-06 
7.563891959991327e-06 
6.974918371131436e-06 
6.606203244564624e-06 
5.979494515738887e-06 
5.825921464925575e-06 
5.657563887408509e-06 
5.556108930019266e-06 
5.025463886917243e-06 
4.942419579453977e-06 
4.353952356112421e-06 
4.193240527319366e-06 
3.603143091310411e-06 
3.569783094218291e-06 
3.275288043660666e-06 
3.12174859333709e-06 
2.933307308825986e-06 
2.755010043590324e-06 
2.462677690008776e-06 
2.284418961439778e-06 
2.168278707800833e-06 
1.837330399627747e-06 
1.627459823726789e-06 
1.543312690351109e-06 
1.580142587342691e-06 
1.566024493470141e-06 
1.217402614941051e-06 
1.327895648609192e-06 
1.065616991826127e-06 
8.650296043259351e-07 
8.670827304836634e-07 
8.907070300040314e-07 
5.710304911252081e-07 
1.35581688393634e-20 
1.734549057910306e-05 
