solver_type L2R_LR
nr_class 2
label 0 1
nr_feature 105
bias 1
w
0 
-1.88260805328322e-05 
-0.0001739541161767998 
-0.0001959629929567538 
9.149366543531387e-06 
-1.760830092697868e-07 
-7.896729203726655e-05 
-9.124236334149039e-05 
1.204812168400411e-05 
-1.011403210552392e-05 
-7.949977394801251e-05 
-5.212949529012521e-05 
-5.295648978233619e-05 
-3.846111466229211e-05 
-6.105246286325347e-05 
-2.934785715421535e-05 
-2.673716926561017e-05 
-2.039944965234471e-05 
-1.567326667988766e-05 
-5.817077368016335e-06 
-7.183711166601462e-06 
2.583186456773074e-07 
-4.870055268203746e-06 
-1.349784706807454e-05 
-8.942158408024547e-06 
-1.866867572390486e-05 
-8.144572260276398e-06 
-4.777178198952188e-06 
-1.9858511356788e-06 
-6.736587687789714e-06 
8.395503061641088e-07 
-1.870783506219947e-07 
-6.705103935726079e-06 
-8.70654017816623e-06 
-7.081609073734546e-06 
-9.377729378099077e-07 
-9.745293011042213e-07 
3.358365512408503e-06 
6.03576308047137e-06 
3.973853663078046e-06 
4.926107273547695e-06 
5.746466364056614e-06 
4.197027061369983e-06 
4.1362843470367e-06 
-1.696505745608924e-06 
1.704877126198973e-06 
1.595680787949362e-06 
3.826942376190018e-07 
2.433422236233543e-06 
1.880608539012753e-06 
3.48408818664707e-07 
-6.63670562168515e-07 
-3.843020333727258e-07 
7.81877556315165e-07 
-2.39940787487264e-07 
7.073139289736086e-07 
6.198813148480316e-07 
1.039265836060998e-06 
9.61135191576522e-07 
1.389878902518579e-06 
6.994515029955663e-07 
9.262602244163824e-07 
8.913854656989313e-07 
1.197576355417235e-06 
8.18799925803167e-07 
6.451406322815208e-07 
9.642614116543807e-07 
4.75874669955966e-07 
2.874365286819256e-07 
4.89150585180347e-07 
9.260689817153409e-07 
7.675000300666816e-07 
6.123124435546273e-07 
6.093170714272718e-07 
4.152951319676981e-07 
4.268598491522529e-07 
1.655428224073824e-07 
1.415791250565864e-07 
3.717410652320899e-07 
5.641925647807099e-07 
2.054703806411107e-07 
3.045859350467906e-07 
2.940668377971417e-08 
2.706323832022875e-08 
4.250130772956957e-08 
3.035743254428792e-07 
7.946590571419394e-08 
3.124998060099275e-09 
5.050619040996935e-09 
1.820016930713467e-07 
3.336099197594618e-07 
1.639121119536616e-07 
2.638333486222597e-07 
-1.774949781638349e-08 
-6.785380717759083e-08 
-1.108413076461191e-07 
-3.556541494219721e-07 
-3.04166745709909e-07 
-1.17941282956764e-07 
5.594416794686927e-10 
-1.594133043687679e-08 
1.861077319330731e-07 
2.277547585237005e-07 
7.814749888483729e-09 
-5.738959664021683e-20 
7.899029424845656e-06 
