solver_type L2R_LR
nr_class 2
label 0 1
nr_feature 105
bias 1
w
0 
-0.0007769708382902149 
-0.0007042153016788093 
-1.341736168453201e-06 
-8.505801951805587e-05 
6.744240148912414e-05 
-4.602908999783707e-06 
5.666977745353895e-05 
3.450759619179916e-05 
1.665506057966363e-05 
7.810517067650418e-05 
6.258312062062995e-05 
4.320566863354069e-05 
4.321135389158449e-05 
8.224548887454731e-05 
6.324468981559314e-05 
6.476955881353429e-05 
5.611677724504161e-05 
5.246907024364603e-05 
4.899516919644245e-05 
5.122587556854013e-05 
6.057820293452205e-05 
4.347297635267775e-05 
4.326003022092183e-05 
4.378589590030423e-05 
5.046411291130965e-05 
4.342581221108443e-05 
4.81063430156718e-05 
4.260573952881112e-05 
3.790790865946881e-05 
3.581436677965768e-05 
4.109307956045857e-05 
2.928287127842007e-05 
3.039814034289509e-05 
2.904925578043031e-05 
2.498140692526755e-05 
2.615365708406144e-05 
2.63708501563238e-05 
2.555602236326228e-05 
2.420839200820769e-05 
2.07271751028563e-05 
1.948028286783663e-05 
1.997253993534272e-05 
1.955189426017273e-05 
1.626821135136148e-05 
1.661623705046691e-05 
1.739899611184831e-05 
1.632852364501526e-05 
1.768560312468263e-05 
1.578914019549845e-05 
1.485949900570404e-05 
1.310964303326694e-05 
1.136672267907907e-05 
1.025129249467068e-05 
1.040810481001587e-05 
1.056665476085502e-05 
8.785274120393593e-06 
8.85319011342122e-06 
8.121233653221082e-06 
7.879548248089055e-06 
7.560624402800733e-06 
6.755665420044291e-06 
6.817308117146974e-06 
6.082139390002865e-06 
6.295022404460746e-06 
6.424098423568089e-06 
5.339015808131244e-06 
5.341743374832832e-06 
5.219191455712018e-06 
5.612679686484498e-06 
5.120178434635725e-06 
4.776902272377788e-06 
4.369355701289191e-06 
4.374256415207642e-06 
4.309802155632942e-06 
3.781737516487034e-06 
3.403903861697154e-06 
3.484213596602648e-06 
3.593060917402409e-06 
3.096442088851199e-06 
3.056246569691818e-06 
3.242938976055072e-06 
3.147394434137964e-06 
2.871390809844284e-06 
2.958399433339533e-06 
2.679994489021665e-06 
2.534306056532038e-06 
2.524927845212447e-06 
2.118535401367496e-06 
2.069348433521132e-06 
2.156561817458884e-06 
2.001874505715509e-06 
1.836687649968109e-06 
1.706272046757182e-06 
1.797723061717096e-06 
1.763692619320798e-06 
1.536872429532015e-06 
1.293341255405416e-06 
1.419855795001076e-06 
1.200068927693948e-06 
8.906347983963143e-07 
9.482931661262116e-07 
5.943513628212398e-07 
5.303756165596559e-07 
1.133008322393029e-19 
2.590107792283424e-05 
