solver_type L2R_LR
nr_class 2
label 0 1
nr_feature 105
bias 1
w
0 
-0.000117793017922851 
0.000136882584388092 
0.0006471050933379907 
0.0001044384058835054 
0.0002475859765155889 
0.0001236050257906528 
0.0002317144674245264 
0.0002073577986231546 
0.000203981871138539 
0.0001344143637840928 
0.000131755876143085 
0.0001143677033626499 
0.0001288401660286704 
0.0001105862885078552 
0.0001208016559701286 
0.0001246874209923575 
0.0001371897328739709 
0.0001197173736647633 
0.0001344002758631101 
0.000140628080724692 
0.000129987109882762 
0.0001169500681861925 
0.0001021678593510507 
9.946341369184438e-05 
8.672098375487869e-05 
7.998683052756664e-05 
7.193162215060335e-05 
7.265145051242006e-05 
5.995607199836535e-05 
5.959483473884851e-05 
6.186240272824371e-05 
6.029603352631143e-05 
5.477037787730972e-05 
4.960236331558731e-05 
4.636122993116717e-05 
4.490951492462292e-05 
4.211177963197645e-05 
4.305801585707485e-05 
4.275256190801034e-05 
3.854553132824786e-05 
3.63382171647444e-05 
3.750074234157148e-05 
3.53507877327699e-05 
2.901498898459185e-05 
2.660052902361575e-05 
2.392464657613038e-05 
2.241441487905377e-05 
2.125376773638529e-05 
2.057449645458246e-05 
1.895216749273934e-05 
1.760959721020211e-05 
1.54951555263797e-05 
1.60094300967413e-05 
1.438639554199784e-05 
1.385359315610687e-05 
1.334895731906448e-05 
1.219878542051192e-05 
1.192410971774787e-05 
1.119072617082912e-05 
1.05468208515259e-05 
9.95029680304133e-06 
9.42412142833429e-06 
9.009363301506039e-06 
8.201971056284387e-06 
8.009363410911436e-06 
6.672396141353193e-06 
6.777016058292948e-06 
5.390447340511837e-06 
5.716146095439903e-06 
4.926653432766163e-06 
4.188089040204657e-06 
4.109702556991674e-06 
4.421512041647976e-06 
3.992862629832481e-06 
3.600811068445901e-06 
3.639122220292916e-06 
3.929958962962729e-06 
3.627272405000257e-06 
3.377018205605266e-06 
2.931121461979625e-06 
2.678440897923604e-06 
2.629037216610735e-06 
2.353638665576967e-06 
2.439614494882107e-06 
2.615775909935126e-06 
2.135316868788616e-06 
2.240076471912284e-06 
2.371865669209002e-06 
1.741679175945935e-06 
1.755723745616894e-06 
1.711181578850087e-06 
1.827374263492095e-06 
1.386302376450706e-06 
1.192812595661602e-06 
1.372535523808053e-06 
1.254319847134035e-06 
1.442072508626957e-06 
1.407472141519174e-06 
1.143761758237158e-06 
9.157958889062204e-07 
6.394651983692079e-07 
7.593455105071559e-07 
3.442459419835254e-07 
1.423228729609134e-19 
-2.377146094294819e-05 
