solver_type L2R_LR
nr_class 2
label 0 1
nr_feature 105
bias 1
w
0 
-0.0004372753885109503 
2.817344670162592e-05 
0.000609666698905094 
0.0001922387113189883 
0.0003044523630486017 
0.000219885549342349 
0.0003522628253312805 
0.0002738513728337874 
0.0002865475594990077 
0.0002194783226235399 
0.0002366208424771407 
0.0002004654298478076 
0.0002138178133398808 
0.0001951587317067571 
0.0001756717038755149 
0.0001774015290277577 
0.0001862552058675691 
0.0001633378502427849 
0.0001900589211269171 
0.0001721622406846692 
0.000167874383353753 
0.0001555974741443102 
0.0001348706336193688 
0.0001340946582852895 
0.000124776762258986 
0.0001150280614680742 
0.0001130215876524194 
0.0001020880781381983 
8.997415489577091e-05 
9.52055978775366e-05 
9.408388211925775e-05 
9.090130642246499e-05 
8.255390854609592e-05 
7.785536436415062e-05 
7.586072229001653e-05 
7.11755266390536e-05 
6.78359818400027e-05 
6.645015548636918e-05 
6.63946039915632e-05 
6.012360381799928e-05 
5.447052705552476e-05 
5.442191354168541e-05 
5.211828371688899e-05 
4.531318754026668e-05 
4.162119656083794e-05 
3.86643288347146e-05 
3.894230649135424e-05 
3.676597112500617e-05 
3.325099977298506e-05 
3.007276938588761e-05 
2.85535260018246e-05 
2.744079586309472e-05 
2.622392701316734e-05 
2.44807680812249e-05 
2.406936285644647e-05 
2.289482737471172e-05 
2.10035348069616e-05 
2.075389021823761e-05 
1.964185864440508e-05 
1.874448875772609e-05 
1.767983540813505e-05 
1.670700505187175e-05 
1.611727146768095e-05 
1.507785934779191e-05 
1.434757979279872e-05 
1.291189651218404e-05 
1.250068270442927e-05 
1.117168164255313e-05 
1.083396052294666e-05 
1.012956108690254e-05 
9.375830062603676e-06 
8.945091032720336e-06 
8.673508713951867e-06 
8.186851631620695e-06 
7.500388720542909e-06 
7.287755520889277e-06 
7.09051556385972e-06 
6.673983574806285e-06 
6.394278198827173e-06 
6.350075158962803e-06 
5.607953763355273e-06 
5.318436760492086e-06 
4.958981008541044e-06 
4.893337661255798e-06 
4.597403271208877e-06 
3.848259850777026e-06 
3.774938825693785e-06 
3.972247525185746e-06 
3.289881403656858e-06 
3.006359965286351e-06 
2.948392767674742e-06 
2.780611864409025e-06 
2.335458811006156e-06 
2.146238199931322e-06 
2.105200280918233e-06 
1.832004140499297e-06 
1.787074168230148e-06 
1.753455715761304e-06 
1.486572699585778e-06 
1.230200125264066e-06 
9.134006236364693e-07 
1.020524640843127e-06 
6.631692390352797e-07 
3.227749375059913e-19 
-2.128047398018262e-05 
