solver_type L2R_LR
nr_class 2
label 0 1
nr_feature 105
bias 1
w
0 
-0.001772721301880108 
-0.001537450113153847 
-0.001106458072476996 
-0.000174418197377505 
-0.000107404970816271 
1.88520835604688e-06 
3.129424298454597e-06 
4.136291115694442e-05 
2.12330280283606e-05 
0.0001172956541914711 
8.10438288146079e-05 
7.106989318169632e-05 
9.231186759445215e-05 
7.018874529632349e-05 
8.189986267734451e-05 
8.095335257046553e-05 
7.132209058327187e-05 
7.282170103997108e-05 
6.30213112084642e-05 
6.151488999532914e-05 
5.917752293644806e-05 
4.93728841650234e-05 
5.451261415004496e-05 
5.599388403448815e-05 
6.088252105340687e-05 
5.959391133168904e-05 
4.934410987946874e-05 
3.748921460456033e-05 
4.256942832729125e-05 
3.792080603403105e-05 
4.274546087703829e-05 
4.277822961458278e-05 
4.519180028346842e-05 
4.349239482086355e-05 
3.596088627713409e-05 
3.47097253409137e-05 
3.928108726047601e-05 
4.074769524212031e-05 
3.830385162983426e-05 
3.360399894042214e-05 
3.371008527104777e-05 
3.275008509196794e-05 
3.041487582174012e-05 
2.8028015350325e-05 
2.903990629240522e-05 
2.765207194273563e-05 
2.317962536132857e-05 
2.37153837337771e-05 
2.410157038069187e-05 
2.286347631082892e-05 
2.276006057231602e-05 
2.156185687277399e-05 
2.076725217141549e-05 
2.038993572485391e-05 
1.877778210258969e-05 
1.750421062436827e-05 
1.669597187470387e-05 
1.584894144315388e-05 
1.484689204924752e-05 
1.44238598618345e-05 
1.360605516538374e-05 
1.344092346180666e-05 
1.258914528447521e-05 
1.157959888212938e-05 
1.122493295023331e-05 
1.037154033313999e-05 
9.677230160431852e-06 
9.569574947678288e-06 
9.141817826192192e-06 
9.221449386788585e-06 
8.620622939664555e-06 
8.258569759621669e-06 
7.860837591509913e-06 
7.280198911180527e-06 
7.011366774069759e-06 
6.581250349961613e-06 
6.537187969198131e-06 
6.235807986274986e-06 
5.911967794363506e-06 
5.789428859629619e-06 
5.483256245095049e-06 
5.054457471801152e-06 
4.567842150907318e-06 
4.206066385596863e-06 
4.331695762741209e-06 
3.929421374518649e-06 
3.667721235817138e-06 
3.562556154485483e-06 
3.534802445283333e-06 
3.3973452548773e-06 
3.24717486787483e-06 
3.098003671937985e-06 
2.746737985219747e-06 
2.739637555433451e-06 
2.659367051732734e-06 
2.580867222136163e-06 
2.358017787002577e-06 
2.083561189040807e-06 
1.873203580212342e-06 
1.612455922343657e-06 
1.573280502929133e-06 
1.185898487665766e-06 
9.460700011562664e-07 
4.938818340126135e-19 
8.687295657805349e-05 
