solver_type L2R_LR
nr_class 2
label 0 1
nr_feature 105
bias 1
w
0 
0.0002003614631463608 
-7.791341812368449e-06 
0.0003089604141535526 
0.0001926185591610483 
0.0001690853637382641 
8.831674509564242e-05 
7.234977611513292e-05 
8.945249021303844e-05 
0.0001114467144763099 
7.077231302039572e-05 
6.647877899821002e-05 
4.307158025482019e-05 
5.424852968604451e-05 
4.547018235061531e-05 
3.72159065208452e-05 
5.703455854235697e-05 
4.727291824283277e-05 
4.822855364297659e-05 
4.640365256735949e-05 
4.938710715491146e-05 
6.17175827624626e-05 
5.097413737254675e-05 
4.622049304678636e-05 
4.704922375140122e-05 
4.55346727506828e-05 
3.749883764593165e-05 
3.35239778034645e-05 
3.312320892378065e-05 
2.692051412264075e-05 
2.80321351374308e-05 
2.810669168932457e-05 
2.442311235548923e-05 
2.319217350834577e-05 
2.230523556462759e-05 
1.912510878915822e-05 
1.738406497901628e-05 
1.619984820293426e-05 
1.771332618015458e-05 
1.507499828714358e-05 
1.465708857292249e-05 
1.219161293252923e-05 
1.282710030868934e-05 
1.029114199762724e-05 
8.581031133476929e-06 
6.367941866318804e-06 
4.355226717141161e-06 
3.098434337380789e-06 
2.038496095951734e-06 
1.867089512289894e-06 
2.17556718015932e-06 
2.278054456079963e-06 
1.501410843165587e-06 
2.534301255246789e-06 
1.449823265422328e-06 
1.514229343776818e-06 
1.302354648313544e-06 
1.516509312040988e-06 
7.758071528331357e-07 
7.17672656650528e-07 
4.616158624037721e-07 
6.891161466757507e-07 
2.150982191344548e-07 
6.445474767341207e-07 
5.384208674805743e-07 
7.66487250117689e-07 
1.645978970979613e-07 
7.599110023855077e-07 
-1.380628223902473e-07 
2.387179628852579e-07 
9.472975971161803e-08 
-7.533506872768688e-08 
-6.025592693328988e-08 
3.12970108704771e-07 
3.304054004649662e-08 
-9.36720736763034e-08 
1.730407064591324e-07 
6.050022115595288e-07 
3.437270445485662e-07 
2.933193479287807e-07 
-1.972022948343908e-07 
2.102587301943001e-07 
1.986763533770645e-07 
-1.413669758772849e-08 
2.765404472064015e-07 
5.009644966769643e-07 
5.65296574572513e-07 
5.502320791575952e-07 
6.017009023725988e-07 
2.458321177870475e-07 
2.26561713753611e-07 
4.175722538037258e-07 
5.257728855685853e-07 
3.265856197514475e-07 
3.059140293737148e-07 
3.606023768850618e-07 
3.768920489748854e-07 
5.364962071406293e-07 
4.631936362557573e-07 
2.274012152340377e-07 
1.390560111633118e-07 
1.79921650043372e-07 
3.059331635445176e-07 
2.581935610994266e-07 
-2.285392326458851e-20 
-1.788710904651614e-05 
