solver_type L2R_LR
nr_class 2
label 0 1
nr_feature 105
bias 1
w
0 
0.0002992672874030599 
0.0007191926508890319 
0.0007074186995097999 
-7.240872943293243e-05 
4.985316700710591e-06 
2.861398907345479e-05 
1.105297154177885e-05 
5.745849221851671e-05 
5.616933808353163e-05 
-2.441162970575534e-06 
-4.513367074997821e-05 
-2.252084711964594e-05 
1.02139682962494e-05 
1.274352932514609e-05 
2.28521024053686e-05 
3.962031244126562e-05 
4.240940938326677e-05 
2.045369682460586e-05 
2.530059214069947e-05 
1.669686323261791e-05 
2.561436952901895e-05 
2.028664878926945e-05 
1.432113075416756e-05 
1.794140020505372e-05 
2.353941589068592e-05 
1.442526320724755e-05 
1.665264563835579e-05 
2.235613722367638e-05 
1.547750784965733e-05 
1.476192758787771e-05 
1.619413012275535e-05 
1.365128808439615e-05 
1.30985996873168e-05 
1.222587720047205e-05 
4.341773195137132e-06 
6.159221556351221e-06 
6.527631178268649e-06 
8.700355700349705e-07 
1.006049456223534e-06 
2.262578134244331e-06 
4.379593677491181e-06 
3.508790616097112e-06 
3.599300210113742e-06 
5.444357174077515e-06 
6.981045299229644e-06 
7.292266371692862e-06 
5.877747941805216e-06 
3.97173125171618e-06 
2.794622526783066e-06 
4.372240349667314e-06 
3.411633434719998e-06 
2.189441005305883e-06 
1.838036210680764e-06 
1.55510665911524e-06 
2.415420951706784e-06 
9.69197034552843e-07 
1.844134239317686e-06 
1.254386702696852e-06 
1.565415552041141e-06 
1.338686561844684e-06 
1.137344315038785e-06 
8.336888535409744e-07 
7.600908904222875e-07 
1.03672478004787e-06 
6.912273993859024e-07 
6.273099016461814e-07 
1.023396417257427e-06 
9.586238267860282e-07 
1.046730979076008e-06 
7.056251338023746e-07 
6.100407396230265e-07 
5.29041979917405e-07 
5.76983489798864e-07 
8.168648311381882e-07 
5.31087406216728e-07 
2.063534109622806e-07 
1.343396583510056e-07 
3.708901677476032e-07 
3.148641956192673e-07 
3.210475473030573e-07 
4.756771724686885e-07 
5.731920191021069e-07 
2.322704649409336e-07 
2.703185864933485e-07 
2.402387731841864e-08 
1.211641977605808e-07 
5.412999948125479e-07 
8.241951035510923e-08 
-2.044616400140004e-08 
1.612081586786238e-07 
8.537295014545611e-08 
1.557088300501255e-07 
-1.636100179492397e-08 
1.400818952590128e-07 
9.794633375285835e-08 
-2.30982692049314e-07 
-1.020401955366526e-07 
1.347133977214759e-07 
-2.855163767931089e-07 
-3.839836192565147e-08 
1.180132100072697e-07 
-7.318222592112349e-09 
1.044300539527644e-07 
-2.841135526472121e-19 
-2.862298503131169e-05 
