solver_type L2R_LR
nr_class 2
label 0 1
nr_feature 105
bias 1
w
0 
0.001965308324769989 
0.001395003542633887 
0.001299860585767812 
0.0005431353440245989 
0.0004033882086803247 
0.0003959396130849449 
0.0003447804673377575 
0.000332535347295535 
0.000269669065379038 
0.0002481007213434285 
0.0001699642374943714 
0.0001634530145192684 
0.0001369131914336388 
0.0001254857933579191 
0.0001006607646750757 
9.8976306412773e-05 
8.430036293051007e-05 
8.625499391944507e-05 
7.16563268470238e-05 
8.312158643800546e-05 
7.124857772475022e-05 
5.595184522684359e-05 
4.666003918095238e-05 
3.848044173312172e-05 
4.717331400242216e-05 
4.480028639349802e-05 
4.67374605774551e-05 
2.918612150977535e-05 
2.48089009675056e-05 
2.525260372044712e-05 
1.976223552740146e-05 
2.520273272469131e-05 
2.641093178209795e-05 
2.43774086989638e-05 
2.083694704602679e-05 
2.187290710318461e-05 
1.686510577565629e-05 
1.587544187161924e-05 
1.826321685468834e-05 
1.464097031202791e-05 
1.371201314655195e-05 
1.124996223972038e-05 
1.209959455700317e-05 
7.522820827742192e-06 
7.104638683662844e-06 
6.698232475428531e-06 
5.631363012088514e-06 
5.767077065511509e-06 
5.103954835912934e-06 
5.229543753617154e-06 
3.780966742766887e-06 
2.682275072687285e-06 
2.553741177424736e-06 
3.234463433410305e-06 
2.981920242085644e-06 
2.018842467472234e-06 
1.953542301685213e-06 
1.471484343397722e-06 
1.020413828530745e-06 
5.360668090155933e-07 
-5.817767611535476e-07 
2.429351628954203e-07 
-5.439153697201481e-07 
-2.497176512558795e-07 
-4.847773361964738e-07 
-4.465947400733357e-07 
3.987580092740904e-08 
-9.934697173717724e-08 
-5.258983219555263e-07 
-2.975221940255632e-07 
-7.066371312558699e-07 
-4.449637805056307e-07 
-4.677187531066964e-07 
-5.463386862141375e-07 
-8.363939347074591e-07 
-9.690724709226114e-07 
-9.287085679486584e-07 
-1.22644728890431e-06 
-1.000080753730415e-06 
-6.887194549968609e-07 
-1.041050030075371e-06 
-1.235367029370325e-06 
-1.057244420957639e-06 
-8.54314301561802e-07 
-5.338183316017131e-07 
-6.89867782129289e-07 
-9.416828772852834e-07 
-9.711152884734684e-07 
-7.191468003764499e-07 
-7.735585326496683e-07 
-9.544686271662312e-07 
-7.262645046488667e-07 
-6.123488665517188e-07 
-8.345520867161883e-07 
-8.908841854803948e-07 
-1.197767016046126e-06 
-8.529542465382189e-07 
-1.083391274189303e-06 
-9.14133592678685e-07 
-9.645381151356421e-07 
-9.915313042402922e-07 
-9.301845549654578e-07 
-7.381666470669293e-07 
4.218799320504365e-20 
-9.919577831842422e-05 
