solver_type L2R_LR
nr_class 2
label 0 1
nr_feature 105
bias 1
w
0 
-0.001170763831413573 
-0.001630925250569519 
-0.001207742339396411 
-0.0002862519342328187 
-0.0002371570476844739 
-0.0001780354933180497 
-0.0001412076036812656 
-0.000113117270684213 
-0.0001237094651105755 
-7.902203041067359e-05 
-4.957052520203394e-05 
-7.139337477666346e-05 
-9.129845308151184e-05 
-5.059667400987558e-05 
-4.98677960633107e-05 
-3.041923497126226e-05 
-4.893401655745264e-05 
-3.408580292975441e-05 
-4.476609300411922e-05 
-5.2369716056422e-05 
-4.715836509310117e-05 
-5.159946528098131e-05 
-4.650351108061978e-05 
-3.797147682072852e-05 
-2.317742238220766e-05 
-2.83351706167473e-05 
-2.089348200084032e-05 
-3.206233072160093e-05 
-2.108971261585672e-05 
-1.955983994703787e-05 
-2.046970556790887e-05 
-2.93958224268273e-05 
-2.079587073338029e-05 
-2.210176686294576e-05 
-1.831954380473854e-05 
-1.802255151362632e-05 
-1.522985497550532e-05 
-1.135186367325584e-05 
-1.295142998844123e-05 
-1.247181100647319e-05 
-1.473304465507679e-05 
-9.704996202855556e-06 
-8.685508730199967e-06 
-8.948395753425441e-06 
-9.561271312700183e-06 
-8.306434791174696e-06 
-9.34157884977118e-06 
-4.004904640780603e-06 
-4.980804738040994e-06 
-4.987545095225832e-06 
-5.65381126069341e-06 
-5.456306811439803e-06 
-4.662103608338072e-06 
-4.029103866655554e-06 
-2.56013240538882e-06 
-2.643972835856719e-06 
-2.327547247574795e-06 
-2.913952226288651e-06 
-2.614995941029417e-06 
-2.063491430344398e-06 
-1.858812675685094e-06 
-1.166136092550967e-06 
-1.352676793409923e-06 
-1.460982329083311e-06 
-9.69058478661715e-07 
-1.403413599796681e-06 
-1.41769206454626e-06 
-1.18480676246796e-06 
-1.047015057688865e-06 
-4.624122797075986e-07 
-3.158281373721066e-07 
-5.611310095998137e-07 
-4.895469193640865e-07 
-2.149517312195366e-07 
-9.352643378983141e-08 
1.538293500797473e-07 
3.307872216890706e-07 
6.871172205496403e-07 
3.982348148719866e-07 
2.203613650614296e-07 
2.267322727481632e-07 
3.008428351844654e-07 
3.957798580585683e-07 
5.971966540961388e-07 
5.377452473922491e-07 
5.768922269753221e-07 
4.258758517884542e-07 
5.343093879292283e-07 
7.474575955566121e-07 
7.315549328801043e-07 
9.001442055366005e-07 
6.635626817747633e-07 
7.194700719431813e-07 
8.718288026830859e-07 
9.364054158997494e-07 
1.040467185940388e-06 
8.928778321076591e-07 
8.868857609168997e-07 
8.841054026192362e-07 
6.818692995688269e-07 
6.576149553378215e-07 
4.843795030212894e-07 
5.878521726562316e-07 
2.478287318318817e-19 
8.150377705538517e-05 
