solver_type L2R_LR
nr_class 2
label 0 1
nr_feature 105
bias 1
w
0 
-1.365367301843606e-05 
-0.0006389876062571639 
-0.0003367694348820867 
3.158436999279549e-05 
-4.712502772087593e-05 
5.687573053588284e-05 
1.319961978760099e-05 
6.815062606670324e-05 
9.006119030135167e-05 
7.129184581535507e-05 
5.50585867962002e-05 
3.304865450200546e-05 
3.234371781897609e-05 
2.704483495223451e-06 
3.573962021402796e-07 
-1.276617368770941e-06 
-2.25801154751849e-05 
-1.344357011652503e-05 
-1.40292014734418e-05 
-1.322409056903552e-05 
-2.39259441317675e-05 
-2.23214422635405e-05 
-2.944767577215881e-05 
-2.554930867888499e-05 
-4.383812569987347e-06 
-1.188017430471703e-07 
2.109562733967286e-06 
-1.40033086787944e-05 
-7.442868857761052e-06 
-2.23981975463943e-06 
-8.2619812467583e-06 
-8.447566043092485e-06 
4.023331797248254e-06 
-1.627425374848045e-06 
-1.071655807618159e-06 
-1.542765588759735e-06 
-2.379793328745783e-07 
2.406780857629131e-06 
1.833193646445547e-06 
1.279560852400481e-06 
1.068704127844858e-06 
4.772881296157637e-07 
4.902548235652376e-07 
-1.425993553876359e-06 
-3.168598058882333e-06 
-3.290995154535734e-06 
-4.999262056430029e-06 
-3.254756581223911e-06 
-3.881037822588393e-06 
-3.549948415413621e-06 
-3.812233832897223e-06 
-3.452115817881006e-06 
-2.648860354941893e-06 
-2.624076197825256e-06 
-1.834314148459637e-06 
-2.40950846433969e-06 
-1.54951480067397e-06 
-2.07525666775243e-06 
-1.890548410693345e-06 
-1.781640114492289e-06 
-1.866167752806681e-06 
-1.366285890047373e-06 
-1.549997143361292e-06 
-1.060436184806937e-06 
-9.058751469087211e-07 
-1.215400798167566e-06 
-7.825303720282571e-07 
-7.497182380177343e-07 
-1.281837636836573e-06 
-5.343128128492712e-07 
-4.853611290512133e-07 
-6.141648429612769e-07 
-3.829766014633495e-07 
-4.395957971275919e-08 
-2.329381376617473e-07 
-2.470981063835298e-07 
-4.743987983877981e-08 
5.766689571940241e-08 
2.358414467178009e-07 
-1.583919696488963e-07 
-2.081623893072379e-07 
-2.594222984293364e-07 
-1.448117382637925e-07 
1.871536004043904e-08 
3.779146831562692e-08 
1.217375743468633e-07 
4.490763277798541e-08 
1.240664213686181e-07 
3.734882933434451e-07 
1.810322889427409e-07 
1.160464123292613e-07 
3.912983376759774e-07 
3.162000034859049e-07 
2.567221067126078e-07 
1.857715409861638e-07 
1.819153419626454e-07 
3.490285310085881e-07 
1.885193001121283e-07 
2.977385114824801e-07 
2.33664932749273e-07 
3.101104969009644e-07 
8.59187390273988e-08 
3.067512949508204e-07 
2.682685399835024e-19 
1.256231235389749e-05 
