solver_type L2R_LR
nr_class 2
label 0 1
nr_feature 105
bias 1
w
0 
-0.0002888907693550224 
-0.000626395272184632 
-0.0002562195393376652 
-4.291414606908403e-05 
-5.027940071558771e-05 
1.361537119626353e-05 
-3.197839563227167e-05 
-5.229434367393414e-05 
-3.170539880724464e-05 
-5.130558310515144e-05 
-3.729398602296688e-05 
-8.074537553557224e-05 
-3.911917350001956e-05 
-5.249509811553978e-05 
-4.833272486074489e-05 
-5.326102037958602e-05 
-4.604567019270753e-05 
-2.781525605113527e-05 
-4.175843884146388e-05 
-1.015649294670113e-05 
-1.748309875241481e-05 
-8.633907993562045e-06 
-5.873967052841519e-06 
-1.458347056284801e-05 
-2.377618114085298e-05 
-9.653621748551316e-06 
-1.688009448024987e-05 
-1.490557791175874e-05 
-1.564372662552668e-05 
-1.961546041783023e-05 
-1.748280974921603e-05 
-1.057919079550278e-05 
-9.541955578959394e-06 
-1.184647677528054e-05 
-8.299489208844061e-06 
-7.38348085572371e-06 
-7.463216534820643e-06 
-4.812734546785153e-06 
-4.35636389834773e-06 
-4.861135757151722e-06 
-4.810109502832261e-06 
-4.687057764131508e-06 
-3.176383012747047e-06 
-3.30713444045196e-06 
-2.540282266072843e-06 
-2.00941959261486e-06 
-4.584204447085272e-06 
-1.872463125721065e-06 
-8.119594295985942e-07 
3.243558397199469e-07 
-9.610543478168886e-07 
-9.879181277558957e-07 
-2.038339732395329e-07 
-1.464588236958284e-06 
-1.273358104306471e-06 
-6.7615752050549e-07 
-1.677434559855478e-06 
-8.271361622588378e-07 
-6.101705577368885e-07 
-1.399902784824172e-08 
-2.220405443257297e-07 
-8.067408578385012e-07 
3.326162964753669e-08 
4.2476952439762e-07 
-4.32000060867644e-08 
-6.704138529811894e-07 
5.163239781339287e-08 
1.805962288929133e-08 
1.179608529224667e-08 
-1.359726609087132e-07 
2.930193132095866e-07 
-1.047762273353658e-07 
2.795073558087282e-07 
3.163801143211048e-07 
-1.339148426705096e-07 
-2.421882040379395e-07 
-8.609776462376961e-08 
-3.922889804840347e-08 
-4.584018798298508e-07 
-2.254178550342285e-07 
-3.515285258729508e-07 
-4.850801697028528e-07 
-6.922483253512658e-07 
-3.521535310913595e-07 
-3.535241405028709e-07 
-1.400306666040686e-07 
-5.557700152726532e-07 
-2.887914009577856e-07 
-2.25541844776182e-07 
-5.700322115342581e-08 
-4.223575490736561e-07 
-4.614882264659468e-07 
-3.941854646767111e-07 
-1.586363212385953e-07 
-3.989651818232151e-07 
-2.509869965916137e-07 
-1.592629957899445e-07 
-3.589624568985086e-07 
-2.414409988841355e-07 
-1.310102049692301e-07 
-2.757830306541707e-07 
-3.630644738976759e-07 
-7.302213747239954e-08 
-6.807063604232567e-20 
2.527228534051832e-05 
