solver_type L2R_LR
nr_class 2
label 0 1
nr_feature 105
bias 1
w
0 
-0.0009354588134830904 
-0.0009361002960038961 
-0.0008110426430863696 
-0.0002948494238747397 
-0.0002704931653467078 
-0.0001184081467826398 
-5.200947555528653e-05 
-2.676832506548939e-05 
-2.023441227550762e-05 
-6.803249448542646e-05 
-5.885343087720695e-05 
-7.752860458639205e-05 
-1.11016180665779e-05 
-1.133364011853731e-06 
2.615733688357034e-06 
-1.332106572755243e-06 
-7.196446457670826e-06 
-5.858241170808627e-06 
1.080617242568911e-06 
1.253575041820173e-07 
-1.100548414074312e-05 
-3.282065283119183e-06 
-1.247271095231468e-07 
7.702740177375575e-06 
4.860106190290263e-06 
2.140872867752539e-05 
1.970197480701451e-05 
2.249008396725127e-05 
2.27624254522241e-05 
2.207543170314153e-05 
2.166462131621978e-05 
2.561734602542765e-05 
2.3189073853369e-05 
2.208642256772948e-05 
2.363002910580591e-05 
2.401382488676545e-05 
2.16977775540426e-05 
2.29260081129397e-05 
2.20329659142072e-05 
2.197700928374828e-05 
2.288542994572356e-05 
2.691739996704594e-05 
2.357586840771252e-05 
2.31355438648572e-05 
2.003822801889289e-05 
1.905071248568172e-05 
1.768907910467583e-05 
1.690040373527982e-05 
1.609644925801202e-05 
1.542817157760867e-05 
1.482030254258477e-05 
1.509413072211843e-05 
1.457721752210813e-05 
1.572731817189624e-05 
1.313977013372883e-05 
1.312157341570016e-05 
1.180947789492118e-05 
1.246025486402255e-05 
1.162667066731966e-05 
1.094700580376586e-05 
9.363313745213052e-06 
8.95718369795188e-06 
8.232232673879741e-06 
8.07519670169287e-06 
7.321673433690662e-06 
7.393163011681027e-06 
6.769980815766048e-06 
6.791291643000776e-06 
6.113539099381619e-06 
6.007374263559366e-06 
5.824829485218898e-06 
5.710774418714315e-06 
5.303703872052193e-06 
5.021582309003914e-06 
4.81468148758147e-06 
4.775935497900104e-06 
4.612861703389652e-06 
4.35773859127111e-06 
3.555799293588996e-06 
3.608306957857754e-06 
3.744428605145901e-06 
3.363215936117439e-06 
3.269854752898912e-06 
3.240956776786051e-06 
3.113505822445326e-06 
2.696948940457809e-06 
2.445609380490739e-06 
2.499627030311217e-06 
2.621306909291689e-06 
2.472104967932784e-06 
2.367999427468719e-06 
1.956253263043406e-06 
2.003399013548363e-06 
1.670493128279501e-06 
1.438450095347074e-06 
1.429777691851567e-06 
1.271022904190229e-06 
1.308352574059662e-06 
1.071617684196327e-06 
1.081792364138689e-06 
1.095180069499594e-06 
8.175792709294123e-07 
4.220208250485846e-07 
2.223058782562714e-19 
4.850050195690912e-05 
