solver_type L2R_LR
nr_class 2
label 0 1
nr_feature 105
bias 1
w
0 
0.0006053319737706613 
0.0009126004653461062 
0.0009217600024171344 
0.0005005534419542278 
0.0005046855312630269 
0.0004772649206180172 
0.0004642332077470666 
0.000471860685730238 
0.0004527474623489888 
0.0003443975102035133 
0.0002669555568089765 
0.0002481351343845599 
0.0002387776460426022 
0.0002173394798784541 
0.0001981805474534189 
0.0001698697894313877 
0.0001750106554962786 
0.0001621877404507166 
0.0001538714974219954 
0.0001397285214396419 
0.0001233795877144057 
0.0001070028961547211 
8.816086597592233e-05 
7.892409244977145e-05 
7.262048663169519e-05 
6.72375982876223e-05 
5.476218823041931e-05 
5.976958135260358e-05 
4.478403913135172e-05 
3.512719499770383e-05 
3.575828783359099e-05 
3.522219249137747e-05 
3.533849913971621e-05 
3.434090396408891e-05 
3.318573728684844e-05 
2.797306125221191e-05 
2.743649534911819e-05 
2.633514844823123e-05 
2.512806032665109e-05 
2.260908622704439e-05 
2.118056738316886e-05 
1.755664935786716e-05 
1.895519818366421e-05 
1.242066497858358e-05 
1.386443234721827e-05 
1.218080906539567e-05 
1.398505995877992e-05 
1.390145658792415e-05 
1.489486831396667e-05 
1.225847450168694e-05 
9.668062677937764e-06 
9.600495666757723e-06 
9.037971903649054e-06 
8.787567893152123e-06 
8.379470622086112e-06 
7.926657856508937e-06 
7.184521256056897e-06 
7.245641357591446e-06 
6.575714012867133e-06 
5.800445462494268e-06 
5.401145459093255e-06 
4.732390987637537e-06 
5.187913437207283e-06 
5.237152223180972e-06 
5.06991001376239e-06 
4.30376667917355e-06 
4.059727250361375e-06 
3.904867217775456e-06 
3.567972123110787e-06 
3.193655279843763e-06 
2.746318207144151e-06 
2.016892080924248e-06 
1.8375896118657e-06 
2.007566771927625e-06 
1.713419155668498e-06 
1.884308107352187e-06 
1.453377862286358e-06 
1.248969621332879e-06 
1.37019989684509e-06 
9.775323887231251e-07 
7.44507171646424e-07 
5.848452650366343e-07 
6.680414657597211e-07 
8.396762362125085e-07 
4.306194839687087e-07 
2.785222164353094e-07 
3.451257296318047e-07 
1.575973715883465e-07 
1.076898431482008e-07 
8.569216914945674e-08 
-9.445098503486691e-08 
-1.973020410694786e-07 
-1.662982544567506e-07 
-3.01433556909173e-07 
-7.883205309886146e-08 
1.860452030332722e-08 
-2.440942491661453e-07 
-2.58918019459905e-07 
-3.801634541578254e-07 
-6.428514528438537e-07 
-4.441999741617975e-07 
-1.784949508887426e-07 
2.763735209886384e-08 
1.210280145378752e-19 
-7.038103587801711e-05 
