solver_type L2R_LR
nr_class 2
label 0 1
nr_feature 105
bias 1
w
0 
-0.0003953900097788619 
-0.0008849078694602925 
-0.0001698961044144847 
0.0001922543776261572 
0.0001544883877968814 
0.0002241583574852239 
0.0002470256681153657 
0.0002864658513541918 
0.0002769045346426375 
0.0001931059504861904 
0.0002091866769147641 
0.0001468809651780432 
0.0001453697421006512 
0.0001226216205777607 
0.0001356400609914267 
0.0001175513035674167 
0.0001103741548014251 
0.0001063915798298997 
9.142171787181252e-05 
8.756430233095043e-05 
8.905965860597262e-05 
8.713488728704284e-05 
7.411265158503026e-05 
7.268895307769117e-05 
6.562025778647715e-05 
7.800963203034167e-05 
7.440620725882247e-05 
8.037276598558049e-05 
7.335743012518762e-05 
6.813059329774353e-05 
6.758740135458408e-05 
7.385757102157714e-05 
6.976223081449664e-05 
6.301267890989296e-05 
6.23298808052467e-05 
5.937766855130059e-05 
5.787147002786375e-05 
5.065647047820356e-05 
4.908319185341877e-05 
4.587719983238918e-05 
4.459621415754905e-05 
4.110425464343143e-05 
4.122139428648929e-05 
3.595671127839035e-05 
3.343055469686111e-05 
3.353841653327158e-05 
2.977157628727789e-05 
2.918795548855669e-05 
2.552837641109064e-05 
2.583584276235703e-05 
2.350840031577281e-05 
2.336947932484727e-05 
2.150776713493865e-05 
1.954775983518145e-05 
1.90651674368867e-05 
1.818833898701507e-05 
1.695510511813061e-05 
1.632798725155709e-05 
1.62236718857047e-05 
1.546811983099536e-05 
1.414781515401703e-05 
1.309572954175097e-05 
1.246834832983878e-05 
1.226277736010539e-05 
1.162921726326915e-05 
1.051993133614975e-05 
1.011720988273563e-05 
9.859272736117793e-06 
8.992000372504912e-06 
8.525151803257675e-06 
8.238345167700523e-06 
7.469750574265118e-06 
6.917274100535886e-06 
6.639736978416804e-06 
5.671812606620137e-06 
5.602757130514503e-06 
5.590900638330494e-06 
5.39727505865682e-06 
4.651273915522051e-06 
4.467754695055665e-06 
4.384011029782579e-06 
3.989594082841898e-06 
3.963400592110492e-06 
3.884529529786876e-06 
3.286185532380893e-06 
3.432110323910356e-06 
2.938642749707908e-06 
2.986931216172054e-06 
2.800425483370286e-06 
2.536953709125823e-06 
2.551059633650201e-06 
2.145424061763101e-06 
1.919324869864828e-06 
1.775396853486322e-06 
1.56384876957553e-06 
1.426838542141031e-06 
1.066895827767724e-06 
1.077965653321276e-06 
1.001713550500268e-06 
9.911963989559677e-07 
5.143565801227431e-07 
4.44640928461852e-07 
5.556397247324774e-07 
2.647781496817567e-19 
9.207313292618773e-06 
