solver_type L2R_LR
nr_class 2
label 0 1
nr_feature 105
bias 1
w
0 
-0.0005690977334629385 
-0.001061376274955732 
-0.001251987164634844 
2.686728395476703e-05 
-0.0001366092676727159 
-2.966478401224126e-06 
3.848059708287503e-05 
3.093492470661044e-05 
3.066337784565533e-06 
-5.991578600582834e-05 
-1.986345579439402e-05 
-5.696513752598726e-05 
1.335893489947017e-06 
2.735280591497589e-06 
3.940758822116571e-06 
1.572158233549097e-05 
1.009029287864777e-05 
1.508309297203426e-05 
3.050907284920338e-05 
1.67216602286427e-05 
1.250852961667806e-05 
9.100972003794165e-06 
1.253143947119153e-05 
2.577603746545345e-05 
2.366893353047128e-05 
3.461924315630029e-05 
4.306800745719791e-05 
4.522863665159911e-05 
4.551513983719e-05 
4.611101155872177e-05 
4.768698977066691e-05 
4.596631839212351e-05 
4.265177377488073e-05 
4.439407868929705e-05 
4.814758311349491e-05 
4.826024507432071e-05 
4.624627195558898e-05 
4.875538863402642e-05 
4.587579889844557e-05 
4.723160304042704e-05 
4.432579562454244e-05 
4.340867129668733e-05 
4.005670902615076e-05 
3.760768797824704e-05 
3.212792991582438e-05 
3.067392388378933e-05 
3.041779510255041e-05 
2.911023333854536e-05 
2.751204426162547e-05 
2.434732992769304e-05 
2.25622073034212e-05 
2.125522441809531e-05 
2.10187612737076e-05 
2.070137452624509e-05 
1.94680242317084e-05 
1.888537384652774e-05 
1.715575517632141e-05 
1.726506945279176e-05 
1.625668673440216e-05 
1.52483329725493e-05 
1.37838597255807e-05 
1.27714113677613e-05 
1.198037344934922e-05 
1.160481939951893e-05 
1.114329259415195e-05 
1.06470335770637e-05 
1.004019863552909e-05 
9.818803801175181e-06 
9.145882532651962e-06 
8.699222496215592e-06 
8.249336513762709e-06 
7.910705363583947e-06 
7.379803212842511e-06 
7.07780585496378e-06 
6.512057974389467e-06 
6.421397220135593e-06 
6.099483304695343e-06 
5.640250123791747e-06 
4.741982491852458e-06 
4.543297993588138e-06 
4.484154284844067e-06 
4.000484358049248e-06 
4.009372880041046e-06 
3.887551720983607e-06 
3.89217580492575e-06 
3.456593705175443e-06 
3.132054839246885e-06 
2.854473732523022e-06 
2.903426871719417e-06 
2.684207414271965e-06 
2.481562687851263e-06 
2.262279346097198e-06 
2.204150454171116e-06 
1.921588116786847e-06 
1.674878599219045e-06 
1.680153834743487e-06 
1.53271044768465e-06 
1.390514946660604e-06 
1.309668403149079e-06 
1.08048226626707e-06 
8.140151074320683e-07 
8.538193377907415e-07 
4.368631146849329e-07 
3.516978435599781e-19 
4.327089248886644e-05 
