solver_type L2R_LR
nr_class 2
label 0 1
nr_feature 105
bias 1
w
0 
0.0006691978379526518 
0.000322059805369011 
-0.0001652120518636919 
-3.089852488750458e-05 
-0.0001421413706047355 
-7.890982695116577e-05 
-0.0001200843473811234 
-0.0001692443785519967 
-0.0001110110739447374 
-3.894302614327496e-05 
-5.883690562647605e-05 
-5.552190668437097e-05 
-9.892346587025257e-05 
-7.934116257813894e-05 
-7.249297787578975e-05 
-7.107072186360536e-05 
-7.1964672331022e-05 
-7.575120937939982e-05 
-6.831789393612073e-05 
-7.004357739494426e-05 
-6.071876387452365e-05 
-7.24214348694863e-05 
-7.198785543711237e-05 
-6.381864895365366e-05 
-5.724458010758092e-05 
-4.75264528377219e-05 
-5.135844729973796e-05 
-4.357678600104924e-05 
-4.449846924891758e-05 
-4.252806414007382e-05 
-3.439014862095602e-05 
-3.376778740697469e-05 
-3.2287566854192e-05 
-3.194142367577483e-05 
-3.037197515972275e-05 
-3.235522589998529e-05 
-2.824010956735013e-05 
-2.749321917329307e-05 
-2.801490160254793e-05 
-2.537149928349776e-05 
-2.451449767892727e-05 
-2.106074026968982e-05 
-1.994890792866616e-05 
-1.654693018002249e-05 
-1.822490250281353e-05 
-1.862759604758823e-05 
-1.803768644072924e-05 
-1.644826236244219e-05 
-1.31493686961728e-05 
-1.303827434351456e-05 
-1.20629849701101e-05 
-1.171377807481507e-05 
-1.290081738268061e-05 
-1.05216205232153e-05 
-1.101951377296248e-05 
-9.647466679571238e-06 
-9.626606812783868e-06 
-9.939758789946128e-06 
-9.783866221149257e-06 
-8.974088392347325e-06 
-9.062277450258151e-06 
-8.031870704004171e-06 
-7.428324842681106e-06 
-7.388384692456298e-06 
-6.998960139123999e-06 
-6.778570134296782e-06 
-6.168481278224274e-06 
-5.87967578571882e-06 
-5.741715605437334e-06 
-4.970648451149571e-06 
-5.011837905073809e-06 
-4.382226158501047e-06 
-4.366489605254309e-06 
-3.658496867919144e-06 
-3.927692786926572e-06 
-3.416818786506633e-06 
-3.442969393965021e-06 
-3.443527232997679e-06 
-3.863048129866092e-06 
-3.490038528765762e-06 
-3.252498853361422e-06 
-3.255342934840149e-06 
-2.610594061383342e-06 
-2.617585731264912e-06 
-2.255347052810526e-06 
-2.391900331933383e-06 
-2.152230483265289e-06 
-1.968938335504511e-06 
-1.900767094538434e-06 
-1.729875039263298e-06 
-1.579549107961892e-06 
-1.271043649183905e-06 
-1.357994162412581e-06 
-1.202436256847607e-06 
-1.323801405422118e-06 
-1.218640402443174e-06 
-1.176903548367832e-06 
-1.179201944113563e-06 
-9.677412861358022e-07 
-8.87021851988868e-07 
-6.582315103119658e-07 
-2.355051268481068e-07 
-3.099805457094583e-07 
-7.086147210973958e-20 
-1.007754392691851e-05 
