solver_type L2R_LR
nr_class 2
label 0 1
nr_feature 105
bias 1
w
0 
0.0002470414192090611 
0.0005591925748861215 
-0.0002487321337464689 
-7.433018774593805e-05 
-0.0001959625548397972 
-0.0001358435003432068 
-0.000205342407802243 
-0.0001376141276291223 
-9.616287802599953e-05 
-6.747877604976488e-05 
-6.986229162793807e-05 
-8.516662483413736e-05 
-9.410233820687646e-05 
-8.418251009241666e-05 
-8.761165576663727e-05 
-9.008046840837428e-05 
-8.541691236660766e-05 
-9.599258645080622e-05 
-8.383450653234237e-05 
-8.672214264052953e-05 
-8.331165259942257e-05 
-7.431933252779952e-05 
-7.906659399792069e-05 
-7.623565444289489e-05 
-6.214477879996497e-05 
-5.617048122302452e-05 
-5.959455116490621e-05 
-5.655467344252368e-05 
-5.622380352455526e-05 
-5.044296201487352e-05 
-4.542332727417691e-05 
-4.512657766269181e-05 
-4.276135285496169e-05 
-4.189221106190004e-05 
-4.282886647891538e-05 
-4.036071937503172e-05 
-4.108086396822912e-05 
-4.020075840789036e-05 
-3.520018145033717e-05 
-3.512459037570551e-05 
-3.391916949066508e-05 
-2.888980459082622e-05 
-2.664743882165577e-05 
-2.381105208225765e-05 
-2.452617033120938e-05 
-2.525257227562043e-05 
-2.460401908173397e-05 
-2.173563057280146e-05 
-1.957169801165414e-05 
-1.895532936507301e-05 
-1.831476982072808e-05 
-1.72803075911544e-05 
-1.786132004332002e-05 
-1.492555473102434e-05 
-1.510561839785616e-05 
-1.30052490608902e-05 
-1.308675103319779e-05 
-1.261269995496901e-05 
-1.225299918633643e-05 
-1.088833620139923e-05 
-1.104588604396349e-05 
-1.067445283290982e-05 
-9.424396730932958e-06 
-9.068385524091795e-06 
-8.900686290769505e-06 
-8.553277413056827e-06 
-7.587755381052123e-06 
-6.936641667679048e-06 
-6.821244355230222e-06 
-6.351153081285133e-06 
-6.263229119518586e-06 
-5.698264768559442e-06 
-5.197283819436858e-06 
-4.779689733805736e-06 
-4.511742872527024e-06 
-4.535307972565434e-06 
-4.251881691196758e-06 
-4.228196996459064e-06 
-4.218343279034433e-06 
-3.942402911387264e-06 
-3.702936455573918e-06 
-3.613398130306774e-06 
-3.188065258120316e-06 
-2.974031300171377e-06 
-2.679381393532845e-06 
-2.60305354667922e-06 
-2.218248135934299e-06 
-1.892766880084868e-06 
-2.170057359292476e-06 
-1.932021810306234e-06 
-1.586688376701437e-06 
-1.510340838265727e-06 
-1.378399102899576e-06 
-1.19847464704541e-06 
-1.086226706668119e-06 
-1.151208062302836e-06 
-1.041954572384202e-06 
-7.913852457095233e-07 
-6.414861581967077e-07 
-5.496814262153395e-07 
-5.558354646690823e-07 
-6.408029866985925e-07 
-3.467057142029084e-07 
-1.574564887821428e-19 
-9.793747248507593e-08 
