solver_type L2R_LR
nr_class 2
label 0 1
nr_feature 105
bias 1
w
0 
-0.002116260268064999 
-0.001384014697004062 
-0.0005505799326789242 
-0.0001858218862429956 
5.518823602509692e-06 
3.631686977528635e-05 
0.0001458876426469907 
9.632523536996862e-05 
0.0001100043010436147 
0.0001115246662224044 
9.495242139207754e-05 
0.000119923897562144 
0.0001473588354514552 
0.0001413973886350376 
0.0001270518812426447 
0.000114027634398368 
0.0001116961281102163 
8.693585189110755e-05 
8.99073995147016e-05 
8.824908814309305e-05 
7.78884418287136e-05 
6.76300802326658e-05 
7.63702063829703e-05 
6.964539129749813e-05 
7.389726611809279e-05 
7.928619842727568e-05 
7.318913478494032e-05 
7.067434522499386e-05 
6.466274210370677e-05 
6.234422286612589e-05 
5.569834460530629e-05 
5.67902785453502e-05 
5.293712463083506e-05 
4.694542820270964e-05 
4.904562238438075e-05 
5.124404621073904e-05 
4.641438996316292e-05 
4.165373512548809e-05 
4.401136863751554e-05 
4.27796774419858e-05 
4.046136560613488e-05 
3.895115898640157e-05 
3.780747447668481e-05 
3.619994550823149e-05 
3.459900857442832e-05 
3.160784525752142e-05 
2.913586637906446e-05 
2.870678206968692e-05 
2.631034414742093e-05 
2.710656893411507e-05 
2.421346816051451e-05 
2.309566369728964e-05 
2.316610383781701e-05 
2.357380600017345e-05 
2.165363046036563e-05 
2.091131409640784e-05 
1.972904338515272e-05 
1.986982518418086e-05 
1.850697437642095e-05 
1.710802289439172e-05 
1.539409859477839e-05 
1.554221458016711e-05 
1.452488538905148e-05 
1.400599448143222e-05 
1.35650499211949e-05 
1.247007107535479e-05 
1.189052010284591e-05 
1.191353591922957e-05 
1.119997499534191e-05 
1.086727851188624e-05 
1.041314955582678e-05 
1.036818231023987e-05 
9.684759955666039e-06 
8.935771602399201e-06 
8.392614725632135e-06 
8.229923237359747e-06 
7.708406706270075e-06 
7.518226941328881e-06 
7.042883680995221e-06 
6.786876019184412e-06 
6.404700391839316e-06 
6.084211125094472e-06 
5.771209322488469e-06 
5.522808661648442e-06 
5.574110131075303e-06 
5.061435964896726e-06 
4.626883791575481e-06 
4.663176481204598e-06 
4.4685951420268e-06 
4.166217908489784e-06 
3.970941373529161e-06 
3.323616178400632e-06 
3.317306982508133e-06 
2.988547225689617e-06 
2.826510520741936e-06 
2.838695616898238e-06 
2.627105210082739e-06 
2.53669078722344e-06 
2.163231154824162e-06 
2.16493947829442e-06 
2.155298225595539e-06 
1.781010883466053e-06 
1.31939326521107e-06 
3.891614195691757e-19 
5.886063785730477e-05 
