solver_type L2R_LR
nr_class 2
label 0 1
nr_feature 105
bias 1
w
0 
-0.0003004007065034037 
-0.0005600052568417445 
-0.0004675419732890273 
-0.0002591936789749915 
-0.0002947510724037499 
-0.0002037393572394557 
-0.0001455397496209759 
-0.0001813959617416501 
-0.000181424966586162 
-0.0001715934828718073 
-0.0002100859957192114 
-0.0001708142292907599 
-0.0001667231308700093 
-0.0001294418401924254 
-0.0001334958830955168 
-0.0001136202543677331 
-9.655895997333907e-05 
-9.485982971082424e-05 
-0.0001032773155334871 
-7.607696935914663e-05 
-8.020940231266051e-05 
-8.173501339383353e-05 
-7.208133708507088e-05 
-7.118286843157612e-05 
-7.120090874296912e-05 
-5.882133172554748e-05 
-5.903650473251785e-05 
-5.04655179157026e-05 
-4.783529291459554e-05 
-4.71841457233255e-05 
-4.704199566989236e-05 
-4.184029386985687e-05 
-3.924867891832427e-05 
-3.500599927142562e-05 
-3.373348286696641e-05 
-3.239163686758689e-05 
-3.172708257628837e-05 
-3.152152796713736e-05 
-2.512363926036447e-05 
-2.207454043831909e-05 
-2.221075202519639e-05 
-1.85234028626962e-05 
-1.221831851645368e-05 
-1.020766930157548e-05 
-9.735232047369984e-06 
-8.867898993388702e-06 
-8.372773442259216e-06 
-8.438032964546658e-06 
-5.266116888922411e-06 
-5.940831080797885e-06 
-4.474143049454611e-06 
-5.702630172052378e-06 
-5.053270094036609e-06 
-3.881092207172008e-06 
-4.220611382370471e-06 
-3.239872147623824e-06 
-3.16182229373406e-06 
-3.112809449051525e-06 
-1.756902050188906e-06 
-2.57863585813934e-06 
-2.970005395462368e-06 
-2.549990401553445e-06 
-3.040333667551545e-06 
-2.273715511923777e-06 
-2.243439154320587e-06 
-2.126512568174556e-06 
-1.735155053456919e-06 
-1.609123284258572e-06 
-1.717635138997588e-06 
-1.622734340125273e-06 
-1.419274017060883e-06 
-1.603690410946407e-06 
-1.071073329378954e-06 
-1.308756580871086e-06 
-1.00171910833725e-06 
-8.09343425417175e-07 
-1.245063051297157e-06 
-1.121503896078622e-06 
-1.274981925719756e-06 
-1.137333108805152e-06 
-1.125233963498098e-06 
-8.807961454780401e-07 
-9.462222344095965e-07 
-9.754554508352198e-07 
-6.732808546490585e-07 
-7.135378931495267e-07 
-8.661607707414726e-07 
-6.926102978291164e-07 
-6.611819252166304e-07 
-5.613809105617619e-07 
-5.257391143689359e-07 
-7.34340311078773e-07 
-5.549090941232074e-07 
-2.21873518193862e-07 
-3.732033072433598e-07 
-2.290208269447713e-07 
-2.254011163797952e-07 
-2.549908641436638e-07 
-3.730131715636013e-08 
-4.78458430841899e-08 
-9.377122617170837e-08 
2.660104556256807e-08 
-8.272241264001378e-09 
-1.054732794960317e-19 
3.162722754108856e-05 
