solver_type L2R_LR
nr_class 2
label 0 1
nr_feature 105
bias 1
w
0 
-0.000726490811011897 
-0.0008717638860455499 
-0.001050403360411476 
-0.0002473775697257036 
-0.0003225942176971882 
-0.0002687828824579236 
-0.0002418407370704482 
-0.0002414332528085917 
-0.0002197564082537977 
-0.0001768745114721372 
-0.0001553182352776539 
-0.0001360411330384112 
-9.738671511271794e-05 
-0.0001096962471887875 
-0.0001121501037300265 
-9.994540940884516e-05 
-7.369637030666368e-05 
-7.330461345054225e-05 
-7.596384245475695e-05 
-5.639554357636239e-05 
-6.58769147058108e-05 
-6.438604048679262e-05 
-4.360917506807447e-05 
-4.94625294115827e-05 
-5.228979214362619e-05 
-4.250056437057968e-05 
-3.909078342200333e-05 
-3.058380597315245e-05 
-2.457546908880805e-05 
-2.730819094833446e-05 
-2.420258109950315e-05 
-2.180042353200905e-05 
-2.187452766778085e-05 
-1.617578087050415e-05 
-1.650534049516849e-05 
-1.457152823544414e-05 
-1.490116742306167e-05 
-1.410956355620688e-05 
-1.169628357641165e-05 
-1.194713758353559e-05 
-1.133330324122269e-05 
-1.064996355306206e-05 
-7.055790801262729e-06 
-5.911916331505234e-06 
-5.741201030546903e-06 
-4.867939280926192e-06 
-5.683136439728672e-06 
-4.825717748996582e-06 
-5.541806280327025e-06 
-4.977361439901566e-06 
-4.054534026953604e-06 
-4.687427383426049e-06 
-4.736313112147796e-06 
-3.070857656541581e-06 
-3.734648721452596e-06 
-2.659920544392829e-06 
-2.200157573585757e-06 
-2.789824945150705e-06 
-1.698020787096674e-06 
-2.159302463722336e-06 
-1.69877590235264e-06 
-1.762215524730993e-06 
-1.545126269649809e-06 
-1.225286744652593e-06 
-1.397070628742647e-06 
-1.647390601937845e-06 
-1.152244377117276e-06 
-5.866310221021761e-07 
-9.34642300615879e-07 
-4.278550205131966e-07 
-4.896044232792346e-07 
-3.224355569972331e-07 
-2.676336903308658e-07 
-3.227652995769065e-07 
-1.577153822932564e-07 
-1.610384682963447e-08 
-1.856712719361583e-07 
-4.420333585160366e-07 
-6.547024619074831e-08 
-1.307025380467119e-07 
-3.790630422730913e-08 
4.535111109282839e-08 
6.622504146244211e-08 
2.385025036362441e-07 
1.068832532790827e-07 
8.244471902067852e-08 
7.278986259433775e-08 
2.646361854497148e-07 
3.5678259510661e-07 
2.960950184205046e-07 
3.098874351644845e-07 
2.248466976557638e-07 
1.435831641095693e-07 
3.201621068869079e-07 
3.72974936766269e-07 
1.445108517074605e-07 
1.967219701501275e-07 
1.851111016558137e-07 
1.991711141926744e-07 
2.87660537930699e-07 
7.404750289843002e-08 
-1.669731717995129e-09 
-5.746858894872188e-08 
-4.009154038042645e-20 
4.50410121342178e-05 
