solver_type L2R_LR
nr_class 2
label 0 1
nr_feature 105
bias 1
w
0 
-0.0007044041485450128 
-0.0008406656571957376 
-0.001189840311779881 
-6.520422808029113e-05 
-0.0001025101403306902 
2.079628808093076e-06 
2.753838212038308e-05 
-3.107851662942032e-05 
-4.470431659212401e-05 
-2.493504443867592e-05 
-2.424224409233435e-05 
-5.615970715683128e-05 
-2.106594065519371e-06 
-1.712583436782541e-05 
-6.353549703090728e-06 
-9.458708993082214e-07 
-1.245674598850004e-05 
8.426879554840904e-06 
-1.196558242153141e-06 
-5.358245924018049e-06 
5.009575168677452e-07 
-1.075244179363291e-05 
2.110024446226249e-06 
-2.402201692774271e-06 
1.177954282741817e-05 
1.082347275222285e-05 
1.716428800150693e-05 
1.693677064418205e-05 
1.893887080129201e-05 
2.537319592461101e-05 
2.458235461285413e-05 
2.374630861584118e-05 
2.81595847185314e-05 
2.975759812249114e-05 
2.693448316211232e-05 
2.65357115622637e-05 
3.0066353648845e-05 
2.722562535891127e-05 
2.587175622117103e-05 
2.91907850539403e-05 
2.78134201083138e-05 
2.517075849985421e-05 
2.473600222917945e-05 
2.063274363010149e-05 
2.080731569056869e-05 
1.762540112354982e-05 
1.917772113590342e-05 
1.792936467241466e-05 
1.631151469488928e-05 
1.716630537357035e-05 
1.554981011802945e-05 
1.520627864590291e-05 
1.535731712903781e-05 
1.427614971295822e-05 
1.404234151266895e-05 
1.335705158755947e-05 
1.301395057963466e-05 
1.279205934108295e-05 
1.141918135568911e-05 
1.084786573139073e-05 
9.590608993081541e-06 
9.206588784452017e-06 
8.504390518733128e-06 
8.728182417646814e-06 
8.634261058001502e-06 
7.416225239285359e-06 
7.056543252564534e-06 
7.332997026083582e-06 
6.575070995761649e-06 
6.22131358782579e-06 
5.528345489255267e-06 
5.257265158462164e-06 
5.098155129427836e-06 
4.725206708862884e-06 
4.416681461882252e-06 
4.264689064176657e-06 
4.094281366830356e-06 
4.016626638809891e-06 
3.81199379509202e-06 
3.252515808592002e-06 
3.199500733227571e-06 
2.659018230754939e-06 
3.028725603722538e-06 
2.714666635155928e-06 
2.537737686170426e-06 
2.508776852806224e-06 
2.306474323135684e-06 
2.057340955914538e-06 
2.165948831946009e-06 
2.001941670418904e-06 
1.68574082865333e-06 
1.851534055356056e-06 
1.641134903965757e-06 
1.537715077470726e-06 
1.419500362025042e-06 
1.187047502136562e-06 
1.144408573731834e-06 
1.006187860124605e-06 
1.064652592488887e-06 
8.332333803142091e-07 
7.077941417619859e-07 
5.387850913719905e-07 
5.506863827134054e-07 
3.047153948084723e-19 
4.759083535766202e-05 
