solver_type L2R_LR
nr_class 2
label 0 1
nr_feature 105
bias 1
w
0 
0.0005114162222745075 
0.0003378631878112047 
0.0008044283741847682 
0.0002459727902526426 
0.0002944291414636668 
0.0001446827244569667 
0.0001906729836587865 
0.0001699967433696128 
0.0001337608863358536 
0.000140898676453357 
0.0001312504169364173 
0.0001339513620779539 
0.0001163838014445495 
0.0001008238100900235 
8.783119516134682e-05 
8.25872261031129e-05 
7.36719198975758e-05 
8.780994651116014e-05 
9.602200608665349e-05 
9.44009078225082e-05 
8.024288761760293e-05 
6.720170367807156e-05 
5.251821524472135e-05 
6.35423916813719e-05 
6.714069707864733e-05 
6.76326078302284e-05 
5.940543650181583e-05 
5.160599089901825e-05 
4.004606636404522e-05 
3.645476032781486e-05 
3.437365645378627e-05 
3.314007346377981e-05 
2.808137542221007e-05 
2.799500294510683e-05 
3.166571540676194e-05 
2.928828588330415e-05 
2.223263297165691e-05 
1.912438380037552e-05 
1.913050913631431e-05 
1.743516977298108e-05 
1.476253285537349e-05 
1.44294632790147e-05 
1.1468009147082e-05 
6.910109735182179e-06 
6.934849035462342e-06 
6.384486201582134e-06 
6.388265354578398e-06 
8.187146371123556e-06 
4.847734447498065e-06 
3.648672139142465e-06 
3.582265593944761e-06 
3.112457215802284e-06 
4.040214085400586e-06 
3.501194255141416e-06 
2.618437512424794e-06 
4.267094058394807e-06 
3.418720605557395e-06 
3.218394820697559e-06 
3.117346438215424e-06 
2.785101339904838e-06 
2.721825169590587e-06 
2.539422881032267e-06 
1.765811433707898e-06 
1.492305664426301e-06 
5.639881208245217e-07 
6.52451905536024e-07 
6.357659657045087e-07 
9.633413115675938e-07 
7.773729210580271e-07 
5.166144703130564e-07 
4.551732920713734e-07 
4.330797182205092e-07 
3.006633400032529e-07 
1.426153922702207e-07 
-1.735843368078559e-07 
-2.573886669287475e-07 
-5.725012215000538e-08 
-2.574501438069839e-07 
-3.125171319008016e-08 
-1.325332289956075e-07 
-3.583888612352645e-07 
-2.041159794872952e-07 
-2.097708975565233e-07 
-9.448860845198135e-08 
-2.457566080850704e-07 
-3.825607732369915e-07 
-4.499468748853007e-07 
-5.858140192689998e-07 
-4.49994278913171e-07 
-4.660229383577074e-07 
-4.043584302560126e-07 
-3.85278006258942e-07 
-4.357599581055615e-07 
-6.129938213592048e-07 
-7.454773863185567e-07 
-7.360191966649972e-07 
-7.754444017774656e-07 
-6.101596583077699e-07 
-9.54165874353804e-07 
-9.382341395907479e-07 
-7.734601261851245e-07 
-6.681960573281992e-07 
-6.208171952927281e-07 
1.302192982272894e-19 
-3.790183600808724e-05 
