solver_type L2R_LR
nr_class 2
label 0 1
nr_feature 105
bias 1
w
0 
-0.0003277034643130018 
-0.0005742954251871837 
-0.0001210515121871228 
2.778808578270482e-05 
-9.498244375370449e-06 
1.606063065829928e-06 
2.336800717018881e-05 
5.988022602154552e-05 
6.280010672687337e-05 
3.405001709157285e-05 
6.446080600998861e-05 
5.579182818473169e-05 
4.471447150794019e-05 
3.194782047548495e-05 
2.660503081400151e-05 
2.260585132688258e-05 
1.204480316197885e-05 
2.308222161222866e-05 
2.519620722601858e-05 
2.793446528816959e-05 
3.956553815179119e-05 
2.234381801553644e-05 
3.243419379792492e-05 
3.485725455092258e-05 
2.935259191142447e-05 
2.343077475360567e-05 
2.056915599563479e-05 
1.927214823909852e-05 
2.23753725150213e-05 
2.129724054319057e-05 
2.122035074705652e-05 
1.710113750162672e-05 
1.707328164982835e-05 
1.636640632824725e-05 
1.156772481735204e-05 
1.361320596921163e-05 
1.224176348050949e-05 
1.268462573055752e-05 
1.100831198816467e-05 
1.15411666249715e-05 
8.899126420515135e-06 
7.629031458008824e-06 
8.748162915672098e-06 
6.814497296967642e-06 
7.92090234215058e-06 
5.886201116316021e-06 
4.354037104641817e-06 
4.248481075086612e-06 
2.710326843015058e-06 
2.162099493667569e-06 
1.921347651819095e-06 
2.047093689098056e-06 
2.8433093582697e-06 
3.171156395175691e-06 
2.127805173320874e-06 
2.28982776473171e-06 
3.32209634035397e-06 
2.441717029370644e-06 
2.769190178369398e-06 
2.252428724822317e-06 
2.345270822790257e-06 
2.354593512046717e-06 
2.114202600191405e-06 
1.987650664295141e-06 
2.122981460074427e-06 
1.595601415056169e-06 
1.481784606408562e-06 
2.174727106559591e-06 
2.062103114099605e-06 
2.138685093982223e-06 
2.213017994164047e-06 
1.957651582661273e-06 
1.838613140705023e-06 
1.911802143577133e-06 
1.556207389256985e-06 
1.519977756843981e-06 
1.312925457687903e-06 
1.065989296017638e-06 
1.22206742843885e-06 
1.376375638379536e-06 
1.372172105208442e-06 
1.25488670892501e-06 
1.31957101309102e-06 
1.490898517182107e-06 
1.422974950769889e-06 
1.390054863759408e-06 
1.127750155429674e-06 
1.227987729786913e-06 
1.217885717339743e-06 
1.181363111229607e-06 
1.056802034978456e-06 
8.738590985265619e-07 
9.0104767448547e-07 
9.618685513783923e-07 
9.515090014422577e-07 
9.330017278804357e-07 
8.882767562696042e-07 
8.232713729276495e-07 
6.766111400885306e-07 
6.683440133590861e-07 
6.232339993868675e-07 
3.578203722500731e-07 
2.538202971650815e-07 
1.112710085685925e-20 
9.220388346984687e-06 
