solver_type L2R_LR
nr_class 2
label 0 1
nr_feature 105
bias 1
w
0 
-0.0006939491604360428 
-0.0002268588321085666 
-0.0008603481079637415 
-0.0003360289261406638 
-0.0003133310110786185 
-0.0002877778856928122 
-0.0002171578723215951 
-0.0002525522941722079 
-0.0002411554168192521 
-0.0002067844434154127 
-0.0001833445258110873 
-0.0001823461299945535 
-0.000144726309483233 
-0.0001449555063626438 
-0.0001372148067483252 
-0.0001195781486238803 
-0.0001176286937902624 
-9.821348621654553e-05 
-9.513143854949169e-05 
-0.000111221278565592 
-9.944474830040575e-05 
-9.318622414534325e-05 
-8.702686189695268e-05 
-8.106037462953078e-05 
-7.031411960689248e-05 
-6.77843758655761e-05 
-6.7611673987484e-05 
-7.039773470768171e-05 
-6.048925863929564e-05 
-5.284377346661988e-05 
-5.267130639134759e-05 
-5.375507883723422e-05 
-4.645807726475501e-05 
-4.448842310772162e-05 
-4.583340843696722e-05 
-4.133269115882191e-05 
-3.663998983964523e-05 
-3.417174038765924e-05 
-3.405311612165135e-05 
-2.778471906320832e-05 
-2.668398329773803e-05 
-2.567030565686624e-05 
-2.499315328185966e-05 
-2.382573251324144e-05 
-2.111984908875146e-05 
-2.076720922811483e-05 
-1.811563704138507e-05 
-1.648504827608669e-05 
-1.685700712602898e-05 
-1.433640375539592e-05 
-1.392839681495308e-05 
-1.473100915015883e-05 
-1.260895223868948e-05 
-1.101568224244641e-05 
-1.103168400058745e-05 
-1.042244512851478e-05 
-9.604620513389086e-06 
-8.198858478657313e-06 
-7.915984110075811e-06 
-7.01195399644317e-06 
-7.122250585011018e-06 
-5.71316315390899e-06 
-5.889026931760416e-06 
-5.370524998755579e-06 
-5.011251554342015e-06 
-4.830133879080401e-06 
-4.998861679150083e-06 
-4.159695152557881e-06 
-4.114656432939981e-06 
-4.081344895191195e-06 
-3.904556803171341e-06 
-3.076480532526357e-06 
-2.636812539789198e-06 
-2.631402625203051e-06 
-2.431248225030088e-06 
-2.421184519241181e-06 
-1.905066253418236e-06 
-1.838311918727927e-06 
-1.576728095484673e-06 
-1.342978179057919e-06 
-1.494837219467371e-06 
-1.355943427287309e-06 
-1.207313045058616e-06 
-1.119028947950657e-06 
-9.745419737405978e-07 
-5.053530300715334e-07 
-4.444133522247294e-07 
-5.63344835554949e-07 
-4.252898559082652e-07 
-4.447615204965162e-07 
-4.115278962509727e-07 
-2.614141383760285e-07 
-2.256179534541551e-07 
-2.743841545267117e-07 
-2.28600179363575e-08 
1.250339413407442e-07 
1.065860987492813e-07 
1.849061755010917e-08 
2.153634809445607e-07 
3.805605269469662e-07 
1.217503619761542e-07 
8.051327354557867e-08 
1.039100547173783e-07 
-1.187943446299816e-19 
5.211971286684342e-05 
