solver_type L2R_LR
nr_class 2
label 0 1
nr_feature 105
bias 1
w
0 
0.0006831083841441018 
0.0004697124869056101 
0.0009511583975104566 
0.0003953169000033021 
0.0004050677029857086 
0.0003377298520650957 
0.0002824868890766849 
0.0003200092720426038 
0.0002878939896630074 
0.000194914986532101 
0.0001837391021930744 
0.0001482577277274994 
0.0001525224550043879 
0.0001212288997368104 
0.0001230222802396871 
0.000136208443056747 
0.0001474548100585985 
0.0001372713746835091 
0.0001268258109620719 
0.0001265477282639724 
0.0001344498672194373 
0.0001112512137146075 
9.97808407877317e-05 
0.0001015100199586661 
0.0001006419858175742 
0.000106649125788228 
0.0001044901096811547 
9.477706125783179e-05 
8.265949716251149e-05 
7.788548237206024e-05 
7.388801692368601e-05 
7.299191784179875e-05 
6.910688811177588e-05 
7.084764998258462e-05 
6.887501067086112e-05 
6.714867077203639e-05 
6.007660850777125e-05 
6.037805511035085e-05 
5.766219481667479e-05 
5.350698955776381e-05 
5.124655700971541e-05 
4.670062710703024e-05 
4.399938598477809e-05 
4.029663041453978e-05 
3.702589037513388e-05 
3.436460424261452e-05 
3.357005481997039e-05 
3.131781053809152e-05 
3.019214472241967e-05 
2.669748590310282e-05 
2.484339696535227e-05 
2.382227575398691e-05 
2.264075206209211e-05 
2.04126333688604e-05 
2.028907607684883e-05 
1.935470619768023e-05 
1.767965943874576e-05 
1.744730856423578e-05 
1.62127549552485e-05 
1.429151135025085e-05 
1.383805915960191e-05 
1.288322395523713e-05 
1.205374542232919e-05 
1.127235092959638e-05 
1.099409963385349e-05 
1.044910882104887e-05 
9.322063816947772e-06 
8.648268830001885e-06 
8.574802932399906e-06 
7.977590033348521e-06 
7.677680057655835e-06 
6.92730252068574e-06 
6.60981618552241e-06 
6.305000859547338e-06 
5.543372124299005e-06 
5.133946103915251e-06 
4.684185669625191e-06 
4.860155885230971e-06 
4.150155363758799e-06 
3.916468113985483e-06 
3.643751630822041e-06 
3.361598373475232e-06 
3.149265438143192e-06 
2.747328743789188e-06 
2.922430049855899e-06 
2.362170518425923e-06 
2.137596151136383e-06 
2.062256110000999e-06 
2.226069869266541e-06 
2.06535061036809e-06 
1.857920110926099e-06 
1.604327603871335e-06 
1.617803595456945e-06 
1.65634184815809e-06 
1.402455236351698e-06 
1.283456029190935e-06 
1.398003679473064e-06 
9.237248670402625e-07 
8.850862706595639e-07 
7.262811144768252e-07 
5.000712621622569e-07 
7.445057322795416e-07 
2.480197496698345e-07 
1.088012196246236e-20 
-6.167888785010384e-05 
