solver_type L2R_LR
nr_class 2
label 0 1
nr_feature 105
bias 1
w
0 
0.001744606828796634 
0.001457114119040863 
0.00059629254478179 
0.0001412153395272957 
0.0001421446783153212 
4.863080547036393e-05 
-1.15106293889554e-05 
-3.053454488225595e-05 
-6.136668450423523e-05 
-5.892761014152349e-05 
-3.555461763770422e-05 
-5.553672085288193e-05 
-5.730713989601318e-05 
-6.954610443947392e-05 
-6.783815761952268e-05 
-6.922822827172374e-05 
-8.10602470467025e-05 
-7.549934076027967e-05 
-7.052476546102935e-05 
-6.707198043479899e-05 
-7.158215411118679e-05 
-6.55144457754224e-05 
-6.169819180628077e-05 
-6.391753168527551e-05 
-6.365195479184271e-05 
-7.001980708617089e-05 
-6.635178157406338e-05 
-6.721940319339724e-05 
-6.67010768155433e-05 
-6.692182103447813e-05 
-6.57360592050759e-05 
-6.226631672852455e-05 
-5.977549370280827e-05 
-5.52509962475573e-05 
-5.593147015470222e-05 
-4.996505006362549e-05 
-5.138109784269102e-05 
-4.704873171719221e-05 
-4.853783475890591e-05 
-4.965099368008427e-05 
-4.63252600260234e-05 
-3.902787651104393e-05 
-3.89816707820313e-05 
-3.633680496539238e-05 
-3.482804108672982e-05 
-3.511885861414346e-05 
-3.241144997082587e-05 
-3.21910928129911e-05 
-3.035815723358259e-05 
-2.859747489015899e-05 
-2.641381081212103e-05 
-2.475913244960861e-05 
-2.156575964427485e-05 
-2.256100035252075e-05 
-2.173019971820586e-05 
-1.997549936556839e-05 
-1.930739549392016e-05 
-1.835387162481414e-05 
-1.808091691303245e-05 
-1.71909363472536e-05 
-1.543717162629726e-05 
-1.447313366435504e-05 
-1.316062092241334e-05 
-1.265483033281104e-05 
-1.222964180415172e-05 
-1.18087786341387e-05 
-1.124745567137925e-05 
-1.02847456711338e-05 
-1.011819997209636e-05 
-9.957834635931306e-06 
-9.339832184480807e-06 
-9.645668337260648e-06 
-8.986497763383624e-06 
-8.868715562725229e-06 
-8.448089840235579e-06 
-7.951796015862455e-06 
-7.863847737429928e-06 
-6.985637943113301e-06 
-6.441508414741519e-06 
-6.504100361690238e-06 
-6.456339447423295e-06 
-6.264342890564822e-06 
-5.923537320551008e-06 
-5.477861599111757e-06 
-5.163570348648349e-06 
-5.195216523070368e-06 
-4.866026474878159e-06 
-4.619919078640577e-06 
-4.243958351303947e-06 
-4.231688117078978e-06 
-4.18099065483361e-06 
-3.677189542062888e-06 
-3.3295558351822e-06 
-3.30117930222181e-06 
-3.237357754659608e-06 
-2.955557840405571e-06 
-2.726049247828045e-06 
-2.544234738096351e-06 
-2.232343604420902e-06 
-2.132386872234816e-06 
-1.897708449150035e-06 
-1.720209494521368e-06 
-1.105333073913248e-06 
-2.997493040833927e-19 
-6.792074159797423e-05 
