solver_type L2R_LR
nr_class 2
label 0 1
nr_feature 105
bias 1
w
0 
-0.0008449174739084027 
9.284115286196501e-06 
-8.061364541180654e-05 
0.0001872323261538749 
0.0002068051315659004 
0.0002121092867713766 
0.0002543084163358364 
0.000280427441035974 
0.0002185787068519622 
0.0001845307186746957 
0.0001650217151305755 
0.0001702209215141596 
0.0001866709787041543 
0.0001610492774879291 
0.0001405489500145107 
0.0001306831080768695 
0.0001272240126872246 
0.0001137266016993084 
0.000117529441148758 
9.263792178608643e-05 
9.449488698062292e-05 
8.342033499279418e-05 
7.618950574339699e-05 
8.010284215454967e-05 
8.908015302396064e-05 
7.826680331906161e-05 
7.178037438893537e-05 
6.683596503525961e-05 
6.834106520006812e-05 
6.921120151052387e-05 
6.489739584654181e-05 
6.40993204320905e-05 
6.297648773015845e-05 
5.743316888789271e-05 
5.599103286986158e-05 
5.432900258336602e-05 
4.901634063582583e-05 
4.608862108774761e-05 
4.655883682690419e-05 
4.053650101734733e-05 
3.951375314663071e-05 
3.696779068082036e-05 
3.281218431442154e-05 
2.770604970349064e-05 
2.924460868515806e-05 
2.673737360566939e-05 
2.592890948344606e-05 
2.593551356282003e-05 
2.305605379403654e-05 
2.01663857760941e-05 
1.86676194871118e-05 
1.79006603122722e-05 
1.60656888259559e-05 
1.505050122124479e-05 
1.535015757349876e-05 
1.483179659745099e-05 
1.413493592552148e-05 
1.243907912736244e-05 
1.168143299214359e-05 
1.148647428932635e-05 
1.154480337991493e-05 
1.052876504107731e-05 
9.995335204809529e-06 
9.725136263765416e-06 
9.228396327357618e-06 
8.67326290384108e-06 
8.157683795895071e-06 
7.459593942080431e-06 
7.759838427308685e-06 
6.956899490486765e-06 
6.431529489842632e-06 
6.334943176811912e-06 
6.298825304272417e-06 
5.861859919193864e-06 
5.196641086897413e-06 
4.894416118458827e-06 
4.597408025628789e-06 
4.739288314449216e-06 
4.250759362970085e-06 
3.749015351138418e-06 
3.738835180344862e-06 
3.591927782974781e-06 
3.371894036599463e-06 
3.187142976004185e-06 
3.077829048802321e-06 
2.833220467838145e-06 
2.728179962297067e-06 
2.448901449119767e-06 
2.296442664494898e-06 
2.240716225084139e-06 
2.208581912398587e-06 
2.197691004593078e-06 
1.933124248513697e-06 
1.682539506442263e-06 
1.428111222643868e-06 
1.43811745442749e-06 
1.350086118382556e-06 
1.292331109544865e-06 
1.111600436130104e-06 
7.933688630919428e-07 
8.072021820625953e-07 
5.343568276895615e-07 
3.886834423287666e-07 
2.301481492052845e-19 
2.511461975245521e-06 
