solver_type L2R_LR
nr_class 2
label 0 1
nr_feature 105
bias 1
w
0 
0.001161299078349963 
0.001244320339312961 
0.0008148140741963484 
0.0001091494010960176 
0.0001023917148363699 
4.987943468907457e-05 
2.742860620800672e-05 
3.188940520852919e-05 
-3.190813164196423e-05 
-1.766455934619224e-05 
-4.911199118392301e-05 
-3.685911333136641e-05 
-5.875005872466905e-05 
-4.414496712453629e-05 
-3.793906943416113e-05 
-4.343918924002532e-05 
-3.980343816376846e-05 
-3.691203040478303e-05 
-5.11344929856848e-05 
-4.816261323748645e-05 
-5.035777558154297e-05 
-5.124695178405649e-05 
-5.052364882238572e-05 
-4.503109952591494e-05 
-3.799399064934688e-05 
-3.454989921806134e-05 
-3.442716455317802e-05 
-4.451401368103746e-05 
-4.432490972744948e-05 
-3.951869965393577e-05 
-3.765061252523563e-05 
-3.80253835554351e-05 
-3.507001785644141e-05 
-3.799288372302274e-05 
-2.841720267093986e-05 
-2.950129985573441e-05 
-2.867892500392338e-05 
-3.118205340041812e-05 
-3.008500704708191e-05 
-3.204301712717895e-05 
-2.779271434812462e-05 
-2.547675165515276e-05 
-2.472598341674608e-05 
-2.760212630835027e-05 
-2.104967850641546e-05 
-1.903661996165445e-05 
-1.813477332955081e-05 
-1.438492029409795e-05 
-1.557516628643921e-05 
-1.507934303658232e-05 
-1.415823658064107e-05 
-1.237675459960795e-05 
-1.12332898275262e-05 
-1.13548491029981e-05 
-1.091946224567541e-05 
-9.696338208197777e-06 
-9.192218215092669e-06 
-8.782912516405908e-06 
-9.554412209453566e-06 
-9.476200139377654e-06 
-9.063744083431932e-06 
-8.511773148762419e-06 
-8.89624666571769e-06 
-8.439985134752652e-06 
-7.801354610042851e-06 
-7.501790172122594e-06 
-6.633224703891549e-06 
-6.32656451352428e-06 
-5.600960754350752e-06 
-5.668654629242895e-06 
-6.012493528481822e-06 
-6.222045173920003e-06 
-5.723338544723839e-06 
-5.721454042526163e-06 
-5.46142384372565e-06 
-5.311055775335704e-06 
-5.01829031505044e-06 
-4.817104411548052e-06 
-4.759991741587814e-06 
-4.062002017133049e-06 
-4.185759798651555e-06 
-3.905377506150318e-06 
-3.687667173366845e-06 
-3.656602989196906e-06 
-3.474084154472856e-06 
-3.274751626435398e-06 
-2.950043658189258e-06 
-3.027825371255003e-06 
-2.933845919958171e-06 
-2.491303804905608e-06 
-2.397829709995264e-06 
-2.596515104900094e-06 
-2.430859459225688e-06 
-2.272207618957004e-06 
-2.145001853598177e-06 
-2.096481825762273e-06 
-1.827099821208068e-06 
-1.778504275444272e-06 
-1.774234856658344e-06 
-1.566837531985157e-06 
-1.364315015654562e-06 
-1.530016743302704e-06 
-1.168176234583352e-06 
-2.315273380851281e-19 
-5.952529931384432e-05 
