solver_type L2R_LR
nr_class 2
label 0 1
nr_feature 105
bias 1
w
0 
0.0002566797988953217 
0.0002186594552301358 
0.0003547288242931516 
0.0001718113914661035 
0.0002285948374072646 
0.0001662606416529863 
0.0001472418237027848 
0.0001539210774449676 
0.0001107023917884456 
5.761092551052217e-06 
4.258043251642795e-05 
4.094749847787587e-06 
3.796667344405083e-05 
2.587985265102724e-05 
1.418403972741729e-05 
3.844083373870801e-05 
6.828860042006505e-05 
7.82049890757586e-05 
6.590560972257655e-05 
7.433946886006523e-05 
6.333384320295224e-05 
6.708552248175204e-05 
5.442555331547619e-05 
6.341511818594476e-05 
4.920054812063441e-05 
5.294759488262423e-05 
4.732363384600835e-05 
4.507282827807023e-05 
3.755382246186313e-05 
4.058904295533322e-05 
3.980280367309049e-05 
3.553421416340235e-05 
3.143232651398942e-05 
3.705256344794109e-05 
3.56294204544591e-05 
3.242191152331219e-05 
3.155171237721803e-05 
3.163824554685865e-05 
3.188103191736377e-05 
2.513536571810565e-05 
2.519850765230774e-05 
2.350508001757511e-05 
2.569408510204084e-05 
2.224320250260824e-05 
1.914793683382113e-05 
1.612482227292619e-05 
1.728310344490116e-05 
1.714284806650084e-05 
1.679275598460449e-05 
1.313636594242209e-05 
1.131836579675352e-05 
1.116440213289672e-05 
1.035644653925289e-05 
9.781161044462549e-06 
1.026070598250586e-05 
9.129809506181737e-06 
8.804176270983313e-06 
8.309997424428088e-06 
7.027401299948496e-06 
6.0556481272177e-06 
6.651872326642899e-06 
6.055075068114745e-06 
6.5740945742391e-06 
5.647948575910854e-06 
5.228567836631864e-06 
4.59802403508054e-06 
4.22188372074213e-06 
4.804523322119067e-06 
4.258496283941715e-06 
3.765190482121296e-06 
3.617882381955815e-06 
3.410595382435759e-06 
2.609970397313165e-06 
2.716011215812472e-06 
2.523649871778721e-06 
2.184682539494832e-06 
2.118435385397651e-06 
2.468333849864094e-06 
1.831763954289462e-06 
1.680824542566084e-06 
1.838610768801447e-06 
1.553958645878423e-06 
1.373825298142351e-06 
1.230604035879299e-06 
1.007617236228072e-06 
7.176490865829457e-07 
9.223576675878818e-07 
7.444130343345183e-07 
6.254406870025571e-07 
5.224532879275565e-07 
4.976687067458832e-07 
6.02793504663282e-07 
4.736694875818571e-07 
4.658880407215869e-07 
3.77360837148374e-07 
3.416569499519332e-07 
2.664912138828285e-07 
2.836349455983406e-07 
-1.06934953608584e-08 
2.500576736908674e-09 
-5.490541178922504e-08 
-5.13458791740109e-08 
-4.033501539125884e-09 
-5.795333840971749e-20 
-2.515108426884558e-05 
