solver_type L2R_LR
nr_class 2
label 0 1
nr_feature 105
bias 1
w
0 
0.0001894175665842141 
0.0006009987760158276 
3.211425574644546e-05 
0.0001529076545377099 
0.0001399475040270255 
0.0001619687940725712 
0.0001562128878555391 
0.0001778189141030122 
0.0001657848300662014 
0.000129412524396805 
0.0001150640451314352 
0.000121299355650228 
0.0001572248507269929 
0.0001318486946953496 
0.0001037234049354937 
8.178346543406099e-05 
9.007780236564249e-05 
6.634812134815115e-05 
7.810844951953418e-05 
6.874659084664468e-05 
6.535626775062431e-05 
6.281755852982198e-05 
6.21518990302533e-05 
5.68071454537454e-05 
5.983889103093327e-05 
5.902189457725691e-05 
5.082354556474906e-05 
4.710821179109682e-05 
4.417831127713267e-05 
4.388783659247246e-05 
4.306362409936717e-05 
3.868257751996374e-05 
4.102425487896789e-05 
4.146415760385649e-05 
3.885757919027199e-05 
3.557958878012212e-05 
2.941364462089167e-05 
2.836114813586438e-05 
2.721140754452099e-05 
2.338075727757595e-05 
2.262248131198758e-05 
2.103559284319287e-05 
2.069886340585552e-05 
1.903225568750872e-05 
2.010779791349464e-05 
1.72608744959015e-05 
1.408021691826822e-05 
1.37960116765466e-05 
1.211615116139605e-05 
1.109107179425646e-05 
9.654570431979277e-06 
9.3497219601161e-06 
8.698515392677116e-06 
8.006932220649601e-06 
8.106674521585966e-06 
7.859493898691395e-06 
7.274546225266823e-06 
6.527009986489276e-06 
6.248491629383291e-06 
5.666160308446285e-06 
5.123280790809133e-06 
4.908194820505857e-06 
4.669289378709398e-06 
4.728215388387762e-06 
4.237098056520962e-06 
3.819516375985166e-06 
3.64816049110334e-06 
3.648217136870781e-06 
3.728813551627104e-06 
3.184189090744542e-06 
2.893686889523978e-06 
2.564899910306811e-06 
2.711351058384715e-06 
2.596783589243622e-06 
2.313186174631539e-06 
2.189589222747271e-06 
2.047564027877447e-06 
1.834344683614279e-06 
1.592610697846524e-06 
1.523399563200277e-06 
1.389866091382654e-06 
1.52937540301623e-06 
1.32987192620553e-06 
1.428637441340634e-06 
7.755938285978673e-07 
7.736626005031615e-07 
7.258394995167175e-07 
5.307417520451571e-07 
5.070601291506964e-07 
5.924695798292945e-07 
5.115294880746562e-07 
5.744715918462745e-07 
3.249943905340257e-07 
4.70748852211601e-07 
1.350395147754904e-07 
1.747918794608998e-07 
1.19674895448526e-07 
2.154694902971274e-07 
-7.271527605631898e-08 
-1.11976070218115e-07 
2.96006806712188e-09 
-1.452730110021914e-07 
-1.285653135717431e-07 
4.649404506570891e-20 
-2.130220944077618e-05 
