solver_type L2R_LR
nr_class 2
label 0 1
nr_feature 105
bias 1
w
0 
-0.001154623095916132 
-0.0008527685247285454 
-0.0005945314612888064 
0.0002650483534762334 
0.0002055269789580978 
0.0002097465325348175 
0.0002997081427056795 
0.0002401207490416941 
0.0002224982462583445 
0.0002356035350404931 
0.0002219698921141151 
0.0002020748985476987 
0.0002255541869019456 
0.0001870235015782395 
0.0001816895606575142 
0.0001392637311723185 
0.0001536018851417009 
0.0001535524039022652 
0.0001450061033629282 
0.0001451384456911696 
0.0001459574596430089 
0.0001236383940207579 
0.0001145205563287284 
0.0001049432037389221 
0.0001071256629881514 
9.941041440295181e-05 
0.0001116978102180406 
0.0001127227558745173 
0.0001024578932672733 
9.426322869369253e-05 
9.970824433786185e-05 
9.124912747923568e-05 
8.46044509835583e-05 
8.418713874202866e-05 
8.589804706844991e-05 
8.187950176794457e-05 
7.539314103738814e-05 
7.52850269997305e-05 
6.967680256069458e-05 
6.612635334341682e-05 
6.137063659640899e-05 
5.861026634335869e-05 
5.722059511135356e-05 
5.330070571188133e-05 
4.770254693488289e-05 
4.671896281167902e-05 
4.39501763716059e-05 
4.158165338540255e-05 
3.747718008847263e-05 
3.49025662261135e-05 
3.275158712219479e-05 
3.096819111241947e-05 
2.912347736005504e-05 
2.718476798338949e-05 
2.579483094672829e-05 
2.543850233197867e-05 
2.381730972561237e-05 
2.29277201953991e-05 
2.056225093013801e-05 
1.947818462516119e-05 
1.895094231769992e-05 
1.796774433878899e-05 
1.718685235510635e-05 
1.652783717666967e-05 
1.630369152075284e-05 
1.552651481729834e-05 
1.449519226013477e-05 
1.37863463640974e-05 
1.375988172914267e-05 
1.262327789852036e-05 
1.215284407235815e-05 
1.140802383410689e-05 
1.049728082752712e-05 
1.049089924764021e-05 
9.647460431021671e-06 
9.084001345545433e-06 
8.679835704738692e-06 
8.254712178602831e-06 
7.915356966643278e-06 
7.518423667966768e-06 
7.220925741290204e-06 
6.795578683460031e-06 
6.663993269805583e-06 
6.085720496728905e-06 
6.157541736903529e-06 
5.5356246759555e-06 
5.336447228747546e-06 
4.853066313974514e-06 
4.695285736710761e-06 
4.420351038773697e-06 
4.142534799784681e-06 
3.793331848639034e-06 
3.453064346926323e-06 
3.118368879798076e-06 
2.977791406354055e-06 
2.573449593350479e-06 
2.18640250991629e-06 
2.157376895308263e-06 
1.738625415534405e-06 
1.608792451175086e-06 
1.516977467804377e-06 
1.329413920253985e-06 
8.208657147234905e-07 
6.070188146343423e-19 
3.105006412868779e-05 
