solver_type L2R_LR
nr_class 2
label 0 1
nr_feature 105
bias 1
w
0 
-8.638997629338704e-05 
-0.0003029951486153753 
-6.563081229488533e-05 
1.559495540474601e-05 
8.235793246126718e-06 
-1.012397673853851e-05 
6.549701627592885e-05 
3.551281475998796e-05 
-2.67184355240205e-06 
2.963604177070404e-06 
-1.22899196279236e-05 
1.06741868559067e-05 
1.164714542104595e-05 
3.337082348773364e-05 
2.205630023543599e-05 
3.634173955673208e-06 
1.026054896559131e-05 
3.571266279433564e-06 
-4.649789713589292e-06 
2.919241814741288e-07 
-1.976785523144421e-06 
-5.346633128229305e-06 
-7.661528664761804e-06 
1.337035859388783e-07 
2.978130149051754e-06 
5.944851858752461e-06 
2.183870136229136e-05 
1.526208602381669e-05 
7.22704970056474e-06 
1.910508699288332e-05 
2.413487706689001e-05 
1.686820171568529e-05 
1.698740174817928e-05 
1.360126968475e-05 
1.796328000592101e-05 
1.498864318451854e-05 
1.62838807660478e-05 
1.701374123708245e-05 
1.383018191313852e-05 
1.116436886820343e-05 
1.081757305828149e-05 
1.146309203433158e-05 
1.207760598228078e-05 
8.365076316430935e-06 
9.429182157635585e-06 
1.042153216948081e-05 
9.913407881371815e-06 
1.082701676260511e-05 
8.390587017365097e-06 
8.144325416579781e-06 
6.801234972749711e-06 
7.506414900440168e-06 
8.03995574757559e-06 
7.083324046460385e-06 
6.390968259056855e-06 
6.920354122294919e-06 
7.007595392355369e-06 
6.490737646562419e-06 
4.743414593730337e-06 
4.289064512401128e-06 
4.340140941096728e-06 
4.722485648207147e-06 
4.196379283410937e-06 
4.648825609916853e-06 
4.346810945359079e-06 
4.296766117794632e-06 
4.327351894332709e-06 
3.677289610149443e-06 
4.365510917489642e-06 
3.673066159779656e-06 
3.318095227951889e-06 
2.648321807198311e-06 
2.480818034196583e-06 
2.491552478747719e-06 
1.981482414090123e-06 
1.893192376980035e-06 
1.722999377924157e-06 
1.736581016133133e-06 
1.652209918790907e-06 
1.789502628074534e-06 
1.430361172576843e-06 
1.503795470766172e-06 
1.357923874382848e-06 
1.202968360159992e-06 
1.449613330002325e-06 
1.148421543316181e-06 
1.431272077850465e-06 
1.353401709042524e-06 
1.312914542657824e-06 
1.338166560813751e-06 
1.145814125573178e-06 
9.417873562373617e-07 
8.300154480063978e-07 
7.533687789153308e-07 
7.682623855898635e-07 
4.953106793030857e-07 
6.354747432090809e-07 
5.082983389988274e-07 
2.633621119513563e-07 
2.32280049461605e-07 
4.594899751298308e-07 
1.415893692572581e-07 
3.009002875259902e-07 
1.057615981912922e-19 
6.81272120562709e-06 
