solver_type L2R_LR
nr_class 2
label 0 1
nr_feature 105
bias 1
w
0 
-0.0002554434783262558 
-0.0002265536771186209 
-0.0004087765612287809 
-0.0001961889960299878 
-0.0002231156939788868 
-0.0001873765565172563 
-0.00018875686011337 
-0.0002119179320991675 
-0.0001643533109807626 
-0.0001687866673639611 
-0.0001579858919412517 
-0.0001587906355624542 
-0.0001140916483232779 
-0.0001056798453634708 
-0.0001029101656112077 
-9.890147280068067e-05 
-7.911565105352807e-05 
-8.40886453008931e-05 
-9.0319410455098e-05 
-7.543443320273919e-05 
-5.805204737787833e-05 
-3.525395698613789e-05 
-3.779430605451911e-05 
-5.205180024060549e-05 
-4.33960143250794e-05 
-3.988199734429579e-05 
-4.554808400880233e-05 
-3.717592687922584e-05 
-3.517278623427839e-05 
-3.465101696909431e-05 
-3.068116437245999e-05 
-2.453428938672039e-05 
-2.395565229496729e-05 
-2.160854654525096e-05 
-2.020032514020034e-05 
-2.239147876706307e-05 
-2.416905738505469e-05 
-2.467085656558276e-05 
-2.309513372594124e-05 
-1.888849759207948e-05 
-1.884172420964081e-05 
-1.656573390794428e-05 
-1.511600915011895e-05 
-1.181741536807884e-05 
-1.039098100300417e-05 
-1.255067544435319e-05 
-1.237808336720427e-05 
-9.59358173299491e-06 
-1.013571702603666e-05 
-9.07292976578864e-06 
-7.965461563844619e-06 
-6.997745938739076e-06 
-6.641959225323651e-06 
-7.320874207665846e-06 
-6.093040484627729e-06 
-5.647399244260739e-06 
-5.230487302952963e-06 
-5.266062769274852e-06 
-5.54758843865001e-06 
-4.702348470264443e-06 
-5.01822857154429e-06 
-4.567099442239478e-06 
-4.07880797225212e-06 
-3.372072928859213e-06 
-3.378315518315147e-06 
-3.277343105909433e-06 
-3.277399611008114e-06 
-2.18981397130864e-06 
-2.64950975603356e-06 
-3.085432120041598e-06 
-2.352286409341935e-06 
-2.605605901204665e-06 
-2.100658086719202e-06 
-1.947963010260051e-06 
-9.221497652801798e-07 
-1.073377027275924e-06 
-1.130862596840747e-06 
-1.329037074798861e-06 
-1.140291917636707e-06 
-9.217186084716331e-07 
-8.98737422772961e-07 
-6.519894992089573e-07 
-8.021067131341268e-07 
-5.065584529611825e-07 
-8.624366330584008e-07 
-4.420539213160487e-07 
-2.300722138218276e-07 
-2.25051405753597e-07 
-2.098523604664051e-07 
-2.439892086938784e-07 
-3.154966924271608e-07 
-2.197140362737232e-07 
-6.939803823360426e-08 
2.340880457533846e-07 
-2.07171858981918e-07 
-1.75540416579237e-08 
4.161268287173804e-08 
2.090467146264884e-07 
-2.338442511133758e-09 
6.824757899232724e-08 
1.876943792822376e-07 
1.621630436241154e-07 
4.764965844561925e-07 
-2.286575816650696e-19 
2.14212084883444e-05 
