solver_type L2R_LR
nr_class 2
label 0 1
nr_feature 105
bias 1
w
0 
0.001565628001897771 
0.001302833169789429 
0.000686280158244455 
-1.86082985040094e-06 
2.870106761869563e-05 
-9.668274038184918e-05 
-0.0001881933941114425 
-0.0002084328584254543 
-0.0001561294587006742 
-0.0001861484495821143 
-0.0001173958115629699 
-0.0001748380134733188 
-9.859149038275279e-05 
-0.0001200346199367477 
-0.0001395739520573205 
-0.0001350534923536981 
-0.0001303276436891581 
-0.0001260121238060497 
-0.0001087497247987937 
-0.0001078590751127524 
-0.0001001077186446784 
-9.16807940964978e-05 
-0.0001000638175273948 
-0.0001042346890093136 
-9.643933736125001e-05 
-8.753102902886462e-05 
-8.828076014665604e-05 
-8.647228215072383e-05 
-7.714792005552916e-05 
-6.706076780853822e-05 
-5.653982690239619e-05 
-5.682670192873328e-05 
-5.769988959255102e-05 
-5.314814235932728e-05 
-5.590738210530529e-05 
-5.137744856687568e-05 
-4.692296684747528e-05 
-4.075984833290637e-05 
-4.450242245046576e-05 
-4.355271264258598e-05 
-4.092333873088662e-05 
-3.577978140987298e-05 
-3.386658650249691e-05 
-3.112805889796762e-05 
-2.828668297259354e-05 
-2.945207888433948e-05 
-2.545295841528019e-05 
-2.50714689454151e-05 
-2.404877900572056e-05 
-2.19396860398337e-05 
-2.034843190388248e-05 
-1.82214358171094e-05 
-1.725331063556041e-05 
-1.767226531161342e-05 
-1.800766555747556e-05 
-1.646305066175362e-05 
-1.579085832984145e-05 
-1.547683006667494e-05 
-1.510589793737626e-05 
-1.401201938866409e-05 
-1.275738471151381e-05 
-1.275540930720523e-05 
-1.140084133654173e-05 
-1.120673573963539e-05 
-1.137051700041383e-05 
-1.049475548036973e-05 
-1.034032768146065e-05 
-9.420437414574189e-06 
-9.56612032582551e-06 
-9.13250850811486e-06 
-8.437610990669856e-06 
-7.683126975316113e-06 
-7.278837215284769e-06 
-7.261860306308436e-06 
-6.520088771747694e-06 
-6.282868442843761e-06 
-6.415630631797136e-06 
-5.848550233466955e-06 
-5.611755804507124e-06 
-5.462013075615299e-06 
-5.33751058871678e-06 
-5.272501588341283e-06 
-5.231275776681084e-06 
-4.720061641947244e-06 
-4.686857673983626e-06 
-4.434090353267436e-06 
-4.012808232613044e-06 
-3.922051821127465e-06 
-3.543760924753627e-06 
-3.472878714735299e-06 
-3.526239545304084e-06 
-3.192010006542231e-06 
-2.803567077688807e-06 
-2.625697044266332e-06 
-2.505502547638384e-06 
-2.320810752193764e-06 
-2.061834477520115e-06 
-2.051078617113198e-06 
-1.796436443824997e-06 
-1.991664108433614e-06 
-1.701317894088832e-06 
-1.609427411525801e-06 
-9.945777646069421e-07 
-4.53553623965195e-19 
-5.239923773712921e-05 
