solver_type L2R_LR
nr_class 2
label 0 1
nr_feature 105
bias 1
w
0 
-0.0005446123168885848 
-0.001166415908163884 
-0.0009428291403757062 
-0.0004407259010900427 
-0.0005117247169393995 
-0.0003883176761130954 
-0.0003380164114897191 
-0.0003628435627318016 
-0.0003180271606015855 
-0.0002304574292291458 
-0.0002671863545150484 
-0.0002669327608806444 
-0.0002590420171611668 
-0.0001994426753838145 
-0.0001831501025480451 
-0.0001616976058715143 
-0.0001428404790565143 
-0.0001312946671775284 
-0.0001339602196318556 
-0.0001305605231311152 
-0.0001202826180041275 
-0.0001032173252541796 
-0.0001032804742711533 
-9.009363430039146e-05 
-8.00279070210151e-05 
-7.149798107554885e-05 
-7.512440155245927e-05 
-6.1392448271752e-05 
-5.729952907201086e-05 
-5.62040216620844e-05 
-5.076730109301915e-05 
-4.352021836709053e-05 
-4.285100382877003e-05 
-3.926077306808896e-05 
-3.587514634934234e-05 
-3.486384834503173e-05 
-3.295207732213145e-05 
-3.187400632822819e-05 
-3.101994598895025e-05 
-2.91014322749882e-05 
-2.714333945531318e-05 
-2.49720111167014e-05 
-2.310611790649777e-05 
-2.363324783502818e-05 
-2.130492484998833e-05 
-2.031395225407805e-05 
-1.813073524537109e-05 
-1.776768286675692e-05 
-1.587848846807943e-05 
-1.553358485502082e-05 
-1.337975467301981e-05 
-1.164430844958416e-05 
-1.145577679309864e-05 
-1.124649253258357e-05 
-1.167700545496034e-05 
-9.426927272200539e-06 
-9.196509098214377e-06 
-7.811179350095051e-06 
-7.352516278183579e-06 
-7.25078294085092e-06 
-6.562329774494696e-06 
-5.363930080542617e-06 
-4.87897794390102e-06 
-4.99516715241213e-06 
-4.584749814354659e-06 
-4.772171738074306e-06 
-4.374255573935904e-06 
-3.918954546145507e-06 
-3.424915129127422e-06 
-3.899742914580014e-06 
-3.415979721071665e-06 
-3.090261193177063e-06 
-3.172474523043925e-06 
-3.090345054584371e-06 
-2.656063947173196e-06 
-2.334586086930224e-06 
-1.946633757270937e-06 
-2.122500733860851e-06 
-2.107203972246053e-06 
-1.938511488604332e-06 
-1.708226296990855e-06 
-1.649654818627052e-06 
-1.49769821698325e-06 
-1.306509474619805e-06 
-1.241983486894096e-06 
-1.330651758966887e-06 
-9.783914877273927e-07 
-7.740544868083575e-07 
-7.719607112709695e-07 
-8.098922408846053e-07 
-4.911324023324772e-07 
-6.760195870023645e-07 
-5.64362631703657e-07 
-5.892735839851432e-07 
-3.609541725038137e-07 
-1.89119759391847e-07 
-2.850308800115988e-07 
-3.801677682214586e-07 
-1.315288042188975e-07 
-1.744253404330519e-07 
-1.3098749284195e-07 
-3.066214187738853e-07 
-1.075229520314608e-08 
-1.807114949759986e-19 
7.841713937388338e-05 
