solver_type L2R_LR
nr_class 2
label 0 1
nr_feature 105
bias 1
w
0 
-0.001794367725278157 
-0.001399276829365168 
-0.0005232420100863369 
-0.0002058335156117957 
-5.332071238657917e-05 
2.779646168723513e-05 
7.908642718077541e-05 
5.267911142443393e-05 
9.128432098707363e-05 
7.014260308732923e-05 
1.259999067250376e-05 
3.738564403283976e-05 
6.49406897005297e-05 
5.655476725517652e-05 
3.097016122445333e-05 
6.775602228796269e-05 
3.213556127769349e-05 
4.533143257406767e-05 
5.024660742960663e-05 
5.828730319544952e-05 
7.262294470693784e-05 
7.150924633162716e-05 
6.835642593156971e-05 
7.232424900744398e-05 
6.769254980031465e-05 
7.527339523397407e-05 
7.143406602995954e-05 
7.407220180512282e-05 
6.130662159829671e-05 
5.899846061314723e-05 
5.879678220108529e-05 
6.221306292861876e-05 
6.00176130497513e-05 
6.058270856107546e-05 
5.618136694759335e-05 
5.602982464224537e-05 
5.333482314830509e-05 
5.080469081376739e-05 
4.854194111081429e-05 
4.805826080326118e-05 
4.492793354948287e-05 
4.392276348374922e-05 
4.250155639558851e-05 
4.333730127534208e-05 
3.96099637295353e-05 
3.821378184201174e-05 
3.420864075795911e-05 
3.128960347312233e-05 
2.911949844895862e-05 
2.823690986198333e-05 
2.683865010505342e-05 
2.53703738658794e-05 
2.432226156212356e-05 
2.301345243087319e-05 
2.20864468586377e-05 
2.174397834872764e-05 
2.044935366253869e-05 
1.910346484658109e-05 
1.893560581953023e-05 
1.779775333474197e-05 
1.675377658156065e-05 
1.577831194613302e-05 
1.571408520249797e-05 
1.503526639297064e-05 
1.365465256122247e-05 
1.303022066923208e-05 
1.280817905627095e-05 
1.207442076003316e-05 
1.150042573872014e-05 
1.075856598814218e-05 
1.054808004173614e-05 
9.67787842969641e-06 
9.49884995274962e-06 
8.990408833731175e-06 
8.407630182291393e-06 
8.178930843533733e-06 
7.704163454989645e-06 
7.185917425058195e-06 
6.76960412680358e-06 
6.543635983453332e-06 
6.0070033843284e-06 
5.899575090123517e-06 
5.408513545435446e-06 
5.468304032647842e-06 
5.179387740990143e-06 
4.821923578432607e-06 
4.492733592526306e-06 
4.278362014020269e-06 
4.524973044564234e-06 
4.296521543876541e-06 
3.903787860138001e-06 
3.44905728135022e-06 
3.658213193000438e-06 
3.224027262059764e-06 
2.969824638764678e-06 
2.994546328399803e-06 
2.911356555731575e-06 
2.533243326797864e-06 
2.383833663446418e-06 
2.265398690730478e-06 
2.051053090475613e-06 
1.799613684068286e-06 
1.136737739650211e-06 
4.31452674954943e-19 
7.42940097964353e-05 
