solver_type L2R_LR
nr_class 2
label 0 1
nr_feature 105
bias 1
w
0 
-0.00091202812960215 
-0.001006932634157786 
-0.0007802832879347912 
2.229886849027108e-05 
6.361467430193524e-05 
0.0001398060579071424 
9.128083336701124e-05 
0.0001531587369882525 
0.0001091078324499778 
7.985175403464584e-05 
6.470638515268679e-05 
9.298021500559176e-05 
8.942570905500107e-05 
8.751641611865641e-05 
7.322461664384601e-05 
9.507840453085559e-05 
8.20306832207084e-05 
8.432511283280609e-05 
6.212011762385164e-05 
6.865705692361928e-05 
6.412776127432966e-05 
6.786007653537369e-05 
6.037379456895546e-05 
6.05059893212004e-05 
5.779437058550506e-05 
6.083798605861262e-05 
6.722509902988956e-05 
6.489708448158682e-05 
6.132261157327853e-05 
6.203112894072637e-05 
6.503745466198671e-05 
7.101714584421052e-05 
6.576256017693648e-05 
6.303439230422343e-05 
6.404540241799707e-05 
6.212218892929221e-05 
5.86280835476239e-05 
5.885597490001325e-05 
5.962308342203911e-05 
5.717790795188823e-05 
5.437962618745795e-05 
5.245593344353597e-05 
4.928666222320913e-05 
4.755566684159076e-05 
4.538281531969451e-05 
4.204017988806678e-05 
3.946902393253516e-05 
3.67725064242146e-05 
3.551166009925844e-05 
3.289968060385035e-05 
3.286129256669585e-05 
3.070540132117119e-05 
2.840604973267788e-05 
2.67632277640859e-05 
2.537061919659022e-05 
2.336076635591604e-05 
2.219931110959481e-05 
2.16071768858722e-05 
2.066337063626688e-05 
1.96491223623114e-05 
1.838274845224953e-05 
1.741881696279526e-05 
1.664909056438957e-05 
1.591671170058296e-05 
1.464270023702776e-05 
1.374380987304048e-05 
1.311355266903923e-05 
1.236560211942685e-05 
1.232873522614672e-05 
1.176194346908205e-05 
1.081217461217326e-05 
1.023344178133991e-05 
9.77375639702982e-06 
9.458605249025354e-06 
8.529360213672637e-06 
8.063257467812114e-06 
7.497785027931182e-06 
6.689845004422266e-06 
6.889737472694076e-06 
6.426901461819475e-06 
6.011426350525847e-06 
5.729185151864743e-06 
5.210590588730815e-06 
5.398633492209228e-06 
5.258678900963975e-06 
4.719211562335969e-06 
4.43051961387032e-06 
4.131952718975636e-06 
4.076045742116011e-06 
3.858252977229505e-06 
3.621483550557965e-06 
3.349518670987939e-06 
3.317239355239141e-06 
2.949329419109571e-06 
2.874257637032284e-06 
2.819825971321354e-06 
2.617480662438799e-06 
2.453432004747246e-06 
2.305771329700786e-06 
2.182715856237955e-06 
1.732345973734577e-06 
1.582800391553642e-06 
9.732775247847704e-07 
3.976602740593449e-19 
4.135900106690013e-05 
