solver_type L2R_LR
nr_class 2
label 0 1
nr_feature 105
bias 1
w
0 
-1.171421926100486e-05 
5.664844257643378e-05 
-9.217470277464707e-05 
0.0003303517823342885 
0.0001985531174822688 
0.0002506756853506184 
0.0002577028752508105 
0.0002319325999117057 
0.0002269969985004196 
0.0001797704653373768 
0.0001962414942154873 
0.0001809272957386108 
0.0001731099728762055 
0.0001426489073557224 
0.0001463693810334174 
9.64369879621301e-05 
0.0001095552524329305 
9.697153371899702e-05 
9.25632772664404e-05 
7.923596071699037e-05 
6.557826046830883e-05 
6.053310532533835e-05 
6.330418730989659e-05 
6.159448226979041e-05 
5.311816636105535e-05 
5.226137818597829e-05 
4.948477965768219e-05 
4.542431040194091e-05 
3.951030341041534e-05 
3.681519697635055e-05 
3.434992310726636e-05 
3.02181244612403e-05 
2.530848702786947e-05 
2.810846113877147e-05 
2.523214864945733e-05 
2.510917218462819e-05 
1.885654352537584e-05 
2.158303451467431e-05 
1.845736634784457e-05 
2.074182934081103e-05 
1.9363626877219e-05 
1.599238336958811e-05 
1.757618212139019e-05 
1.846063939989236e-05 
1.715889260614476e-05 
1.347522033989733e-05 
1.304438596698052e-05 
1.181000828005997e-05 
1.088285420842337e-05 
9.766285552746758e-06 
9.828108856104946e-06 
7.923386882176782e-06 
7.739018994012531e-06 
7.939174361987737e-06 
7.592263238660715e-06 
7.567623853150966e-06 
6.380746028479351e-06 
6.207526279982239e-06 
6.256003308778182e-06 
4.868978660191875e-06 
5.47924506376363e-06 
5.579612775433839e-06 
5.401484731565821e-06 
5.752598722898373e-06 
5.44250187055712e-06 
5.069952577397001e-06 
3.991399020755803e-06 
3.921623273299316e-06 
3.846568321275906e-06 
3.323019943835223e-06 
3.963490356081911e-06 
3.586435366601542e-06 
3.078898409756751e-06 
3.033235247878402e-06 
2.975307347644585e-06 
2.760307984286703e-06 
2.693256322510601e-06 
2.321653598582141e-06 
2.039278899821969e-06 
1.780777518913296e-06 
1.748404150451553e-06 
1.741054221651929e-06 
1.768964041620699e-06 
1.584744015225292e-06 
1.434748085717916e-06 
1.25993461148285e-06 
1.501747886545778e-06 
1.408907556226356e-06 
1.075248898106009e-06 
1.035508778596189e-06 
1.160163216699093e-06 
9.434208949853069e-07 
4.99148957480555e-07 
5.687026067864659e-07 
7.219128698579629e-07 
6.874261480567385e-07 
8.307511169631257e-07 
6.471681921893932e-07 
1.055649049899187e-06 
8.400989497529816e-07 
7.584913605373692e-07 
8.599159202054428e-07 
5.083299535730989e-07 
1.733342431310209e-21 
-1.428618860365885e-05 
