solver_type L2R_LR
nr_class 2
label 0 1
nr_feature 105
bias 1
w
0 
-0.001315637364680761 
-0.0008437095204977144 
-0.0001347723979093011 
0.000109203938543252 
0.0001921527499905297 
0.0001627987680346372 
0.0001856474932638296 
0.0002005250041029576 
0.0001827062264752841 
0.0002052844756872339 
0.0001913030077483226 
0.0001953646262869128 
0.0001756007108872062 
0.0001653736914062609 
0.0001451906423974062 
0.0001422867399568379 
0.0001240493845028516 
0.00012995310477495 
0.0001196105172803395 
0.0001161005445600486 
0.0001115444106548809 
0.0001016809052629464 
0.0001082298703113238 
9.009051479009696e-05 
8.3378419656653e-05 
8.274018504302697e-05 
8.077342303679466e-05 
7.438994046457083e-05 
6.499689767331547e-05 
6.530564552571747e-05 
6.446673700429341e-05 
6.228100248483662e-05 
5.879666704872982e-05 
5.405156334806888e-05 
5.740392212579151e-05 
5.509358392616986e-05 
5.357139267519325e-05 
5.177419712289727e-05 
4.992704324182284e-05 
4.848682372403395e-05 
4.252515597981747e-05 
4.467415942870642e-05 
3.685376158175458e-05 
3.53864628380063e-05 
3.503092992492979e-05 
3.406380587605095e-05 
3.127701621099489e-05 
2.862146241622643e-05 
2.717042935881701e-05 
2.54913925521438e-05 
2.362651232313926e-05 
2.265821491028623e-05 
2.045926212629165e-05 
1.904264505802937e-05 
1.818505711275496e-05 
1.779290957337044e-05 
1.623798282540921e-05 
1.599820336794058e-05 
1.514316964100893e-05 
1.396492214735907e-05 
1.291287903848641e-05 
1.260994372200768e-05 
1.257637662788968e-05 
1.223979451354402e-05 
1.158821266275139e-05 
1.081334497709027e-05 
1.0280946472741e-05 
9.431895876549809e-06 
9.102952701583473e-06 
8.819248936562317e-06 
8.130516966091683e-06 
7.741507904431906e-06 
7.236267599976732e-06 
7.053865925528493e-06 
6.551904066556713e-06 
5.994418358356619e-06 
5.642579555175189e-06 
5.578030462420513e-06 
5.207386997304632e-06 
4.926326898981226e-06 
4.408669418597207e-06 
4.349066697860532e-06 
4.500847335402104e-06 
4.077382405807846e-06 
3.845122195947096e-06 
3.756485196513915e-06 
3.515721261588145e-06 
3.159693962100769e-06 
3.166742906198747e-06 
3.06781745309034e-06 
2.800656057341762e-06 
2.495670394402376e-06 
2.552563217846912e-06 
2.368724674426066e-06 
2.287628969481978e-06 
1.993886245818362e-06 
1.880744629301639e-06 
1.831150459434536e-06 
1.476282299783063e-06 
1.583961027821657e-06 
1.610659649559009e-06 
1.215068216196515e-06 
1.173976403218062e-06 
3.294250299238633e-19 
2.871319483150657e-05 
