solver_type L2R_LR
nr_class 2
label 0 1
nr_feature 105
bias 1
w
0 
-0.001690136849432001 
-0.001638821996446671 
-0.000518592990211512 
-0.0005720907318017763 
-0.0004683910271474796 
-0.0003728679195693725 
-0.0002790113233668011 
-0.0003331878847733364 
-0.0002106771794709619 
-0.0002098850443507598 
-0.0002619301456950763 
-0.0002531952370789129 
-0.000251128021533929 
-0.0002179983277911161 
-0.0001919652624231216 
-0.0001517743542638196 
-0.0001693053855337215 
-0.0001325929339176872 
-0.0001192506550897109 
-0.0001136647604481539 
-9.818224833571979e-05 
-8.721668739896578e-05 
-9.028815877372914e-05 
-7.501799115640102e-05 
-7.052404604491596e-05 
-6.603565643828845e-05 
-6.81807781391869e-05 
-4.820209731575091e-05 
-5.607517767502098e-05 
-5.389779690448558e-05 
-5.248515320887175e-05 
-4.887779120171388e-05 
-4.796852739857255e-05 
-4.097254181347988e-05 
-4.350119057095768e-05 
-3.992020351537901e-05 
-3.706007353277216e-05 
-3.827893659521947e-05 
-3.843921639625622e-05 
-3.575558311126598e-05 
-3.410495021576755e-05 
-2.919760914961517e-05 
-3.014915104535516e-05 
-2.489934213045892e-05 
-2.468649459505533e-05 
-2.245076342780479e-05 
-2.176273947730824e-05 
-2.324737324067564e-05 
-2.06381466309276e-05 
-1.806031478147862e-05 
-1.622022553089907e-05 
-1.527602100694945e-05 
-1.433584271618039e-05 
-1.375019472710459e-05 
-1.377390999994402e-05 
-1.03825304072248e-05 
-1.033125291570502e-05 
-8.986907180841376e-06 
-8.15607839955797e-06 
-7.606473780998098e-06 
-7.233042346137021e-06 
-6.311875221771622e-06 
-5.258473942683995e-06 
-5.201289269117613e-06 
-5.425919176154992e-06 
-4.747244281950301e-06 
-4.370767287327801e-06 
-3.758400455770476e-06 
-3.966600351223287e-06 
-4.144386799215625e-06 
-3.110515712939935e-06 
-3.609340968360853e-06 
-3.067744020160998e-06 
-2.988423271318807e-06 
-2.623289231414543e-06 
-2.264113394303175e-06 
-1.904560031546624e-06 
-1.765405927143934e-06 
-1.881874373375016e-06 
-1.525653351001319e-06 
-1.547399836713656e-06 
-1.229155169053162e-06 
-1.256284417705851e-06 
-9.264414011755217e-07 
-8.219758776650899e-07 
-8.109499206271303e-07 
-7.603087306692006e-07 
-2.248521144775778e-07 
8.650512169813596e-08 
-2.10597014198763e-09 
1.791175528007015e-07 
-2.421395154726993e-07 
1.792894929833988e-07 
2.925877542871489e-08 
1.950893791861862e-07 
5.374242420394939e-07 
4.740230077538825e-07 
4.341514088054582e-07 
3.960462685379997e-07 
4.652260570220422e-07 
5.259956225032379e-07 
2.316045035362238e-07 
5.679049877311282e-07 
1.41307763946799e-22 
0.0001086729112210284 
