solver_type L2R_LR
nr_class 2
label 0 1
nr_feature 105
bias 1
w
0 
-0.0006513100762802325 
-0.001032564845083529 
-0.0005982743885945071 
-0.0001118568043382032 
-8.643093456454002e-05 
-1.908021560487378e-05 
6.814467185331986e-06 
-1.000300958457889e-05 
1.271559986440165e-05 
-3.572463745367832e-05 
-2.103160600040285e-05 
-3.854096214832784e-05 
2.156064944647496e-05 
2.273032205921542e-05 
2.187724614986227e-06 
-2.925929617436685e-06 
-2.707399561648716e-06 
6.609830745881632e-06 
8.030254721475308e-06 
2.94929874629308e-06 
1.387132587010037e-05 
2.215195823505569e-05 
1.944916100307387e-05 
1.509521809589517e-05 
1.43115071477814e-05 
1.856459964221691e-05 
1.727361081382992e-05 
2.571179817369979e-05 
2.44037559420955e-05 
1.691035826186525e-05 
1.948407586556814e-05 
2.17327694765996e-05 
2.003114068077613e-05 
2.11003139183658e-05 
1.604489335308599e-05 
1.761193718705909e-05 
1.443807937987028e-05 
1.584042192918028e-05 
1.53652214071765e-05 
1.824813735609427e-05 
1.752986561005288e-05 
1.520387200063506e-05 
1.48201970213771e-05 
1.483206829311997e-05 
1.407551674683613e-05 
1.184804752294829e-05 
1.081778008019698e-05 
9.525286314663594e-06 
9.119215452716017e-06 
9.498434759608951e-06 
1.012752597889921e-05 
8.046278296390309e-06 
7.32662176249178e-06 
7.47216318334792e-06 
7.431981172438312e-06 
7.109691669283239e-06 
6.641827667206568e-06 
5.258375194409859e-06 
5.748864478698721e-06 
4.932071865132641e-06 
5.105193139893307e-06 
4.697715337186206e-06 
4.50016086019875e-06 
4.70318575599877e-06 
4.672279628945825e-06 
4.252460372094737e-06 
4.0231068987251e-06 
4.165727143353922e-06 
3.652429694404656e-06 
3.56174805776756e-06 
3.751933355831541e-06 
3.845399576371475e-06 
3.310362186936929e-06 
3.403582545940719e-06 
3.687603298902749e-06 
3.385180073732654e-06 
3.303814543422704e-06 
2.924561396492394e-06 
2.808751517539848e-06 
2.597749527609881e-06 
2.391678760108021e-06 
2.45188148258254e-06 
2.207584428863269e-06 
2.119541390502573e-06 
1.983263846540934e-06 
1.910165112990735e-06 
2.044451610639244e-06 
2.212182331347724e-06 
1.757193952512232e-06 
1.681119319305898e-06 
1.797755289367914e-06 
1.517020027534089e-06 
1.175880816739348e-06 
1.242065195557871e-06 
1.343315234376415e-06 
1.210453013231295e-06 
1.363207928436829e-06 
1.230041859468286e-06 
1.302110498489112e-06 
1.154521008403833e-06 
1.084423421563112e-06 
1.080040319053853e-06 
7.8546899654719e-07 
1.690342317228983e-20 
2.896675190292842e-05 
