solver_type L2R_LR
nr_class 2
label 0 1
nr_feature 105
bias 1
w
0 
0.0003751488967476253 
0.0002004354603928497 
0.0008072885571632711 
0.0001621156105196797 
0.0002402049406406945 
0.000153179949421587 
0.0001268086642545596 
0.0001482154826720193 
0.0002141858144517596 
0.000190685290355205 
0.0001787402279405027 
0.0001811394229427754 
0.0001567174742138283 
0.0001505821745942198 
0.0001312159490837263 
0.0001151853403574917 
9.263354886491622e-05 
8.803620533934962e-05 
8.933929074162872e-05 
9.059044550199011e-05 
9.418669974870673e-05 
9.124576664665805e-05 
8.466535571604981e-05 
8.537735748163733e-05 
7.681878527652356e-05 
6.354433352308029e-05 
6.539400548669059e-05 
5.279982139458451e-05 
4.237999302265116e-05 
3.859583332580188e-05 
4.127780664402e-05 
3.4679334764043e-05 
3.216688917568965e-05 
2.955841902674254e-05 
2.843489526477299e-05 
2.570302551694792e-05 
2.0071108510489e-05 
1.87045281624884e-05 
1.598228086434228e-05 
1.586985689370662e-05 
1.570467295711141e-05 
1.377681231822403e-05 
1.202877034761453e-05 
9.596178920470893e-06 
8.512310622795344e-06 
8.007832356679268e-06 
6.908629359828752e-06 
8.991891219839009e-06 
7.200925084328119e-06 
6.599511850278967e-06 
5.980826785691898e-06 
5.734143463981252e-06 
5.022019685227552e-06 
4.920854393152873e-06 
4.36370366637607e-06 
3.946201848972085e-06 
2.952949755513186e-06 
2.666679647275108e-06 
2.581899152899313e-06 
1.950591084089687e-06 
2.116510387604512e-06 
1.434284196130295e-06 
1.288997715587995e-06 
8.40428896729062e-07 
9.756565169251081e-07 
1.082925405945531e-06 
7.827483250273929e-07 
2.746219342870196e-07 
9.004236713377812e-07 
6.105830321741489e-07 
4.343744847691139e-07 
7.100722011378642e-07 
3.176348947014651e-07 
3.063175080046412e-07 
-1.931085166934174e-07 
-1.922362878131153e-07 
-5.545316685014125e-07 
-4.001605295432888e-07 
-9.750171176137979e-08 
-7.138826051210383e-08 
-3.772854592676752e-07 
-1.517482366833194e-07 
-1.645345152228162e-08 
-1.901343847379963e-07 
-2.482736185696304e-08 
-3.579389764815244e-07 
-2.864564804892957e-07 
-3.288299419456494e-07 
-5.44315253812482e-07 
-2.673288068464295e-07 
-1.681364396235111e-07 
-3.662836039412789e-07 
-4.329937232284512e-07 
-3.820336852335171e-07 
-5.038613364921165e-07 
-5.516029589963391e-07 
-4.204550988533283e-07 
-5.572607246700959e-07 
-5.091420026454329e-07 
-6.090569530480675e-07 
-5.384566572470677e-07 
-3.010924717577547e-07 
-1.42514222027595e-07 
8.751748269594337e-20 
-3.600122840810009e-05 
