solver_type L2R_LR
nr_class 2
label 0 1
nr_feature 105
bias 1
w
0 
0.0005318863955989572 
0.0005671716052603004 
0.0002191725391931013 
0.0002218692858853092 
0.0002060768729712 
0.0001598229213814547 
9.311831269147993e-05 
0.0001521567011237118 
9.117665096389979e-05 
4.423487396137446e-05 
4.039027084442527e-05 
5.551689108748134e-05 
4.933984891390437e-05 
2.664808771239461e-05 
4.73387663998588e-05 
5.076502322251384e-05 
6.519919492773884e-05 
5.81439242361767e-05 
4.355260239527584e-05 
4.268480482861112e-05 
2.606674460804716e-05 
4.012496642832772e-05 
2.786304087545016e-05 
2.44664871524786e-05 
1.687258518742017e-05 
2.402307357390441e-05 
2.266765154064411e-05 
2.226767530481896e-05 
2.014851649706445e-05 
1.544324726221614e-05 
1.564546873874236e-05 
2.459564850978675e-05 
2.030064089539209e-05 
1.738248724483862e-05 
1.764628503272366e-05 
1.444762919009726e-05 
1.343539341609396e-05 
1.301907601540458e-05 
1.451665169412258e-05 
1.35349334817839e-05 
1.398435636924181e-05 
1.628285111360193e-05 
1.339994484496063e-05 
1.462489235324597e-05 
1.368443811932537e-05 
8.563612548399098e-06 
8.632625784439748e-06 
9.080802094252463e-06 
8.965448641799051e-06 
8.766109800592599e-06 
8.269764059435495e-06 
8.2526650274921e-06 
6.737681557445828e-06 
5.791945008586245e-06 
5.685143696597243e-06 
4.617176659591977e-06 
4.183755174164093e-06 
4.36800536099907e-06 
3.582169091891255e-06 
3.674688009162138e-06 
2.723029673587567e-06 
2.537468878954763e-06 
2.695825595470856e-06 
2.896883716678822e-06 
2.355637204220928e-06 
2.381367374231483e-06 
2.17686817354845e-06 
2.188412474385039e-06 
2.641410464742273e-06 
2.015471959277325e-06 
1.640566260101778e-06 
1.52480690166385e-06 
1.66421303563637e-06 
1.457313961057273e-06 
1.22134308188069e-06 
1.167424253096781e-06 
9.569784660403784e-07 
6.586597402108575e-07 
1.089913521235367e-06 
8.074682270000584e-07 
9.035704943800246e-07 
8.779201048475566e-07 
7.554354116013772e-07 
9.795812891069111e-07 
9.173771402041637e-07 
6.790816207490898e-07 
6.117400600527929e-07 
5.347605513166342e-07 
5.947740708167937e-07 
7.53440546294399e-07 
6.17241278208833e-07 
5.587919389200444e-07 
2.978658308736369e-07 
2.059997454973576e-07 
4.323424300518544e-07 
5.434038102903434e-07 
3.82963204173973e-07 
5.641801886078529e-07 
4.283061680575884e-07 
4.952965077729497e-07 
2.376719519510631e-07 
2.230725806352465e-07 
3.642016233650623e-07 
5.63324287192136e-21 
-3.492105579741561e-05 
