solver_type L2R_LR
nr_class 2
label 0 1
nr_feature 105
bias 1
w
0 
0.0001011361912225386 
0.0001481053682326109 
-5.659685676953505e-06 
0.0001527533418557196 
6.243532628032949e-05 
9.150781488986602e-05 
7.72083551942822e-05 
9.411914389734677e-05 
6.620846010775722e-05 
6.546750686303908e-05 
6.498953202144698e-05 
6.335810806983504e-05 
3.608340903874831e-05 
3.025828115590952e-05 
3.591507257909415e-05 
2.36140837438461e-05 
3.300830771583332e-05 
4.481238072197678e-05 
2.617395881969151e-05 
2.894791567167161e-05 
3.296246631717333e-05 
1.925698701430901e-05 
1.897653183629409e-05 
1.584948624175217e-05 
1.630011005886026e-05 
1.821967559043931e-05 
2.274438738668001e-05 
2.055492593642706e-05 
1.558329116118346e-05 
1.499207698806751e-05 
9.08369750094305e-06 
9.430233224042941e-06 
1.614702526536878e-05 
1.582794423456178e-05 
1.33481542073034e-05 
1.035967444906189e-05 
1.08923398066728e-05 
1.193714813436982e-05 
1.073445782187463e-05 
8.138893654591036e-06 
9.332442344227646e-06 
7.441847730449374e-06 
8.436070862643109e-06 
7.147211994310652e-06 
8.627024278312678e-06 
6.718015775274784e-06 
5.871990213817892e-06 
5.683845040242464e-06 
5.792647624003645e-06 
4.823075856985768e-06 
3.848047018947374e-06 
3.446874150270883e-06 
2.472563206629935e-06 
2.750142220567453e-06 
2.783004542815869e-06 
3.577518776648849e-06 
1.870729691453112e-06 
2.224472003816172e-06 
2.656741599116598e-06 
2.322151782568355e-06 
2.65445799960522e-06 
2.122612473721004e-06 
2.176289765223085e-06 
2.125293547535041e-06 
1.802070397173246e-06 
2.167400180149634e-06 
2.041670598505338e-06 
1.717238003599002e-06 
1.333984291541258e-06 
1.485086032847414e-06 
9.392210952438992e-07 
7.937230182361829e-07 
6.869439493392472e-07 
7.569145410719879e-07 
3.434533329031301e-07 
4.293578391437192e-07 
5.103323170367869e-07 
6.857334830209808e-07 
8.079079023559592e-07 
5.057549229781031e-07 
6.192572617080017e-07 
3.201741582376879e-07 
2.731859226988431e-07 
2.134635517718321e-07 
-3.700274078820759e-08 
1.833962486495104e-07 
-1.633297335567991e-08 
1.310789631894318e-07 
1.826515546854913e-07 
2.087629899941367e-07 
6.70367934616305e-08 
4.066857461552836e-07 
1.579605997730944e-07 
8.918879586602933e-08 
3.517916668380193e-07 
7.110353164318093e-08 
-4.993018462317851e-08 
7.338395333746628e-08 
3.391422158774153e-08 
1.920385012068779e-08 
2.303688891463211e-07 
1.447504666313594e-07 
-1.249190858205794e-07 
9.326008602062406e-20 
-9.942843995457036e-06 
