solver_type L2R_LR
nr_class 2
label 0 1
nr_feature 105
bias 1
w
0 
-0.0008619195442162612 
-0.0005214531435653497 
0.0002995089357835046 
2.09696927492382e-05 
0.0001331545992401041 
0.0001122446741581059 
0.0001963883115840929 
0.000174530743663842 
0.0002288919367523608 
0.0001421274344807722 
0.000168118134278745 
0.0001455847274077449 
0.0001152974185572082 
0.0001114120162718678 
0.0001396964288340945 
0.0001244217378227055 
8.496834222209619e-05 
0.0001007073401824365 
0.0001014248938150684 
0.0001009326886649363 
9.39405942607266e-05 
8.264188893663068e-05 
6.934502876063804e-05 
8.079133882542295e-05 
7.528742714705948e-05 
7.222578450979757e-05 
6.803849399618986e-05 
6.912679716740225e-05 
6.128240400996193e-05 
5.274286706363709e-05 
4.628403936973635e-05 
4.165518343029746e-05 
4.258884581952289e-05 
4.217545245081614e-05 
3.820257233231258e-05 
3.757508811307685e-05 
3.709577729525823e-05 
3.284482900355715e-05 
2.684202881161157e-05 
2.707719773823235e-05 
2.844453944127805e-05 
2.204602175311536e-05 
2.178037720517058e-05 
1.709168166267554e-05 
1.693471775247585e-05 
1.292616006979721e-05 
1.244536118360373e-05 
1.151483815453385e-05 
1.041767393033495e-05 
1.031553796512395e-05 
9.712321859565199e-06 
8.843284724167505e-06 
9.146233336547592e-06 
9.056394658295389e-06 
9.34881650738259e-06 
9.335263222666511e-06 
9.147275243212766e-06 
7.707241748429559e-06 
6.838982384533654e-06 
6.876518940391124e-06 
6.110499864980006e-06 
5.771058143453278e-06 
5.993130331183402e-06 
6.00638735686515e-06 
5.212621390509255e-06 
4.936255231488887e-06 
4.596048780870222e-06 
4.559134464710771e-06 
4.622244459938587e-06 
4.156348002132496e-06 
3.961676461172474e-06 
3.742463118703502e-06 
3.527962257743222e-06 
3.708929143583879e-06 
3.818555235590422e-06 
3.949123371236168e-06 
3.942555238257659e-06 
3.544202864204695e-06 
3.101886734623078e-06 
2.598124963368535e-06 
2.467114102609513e-06 
2.594553713164497e-06 
2.437350235927576e-06 
2.055295459106064e-06 
1.966971059873284e-06 
2.18671186764011e-06 
2.10530194922166e-06 
2.094600760652094e-06 
1.930408518253746e-06 
2.195845542739262e-06 
1.856901210384612e-06 
1.846215746219129e-06 
1.447066323704335e-06 
1.254121352710324e-06 
1.177974800748016e-06 
9.293189373917165e-07 
9.259614025533579e-07 
9.348011435632947e-07 
6.972923399500831e-07 
5.946004064616301e-07 
7.755767498698267e-07 
6.246206119081504e-07 
8.481235628847485e-07 
2.882333519708948e-19 
1.28758051588681e-05 
