solver_type L2R_LR
nr_class 2
label 0 1
nr_feature 105
bias 1
w
0 
0.0006594749136386166 
0.0007729220370528789 
0.0007224460236025493 
0.0003230393822551 
0.0002758879506267715 
0.0002527589037804664 
0.0002302083648607762 
0.0002378120963509496 
0.0001652591283229263 
9.364636785366958e-05 
9.472215208880773e-05 
8.527595342438541e-05 
7.655514124042414e-05 
7.944971699129926e-05 
6.827994922027332e-05 
5.27474174067259e-05 
6.548839746792764e-05 
5.495847033676231e-05 
3.882657756741171e-05 
3.311642028389921e-05 
2.941306867001978e-05 
3.291443443549778e-05 
2.251885868148708e-05 
1.953693284594555e-05 
2.163024872062338e-05 
1.152059179031982e-05 
1.604690347401254e-05 
1.194568756651093e-05 
5.271928165556403e-06 
1.201333027413327e-05 
6.512111064111e-06 
5.43216600266012e-06 
5.739523848164666e-06 
3.772249380105263e-06 
5.94918042369241e-06 
4.179727540290396e-06 
2.905556363163271e-06 
4.196620006669903e-07 
8.104095553534376e-07 
1.221336369198578e-07 
-4.754205664742397e-07 
3.273796315907539e-07 
-1.574718881167719e-06 
-3.010435877481424e-06 
9.611671515096038e-07 
-7.570314453525706e-07 
6.752861339525429e-07 
-2.223773688049853e-07 
4.861536246940146e-07 
-7.960348304584016e-08 
-7.711118353177156e-07 
-1.115034042996103e-06 
-9.009857744200481e-07 
-7.499415664187976e-07 
3.696706303058512e-07 
-1.359127136929542e-07 
-8.394855559704322e-07 
-3.189687165282476e-07 
-2.931479667812026e-07 
-3.591348080103839e-07 
-4.224755751725457e-07 
-1.466404792156943e-07 
-1.826515164298094e-07 
-2.299886149746349e-07 
-3.053866014860438e-07 
-1.591176088963038e-07 
-4.543283047043121e-07 
-5.844363638588975e-07 
-4.255619655763014e-07 
-4.079607694003907e-07 
-1.207529119369855e-06 
-1.105244827273286e-06 
-8.225861888074096e-07 
-9.660044483451007e-07 
-1.199068837640432e-06 
-9.718280326698529e-07 
-1.198067960778551e-06 
-1.018624491057591e-06 
-4.262404977567709e-07 
-7.85512326270224e-07 
-6.218465615494359e-07 
-7.947532537607108e-07 
-6.629041462027858e-07 
-4.709461320387375e-07 
-7.842865474788346e-07 
-6.676456870667401e-07 
-6.182187610068145e-07 
-4.333166456254793e-07 
-4.405068123551145e-07 
-4.985785281236443e-07 
-5.925446447548292e-07 
-4.182722085580811e-07 
-4.015013145093195e-07 
-4.99143335506865e-07 
-2.763555324548217e-07 
-5.631212659286279e-07 
-6.456248784551364e-07 
-2.890725434586302e-07 
-5.054621487693408e-07 
-3.936045391344002e-07 
-3.669281146913498e-07 
-2.078282987216123e-07 
-1.430933162789548e-07 
-3.159886595639069e-20 
-4.38862225101119e-05 
