solver_type L2R_LR
nr_class 2
label 0 1
nr_feature 105
bias 1
w
0 
-0.001287782452053724 
-0.001296608683189195 
-0.0009198373114970476 
-0.0003742417325279836 
-0.0003856299166959264 
-0.0002914440804314042 
-0.0002616695976048171 
-0.0002716791560617689 
-0.0002069471170692147 
-0.0001551413907977129 
-0.0001201920480007064 
-0.0001272343120738281 
-6.153172126230973e-05 
-5.161742865283928e-05 
-6.700466351923975e-05 
-5.177952296057171e-05 
-3.672975831898735e-05 
-2.63272246023255e-05 
-5.172793406905075e-05 
-3.347130460063569e-05 
-3.490857205588154e-05 
-2.141123389075232e-05 
-3.371324338023221e-05 
-3.475178997271126e-05 
-2.202323488438126e-05 
-2.252936322809312e-05 
-2.848990055700165e-05 
-1.271241065248313e-05 
-1.048002008899263e-05 
-1.770964205712191e-05 
-1.044739931234765e-05 
-1.546526019213208e-05 
-1.597396145429273e-05 
-1.087545617305283e-05 
-1.073603517314887e-05 
-7.711732211733311e-06 
-5.083513590237268e-06 
-3.752063112291679e-06 
-5.422271510234641e-06 
-1.094585619601857e-05 
-5.750408621250355e-06 
-6.848383625033314e-06 
-8.626430651767724e-06 
-4.581599267310998e-06 
-5.509583872110851e-06 
-7.468796310671179e-06 
-3.692446776124126e-06 
-2.303092676014219e-06 
-1.99960654965137e-06 
-1.623958942179457e-06 
-1.370917662271094e-06 
-3.165747172553043e-07 
-3.804202714205108e-07 
-8.11675084270505e-07 
-1.028614985852461e-06 
-1.500496415293138e-06 
-8.18060478570592e-07 
-3.653066383230041e-07 
-1.779050466970448e-07 
2.816433999701906e-07 
1.279283638005456e-06 
9.904945079769415e-07 
1.717379838688035e-06 
6.645902538995738e-07 
-1.555284322358854e-07 
4.583674388551185e-07 
5.232123415080675e-07 
2.386502664451317e-08 
5.349916114987435e-07 
6.947103852102326e-07 
3.692192465936261e-07 
2.818704471074449e-07 
2.60868625611728e-07 
2.56595911262296e-07 
8.661092657532149e-07 
9.295481102285487e-07 
1.083287912164513e-06 
1.268683006842765e-06 
1.303091999910665e-06 
1.355651002807807e-06 
1.354378872197364e-06 
1.069737988746989e-06 
8.829216846990288e-07 
1.021187825347928e-06 
1.070472920048516e-06 
7.03013494811219e-07 
1.169361357206545e-06 
1.403504730382053e-06 
1.153543259674678e-06 
1.230143495827277e-06 
1.368932687777196e-06 
1.513062095911846e-06 
1.007522231298081e-06 
1.123662651089342e-06 
1.093189629504442e-06 
7.424844440192856e-07 
7.625427406725883e-07 
8.236184462753872e-07 
9.626135165924316e-07 
7.732507330819779e-07 
7.871881852508362e-07 
8.408529425835594e-07 
7.305319575757543e-07 
1.174858972622974e-19 
8.787303751477249e-05 
