solver_type L2R_LR
nr_class 2
label 0 1
nr_feature 105
bias 1
w
0 
0.001830798346331912 
0.001313958884041627 
0.0003729099594923305 
0.0003532056738558159 
0.0002127005912599128 
0.0001599368107077347 
0.0001549173204802185 
2.811339436088709e-05 
6.377471771563484e-05 
7.607681771169527e-05 
5.863560800050089e-06 
1.806727801819272e-05 
1.21252555313476e-05 
9.198473116390792e-06 
-2.555969584189714e-06 
-3.906125096688358e-05 
-2.106364395098231e-05 
-7.30724615640832e-06 
-3.242458706927184e-06 
-1.075118213309021e-05 
8.390651705065191e-06 
-1.743430191190282e-05 
-1.731192128733007e-05 
-3.106117367425252e-05 
-2.603386951719808e-05 
-2.910093287020164e-05 
-2.475553583175044e-05 
-2.216721496147936e-05 
-1.713780149325443e-05 
-2.787342783889348e-05 
-2.730299776997623e-05 
-2.516824059820866e-05 
-2.093119421762903e-05 
-1.830661784519042e-05 
-1.97229703461909e-05 
-1.387145280629679e-05 
-1.209098453983027e-05 
-1.612564794892009e-05 
-1.534985427608124e-05 
-1.456215599897174e-05 
-1.561995422802912e-05 
-1.674702951101655e-05 
-1.605212503298372e-05 
-1.762276758606284e-05 
-1.69285867087902e-05 
-1.553924960814384e-05 
-1.374452010467131e-05 
-1.189337016460788e-05 
-1.162655079754548e-05 
-1.192987038273504e-05 
-1.119700046061188e-05 
-1.187581028114831e-05 
-1.181470969633364e-05 
-1.139177013048837e-05 
-1.021748141509115e-05 
-9.690509118332854e-06 
-9.127346076490245e-06 
-9.497400176134704e-06 
-8.503678435559228e-06 
-8.587377668466988e-06 
-8.188932351401354e-06 
-7.177342434362269e-06 
-6.423188709955318e-06 
-6.647554410906673e-06 
-6.442410000492027e-06 
-6.94872163538866e-06 
-6.844458546955987e-06 
-6.162546449975157e-06 
-6.020604804685307e-06 
-5.900588464617819e-06 
-5.7354922415284e-06 
-5.399588208565521e-06 
-4.984094074290105e-06 
-4.595256861306115e-06 
-4.741663513163337e-06 
-4.228194438499971e-06 
-3.809835476550081e-06 
-3.867143132038254e-06 
-3.922441773330892e-06 
-3.707560876171918e-06 
-3.353485346196438e-06 
-3.453523476663016e-06 
-3.386643407508147e-06 
-3.088499805841937e-06 
-3.154963272855809e-06 
-2.862479299528617e-06 
-2.98467776227565e-06 
-2.913249398694261e-06 
-2.635524984108416e-06 
-2.430301011355625e-06 
-2.250077527798203e-06 
-1.898450112723144e-06 
-1.962810550602464e-06 
-1.929849406134432e-06 
-1.608360941232905e-06 
-1.536045164898739e-06 
-1.367229981951458e-06 
-1.258962376740113e-06 
-1.462306996610775e-06 
-1.415541189166417e-06 
-1.272200030756317e-06 
-1.197312944035794e-06 
-7.064539354416428e-07 
-2.922420663361472e-19 
-7.81530929834879e-05 
