solver_type L2R_LR
nr_class 2
label 0 1
nr_feature 105
bias 1
w
0 
0.0006978982395244168 
0.0002881484827894494 
-0.0001054507456497051 
-6.608928414752789e-05 
-0.0001656152119180514 
-0.0001424692010561615 
-0.0001372696837953886 
-0.0002859625500235828 
-0.0001888524958664796 
-0.0001593774495092153 
-0.0001603821486515258 
-0.0001680464824565411 
-0.0001061668511008737 
-8.699635352713781e-05 
-0.0001122872211985535 
-0.0001309132936944077 
-0.0001061769361290903 
-9.822857744790915e-05 
-0.0001074732672271058 
-9.39698423632105e-05 
-6.719069581082925e-05 
-7.077239232189523e-05 
-7.587569401929889e-05 
-7.657223157702326e-05 
-6.425201041413765e-05 
-6.554561644270482e-05 
-6.892459390331091e-05 
-5.561904786110944e-05 
-5.123878184407616e-05 
-5.747702295069166e-05 
-5.295427418282178e-05 
-5.158356403981102e-05 
-4.979666933079501e-05 
-4.345631038625311e-05 
-4.18316763754976e-05 
-3.635758909306204e-05 
-3.456056922492739e-05 
-3.534888373071705e-05 
-3.717603856608519e-05 
-4.055892403595128e-05 
-3.468501494322801e-05 
-3.524140303341607e-05 
-3.372078075879247e-05 
-2.864868576821359e-05 
-3.075978506087478e-05 
-2.975051271791665e-05 
-2.4142562795647e-05 
-2.196447544155585e-05 
-2.123104812076118e-05 
-1.982758045384054e-05 
-1.861848294982396e-05 
-1.764301686737568e-05 
-1.703729753528042e-05 
-1.632793968603187e-05 
-1.549710338883527e-05 
-1.434042162704238e-05 
-1.267730836239323e-05 
-1.306965996754029e-05 
-1.214022864644034e-05 
-1.128047254739475e-05 
-1.050907216075297e-05 
-1.000275001947498e-05 
-8.201123222316726e-06 
-8.830246355661416e-06 
-9.066547545702305e-06 
-9.055155482791547e-06 
-8.166349476407238e-06 
-7.783910693621144e-06 
-7.276715393520223e-06 
-7.569160558860227e-06 
-7.294289625117316e-06 
-6.704652659697254e-06 
-6.388350127734474e-06 
-6.039628359464511e-06 
-5.450227233983592e-06 
-4.901282503114427e-06 
-4.545079782824751e-06 
-4.415595380811869e-06 
-4.131352791734053e-06 
-3.560038048832977e-06 
-3.253044267014122e-06 
-3.423602671156908e-06 
-3.422905834005033e-06 
-3.099181019714664e-06 
-3.207815470165204e-06 
-3.033601860474102e-06 
-2.705389148140411e-06 
-2.424443206091033e-06 
-2.214286020548337e-06 
-2.002958840609468e-06 
-1.641428092436594e-06 
-1.175885367280099e-06 
-1.375238720072325e-06 
-1.258515995095459e-06 
-1.091844766454066e-06 
-1.188022843355758e-06 
-7.980571632759888e-07 
-5.81444573294322e-07 
-6.775560615889257e-07 
-6.872370947976647e-07 
-5.838305926564667e-07 
-2.485286999694175e-07 
5.597506314343805e-08 
-2.683943792755156e-19 
-6.069098473937991e-06 
