solver_type L2R_LR
nr_class 2
label 0 1
nr_feature 105
bias 1
w
0 
0.0002353147208133883 
0.0003729622253110824 
-5.054073547281506e-05 
-0.0001042767392193706 
-9.375267824963685e-05 
-0.0001846310484000045 
-0.0001919727692955075 
-8.9238729041784e-05 
-6.655084618768087e-05 
-1.352341984695725e-05 
-5.9604928759312e-06 
7.081371890583548e-06 
1.548826598896495e-05 
9.443987626765262e-06 
-2.546163338254671e-05 
-3.369375898061525e-06 
6.352822110481462e-06 
2.90873292967112e-05 
1.77442290991128e-06 
1.027489875368704e-05 
-6.797892906490565e-06 
-9.699184247024701e-06 
-2.171819023260572e-05 
-1.245906677427522e-05 
-7.495404053986775e-06 
-1.39015665456405e-05 
-1.070279144446578e-05 
-1.585899708864037e-05 
-1.313310797974971e-05 
-1.71717848291443e-05 
-1.481079421841362e-05 
-2.012796857784254e-05 
-2.159882468515017e-05 
-1.854125963336819e-05 
-1.365991227566762e-05 
-1.2435184456022e-05 
-7.972807713214324e-06 
-8.708178483880951e-06 
-9.90278239967151e-06 
-1.050112151565932e-05 
-1.415234392011253e-05 
-1.196163072874051e-05 
-1.32273431888895e-05 
-1.467183217148197e-05 
-1.169823690534042e-05 
-1.294439200035816e-05 
-1.176539713371059e-05 
-1.063717466268117e-05 
-8.271956414682258e-06 
-9.853988021477765e-06 
-9.031115676836637e-06 
-9.042740223858914e-06 
-8.617466284349584e-06 
-8.758425280839367e-06 
-8.381922202272857e-06 
-7.025647930193002e-06 
-7.72575595902958e-06 
-6.672807827839574e-06 
-6.039362843980677e-06 
-6.001606951031098e-06 
-5.697533128425163e-06 
-4.600776090970525e-06 
-5.061494828075726e-06 
-5.369198703866714e-06 
-5.410734656658004e-06 
-4.501852218478353e-06 
-4.737161144838556e-06 
-5.117074340155449e-06 
-4.276862387072202e-06 
-3.259949971124412e-06 
-3.592835551523059e-06 
-3.736365869894492e-06 
-3.523372841256445e-06 
-3.377168942855911e-06 
-3.498924447748057e-06 
-3.305144754016621e-06 
-2.515808930558053e-06 
-2.299076352482604e-06 
-2.33674918724439e-06 
-2.171055562134244e-06 
-2.093795375445251e-06 
-1.923309393166702e-06 
-1.840310350581969e-06 
-1.493541398676754e-06 
-1.209772489631065e-06 
-1.561724341027348e-06 
-1.263646896090397e-06 
-9.509729597518406e-07 
-9.003366062204753e-07 
-7.112063341725837e-07 
-5.932436062584251e-07 
-7.901786652391143e-07 
-8.192910885323863e-07 
-8.024276629248895e-07 
-9.109104818399386e-07 
-9.192213752146513e-07 
-8.698626283607768e-07 
-9.507046893091819e-07 
-7.072368303180357e-07 
-8.135936814984348e-07 
-6.129369822529481e-07 
-4.702686020445045e-07 
-2.484330253548554e-07 
-1.670778996342842e-19 
-4.935565717484471e-06 
