solver_type L2R_LR
nr_class 2
label 0 1
nr_feature 105
bias 1
w
0 
-0.0005737457834472038 
-0.0006477307687611254 
-0.0001293913997566788 
-0.0001556376521316768 
-6.879567725402242e-05 
-0.0001019801028183163 
-6.244160512067685e-05 
-2.777645306974256e-05 
1.062962837106613e-05 
-9.86942935004005e-06 
-6.255153000060746e-06 
-1.402611919147207e-05 
1.52157317636849e-05 
-6.485556422892872e-07 
-1.555953878478756e-05 
-3.072820010193295e-06 
-7.992199125786514e-06 
-2.413862768876443e-06 
-4.449419238292139e-06 
-4.998314039562774e-06 
7.968742418688207e-07 
9.238814299950955e-06 
4.844314609563274e-06 
4.724438777111707e-06 
7.204050279539868e-06 
5.71894217003736e-06 
1.041583127822305e-05 
1.115181385616473e-05 
1.268668801736525e-05 
8.524373187345326e-06 
1.156340549138792e-05 
1.00244315823172e-05 
1.067133836754621e-05 
1.243894588918857e-05 
1.152427030914011e-05 
9.556823627970609e-06 
6.788460789071641e-06 
8.167693307787459e-06 
6.642602276763956e-06 
5.151361016892254e-06 
5.691035190880906e-06 
4.871316292342281e-06 
5.212366048379719e-06 
5.526758834561264e-06 
5.206648174487543e-06 
2.832527751000045e-06 
3.158577799460059e-06 
3.169974099664573e-06 
3.02981593128061e-06 
3.087233350070838e-06 
3.042822468855321e-06 
3.536816310145372e-06 
3.577598870323828e-06 
2.396168304409536e-06 
2.187456742223193e-06 
1.880763849800821e-06 
2.121816899515315e-06 
2.031892073746744e-06 
1.726380849602528e-06 
1.78892903618106e-06 
1.759203966593211e-06 
1.252513741525222e-06 
1.419443705387142e-06 
1.470600277358068e-06 
1.218657318143907e-06 
1.15088315996277e-06 
1.560483998115047e-06 
1.325097191222169e-06 
1.436850061772925e-06 
1.496337053848213e-06 
1.305090048078111e-06 
1.509857739417388e-06 
1.286004295575673e-06 
1.323246219727954e-06 
1.246573802639785e-06 
1.300733116327175e-06 
1.280971589848079e-06 
1.324321621059724e-06 
1.04656734900851e-06 
1.14702936445449e-06 
1.40415232128399e-06 
1.320790153225976e-06 
1.211481324090525e-06 
1.05311726853339e-06 
1.019733243943392e-06 
1.019890263555533e-06 
8.508025374689748e-07 
9.038525147420175e-07 
9.801232169506279e-07 
1.095624509745791e-06 
7.321096820033231e-07 
6.981810160991808e-07 
8.20435712541691e-07 
8.796291931589666e-07 
5.591595572782214e-07 
6.889221301635203e-07 
5.506652622494643e-07 
4.927103991895102e-07 
4.916845393156332e-07 
2.848222408614017e-07 
3.219874658115893e-07 
2.822527855895546e-07 
3.027825795497654e-07 
1.802791974213394e-19 
1.773021060341013e-05 
