solver_type L2R_LR
nr_class 2
label 0 1
nr_feature 105
bias 1
w
0 
0.002570188332890581 
0.00220101771058079 
0.001201772980944444 
0.000214978973822836 
0.0001378864970663339 
8.075892101802128e-06 
6.551416154911386e-05 
-5.036915872583339e-05 
-3.373737143442317e-05 
-1.276089223519746e-07 
-3.340600025299873e-05 
-3.89989872997547e-05 
-1.532532948580316e-05 
-5.635814341813149e-05 
-6.788417007494027e-05 
-7.825069461522034e-05 
-8.81232801179603e-05 
-9.226675583824976e-05 
-7.613996349988488e-05 
-8.076457060335912e-05 
-7.253532614301056e-05 
-8.535996884368629e-05 
-8.768823387020541e-05 
-8.407343806347061e-05 
-8.380799242484302e-05 
-7.551055427782865e-05 
-7.357040286757603e-05 
-8.033000634241525e-05 
-8.103732448334719e-05 
-7.582247168206123e-05 
-8.000890586567838e-05 
-7.442354580662004e-05 
-7.285228131211427e-05 
-7.554126615596513e-05 
-6.88992801006016e-05 
-6.975338779259752e-05 
-6.630893741634068e-05 
-6.592988945589892e-05 
-6.359356419328785e-05 
-6.115527826151024e-05 
-5.696614610846822e-05 
-5.219094974925996e-05 
-4.814129406360303e-05 
-4.853074873941746e-05 
-4.832842432865182e-05 
-4.32856601277476e-05 
-4.233941177620756e-05 
-3.927780071859457e-05 
-3.821169911739977e-05 
-3.772907732792963e-05 
-3.640358708287762e-05 
-3.334472168929301e-05 
-3.310041365867318e-05 
-3.236450331585134e-05 
-3.044244188763587e-05 
-2.891030993795511e-05 
-2.760281440404767e-05 
-2.57823816342141e-05 
-2.381437979052422e-05 
-2.270436284243537e-05 
-2.158311311771957e-05 
-2.086601015571326e-05 
-2.028085312980733e-05 
-1.881285504901115e-05 
-1.811552755220682e-05 
-1.69032474180042e-05 
-1.580659056904344e-05 
-1.565555691112735e-05 
-1.510906434244653e-05 
-1.449080865028724e-05 
-1.366080623014318e-05 
-1.297556915556111e-05 
-1.236697608769114e-05 
-1.184526558296019e-05 
-1.150403510657371e-05 
-1.102298966166344e-05 
-1.104321157676619e-05 
-1.01343829520703e-05 
-9.246340434503097e-06 
-8.573153189661342e-06 
-8.48234493165744e-06 
-8.183594097663738e-06 
-7.955658319478021e-06 
-7.559691127203669e-06 
-6.998313136487182e-06 
-7.061927435138904e-06 
-6.509951411757658e-06 
-6.374398442056202e-06 
-5.941114544768235e-06 
-5.577166931115605e-06 
-5.420667861510869e-06 
-5.250132350023747e-06 
-4.687971681321105e-06 
-4.261355438165178e-06 
-4.041045198206397e-06 
-3.718995569329387e-06 
-3.410759142256694e-06 
-3.240165524034756e-06 
-3.115532153291044e-06 
-2.698340208582901e-06 
-2.7054810821999e-06 
-2.513972648051154e-06 
-2.022951626751048e-06 
-5.140582867474136e-19 
-0.0001045153542051534 
