solver_type L2R_LR
nr_class 2
label 0 1
nr_feature 105
bias 1
w
0 
0.002035068686003923 
0.001681903014292146 
0.00113485731275542 
0.0003777757493813842 
0.0002660138067694011 
0.0002004931884745582 
0.0002795038939763498 
0.0001375053036795024 
0.000106253897005341 
6.898237997719192e-05 
6.156736300316669e-05 
4.492227259931653e-05 
2.373966165223059e-05 
5.608087230796828e-06 
1.55441907432429e-05 
-9.207837357156048e-06 
-4.026780046166737e-05 
-2.673007685120158e-05 
-2.206766165835308e-05 
-2.117145847856392e-05 
-2.488623944692905e-05 
-3.450090317423906e-05 
-4.399384112783298e-05 
-3.139535764059108e-05 
-3.778669976277613e-05 
-2.854120749860074e-05 
-2.450846443496982e-05 
-2.779782077440582e-05 
-2.774712786178975e-05 
-2.632452930796369e-05 
-3.24708579594351e-05 
-3.600453663981947e-05 
-3.432350330785645e-05 
-3.290417816518114e-05 
-2.921427907517024e-05 
-2.906620313687051e-05 
-2.505580611299747e-05 
-2.480676798180392e-05 
-2.572012611272888e-05 
-2.39589164948785e-05 
-2.270847983946913e-05 
-2.259180773708208e-05 
-1.799966526155756e-05 
-2.185734193237116e-05 
-2.31189482088386e-05 
-2.064892967933097e-05 
-1.989246105666256e-05 
-1.729752894157701e-05 
-1.752538822360424e-05 
-1.702464063913675e-05 
-1.735048812132513e-05 
-1.578407389422456e-05 
-1.45447139005749e-05 
-1.349957388364521e-05 
-1.312797367248375e-05 
-1.21091102797985e-05 
-1.219396292686347e-05 
-1.179868106689869e-05 
-1.064361531399001e-05 
-1.101117798054738e-05 
-1.008983179473916e-05 
-9.930810585610667e-06 
-8.763249786577606e-06 
-8.362784851633373e-06 
-8.644200966663691e-06 
-8.299758478406229e-06 
-8.041073607888491e-06 
-7.894057412284412e-06 
-7.589796180382548e-06 
-7.484178309131004e-06 
-6.825421025104053e-06 
-6.539446334051991e-06 
-6.379691873386397e-06 
-6.063201599987247e-06 
-5.971783250126539e-06 
-5.449116978118286e-06 
-5.593082307345369e-06 
-5.29149418713693e-06 
-5.005212022975484e-06 
-4.979039502734184e-06 
-4.951307394149709e-06 
-4.850093204174948e-06 
-4.54585303390172e-06 
-4.62932205867105e-06 
-4.017649853970235e-06 
-4.147418596358366e-06 
-3.779595934355523e-06 
-3.778641456350311e-06 
-3.327460797047397e-06 
-2.981160577890792e-06 
-2.937605587853314e-06 
-2.845490028660437e-06 
-2.769458842830613e-06 
-2.550209654494906e-06 
-2.38903902980522e-06 
-2.424508005623162e-06 
-2.269752945489806e-06 
-2.114241476936215e-06 
-2.273817958836816e-06 
-1.710713467190948e-06 
-1.716634429305483e-06 
-1.536992340340096e-06 
-1.243926860091473e-06 
-2.798936436901757e-19 
-9.717314836949563e-05 
