solver_type L2R_LR
nr_class 2
label 0 1
nr_feature 105
bias 1
w
0 
-0.001833136666891994 
-0.001515370034309426 
-0.000786542265623549 
3.321090536657992e-05 
6.816861690959764e-05 
1.512076433854103e-05 
6.35080472566013e-05 
6.057031028168514e-06 
5.673701984482031e-05 
6.903859560339473e-05 
5.95531258198602e-05 
2.03576877454423e-05 
3.576093178066779e-05 
5.722726435419508e-05 
7.449150527988445e-05 
5.481281418781204e-05 
5.277294302559251e-05 
4.164239779801538e-05 
3.749984392003206e-05 
5.501000410405941e-05 
7.112611835861034e-05 
5.390530464202618e-05 
4.715329915687389e-05 
4.286936539582537e-05 
4.35371646622691e-05 
4.719556162410273e-05 
5.111860525587734e-05 
6.203983725189763e-05 
6.094194101322409e-05 
6.340987641511057e-05 
6.081057667567898e-05 
5.977822965019905e-05 
6.273692716299974e-05 
6.646026910210885e-05 
6.161219434981061e-05 
5.905581607229294e-05 
5.564584076157618e-05 
5.247557465281812e-05 
5.173823727122587e-05 
4.858338150540579e-05 
4.705847539252582e-05 
4.396910177419603e-05 
4.42828529767581e-05 
3.935887292092653e-05 
3.745415557641678e-05 
3.797474766470909e-05 
3.477647941335359e-05 
3.203275447400212e-05 
3.121333742850616e-05 
3.058200467894221e-05 
2.851602523149235e-05 
2.690637278400541e-05 
2.531806746493809e-05 
2.360069559413034e-05 
2.232469378012811e-05 
2.076235959648513e-05 
2.028404161089009e-05 
1.964768299146424e-05 
1.864235654794048e-05 
1.749249789811387e-05 
1.705182428378437e-05 
1.580096230361477e-05 
1.577804904666954e-05 
1.451625718487337e-05 
1.404647677385284e-05 
1.306047123193459e-05 
1.190778350484036e-05 
1.155693894286568e-05 
1.128843176726541e-05 
1.041770558903964e-05 
9.829058979482929e-06 
9.266921718591397e-06 
9.152886823026611e-06 
8.691628797099662e-06 
8.399341538689839e-06 
8.046673643692253e-06 
7.569014490114021e-06 
7.191115905775315e-06 
6.906711471729873e-06 
6.18570635326075e-06 
5.826539778929462e-06 
5.671030539056207e-06 
5.525293370323184e-06 
5.396275719162688e-06 
5.217126934442502e-06 
4.474190384101094e-06 
4.513711772435117e-06 
4.30161371172756e-06 
4.174406473138984e-06 
3.773419293513206e-06 
3.438290986280352e-06 
3.116767628303535e-06 
2.951277254860998e-06 
2.871191834296129e-06 
2.585325113610853e-06 
2.353712446907667e-06 
2.205278574409904e-06 
2.133301134764104e-06 
1.97036219639207e-06 
1.635251487654741e-06 
1.539230618565948e-06 
1.500485380743633e-06 
9.895894725822879e-07 
5.208819393211975e-19 
7.150406918855602e-05 
