solver_type L2R_LR
nr_class 2
label 0 1
nr_feature 105
bias 1
w
0 
-0.00155190654241676 
-0.001721454629220706 
-0.001112830102854146 
-0.0001894886675917079 
-0.0001980389795052259 
-0.0001800406399616456 
-0.0001228117566535083 
-0.0001019464251166252 
-8.111924192408143e-05 
-2.938297610515243e-05 
-2.281872842984862e-05 
-1.810314310212242e-05 
-8.734772314143571e-06 
-1.256240247324518e-05 
6.610248667213577e-06 
-9.879405035740178e-06 
-1.354519963074093e-06 
-1.892459132002459e-06 
2.682680262955614e-07 
1.618205503606862e-05 
2.513929629255264e-05 
1.927729120584076e-05 
2.115180306392313e-05 
1.641778882069647e-05 
2.641626509136554e-05 
3.137644580667104e-05 
3.202948797652428e-05 
3.924265765405834e-05 
4.12909778759956e-05 
3.827925495942849e-05 
3.929197885666773e-05 
3.627086538720465e-05 
4.318837888307772e-05 
4.493142767846436e-05 
3.88412469687272e-05 
3.540560609016559e-05 
3.349397744292759e-05 
3.220047534527134e-05 
3.108249255433425e-05 
2.779549757382403e-05 
2.941174784399153e-05 
2.576420909431353e-05 
2.789388898993804e-05 
2.297626690080231e-05 
1.998299233019187e-05 
2.157129249569433e-05 
1.844998484203488e-05 
1.773227430965714e-05 
1.698273073009592e-05 
1.587330865163514e-05 
1.451467963097476e-05 
1.449480124611316e-05 
1.328084047652147e-05 
1.223763006346775e-05 
1.120063527617918e-05 
1.087365068102999e-05 
1.022899725274193e-05 
1.006922900392742e-05 
9.527034973427324e-06 
8.781037862755504e-06 
9.242256953741081e-06 
8.432719763811208e-06 
8.821369534811433e-06 
8.229657540906708e-06 
7.768394098731302e-06 
7.393649360077156e-06 
6.807040283406782e-06 
6.69522988143578e-06 
6.597929264116806e-06 
6.012605040716809e-06 
5.715185757267943e-06 
5.211357659847654e-06 
4.961684237818637e-06 
4.870725913810367e-06 
5.025721615263284e-06 
4.678533286794705e-06 
4.708465604384011e-06 
4.390966633847116e-06 
4.402229623924502e-06 
4.009938070777187e-06 
3.826872135748687e-06 
3.617702619855383e-06 
3.345355171868138e-06 
3.273914055443569e-06 
3.072264843339573e-06 
2.95628072831399e-06 
2.728464617892112e-06 
2.836366915963488e-06 
2.689321286159753e-06 
2.428801452406781e-06 
2.262096499769912e-06 
2.171059990620415e-06 
2.041696549252686e-06 
1.932965743256944e-06 
1.960015060194654e-06 
1.67849885322567e-06 
1.439913333516202e-06 
1.480428746066073e-06 
1.452019178997117e-06 
1.073858285569634e-06 
1.053232974892955e-06 
9.021532655321125e-07 
5.577955074119492e-07 
3.923367629914978e-19 
8.163947871257403e-05 
