solver_type L2R_LR
nr_class 2
label 0 1
nr_feature 105
bias 1
w
0 
0.0004026654909770946 
0.0006564900281952562 
0.001162590278791642 
0.0003751632681059715 
0.0004577865344131394 
0.0003372926292926271 
0.0003538166467451688 
0.0002867424181079235 
0.0002191033738219758 
0.0002073241172053297 
0.0001723205750652248 
0.0002114143172666985 
0.0001963717621288649 
0.0001997203857672982 
0.0002209369496956353 
0.0001980617907772741 
0.0002041040745734602 
0.0001832104014330575 
0.0001877603422187726 
0.000170198560988168 
0.0001823665436094046 
0.0001590524967545062 
0.0001455755834870731 
0.0001423011951940875 
0.0001321064819044862 
0.0001254731853880206 
0.0001167050570396381 
0.0001133869416558734 
0.0001102572219928184 
0.0001002714425960817 
9.993255091117617e-05 
8.859242905239966e-05 
8.978024728313102e-05 
8.281707135241461e-05 
8.045723499620372e-05 
7.445404370353489e-05 
7.540335624810984e-05 
6.93222936220372e-05 
6.623022594127769e-05 
6.017136693360825e-05 
5.635803300863148e-05 
5.477574205893743e-05 
4.997222106072735e-05 
4.835837919161854e-05 
4.436986623295728e-05 
4.188573788547238e-05 
3.919273204662737e-05 
3.694159320489797e-05 
3.356837553718734e-05 
2.987997630165536e-05 
2.807062483886025e-05 
2.716972976411823e-05 
2.544795097387728e-05 
2.489397182058825e-05 
2.303944920019785e-05 
2.164296569630801e-05 
2.027032007347965e-05 
1.928617268024664e-05 
1.787515565875086e-05 
1.683301113950756e-05 
1.568607181355442e-05 
1.44461456439206e-05 
1.361744939858317e-05 
1.353363645082598e-05 
1.265908549583375e-05 
1.214520670438106e-05 
1.083352853752116e-05 
1.038051849632643e-05 
1.056921086834948e-05 
9.628789674536954e-06 
9.111168578565024e-06 
9.330725927874014e-06 
8.361154110618489e-06 
7.79865566009362e-06 
6.956167108038001e-06 
6.653249519584323e-06 
6.609547904403457e-06 
6.131052026028671e-06 
5.937460584992293e-06 
5.500093471647501e-06 
4.935721616880385e-06 
4.734422579737765e-06 
4.376978256933575e-06 
4.054019345440527e-06 
3.791494863241733e-06 
3.580366606115443e-06 
2.945094982250081e-06 
3.048611870078749e-06 
2.839267871250831e-06 
2.796679235094797e-06 
2.661260474075193e-06 
2.537894358407251e-06 
2.165737345872243e-06 
2.119648443149257e-06 
2.019194411515679e-06 
1.700527925108022e-06 
1.589850733583127e-06 
1.49357303104983e-06 
1.395112541553438e-06 
1.08486554811157e-06 
9.632485105730461e-07 
9.653275346142188e-07 
6.175868440002475e-07 
1.77528266419767e-19 
-6.372304598915083e-05 
