solver_type L2R_LR
nr_class 2
label 0 1
nr_feature 105
bias 1
w
0 
-0.0014221225324867 
-0.001667976102603295 
-0.0007470312870722391 
3.877583845697381e-05 
5.043336713886094e-05 
0.0001505845107683616 
7.716896244035901e-05 
8.940520794741958e-05 
0.0001649341070010456 
0.000144629718725441 
0.0001714473396381716 
0.0001202969390232959 
0.0001224745112206331 
0.0001309661735288081 
0.0001348711502884662 
0.0001548239338952747 
0.0001276413188071657 
0.0001124052905589686 
0.0001063787160841585 
9.899688422171505e-05 
8.585897838862023e-05 
8.503747901600275e-05 
8.234160092613504e-05 
8.017171533393987e-05 
7.848389647945418e-05 
8.199882126396322e-05 
8.362942755567229e-05 
8.334944826690235e-05 
7.912793724407295e-05 
7.317704330493625e-05 
7.785123510959671e-05 
7.633315808592922e-05 
7.287804119081927e-05 
6.88949668120817e-05 
6.593314209896429e-05 
6.702540496498894e-05 
5.956699262862778e-05 
5.912391232491524e-05 
5.658867090274567e-05 
5.080869611480105e-05 
4.95866118090694e-05 
4.668510358244127e-05 
4.1583749728831e-05 
3.829354641714374e-05 
3.83571880897183e-05 
3.54428652880924e-05 
3.33458239709832e-05 
3.264531873106733e-05 
3.12316178830551e-05 
2.799881574613777e-05 
2.596463149200211e-05 
2.48408602831404e-05 
2.468852468202361e-05 
2.367464652401628e-05 
2.177474905638226e-05 
2.040159327368358e-05 
1.931637019978596e-05 
1.828780297762866e-05 
1.742178559636422e-05 
1.665626556768683e-05 
1.602032601718067e-05 
1.4912935580962e-05 
1.446872537535584e-05 
1.364986407886382e-05 
1.298115609316677e-05 
1.231938635301739e-05 
1.180696592622547e-05 
1.116254078631654e-05 
1.034864387063184e-05 
1.070562091128585e-05 
9.608411893089315e-06 
9.470651892818834e-06 
9.039033175835066e-06 
8.591819807045997e-06 
8.211654371412842e-06 
7.405155308904507e-06 
7.357839929389104e-06 
6.834524732322689e-06 
6.75414754063612e-06 
5.896133115119877e-06 
5.821888230790315e-06 
5.600006072397373e-06 
5.579299080344094e-06 
5.251968639415561e-06 
4.959015024194724e-06 
4.743656672601924e-06 
4.380050707355362e-06 
4.100985582275974e-06 
3.625452676979262e-06 
3.46237189635086e-06 
3.355630658424649e-06 
3.055445288289427e-06 
2.81393206466923e-06 
2.638891782456412e-06 
2.293973801609273e-06 
2.264787842191306e-06 
1.939304529501801e-06 
1.858348345386237e-06 
1.984701315669514e-06 
1.434272349957877e-06 
1.467235074559576e-06 
1.209288084781802e-06 
7.845960914268228e-07 
4.269155733958819e-19 
6.488998162553941e-05 
