solver_type L2R_LR
nr_class 2
label 0 1
nr_feature 105
bias 1
w
0 
0.0009185156562295076 
0.0005489368725519504 
0.0006196918050092114 
0.0002353958354177685 
0.0003086235258046184 
0.0002026693675683594 
0.0001826790895871847 
0.0002076666923781576 
0.000136185094359551 
9.450026631925192e-05 
0.0001135086752428586 
9.84895785164568e-05 
4.686522286360006e-05 
4.014532736958024e-05 
5.066973093245229e-05 
7.965811997680962e-05 
5.839073110786463e-05 
6.943951449372217e-05 
6.097612819571151e-05 
5.861432167588831e-05 
4.435146115051331e-05 
3.725448859009796e-05 
5.58482450275922e-05 
4.411376768024759e-05 
5.902718487355484e-05 
5.528011142709476e-05 
5.939461770113031e-05 
4.98556681272774e-05 
4.534977009127666e-05 
3.894416280713424e-05 
3.435851042953871e-05 
3.442004207023562e-05 
3.2043173707239e-05 
2.776839594206527e-05 
2.703338080767591e-05 
2.354071594562439e-05 
2.440668611568465e-05 
2.553945780926492e-05 
2.759015671454146e-05 
2.284671386859296e-05 
2.10505781923282e-05 
1.793597738835018e-05 
1.620222864125696e-05 
1.310261880250632e-05 
1.183220206913369e-05 
1.685040402690206e-05 
1.410619371106975e-05 
1.266457218171207e-05 
9.715902333371501e-06 
9.796828676055573e-06 
8.042216334905466e-06 
9.410372615128242e-06 
7.415037158961725e-06 
6.006585195594775e-06 
6.352270817483139e-06 
6.372262577671285e-06 
7.002677602815201e-06 
5.920264481220086e-06 
5.918115021013632e-06 
5.253143604037771e-06 
5.246085814327244e-06 
4.261698251586983e-06 
4.333731457974839e-06 
3.99766029132242e-06 
3.518092829852192e-06 
3.346358880230268e-06 
2.962146538491715e-06 
2.839370087336236e-06 
2.711615784371395e-06 
2.423754793529051e-06 
2.209853598821879e-06 
2.720704054114438e-06 
2.054845255055547e-06 
1.998543903901784e-06 
1.584026856998754e-06 
1.682141994927154e-06 
1.608849678632169e-06 
1.302715008740222e-06 
1.256151700499855e-06 
1.143166637751795e-06 
8.47920579046925e-07 
1.299076132051313e-06 
9.181573812679548e-07 
8.705260155056916e-07 
8.321054811697039e-07 
9.172550190954074e-07 
3.647268685347914e-07 
2.733331605471328e-07 
1.407270019041128e-07 
-1.678083866284569e-07 
-2.299008768171221e-07 
3.297944653217125e-08 
-9.847716199972034e-08 
-1.486216103126661e-07 
3.328200475414804e-08 
-3.57238467933996e-08 
-2.679722159312061e-07 
-3.662755842773236e-07 
-2.212902006735088e-07 
-2.59983294162676e-07 
-2.864670508654749e-07 
-3.685545980816316e-07 
-3.139761609599835e-07 
7.105542773969307e-21 
-5.236574469238616e-05 
