solver_type L2R_LR
nr_class 2
label 0 1
nr_feature 105
bias 1
w
0 
-0.0010661768532684 
-0.0007512913155124744 
-0.0005436672886150654 
-1.305146658820276e-05 
-1.7913207064036e-05 
2.486223406616076e-05 
2.345596794594331e-05 
8.615884482411858e-05 
5.978273594794169e-05 
0.0001612775681187196 
0.0001705217458080014 
0.0001545217126708894 
7.283710238842339e-05 
5.77891891908464e-05 
8.673839305708655e-05 
8.115749690658062e-05 
6.097665441058573e-05 
7.366796202445336e-05 
5.17856126213918e-05 
5.396344013954014e-05 
2.74763637136221e-05 
4.121015607324921e-05 
2.334817191587864e-05 
2.57083149182588e-05 
3.112388829764477e-05 
1.795078706605922e-05 
2.517919880231764e-05 
1.598266029254615e-05 
1.495744748651815e-05 
9.396831768592886e-06 
1.311047352040395e-05 
8.892367687415029e-06 
1.058789000550277e-05 
7.441041533148272e-06 
3.031987907021323e-06 
3.178265848018027e-06 
5.676122737338909e-06 
8.001155708236688e-06 
9.886196066683144e-06 
8.888075928043424e-06 
5.499504794605351e-06 
1.40476515023602e-06 
3.042685016802744e-06 
-1.494279649711976e-06 
-1.906839277108578e-06 
-2.22211836015326e-07 
-2.495137624478819e-06 
-2.885680754315514e-06 
-1.842538183009169e-06 
-1.739992820547809e-06 
-2.161547711678215e-06 
-1.550117998859901e-06 
-2.650771018058099e-06 
-2.506595063387619e-06 
-1.782372226831697e-06 
-1.563622988871097e-06 
-2.525884642643535e-06 
-1.436299438060799e-06 
-2.07913188169467e-06 
-2.039443481581023e-06 
-7.634851871558976e-07 
-9.206805102292981e-07 
-7.747192433043567e-07 
-1.596918222577802e-07 
-7.408535576203251e-08 
3.286739489576288e-07 
4.399970279164184e-07 
9.569615798174041e-08 
3.583270638181225e-07 
4.267540317806845e-07 
7.271802187923772e-07 
5.202496460763845e-07 
4.861401883759922e-07 
-7.379911154149926e-08 
-1.180570613892098e-07 
8.052295759338805e-08 
2.639472043662242e-07 
5.853651475596826e-08 
3.487818167685681e-08 
1.964171163815066e-07 
4.534783044192309e-08 
2.590230082039451e-07 
7.775823022410025e-07 
7.449743675343602e-07 
7.81431985227489e-07 
8.056715339020726e-07 
6.689559892813047e-07 
7.328580182144224e-07 
5.126101148129076e-07 
4.344009901466234e-07 
4.649508377568089e-07 
1.918314645785338e-07 
3.023603236329069e-07 
3.273709070551943e-07 
8.2832453507403e-08 
5.012870090283168e-07 
4.025021958760245e-07 
2.141159690390735e-07 
3.506477917158078e-07 
3.865796214776475e-07 
4.260614413176023e-07 
3.656185031294487e-07 
5.352625891262173e-07 
2.101471480570164e-19 
3.726392136155865e-05 
