solver_type L2R_LR
nr_class 2
label 0 1
nr_feature 105
bias 1
w
0 
0.001038429646807508 
0.0007209823640980213 
0.000524165972042258 
0.0003073528696145067 
0.0001731372625148435 
0.0001758133868539225 
0.0001471185038159438 
0.000151670496287313 
0.0001254752157835758 
9.684567561228343e-05 
8.261570407711946e-05 
3.357408984259087e-05 
3.312773803724613e-05 
5.745164595904515e-05 
2.565616494240746e-05 
2.940379119542251e-05 
2.27626876753494e-05 
1.347624301728899e-05 
6.046104876011292e-06 
1.324276353131766e-05 
1.280789711537116e-05 
6.864686705275765e-06 
1.116171476156089e-05 
9.052497271106957e-06 
8.795634223231773e-06 
5.334204294362867e-06 
1.417306653693067e-06 
3.684889576788667e-06 
5.406393233197451e-06 
2.03107017269922e-06 
-2.719167559326219e-06 
-2.844709661506367e-07 
1.159512370321228e-06 
3.060675961459465e-06 
1.524601744672204e-06 
6.071441987249386e-06 
4.686789337219494e-06 
4.816066772221954e-06 
4.080983695868666e-06 
2.165118663181643e-06 
3.501496021553374e-06 
4.672904985193913e-06 
1.87859675995118e-06 
2.738586324453182e-06 
1.946920305643507e-07 
-4.60947274690529e-07 
-9.32222575435665e-07 
-3.90363110443626e-06 
-4.760689773219516e-06 
-5.372004616279624e-06 
-3.748186925104391e-06 
-4.26122985554751e-06 
-4.8659970867341e-06 
-4.342439309990067e-06 
-4.034028830763841e-06 
-4.838964373796851e-06 
-4.277468967269013e-06 
-3.940035490773002e-06 
-2.680045733629827e-06 
-2.230587610951336e-06 
-2.245527173225871e-06 
-2.907266591293689e-06 
-2.761418495053766e-06 
-3.292113891407525e-06 
-3.422432330427645e-06 
-3.00312239719351e-06 
-3.005769325429214e-06 
-2.701330762135299e-06 
-2.67496178219634e-06 
-2.126355811238901e-06 
-2.20298964916678e-06 
-2.169500815769506e-06 
-2.274635416628344e-06 
-1.847544705362631e-06 
-1.99471977010444e-06 
-1.707535966604431e-06 
-1.602507751920434e-06 
-1.419084346338816e-06 
-1.715114500734891e-06 
-1.422764104023776e-06 
-1.701685070580523e-06 
-1.548990138100031e-06 
-1.427441710191937e-06 
-1.373775497742763e-06 
-1.090661900481409e-06 
-1.146849535037274e-06 
-1.294524509667519e-06 
-7.97539069769301e-07 
-6.125211586699093e-07 
-7.333792966212476e-07 
-4.712848386538049e-07 
-5.925865501725334e-07 
-5.398545361827427e-07 
-5.381316831907031e-07 
-5.199522502121774e-07 
-3.689291609803437e-07 
-5.819197289260298e-07 
-6.514480253784516e-07 
-5.06356104598599e-07 
-6.50711154529343e-07 
-4.847711342697937e-07 
-3.122626486332717e-07 
-2.24179821855277e-07 
-9.722834547097089e-20 
-5.183018788963962e-05 
