solver_type L2R_LR
nr_class 2
label 0 1
nr_feature 105
bias 1
w
0 
-0.0008092015551460858 
-0.0006566748147682032 
-0.0004147761842139399 
0.0001865712691232644 
0.0002099767158691085 
0.0002020274562039822 
0.000236540793134169 
0.0002460834840673877 
0.0002108960930398446 
0.0002044283941888199 
0.0002418161270323903 
0.0002196702646935748 
0.0002003421290283549 
0.0001872788790167972 
0.0001730307942230728 
0.0001505379728650131 
0.0001328743074401343 
0.000132761475085745 
0.0001286557900271518 
0.0001192538777241018 
0.000100657256349286 
9.795610983523965e-05 
0.0001021021836994168 
8.392133148705441e-05 
9.99289513397751e-05 
8.836191355652552e-05 
9.135820101868545e-05 
8.232071336966995e-05 
8.20953850489155e-05 
7.158408988643071e-05 
5.943074854164779e-05 
5.532641773663308e-05 
5.422812569901191e-05 
5.29657427043884e-05 
5.082588714325307e-05 
5.118984835034656e-05 
4.822937689508315e-05 
4.913799540461574e-05 
4.406394552199116e-05 
4.184377180139357e-05 
4.18956722270377e-05 
3.709298428701555e-05 
3.309234193968615e-05 
3.366453276187464e-05 
3.180045130343848e-05 
2.829382410636638e-05 
2.516348842249564e-05 
2.177679281425051e-05 
2.021981216849649e-05 
1.881024035627217e-05 
1.795750076735797e-05 
1.77340081706309e-05 
1.671087882188244e-05 
1.584460727127629e-05 
1.507848291165163e-05 
1.307711299314179e-05 
1.34036476711073e-05 
1.288214502314859e-05 
1.266772060035258e-05 
1.12280856027329e-05 
1.141695083229287e-05 
1.091021707733025e-05 
9.894861710943407e-06 
9.559518878896488e-06 
9.395384446915243e-06 
8.957754743490478e-06 
8.485712637633193e-06 
7.651745423072858e-06 
7.251975906946784e-06 
7.770295026731251e-06 
7.337282539031584e-06 
6.620139250324492e-06 
5.868020498441898e-06 
6.117824658940603e-06 
5.713239183828279e-06 
5.700021947860993e-06 
5.494205089165237e-06 
5.084872572063436e-06 
5.05690483096884e-06 
4.505425971368583e-06 
4.744868683222815e-06 
4.408893235273715e-06 
4.215220503058804e-06 
3.801659158552823e-06 
3.756712441368706e-06 
3.688872071681319e-06 
3.664355287420762e-06 
3.494407225442926e-06 
3.392583543331254e-06 
3.20637835128825e-06 
3.511307477448103e-06 
3.145359361508849e-06 
2.965884776305793e-06 
2.55252906221358e-06 
2.551905295891284e-06 
2.25873886799116e-06 
1.97289524982674e-06 
1.88661234819866e-06 
1.688507175932257e-06 
1.381323698280243e-06 
1.546000862406003e-06 
1.472973832374723e-06 
9.241549470531345e-07 
3.063683861718193e-19 
1.728527775927054e-05 
