solver_type L2R_LR
nr_class 2
label 0 1
nr_feature 105
bias 1
w
0 
-0.0005225836091949319 
-0.0006330621153526785 
-0.0004639801168725096 
0.0002121937084895749 
0.0001409735045349708 
0.0001688600765256335 
0.0001896233784229568 
0.0001638599394875166 
0.000170622534137133 
0.0001915397018377019 
0.0001715737957428801 
0.0001572172100980044 
0.000142757295338713 
0.0001272657032899266 
0.0001241460840572742 
0.0001003731747966096 
9.981604563168981e-05 
0.0001002817064756221 
0.0001014395445883228 
9.266272746575991e-05 
9.761394961619263e-05 
7.56472332374468e-05 
8.318206852868692e-05 
6.823334664347281e-05 
6.734514569833561e-05 
6.853949408298209e-05 
6.825693600768102e-05 
7.112362734565869e-05 
7.168941672327185e-05 
6.502684917609276e-05 
5.567990790749681e-05 
5.144013486283962e-05 
5.45958579370411e-05 
4.717367074922622e-05 
4.406746003473268e-05 
4.721411359066166e-05 
4.186748635545667e-05 
4.280987274072331e-05 
4.110465822859482e-05 
3.900203484681335e-05 
3.840245254492159e-05 
3.423028003956258e-05 
3.116067537460851e-05 
3.186844322424986e-05 
2.959136441683715e-05 
2.802342403105753e-05 
2.503266914477105e-05 
2.286400624161744e-05 
2.284426843568153e-05 
2.071541103431559e-05 
2.024100628070642e-05 
1.986206216768884e-05 
1.919005985109229e-05 
1.831454109782983e-05 
1.724673640855219e-05 
1.544049341769704e-05 
1.510256546807319e-05 
1.445626236539257e-05 
1.347991106115777e-05 
1.210567161658046e-05 
1.166446126644649e-05 
1.061681518181573e-05 
9.945144075107886e-06 
9.88578390254413e-06 
9.476646577771171e-06 
9.157290465640902e-06 
8.802416841828283e-06 
8.397181339061967e-06 
7.762882014202393e-06 
7.515294101814229e-06 
7.11722206921448e-06 
6.285291031406245e-06 
6.026448835364822e-06 
6.134572801223301e-06 
5.650749054346864e-06 
5.51256050239911e-06 
5.457726818097266e-06 
5.145785926279873e-06 
4.865507899364888e-06 
4.537408022651671e-06 
4.478607444716502e-06 
4.265043919777074e-06 
4.092808328447135e-06 
4.065843874392762e-06 
3.734448718392053e-06 
3.74092453444898e-06 
3.576907130776865e-06 
3.167324657180399e-06 
2.946479479616601e-06 
2.974676677215297e-06 
2.804892227071481e-06 
2.596015077502223e-06 
2.394400017988827e-06 
2.266808719828932e-06 
2.078330139273689e-06 
1.909665399288795e-06 
1.693996805334779e-06 
1.48543577092703e-06 
1.214128732196102e-06 
1.051651845581395e-06 
1.09421909338404e-06 
1.260203917280852e-06 
6.841193814359739e-07 
2.311901561045307e-19 
1.439673559891526e-05 
