solver_type L2R_LR
nr_class 2
label 0 1
nr_feature 105
bias 1
w
0 
-0.0005962419496897838 
-0.0006295394807870745 
-5.295223437445634e-05 
-4.663240486284733e-05 
-1.011257693885302e-05 
-2.592183198314381e-05 
-1.658438656948599e-05 
3.837686222976883e-05 
3.602067860981554e-05 
4.019023703549888e-05 
8.931830639472418e-06 
-2.222176822914036e-05 
1.757997521662212e-05 
2.585500812666171e-05 
1.605917293838347e-05 
1.823924916929849e-06 
2.11833246132183e-05 
2.00940280675382e-05 
1.610575133850686e-05 
2.907717618348009e-05 
2.789871280578936e-05 
3.508638013485446e-05 
8.655810652136367e-06 
9.393108864335134e-06 
1.493778455272365e-05 
3.116857979127285e-05 
2.645484948438819e-05 
2.337686940487322e-05 
1.856158386610197e-05 
2.722575325756683e-05 
2.570330275978534e-05 
2.593968940679382e-05 
2.434230922908122e-05 
2.688848106547666e-05 
2.397005243847565e-05 
2.596435044765668e-05 
2.986009670355205e-05 
2.595722269382897e-05 
2.323571787170801e-05 
1.980122944427018e-05 
2.20416670574792e-05 
1.910581948955696e-05 
1.697160706135005e-05 
1.578843420734678e-05 
1.484989598899672e-05 
1.458645909179495e-05 
1.594796441845334e-05 
1.487518420140288e-05 
1.370524042087727e-05 
1.178080973727598e-05 
1.31925280837247e-05 
1.261676667178175e-05 
1.133907372501975e-05 
1.084364933571161e-05 
1.014138536710715e-05 
9.684054259057922e-06 
8.606418018014323e-06 
7.543532155738343e-06 
8.138094216636323e-06 
7.772941273055301e-06 
7.279569930177172e-06 
6.448316406003093e-06 
5.965142528728999e-06 
6.526617559125762e-06 
5.672038102358727e-06 
5.425459619534381e-06 
5.117269884801618e-06 
4.413136731006103e-06 
4.109229341021964e-06 
4.131217764641297e-06 
3.950958681166935e-06 
3.999250991280625e-06 
3.568191233012857e-06 
3.458354265522361e-06 
3.360336103287081e-06 
3.363104934963575e-06 
3.177037145903022e-06 
3.278173363461861e-06 
2.820626763034736e-06 
2.611320017674764e-06 
2.371979410475894e-06 
2.287614960423011e-06 
2.186648366214714e-06 
2.094497734972499e-06 
2.111418933070433e-06 
2.100916098672128e-06 
1.583148517685359e-06 
1.472181809155198e-06 
1.32630133358292e-06 
1.411583877177661e-06 
1.263023301716596e-06 
1.309605782528155e-06 
1.260400132144169e-06 
1.074160423963566e-06 
1.077175157661734e-06 
9.801649676686972e-07 
8.274007071668021e-07 
8.128879939338279e-07 
7.335939754958611e-07 
7.093346565652862e-07 
6.220418942207326e-07 
4.974981963264073e-07 
6.096738186067604e-07 
3.146292793901931e-19 
1.673009217028915e-05 
