solver_type L2R_LR
nr_class 2
label 0 1
nr_feature 105
bias 1
w
0 
0.0006906226729065486 
0.0007831316427828648 
0.0004297325773974673 
0.0003199970081432313 
0.0003661967397870645 
0.0002673170555848982 
0.0003335560632806149 
0.0002748372963738883 
0.0002533596259758025 
0.0001839278387166037 
0.0001921990235377738 
0.0001718242392969753 
0.000173241527995976 
0.0001374154686819003 
0.0001079076257851039 
0.0001121182601973893 
9.093580765040211e-05 
8.459731142166214e-05 
6.970122366908904e-05 
8.382785380459427e-05 
8.115796820444909e-05 
7.904949877009957e-05 
4.91088774946335e-05 
5.88595032985938e-05 
4.526123254961336e-05 
3.383041105015323e-05 
3.22879033848487e-05 
3.564330093832137e-05 
2.312258243974015e-05 
2.347825019151651e-05 
2.3776582338416e-05 
1.826589519026394e-05 
1.929694543074093e-05 
1.317848622880001e-05 
1.39456252130805e-05 
1.259469763481365e-05 
1.366209252166196e-05 
1.326441828305515e-05 
1.314255978973646e-05 
1.405196306668642e-05 
1.538444984376951e-05 
1.213913310362484e-05 
1.059167085100088e-05 
1.328079119315863e-05 
1.182919787146487e-05 
9.344758649438878e-06 
9.502274038546771e-06 
8.925107284013379e-06 
6.979291637116384e-06 
5.883996158095228e-06 
6.818242229073616e-06 
5.970120199044905e-06 
5.168749937626192e-06 
5.02815374370251e-06 
4.553795556176372e-06 
4.213021175692762e-06 
4.673557226244816e-06 
4.262208845341923e-06 
4.09235462949269e-06 
2.931312075811101e-06 
1.736092036146302e-06 
2.107895240652852e-06 
1.846799265796949e-06 
2.156799392326683e-06 
2.024814825266662e-06 
1.968238563162356e-06 
2.020201040766676e-06 
2.139582888579838e-06 
1.846147878461426e-06 
1.140657546703462e-06 
1.004818534509402e-06 
1.109927492118025e-06 
1.158004578662193e-06 
9.753510696917912e-07 
8.224227563568662e-07 
6.093971540650802e-07 
7.898330444151519e-07 
4.366821944076663e-07 
8.142219299534806e-07 
5.686666830381594e-07 
4.456937946689933e-07 
6.518676282623864e-07 
3.595536190300031e-07 
2.712501747452483e-07 
9.39395179229302e-08 
6.287775355342496e-08 
1.870760835344366e-07 
1.141652309356016e-07 
-6.190489120892102e-10 
-7.570040451849657e-08 
-1.961433233611618e-07 
-1.885795324653317e-07 
-4.966687941464512e-08 
-3.083541757631309e-07 
-2.941699516783063e-07 
-2.808471497933606e-07 
-1.212300133389615e-07 
-7.551841706597999e-08 
-1.919354504839609e-07 
-1.909669559145154e-07 
-1.425100495115396e-07 
-9.730574613645798e-08 
-6.048083189792496e-08 
2.651612243466129e-20 
-5.666155162116652e-05 
