solver_type L2R_LR
nr_class 2
label 0 1
nr_feature 105
bias 1
w
0 
-0.0001656071091428632 
-0.0003669540671245983 
2.121618917350683e-05 
8.283159279249235e-05 
5.507370351262736e-05 
6.544997372699312e-05 
8.994143988706674e-05 
0.0001347510917102296 
0.0001252362112069536 
0.0001447098750140946 
0.000138501654925807 
8.29723876900141e-05 
8.934761089705347e-05 
9.574619147829303e-05 
8.420574103147777e-05 
7.19617226586597e-05 
6.748449914855694e-05 
6.612518190192415e-05 
6.33945706411945e-05 
6.327444967113573e-05 
5.608474419809336e-05 
5.221760168674295e-05 
3.64113583191015e-05 
3.125115668017443e-05 
3.575151984078343e-05 
4.577208880769067e-05 
4.661491836660257e-05 
3.740101178805873e-05 
3.702562132122809e-05 
3.353307228889797e-05 
3.486518023197201e-05 
3.477380370300626e-05 
3.080618157987656e-05 
3.033401507652607e-05 
2.650021664828323e-05 
2.698316375939393e-05 
2.61982248495248e-05 
2.545300285846252e-05 
2.344225188989453e-05 
2.166808104968999e-05 
2.222159008404163e-05 
1.800346356948876e-05 
1.565792408499226e-05 
1.587751954624909e-05 
1.44345791084873e-05 
1.366153615352282e-05 
1.406765387058863e-05 
1.303800576955005e-05 
1.197003625661333e-05 
1.049676603454723e-05 
1.014361400761986e-05 
8.398508992217699e-06 
8.97706735626793e-06 
7.553915929686454e-06 
8.572335474576987e-06 
8.193300969688339e-06 
7.794866005646738e-06 
7.338368555247087e-06 
7.597870456243171e-06 
8.036791301960106e-06 
6.689929259059551e-06 
6.161121922125754e-06 
5.111867837990445e-06 
5.462697004913817e-06 
5.339049161323107e-06 
4.877974244425451e-06 
4.317342452449266e-06 
3.711474528950422e-06 
3.78591679771437e-06 
3.705408730863221e-06 
2.92022069125072e-06 
3.521659894684393e-06 
3.330924374810083e-06 
2.865491852596022e-06 
2.583353479833393e-06 
2.672084803251246e-06 
2.476927615954606e-06 
2.461895225020656e-06 
2.351679204824708e-06 
2.124519454798713e-06 
1.969811205218317e-06 
2.044838545783286e-06 
2.091999378407494e-06 
2.020701621561871e-06 
1.720429848951168e-06 
1.72483498226593e-06 
1.460922854525538e-06 
1.448788851979277e-06 
1.430523438097419e-06 
1.495334952346096e-06 
1.348072270779015e-06 
1.309778768080482e-06 
1.314589847380297e-06 
1.099366843796439e-06 
1.010046538454932e-06 
1.081574343259571e-06 
1.019929977728175e-06 
8.097506551823215e-07 
7.764182259786195e-07 
5.394729292597479e-07 
4.497420138144988e-07 
4.138651829995769e-07 
5.516248663920163e-07 
3.181093447536136e-19 
-8.284952167789454e-17 
