solver_type L2R_LR
nr_class 2
label 0 1
nr_feature 105
bias 1
w
0 
0.000544768810389112 
0.0009323776912908421 
0.0005941345427667231 
0.0004723298618718795 
0.0004198457699484423 
0.0003643832650797679 
0.0003765548459316245 
0.0002527522345776031 
0.0002836543700986986 
0.0002656791493780474 
0.0002595452308991364 
0.0001887034507871852 
0.0001497319407438467 
0.0001469235107363533 
0.0001413458624090343 
0.0001244526666135301 
9.508746048305831e-05 
8.710727106699343e-05 
6.687413049549002e-05 
8.378044913428642e-05 
8.116606855115044e-05 
6.403220547151014e-05 
5.682457666767707e-05 
5.145499944516402e-05 
4.614767699636078e-05 
5.085136012740161e-05 
4.574170010556019e-05 
4.267102622230931e-05 
2.661300851902621e-05 
2.058369846619191e-05 
2.174977724400531e-05 
1.721886444009209e-05 
1.390755318892474e-05 
1.300956867438031e-05 
1.490736003424863e-05 
1.486823188554282e-05 
1.515493243129057e-05 
1.698712633143778e-05 
1.150236878222925e-05 
1.186517565560403e-05 
1.00290654219935e-05 
9.117104670426326e-06 
8.837919469999937e-06 
1.081258783442201e-05 
1.002022698940103e-05 
6.085240685903989e-06 
5.732882213702186e-06 
6.444425822918625e-06 
6.953562251861243e-06 
4.408257482587089e-06 
6.524826425063424e-06 
5.161202146766374e-06 
4.613993496481284e-06 
4.401772576504274e-06 
3.761478333564953e-06 
3.62769875715985e-06 
3.53897639118362e-06 
3.093495469290375e-06 
2.593921197112341e-06 
2.116994118041914e-06 
1.745568742027041e-06 
7.157423300389183e-07 
1.269360369575917e-06 
1.630894309896482e-06 
1.817178669401088e-06 
1.591107508015196e-06 
1.050571509398193e-06 
1.134572202587284e-06 
1.648092596204931e-06 
1.0858025738036e-06 
4.740123573272217e-07 
8.61925550005866e-07 
7.833591149677991e-07 
5.713906716170555e-07 
6.950428278562191e-07 
7.553073191050443e-07 
7.220596410253545e-07 
7.930577363961204e-07 
7.859533223213424e-07 
4.712728931649498e-07 
3.78902234655319e-07 
4.624681194747085e-07 
3.272434248090448e-07 
2.849257998364837e-07 
3.551753708152876e-07 
1.293140858278019e-07 
3.750102137809098e-07 
4.077455244195666e-07 
2.81091606734789e-07 
4.13352290601909e-07 
3.273164734669651e-07 
3.352460085730845e-07 
1.200111606551226e-08 
2.446306057843413e-08 
6.054274883082176e-08 
1.533678573473248e-08 
-9.33982471969457e-08 
4.133350294506546e-08 
-1.878249796957641e-07 
-1.516934699396046e-07 
-7.982521159699455e-08 
1.19270671349477e-07 
9.813199176666105e-08 
2.811571558441701e-20 
-6.23289557385222e-05 
