solver_type L2R_LR
nr_class 2
label 0 1
nr_feature 105
bias 1
w
0 
-0.001412592553777002 
-0.001590119568402784 
-0.001270059938917686 
-0.0002550640606797961 
-0.0002564391175807195 
-0.0001645144369096332 
-0.000109994721842111 
-8.4261454116591e-05 
-3.726310773258446e-05 
-2.70459988151429e-05 
-2.423248763075834e-05 
-2.73099226321019e-05 
-5.221210427379244e-05 
-3.73725770195486e-05 
-3.046144502650882e-05 
-1.912579071889899e-05 
-2.19618340209875e-05 
-2.439748150256722e-05 
-2.523268383514901e-05 
-3.068042972615448e-05 
-2.679979500215163e-05 
-1.441346477779643e-05 
-2.062946195351962e-05 
-2.024915345803445e-05 
-1.248810562587413e-05 
-2.234947753129229e-06 
-2.020495749426589e-06 
-3.802330680818677e-07 
1.942993845505539e-06 
-4.05971841247463e-06 
-1.238265440506158e-06 
2.234069078090317e-07 
1.851248396659784e-06 
2.617030546748471e-06 
5.107855123968948e-06 
2.607460987908337e-06 
3.628891738831008e-06 
2.755368479067413e-06 
2.885738090092222e-06 
2.574846423250473e-06 
2.088693775905302e-06 
3.372721391191841e-06 
-2.928412910286086e-07 
3.529363465152343e-06 
2.149201738145584e-06 
2.615115491262012e-06 
1.378495808678607e-06 
1.180775085010064e-06 
5.900710385091257e-07 
7.260248246479338e-07 
9.654794377798145e-08 
4.316498455542531e-07 
6.36918500217049e-07 
1.926550693348394e-07 
6.487815995656183e-07 
9.784963988536884e-07 
1.496646501083429e-06 
6.699217264905449e-07 
1.014554620159651e-06 
2.006500778557217e-06 
1.296993274553027e-06 
1.459926392547242e-06 
1.099959217389386e-06 
1.537664519656653e-06 
1.771971108503232e-06 
2.082602433886045e-06 
2.198864965427903e-06 
2.135044306507188e-06 
2.166753882531209e-06 
1.907143889816607e-06 
1.5682443863023e-06 
1.736027241841622e-06 
1.879201502876277e-06 
1.84096943286768e-06 
1.882688300755435e-06 
1.405408265373031e-06 
1.160169942335168e-06 
1.259020624191758e-06 
1.314724250174513e-06 
1.313821436024046e-06 
1.44954811671927e-06 
1.707649102626476e-06 
1.862325326408723e-06 
1.785894343020272e-06 
1.545448336446797e-06 
1.55851877621229e-06 
1.41175269749663e-06 
1.404513741173059e-06 
1.407494887049255e-06 
1.33172505128707e-06 
1.334511963694721e-06 
1.200839228441754e-06 
1.098607228761672e-06 
8.448999670588073e-07 
6.741540986067621e-07 
9.154417834432773e-07 
7.911857107952806e-07 
6.498478531217315e-07 
8.72834131109126e-07 
8.450750609090222e-07 
7.112199240139336e-07 
6.506513604408606e-07 
7.494793199880245e-07 
1.335068231874659e-19 
7.322300835963404e-05 
