solver_type L2R_LR
nr_class 2
label 0 1
nr_feature 105
bias 1
w
0 
-0.00138946608222227 
-0.001164461844881401 
-0.0007494029862801924 
4.629054259342366e-05 
2.522913217277794e-05 
0.0001195548786120318 
0.0001482339312954345 
0.0001728314000092767 
0.0002051726082502159 
0.0001781137797054853 
0.000142689869343628 
0.0001486992727599188 
9.458645441071952e-05 
0.0001163667664222285 
0.0001111074435331885 
0.0001219383436235707 
0.0001272804650022923 
0.0001142957879017369 
0.0001107833586569625 
9.487659136208349e-05 
8.302095174627835e-05 
8.452937122002435e-05 
7.046448816774671e-05 
7.463134646275101e-05 
7.095663313447623e-05 
7.111256528897907e-05 
6.247594084479523e-05 
6.801949233601245e-05 
7.109913815705733e-05 
6.48598812839579e-05 
5.906571732422938e-05 
5.385218717135692e-05 
5.320562265870226e-05 
4.973092368086498e-05 
5.393172383160744e-05 
5.126397382761396e-05 
4.634116550689251e-05 
4.220194984735109e-05 
3.907768022380954e-05 
3.792605208305737e-05 
3.528140281807126e-05 
3.252255404046023e-05 
2.714459191016266e-05 
2.786460214369877e-05 
2.560391588518799e-05 
2.416079833000877e-05 
2.332733445245229e-05 
2.14079299458723e-05 
1.952877851616454e-05 
1.845149108672614e-05 
1.714262203679068e-05 
1.78104868752273e-05 
1.673721396249564e-05 
1.553421911984997e-05 
1.496687794078942e-05 
1.491700423393621e-05 
1.343131693771812e-05 
1.227973774516798e-05 
1.116385006891616e-05 
1.059447977191828e-05 
1.024766436342193e-05 
9.847363239703067e-06 
9.778359123389089e-06 
9.880049964603662e-06 
8.79944324908561e-06 
8.747831168226796e-06 
8.295276956215455e-06 
8.018591187922523e-06 
7.795741877126896e-06 
7.116650901697094e-06 
7.048846285764333e-06 
6.337274111488347e-06 
6.004786760014846e-06 
5.925738002122109e-06 
5.853270062541471e-06 
5.500697616426138e-06 
5.15175006184277e-06 
5.018144303095773e-06 
4.584022760067405e-06 
4.233612219403448e-06 
4.049970010192949e-06 
3.832482404914268e-06 
3.979933208030519e-06 
3.823838776251358e-06 
3.540087601074856e-06 
3.396507152618142e-06 
2.875448395431022e-06 
2.722336601624737e-06 
2.487371124222106e-06 
2.179839450446674e-06 
2.432165103593217e-06 
2.097425413861713e-06 
1.991848119324765e-06 
1.682623670031808e-06 
1.397332510810313e-06 
1.216395955748869e-06 
1.045487758692842e-06 
1.063096322619773e-06 
1.210643969224694e-06 
1.14184781575357e-06 
1.014796940221878e-06 
8.47074201072444e-07 
6.790809669816097e-07 
3.27408180328835e-19 
4.504986143347057e-05 
