solver_type L2R_LR
nr_class 2
label 0 1
nr_feature 105
bias 1
w
0 
-0.0002089799951452998 
-0.000394114841249915 
-0.000121942616881361 
-3.200631678067939e-05 
-5.374467663192769e-05 
-9.767659040886797e-05 
-3.894913790322306e-05 
-9.695849421068598e-05 
-8.089290277216793e-05 
-2.92113114603728e-05 
-2.027722710807042e-05 
1.485605486657164e-05 
-1.062028924315198e-05 
2.47218008723961e-05 
-2.888292081135108e-05 
-1.41790959705396e-05 
-3.035942130288648e-05 
-1.653167985213876e-05 
-1.826427012182943e-05 
-3.472250873254437e-05 
-2.726130457721743e-05 
-1.479208621629214e-05 
-4.032121612908021e-06 
-4.601734045503851e-06 
-9.423882708888593e-06 
-1.433008532260972e-06 
-3.479768214373499e-06 
-1.269014117395643e-06 
9.64926420540969e-08 
1.062881067195899e-06 
-2.561850161700312e-06 
-2.687323741970165e-06 
-6.731671027094068e-06 
-5.491638940922268e-06 
-4.098000355024684e-06 
-4.913399842106019e-06 
-5.014297933284927e-06 
-7.165157471134284e-07 
1.40469067909602e-06 
-2.103453123988926e-07 
1.284141182564459e-06 
2.193955428789235e-06 
1.119301930484081e-06 
1.92563612691083e-06 
1.664515927558606e-06 
1.395568596087864e-06 
2.453313397043195e-06 
1.509854504406654e-06 
1.133471888546323e-06 
1.605425279804186e-06 
8.931044749000781e-07 
8.84824007959705e-07 
1.895369043347188e-06 
2.130459969700307e-06 
2.187413685513768e-06 
2.952226738377584e-06 
2.154947855605089e-06 
1.618329237510693e-06 
1.756891285261236e-06 
1.601222310344501e-06 
8.357386241345719e-07 
8.44941865732626e-07 
1.770504011280076e-06 
1.248193550571009e-06 
9.738702166161018e-07 
7.137699991785946e-07 
5.520451022921853e-07 
6.520243077560895e-07 
2.622539625827531e-07 
9.034418553179865e-07 
7.778428899400898e-07 
8.824087628389306e-07 
4.016618571167912e-07 
4.655507540792219e-07 
1.101880211750985e-07 
6.774498295202851e-07 
6.168256145986136e-07 
6.162755325547793e-07 
4.045232241233315e-07 
4.320878819853063e-08 
-3.824857241491817e-08 
1.153923205684493e-07 
3.129347875055865e-07 
2.851279190800964e-07 
2.388022404789907e-07 
4.439122124673023e-07 
2.400383611891182e-07 
2.277124975665815e-07 
3.718493007497859e-07 
4.526435372083192e-07 
2.350764144336646e-07 
1.23267397464822e-07 
2.906868480368235e-07 
2.595653456583077e-07 
2.981937958109102e-07 
2.987322723293292e-07 
1.749926943831061e-07 
1.502614837021878e-07 
2.534248165985533e-07 
8.112454523579838e-09 
-7.708951550078467e-08 
1.023686087131276e-07 
3.34737424882707e-07 
-5.578740243360871e-20 
1.759620649167466e-05 
