solver_type L2R_LR
nr_class 2
label 0 1
nr_feature 105
bias 1
w
0 
0.0003516466397449567 
0.0002649513416955282 
3.231649945766983e-05 
-0.0001065702981818344 
-0.0001173804061476879 
-5.863344788942759e-05 
-4.747522122879583e-05 
-0.000103287385240676 
-0.0001102988578038668 
-9.387625188709711e-05 
-0.0001077024473392357 
-9.737524117738245e-05 
-7.888861124221991e-05 
-3.488805683405346e-05 
-4.906785526181878e-05 
-6.653822191860538e-05 
-6.195123484762013e-05 
-4.908693173469498e-05 
-6.02626156650545e-05 
-4.410833280923296e-05 
-2.564433630964607e-05 
-3.751261684951225e-05 
-3.358218196632608e-05 
-3.279876330160163e-05 
-3.201556855708695e-05 
-1.947770433156609e-05 
-2.201853303622991e-05 
-1.381287692635568e-05 
-4.110940062046101e-06 
-7.606941246474855e-06 
-1.043956644366085e-05 
-8.499719108612939e-06 
-1.064735063621053e-05 
-9.407508886344315e-06 
-7.129067883952154e-06 
-8.78829211335761e-06 
-6.070475748642831e-06 
-5.325210570128827e-06 
-5.195315063607859e-06 
-5.186693093884095e-06 
-7.152266732775043e-06 
-6.22430243368471e-06 
-5.541873442964938e-06 
-5.101124103957211e-06 
-1.358598309324594e-06 
-8.886233964932292e-07 
-8.800352844151883e-07 
-3.986518559620016e-07 
-3.432911348045615e-07 
1.730712400560904e-06 
1.021247405335966e-06 
2.531441358348642e-07 
-4.82593173579514e-07 
-5.163815234885744e-07 
-7.17925815034414e-07 
-3.290684317262403e-07 
-4.735822725221312e-07 
-6.925752292446643e-08 
7.96920024016227e-09 
7.217808556193944e-08 
-2.277167955720973e-07 
-1.694676554123586e-07 
4.040743937024455e-08 
-1.781273250764186e-07 
-1.513782239734503e-07 
-1.316669058054506e-08 
-3.479032578126798e-07 
-2.432741093213473e-07 
-5.900637577644183e-09 
5.836459804320075e-07 
4.305349863981536e-07 
1.352224822590816e-07 
-1.359216942807895e-07 
9.67722372895733e-08 
3.587599829195141e-08 
-1.351545951114322e-07 
-7.447688432388235e-08 
-1.417096009871898e-07 
-4.250894012022509e-07 
-2.718961884817569e-07 
-3.938556111104767e-07 
-4.519425767859286e-07 
-2.418997630368892e-07 
-3.128613371184165e-07 
-7.710353181737071e-08 
-1.99492122478301e-07 
-3.398579405021934e-07 
-3.217040032524101e-07 
-2.990101782304624e-07 
-3.178106911995154e-07 
-2.070918788888511e-07 
-2.452522847807011e-07 
-2.145877931814308e-07 
-1.922902200026812e-07 
-1.455734245904413e-07 
-4.501875906710216e-08 
-1.421864274166323e-08 
-2.273387985993284e-08 
7.716327304596948e-08 
-2.113005495027823e-07 
-2.384082949560979e-07 
-1.615652529555454e-07 
-1.194565652662751e-07 
-3.680846893720587e-20 
-4.601262812793226e-06 
