solver_type L2R_LR
nr_class 2
label 0 1
nr_feature 105
bias 1
w
0 
0.001948255587551621 
0.002126229591389458 
0.001138506060622485 
0.0003001099314095507 
0.0002405515955691987 
0.0001423127178270846 
8.9300590744445e-05 
0.000122224526812103 
5.264702412780592e-05 
6.969541662172356e-05 
6.703665189968891e-05 
5.662718597608752e-05 
4.457924431672905e-05 
1.598342805321738e-05 
2.280231973168667e-05 
2.962515408141417e-05 
2.95288032759129e-05 
1.678019049850838e-06 
3.666905540162286e-06 
-2.374510834638581e-05 
-2.868365149946892e-05 
-4.441454931573151e-05 
-2.94118134198019e-05 
-3.304895511628608e-05 
-2.027359163499056e-05 
-3.637921780824857e-05 
-4.801806068903756e-05 
-4.243228663039429e-05 
-5.576608908847688e-05 
-5.408050157123235e-05 
-4.765039857638776e-05 
-4.26799020555528e-05 
-4.567382610352107e-05 
-4.537395277500025e-05 
-4.409317944566267e-05 
-4.448575732734025e-05 
-4.589465122788101e-05 
-3.726569733698932e-05 
-3.986701061003168e-05 
-3.828719885006171e-05 
-3.762296056522559e-05 
-3.444927240438341e-05 
-3.369029593735925e-05 
-3.327616071301654e-05 
-3.172315978424594e-05 
-3.086098685571097e-05 
-2.885739929490452e-05 
-3.075819507047785e-05 
-2.738237632687601e-05 
-2.526286827527833e-05 
-2.426785826637676e-05 
-2.314226922737945e-05 
-2.109481975953095e-05 
-2.005525421318908e-05 
-2.002377648361428e-05 
-1.855718711544929e-05 
-1.721936400761531e-05 
-1.714348956558347e-05 
-1.598390465943897e-05 
-1.600282198261761e-05 
-1.612754497783907e-05 
-1.477871900757595e-05 
-1.41651342913999e-05 
-1.311124493943407e-05 
-1.205995291907477e-05 
-1.17496781880513e-05 
-1.125748683819877e-05 
-1.063182779391327e-05 
-1.011125523173806e-05 
-1.020245385268667e-05 
-9.900046668631177e-06 
-9.535156867279277e-06 
-9.531309294500982e-06 
-8.724511202713637e-06 
-8.720590770375268e-06 
-8.328070789506436e-06 
-8.174694340883995e-06 
-7.488654019498676e-06 
-7.296951837506942e-06 
-7.092800432240928e-06 
-6.437842591778822e-06 
-6.39279931274702e-06 
-5.674410087872121e-06 
-5.844702665258743e-06 
-5.166871027048143e-06 
-4.894818632259881e-06 
-4.700118445636878e-06 
-4.496029445644936e-06 
-4.310275530679364e-06 
-3.986083147884125e-06 
-3.82955160094724e-06 
-3.572594882874512e-06 
-3.170343528596062e-06 
-3.290949979712658e-06 
-2.931769424351671e-06 
-2.761631288267648e-06 
-2.711159739674767e-06 
-2.396068540368645e-06 
-2.357566043529008e-06 
-1.929205315509723e-06 
-1.669422790592149e-06 
-1.677754350380132e-06 
-1.570490166532087e-06 
-3.581640165700537e-19 
-0.0001057419673169686 
