solver_type L2R_LR
nr_class 2
label 0 1
nr_feature 105
bias 1
w
0 
-0.0001512564096243267 
-0.0003263306285105189 
0.0001573488230397343 
-0.0001236794871613321 
-9.334023510149178e-05 
-7.147631916895589e-05 
-7.344911472269019e-05 
-0.0001313204669471605 
-0.0001154626456165039 
-0.0001123653047507488 
-0.0001172536620348823 
-0.000111138007022796 
-0.0001020386452102299 
-7.54155738290881e-05 
-7.848513194581562e-05 
-0.0001010713667850163 
-9.385536333096334e-05 
-5.93598049881401e-05 
-6.346013347175091e-05 
-5.012556602048725e-05 
-2.587518812992133e-05 
-2.475595443942873e-05 
-2.241607674197482e-05 
-2.434659535788253e-05 
-1.409394883348725e-05 
-1.475272532249591e-05 
-1.746743458819348e-05 
-1.11400116188245e-05 
-4.125373752065767e-06 
-8.666811830022093e-06 
-1.057658298133184e-05 
-6.462338309205289e-06 
-6.331806155457001e-06 
-4.446241888475344e-06 
-7.138382806808921e-06 
-7.45637297065117e-06 
-7.51293915886076e-06 
-6.837502946226569e-06 
-4.924231087569237e-06 
-4.187546964861786e-06 
-4.751504772355283e-06 
-4.202818205390054e-06 
-3.327348944505328e-06 
-2.968185763093221e-06 
7.754802038981689e-07 
-7.748940431972022e-08 
3.006020726248803e-07 
-1.087396845187866e-06 
-3.450552045331167e-07 
1.549626146886712e-06 
9.747600368161421e-07 
-1.047862963449833e-06 
-4.384016567386365e-07 
1.973973024848478e-07 
-4.72528464408898e-08 
7.123720766504175e-08 
3.414394057940137e-07 
5.480727822311515e-07 
1.304913641713331e-06 
1.511462357629695e-06 
8.284872493436333e-07 
1.14864082459726e-06 
4.944003785165584e-07 
-1.223062373430456e-07 
2.486087348078901e-07 
2.603091610592673e-07 
2.985204042986784e-07 
1.951953054426028e-07 
4.454303837449181e-07 
2.806432427911823e-07 
4.757104253701304e-07 
8.392419928372426e-08 
2.718427309937762e-07 
5.056766389370533e-07 
5.082706375012599e-07 
4.114101746433608e-07 
3.581080263825569e-07 
9.230689536104373e-08 
-4.230890529277965e-07 
3.391472258948005e-08 
-1.249859661081452e-07 
6.708774382765312e-08 
-1.216501919237725e-07 
2.259244507624967e-08 
2.039279332990269e-07 
6.230933986078285e-08 
3.187612423617108e-08 
2.120050627182577e-07 
7.345886503341273e-08 
2.984894780607061e-07 
2.517555236839634e-07 
1.375277505028457e-07 
2.340401903128515e-07 
4.555399313156823e-07 
2.34043483596895e-07 
3.214462066983953e-07 
3.575475056689519e-07 
1.932059993775179e-07 
3.788778192026984e-07 
3.09519873311223e-07 
3.363631389178236e-07 
1.74469578239388e-07 
2.981403474710675e-07 
-6.379940564997961e-20 
1.127374698093621e-05 
