solver_type L2R_LR
nr_class 2
label 0 1
nr_feature 105
bias 1
w
0 
-0.0006216848404375702 
-0.0006679136982749866 
-0.0007959648768544083 
-0.0001801243241359943 
-0.0002203277688241016 
-0.0001846804381130567 
-0.000190149745949427 
-0.0001837353031315365 
-0.0001886473783247421 
-0.0001312988112870965 
-9.316688889551185e-05 
-6.434543759514479e-05 
-5.08733292174912e-05 
-4.597998432316219e-05 
-6.655242425399047e-05 
-5.927763203197523e-05 
-5.089411782036879e-05 
-4.652654423492469e-05 
-2.497994731848757e-05 
-2.893823826340076e-05 
-1.619049886285538e-05 
-1.514373008415902e-05 
-2.28920565223413e-05 
-2.070760832734726e-05 
-1.283932699028217e-05 
-1.491570998026576e-05 
-1.678634617949675e-05 
-1.475114603516765e-05 
4.629682098631284e-06 
1.021424421044462e-05 
1.146422497452743e-05 
9.094862498970846e-06 
4.882851013398476e-06 
5.850728951185041e-06 
6.15613420406999e-06 
6.786971193984868e-06 
6.047668573419726e-06 
6.091265305695042e-06 
5.199639179418163e-06 
8.735316245586493e-06 
7.874480843243873e-06 
7.698519256566376e-06 
6.462417250090058e-06 
4.783348811683208e-06 
6.98667094113956e-06 
5.450759331811244e-06 
5.648880838183555e-06 
5.755107806861199e-06 
5.41631851742002e-06 
3.334044943590597e-06 
4.388215996658657e-06 
4.650857423333817e-06 
3.66666129683356e-06 
3.522360043960908e-06 
3.937665956901477e-06 
3.163786627172705e-06 
4.637181676366471e-06 
3.972517227900302e-06 
4.377873158531071e-06 
3.872130741674121e-06 
4.013020242041256e-06 
4.017376738158577e-06 
3.394151600756947e-06 
2.828553289912669e-06 
3.694921951359208e-06 
2.994044335049774e-06 
1.985197811298208e-06 
1.637038211767211e-06 
1.87107055648115e-06 
2.349474087912987e-06 
1.837513327753779e-06 
1.76683656265671e-06 
1.80922492262768e-06 
1.745861542832703e-06 
1.62992099331097e-06 
1.82413800322263e-06 
1.569291657720211e-06 
1.208070292458056e-06 
1.536332215008287e-06 
1.395996245452796e-06 
1.316659304097831e-06 
1.394691254951468e-06 
1.412970854944142e-06 
1.28374831579163e-06 
1.27608296025161e-06 
1.136386684354903e-06 
1.305650912035908e-06 
1.261780666329927e-06 
1.26023291141984e-06 
1.122138012754385e-06 
1.006327666929352e-06 
8.877493451147266e-07 
6.487862647180406e-07 
6.370932166741587e-07 
5.970208730141774e-07 
6.850010683647608e-07 
5.283610929437725e-07 
6.109235769348734e-07 
4.058197453295803e-07 
2.191182155769959e-07 
-1.13459220799638e-08 
2.92705357821728e-07 
2.762155393730652e-07 
4.705511704717654e-20 
4.544160766124854e-05 
