solver_type L2R_LR
nr_class 2
label 0 1
nr_feature 105
bias 1
w
0 
0.0002663321181800901 
0.0004644951351237721 
0.0006716469486374997 
-2.363636269026707e-05 
2.457783588710724e-05 
-2.690171796042783e-05 
-5.83060092174414e-05 
-8.481134254596239e-06 
-2.220663177296463e-05 
-2.010781553951503e-05 
-2.096772452035197e-05 
-3.499723225162812e-07 
-3.266500609381835e-05 
-3.104274899432754e-05 
3.574043484620412e-06 
2.067989321121883e-05 
1.088439602761311e-05 
9.174738201391054e-06 
1.178090962830634e-05 
3.998754660965031e-06 
2.854262669682173e-06 
1.407785233432286e-05 
6.690468830658755e-06 
1.197261756896648e-06 
6.36186909409258e-06 
1.622103709194505e-06 
-3.703178615501081e-06 
7.271921971640346e-07 
-1.713312721845316e-06 
-7.964476649696628e-06 
-6.914961694477701e-06 
-8.909976575676007e-06 
-7.062554979009876e-06 
-9.548874877007686e-06 
-9.654166708750502e-06 
-1.428464778067579e-05 
-1.481089354143353e-05 
-1.35261986313836e-05 
-1.40339480264353e-05 
-1.34170762925333e-05 
-1.524612212177861e-05 
-1.515452704694366e-05 
-1.336637816169542e-05 
-1.091548508949434e-05 
-1.219514012351992e-05 
-1.103427895610522e-05 
-1.148979426854861e-05 
-9.29889775761504e-06 
-9.125685045157946e-06 
-7.970836152276031e-06 
-8.352290018271669e-06 
-7.489106163861414e-06 
-8.669132472483124e-06 
-7.630944682934953e-06 
-7.174169384326938e-06 
-6.215165711783921e-06 
-6.045285286706444e-06 
-6.582247812850112e-06 
-6.632976081488203e-06 
-5.190938000680589e-06 
-5.872745542197479e-06 
-5.763767398230746e-06 
-5.494276956121657e-06 
-4.705225520146198e-06 
-4.694812033018001e-06 
-4.189543192968139e-06 
-3.617507376813729e-06 
-3.541255324809076e-06 
-3.229981329062866e-06 
-2.788463614580315e-06 
-2.484319034003446e-06 
-2.766417926323311e-06 
-2.580892650412878e-06 
-2.293445653061431e-06 
-1.922024889522471e-06 
-2.166886104803651e-06 
-1.677659591045926e-06 
-1.459998311041408e-06 
-1.861195310431189e-06 
-1.858638934509073e-06 
-1.736605832776182e-06 
-1.740674873053545e-06 
-1.797864629535762e-06 
-1.604570186923157e-06 
-1.33795226666778e-06 
-1.763620250209015e-06 
-1.397450809208289e-06 
-1.291490437700145e-06 
-1.03107340349565e-06 
-1.146013232206548e-06 
-1.143104034746666e-06 
-1.060487024754863e-06 
-9.573049441314335e-07 
-7.169983366475797e-07 
-8.065290432875055e-07 
-6.066048985111186e-07 
-5.30881708492663e-07 
-6.817279341138668e-07 
-4.004454049370184e-07 
-6.558153986728208e-07 
-4.503627154047357e-07 
-4.227497047298456e-07 
-1.573867831047526e-07 
-1.038575247443339e-19 
-2.197775253404047e-05 
