solver_type L2R_LR
nr_class 2
label 0 1
nr_feature 105
bias 1
w
0 
0.0009542152323863907 
0.0007918445431882397 
0.0006291265163901385 
0.0001837471134582226 
0.0001743046747007623 
6.621350894656408e-05 
0.0001263841190566835 
9.120905489509968e-05 
4.332699562604805e-05 
2.592340643418966e-05 
3.162179023600564e-05 
-3.177347517388796e-05 
-3.607127602754053e-05 
-1.365924544755407e-05 
-3.541220987768203e-06 
-7.065098404126872e-06 
1.825776743251878e-06 
1.227229753792212e-05 
-3.905579672616798e-06 
-5.20190594629403e-06 
-1.30268641751618e-05 
-1.29186054292915e-05 
-1.432141782444391e-05 
-3.179445035563514e-05 
-3.349120938700052e-05 
-2.104291165330488e-05 
-1.584127355109227e-05 
-1.48337379070996e-05 
-2.049760484124575e-05 
-2.241671290388452e-05 
-1.353855344887133e-05 
-1.248589530128198e-05 
-1.4989570756086e-05 
-1.247296735922557e-05 
-1.3747525871931e-05 
-8.488160718217044e-06 
-3.614736348400883e-06 
-6.973014664487904e-06 
-5.262451029243104e-06 
-6.331827248026144e-06 
-6.38445424550163e-06 
-2.692235326504191e-06 
-3.581022847272353e-06 
-5.42949631196877e-06 
-6.140123476467829e-06 
-4.177909732157178e-06 
-4.751154507665242e-06 
-2.74509214741137e-06 
-2.547468593778011e-07 
3.032166157418021e-07 
-3.790433860733602e-08 
9.268865120596699e-07 
-5.847880442827851e-07 
-1.178866354772476e-06 
3.080208413738452e-07 
1.761764012145281e-07 
1.493405888171315e-07 
-8.205149896519929e-07 
-1.501514281818405e-06 
-1.573064350210526e-06 
-1.543126036855679e-06 
-1.956241124741945e-06 
-1.906583047933332e-06 
-1.887390568888369e-06 
-1.631265127058395e-06 
-1.252917324300278e-06 
-1.493400268485465e-06 
-1.204255724713482e-06 
-1.136393741777508e-06 
-1.408949667843835e-06 
-1.363308735731102e-06 
-1.422931104852434e-06 
-1.565477811491106e-06 
-1.350048158625992e-06 
-1.780365421292745e-06 
-1.662612826583601e-06 
-1.668610380483264e-06 
-1.777236460164387e-06 
-1.673190962038208e-06 
-1.527197688767787e-06 
-1.424741740177989e-06 
-1.232168651872942e-06 
-8.819550087212617e-07 
-1.120364391258895e-06 
-1.088205743662946e-06 
-1.221450190992634e-06 
-1.586086366892903e-06 
-1.262418900134846e-06 
-1.258307812926596e-06 
-1.353294595258983e-06 
-1.030462532368271e-06 
-1.262527947534769e-06 
-9.631761558702211e-07 
-1.084683641429235e-06 
-1.0498503023979e-06 
-9.095509360969275e-07 
-1.018919981989872e-06 
-1.03409551717589e-06 
-1.038911823187604e-06 
-1.148527372603695e-06 
-1.070647405896504e-06 
-7.865562505735757e-07 
-6.008146690277417e-07 
-2.495703997719113e-20 
-4.866021847600457e-05 
