solver_type L2R_LR
nr_class 2
label 0 1
nr_feature 105
bias 1
w
0 
0.001969433254342986 
0.001777633397271831 
0.001083909764408587 
0.0001809396119482565 
0.0001190921133978931 
3.76701764728875e-05 
4.503862197226927e-05 
-7.103403256960021e-05 
-7.252989687239339e-05 
-9.430546387740662e-05 
-7.538961376963363e-05 
-9.725157927909946e-05 
-0.000126439778591591 
-0.0001111198925306757 
-5.181694613222811e-05 
-6.763024127142992e-05 
-5.040405105052562e-05 
-5.563583633780549e-05 
-6.289013853633544e-05 
-5.732803220489992e-05 
-5.861913223287034e-05 
-6.156878557905625e-05 
-5.020534876906247e-05 
-6.22827030065754e-05 
-5.932966572797339e-05 
-6.711614561286698e-05 
-6.183190320737543e-05 
-5.363836988056454e-05 
-5.937678171044696e-05 
-6.173869455199897e-05 
-5.320228667820324e-05 
-5.061624527603692e-05 
-5.35394788195241e-05 
-4.956155073089848e-05 
-5.149344790771235e-05 
-4.421212922000378e-05 
-4.165499506187679e-05 
-4.405879479432498e-05 
-4.145758083357461e-05 
-3.79190899706281e-05 
-3.939030549196671e-05 
-3.325990290329625e-05 
-3.0940778082401e-05 
-2.999491523302935e-05 
-2.935195757155493e-05 
-2.65787804875018e-05 
-2.577963450914635e-05 
-2.383010237477645e-05 
-1.98692198675649e-05 
-1.723468209071531e-05 
-1.76159007878436e-05 
-1.647765275639411e-05 
-1.650308664041048e-05 
-1.651435699577898e-05 
-1.439731298191085e-05 
-1.426936366127472e-05 
-1.321929584671237e-05 
-1.23152380254042e-05 
-1.221326762103681e-05 
-1.182001856317441e-05 
-1.145306754217877e-05 
-1.121914440976103e-05 
-1.079503221591174e-05 
-1.109488931881124e-05 
-1.021598274839969e-05 
-9.589687961589596e-06 
-9.314053865124256e-06 
-8.635286714917053e-06 
-8.371501486140452e-06 
-7.956393454732843e-06 
-8.448283917519026e-06 
-7.894370267744832e-06 
-7.55826759040492e-06 
-7.245711257448913e-06 
-7.034508746260519e-06 
-6.507550534605942e-06 
-6.461072385534751e-06 
-6.191881733547709e-06 
-6.010997484728974e-06 
-5.658759537163177e-06 
-5.460208659608848e-06 
-5.215013225413332e-06 
-4.972593970470387e-06 
-4.825791877367441e-06 
-4.626858706089352e-06 
-4.624445751283614e-06 
-4.600889348624456e-06 
-4.416858422739367e-06 
-4.168747869648062e-06 
-3.899665328524002e-06 
-3.614906889069766e-06 
-3.765688525428897e-06 
-3.361108212723743e-06 
-3.275883671223455e-06 
-2.748558923143224e-06 
-2.589214115009478e-06 
-2.555020693854045e-06 
-2.454923543003612e-06 
-2.418769014339108e-06 
-2.169208480959345e-06 
-1.969491620529576e-06 
-1.638865336793266e-06 
-1.253423458427628e-06 
-4.504177193553589e-19 
-8.431263961348349e-05 
