solver_type L2R_LR
nr_class 2
label 0 1
nr_feature 105
bias 1
w
0 
0.000603593019735881 
0.0004575750919758795 
0.0005374031581089084 
0.0001101231088299739 
6.868499703493459e-05 
-7.842503557330059e-06 
2.56721387886823e-05 
-2.314237827919968e-05 
-3.527015328241208e-05 
-2.796028151818169e-05 
-1.689650430760063e-05 
-8.361647176169746e-05 
-0.0001023934986635064 
-8.268372198855425e-05 
-7.697218220632591e-05 
-8.832108138968171e-05 
-8.890658659528987e-05 
-4.948795045603585e-05 
-6.914330125296472e-05 
-5.783161158340565e-05 
-5.722299849657882e-05 
-4.204221326498028e-05 
-4.923986469804182e-05 
-4.798616576371382e-05 
-4.975103627937984e-05 
-4.506840011721097e-05 
-3.834284703189683e-05 
-3.802402929784145e-05 
-3.840934830413219e-05 
-3.478132506578125e-05 
-3.152129097295999e-05 
-3.440091251964835e-05 
-3.39695881899436e-05 
-3.242150791226398e-05 
-3.086921049458952e-05 
-3.22577357289911e-05 
-2.262403232514947e-05 
-2.506598724219529e-05 
-2.48363201624081e-05 
-2.382006918000668e-05 
-2.37633450250793e-05 
-2.019337554906956e-05 
-2.2615604126447e-05 
-2.134180871995067e-05 
-1.983808605592811e-05 
-1.794869328372362e-05 
-1.906296227677006e-05 
-1.701102901177267e-05 
-1.545682370460576e-05 
-1.561902235731204e-05 
-1.446349510481305e-05 
-1.276692533529434e-05 
-1.371357282357411e-05 
-1.251543606195754e-05 
-1.13247177583545e-05 
-1.070367418346403e-05 
-1.007097519604548e-05 
-1.030876026279033e-05 
-9.5931683097882e-06 
-8.763536080874259e-06 
-8.112979916302574e-06 
-7.7580135054041e-06 
-7.822656309566017e-06 
-7.432546636662546e-06 
-6.903465131056516e-06 
-6.568523055226844e-06 
-5.941407034930624e-06 
-5.272005926347803e-06 
-5.111747973541593e-06 
-5.336005233784551e-06 
-4.443317607378061e-06 
-4.714623399737897e-06 
-4.462814856029793e-06 
-3.799967520848637e-06 
-3.677062480043969e-06 
-3.280135733969262e-06 
-3.315152471401067e-06 
-3.121147982536165e-06 
-3.240559374264289e-06 
-2.793718186655034e-06 
-2.659494000040367e-06 
-2.379083804733432e-06 
-2.315252357999598e-06 
-2.395619981147455e-06 
-2.061271663202483e-06 
-1.835596074145411e-06 
-2.107985737487414e-06 
-1.677011208212378e-06 
-1.645283299840496e-06 
-1.721334748103428e-06 
-1.25769863709731e-06 
-1.331215398427081e-06 
-1.150742874639694e-06 
-1.1871546757548e-06 
-1.30896488937603e-06 
-1.237415453416635e-06 
-1.061595161755731e-06 
-9.514399044065903e-07 
-1.021125610566034e-06 
-1.071896192981967e-06 
-9.271182670759118e-07 
-7.811323731475985e-07 
-6.051107294373884e-07 
-1.878744801314448e-19 
-2.699473273223017e-05 
