solver_type L2R_LR
nr_class 2
label 0 1
nr_feature 105
bias 1
w
0 
0.001040853913162503 
0.001113077595840708 
0.000548778390057429 
0.0002273041540313826 
0.0002103543749286601 
0.0001364278783386415 
5.24551287976798e-05 
6.494959061495617e-05 
1.836675490545865e-05 
3.06982616985099e-05 
2.73297111000872e-05 
4.599192376658285e-05 
7.849154007369888e-06 
-3.421426563861124e-06 
5.365484163154581e-05 
3.38474806603328e-05 
3.897488891799203e-05 
4.75636952231183e-05 
3.385438897837268e-05 
1.377174539769257e-05 
1.705159446624191e-05 
1.818430235763282e-05 
1.55868476083422e-05 
7.863991639771146e-06 
6.266257951762251e-06 
-3.228379061473388e-06 
-2.781918399225448e-06 
-1.877958597850843e-06 
-1.047800145640941e-05 
-4.733040470440501e-06 
-1.734491294289376e-06 
-1.718822864167963e-06 
-5.981382328376227e-06 
-4.37827529630105e-06 
-3.908337268704178e-06 
-4.643396645567299e-06 
-3.676525847701066e-06 
-4.872933314857867e-06 
-4.932288297577081e-06 
-4.934834730241336e-06 
-6.337953729015219e-06 
-1.883055659090546e-06 
-4.884053611035287e-06 
-3.621318199651717e-06 
-5.84515706268007e-06 
-6.657444691811831e-06 
-6.406625548064548e-06 
-5.895119550098344e-06 
-5.661066388982608e-06 
-3.97762535532136e-06 
-4.99808627595735e-06 
-4.724437638816953e-06 
-3.714410327654677e-06 
-5.142027100025733e-06 
-4.403922598514897e-06 
-4.639197517765312e-06 
-4.12719113423592e-06 
-3.499329501724209e-06 
-3.212634100748599e-06 
-3.162386833259518e-06 
-3.385285954715115e-06 
-3.410870256845292e-06 
-3.546502388673717e-06 
-3.742261443747472e-06 
-3.852403252172364e-06 
-3.760953998480638e-06 
-3.455172574355708e-06 
-3.14678343888251e-06 
-2.957474734106315e-06 
-2.891106355148224e-06 
-3.541914359568356e-06 
-2.951243685768687e-06 
-2.822615919185879e-06 
-2.709590393206733e-06 
-2.475633547826033e-06 
-2.269676664486651e-06 
-2.380557632765968e-06 
-2.325964165893885e-06 
-2.252678954541507e-06 
-2.338366166443761e-06 
-2.392836483523969e-06 
-2.404204233810551e-06 
-1.984859924699189e-06 
-1.895228512315959e-06 
-1.730246207086977e-06 
-1.595261424308756e-06 
-1.791916152552784e-06 
-1.884646498335668e-06 
-1.838216398334649e-06 
-1.540569110283759e-06 
-1.515809809551284e-06 
-1.608167364951574e-06 
-1.591371394537322e-06 
-1.443543254677762e-06 
-1.252720705844416e-06 
-1.221683986145441e-06 
-1.138634845150335e-06 
-1.011708818885967e-06 
-1.118743937221294e-06 
-1.042247924541849e-06 
-9.047060809046079e-07 
-9.049463850107419e-07 
-8.12182518791407e-07 
-1.814193675711906e-19 
-5.522489156640939e-05 
