solver_type L2R_LR
nr_class 2
label 0 1
nr_feature 105
bias 1
w
0 
0.0009926398948508846 
0.001406285409065068 
0.000866331906754915 
0.00035153235402635 
0.0002984003874984235 
0.0001778681136715566 
0.0001200851398308809 
6.839601534707168e-05 
4.021037520350265e-05 
0.0001024420708793319 
0.000127364789880454 
6.258247175947299e-05 
2.597133883056343e-05 
2.889312072721843e-05 
-6.141701502407589e-06 
-2.401825339834986e-05 
-1.875044364880732e-05 
-1.414054824603045e-05 
-9.517659730486743e-06 
-1.634064867381344e-05 
-1.261421316136017e-06 
-1.498680235054618e-05 
-2.318157736218186e-05 
-2.450048216288407e-05 
-2.203069603482829e-05 
-3.176313428619696e-05 
-2.671047529043522e-05 
-3.434958884840337e-05 
-2.099843584862307e-05 
-2.237233466202967e-05 
-2.735788856860941e-05 
-2.887705448341292e-05 
-2.806606034115513e-05 
-2.463285042024233e-05 
-2.401195211991789e-05 
-2.543519213658471e-05 
-2.372298352060933e-05 
-2.672326609535154e-05 
-3.02784747286724e-05 
-2.38532123573496e-05 
-2.185908039649833e-05 
-2.175799315672497e-05 
-2.137180957972774e-05 
-1.956514585175447e-05 
-1.766519101484995e-05 
-1.766504314328814e-05 
-1.623297884351154e-05 
-1.512292588596729e-05 
-1.693992987770922e-05 
-1.67217484028492e-05 
-1.478837684464806e-05 
-1.351961806400333e-05 
-1.340992840392199e-05 
-1.280675291828908e-05 
-1.210743880733059e-05 
-1.144855686058059e-05 
-1.039450053693377e-05 
-1.003342540872406e-05 
-9.729825427368203e-06 
-8.840042193961719e-06 
-8.364672884985385e-06 
-7.906082322884099e-06 
-7.90510795061917e-06 
-8.022464555775203e-06 
-7.379915168238612e-06 
-7.042842412499677e-06 
-7.141817894684296e-06 
-7.17620393928824e-06 
-6.581916899296344e-06 
-5.531268459010682e-06 
-5.599094884550776e-06 
-5.265670452286344e-06 
-5.302840911124688e-06 
-4.757127186808196e-06 
-4.791285370850271e-06 
-4.409590829809763e-06 
-4.19698116950812e-06 
-4.645452869078695e-06 
-4.122502175774419e-06 
-3.724380692336979e-06 
-3.701238857075427e-06 
-3.428581847327065e-06 
-3.245583193069777e-06 
-3.093129700221292e-06 
-3.24421107871052e-06 
-3.019972897017073e-06 
-2.818708992393899e-06 
-2.78452102858002e-06 
-2.374281870595982e-06 
-2.358149828469212e-06 
-2.243784767761191e-06 
-2.106417641433919e-06 
-2.121506200802673e-06 
-1.828291409485628e-06 
-1.76148090747087e-06 
-1.707600791267449e-06 
-1.599600619201943e-06 
-1.268284309495513e-06 
-1.316767464267123e-06 
-1.387822725895525e-06 
-1.352108772233164e-06 
-8.32650057690916e-07 
-1.202341496074636e-06 
-1.364345768908759e-19 
-5.993533924776015e-05 
