solver_type L2R_LR
nr_class 2
label 0 1
nr_feature 105
bias 1
w
0 
0.000488654507174099 
0.0003854938569489092 
0.000664065560426649 
-7.650095805583173e-05 
3.523612368528455e-05 
-9.896741708164628e-06 
3.138028059170244e-05 
-1.786668098702502e-05 
-2.239808559568997e-05 
-5.107578731178655e-05 
-6.609767326814146e-05 
-8.24771881845788e-05 
-4.492645147973552e-05 
-5.214659413580043e-05 
-6.00314753431258e-05 
-6.695555889588991e-05 
-5.735703783895638e-05 
-2.632210537407135e-05 
-3.164640494375809e-05 
-2.75167483106589e-05 
-2.308760270172458e-05 
-1.543024378842547e-05 
-1.279576882040495e-05 
-2.394757929136742e-05 
-1.759244127373279e-05 
-1.921472909827404e-05 
-2.797801562457891e-05 
-2.285280555942219e-05 
-2.402329197490389e-05 
-3.079372829862093e-05 
-2.395564013156565e-05 
-2.866121685045351e-05 
-2.636090000409977e-05 
-2.414086213715908e-05 
-2.521311481239952e-05 
-2.640753853144609e-05 
-2.435480624348258e-05 
-2.64622584320648e-05 
-2.378446472247345e-05 
-2.418322970571639e-05 
-2.169232273483437e-05 
-1.973429397772892e-05 
-2.042715662197841e-05 
-1.64396414913186e-05 
-1.58223362638061e-05 
-1.554575801220719e-05 
-1.348824416228774e-05 
-1.4074723043484e-05 
-1.452152745845509e-05 
-1.177999535711604e-05 
-1.09939343538612e-05 
-1.059705218615508e-05 
-1.01229487503922e-05 
-1.032988778104597e-05 
-9.881547169678758e-06 
-9.003363508567639e-06 
-7.860659600712893e-06 
-7.651170386892982e-06 
-6.854662230374284e-06 
-6.79653869499418e-06 
-6.356154278661167e-06 
-5.95402690432214e-06 
-5.286334802504115e-06 
-5.577670652378548e-06 
-5.570118554505455e-06 
-5.475028322070202e-06 
-4.789428004572741e-06 
-4.656619131559591e-06 
-4.46234739452814e-06 
-4.568178547856803e-06 
-4.174577234005929e-06 
-4.075673172284679e-06 
-3.849513957896409e-06 
-3.459308409050784e-06 
-2.859540126301213e-06 
-2.941052225839091e-06 
-3.032551726217803e-06 
-3.045848500445276e-06 
-3.053648549184028e-06 
-2.466200549600081e-06 
-2.446354584270086e-06 
-2.352365864765398e-06 
-2.597268578448346e-06 
-2.342136191850072e-06 
-2.274450884866478e-06 
-2.111276888260484e-06 
-1.860651693880216e-06 
-1.778892254525091e-06 
-1.823658852274761e-06 
-1.646219868594827e-06 
-1.538109466266831e-06 
-1.264638715616339e-06 
-1.065863581875274e-06 
-8.824709620620216e-07 
-8.852086768420585e-07 
-1.046810889002041e-06 
-8.674920983003858e-07 
-8.761246935268843e-07 
-6.341394464145745e-07 
-4.260531111461568e-07 
-3.020444925121104e-07 
-5.715837970053319e-07 
-1.531612910011302e-07 
-2.483515125138466e-19 
-1.461757662351914e-05 
