solver_type L2R_LR
nr_class 2
label 0 1
nr_feature 105
bias 1
w
0 
0.0002646883690334287 
0.0003049223550929961 
5.05990512240322e-05 
8.211443742180744e-05 
2.213927274747888e-05 
3.229194009802813e-05 
-3.542628450722497e-05 
2.729978661996523e-05 
3.780832114057012e-05 
-7.145597694756862e-06 
9.172203542277826e-06 
1.579594496851661e-05 
-3.710590402716913e-05 
-3.453499988467616e-05 
-3.750823043194349e-06 
-1.096733410879496e-05 
-1.727252536250994e-05 
-1.564428144441933e-05 
-9.289120167277342e-06 
-2.073746529274733e-05 
-2.090598415587618e-05 
-1.641693162593644e-05 
-1.994678249571081e-05 
-2.206904400720772e-05 
-2.453777477960281e-05 
-2.893088818395917e-05 
-2.515402826179455e-05 
-2.575306376257165e-05 
-2.429993878803601e-05 
-2.433588257987274e-05 
-2.365193430761045e-05 
-2.882980746889031e-05 
-2.297510520605946e-05 
-2.099203636531107e-05 
-2.033672805305695e-05 
-1.851644727805595e-05 
-1.567410911740192e-05 
-1.833588154805504e-05 
-1.866128314267358e-05 
-1.851476444792766e-05 
-2.079414216847539e-05 
-1.700625982853963e-05 
-1.655906849677692e-05 
-1.37049434406419e-05 
-1.549133213512674e-05 
-1.173203660001336e-05 
-1.190704398710505e-05 
-1.290157457941923e-05 
-1.291642394254133e-05 
-1.157612904050106e-05 
-1.081357553507813e-05 
-8.102380370115064e-06 
-7.966028870942098e-06 
-8.601018869307348e-06 
-7.669737871803159e-06 
-6.339061180178288e-06 
-6.816447553165988e-06 
-6.15485785247083e-06 
-6.650939058206303e-06 
-6.312310493388081e-06 
-5.915064278565802e-06 
-5.482149477298678e-06 
-5.071427092844811e-06 
-5.576447587159708e-06 
-5.194566162870189e-06 
-4.720033228231234e-06 
-4.436581996521144e-06 
-3.624436878181444e-06 
-3.841713068862404e-06 
-3.562968667725136e-06 
-3.449229569467676e-06 
-3.315635381198655e-06 
-2.697573032216398e-06 
-2.547110233084777e-06 
-1.978939041254586e-06 
-2.046300966322112e-06 
-2.013493761741912e-06 
-1.610049718595407e-06 
-1.429849474138177e-06 
-1.396083960646047e-06 
-1.506003840255987e-06 
-1.557785617680622e-06 
-1.353984570917144e-06 
-1.37202964635832e-06 
-1.485461986838014e-06 
-1.231154596208932e-06 
-1.083570738581759e-06 
-1.063226927264711e-06 
-1.029816644380536e-06 
-9.919039287983244e-07 
-8.457124685061591e-07 
-8.630061466286214e-07 
-8.081901875388334e-07 
-7.211192579195894e-07 
-6.677906820703241e-07 
-5.278688756449811e-07 
-5.080008559560689e-07 
-4.48353653564116e-07 
-3.706932028044688e-07 
-1.671352761339348e-07 
-3.626663323939673e-08 
6.606734507201084e-08 
-4.625521804068783e-08 
7.667501296342418e-21 
-8.960597420325294e-06 
