solver_type L2R_LR
nr_class 2
label 0 1
nr_feature 105
bias 1
w
0 
0.001604426533969028 
0.001231280770399229 
0.0004912581712253037 
5.454301761986171e-05 
5.35579356368632e-05 
-5.581468752941799e-05 
3.999604139112446e-07 
-2.408110206258391e-05 
-6.592303031389526e-05 
-0.0001111250628832598 
-0.0001269889888072929 
-8.45700554583984e-05 
-5.993281649415094e-05 
-3.487802236224659e-05 
-7.233893733903924e-05 
-7.609167514225578e-05 
-4.466331441406492e-05 
-4.966903065802302e-05 
-3.07061587235851e-05 
-3.239217562965675e-05 
-1.1238946180275e-05 
-7.134815767347987e-06 
-7.739634222647995e-06 
-2.157241131088465e-05 
-1.948610907513828e-05 
-6.475168840574257e-06 
-6.296737146699722e-06 
-1.389677556925658e-05 
-7.876322176536977e-06 
-8.502655107755745e-06 
-5.45552971391627e-06 
-8.806166753134791e-06 
-8.015695054418509e-06 
-1.352268062062723e-05 
-1.051402246812812e-05 
-1.114389099116893e-05 
-4.359379940969632e-06 
-4.545593026441103e-06 
-4.864008970306117e-06 
-2.186347445347e-06 
-3.254327887237112e-06 
-2.598683235142266e-06 
-5.549429067113674e-06 
-6.064347783810329e-06 
-5.758345229287206e-06 
-4.350119175118811e-06 
-4.758906105699341e-06 
-1.666875752797202e-06 
-3.827015545153416e-06 
-3.963240981824649e-06 
-2.930388960509646e-06 
-2.999951280269964e-06 
-2.66679843567575e-06 
-2.104278189082021e-06 
-1.45769011370797e-06 
-1.755780018354109e-06 
-5.250456131114317e-07 
-1.443731828201416e-06 
-2.05429320207691e-06 
-1.575877875581132e-06 
-2.424722475881849e-06 
-3.126540198440028e-06 
-3.016232879789787e-06 
-2.351945423889294e-06 
-2.178083741749186e-06 
-2.707162216979684e-06 
-2.481029988019183e-06 
-2.067949012262217e-06 
-2.054322774677938e-06 
-2.357921206738658e-06 
-2.042424804015118e-06 
-2.235871729348966e-06 
-2.439805883693619e-06 
-2.338663176123664e-06 
-2.543618776006868e-06 
-2.610480002222006e-06 
-2.41178582804311e-06 
-2.433293908483119e-06 
-2.363408027478955e-06 
-2.049611415327305e-06 
-1.928611842355606e-06 
-2.059515585261634e-06 
-1.954252449040144e-06 
-2.106844944816755e-06 
-1.615581003012224e-06 
-2.013777382241437e-06 
-1.856727149021959e-06 
-1.598762133625635e-06 
-1.891383255165564e-06 
-1.736622863168316e-06 
-1.451446412368122e-06 
-1.618780463118703e-06 
-1.635202884835403e-06 
-1.573868728741297e-06 
-1.276908436087188e-06 
-1.297939146636894e-06 
-1.327560580147805e-06 
-1.164759597066629e-06 
-1.084148787486654e-06 
-1.105299100833299e-06 
-9.766502960199555e-07 
-1.019147869887476e-06 
-5.701982328816635e-07 
-2.170659037943511e-19 
-6.33173155981242e-05 
