solver_type L2R_LR
nr_class 2
label 0 1
nr_feature 105
bias 1
w
0 
0.0002463491833509397 
8.147323604832528e-06 
3.938972351320808e-06 
-0.0002077581756929503 
-8.974375175219456e-05 
-0.0001276118860808561 
-7.574649623111756e-05 
-2.987704952676438e-05 
-1.408623954478473e-05 
-9.521171736287229e-05 
-0.0001302272711950763 
-8.026808575142806e-05 
-6.412920757390997e-05 
-4.708733124217189e-05 
-6.550885021267489e-05 
-6.067305219592956e-05 
-6.118361687085072e-05 
-3.530264526028809e-05 
-3.49146631519401e-05 
-4.248597659277623e-05 
-5.161938140945708e-05 
-3.311921219280011e-05 
-4.345019489338433e-05 
-3.586078947548766e-05 
-2.567721283936683e-05 
-3.031986188805754e-05 
-2.449881876713492e-05 
-3.15405385721981e-05 
-2.498183290570738e-05 
-2.209540785053293e-05 
-2.689420520791852e-05 
-2.549087458846644e-05 
-2.119885070734059e-05 
-2.132559481021356e-05 
-2.024849323715134e-05 
-1.962322656050725e-05 
-2.183028156490719e-05 
-2.06452143271441e-05 
-2.011202037777376e-05 
-1.418845926434472e-05 
-1.502779664876584e-05 
-1.506313571640332e-05 
-1.212476527841529e-05 
-1.000878852575527e-05 
-1.042624064303631e-05 
-1.133807452431309e-05 
-1.154337282846023e-05 
-1.080522196931996e-05 
-1.147719296493483e-05 
-1.082149099597208e-05 
-1.022874610216937e-05 
-9.480784176989632e-06 
-8.824270926918355e-06 
-7.91767848343852e-06 
-7.137749892220756e-06 
-6.408927440018432e-06 
-5.853100025686314e-06 
-6.405547162283443e-06 
-6.864203420295049e-06 
-6.699228941523429e-06 
-6.451811927429308e-06 
-5.647729396986253e-06 
-5.129575562224511e-06 
-5.000712844173293e-06 
-4.810378518953867e-06 
-4.588511734234802e-06 
-4.465590553651027e-06 
-4.012123083360447e-06 
-3.841712114214709e-06 
-3.705040183569749e-06 
-3.022019883020872e-06 
-3.562692176110191e-06 
-3.221453319271675e-06 
-3.484879022278534e-06 
-2.763511120075112e-06 
-2.375904015045327e-06 
-2.158622112137765e-06 
-2.223925289564826e-06 
-2.066396104969162e-06 
-1.990261649050213e-06 
-1.799661201007561e-06 
-1.852550541427218e-06 
-1.823869744691069e-06 
-1.770597650231275e-06 
-1.839515314160198e-06 
-1.455349261371721e-06 
-1.281002259042524e-06 
-1.065674308404218e-06 
-1.215512159696842e-06 
-1.058068904611356e-06 
-9.503250299823118e-07 
-8.198148312609934e-07 
-8.244960002799972e-07 
-9.588377188657618e-07 
-1.030874187956216e-06 
-5.358852217560951e-07 
-4.754253453555702e-07 
-4.331015537641481e-07 
-1.071698206385684e-07 
-4.224512841829883e-07 
-3.848160924405583e-07 
-3.657068029321551e-07 
-4.072545929519747e-07 
-7.726684059146278e-20 
2.135758623190604e-06 
