solver_type L2R_LR
nr_class 2
label 0 1
nr_feature 105
bias 1
w
0 
0.0008000711200342363 
0.0003876985679777181 
9.682569464111122e-05 
-6.933908192710835e-05 
-2.902479595670186e-05 
-0.000114887118435937 
-0.0001231186751934606 
-0.0001467330133677002 
-0.0001342264430709355 
-0.0001044681212700095 
-0.0001091358742592266 
-5.29257647752687e-05 
-5.829183386151386e-05 
-5.874857491942635e-05 
-7.592756535270394e-05 
-6.822147366078409e-05 
-5.929698987156602e-05 
-3.157664024787584e-05 
-4.511991288576135e-05 
-3.75529893852434e-05 
-4.842512931478457e-05 
-4.183833300821006e-05 
-3.827074071666719e-05 
-4.076767009946907e-05 
-3.562022834679391e-05 
-3.59463178872975e-05 
-2.431181018074176e-05 
-3.237605247841096e-05 
-3.078126382085443e-05 
-2.327658387150134e-05 
-2.565323651522892e-05 
-2.703324021004559e-05 
-2.212729361685114e-05 
-2.13413114367661e-05 
-2.351779249980663e-05 
-2.241801049609705e-05 
-2.041293532328e-05 
-2.10604007336906e-05 
-2.02115122705755e-05 
-1.569241058293312e-05 
-1.854325956578739e-05 
-1.747458638761272e-05 
-1.606056474168888e-05 
-1.168276236697702e-05 
-1.209584264813955e-05 
-1.166877923178796e-05 
-1.279833380448206e-05 
-1.149129930576372e-05 
-1.242768356198002e-05 
-1.140960896374865e-05 
-1.082809165574424e-05 
-9.649408456521417e-06 
-9.567660100391921e-06 
-8.951606326968643e-06 
-8.005638931583812e-06 
-8.339803210868394e-06 
-7.681446050005105e-06 
-8.019839825864051e-06 
-7.954551213949456e-06 
-7.350956222647553e-06 
-7.073303810442051e-06 
-6.313976686657007e-06 
-5.800739782191877e-06 
-5.414825798742294e-06 
-5.484943898069541e-06 
-4.982428967013196e-06 
-5.777092740981288e-06 
-4.716935256333954e-06 
-4.208637163572858e-06 
-3.745783808591754e-06 
-3.729672489164551e-06 
-3.691975518234864e-06 
-3.092798960219318e-06 
-3.029541711751551e-06 
-2.681186777705183e-06 
-2.31876765426466e-06 
-2.200438223759919e-06 
-2.340098944838642e-06 
-2.144359846048344e-06 
-2.100833643525339e-06 
-2.077143434484278e-06 
-1.984613758793172e-06 
-1.842264249293036e-06 
-1.854202232867405e-06 
-1.497136103172001e-06 
-1.447716738847267e-06 
-1.504537358487468e-06 
-1.25586642462659e-06 
-1.410971779203201e-06 
-1.175786589155901e-06 
-9.291822094444216e-07 
-8.629985031296862e-07 
-8.8832702566655e-07 
-7.781427987981821e-07 
-8.183259761473342e-07 
-5.567449430832137e-07 
-5.85371189192183e-07 
-4.104688829045361e-07 
-3.934476228438042e-07 
-5.176433627169665e-07 
-4.459633559642502e-07 
-4.817762024028235e-07 
-4.137637868451901e-07 
-1.890301496086402e-19 
-1.68817847915539e-05 
