solver_type L2R_LR
nr_class 2
label 0 1
nr_feature 105
bias 1
w
0 
0.001399938362595295 
0.00132078165298518 
0.0008722938251156445 
0.0003228912793052366 
0.0002582932955100133 
0.0001360026671323585 
8.422740047723165e-05 
-4.163582321763731e-06 
5.558611891792667e-06 
4.008546085854326e-05 
2.864369380877489e-05 
2.502240071874804e-05 
2.923054747802029e-05 
1.348505857501618e-05 
9.413436193832904e-06 
-6.935811970906464e-07 
2.017429628209671e-05 
1.09216152868965e-05 
-3.084321967000047e-06 
8.044918086691529e-06 
5.840102891511045e-07 
-1.508562179564245e-06 
-4.146899764306445e-06 
-1.066594051108091e-05 
-9.360478385402459e-06 
-1.080396791104934e-05 
-7.581680324658392e-06 
-2.058557380394961e-05 
-1.818037628935213e-05 
-1.640330120398016e-05 
-1.598963598314074e-05 
-1.645154891064397e-05 
-1.614576055177792e-05 
-1.592242480222692e-05 
-1.459259653084071e-05 
-1.44304824292922e-05 
-1.133368852283004e-05 
-1.219785389904731e-05 
-1.282208220175091e-05 
-1.325878677207034e-05 
-1.416662476894719e-05 
-9.903671420177567e-06 
-9.505812614246888e-06 
-1.084645623271865e-05 
-1.037188861069524e-05 
-9.917423529861464e-06 
-1.056140692786501e-05 
-8.32154142118118e-06 
-9.428539246753118e-06 
-8.750181893794801e-06 
-8.926554669160346e-06 
-7.508405584709498e-06 
-7.382761555454372e-06 
-7.984429922112037e-06 
-7.191372798541206e-06 
-7.984760741710535e-06 
-7.335581981916463e-06 
-7.349020176688771e-06 
-7.288937323756737e-06 
-6.652951453580068e-06 
-5.890073777481304e-06 
-5.726252710627804e-06 
-5.37831099358577e-06 
-5.245033296298736e-06 
-4.910458753713105e-06 
-4.682927967643672e-06 
-5.402998115882974e-06 
-5.041711595732491e-06 
-4.713326465452919e-06 
-3.568694691715883e-06 
-4.029673598518636e-06 
-3.813421020039272e-06 
-3.623363180832997e-06 
-3.258611329659923e-06 
-3.303683951513177e-06 
-3.070531872290379e-06 
-3.043763168383373e-06 
-2.975931847067226e-06 
-2.951576249443019e-06 
-2.622671545909158e-06 
-2.614148407412405e-06 
-2.550309618380395e-06 
-2.169098002735158e-06 
-2.111029018915625e-06 
-1.669420800838024e-06 
-1.898263512528094e-06 
-1.847092432862177e-06 
-1.751497848873775e-06 
-1.674181828354945e-06 
-1.498218922700874e-06 
-1.470468302916572e-06 
-1.555760164353938e-06 
-1.550106468212496e-06 
-1.387712197268402e-06 
-1.268950501047882e-06 
-1.397992465469914e-06 
-1.396238837032472e-06 
-9.465565809095591e-07 
-1.137178383829003e-06 
-9.744640594514786e-07 
-8.971486316382062e-07 
-6.319846173935578e-07 
-6.008099355853227e-07 
-5.892611226427676e-20 
-6.40008829428799e-05 
