solver_type L2R_LR
nr_class 2
label 0 1
nr_feature 105
bias 1
w
0 
0.0001105441155126278 
0.0004531916624966598 
0.000569516189624912 
0.000327185500882705 
0.0003030951549965857 
0.0002425872513925253 
0.0001950622033223473 
0.0002156295868835189 
0.0002256590749883532 
0.0001261674940793193 
0.0001327424539254087 
0.0001266742721226478 
7.667218567496679e-05 
7.688279050123366e-05 
8.494551122546312e-05 
8.59694632909598e-05 
7.316022026872656e-05 
7.395499983042879e-05 
7.337017814522642e-05 
7.16483274618364e-05 
5.390479044859637e-05 
5.029947948138132e-05 
4.900201184302311e-05 
4.81611289567896e-05 
3.432567004445634e-05 
2.766285809981658e-05 
3.525833809371041e-05 
2.5206048884455e-05 
2.236590225942122e-05 
2.347972179169275e-05 
1.996008525173172e-05 
1.837345127521737e-05 
1.939963231129966e-05 
2.113952019834693e-05 
2.056313350452352e-05 
1.920280581945649e-05 
1.775784983053317e-05 
1.673101754488268e-05 
1.361454771629865e-05 
1.377779451655181e-05 
1.098769945689936e-05 
7.162910661529283e-06 
1.054605518715456e-05 
7.918163093814622e-06 
7.475896409965611e-06 
6.903014025913723e-06 
7.321844633166668e-06 
6.213700543802406e-06 
5.274758976927299e-06 
6.119795891382082e-06 
5.555223164338483e-06 
5.518129008759463e-06 
5.282206169746733e-06 
4.709192055805146e-06 
5.067616049803002e-06 
5.271519976406064e-06 
4.721531016203415e-06 
4.662584159547968e-06 
3.884921855532015e-06 
3.301352490383573e-06 
2.908661184630986e-06 
2.446846439568412e-06 
2.712951859861489e-06 
2.081007144732438e-06 
1.953392221505465e-06 
1.746699935146447e-06 
1.37256554961794e-06 
1.288620383072864e-06 
1.079634826996274e-06 
1.358826710392347e-06 
1.430062979713909e-06 
1.064024879102549e-06 
1.414733880586264e-06 
1.156314466396809e-06 
9.127146598853985e-07 
7.959975181614138e-07 
6.791299049596796e-07 
8.851405356044406e-07 
1.170560502361824e-06 
9.383678090524734e-07 
6.583790154336907e-07 
5.776983463202641e-07 
5.537351034223647e-07 
5.478232960170844e-07 
3.614473410276398e-07 
3.543769635761774e-07 
9.000270359598732e-08 
3.4509805593927e-08 
1.640465184442372e-07 
1.787845777965938e-07 
2.196998029356561e-07 
-1.093298656326073e-08 
-9.074219507047756e-08 
-1.306101853234225e-07 
-4.661427579889806e-08 
-1.821226302171519e-07 
-2.848864190922609e-07 
-1.330717053384123e-07 
-7.872538765504684e-08 
1.10022577820875e-07 
3.654605364088607e-08 
1.332508202662428e-07 
-2.549092942098503e-07 
1.429118878594176e-19 
-2.700293593802011e-05 
