solver_type L2R_LR
nr_class 2
label 0 1
nr_feature 105
bias 1
w
0 
5.387620386867813e-05 
-0.0005331528583739631 
-0.0006111850965554931 
-6.908922149581518e-05 
-0.000145833984042659 
-0.0001442839281022684 
-0.0001272115879344363 
-0.0001483804283653168 
-9.487656240678593e-05 
-5.704797668715994e-05 
-5.23614070375223e-05 
-7.49941524341866e-05 
-0.0001086049414787715 
-0.0001328338641640903 
-0.0001094567740987944 
-0.0001083972001593283 
-0.0001029587711184236 
-0.0001035738739007417 
-8.397861112938542e-05 
-7.838592887153374e-05 
-9.198803063776765e-05 
-5.482822777518787e-05 
-7.12172222808727e-05 
-5.436985470415114e-05 
-4.914449750768012e-05 
-4.117158622403582e-05 
-3.409954941401174e-05 
-3.552020991404692e-05 
-3.29036455635167e-05 
-2.748483832826676e-05 
-3.281154582414819e-05 
-3.200307723015752e-05 
-3.108461591023204e-05 
-2.802744480370145e-05 
-2.643522163315342e-05 
-2.362009443949349e-05 
-2.502059273354341e-05 
-2.224067630375641e-05 
-2.088274922830122e-05 
-2.25025412621124e-05 
-2.220560393503709e-05 
-2.19041813049749e-05 
-2.138757445183898e-05 
-2.256232213566532e-05 
-2.088560076251215e-05 
-1.691664484699468e-05 
-1.72778308527392e-05 
-1.62330364172653e-05 
-1.521651481180374e-05 
-1.49945947515343e-05 
-1.513673190317107e-05 
-1.46566375714935e-05 
-1.407094951317441e-05 
-1.296789115823091e-05 
-1.393763644728989e-05 
-1.124732292841195e-05 
-1.135440261398731e-05 
-1.052260466304126e-05 
-8.98202112196706e-06 
-8.102109726689424e-06 
-7.47080747560982e-06 
-7.82328946601108e-06 
-6.807931571978967e-06 
-6.945020233439927e-06 
-7.037128970597877e-06 
-5.900987407955762e-06 
-5.303440927413243e-06 
-5.568405278988682e-06 
-5.250008178943351e-06 
-5.572583379506144e-06 
-4.80858462496749e-06 
-4.470283423112762e-06 
-4.402578115020936e-06 
-4.142519581792772e-06 
-3.783554162442996e-06 
-3.3953676300041e-06 
-2.652390074006089e-06 
-2.947546740567999e-06 
-2.448755676666291e-06 
-2.657158020522108e-06 
-2.676802648491324e-06 
-2.280898224216634e-06 
-1.798391376949057e-06 
-2.004404849714788e-06 
-2.021504697509225e-06 
-1.713806833683583e-06 
-1.76877854791078e-06 
-1.590316852127203e-06 
-1.772018948790512e-06 
-1.403629727744029e-06 
-1.661323533179256e-06 
-1.394628719355105e-06 
-1.491706649284223e-06 
-1.527283106914189e-06 
-1.168727883529723e-06 
-1.321654688286336e-06 
-1.161880372517351e-06 
-1.013387243966797e-06 
-1.047690699947248e-06 
-9.673971380069595e-07 
-7.584100763914387e-07 
-9.828546372691481e-07 
-6.667078486103774e-07 
4.291658429961951e-20 
2.620707652774836e-05 
