solver_type L2R_LR
nr_class 2
label 0 1
nr_feature 105
bias 1
w
0 
-0.0001290161652840119 
-5.020474339031209e-05 
-0.0002728664218682873 
2.491614757793301e-05 
-7.550725926156489e-05 
-1.8435296642407e-05 
-3.997646689054083e-05 
-6.003153237203644e-05 
2.434423655244893e-05 
3.022779454561523e-05 
4.112514968770729e-05 
1.897155004587721e-05 
-1.340309347686551e-05 
-2.233487701968219e-05 
-1.762439232059117e-05 
-1.411487592456373e-05 
-2.271653813978243e-05 
-1.734431922551557e-05 
-2.797954805389533e-05 
-2.321351994769914e-05 
-3.653810660058902e-05 
-3.326276086795619e-05 
-3.134832496990861e-05 
-2.642280972085147e-05 
-2.51454821015431e-05 
-2.222395643236313e-05 
-2.817500383232913e-05 
-1.398268724009139e-05 
-2.5777293385074e-05 
-2.484110862630496e-05 
-2.031612592587359e-05 
-2.148339741929063e-05 
-2.267371423316354e-05 
-1.819539962517621e-05 
-1.601291380767747e-05 
-1.72906755583955e-05 
-2.13619511725957e-05 
-1.91365591887299e-05 
-1.551792847196374e-05 
-1.538862455632104e-05 
-1.535408578149814e-05 
-1.709691239311882e-05 
-1.724154934936903e-05 
-1.289706335610788e-05 
-1.338774024570299e-05 
-1.313251288351031e-05 
-1.094389639915297e-05 
-1.004256616779407e-05 
-1.040362243600352e-05 
-9.482437889162408e-06 
-7.729470429581047e-06 
-1.006864004916911e-05 
-9.21345179013077e-06 
-8.947005679476196e-06 
-8.398283568208275e-06 
-7.001801033470666e-06 
-6.765809973806548e-06 
-5.552174052278502e-06 
-5.910429322040617e-06 
-5.066079820511498e-06 
-4.78687292920807e-06 
-4.907107431331067e-06 
-4.396001223768829e-06 
-3.488462724577798e-06 
-3.558452934134478e-06 
-3.262935483962807e-06 
-2.521633522884255e-06 
-2.833983268165569e-06 
-2.774186353571159e-06 
-2.88308232238591e-06 
-2.80319742400388e-06 
-2.718714558534421e-06 
-2.278345730120332e-06 
-1.626508842649796e-06 
-1.519966828478264e-06 
-1.65392833312941e-06 
-1.363969750968978e-06 
-1.515622762794257e-06 
-1.844878134215422e-06 
-1.161593421591926e-06 
-1.238828275646107e-06 
-1.317101590218007e-06 
-1.260727787499737e-06 
-1.305848470381042e-06 
-1.28133537475127e-06 
-1.100570763776683e-06 
-1.239242000948172e-06 
-1.035307859369582e-06 
-8.688929885645973e-07 
-8.490616354019203e-07 
-7.417616040711984e-07 
-7.353271892905604e-07 
-8.557651379230379e-07 
-6.601811912234838e-07 
-5.984496240450614e-07 
-7.704935303804751e-07 
-4.295190441365966e-07 
-4.164632666995034e-07 
-3.58348557470693e-07 
-3.761491277692811e-07 
-4.453029305278721e-07 
-2.385199374769659e-07 
-4.210132213989766e-07 
-2.511204699570464e-20 
9.578448717400498e-06 
