solver_type L2R_LR
nr_class 2
label 0 1
nr_feature 105
bias 1
w
0 
-0.001647062295215296 
-0.001475521732073889 
-0.0009796334007186507 
-0.0003066391876690141 
-0.0004234963423720177 
-0.0003218313517251222 
-0.0002697301652690114 
-0.0002642886683457598 
-0.0001683145704154927 
-8.494457490242983e-05 
-5.975476078894716e-05 
-0.0001136127948101537 
-0.000130881562525943 
-0.0001341498176645543 
-0.0001229637768922697 
-8.971787266118455e-05 
-8.935319930584095e-05 
-7.32462684387481e-05 
-7.12067732309092e-05 
-6.120449168049301e-05 
-7.572572216567196e-05 
-6.000169183996057e-05 
-5.874464840216028e-05 
-4.825264316701286e-05 
-5.551314486751307e-05 
-4.744176078114944e-05 
-4.757005071096305e-05 
-4.029921800144504e-05 
-4.354520898105234e-05 
-3.300168028409716e-05 
-3.568461052368015e-05 
-3.250866290156436e-05 
-3.296172417808297e-05 
-2.850452245468633e-05 
-3.190974736215053e-05 
-2.830416828022001e-05 
-2.801246355142992e-05 
-2.764806665164444e-05 
-2.283102308841243e-05 
-2.130229320974534e-05 
-2.351707225159564e-05 
-2.370322245859342e-05 
-2.367653639123312e-05 
-2.284374571286702e-05 
-2.04095049931259e-05 
-1.991705327572995e-05 
-1.841416032367308e-05 
-1.775122719704429e-05 
-1.667384050227428e-05 
-1.757438590604191e-05 
-1.590056926041486e-05 
-1.671867311869674e-05 
-1.456054654047657e-05 
-1.408636208879002e-05 
-1.371716866254158e-05 
-1.246969219130476e-05 
-1.215420313072509e-05 
-1.014867624637302e-05 
-1.01966543732189e-05 
-8.942434822355183e-06 
-8.147140705917217e-06 
-5.936373717604651e-06 
-5.921513839575612e-06 
-5.818065083526949e-06 
-5.117341291325564e-06 
-4.893925929648174e-06 
-3.821116260130606e-06 
-3.592663141989311e-06 
-3.985515848768932e-06 
-3.870155792118526e-06 
-3.708383853125285e-06 
-3.326545109503207e-06 
-2.449709407519759e-06 
-2.180597403960207e-06 
-1.587626733620305e-06 
-1.387277379892115e-06 
-1.26013464744056e-06 
-1.310237678742457e-06 
-1.265631665386347e-06 
-7.789256484219167e-07 
-5.33949979181642e-07 
-4.575694753093417e-07 
-3.768985985084396e-07 
-2.359458461017036e-07 
-1.015022881751853e-07 
-1.829698134309126e-07 
4.381478880567023e-08 
3.906925287860602e-07 
2.153174052511034e-07 
2.864990410568937e-07 
3.761559718775138e-07 
3.815155733126859e-07 
5.788167569808396e-07 
2.520105407856339e-07 
4.189691275644662e-07 
3.902967884828866e-07 
4.977942970636857e-07 
7.023250082649827e-07 
5.328450695607112e-07 
5.996051565639607e-07 
5.921871640328218e-07 
5.606655046259065e-07 
2.961311426889699e-07 
-1.046343372768658e-19 
0.0001014775145533416 
