solver_type L2R_LR
nr_class 2
label 0 1
nr_feature 105
bias 1
w
0 
-0.0009120509125057998 
-0.0006377284965410866 
-0.0006114985931509953 
-2.018061521364482e-05 
-6.30011462198875e-06 
3.282480535965504e-05 
-1.425350997572763e-05 
4.926779271096663e-05 
1.869068143268528e-05 
-2.900242043493566e-05 
2.384633299487127e-06 
9.59812277147323e-06 
9.841886703273301e-06 
2.827370488401054e-05 
1.496715462626653e-07 
1.917617489051682e-05 
3.459589637564106e-05 
1.565283714902984e-05 
1.321748350961026e-05 
1.684178045138478e-05 
6.340571292038601e-06 
2.063771525110368e-05 
2.525141513786588e-05 
2.398717751759016e-05 
2.786764730178043e-05 
2.227064474016395e-05 
1.770553396265957e-05 
3.086697140596714e-05 
2.021471388434509e-05 
1.845400838764202e-05 
1.57785413331851e-05 
2.106447707094264e-05 
1.883911222425055e-05 
1.53337243079422e-05 
1.42414662128962e-05 
1.522570226029522e-05 
1.206490073799175e-05 
1.046700251674702e-05 
1.118494014920451e-05 
1.063487385255882e-05 
1.045934193575751e-05 
1.500017568735852e-05 
1.049550905041047e-05 
1.104883383227848e-05 
1.070174878087438e-05 
1.116457823323329e-05 
9.589658839004316e-06 
9.380232981035816e-06 
8.818690307122769e-06 
7.957238582149996e-06 
8.224390434154724e-06 
7.80324515186769e-06 
7.999647462810817e-06 
7.379437054499487e-06 
6.639755536208485e-06 
6.184771338267686e-06 
6.492784735427964e-06 
6.177988927723247e-06 
4.982557106342375e-06 
5.534636394138395e-06 
5.44914116264821e-06 
4.491335903395125e-06 
4.770128245361383e-06 
4.192917414974441e-06 
4.931208642127091e-06 
4.339110536429008e-06 
3.666537587844981e-06 
3.616024374543211e-06 
3.178216754073607e-06 
3.557052490104581e-06 
3.192489815611041e-06 
3.272092477530992e-06 
3.128445421266189e-06 
2.921104917038635e-06 
3.20021759682272e-06 
2.690130687732199e-06 
2.72177511387669e-06 
2.422007193711954e-06 
2.263451436977962e-06 
2.557840710727763e-06 
2.261825492698971e-06 
2.32051102237275e-06 
1.895092881357891e-06 
1.964943467264149e-06 
1.865310407446359e-06 
1.842671754183061e-06 
1.69277931805833e-06 
1.81830211821708e-06 
1.609704453107985e-06 
1.800721922928913e-06 
1.596130487469388e-06 
1.37329102400124e-06 
1.71826082125418e-06 
1.434657941650995e-06 
1.362996885194108e-06 
1.371147442173475e-06 
1.166523954904373e-06 
1.209045732317455e-06 
9.830796344042393e-07 
1.089990739065484e-06 
8.424549161636061e-07 
7.624441547507286e-07 
4.587157227566679e-07 
1.164955561833695e-19 
3.570127062164532e-05 
