solver_type L2R_LR
nr_class 2
label 0 1
nr_feature 105
bias 1
w
0 
0.0001453829576943616 
0.0005110744733153524 
0.0006099456871742995 
8.103783052874909e-05 
8.058069325672446e-05 
1.595160806879359e-05 
4.618045153875491e-05 
1.235493870123386e-05 
3.973818164376181e-05 
2.460937412125685e-05 
-2.110390082547717e-05 
-3.255029317754688e-05 
-3.54613254720321e-05 
-5.732670907858473e-05 
-3.388680960892017e-05 
-4.375596179545654e-05 
-5.139885056613776e-05 
-4.414023125985969e-05 
-4.241180962113007e-05 
-4.294916557825577e-05 
-3.122767550995248e-05 
-2.985842132382682e-05 
-4.596251106094343e-05 
-4.134855200487194e-05 
-4.628241915932295e-05 
-4.22609347615656e-05 
-4.647885159407303e-05 
-3.590994370312853e-05 
-3.964034732451497e-05 
-4.581145674100481e-05 
-4.225476508027615e-05 
-4.209042784564785e-05 
-3.803379185447448e-05 
-3.626505361234581e-05 
-3.204605852306427e-05 
-2.872225405756256e-05 
-3.137923491954828e-05 
-3.28641622575539e-05 
-3.031733607318199e-05 
-2.862353016006474e-05 
-2.677006951653283e-05 
-2.641194544566647e-05 
-2.529975452528574e-05 
-2.368720913811981e-05 
-2.332995867468629e-05 
-2.327051316326718e-05 
-2.040055323717848e-05 
-2.016357277874045e-05 
-1.87643530958449e-05 
-1.796475600659016e-05 
-1.607255689403606e-05 
-1.463517767969079e-05 
-1.411216441618255e-05 
-1.441456920330203e-05 
-1.361663472628721e-05 
-1.224063007971597e-05 
-1.061029259817489e-05 
-1.071926809177427e-05 
-1.058247125653362e-05 
-9.933801308714896e-06 
-9.539107731181739e-06 
-8.566056444812414e-06 
-7.994144912449089e-06 
-7.635213936307089e-06 
-7.615966941560994e-06 
-6.96475380741822e-06 
-6.139576908530589e-06 
-6.159704181637519e-06 
-5.83638305892252e-06 
-5.778731293862221e-06 
-5.767476479060083e-06 
-5.602977890648436e-06 
-5.270702852185219e-06 
-4.984949447348971e-06 
-4.393420321351967e-06 
-3.929364045287378e-06 
-3.900814087149206e-06 
-3.847475689443957e-06 
-3.562220454958694e-06 
-3.295570475235616e-06 
-2.86218903508873e-06 
-2.716896984446429e-06 
-2.29923781133069e-06 
-2.184498253921086e-06 
-2.029673521436263e-06 
-1.94436757653172e-06 
-1.755726908379337e-06 
-1.494587748808335e-06 
-1.4499587952447e-06 
-1.49933127861427e-06 
-1.495334285962622e-06 
-1.336267606684585e-06 
-1.277577993396347e-06 
-1.277760451138842e-06 
-9.867218441719353e-07 
-1.07215575484741e-06 
-8.564444842883612e-07 
-9.216285827235514e-07 
-9.030244507790967e-07 
-6.895825729390687e-07 
-5.750035067828397e-07 
-5.69955968558461e-07 
-5.044188250446969e-07 
-2.442115230023724e-19 
-1.391272243124815e-05 
