solver_type L2R_LR
nr_class 2
label 0 1
nr_feature 105
bias 1
w
0 
0.0002581288240124823 
0.0005375510953383147 
0.0007238840107413424 
6.899268650808372e-05 
0.0001220660306362114 
0.0001297016002541492 
1.768195659471447e-05 
2.533832425140909e-05 
5.708696909625799e-05 
2.727916585316979e-05 
1.744809945447385e-05 
3.544166109114089e-05 
8.541012360075598e-06 
2.79351656220028e-05 
2.788491874729707e-05 
1.774609570019927e-05 
2.281872325728551e-05 
2.059846416757129e-05 
2.066473593230165e-05 
2.635011477921878e-05 
3.167651204795638e-05 
2.828046126026566e-05 
2.167854461744714e-05 
1.373650509625139e-05 
7.547002321729684e-07 
3.743537773612456e-06 
4.520988377129289e-06 
9.912340654293156e-06 
-3.238475915593776e-07 
-2.967511050214335e-06 
-4.299304708950006e-06 
-4.630698354280542e-06 
-4.299971563754246e-06 
-2.909443333868352e-06 
-2.449939477070919e-06 
4.785762266718095e-07 
2.691376053518573e-06 
1.634858207621895e-06 
-1.414270856987324e-07 
1.625689187021244e-06 
1.687560208835336e-06 
-4.002043221093885e-07 
1.918942011378931e-06 
3.363996733166467e-07 
7.688331675845785e-07 
-1.686631610058074e-06 
-1.555722542555131e-06 
-1.213845207085725e-06 
-4.561270853050554e-07 
2.667131639519651e-08 
1.879862019035793e-07 
-2.862193141771454e-08 
-7.159679927657743e-07 
-8.56949755264244e-07 
-1.480972734375663e-06 
-1.312291578261438e-06 
-1.315071046279124e-06 
-1.568406765594121e-06 
-2.328009139570783e-06 
-1.956487570255263e-06 
-2.033200985389041e-06 
-1.470418085533528e-06 
-1.119281372515276e-06 
-1.382905514475321e-06 
-6.09258722765019e-07 
-5.23694054497865e-07 
-8.045858987356794e-07 
-8.622294638609744e-07 
-2.909649123717843e-07 
-1.929043047974655e-07 
-2.532567621529649e-07 
-5.466742836585757e-07 
-6.739783601384527e-07 
-5.561004811227368e-07 
-4.55502935273466e-07 
-4.440520322649996e-07 
-2.956686293509414e-07 
-9.979446534766686e-08 
-3.677053579400979e-07 
-2.745588313912406e-07 
1.138950075054803e-07 
1.482633516191999e-07 
2.805206615818821e-07 
2.250195749624433e-07 
4.589473336929659e-07 
4.561636524725515e-07 
3.8069666223479e-07 
5.254286172268926e-07 
2.896044875276848e-07 
2.839266763005519e-07 
2.531980663865994e-07 
2.892958223456255e-07 
2.835538255785272e-07 
4.335443319906162e-07 
2.532727608562706e-07 
1.225002351870904e-07 
2.852648320965217e-07 
3.199261483522336e-07 
1.819101832404882e-07 
3.261954811194432e-07 
4.23971679672341e-07 
9.199521661814217e-08 
-7.991539105004254e-09 
-1.590071121099277e-19 
-2.232725484064401e-05 
