solver_type L2R_LR
nr_class 2
label 0 1
nr_feature 105
bias 1
w
0 
-0.0008410668131199359 
-0.001007845393359657 
-0.0007633855955140955 
-0.0004182127232873512 
-0.000447456280535945 
-0.0003545184597720364 
-0.0004004596280714084 
-0.0003646506070334629 
-0.0003004352171853029 
-0.0002584608661503562 
-0.0002015584131552368 
-0.0002202265966777035 
-0.0002179771233632039 
-0.0002125427281219646 
-0.0001707744927283194 
-0.0001573099460928319 
-0.0001206735419424545 
-0.0001114807711932007 
-0.0001074575166414737 
-9.42296052553386e-05 
-9.228631852882803e-05 
-7.700872933131685e-05 
-8.61589109905229e-05 
-8.616123814873899e-05 
-6.197224148033843e-05 
-6.169403806562117e-05 
-5.107142978646008e-05 
-3.800656392871722e-05 
-3.661318572090993e-05 
-3.411577178465958e-05 
-3.237420190539279e-05 
-3.103619081220559e-05 
-2.588643716601531e-05 
-2.913949344297038e-05 
-2.674392821086919e-05 
-2.497298072091953e-05 
-2.642555447586445e-05 
-2.660356988699653e-05 
-2.707587974212237e-05 
-2.573778780234195e-05 
-2.275088821819776e-05 
-2.275002156826312e-05 
-2.602285000818374e-05 
-2.287084084105377e-05 
-2.095132414498834e-05 
-1.982721979800212e-05 
-1.740133483498286e-05 
-1.767140334128993e-05 
-1.745904583117775e-05 
-1.464045888009638e-05 
-1.358253329889842e-05 
-1.343926313462197e-05 
-1.326795074126632e-05 
-1.289560839760997e-05 
-1.28244568383313e-05 
-1.150927755436872e-05 
-1.034925611147276e-05 
-1.092368711193107e-05 
-9.931080481650507e-06 
-7.849015046791082e-06 
-8.060990763319787e-06 
-7.227947820543732e-06 
-7.252078471499828e-06 
-6.110777824534562e-06 
-6.023728943908448e-06 
-5.393804118874805e-06 
-4.00219413619185e-06 
-3.979771348769756e-06 
-3.796840627378462e-06 
-4.299144807284593e-06 
-4.172701343578777e-06 
-3.443648864611584e-06 
-2.902136022324496e-06 
-3.114869352136465e-06 
-1.927744665925749e-06 
-2.270881796972032e-06 
-2.225195947371145e-06 
-1.539576807343324e-06 
-1.911616296210992e-06 
-1.354792946504173e-06 
-1.379636235030512e-06 
-1.246465146820061e-06 
-1.285365027854779e-06 
-1.222849158501891e-06 
-1.270206978892325e-06 
-8.469852654401332e-07 
-8.633785635898164e-07 
-6.701739348117108e-07 
-8.434350839384414e-07 
-7.390318310533801e-07 
-5.842958277179883e-07 
-4.990089306455949e-07 
-3.518849163638472e-07 
-3.488788666805706e-07 
-5.794880633712429e-07 
-6.888743818966113e-07 
-5.114382612218855e-07 
-4.178213184239222e-07 
-3.421242395789208e-07 
-3.586178058867971e-07 
-3.263039507473612e-07 
-3.515900824716022e-07 
-1.044647431463767e-07 
-2.849256387645439e-19 
7.579173204654546e-05 
