solver_type L2R_LR
nr_class 2
label 0 1
nr_feature 105
bias 1
w
0 
-0.0006624164994407178 
-0.0005225534273268216 
-0.0003675765574421135 
-1.630578820107504e-05 
-9.08978010054e-05 
-0.0001155820840000015 
-5.491289516224974e-05 
-6.358439163845197e-05 
-9.89233085387907e-06 
5.341561578267161e-05 
1.598648773618162e-05 
-4.166019663671114e-07 
-1.283294128895011e-05 
-4.273328031520183e-05 
-3.059535246471623e-05 
-2.985096171287916e-05 
-3.035434690893227e-05 
-2.748229479669825e-05 
-2.562497951969437e-05 
-3.444376841465762e-05 
-3.123816144784656e-05 
-3.415035151287449e-05 
-4.341587856997142e-05 
-2.725664979629701e-05 
-2.160947367823126e-05 
-2.082819838903147e-05 
-2.675718334283884e-05 
-2.188052390367294e-05 
-1.935191127787656e-05 
-2.12453181490577e-05 
-2.160738572786009e-05 
-1.960813222312861e-05 
-1.391917184948099e-05 
-1.620818650946767e-05 
-1.579463089223302e-05 
-1.361746158430987e-05 
-1.290839592416824e-05 
-1.538610152718454e-05 
-1.276462671162678e-05 
-1.220838606066013e-05 
-1.446790728890126e-05 
-1.271010972757352e-05 
-1.292706549606598e-05 
-1.221288985604636e-05 
-1.174504360592689e-05 
-1.026164729842986e-05 
-1.109536350776097e-05 
-1.037838024401905e-05 
-9.600053513260532e-06 
-9.321321010709677e-06 
-9.952773567901385e-06 
-7.915383950282642e-06 
-7.512568365241117e-06 
-8.017559216676715e-06 
-7.373799699615815e-06 
-5.832651039752847e-06 
-5.604811079899524e-06 
-5.877258732035133e-06 
-4.872679529552005e-06 
-4.611046690807024e-06 
-4.040968561216556e-06 
-3.747787626588876e-06 
-3.370685541274838e-06 
-3.258134853311142e-06 
-3.440583394719891e-06 
-2.972905363752143e-06 
-2.516107268462697e-06 
-2.45376759648124e-06 
-2.360479284671142e-06 
-2.272945634663851e-06 
-2.076617542113875e-06 
-2.08508024711257e-06 
-1.977594126341937e-06 
-1.699661973617262e-06 
-1.530766000689964e-06 
-1.228993043888491e-06 
-1.448288132703338e-06 
-1.22902838614502e-06 
-9.751720966886168e-07 
-1.019959706206245e-06 
-9.407097440711308e-07 
-8.806675832068989e-07 
-6.675213798235065e-07 
-6.672498647265465e-07 
-4.534478344810593e-07 
-5.572349303080879e-07 
-3.473479529897464e-07 
-2.550763708462666e-07 
-4.844689883962934e-07 
-5.539166884433429e-07 
-2.947997053972735e-07 
-3.154862209017065e-07 
-1.891251054621121e-07 
-2.523851222341873e-07 
-3.283844812496592e-08 
-3.949776462463725e-08 
-7.376787390721762e-08 
-1.479534726765298e-07 
-1.700804323606645e-07 
-1.336448784659997e-07 
3.037302824776543e-08 
-1.521997683808768e-07 
-1.463218225296305e-07 
-1.121387199438457e-21 
1.933213074406008e-05 
