solver_type L2R_LR
nr_class 2
label 0 1
nr_feature 105
bias 1
w
0 
-0.0004436555491683316 
-0.0005817384922980208 
-0.0001406594770074207 
-4.657554823111981e-05 
6.925037816170464e-05 
0.0001201293709494433 
0.0001016525873811779 
0.0002445696660159839 
0.0001018407765390883 
5.660563302329491e-05 
8.329391317213244e-05 
0.0001421022014960183 
0.0001371018207121907 
0.0001133499786629921 
0.0001073299653895482 
0.0001067708579308879 
8.719536811451402e-05 
9.197364548708174e-05 
0.0001077875466832997 
0.000104898592907351 
8.860887213663632e-05 
9.661194162474066e-05 
9.589696737418816e-05 
9.413448628292891e-05 
9.605943458689007e-05 
9.402384529623839e-05 
9.367170404227376e-05 
8.241850020563033e-05 
8.505393482663352e-05 
7.486856373911663e-05 
7.034466844016147e-05 
6.579451082956647e-05 
5.794038825291002e-05 
5.515770783087685e-05 
5.296313498312761e-05 
4.871500250900774e-05 
5.14782497458929e-05 
4.954232809739224e-05 
4.683537847134465e-05 
4.320617882298306e-05 
4.578513321422505e-05 
4.425687176628115e-05 
4.037012910821759e-05 
3.453487880030847e-05 
3.54782446262871e-05 
3.340428647485243e-05 
3.014231913815955e-05 
3.022640063980292e-05 
2.858118583660006e-05 
2.450304955628477e-05 
2.387521041854717e-05 
2.333486610235949e-05 
2.210369136970304e-05 
2.144007286116996e-05 
2.032163053118082e-05 
1.883174532499265e-05 
1.795523462393866e-05 
1.716546113979955e-05 
1.592963932848693e-05 
1.515958373413042e-05 
1.502808983016142e-05 
1.462563826617172e-05 
1.381481780145739e-05 
1.272417001617034e-05 
1.187118847762504e-05 
1.201710181513739e-05 
1.03841972377584e-05 
1.052694024263106e-05 
1.006902166573002e-05 
9.767912823546251e-06 
9.271806903685863e-06 
8.538544658300747e-06 
7.940725078976558e-06 
7.785653130510529e-06 
7.146949371904935e-06 
6.346143551094359e-06 
6.077428540936329e-06 
5.338589606870577e-06 
5.480628583344649e-06 
5.028980425742911e-06 
4.886985768503746e-06 
4.869078101320898e-06 
4.381480911263775e-06 
4.028796901296343e-06 
3.701286844777222e-06 
3.308273760833092e-06 
3.063013581070898e-06 
3.183547308912396e-06 
3.097169447787382e-06 
2.90527597612617e-06 
2.633860853610632e-06 
2.479973828169409e-06 
2.438844381478921e-06 
2.153553404794524e-06 
2.069247672417096e-06 
1.928710297969369e-06 
1.607602683694273e-06 
1.335901676007874e-06 
1.172680842664006e-06 
1.045181008083011e-06 
1.094586396421269e-06 
9.413194019843617e-07 
7.203516980972322e-07 
4.107033336742905e-19 
1.290722389946158e-05 
