solver_type L2R_LR
nr_class 2
label 0 1
nr_feature 105
bias 1
w
0 
-0.00179103500643704 
-0.001710087165012488 
-0.001191572075717941 
-0.0004886379102703608 
-0.000567105879286109 
-0.0004031973243364034 
-0.0004567837316962404 
-0.0004267818138583516 
-0.0003053207010550894 
-0.0002256433130686376 
-0.0001620433156134151 
-0.0001620602152609075 
-0.0001638176624348493 
-0.0001624612794607324 
-0.0001345953866775488 
-0.0001194886252780217 
-0.0001168061942011214 
-0.0001175862526462179 
-0.0001063767434629444 
-9.479677834340179e-05 
-8.243814484699658e-05 
-6.788211601657962e-05 
-5.3189929917048e-05 
-5.067349603178548e-05 
-4.771369957023637e-05 
-5.340370485715985e-05 
-5.608186905248752e-05 
-4.208670067266357e-05 
-4.152345827155206e-05 
-4.319200212756585e-05 
-4.405473447610393e-05 
-4.095870675181552e-05 
-3.96071487520069e-05 
-3.661377578959037e-05 
-4.061572521035243e-05 
-3.481136499080828e-05 
-3.687252826487384e-05 
-3.352024011094634e-05 
-3.489966949927132e-05 
-3.177085930981418e-05 
-3.023908707011193e-05 
-2.770322559930005e-05 
-3.209017118970653e-05 
-2.521686559411844e-05 
-2.346677737829006e-05 
-2.277204829888844e-05 
-2.281010458263525e-05 
-2.204061414238325e-05 
-2.276458992766148e-05 
-1.925398195204839e-05 
-1.899536277814514e-05 
-1.821591600873807e-05 
-1.518407788003663e-05 
-1.575674459975838e-05 
-1.599112468137778e-05 
-1.421920762540263e-05 
-1.309345457229234e-05 
-1.277025026685676e-05 
-1.200243001159559e-05 
-1.074139873065766e-05 
-1.019027472531695e-05 
-8.286222485124977e-06 
-7.070590744760941e-06 
-7.266878555911065e-06 
-6.52914617031031e-06 
-6.115579597782305e-06 
-5.21644525356606e-06 
-4.786050262888366e-06 
-4.836618020529908e-06 
-4.376769072751609e-06 
-4.233668628449028e-06 
-3.458467910856573e-06 
-3.041287559634289e-06 
-2.98281518775996e-06 
-1.704519607977936e-06 
-1.700197268127207e-06 
-1.843518073557468e-06 
-1.180329590869173e-06 
-1.256009949116677e-06 
-7.968179582218603e-07 
-6.287918880744938e-07 
-6.86741728620888e-07 
-6.848207531840718e-07 
-8.667244031954361e-07 
-9.551838936812878e-07 
-5.152072331040971e-07 
-7.215999601460825e-07 
-6.204819551102771e-07 
-8.766605017190022e-07 
-7.273758571876202e-07 
-3.927708009393727e-07 
-4.574149381540214e-07 
-1.316353387207039e-08 
9.535344437755606e-08 
2.263076048254013e-07 
3.389164298011786e-07 
2.263956124620391e-07 
3.26800837258531e-07 
3.83487874855675e-07 
4.350787945405023e-07 
5.607288953713259e-07 
4.25705535659022e-07 
3.299745499916372e-07 
-1.623458201167711e-19 
0.0001184822769839024 
