solver_type L2R_LR
nr_class 2
label 0 1
nr_feature 105
bias 1
w
0 
-0.0005883929228700485 
-0.0005921597543942966 
-0.0001261255220365279 
-8.781540051704615e-05 
-0.0001321755515880478 
-7.607977949921962e-05 
-0.0001198345763983312 
-7.119480730165681e-05 
-5.834211997116473e-05 
-3.450062245531442e-05 
2.514802505393213e-05 
4.425347461868908e-05 
4.363312895192229e-05 
2.796670132799093e-05 
1.856919518961286e-05 
2.096669730860638e-05 
5.952880790299187e-06 
3.485969615878988e-06 
2.37055123371186e-05 
1.359977856177067e-05 
2.046912007679007e-05 
3.412897508822712e-05 
4.056369316797533e-05 
3.876428084544703e-05 
3.869892644462811e-05 
3.305981056423724e-05 
2.812750334129232e-05 
2.667661244531007e-05 
2.513775601941172e-05 
2.467164902890502e-05 
2.342731808112795e-05 
2.581042812397153e-05 
2.345301939237451e-05 
2.269995723492805e-05 
1.774043404320302e-05 
1.874500121666685e-05 
1.461602612422329e-05 
1.599721233909332e-05 
1.461197354703402e-05 
1.553831349455339e-05 
1.339087680866641e-05 
1.42272831726122e-05 
1.303620490018439e-05 
1.055739948169784e-05 
9.133692480029348e-06 
9.924422273983359e-06 
8.572758097337705e-06 
5.990067928004715e-06 
6.444308316596164e-06 
5.553644389763556e-06 
4.260033266093922e-06 
3.108782861286016e-06 
5.509275720013738e-06 
3.97282997364844e-06 
3.782804828821628e-06 
3.490132151180746e-06 
2.805047883798163e-06 
4.178701991021677e-06 
3.198375225372971e-06 
2.704455886258978e-06 
2.877334764325007e-06 
3.73134254129482e-06 
3.886222093417948e-06 
2.920359909656674e-06 
3.171101625719169e-06 
3.001202226889991e-06 
2.407882719825811e-06 
2.3694817401936e-06 
2.409852981267637e-06 
2.517213038773288e-06 
2.305051562429705e-06 
2.455798018756986e-06 
2.263483174966553e-06 
2.134150232383837e-06 
2.005784054635674e-06 
1.982558716163938e-06 
1.81121504723208e-06 
1.804180237111417e-06 
1.926859792588652e-06 
1.863940248435587e-06 
1.959969870385702e-06 
1.640759987454308e-06 
1.295361499023979e-06 
1.557217296088982e-06 
1.538867401128277e-06 
1.37851104455666e-06 
1.06017679974186e-06 
9.765703329213559e-07 
1.029154996355879e-06 
1.111039691934167e-06 
9.953722811737277e-07 
7.907220842235046e-07 
9.894026942488613e-07 
1.006303783768961e-06 
1.130689719214324e-06 
1.485730066861823e-06 
1.157512259338104e-06 
9.811181035259676e-07 
7.536074522971195e-07 
9.274812095731864e-07 
1.001863010015119e-06 
8.838663686197003e-07 
5.477451885131604e-07 
5.246209152222363e-20 
2.834097784569529e-05 
