solver_type L2R_LR
nr_class 2
label 0 1
nr_feature 105
bias 1
w
0 
-0.000685213581529582 
-0.0007233097335258259 
-0.0002807354141896017 
-2.894627041976825e-05 
1.430563059793238e-05 
5.630630331718836e-05 
1.358691222704899e-05 
8.954277530441299e-05 
3.074238343519457e-05 
4.487021884627232e-05 
9.900696443043023e-05 
6.23734554567102e-05 
4.887729729265931e-05 
3.337245167114963e-05 
3.450222145689867e-05 
3.751581811066099e-05 
4.668597617128717e-05 
6.426695178913451e-05 
5.930716433624042e-05 
6.244435653828128e-05 
5.602163500387155e-05 
6.456839610547821e-05 
5.096188820611098e-05 
3.941062835384999e-05 
5.943264212786322e-05 
5.962249266234184e-05 
7.239004137430274e-05 
6.377497719884652e-05 
5.994214864676006e-05 
6.140656734355189e-05 
5.816635939275018e-05 
5.332389693918695e-05 
5.249658217777413e-05 
4.573959204813043e-05 
4.550709628057919e-05 
4.317554484578162e-05 
4.329672128040793e-05 
3.922128460985492e-05 
3.66338821206083e-05 
3.423912897306488e-05 
3.37766234336054e-05 
3.303380412743612e-05 
2.740697339459083e-05 
2.149803395437578e-05 
2.22706790940469e-05 
2.139013829887154e-05 
2.017708689344106e-05 
1.906663134125949e-05 
1.770701404726219e-05 
1.558980163261751e-05 
1.521461892383598e-05 
1.488460056632946e-05 
1.352022451102216e-05 
1.321660521865311e-05 
1.295759218926506e-05 
1.226888412378288e-05 
1.15413697070574e-05 
1.034486983607973e-05 
9.878809527110776e-06 
1.085929339152798e-05 
1.016938225952364e-05 
1.000725041193312e-05 
8.150500753558804e-06 
8.709580823024112e-06 
7.662317605218852e-06 
8.184482436683821e-06 
7.758917359652435e-06 
7.309178321996958e-06 
7.430240765915969e-06 
6.608381913150574e-06 
6.337839356051038e-06 
5.908213095270228e-06 
5.687892632415538e-06 
5.409494611398123e-06 
5.334168927859807e-06 
4.609417871225108e-06 
4.580119908885931e-06 
4.256939573942885e-06 
3.984631217112951e-06 
3.857002073014927e-06 
3.574844371304392e-06 
3.580243265937202e-06 
3.144962414179662e-06 
3.087066928577606e-06 
3.226958066811609e-06 
2.796501657591138e-06 
2.671300063553201e-06 
2.739092419251805e-06 
2.693360662380196e-06 
2.545937094305674e-06 
2.320430787389748e-06 
2.301989508480028e-06 
2.087320288913137e-06 
1.730421710420104e-06 
1.384665324956627e-06 
1.226303952736937e-06 
1.213046527686792e-06 
1.026525392740232e-06 
9.556629399458922e-07 
7.848410590950617e-07 
7.810052392152746e-07 
8.731898705850447e-07 
5.939094366740799e-07 
8.927684700359317e-20 
2.854475273805412e-05 
