solver_type L2R_LR
nr_class 2
label 0 1
nr_feature 105
bias 1
w
0 
-8.095962070856993e-05 
0.000293462258561349 
0.0003279814665710828 
0.0001374819263864386 
0.0002105957676459017 
0.0001693954075915578 
0.0001258705318996346 
0.0001491355154562557 
8.956150373884036e-05 
0.0001123290077621108 
9.066725306779275e-05 
0.0001122302681127721 
0.000157686862609158 
9.842830179685469e-05 
0.0001498936159208664 
0.0001252399118947123 
0.0001167835292424644 
0.0001124647109554412 
0.0001098932655227335 
0.0001098563887770325 
0.000105176581270564 
9.818848672085949e-05 
9.898857956012039e-05 
9.24993398190027e-05 
9.007300372501021e-05 
8.151440087705238e-05 
8.239190123993749e-05 
7.149966672915638e-05 
6.584346728652794e-05 
6.620269768782082e-05 
6.652421887043123e-05 
5.790330781365242e-05 
5.822783791415418e-05 
5.462218188454494e-05 
4.86635911945197e-05 
4.983876416116182e-05 
4.998913402193089e-05 
4.537558980081713e-05 
4.307627396859196e-05 
4.250060818399443e-05 
3.914936257779866e-05 
3.822886844452022e-05 
3.449694964266582e-05 
3.455519463310047e-05 
3.334195456445099e-05 
2.830338338778808e-05 
2.662081236172715e-05 
2.642732266971357e-05 
2.56793903148037e-05 
2.521100184383338e-05 
2.293904696618121e-05 
2.20917979643528e-05 
2.17304858989878e-05 
2.045925499799265e-05 
1.949835375527282e-05 
1.874099513652673e-05 
1.649912471498893e-05 
1.659062025097329e-05 
1.52343495374497e-05 
1.450844854581561e-05 
1.394844026529347e-05 
1.284671567579075e-05 
1.179962523815451e-05 
1.046508392421643e-05 
9.630754084665644e-06 
9.502088667189571e-06 
9.019374393414099e-06 
8.57999108930231e-06 
7.973856582083037e-06 
7.882732019384201e-06 
6.919149420842205e-06 
6.386226349011464e-06 
6.053577200206677e-06 
6.283764566378837e-06 
5.627188761450945e-06 
5.174407679681309e-06 
5.423722667993676e-06 
5.02073443714481e-06 
4.344193132018713e-06 
4.19178356284595e-06 
3.750334163613632e-06 
3.582883027319694e-06 
3.453567290729778e-06 
3.306081274463056e-06 
3.163316575646103e-06 
2.752128184547544e-06 
2.324486724643058e-06 
2.277845378935228e-06 
2.293992799546905e-06 
2.4835572199427e-06 
2.213229601463817e-06 
2.014344424574396e-06 
2.031228605825686e-06 
1.741547143551597e-06 
1.545337950365692e-06 
1.614184982729847e-06 
1.277740791855716e-06 
1.179925240145332e-06 
8.722369714521799e-07 
5.534053281628256e-07 
4.800617801994367e-07 
6.352979653679008e-07 
1.610565170670104e-07 
1.901720122318717e-19 
-2.134263975536523e-05 
