solver_type L2R_LR
nr_class 2
label 0 1
nr_feature 105
bias 1
w
0 
-0.000734789861004313 
-0.00101463529462506 
-0.0002045123078642004 
-0.0001294531781848807 
1.134366282742575e-05 
2.954611056649469e-05 
0.0001079581299509016 
0.0001421930203251373 
0.0001397960501306073 
3.840983089797775e-05 
5.463938795476922e-05 
8.080451901075693e-06 
9.142698004499785e-05 
9.403072835919646e-05 
6.071056837452519e-05 
6.670138747929454e-05 
7.521209160753198e-05 
8.856371969515183e-05 
8.964078752332971e-05 
8.394183698061347e-05 
9.705730613059009e-05 
8.765701641411779e-05 
9.475916842134198e-05 
9.656321295964944e-05 
9.21642566054929e-05 
9.364311182881978e-05 
9.304147398717372e-05 
9.486005715173701e-05 
8.627574741865385e-05 
8.767236579305344e-05 
8.774721269853015e-05 
8.191458847692686e-05 
8.304300329125151e-05 
8.146501195049565e-05 
8.113113884621739e-05 
7.78039750225321e-05 
7.347029097369752e-05 
7.397260234999921e-05 
7.103118601799368e-05 
6.670038366713972e-05 
6.379162931757882e-05 
5.768180048915735e-05 
5.575198677240823e-05 
4.889586336886562e-05 
4.87235275960815e-05 
4.420570918851782e-05 
4.327079752930657e-05 
4.370730975242051e-05 
4.055283439951152e-05 
3.692267423043133e-05 
3.550243424587385e-05 
3.340023171345878e-05 
3.27940381089094e-05 
3.074667803867059e-05 
2.922493213410363e-05 
2.823598070600745e-05 
2.579659602782773e-05 
2.488615269022589e-05 
2.358913145277459e-05 
2.117331833692264e-05 
2.012738743625276e-05 
1.89581879450515e-05 
1.818938277866034e-05 
1.689995970805256e-05 
1.606559420598275e-05 
1.50719841381039e-05 
1.438471110571628e-05 
1.391750618436644e-05 
1.267155600607957e-05 
1.251228678866204e-05 
1.139119813271195e-05 
1.09059869387591e-05 
9.929974327246888e-06 
9.729399340948213e-06 
8.723669668770396e-06 
8.492649387472987e-06 
8.210785717820892e-06 
7.504903922695935e-06 
7.456453755471423e-06 
6.839801928687695e-06 
6.209481393078651e-06 
5.495771083222353e-06 
5.588225313628479e-06 
5.479217575295851e-06 
5.233085947069099e-06 
4.647737933174897e-06 
4.008976092065783e-06 
3.545168976674277e-06 
3.667604887978181e-06 
3.232589192237273e-06 
3.01245298266743e-06 
2.884750361993969e-06 
2.832711721063902e-06 
2.600858677275948e-06 
2.192653433902543e-06 
2.190609550980815e-06 
1.928520706943283e-06 
1.72024364892424e-06 
1.872970695168503e-06 
1.367753492697377e-06 
1.175708144648124e-06 
1.006814193355497e-06 
5.39523601807909e-07 
4.945427645602422e-19 
3.000208074703229e-05 
