solver_type L2R_LR
nr_class 2
label 0 1
nr_feature 105
bias 1
w
0 
-0.0003682295496807226 
-0.0005822818921424868 
-0.0002350290750973736 
-3.434570106251696e-05 
-3.985824165314842e-05 
2.71814225263951e-05 
2.183695456771547e-05 
1.827336910663888e-05 
1.919695742390569e-05 
3.556278527486893e-05 
3.445550481658032e-05 
3.123998329251709e-05 
5.741939611128903e-06 
2.527107764947765e-05 
2.355193863082787e-05 
4.756705160231896e-05 
3.174066383791451e-05 
2.79961111257775e-05 
3.261321833089948e-05 
2.144875550871112e-05 
1.795794744239751e-05 
1.799655743879332e-05 
1.395017307114311e-05 
1.137932581876127e-05 
1.506243778789773e-05 
2.06272898048252e-05 
1.803750906174274e-05 
1.59000483672756e-05 
1.829806932587848e-05 
1.851440036088785e-05 
1.475844749708558e-05 
1.534978893777757e-05 
1.71577210320364e-05 
1.686161226764138e-05 
1.577705688256556e-05 
1.521487362767098e-05 
1.579178794624779e-05 
1.455036315187555e-05 
1.517544964356896e-05 
1.316241821306598e-05 
1.03868859868703e-05 
1.192228995334228e-05 
9.935888427054998e-06 
9.213577512870626e-06 
6.483646491781083e-06 
5.072627665975923e-06 
5.604615641120739e-06 
5.192010756576599e-06 
5.608012887319504e-06 
3.994477936514128e-06 
4.282663836932171e-06 
3.333725687558025e-06 
2.877379640208446e-06 
3.157721114161501e-06 
3.057047940073628e-06 
2.996500032899856e-06 
3.310358507137688e-06 
3.611651331089758e-06 
3.321560285944846e-06 
3.686039255023145e-06 
2.825703590221368e-06 
2.806498872213758e-06 
2.973863216290996e-06 
2.530592732668069e-06 
2.785539407541268e-06 
2.303816065856617e-06 
2.25682528767621e-06 
1.610921992184026e-06 
1.906386972558591e-06 
1.687449039956848e-06 
1.536639377082718e-06 
1.715345677172799e-06 
1.652298574989572e-06 
1.155472004623849e-06 
1.463088062130942e-06 
1.421672687457448e-06 
1.743140653583218e-06 
1.511573554560846e-06 
1.721591966503004e-06 
1.295908129604752e-06 
1.400060189595333e-06 
1.362631456347245e-06 
1.384400427135745e-06 
1.346350033629863e-06 
1.15341290546802e-06 
9.990361604880824e-07 
1.078068429401279e-06 
1.106721266745183e-06 
1.130753075512497e-06 
1.258151141897939e-06 
1.131622725469092e-06 
1.102029077964784e-06 
1.127177186431598e-06 
9.182533274131342e-07 
8.55737348587143e-07 
7.302954739984894e-07 
6.692689237285551e-07 
5.920420399523521e-07 
4.789538264349851e-07 
5.971464984571525e-07 
4.99091297697481e-07 
4.868815506142006e-07 
4.122564324971938e-07 
1.28260304298908e-19 
1.408899641158777e-05 
