solver_type L2R_LR
nr_class 2
label 0 1
nr_feature 105
bias 1
w
0 
-0.000426239320394392 
-0.0002892214192361154 
9.438719895302283e-05 
-0.0001241592944459991 
-8.441469574752468e-05 
-3.559142899823827e-05 
-7.118420618621909e-05 
-1.102274723006208e-05 
7.595335671889232e-06 
-6.575057118299343e-05 
-5.847342613490745e-05 
-4.739920847189458e-05 
-1.23277334375655e-05 
-3.079537395939317e-06 
-1.23529792290321e-05 
-2.770676756842679e-05 
-2.0018314747537e-05 
-2.047743015335863e-05 
-3.173854848403318e-05 
-4.034257523837488e-05 
-3.242321202052804e-05 
-2.752095466280107e-05 
-2.372011160410963e-05 
-1.723905990836081e-05 
-1.297896269065477e-05 
-1.296144150333927e-05 
-1.195070420268268e-05 
6.273972528718313e-08 
-7.489449303008528e-06 
-1.080524774972738e-06 
1.636089333097924e-06 
-1.822474243777637e-06 
2.00252681898898e-06 
-3.336726759676388e-06 
2.219617281456359e-07 
2.633589680802455e-07 
-1.918704214248944e-06 
-9.083354112953299e-07 
-9.363420577382305e-07 
-1.915321081213954e-06 
1.429632084817618e-06 
2.123905805544341e-06 
2.010698186625324e-06 
2.11531502219337e-06 
2.602737053246149e-06 
3.071177583598881e-06 
2.767616174944591e-06 
4.209510550538447e-06 
3.854897904017594e-06 
4.423392112291185e-06 
3.965459999255575e-06 
5.451954861972446e-06 
5.5664554672652e-06 
5.053771026865162e-06 
4.660645861483273e-06 
4.489242432106951e-06 
4.262557810482614e-06 
4.346066518933662e-06 
3.136892919248981e-06 
3.574549450817934e-06 
3.001005090061948e-06 
2.863625057083614e-06 
2.635476306710228e-06 
2.383648639276883e-06 
2.217821290522322e-06 
1.634191584820267e-06 
2.046511737084559e-06 
2.330100070050501e-06 
2.096200701540768e-06 
2.024563315071332e-06 
1.442100813988983e-06 
1.92079404434976e-06 
2.090501323590251e-06 
2.070979456161621e-06 
1.967256305019346e-06 
1.67030654900832e-06 
1.376778009549886e-06 
1.702158401317167e-06 
1.327605693069997e-06 
1.191394563614907e-06 
1.293569421544364e-06 
1.253750130729085e-06 
9.10716870236341e-07 
9.308971741289578e-07 
9.206483521233071e-07 
6.307505084394375e-07 
5.37249279518822e-07 
7.176223413477323e-07 
6.205035450831111e-07 
3.879165145655745e-07 
6.977766181465223e-07 
4.906018898730914e-07 
5.488675853812801e-07 
5.071804112145335e-07 
5.616704941984096e-07 
4.126702583947149e-07 
1.790730290393707e-07 
3.24605735398609e-07 
4.421774254641937e-07 
4.439713070883047e-07 
3.73330705735873e-07 
2.326092983576772e-07 
1.583285711114071e-07 
5.767539673054742e-20 
1.572106739985761e-05 
