solver_type L2R_LR
nr_class 2
label 0 1
nr_feature 105
bias 1
w
0 
-0.0009277160244239148 
-0.0008130717058457255 
-0.0003960217847603792 
-0.0003578395901694911 
-0.0002143054203576705 
-8.946473195654523e-05 
-6.997205120294771e-05 
-0.0001155218150030337 
-0.0001047045479803247 
-0.000130873174052555 
-9.29997927853754e-05 
-7.532180415628532e-05 
-8.589212619096636e-05 
-7.51759807911967e-05 
-8.118991876184362e-05 
-7.559670934614798e-05 
-6.631737939814027e-05 
-7.334966274026685e-05 
-6.113044800134963e-05 
-7.092002599714464e-05 
-6.067484991223843e-05 
-5.720980863983748e-05 
-5.927120494032709e-05 
-5.242240919309128e-05 
-4.577547651405136e-05 
-5.616022168702341e-05 
-4.655972213355215e-05 
-4.848277044513278e-05 
-5.234725580373132e-05 
-5.462343609644179e-05 
-4.934182932638522e-05 
-4.568781993244921e-05 
-4.378718453746144e-05 
-4.137790211137112e-05 
-4.123734627530152e-05 
-3.943304405015065e-05 
-3.308393718420645e-05 
-3.366412342326021e-05 
-3.188037806871822e-05 
-2.753417543576957e-05 
-2.691403755067657e-05 
-3.11211919859541e-05 
-2.571554044071453e-05 
-2.334694966810321e-05 
-1.765119396463282e-05 
-1.687543887433773e-05 
-1.608041663904354e-05 
-1.474008404048312e-05 
-1.459493548726462e-05 
-1.214248557454271e-05 
-1.276457462131576e-05 
-1.189233746802636e-05 
-1.042929448896588e-05 
-1.012196878258679e-05 
-9.174938038680361e-06 
-7.760182540977588e-06 
-7.103146445903454e-06 
-7.063005973439249e-06 
-6.367857828517595e-06 
-5.81436478139838e-06 
-5.655491660174517e-06 
-4.337123454908965e-06 
-4.518071797232699e-06 
-4.386912350712996e-06 
-4.100229637593668e-06 
-4.392871171412208e-06 
-3.886140905039183e-06 
-3.034635652686503e-06 
-2.898843421946233e-06 
-2.684149615558645e-06 
-2.535143188051113e-06 
-2.205701633888361e-06 
-1.80577304277917e-06 
-2.193914009194728e-06 
-2.45312077799754e-06 
-1.906348192739493e-06 
-1.436358238136869e-06 
-1.262991963665507e-06 
-1.241363898816174e-06 
-9.394893123436279e-07 
-8.378299214930205e-07 
-1.148740732896794e-06 
-9.315879149263106e-07 
-5.080398339414206e-07 
-5.585927233038061e-07 
-4.90931449441476e-07 
-3.227963387766616e-07 
1.011316779849502e-08 
2.186033892666658e-07 
-9.842119930460338e-08 
1.539224981754898e-07 
-1.421862524975822e-07 
1.305757073428576e-07 
1.431913867885686e-07 
1.63440073974926e-07 
3.277292245034086e-07 
3.559072897113178e-07 
3.135299256074274e-07 
2.763780875091501e-07 
2.687648012965547e-07 
3.722713049511526e-07 
2.028054873009438e-07 
5.353447791871208e-07 
-4.880248766033453e-20 
5.479269776658078e-05 
