solver_type L2R_LR
nr_class 2
label 0 1
nr_feature 105
bias 1
w
0 
0.0001677913317846525 
6.763526403235814e-05 
-0.0001201327988543097 
9.056382451612965e-05 
1.851483334701027e-05 
3.884554293226348e-05 
3.403328598358243e-05 
-3.105615050256943e-05 
-2.545795980411397e-05 
3.450347722852183e-05 
6.104880249202933e-06 
-9.704063833365657e-06 
-2.621410278027033e-05 
2.466640064249235e-05 
1.958720247605571e-05 
1.351557937693051e-05 
5.448491009209831e-06 
2.512384791502454e-06 
2.429531656387594e-07 
-8.175790901413713e-07 
-5.489397847284916e-06 
-3.12143022377173e-06 
-1.522920117797256e-05 
-1.495098849634265e-05 
-1.169427963480563e-05 
-5.456438904841853e-06 
-3.185346084854291e-06 
-9.919805916468498e-06 
-1.38524270245445e-06 
5.630871070241108e-06 
3.530143708634018e-06 
2.364031749450448e-06 
4.837125427963924e-06 
7.162972978436268e-06 
8.130415502616217e-06 
7.419915374904249e-06 
9.860558969367414e-06 
8.93991589311972e-06 
7.650539237672133e-06 
4.181595449770566e-06 
2.873226481859896e-06 
4.693329876203665e-06 
4.738731048380322e-06 
4.821823811974662e-06 
2.783700193628658e-06 
1.811640965973057e-06 
3.822968502795414e-06 
3.402203131115888e-06 
2.834500074426076e-06 
3.459212608276005e-06 
2.612158616681463e-06 
1.608912230435368e-06 
2.566524074136187e-06 
1.821160690197746e-06 
2.207711729692197e-06 
1.422040489382273e-06 
1.813279914956035e-06 
2.119083317707658e-06 
8.038977051492134e-07 
1.436616175893478e-06 
1.573409793881606e-06 
1.963994928215542e-06 
2.0147601059207e-06 
1.187179557011068e-06 
1.581264673588947e-06 
1.248903575700817e-06 
7.167148959552162e-07 
8.208810878112021e-07 
8.639270824254928e-07 
5.551678841887322e-07 
3.950735275506028e-07 
8.601923040325756e-07 
8.724074036476505e-07 
2.797584423007409e-07 
6.113504771293012e-07 
6.727647775431308e-07 
7.090374618192658e-07 
6.53831995546404e-07 
4.93658307633739e-07 
3.64031748497601e-07 
7.691977242758903e-07 
5.781941662287296e-07 
4.96207873112959e-07 
4.423792643275297e-07 
2.862095785433502e-07 
2.696692822552342e-07 
5.128288827040117e-07 
5.657536787130614e-07 
3.646111175613621e-07 
3.364494437320199e-07 
2.284739861106116e-07 
4.122054282780223e-07 
4.554177261924205e-07 
4.60343509576042e-07 
1.328484734019424e-07 
7.088821128901245e-08 
6.305987986254074e-08 
1.897044231397656e-07 
1.011001489247115e-07 
2.118270868032515e-07 
1.101390156623401e-07 
2.26175176312682e-07 
1.17590664589127e-07 
-6.844561354965712e-21 
-3.865817123433668e-06 
