solver_type L2R_LR
nr_class 2
label 0 1
nr_feature 105
bias 1
w
0 
0.000348793097455728 
0.0006013568598462997 
0.0006753384193619831 
-3.595276092972372e-05 
0.0001012985774329355 
0.0001262751278462605 
0.00013501220900221 
0.000198846703517811 
0.0001395446338566608 
1.939102921131887e-05 
3.853158882474623e-05 
3.841675342332039e-06 
9.824372022152137e-05 
9.382399682581034e-05 
6.356374294559296e-05 
8.891287647334811e-05 
8.691178657643367e-05 
9.686224850186348e-05 
9.166770388984642e-05 
7.968627434741039e-05 
9.566608258852332e-05 
8.14458611211182e-05 
8.628151984609282e-05 
8.423173899819136e-05 
6.759632717770026e-05 
6.741866852509662e-05 
6.989238518126407e-05 
6.944374436142111e-05 
6.226800425145998e-05 
6.061487110527162e-05 
6.560095871375458e-05 
5.658560810136575e-05 
5.375693853424266e-05 
5.102330739586279e-05 
4.924337983376681e-05 
4.673647275981914e-05 
4.301227721233557e-05 
4.563095167800442e-05 
4.491436650743041e-05 
4.097854594225224e-05 
3.946938695528961e-05 
3.810409776741214e-05 
3.772575827754645e-05 
3.408386920534633e-05 
3.219952077832036e-05 
3.014914045858094e-05 
3.053811596675494e-05 
3.131757406016725e-05 
2.863754668092629e-05 
2.697068098615106e-05 
2.653525741069119e-05 
2.421979585634379e-05 
2.300231657853733e-05 
2.131109152231638e-05 
2.03003636789575e-05 
1.907047755488532e-05 
1.769793792813923e-05 
1.715413632643027e-05 
1.628383026676414e-05 
1.398522175228918e-05 
1.334717768085387e-05 
1.283940475204329e-05 
1.174659495074852e-05 
1.09593365575746e-05 
1.039549739978785e-05 
9.755044295133282e-06 
9.167093374793351e-06 
8.497998863839174e-06 
7.642526352329403e-06 
7.345433734042213e-06 
7.023755378186195e-06 
6.778246074735568e-06 
6.120484585179555e-06 
5.813507123892526e-06 
4.842213313904629e-06 
4.737220596868726e-06 
4.718762846404847e-06 
3.980799851190191e-06 
4.062320343004495e-06 
3.543793551171604e-06 
3.106716850557025e-06 
2.706194976633274e-06 
2.815293827390577e-06 
2.784103436211725e-06 
2.638808905891002e-06 
2.185099029059336e-06 
2.121341668812221e-06 
1.838102332969739e-06 
1.82347610900703e-06 
1.491515636864889e-06 
1.381478278665301e-06 
1.439166842749775e-06 
1.360039881638028e-06 
1.038720020475045e-06 
8.400134327327166e-07 
8.486668789323373e-07 
6.221847535450079e-07 
4.113085061352962e-07 
6.240912303245068e-07 
2.667944346001093e-07 
1.618624357782271e-07 
2.928468912696212e-07 
6.624806839152974e-08 
2.55177539561232e-19 
-3.471969404389838e-05 
