solver_type L2R_LR
nr_class 2
label 0 1
nr_feature 105
bias 1
w
0 
-0.0001823906242963554 
-0.000149599431784572 
-0.0003474719786961894 
-0.0001045241060195521 
-0.0002393279310010468 
-0.0001914966765122301 
-8.746326320101052e-05 
-0.0001546734814646029 
-0.0001354398052962185 
-9.820263350326208e-05 
-0.0001132821283468873 
-0.0001316119459558589 
-0.0001468372791805792 
-0.0001161006075723022 
-0.0001183760213307265 
-0.000135720366910867 
-0.0001597912048042675 
-0.0001321004734828873 
-0.0001150962059102797 
-0.0001136214808118337 
-9.645206740745151e-05 
-9.513570366375845e-05 
-8.626772264821502e-05 
-7.530716466559017e-05 
-6.230267214574534e-05 
-6.641701063617702e-05 
-6.645046547607956e-05 
-5.490935521625488e-05 
-5.413804325133819e-05 
-5.096506302853907e-05 
-5.503573375009454e-05 
-4.977089092374718e-05 
-4.744311889586205e-05 
-4.679331474264071e-05 
-4.72859972447403e-05 
-3.89782815991488e-05 
-3.678319909374856e-05 
-3.597803539459406e-05 
-3.519462245432526e-05 
-3.246523391195756e-05 
-3.070858278343012e-05 
-2.891788025409432e-05 
-3.084457091095849e-05 
-2.426665762673139e-05 
-2.520178258329746e-05 
-2.272583949255717e-05 
-2.211574376259989e-05 
-2.381872396496753e-05 
-2.029689131763835e-05 
-1.9823698201732e-05 
-1.77991335342217e-05 
-1.792535052478689e-05 
-1.594021419404222e-05 
-1.551759038781821e-05 
-1.429981935087629e-05 
-1.440095587124935e-05 
-1.423435304168321e-05 
-1.225089958438246e-05 
-1.140816750975157e-05 
-1.059232665245285e-05 
-9.574203351847424e-06 
-8.920466450795316e-06 
-8.15522454132371e-06 
-8.100970141925522e-06 
-7.744280771339705e-06 
-6.40284383330886e-06 
-6.470085362996555e-06 
-5.915084753019394e-06 
-6.082118845076618e-06 
-5.868586072304986e-06 
-5.636026184478614e-06 
-5.528781127405724e-06 
-4.716897753007193e-06 
-4.19445100049071e-06 
-3.933722062981924e-06 
-3.55214260909065e-06 
-3.063095042961913e-06 
-2.789611945227098e-06 
-2.856206749687785e-06 
-2.58879167082798e-06 
-2.310529429627988e-06 
-1.781997273691175e-06 
-2.172098183345319e-06 
-1.885201878433111e-06 
-2.061162844190751e-06 
-1.690094658802942e-06 
-1.21283686453901e-06 
-1.104772781900154e-06 
-1.420275261060839e-06 
-1.099002269540156e-06 
-1.110301569191405e-06 
-1.183560492019727e-06 
-9.129474383623682e-07 
-9.62566598286416e-07 
-1.034254150292991e-06 
-7.064369827321459e-07 
-6.366939627951586e-07 
-7.571980884018648e-07 
-4.988628455774035e-07 
-5.826574838578272e-07 
-5.702367152038775e-07 
-4.186613436893649e-07 
-4.658863272499468e-07 
-6.530332332101711e-20 
2.645428825992e-05 
