solver_type L2R_LR
nr_class 2
label 0 1
nr_feature 105
bias 1
w
0 
0.001044888692386111 
0.001215044290007462 
0.0004573055553211086 
0.0002033596564876903 
0.0001650974085573891 
0.000128435401984196 
0.0001091997467203011 
0.0001410332381053066 
4.969389172705863e-05 
3.106084857455153e-05 
4.038052155122792e-05 
6.001092339854103e-05 
9.492455792548249e-05 
4.900368420428869e-05 
5.377042710004605e-05 
5.112907726858022e-05 
5.340905566633367e-05 
3.913131316269756e-05 
3.688249987852517e-05 
2.106068240960841e-05 
4.367406466814014e-06 
9.939551038574172e-06 
9.599821458291782e-06 
1.295481877048985e-05 
1.59971294805925e-05 
9.996375695969256e-06 
8.749708308795973e-06 
2.947242801161508e-06 
6.472667478450702e-06 
9.080464552390557e-06 
4.197277373839247e-06 
7.368696927916592e-06 
7.884253651728344e-06 
3.408801681690106e-06 
3.331811326977018e-06 
1.616554307481688e-06 
5.086595806933033e-07 
3.857886181298689e-06 
5.207809904308865e-06 
5.109639649817559e-06 
6.477588895622593e-06 
6.976722335792996e-06 
9.072627237121491e-06 
8.117423020924019e-06 
6.576245060231552e-06 
7.13778214444759e-06 
6.908294666432139e-06 
6.331051908458169e-06 
5.025782922886571e-06 
4.238276629289482e-06 
3.563527113035814e-06 
3.660047379538126e-06 
4.183527240448836e-06 
4.535084710349728e-06 
3.442929183570248e-06 
3.827639910457196e-06 
2.572930859781018e-06 
2.203557959132828e-06 
1.690895667337402e-06 
1.500953765577856e-06 
1.352427207186162e-06 
8.944889451581865e-07 
7.526192452103012e-07 
7.870832924834426e-07 
2.655931057338873e-07 
2.231819198336173e-07 
-1.382759201964025e-07 
-2.97380388335743e-07 
2.77183115600963e-07 
2.644960685358607e-07 
4.413002767995925e-07 
5.586253603888977e-07 
8.661649906668592e-09 
-5.157281637264984e-08 
-3.648795239658844e-07 
-1.33738234373724e-07 
-2.761724369433358e-07 
-6.973385654045871e-07 
-3.698396455417549e-07 
-4.563633558866419e-07 
-8.4026266109159e-08 
-2.743813912997024e-07 
-2.008519773896312e-07 
-1.402111192841469e-07 
-1.634621923247644e-07 
7.376749540409616e-08 
-3.158692622633618e-07 
-2.439501820264221e-07 
-2.631734604990433e-07 
-1.596099587542493e-07 
-1.548934949967295e-07 
-4.467982341837598e-07 
-3.442839528342251e-07 
-3.959545242955529e-07 
-4.526688061079351e-07 
-4.349565750811277e-07 
-4.413908512024013e-07 
-3.341972441437997e-07 
-3.342810998657328e-07 
-1.384686058055537e-07 
-2.639972439257354e-07 
-7.442480195587582e-07 
-4.435806980689222e-07 
-2.761506112338431e-20 
-5.317056086757959e-05 
