solver_type L2R_LR
nr_class 2
label 0 1
nr_feature 105
bias 1
w
0 
0.0004856567408338137 
0.0005588815124230397 
-6.794706244925173e-06 
0.0001393081560951 
8.762680950078139e-05 
-8.940675234650836e-06 
8.27264800688584e-06 
1.616146070477726e-05 
4.401684733837087e-06 
5.674217316941629e-05 
5.813806426865363e-05 
6.690901736382841e-05 
4.073384256273291e-05 
4.200130099715796e-05 
3.80457224346969e-05 
5.12458203132802e-05 
3.833100192270426e-05 
4.118720551952391e-05 
2.252955343905428e-05 
1.938068573999649e-05 
3.855819264237607e-06 
7.124458888244221e-06 
-8.306071435752289e-06 
3.720022108340057e-06 
-1.835474671186322e-06 
-6.305924925187897e-06 
-4.226165961189233e-06 
-3.535742187098639e-06 
-9.860102963976316e-07 
-1.870821388920325e-06 
-2.558395013778862e-06 
-3.183158826821942e-06 
-3.856968203002187e-06 
-1.124702070505061e-05 
-6.542093745634883e-06 
-7.495152614619938e-06 
-7.441080004823845e-06 
-7.035802453615428e-06 
-8.965912526227251e-06 
-7.689339208215108e-06 
-7.700499423038143e-06 
-5.699726242481077e-06 
-8.376297367830274e-06 
-7.15167936287522e-06 
-8.652057209933923e-06 
-7.290696953270605e-06 
-4.330597719331831e-06 
-7.873292475468538e-06 
-8.064055037781611e-06 
-6.610989963511624e-06 
-5.776540280937345e-06 
-5.671586761044749e-06 
-5.750249990902016e-06 
-6.089375484503914e-06 
-5.84596673031249e-06 
-4.766001699745277e-06 
-4.699679099157536e-06 
-3.838477590890694e-06 
-4.044871113401151e-06 
-4.158845692029805e-06 
-3.836591867867074e-06 
-3.387173885517722e-06 
-3.716291509116118e-06 
-3.321269063883874e-06 
-3.415798603138088e-06 
-3.698435698472021e-06 
-3.889268900311685e-06 
-3.572362415914314e-06 
-2.49321967044887e-06 
-2.56466874715616e-06 
-2.000327781346767e-06 
-1.867269271785568e-06 
-2.418802734222785e-06 
-2.130734912889974e-06 
-2.156333639374102e-06 
-1.960632238451183e-06 
-1.855873490396668e-06 
-1.692676503211885e-06 
-1.528661874370368e-06 
-1.516749578341808e-06 
-1.201789179491064e-06 
-1.175317261601636e-06 
-1.130888133180462e-06 
-1.227946939933749e-06 
-1.052705673682351e-06 
-6.605657521525619e-07 
-9.744315929883655e-07 
-9.00203529215525e-07 
-6.963873825917606e-07 
-6.336647696579759e-07 
-5.370344228162556e-07 
-5.041591770722312e-07 
-6.439458773512334e-07 
-7.287496309427524e-07 
-8.719102022714198e-07 
-8.051232287713563e-07 
-4.803000757692277e-07 
-6.452023547137765e-07 
-5.538881691385471e-07 
-3.394596327535787e-07 
-5.993762932416522e-07 
-6.981563103352677e-07 
-1.938951408435164e-07 
-1.610922792554951e-19 
-2.164296282444415e-05 
