solver_type L2R_LR
nr_class 2
label 0 1
nr_feature 105
bias 1
w
0 
-5.778843412264093e-05 
-0.0006671341819346538 
-0.0006036352088492708 
9.042736958834896e-05 
6.470505330540992e-05 
0.000132158099537867 
6.996702127472755e-05 
3.199418012284489e-05 
-1.583455715292693e-05 
6.079724385303693e-05 
1.941829121298794e-05 
1.704130856798142e-05 
1.361627868116687e-05 
3.450870258998592e-05 
4.029221588328569e-05 
3.690711422950317e-05 
7.783526325304474e-06 
1.802947699980548e-07 
4.153563124615994e-06 
1.505558172256812e-05 
8.463273066503991e-06 
-7.787445195386954e-06 
1.417343207622732e-05 
4.302440076173276e-06 
2.383897078950044e-06 
4.63536951130733e-06 
1.199959005427454e-05 
1.105102690141625e-05 
1.472687246936702e-05 
1.688717732850984e-05 
1.859873685711719e-05 
1.632678303838202e-05 
1.346907812839276e-05 
1.97639382687534e-05 
1.900334150536734e-05 
2.339179042570752e-05 
1.97654886181739e-05 
1.806634051949449e-05 
1.74498409738223e-05 
1.81619593951513e-05 
1.747448038220933e-05 
1.534939014972091e-05 
1.637822073728256e-05 
1.431028398709578e-05 
1.499489089936478e-05 
1.309125145841202e-05 
1.362206174242767e-05 
1.497856471268013e-05 
1.457033595258464e-05 
1.465612990826202e-05 
1.517464780961001e-05 
1.303061559086136e-05 
1.304807764030344e-05 
1.395231911735997e-05 
1.347079196568378e-05 
1.197282137239241e-05 
1.152252131924557e-05 
1.032799508101544e-05 
9.697282220014552e-06 
8.169148424687192e-06 
7.794489629583497e-06 
7.729156320115687e-06 
7.70714281668761e-06 
7.371107326008192e-06 
7.181397608302681e-06 
6.626348411355296e-06 
6.247364474121189e-06 
6.560539352710227e-06 
6.331035032500127e-06 
5.554147006742926e-06 
5.697407510717631e-06 
4.838444759932616e-06 
4.381779955941306e-06 
4.447840039060914e-06 
3.709835137530678e-06 
3.429502899692554e-06 
2.680193263609999e-06 
2.673342561215044e-06 
2.820269173795088e-06 
2.666833661142709e-06 
2.381446236967615e-06 
2.316000320417602e-06 
2.20014368274989e-06 
1.71220018332844e-06 
1.79077858482383e-06 
1.610275329001936e-06 
1.386674790044104e-06 
1.260332101540867e-06 
1.201876797094391e-06 
1.248523183711219e-06 
1.093445637244769e-06 
1.077812921627167e-06 
6.464169860167296e-07 
6.408288572223631e-07 
4.502012425461414e-07 
4.36292990524587e-07 
4.769981884026781e-07 
1.951226469084545e-07 
3.079016131498209e-07 
6.862119433930104e-07 
5.166953110347295e-07 
5.802018530949479e-07 
2.729535945188032e-07 
1.083948100086543e-19 
1.63921485900176e-05 
