solver_type L2R_LR
nr_class 2
label 0 1
nr_feature 105
bias 1
w
0 
0.0005553071489766373 
0.0005230002175895942 
0.000747785080934868 
4.584432293293002e-05 
0.0001129342149618547 
0.0001073264300811545 
1.652987262761201e-05 
5.873090292382817e-05 
3.283685271895911e-05 
5.37920665531504e-05 
-6.27520880334555e-06 
-5.693692547514424e-06 
9.44289001033507e-05 
7.486821685710956e-05 
4.498425554026932e-05 
2.804124054925312e-05 
3.559041418213966e-05 
2.228943832316901e-05 
4.100858719708978e-05 
4.880603887108821e-05 
5.017989669941539e-05 
4.146269939555345e-05 
3.442833698483408e-05 
2.672401289021815e-05 
2.298250090008073e-05 
2.823209823928198e-05 
3.234842497799477e-05 
2.86308771173549e-05 
2.394911653759676e-05 
2.176529652803586e-05 
1.751338744458555e-05 
1.83110083980659e-05 
1.948560477078513e-05 
1.665174573080626e-05 
1.469738996573269e-05 
1.211174977649271e-05 
1.191175888565854e-05 
1.210204813610864e-05 
1.138778634615165e-05 
9.528371181215437e-06 
9.629807157731055e-06 
9.826790661432865e-06 
8.585772439753272e-06 
9.644076860138425e-06 
6.838769258063021e-06 
6.567422422258082e-06 
7.488270582767068e-06 
6.079586172251355e-06 
4.226967989556105e-06 
3.504034997225396e-06 
3.410913610615218e-06 
3.647060425753837e-06 
3.475189975985366e-06 
3.730096697321545e-06 
3.315153447238991e-06 
2.234980704809557e-06 
2.130533054170107e-06 
2.544323565958142e-06 
2.479205831025828e-06 
2.06450800010934e-06 
1.364179485698012e-06 
1.670838004458152e-06 
1.27255690166353e-06 
1.059662008850167e-06 
8.664755868751069e-07 
1.040538109426477e-06 
1.310888555574486e-06 
9.738622910524002e-07 
1.07982358824975e-06 
7.849097586658826e-07 
8.36737836005625e-07 
2.638980647675914e-07 
-9.573543300365917e-08 
9.579054916744135e-08 
-4.737380735995865e-08 
-2.738857247193026e-09 
3.159852659684514e-07 
9.447706858196611e-08 
3.979987229758552e-07 
2.206991901913585e-07 
4.620954963370963e-07 
5.1262240681935e-07 
1.355588801201143e-07 
8.388149102096752e-08 
5.396413219937231e-08 
-3.916497153301702e-08 
1.705505419285716e-07 
-2.199316140882041e-08 
-2.696314341063762e-07 
-5.307513167204294e-08 
-3.990288084897487e-08 
-7.125940689575842e-08 
-4.06718659515255e-07 
-4.492958379869481e-07 
-2.646808751216217e-07 
-1.846423080320345e-07 
-1.966076950480753e-07 
-2.379874312600963e-07 
-3.087072950965703e-07 
-3.775682946731384e-07 
-3.913714667354802e-07 
1.289159939282874e-08 
-2.408028901408143e-08 
-3.018161740864727e-20 
-2.920378075838516e-05 
