solver_type L2R_LR
nr_class 2
label 0 1
nr_feature 105
bias 1
w
0 
0.001720586832050654 
0.001604823814478198 
0.001257646013391653 
0.0002258073675693812 
0.0002296426298654975 
0.0001703288127660556 
0.0001037209666050826 
9.161240678494227e-05 
5.941337774830329e-05 
3.381383076416156e-05 
3.473385210555259e-06 
-7.329693885985947e-06 
3.593096336624346e-05 
4.474512263624207e-05 
4.641941692163815e-05 
2.766109329671189e-05 
5.351234626032792e-05 
2.850532781925054e-05 
3.226442639216706e-05 
3.359750612725832e-05 
3.959367277959424e-05 
3.581732827375981e-05 
2.283803717657941e-05 
1.473563946554933e-05 
1.411060337313296e-05 
1.658164403035319e-05 
1.770834420923292e-05 
1.422903943597686e-05 
1.380832563807882e-05 
1.258492486951723e-05 
1.311452509115981e-05 
1.551384046116643e-05 
1.893712452110646e-05 
1.747113135802794e-05 
1.674443137139231e-05 
1.341026513703965e-05 
9.681302669135612e-06 
1.049748930044228e-05 
1.031247216078641e-05 
7.870238938459255e-06 
9.345364115425676e-06 
7.667186037409356e-06 
8.801230157771892e-06 
7.854789903675216e-06 
6.423367820441169e-06 
5.099956428510658e-06 
6.293939018548819e-06 
6.080205492605644e-06 
4.654230746201932e-06 
3.754911440504424e-06 
3.773619318979602e-06 
3.561021530307175e-06 
3.981016651323862e-06 
3.54483992682629e-06 
2.641191336612225e-06 
1.770686800422395e-06 
1.081603364903093e-06 
1.330418979760657e-06 
1.684841178774865e-06 
5.84244391339211e-07 
1.197295645969378e-08 
2.092298848793779e-07 
-3.86233498136078e-07 
-2.178285495330567e-08 
-4.817546841492054e-07 
-7.667134612190945e-07 
-3.592928206237093e-07 
-2.327811206377101e-07 
5.390778188706169e-09 
-5.528018645166423e-07 
-7.889635226257741e-07 
-9.149498405097907e-07 
-1.111098824673833e-06 
-1.136617577707102e-06 
-1.5454654536405e-06 
-1.319772327254967e-06 
-1.057862732622064e-06 
-1.454604388123791e-06 
-1.601061371495247e-06 
-1.698991405427726e-06 
-1.522895439061244e-06 
-1.416540009358971e-06 
-1.740809886231693e-06 
-1.470697425051746e-06 
-1.40069292820607e-06 
-1.513727354312338e-06 
-1.543245208934281e-06 
-1.496227956443717e-06 
-1.523255825480802e-06 
-1.380720783124728e-06 
-1.360178784456367e-06 
-1.503632366927515e-06 
-1.545089833993707e-06 
-1.484897965557087e-06 
-1.493062713752448e-06 
-1.176676337720992e-06 
-1.146272097055175e-06 
-1.410005784659356e-06 
-1.12432909029003e-06 
-1.165073141391445e-06 
-1.251106494563936e-06 
-6.766658256344021e-07 
-8.441423157065194e-07 
-3.225480455871669e-20 
-6.608125880347864e-05 
