solver_type L2R_LR
nr_class 2
label 0 1
nr_feature 105
bias 1
w
0 
-0.0007775842985675191 
-0.0008566694280048021 
-0.0004002052542322036 
-0.0001050237709654142 
-0.0001754613756730245 
-8.087759801640176e-05 
-2.151424725188658e-05 
-5.724839381075503e-05 
-3.23223083354687e-05 
2.48030828183287e-06 
-3.02488740452676e-05 
-3.098879989562977e-05 
-6.409430946547838e-05 
-4.553152415527121e-05 
-4.245842835695431e-05 
-4.2373436197784e-05 
-4.014239190448375e-05 
-3.2852401255373e-05 
-2.120649427415105e-05 
-1.369039844922469e-05 
-1.782507077897618e-05 
-1.800342535448601e-05 
-8.613104323019089e-06 
-1.204424383524235e-05 
1.618760722167222e-06 
5.752981562871756e-06 
-5.392029682167017e-06 
-9.545609820209895e-11 
-1.542714902730417e-06 
-6.358966405015201e-06 
-9.680865851794257e-06 
-6.939809040621679e-06 
-9.457076589397115e-06 
-6.436664054912731e-06 
-1.107041799697394e-05 
-7.432105606373336e-06 
-3.786897343980858e-06 
-2.865436364503957e-06 
-2.01160634604288e-06 
-3.907524489043358e-06 
-3.148443391724034e-06 
-1.6741534117363e-06 
-3.746465217207292e-06 
-4.158421832737889e-07 
-3.901024364867644e-06 
-2.442010181576719e-06 
-2.91968216639146e-06 
-4.310018048507713e-06 
-3.097902696055099e-06 
-3.770473352094517e-06 
-2.339616680315185e-06 
-3.063360598677721e-06 
-2.47801185928017e-06 
-2.978166254715204e-06 
-3.099905808246215e-06 
-2.364081930623342e-06 
-2.661554081195163e-06 
-2.255277686671266e-06 
-1.511060413427685e-06 
-1.305631493599404e-06 
-1.271941187758405e-06 
-5.8135663011434e-07 
1.877250459131315e-07 
-9.155505207583918e-08 
1.077463691263559e-08 
6.634112640545773e-07 
3.499831907885082e-07 
2.037098793000917e-07 
6.165360155052316e-09 
-2.157801997858498e-07 
-1.677274621363723e-07 
-2.692574247055823e-07 
6.587784262034317e-08 
2.210691311127327e-07 
3.56856561200737e-07 
4.655529427006591e-07 
3.237588930618538e-07 
7.16510639402355e-07 
5.38618712170281e-07 
6.267252833923701e-07 
5.398529680789459e-07 
7.085263167467873e-07 
5.104900334180895e-07 
5.285762578275126e-07 
4.924378762745077e-07 
3.836664924141343e-07 
7.876329259653771e-07 
7.163749063784434e-07 
4.974779992682577e-07 
6.119734196627234e-07 
5.03926150934841e-07 
5.888201365517516e-07 
6.17222983881111e-07 
8.160015029269473e-07 
4.830021184545058e-07 
4.442065625957952e-07 
4.644600411818612e-07 
4.484130465085382e-07 
4.928451512114886e-07 
3.184515608454686e-07 
4.90209044886485e-07 
5.381838360229278e-07 
1.986511137584951e-07 
1.08749858478161e-19 
4.554649369647898e-05 
