solver_type L2R_LR
nr_class 2
label 0 1
nr_feature 105
bias 1
w
0 
0.00133540828685726 
0.001163253737979247 
0.0004883991419655594 
0.0001114558813220384 
5.863653797426975e-05 
4.737096990463384e-05 
2.738402850866576e-05 
4.133376596666452e-05 
-9.0361565489996e-06 
-4.873281164043481e-05 
-3.423126689635395e-05 
-2.154877574863462e-05 
2.074197366213467e-05 
-2.555404656017763e-05 
-9.645851322538858e-06 
-1.600934327880003e-05 
-4.337543011875259e-06 
-1.337325805074504e-05 
-1.159462771122233e-05 
-3.852380947329399e-06 
-9.055495075038022e-06 
-1.428567418081014e-05 
-6.115343764105054e-06 
-3.33044662744157e-07 
5.909248899312715e-06 
7.75209378889778e-06 
-2.05899631259551e-06 
-1.92997417780346e-06 
-2.486394728667877e-06 
-5.587879101328314e-06 
-1.212657751042351e-06 
-1.893848281712826e-06 
2.010079061943878e-06 
1.705725234973774e-06 
-2.046845775322676e-06 
-6.638665696576915e-07 
-3.261625770038572e-06 
-1.941374481676484e-06 
-6.539531069829892e-07 
-3.303955724402291e-06 
1.038338742968397e-06 
1.019834477421256e-06 
1.521989194068731e-06 
3.565366514428914e-07 
-7.540531942096635e-07 
3.531610684346203e-07 
4.133751755576947e-07 
6.481252337488889e-07 
-1.110719558970488e-06 
-1.076272941950429e-06 
-8.728527605833913e-07 
-3.838654814839352e-07 
-2.093127697645193e-07 
5.167632925771603e-07 
-1.081535140623594e-06 
-1.127761600297917e-06 
-1.177625796043662e-06 
-7.617310973861682e-07 
-7.945798586581526e-07 
-1.532486553481053e-06 
-1.004098715133056e-06 
-7.05204745428604e-07 
-2.84588367611313e-07 
-1.132757592038589e-07 
-7.586105761657756e-07 
-9.76446981211531e-07 
-1.304750285897946e-06 
-1.182441997527579e-06 
-1.741294025224486e-06 
-7.342715685903594e-07 
-1.263749901140808e-06 
-1.154649080156226e-06 
-1.173444406754195e-06 
-1.316192215643943e-06 
-1.680391610870597e-06 
-1.347419195201944e-06 
-1.556128813428583e-06 
-1.768093729018047e-06 
-1.81989919457057e-06 
-1.738352480949942e-06 
-1.24126657656147e-06 
-1.504320806080455e-06 
-1.165086837142575e-06 
-1.125168451775395e-06 
-1.098113497679868e-06 
-1.387449706207741e-06 
-1.293658541644918e-06 
-1.221493817416084e-06 
-1.578467389856712e-06 
-1.268872488677855e-06 
-1.127766577441976e-06 
-1.104342310140673e-06 
-1.014283510683097e-06 
-8.943485634873728e-07 
-8.89317202999811e-07 
-7.591286445374983e-07 
-9.392412117833227e-07 
-8.786036130058771e-07 
-6.503051034633278e-07 
-5.875329946692722e-07 
-5.968030843268917e-07 
-8.973625995532294e-07 
-9.388356472600232e-07 
-3.278357716683006e-20 
-5.398904243478073e-05 
