solver_type L2R_LR
nr_class 2
label 0 1
nr_feature 105
bias 1
w
0 
0.0001965330623554669 
-8.919678476338599e-05 
-1.713618515510867e-05 
1.425236140109587e-05 
-4.105539059164373e-05 
-5.355722102511644e-05 
-8.044635268624651e-05 
-0.0001507479023424455 
-0.0001129269217816147 
-6.297031954941961e-05 
-5.340491105168864e-05 
-8.213898479743359e-05 
-7.285769681819417e-05 
-6.959652148850563e-05 
-4.780167034040313e-05 
-2.607431101310632e-05 
-4.346450867277043e-05 
-2.635849653032349e-05 
-3.240881334994723e-05 
-1.956590046175524e-05 
-4.017149813890499e-05 
-4.761098320432989e-05 
-2.632317040439797e-05 
-2.193814008880265e-05 
-3.312835447870913e-05 
-3.195108580676472e-05 
-2.859040723051854e-05 
-3.174368191502579e-05 
-3.666946755229571e-05 
-3.059813428983624e-05 
-3.255322763752204e-05 
-3.331499708832608e-05 
-3.417507606771579e-05 
-2.545478802005823e-05 
-2.700747705097592e-05 
-2.095181637398904e-05 
-1.962392229256612e-05 
-1.92914280927661e-05 
-1.797325439468003e-05 
-1.772209042623197e-05 
-1.808093026509119e-05 
-1.913331820019206e-05 
-1.53792553472283e-05 
-1.595443144841843e-05 
-1.150744866556635e-05 
-1.267794695410112e-05 
-1.361360531046182e-05 
-1.078257360209623e-05 
-9.709408988888075e-06 
-6.982256975470706e-06 
-7.048231466211893e-06 
-7.557645981573855e-06 
-6.875588381998472e-06 
-5.323167050478707e-06 
-6.028568012867438e-06 
-6.616081178102875e-06 
-5.077206394274593e-06 
-5.945448782181197e-06 
-6.040847677073444e-06 
-5.795160612222299e-06 
-5.234637179960872e-06 
-4.364346241005251e-06 
-3.494332739028538e-06 
-4.031173142865168e-06 
-3.685467120578577e-06 
-3.319713273165687e-06 
-3.390353128523726e-06 
-2.670811032473452e-06 
-2.756371274898628e-06 
-2.869155168070428e-06 
-2.647548437727382e-06 
-3.040876206030366e-06 
-2.631281201540559e-06 
-2.25487637300905e-06 
-2.162851132442319e-06 
-2.186283399044638e-06 
-2.190030369528637e-06 
-1.792923105284321e-06 
-1.393935541543414e-06 
-1.235008761681596e-06 
-1.280712409200301e-06 
-1.543530984297091e-06 
-1.594934453258016e-06 
-2.063972309363421e-06 
-1.622821810943368e-06 
-1.742285412345506e-06 
-1.39945863908762e-06 
-1.173820897718123e-06 
-1.13431302216143e-06 
-1.185549845443256e-06 
-1.08360254619041e-06 
-1.127980152920677e-06 
-1.261387205265193e-06 
-1.061480153665846e-06 
-8.609262399713733e-07 
-8.179815248158847e-07 
-7.784783174647186e-07 
-7.376056023502507e-07 
-6.226619007860183e-07 
-2.46014117933442e-07 
-1.739523428550398e-07 
3.178485396959128e-08 
-1.590454171265411e-07 
-1.18234234443968e-19 
2.78949850056156e-06 
