solver_type L2R_LR
nr_class 2
label 0 1
nr_feature 105
bias 1
w
0 
-0.00169151256649982 
-0.001518311333739165 
-0.001284525682269703 
-0.0003784749723606008 
-0.0003585330178200829 
-0.0003640025870868703 
-0.0003479351652629458 
-0.0002558803742075719 
-0.0001810391288167194 
-0.0001698813934682255 
-0.0001425640141093691 
-0.0001599588905510452 
-0.0001021700649174695 
-0.0001309895391921215 
-0.0001143358681396073 
-0.000112367490003596 
-0.0001187222362810676 
-9.810534962245707e-05 
-0.0001027341053622032 
-0.0001070823264641273 
-6.199497922068074e-05 
-5.527257875556329e-05 
-6.077989569219384e-05 
-5.672343985945346e-05 
-4.940216959421867e-05 
-4.71129979017035e-05 
-4.083516641061146e-05 
-2.620295683205341e-05 
-2.489415256037832e-05 
-2.243523933462129e-05 
-1.989796892146684e-05 
-2.223637955526777e-05 
-2.167394470019371e-05 
-2.158999027550429e-05 
-1.498838685907369e-05 
-1.055371547871971e-05 
-7.715122889323624e-06 
-8.533979280013772e-06 
-7.9296721720358e-06 
-8.947708492985557e-06 
-4.215676652184453e-06 
-4.995797406042647e-07 
-3.313106971782866e-06 
-4.691342941494187e-06 
-4.590877026857537e-06 
-3.846799826144362e-06 
-3.843729902938556e-06 
-3.131974900812658e-06 
-2.210636796008597e-06 
-3.490414374091085e-07 
-1.418140900931605e-06 
-5.239974217186717e-07 
-8.293161791002233e-07 
-1.566984534341689e-06 
-4.632874608767069e-07 
-7.722303578762135e-07 
1.375439894614397e-07 
-8.401190901488085e-07 
-2.531936144971549e-07 
1.047351320359061e-06 
6.897812723158126e-07 
8.424475635613389e-07 
1.119822560654298e-06 
1.00784433372046e-06 
1.176902078140468e-06 
9.170726473646033e-07 
1.41235080378742e-06 
1.3636853216303e-06 
1.396075538193618e-06 
4.52337276026546e-07 
6.525564016247108e-07 
8.382148740990616e-07 
7.541676323973824e-07 
6.036137738675283e-07 
1.283813218576376e-06 
1.072051235471191e-06 
1.440919743481237e-06 
1.314348684417573e-06 
1.599908158580198e-06 
1.514388746221955e-06 
1.425402668202149e-06 
1.167108430103877e-06 
1.340868304960368e-06 
1.329505604999161e-06 
1.240266541139109e-06 
1.410592978383577e-06 
1.573102272037181e-06 
1.698473534570652e-06 
1.617784779070897e-06 
1.64711289556993e-06 
1.536566449982124e-06 
1.731462810888071e-06 
1.648254838607742e-06 
1.330433814110352e-06 
1.410305857110605e-06 
1.290921886844643e-06 
1.12907390398752e-06 
1.085708964552067e-06 
1.063604210253326e-06 
1.128051568011301e-06 
1.080659496382712e-06 
9.30824239876493e-07 
1.083793643347714e-06 
5.031423877892712e-20 
9.542663360370104e-05 
