solver_type L2R_LR
nr_class 2
label 0 1
nr_feature 105
bias 1
w
0 
-0.0005322038229200525 
-0.0006917429941095774 
-0.000470630760323761 
3.247847663008311e-05 
1.893893444127895e-05 
6.049120916847891e-05 
7.315011314612951e-05 
0.0001269492116798383 
7.566476722218654e-05 
0.0001196731652191602 
6.853454654282337e-05 
0.0001088709739525073 
7.946062184079261e-05 
8.629780369737382e-05 
0.0001143710096780741 
9.440811865659022e-05 
9.770609137303593e-05 
7.040795205650776e-05 
7.113398204634106e-05 
6.543474253585551e-05 
5.555508827737198e-05 
5.331818234028714e-05 
4.741482082673373e-05 
5.777647800470086e-05 
6.260685325812762e-05 
6.332338716150765e-05 
6.486507394412836e-05 
5.544219227696077e-05 
5.490555564272696e-05 
5.519270752025248e-05 
4.875108633097874e-05 
4.990982925386275e-05 
4.191431599598961e-05 
4.245940397793574e-05 
4.034419473427352e-05 
3.455737500616606e-05 
3.225473580325759e-05 
3.183442660677385e-05 
3.301568989775083e-05 
2.734988465532385e-05 
2.609961881383592e-05 
2.377306995373273e-05 
2.276724807173573e-05 
1.954867690303505e-05 
1.976557608885313e-05 
1.906962368643483e-05 
1.643431722638589e-05 
1.621712626404275e-05 
1.534489611978027e-05 
1.321183448314713e-05 
1.344064028533296e-05 
1.133563216033314e-05 
1.120494603226419e-05 
1.082591184184061e-05 
1.095360866873743e-05 
9.897545758293262e-06 
9.252377254290207e-06 
9.763237688111731e-06 
7.931424794151909e-06 
8.263340251297728e-06 
7.750433705683843e-06 
6.73933898698648e-06 
6.069871281805032e-06 
6.421770536108871e-06 
5.88225605195681e-06 
5.486503495140455e-06 
5.431425448222675e-06 
4.69412272519456e-06 
4.708707373893614e-06 
4.518131360120904e-06 
4.4219824038537e-06 
4.283728754945076e-06 
4.007053286611003e-06 
3.589104618148548e-06 
2.759704820124665e-06 
2.895501612204137e-06 
2.828056931955105e-06 
2.927624924971983e-06 
3.077570731355423e-06 
2.705649619798069e-06 
2.533788923316916e-06 
2.170379287654451e-06 
1.942468327963551e-06 
1.856430574422375e-06 
1.707434805623524e-06 
1.48220192784357e-06 
1.318432891473087e-06 
1.383691481261219e-06 
1.277632756134719e-06 
1.33321579455586e-06 
1.002264646869624e-06 
9.453107650360938e-07 
9.004132539579531e-07 
6.478063090821624e-07 
5.764796557590713e-07 
4.576476593343722e-07 
2.868497130294479e-07 
3.65533791254906e-07 
1.924623167385632e-07 
-1.222337549053652e-07 
1.951288229523604e-07 
1.374319557439683e-07 
-2.228788106602903e-07 
3.683567084775231e-19 
2.418797834531832e-05 
