solver_type L2R_LR
nr_class 2
label 0 1
nr_feature 105
bias 1
w
0 
-0.001694472381606285 
-0.001054662213706019 
-4.682423041528704e-05 
-4.808339805830431e-05 
0.0001211041648554121 
7.727845571898619e-05 
0.0001331773078442218 
0.0001986554287553008 
0.0001589907364413814 
0.000137263050685285 
0.0001722199141900413 
0.0001683293495855332 
0.0001512612733913558 
0.000164329004696409 
0.0001525819717570242 
0.0001474788075079777 
0.0001258523933016404 
0.0001331613256415605 
0.0001235037959221522 
0.0001242934120230853 
9.079077165776215e-05 
8.300892007633815e-05 
8.967051090961713e-05 
9.506366826298512e-05 
9.271527150687526e-05 
9.207656689363387e-05 
8.294931749714425e-05 
7.565299367356411e-05 
7.381336625900882e-05 
7.524012372233239e-05 
6.856678187801504e-05 
6.803151757545626e-05 
6.292515252625238e-05 
5.830486693732839e-05 
5.987700585671204e-05 
5.730924292272418e-05 
5.324595652589169e-05 
4.769337215777503e-05 
4.910175814746397e-05 
4.726368045696729e-05 
4.368743086453909e-05 
4.265535070092967e-05 
3.692056412534547e-05 
3.369367342623091e-05 
3.019026020334315e-05 
2.942573899451519e-05 
2.931431656797794e-05 
2.655967772367397e-05 
2.711579219682948e-05 
2.568207807199155e-05 
2.20343799471907e-05 
2.156223496211946e-05 
2.04105326781825e-05 
1.967150923090507e-05 
1.894021934080114e-05 
1.890463205503636e-05 
1.768763166333761e-05 
1.731647328756593e-05 
1.609960347735295e-05 
1.526554187335866e-05 
1.38150934653885e-05 
1.344624451500371e-05 
1.26318026683836e-05 
1.20028860598669e-05 
1.127306646959532e-05 
1.104031543200706e-05 
1.038889213779461e-05 
9.460231548338199e-06 
9.438878513450815e-06 
8.998914563595883e-06 
8.754737142430073e-06 
7.952486674810523e-06 
7.185242728076679e-06 
6.901406958507918e-06 
6.776410570713469e-06 
6.59715162597843e-06 
6.204926990843127e-06 
5.802805173874754e-06 
5.807199947187687e-06 
5.327750308913565e-06 
4.87138927264952e-06 
4.707342460941401e-06 
4.763945150541425e-06 
4.558062766308873e-06 
4.13839010982555e-06 
3.829738387013439e-06 
3.394801868062261e-06 
3.093594467082268e-06 
3.104227853610435e-06 
2.884330810317236e-06 
2.852340298492085e-06 
2.665770777628123e-06 
2.432070304005671e-06 
2.080210824194205e-06 
1.819722339038444e-06 
1.942154928731267e-06 
1.800662828357334e-06 
1.601539249126329e-06 
1.698729878673439e-06 
1.624564868331875e-06 
1.129930974485433e-06 
1.14044182516622e-06 
6.433500880533475e-07 
5.332978678476657e-19 
4.735569423734105e-05 
