solver_type L2R_LR
nr_class 2
label 0 1
nr_feature 105
bias 1
w
0 
-0.002624118345504465 
-0.002254945269054912 
-0.0007379457726509387 
-0.0002137171917907932 
-3.080949131323347e-05 
-7.077005624192133e-05 
-2.492534867628355e-06 
5.096013785093224e-05 
6.293037957420729e-05 
6.717050727380279e-05 
8.567885300664044e-05 
0.0001227357254553764 
0.0001116671589399663 
9.563903416121991e-05 
0.0001175252850769546 
0.000107773391601126 
0.0001143012739954288 
0.0001096090308963175 
0.0001033420357598177 
0.0001051360583624416 
8.863916983174506e-05 
9.489700058315577e-05 
9.570992235955267e-05 
0.0001022697819263801 
0.0001038224309772444 
0.0001059297191856011 
9.793288692345765e-05 
9.380746849497237e-05 
9.392881920520851e-05 
9.678005590466564e-05 
8.744979391419495e-05 
8.832628273954684e-05 
8.606007914794624e-05 
7.998052112407531e-05 
8.093952922824316e-05 
7.833583430824321e-05 
7.102821868253852e-05 
6.767088377844734e-05 
7.047659790716924e-05 
6.579468979623666e-05 
6.172167902168986e-05 
5.72594560411065e-05 
5.431670985371245e-05 
5.060321803474926e-05 
4.742476850670384e-05 
4.482995909627708e-05 
4.15328249452962e-05 
3.965757338183402e-05 
3.869376531454858e-05 
3.756484823959512e-05 
3.448673985882466e-05 
3.30609507009961e-05 
3.118879769971427e-05 
3.020291847449467e-05 
2.860913777642793e-05 
2.764448438143981e-05 
2.592974074135924e-05 
2.479951447092686e-05 
2.386127882734133e-05 
2.237484726821456e-05 
2.128453199219178e-05 
1.968328006033455e-05 
1.891512102034846e-05 
1.808337806696349e-05 
1.76562801715282e-05 
1.671016664474488e-05 
1.612372722024247e-05 
1.452078499326954e-05 
1.408993393961556e-05 
1.316524106796165e-05 
1.262052467279661e-05 
1.222941665028644e-05 
1.119798511872618e-05 
1.072315486474892e-05 
1.030181437975121e-05 
9.945925254903014e-06 
9.306983452171684e-06 
8.804218701350486e-06 
8.382478429752255e-06 
8.109435699872131e-06 
7.633705739581268e-06 
7.174685105127437e-06 
7.410445163244376e-06 
6.900319676836506e-06 
6.48492155320435e-06 
6.153405193398379e-06 
5.671223371361796e-06 
5.106331461379892e-06 
4.728787981914535e-06 
4.687826315724783e-06 
4.297330193498553e-06 
4.143200364527335e-06 
3.739063674105417e-06 
3.562818265868557e-06 
3.25032201871944e-06 
2.965305589557738e-06 
2.89995372755014e-06 
2.632837499198752e-06 
2.777551228154614e-06 
2.514912916939333e-06 
2.03582180416704e-06 
1.90557692780785e-06 
1.286929902020985e-06 
7.36137327584785e-19 
0.0001107586816129031 
