solver_type L2R_LR
nr_class 2
label 0 1
nr_feature 105
bias 1
w
0 
-0.001164014612692002 
-0.0005915145961319957 
-0.0001083124180971015 
5.718222861515636e-06 
0.0001110381077590252 
0.0001494730854031718 
0.0001811788534784392 
0.0001906110285914429 
0.0001079101247206533 
0.0001374938941932254 
0.0001387822294414324 
0.0001486503825649343 
0.0001372503190913443 
0.0001564366639976691 
0.000157074182104259 
0.0001379818250587605 
0.0001100942379784913 
0.0001139985036332473 
0.0001000033171241056 
0.0001071043521402898 
8.429416720871663e-05 
6.651104156960739e-05 
7.479509791196084e-05 
7.044154438084539e-05 
6.983229264268396e-05 
7.189529711574795e-05 
7.195905860081827e-05 
5.862644278886389e-05 
5.002342807895091e-05 
5.070783928193691e-05 
4.740462864232136e-05 
4.77986963803741e-05 
4.842191007557821e-05 
4.215212559062615e-05 
4.210103942971689e-05 
4.011792927745935e-05 
3.886238096375e-05 
4.110106395032324e-05 
3.754340469865801e-05 
3.549481720791767e-05 
3.336659853720769e-05 
3.372750173579461e-05 
3.115911635473066e-05 
2.507081069796371e-05 
2.503442248237835e-05 
2.315095991544716e-05 
2.274637652657346e-05 
1.986182058999086e-05 
2.101501805825725e-05 
2.001434357013244e-05 
1.798569170717874e-05 
1.67043958915652e-05 
1.61900983960781e-05 
1.676406527922719e-05 
1.635822472597474e-05 
1.523331957353537e-05 
1.324652842589508e-05 
1.32858402938759e-05 
1.291907873697002e-05 
1.255746514942511e-05 
1.128229644875425e-05 
1.109917276536731e-05 
1.034513426021692e-05 
9.744826052066563e-06 
8.996218550198177e-06 
9.040429022709331e-06 
8.564356806841038e-06 
7.454352232901914e-06 
7.782123637636671e-06 
7.658582882905932e-06 
7.615179533934078e-06 
6.909726886846451e-06 
6.757362294734841e-06 
6.182314992171329e-06 
5.511033181812237e-06 
5.201828837958661e-06 
5.114836126218239e-06 
4.71690618157105e-06 
5.000235513780878e-06 
4.45524889063185e-06 
4.1945021473793e-06 
3.78983716536991e-06 
3.767668731358854e-06 
3.925565342932825e-06 
3.543679817292414e-06 
3.068997486594666e-06 
3.063139561200228e-06 
2.897779376914754e-06 
2.907745491135409e-06 
2.548912802428235e-06 
2.46504185406548e-06 
2.170096726296939e-06 
2.06494818940496e-06 
1.826971874434576e-06 
1.651117127984991e-06 
1.49279097570616e-06 
1.509591241656662e-06 
1.433854743744235e-06 
1.352403136233956e-06 
1.285957493214602e-06 
1.148250342931417e-06 
9.865088788871565e-07 
6.2966980384647e-07 
4.035398205427736e-19 
2.638022811317094e-05 
