solver_type L2R_LR
nr_class 2
label 0 1
nr_feature 105
bias 1
w
0 
-0.001589327870741016 
-0.001429977051661003 
-0.001311379768077695 
-0.0003692055062387738 
-0.0003815594464440486 
-0.0003216739261634996 
-0.0002749546348093345 
-0.0002209284172254156 
-0.000185673242744226 
-0.0001533391414907441 
-0.0001196538148274597 
-0.0001582277512440629 
-0.0001299460377367129 
-0.0001583816973138698 
-0.0001407704393809313 
-0.0001301009686881621 
-0.0001422837335827112 
-0.0001348096411576693 
-0.0001253617661115358 
-0.0001360002743626365 
-9.158999559936224e-05 
-9.73608588737774e-05 
-8.429327940538162e-05 
-8.84901993199033e-05 
-7.916309977027056e-05 
-7.899527543709404e-05 
-6.960445910119905e-05 
-5.098975062708872e-05 
-5.004222722724325e-05 
-4.926298326166972e-05 
-4.719746071566769e-05 
-4.862055342069738e-05 
-4.624847646556233e-05 
-4.553941847620776e-05 
-4.108560636083499e-05 
-3.788990449929669e-05 
-2.988867527259981e-05 
-2.875555860392255e-05 
-2.748039082423206e-05 
-2.897673076765526e-05 
-2.505949367341314e-05 
-1.991190800947379e-05 
-2.031541004209438e-05 
-1.822662357871468e-05 
-1.890119443159895e-05 
-1.889769261703371e-05 
-1.825003090775821e-05 
-1.704277531105424e-05 
-1.633166380819552e-05 
-1.343148401741634e-05 
-1.261427338978037e-05 
-1.142288827932532e-05 
-1.077488550722496e-05 
-1.152200733646251e-05 
-1.016771485218109e-05 
-9.012967225618645e-06 
-8.34856182495029e-06 
-8.66962874675567e-06 
-7.5722730318203e-06 
-6.093255970275238e-06 
-5.467120156682356e-06 
-5.827032921138407e-06 
-4.674140197233843e-06 
-5.005266577673531e-06 
-4.071724481199883e-06 
-3.872997889280076e-06 
-3.1022356665852e-06 
-3.104882885455926e-06 
-2.910922784206865e-06 
-3.242437744652439e-06 
-3.123041942778773e-06 
-2.778417802572449e-06 
-2.643948299890864e-06 
-2.027237626001488e-06 
-1.582980607883135e-06 
-1.39217433818297e-06 
-9.489965761311101e-07 
-8.015481024044624e-07 
-7.613997385615847e-07 
-4.364996441466417e-07 
-3.91049821858737e-07 
-2.187237509275213e-07 
1.469870484210583e-07 
-1.763217751059769e-07 
4.536027472429077e-08 
3.948569228609706e-07 
4.925706667952496e-07 
6.967829978976703e-07 
7.749345198864015e-07 
8.735125313350466e-07 
1.078422173248239e-06 
1.30538749642832e-06 
1.167233059824388e-06 
8.133871420743679e-07 
6.322593118706571e-07 
7.136466999931679e-07 
7.928959874220107e-07 
8.320957167780277e-07 
8.241359162971621e-07 
8.728655727805675e-07 
1.018970172742272e-06 
8.04753017892088e-07 
9.764238054648156e-07 
-1.331673990929754e-19 
9.521911993003072e-05 
