solver_type L2R_LR
nr_class 2
label 0 1
nr_feature 105
bias 1
w
0 
0.0009035865043307222 
0.0005922054656474925 
9.828035915147505e-06 
0.0001904294070342311 
4.482828517941162e-05 
6.24337491483794e-05 
7.943437351635067e-05 
6.108950810649172e-05 
5.687527951309209e-05 
9.274257468673544e-05 
6.778248423300685e-05 
5.917717421133689e-05 
1.25362164629839e-05 
4.916297754899328e-06 
2.577944809374693e-05 
1.335565613534977e-05 
5.408967703494481e-06 
-1.338493526545215e-05 
9.321085323693982e-07 
-6.430269267702629e-06 
2.178519542313549e-06 
-7.507708322403108e-06 
-1.543519067273889e-05 
-9.430708211742161e-06 
-7.342995923432533e-06 
-7.440132227428224e-06 
-5.448837408272624e-06 
-3.750234123632999e-06 
-1.0546787462713e-05 
-1.278010380589894e-05 
-1.914541905393515e-05 
-1.37231438482749e-05 
-8.539501393331436e-06 
-6.17984071758362e-06 
-3.704348583333515e-06 
-5.613908314883209e-06 
-4.460263645196178e-06 
-6.338675656367565e-06 
-6.966232547449214e-06 
-4.246315099515351e-06 
-2.858634393992815e-06 
-6.286776921668069e-06 
-6.667963728247495e-06 
-4.333934723590568e-06 
-4.344782867230788e-06 
-4.013485315056659e-06 
-4.644403249612423e-06 
-3.415258450539918e-06 
-3.179817297437642e-06 
-4.103652150961202e-06 
-3.196703705326708e-06 
-4.074576109743849e-06 
-3.731810728941083e-06 
-3.517313771335477e-06 
-3.532454696112165e-06 
-3.532351488686621e-06 
-3.766875617200356e-06 
-2.653283048035146e-06 
-2.833021313209223e-06 
-2.649694186372042e-06 
-2.648442491876711e-06 
-2.619687034947629e-06 
-2.488515731187554e-06 
-1.827166895437757e-06 
-1.666009060046933e-06 
-1.504453246851474e-06 
-1.981147593738073e-06 
-1.843365816405833e-06 
-1.57804242422993e-06 
-1.7611605501228e-06 
-1.531097612348836e-06 
-2.062805894258041e-06 
-1.695368015241374e-06 
-1.537759890660535e-06 
-1.753175799120796e-06 
-1.395624722788963e-06 
-1.629662925389469e-06 
-1.642989147454674e-06 
-1.933640844213231e-06 
-1.68567591627168e-06 
-1.440036616075322e-06 
-1.564161102886804e-06 
-1.261467146710746e-06 
-1.139142111990585e-06 
-1.266123788565955e-06 
-1.24091848584016e-06 
-1.438406218527369e-06 
-1.346337886470424e-06 
-1.169996821676037e-06 
-1.041463358009884e-06 
-1.03758817022443e-06 
-1.221716375462864e-06 
-1.037685593911245e-06 
-1.070229683205954e-06 
-1.181769745172988e-06 
-1.039481257134234e-06 
-9.895793442836426e-07 
-8.486549245428573e-07 
-8.47129624064802e-07 
-6.659932694354966e-07 
-4.694062188285635e-07 
-4.943310066266798e-07 
-3.115106964684901e-07 
2.840148180651684e-21 
-2.720084147132016e-05 
