solver_type L2R_LR
nr_class 2
label 0 1
nr_feature 105
bias 1
w
0 
0.0003750888519108692 
0.0004286110653552517 
0.0002703358814223045 
-5.136862088135703e-06 
2.345022045269117e-05 
2.116990479630995e-05 
0.0001031459792505716 
5.542204026667964e-05 
1.589059765961396e-05 
1.019088722661289e-05 
-2.101982671041444e-05 
1.344967731911841e-05 
-7.127376358340886e-06 
9.605313901936013e-06 
2.768895798330692e-05 
1.752624030816514e-05 
1.258949253775543e-05 
1.159006872151419e-05 
1.445260416493182e-05 
1.682492413456616e-05 
1.785156154547573e-05 
1.875784815726063e-05 
9.745527649401386e-06 
1.809539359778004e-05 
1.185398599968663e-05 
1.899972177782348e-05 
1.426244324028565e-05 
2.040038559902832e-05 
1.403364529768869e-05 
1.520507031447716e-05 
1.301636963175466e-05 
1.109441306540158e-05 
1.00786483785694e-05 
9.733975995555091e-06 
5.076608160646327e-06 
5.310619574876486e-06 
9.564050032997109e-06 
5.740536433449403e-06 
3.229237135921235e-06 
2.778862458979974e-06 
2.652461690676113e-06 
1.136013336450071e-06 
2.617109761019453e-06 
2.372117581761849e-06 
8.490456879844795e-07 
6.403293310513875e-07 
-3.40543060639836e-07 
3.712074968466819e-08 
-1.014781604165502e-06 
-1.180480158169989e-06 
-7.645821124592999e-07 
-1.127561704341565e-06 
-1.081605088199506e-06 
-1.131087209625585e-06 
-4.803818770843212e-07 
-1.747876056956467e-07 
-5.944990483816214e-07 
-2.81046585586449e-07 
-8.740444467159456e-07 
-3.753848584468002e-07 
-6.89530166417268e-07 
-1.107468362937204e-06 
-1.158253090098369e-06 
1.51665372342783e-07 
-2.116268634042158e-07 
-5.034510778044071e-07 
-2.437810700566739e-07 
5.473112238798442e-08 
-2.180450629863488e-07 
-4.985135200347107e-07 
-8.001007846176833e-07 
-2.750570656076474e-07 
-3.183410793374501e-07 
-6.143103252644396e-07 
-8.164304736890998e-07 
-5.416936885105933e-07 
-5.664828292288792e-07 
-4.689536872425248e-07 
-4.924665731275268e-07 
-2.757736431302012e-07 
-3.142423876412442e-07 
-5.62931103650138e-07 
-7.408064867175584e-07 
-6.325650655056266e-07 
-9.092088548483322e-07 
-1.028506308482072e-06 
-1.117487474865095e-06 
-8.44498334711303e-07 
-9.234876266805982e-07 
-5.661714173342812e-07 
-8.536964420194073e-07 
-5.677792803193344e-07 
-3.377870305778628e-07 
-4.712158798572381e-07 
-5.147718863924075e-07 
-6.478728195035411e-07 
-5.6812279794803e-07 
-4.199805633869788e-07 
-4.949906119684898e-07 
-4.783742292542043e-07 
-1.721569525868475e-07 
-2.066946862238183e-07 
-5.159714244476762e-07 
-6.95290511664005e-20 
-2.207103803824701e-05 
