solver_type L2R_LR
nr_class 2
label 0 1
nr_feature 105
bias 1
w
0 
0.0003811324554984192 
0.0005798672337775431 
0.000566074427493219 
0.0003457654620024404 
0.0002597142633312244 
0.0002409209664116995 
0.0002564835829614703 
0.0002418493733356696 
0.0001955794555097321 
0.0002043594752253914 
0.0001955781463919933 
0.0002148161746963341 
0.0001530174844192831 
0.0001273931936700966 
0.0001415882468519851 
0.0001248902364347736 
0.0001317334371034036 
0.000115570552591053 
0.0001116331584197954 
0.0001038382682829853 
9.128803837019288e-05 
7.757788687589016e-05 
7.64157177186423e-05 
7.429307499450014e-05 
6.860321507608539e-05 
6.391782607249325e-05 
5.831699648227034e-05 
5.755668992587214e-05 
5.353341197155812e-05 
5.033820325718179e-05 
4.283052962061507e-05 
3.995280209283596e-05 
4.104949015992116e-05 
3.929655232382627e-05 
3.639836944163318e-05 
3.523294802897279e-05 
3.150794019603461e-05 
2.91338215873156e-05 
2.913896678336488e-05 
2.757363789607759e-05 
2.869139353042969e-05 
2.245524413719022e-05 
2.300657273194351e-05 
2.037345201359171e-05 
1.937758144408002e-05 
1.665384309377675e-05 
1.457868839921535e-05 
1.438858978615658e-05 
1.419961560641252e-05 
1.301032658281371e-05 
1.255763571381214e-05 
1.112507972045159e-05 
1.091307692695127e-05 
1.033069194044782e-05 
1.05040077335876e-05 
8.887024023886858e-06 
8.314866161327834e-06 
7.992899626792463e-06 
7.655398262805313e-06 
6.896402495708737e-06 
6.308764836729687e-06 
5.836538027113225e-06 
5.833063945892243e-06 
5.336416192713882e-06 
5.343458379902196e-06 
4.814863772399284e-06 
4.521307181874833e-06 
4.159329789292101e-06 
3.958293492140953e-06 
3.862022789778821e-06 
3.478078877882051e-06 
3.299415987828508e-06 
2.950592397555912e-06 
3.041916260008267e-06 
1.952053077342805e-06 
2.240531136436966e-06 
2.08956382454874e-06 
1.878609928605727e-06 
1.903353988878942e-06 
1.56819310294022e-06 
1.569492848787613e-06 
1.309903302900849e-06 
1.493818064777744e-06 
1.223211553927674e-06 
1.096665778587628e-06 
1.115037981651979e-06 
7.668461383461524e-07 
4.522319705819848e-07 
6.300025510912676e-07 
6.931750095722755e-07 
7.064110635597098e-07 
5.31771810366508e-07 
4.260614018251174e-07 
3.035986201160492e-07 
2.195277095256743e-07 
2.246608477915905e-07 
1.633756343111208e-07 
3.090185156827965e-07 
1.158900153962731e-07 
5.17643680078876e-08 
8.198675706940663e-08 
5.411032937388257e-08 
-7.902062314880871e-08 
2.496017391341221e-19 
-3.134798137223364e-05 
