solver_type L2R_LR
nr_class 2
label 0 1
nr_feature 105
bias 1
w
0 
0.001030626787510544 
0.0007698533251397489 
0.0005737632813651141 
0.0003593986170457832 
0.000331897818460684 
0.0003839641165556435 
0.0003498213345509921 
0.0003278838589856763 
0.0002644758265367626 
0.0001343645420738022 
0.0002016316627442493 
0.0001888356006508052 
0.0001500797745891802 
0.0001462910000466692 
0.0001389646804858064 
0.0001536384627407724 
0.0001336886335579215 
0.0001175782335123729 
0.000103257189880009 
9.602691942883383e-05 
8.173314402249651e-05 
8.099964002612086e-05 
8.436193071627453e-05 
8.795736477994828e-05 
7.224969305652613e-05 
5.715806875737199e-05 
5.947471597960435e-05 
5.937272671312137e-05 
5.123961969156979e-05 
4.270138298280983e-05 
3.820512665669466e-05 
3.329066513910611e-05 
3.558578436200659e-05 
3.472101038525348e-05 
3.392292518144817e-05 
3.250782882394654e-05 
2.742269271648909e-05 
2.699964627289396e-05 
2.330289372651551e-05 
2.325764454102956e-05 
2.160053795484614e-05 
1.827719312543256e-05 
1.713805888430236e-05 
1.468808672062492e-05 
1.863095439889677e-05 
1.823734457625078e-05 
1.647869977469043e-05 
1.771097549392833e-05 
1.382059864048041e-05 
1.143249722436657e-05 
1.053067655973294e-05 
1.083165193430569e-05 
1.134512787853903e-05 
1.01992583091195e-05 
9.827836235526274e-06 
8.926560082723502e-06 
7.710449401492447e-06 
7.293737391889529e-06 
7.549535499363893e-06 
6.995120367279194e-06 
6.412327048524344e-06 
6.322177518674357e-06 
6.383060321664876e-06 
5.001090794151002e-06 
5.315282006892209e-06 
4.700033973006669e-06 
4.431933860596677e-06 
3.996860367780513e-06 
4.05681810441592e-06 
3.467745031411758e-06 
3.237995112405091e-06 
2.578930681984859e-06 
2.348657075016434e-06 
2.177407212417439e-06 
1.766367775431136e-06 
1.940342080527296e-06 
1.479793952614909e-06 
1.532686579742557e-06 
1.458720397267437e-06 
1.326547161138017e-06 
1.228990661238034e-06 
1.322175740482016e-06 
1.294177101067455e-06 
8.893194839785485e-07 
7.274437648799002e-07 
8.366227085186666e-07 
6.859434663277476e-07 
4.580427743963509e-07 
5.476578765469636e-07 
1.936331149392594e-07 
4.173805156137702e-07 
3.962574385547218e-08 
3.694151681456255e-08 
1.128821896540966e-07 
-6.954177766635383e-08 
-1.499918230350518e-07 
7.198841502393624e-08 
-1.186402916107396e-07 
-9.848202885751145e-08 
-1.879562482187334e-07 
-2.356368298887617e-07 
9.846338026644409e-08 
-1.001761521720603e-07 
1.33791796790734e-19 
-6.988553953344785e-05 
