solver_type L2R_LR
nr_class 2
label 0 1
nr_feature 105
bias 1
w
0 
-0.001135951971040598 
-0.001428273983567991 
-0.00115507811261417 
-0.0002312988758278437 
-0.000312584772664631 
-0.0002467029731601479 
-0.0001719414853572545 
-0.0001430605885255698 
-8.831126141803906e-05 
-1.18340330769315e-05 
-5.498824547232775e-06 
-2.219756954912133e-05 
-6.257104351914243e-05 
-5.647721571934257e-05 
-4.17694694436445e-05 
-5.465441412092821e-05 
-5.434280552970927e-05 
-4.700297110104562e-05 
-5.221120480017976e-05 
-4.366392105292552e-05 
-4.129958904317638e-05 
-4.292656810008122e-05 
-4.220616896122424e-05 
-4.101828422100293e-05 
-3.723936503599973e-05 
-3.584666635602422e-05 
-2.455661588374319e-05 
-2.117481586687862e-05 
-2.771874859951391e-05 
-3.147271304159793e-05 
-3.629023292368131e-05 
-2.808879412633165e-05 
-2.31301363921346e-05 
-1.422400079067106e-05 
-1.373804248377406e-05 
-1.774486471951288e-05 
-1.542262497810509e-05 
-1.271969035488057e-05 
-1.41281899225588e-05 
-1.175209459406946e-05 
-1.222719466886297e-05 
-1.260402548030125e-05 
-1.221430815066909e-05 
-1.297553528932137e-05 
-9.69885310853926e-06 
-9.435705337640235e-06 
-7.562296037569587e-06 
-7.949332026241463e-06 
-7.492820208109142e-06 
-8.387370719028097e-06 
-9.201794109871572e-06 
-8.167292792003418e-06 
-7.572184107302741e-06 
-7.804368564150428e-06 
-7.931579466697349e-06 
-6.257960972712382e-06 
-5.581183709618506e-06 
-4.532714182185533e-06 
-4.794086000077089e-06 
-4.479542005052676e-06 
-4.557681043603439e-06 
-3.383467603173605e-06 
-3.102437349862626e-06 
-2.818607076358071e-06 
-1.907733782965871e-06 
-1.42942795925937e-06 
-1.716352439064087e-06 
-1.283545348434551e-06 
-1.550753234959088e-06 
-1.389608942970788e-06 
-1.032343773012053e-06 
-1.508412644019543e-06 
-1.092270175248157e-06 
-8.013536335683594e-07 
-3.019488836932451e-07 
-7.033997782538827e-08 
2.733462978072924e-08 
7.89386702748567e-08 
7.231136890609931e-09 
1.450079394038116e-08 
1.06482237066243e-07 
1.341813179424459e-07 
7.039754383576408e-08 
1.531321069780519e-07 
2.766698114399233e-07 
1.882846026590967e-07 
4.289483404793101e-07 
4.34641594016804e-07 
3.75279837143722e-07 
2.780257799454493e-07 
2.987237941572751e-07 
2.678277108480014e-07 
4.15199808720281e-07 
2.624635715143674e-07 
3.720166513862909e-07 
4.991905187417717e-07 
2.275566826579495e-07 
2.709639189001987e-07 
4.318494892990742e-07 
3.995002221569393e-07 
4.340584518012993e-07 
2.456068516343333e-07 
2.141433383704813e-07 
1.028913829709047e-19 
6.451768220036614e-05 
