solver_type L2R_LR
nr_class 2
label 0 1
nr_feature 105
bias 1
w
0 
-0.001396911794248954 
-0.001193043374566874 
-0.0005952413014105777 
-2.037157941360934e-05 
5.119543955918111e-05 
0.0001354078334151195 
0.0001877775937710615 
0.0002455610986548697 
0.0001296752819110289 
0.0001543499779336097 
0.0001617469529130109 
0.0001554060521114311 
0.0001387688775562112 
0.0001179285204908512 
0.000130798471614255 
0.0001015422898015564 
8.758827224844964e-05 
7.425012718795863e-05 
7.297834930180907e-05 
8.162248540874953e-05 
7.581688236984717e-05 
5.051098818011041e-05 
6.123745997244972e-05 
5.666810518583409e-05 
5.557795233555215e-05 
5.94818970299345e-05 
7.337200774393337e-05 
6.730351584156959e-05 
5.811407848065035e-05 
5.089014910432723e-05 
4.812060586117648e-05 
4.971091328698337e-05 
5.194324632823039e-05 
4.812564546699927e-05 
4.509253002548474e-05 
4.331893365440332e-05 
4.413525706767301e-05 
4.912978593471236e-05 
4.502437467957791e-05 
4.165657064091495e-05 
3.741492053597528e-05 
3.484145243606537e-05 
3.552482006761316e-05 
3.218396873686361e-05 
3.14734454220832e-05 
2.683565879691663e-05 
2.43639835607995e-05 
2.296977007397427e-05 
2.214487006718779e-05 
2.164055594767285e-05 
2.106043430328927e-05 
1.936985676738448e-05 
1.896658107754524e-05 
1.819126975449889e-05 
1.698812029269741e-05 
1.660562513045223e-05 
1.406181786407282e-05 
1.340931238034581e-05 
1.390479284398342e-05 
1.323587130856795e-05 
1.292620787629771e-05 
1.171359428383054e-05 
1.147634714737852e-05 
1.067996777334118e-05 
1.053180467633977e-05 
1.037498289959356e-05 
9.752472226637428e-06 
8.762394179668722e-06 
8.50829540870354e-06 
8.521008944981934e-06 
8.197383853057133e-06 
7.819266454612066e-06 
7.349760315910761e-06 
7.036138635067488e-06 
6.139475627635052e-06 
5.835501396679322e-06 
5.762064930575467e-06 
5.375252779762529e-06 
5.15065293644072e-06 
5.066165422489553e-06 
4.853551735374526e-06 
4.512887079979738e-06 
4.722751154597367e-06 
4.470475095286266e-06 
4.29225452483978e-06 
4.011199619670422e-06 
3.727227291721593e-06 
3.503742471140225e-06 
3.611030234842927e-06 
3.44595350733083e-06 
3.294274291948801e-06 
3.036207849585442e-06 
2.691107643141465e-06 
2.451878843412474e-06 
2.128567493278475e-06 
1.936953727950083e-06 
2.068575071517081e-06 
1.901184550205866e-06 
1.760395994045838e-06 
1.579326783424193e-06 
1.490894279081756e-06 
1.325630681485575e-06 
1.072923752291503e-06 
3.725897186672657e-19 
4.821405427078832e-05 
