solver_type L2R_LR
nr_class 2
label 0 1
nr_feature 105
bias 1
w
0 
-0.0006192434970203579 
-0.0002803693396029461 
-0.0007252913584459195 
-0.0001002540360041845 
-0.0001302938520726593 
-6.419959815335661e-05 
-8.401852848929834e-05 
-2.334256105075142e-05 
-1.128061507806408e-05 
4.654952153609863e-05 
6.322227987702737e-05 
7.517926901384273e-05 
4.122499334700154e-05 
6.305143451737784e-05 
6.048130263948574e-05 
5.606963348374481e-05 
7.043290967060221e-05 
4.952492161077741e-05 
3.020417358929774e-05 
2.499172955206208e-05 
2.446234225843308e-05 
2.363687910540334e-05 
2.283100531810186e-05 
3.176721542921197e-05 
1.08535613410435e-05 
1.184523602156421e-05 
4.746235939781555e-06 
6.906584482867134e-06 
4.937595245473485e-06 
-1.000411987645432e-06 
-6.77678942201128e-06 
1.084956217686474e-06 
-4.058341514946227e-07 
1.297668215813345e-06 
4.424772652327177e-06 
4.963338746228764e-06 
4.089748968642663e-06 
-2.902410920308593e-07 
-3.119502656918684e-06 
-2.93280644668768e-06 
-5.204312035810551e-06 
-2.365773922426125e-06 
5.13195384987255e-07 
-1.061010519537441e-06 
-4.078451745961862e-06 
-4.152221252885722e-06 
-3.920595224623086e-06 
-3.917146399536771e-06 
-5.649227318137486e-06 
-5.884736971257406e-06 
-5.204785165763474e-06 
-3.376191221945267e-06 
-4.069060113862159e-06 
-3.20074563743053e-06 
-3.804612952829576e-06 
-3.934967349710286e-06 
-3.013105654891918e-06 
-3.669979629294278e-06 
-2.520166737384354e-06 
-2.93893898647498e-06 
-1.432621057717219e-06 
-1.376819936063542e-06 
-2.043582509337422e-06 
-1.589720156297269e-06 
-9.412255289163247e-07 
-8.438669978613186e-07 
-4.705183795683965e-07 
-1.624441821928891e-06 
-1.188068092249707e-06 
-3.752746155140047e-07 
-1.730096443824297e-07 
-4.662781941635914e-07 
-6.435519072797353e-07 
-3.842771882228374e-07 
2.67771803671953e-07 
3.820508449229994e-07 
6.127782105661612e-07 
4.19140670577834e-07 
6.206068039261535e-07 
6.685256271412622e-07 
4.09761273446614e-07 
7.628036448215819e-07 
6.560534286375242e-07 
5.206833008322242e-07 
6.104602984724019e-07 
8.64314313758276e-07 
7.636325151740511e-07 
7.543980676800469e-07 
9.293669653747901e-07 
8.746608566039144e-07 
1.036378116314708e-06 
9.135577547575204e-07 
5.343593733666497e-07 
2.795804009949479e-07 
4.620562132450303e-07 
3.459068658768335e-07 
2.734719841354132e-07 
3.200751745097351e-07 
5.11810292824524e-07 
8.786647223024652e-07 
5.732778868868899e-07 
5.499657123167808e-07 
5.909401889441076e-07 
-1.846695671016106e-19 
2.882552265247079e-05 
