solver_type L2R_LR
nr_class 2
label 0 1
nr_feature 105
bias 1
w
0 
0.001572670490284203 
0.001629419182332047 
0.001171300079772674 
0.0005481036553830371 
0.0004091634069000348 
0.0003020011587452258 
0.0002919876417431541 
0.0002232675012841107 
0.0001957944346145166 
0.0001801675843308698 
0.0001702309014135373 
0.0001411297166113998 
9.581789668845518e-05 
0.0001038956648414791 
0.0001182837033209751 
0.0001119319135869635 
0.0001107639041026983 
8.792175036625188e-05 
8.03744580623093e-05 
8.30496064440186e-05 
6.614501510335741e-05 
6.087348695100392e-05 
5.515094239880951e-05 
5.531545069267634e-05 
3.879294940469895e-05 
3.979491261331275e-05 
3.221842014195713e-05 
2.965393226477311e-05 
1.890858297556558e-05 
2.402846114432944e-05 
2.085977606858383e-05 
2.583925402753115e-05 
2.282979715432968e-05 
1.882249031378447e-05 
1.994476262693032e-05 
1.876077929932304e-05 
1.366434452469557e-05 
1.38626702319605e-05 
1.428123925143671e-05 
1.016454998083606e-05 
9.361567051234502e-06 
1.014763088150767e-05 
9.997146083958457e-06 
7.193099715992967e-06 
6.209245750593844e-06 
4.814300008118374e-06 
4.330471833738794e-06 
3.444968458637927e-06 
2.913283363133959e-06 
2.312156568676014e-06 
2.271639743331811e-06 
1.993816273662215e-06 
1.579383524178242e-06 
1.45117620357077e-06 
4.279887359047796e-07 
2.097447084173336e-07 
6.728797622229535e-07 
4.404672850856301e-07 
3.537776161911783e-07 
-5.374968636784794e-07 
-2.755116199334836e-07 
-5.884033817141335e-07 
-9.817859241013893e-07 
-4.336356456011044e-07 
2.967566790923043e-07 
-4.23292899533855e-08 
-9.383802624655308e-07 
-1.485783737773337e-06 
-1.268059767691943e-06 
-3.1658950782972e-07 
-7.135606690930996e-07 
-1.040048696389608e-06 
-1.209639374889548e-06 
-1.074691636753992e-06 
-7.847155933378145e-07 
-6.408356521257264e-07 
-6.917189955173965e-07 
-9.78069522033976e-07 
-7.0622202885895e-07 
-7.860124204944645e-07 
-8.321961701286218e-07 
-6.418565182146747e-07 
-7.93469884706428e-07 
-4.667748251955667e-07 
-4.504404553643701e-07 
-5.108296031442923e-07 
-4.237985389126227e-07 
-6.576647022239572e-07 
-7.380390338304665e-07 
-4.440818881444716e-07 
-4.869857351018444e-07 
-5.821220557589226e-07 
-9.112274084493857e-07 
-1.045296589578676e-06 
-8.598683674054171e-07 
-8.594432336221331e-07 
-8.348711033960446e-07 
-6.733356423809064e-07 
-6.46341292796287e-07 
-3.215615107308191e-07 
-6.968159797307257e-07 
-7.047126360071304e-07 
-8.379359301485896e-07 
-2.402032019008377e-19 
-9.488056254533915e-05 
