solver_type L2R_LR
nr_class 2
label 0 1
nr_feature 105
bias 1
w
0 
0.0009644244717050099 
0.0008929970884616867 
0.0002869006774031474 
-0.0001169999488016627 
-0.0001549513805108489 
-0.0001592997619249319 
-0.0002371726607403891 
-0.0002283090372524004 
-0.0001936614316592604 
-0.0002724156913919261 
-0.000223740628769571 
-0.0002294272316609672 
-0.000173278335693073 
-0.0001698080980897682 
-0.0001675431363474596 
-0.0001500825443758534 
-0.0001184936740337102 
-0.0001406476298817251 
-0.0001266955938955715 
-0.0001326457858948718 
-0.0001201657348587695 
-9.594836542401933e-05 
-0.0001040421071580951 
-9.948782928641777e-05 
-9.622815226953934e-05 
-0.0001042310728132887 
-0.0001082592896190174 
-8.793262922778848e-05 
-8.45945039846867e-05 
-7.943181239774985e-05 
-7.699550912413955e-05 
-7.324037690867317e-05 
-6.708802228383762e-05 
-6.537582718245014e-05 
-6.627914504753757e-05 
-6.55208764592616e-05 
-6.275096243868831e-05 
-5.793617781656718e-05 
-5.524009086481945e-05 
-5.072414630905389e-05 
-4.829543686570423e-05 
-4.561447463766257e-05 
-4.334990273284503e-05 
-4.016450667391261e-05 
-3.831137510597004e-05 
-3.558495615582951e-05 
-3.53707023461583e-05 
-3.268054259967447e-05 
-3.091723268943441e-05 
-2.846594890138247e-05 
-2.654514006725717e-05 
-2.590340393120048e-05 
-2.541813499981981e-05 
-2.481550813847667e-05 
-2.379497463608607e-05 
-2.249206483031266e-05 
-2.076768165275002e-05 
-1.977345507127896e-05 
-1.906539768754688e-05 
-1.786700478745932e-05 
-1.678183849806937e-05 
-1.572376209103055e-05 
-1.483939349756935e-05 
-1.396912679405034e-05 
-1.262206839549551e-05 
-1.226610552911444e-05 
-1.113626187067429e-05 
-1.060965231448678e-05 
-1.025844215967237e-05 
-1.026136029348945e-05 
-9.618546148718593e-06 
-9.222067200740402e-06 
-8.174312707820087e-06 
-8.287008673156267e-06 
-7.584719283465757e-06 
-7.34353951485387e-06 
-6.81662313678414e-06 
-6.436474788428238e-06 
-6.009275276398325e-06 
-5.517210886602791e-06 
-5.156849622863928e-06 
-4.947407107833861e-06 
-4.620161550579376e-06 
-4.627690680513844e-06 
-4.338200107369974e-06 
-4.083006226441493e-06 
-3.387380877705121e-06 
-3.306200651709006e-06 
-3.253563466212422e-06 
-2.920452866399385e-06 
-2.718821981185471e-06 
-2.348506976975308e-06 
-1.984107365304294e-06 
-1.944990892642518e-06 
-1.706595413340163e-06 
-1.648784323734123e-06 
-1.38808936064247e-06 
-1.118234235826608e-06 
-1.22469125544722e-06 
-9.452374338839746e-07 
-9.128186186228979e-07 
-7.898208872752067e-07 
-2.494933533922197e-07 
-4.333685582185268e-19 
-1.944730076933209e-05 
