solver_type L2R_LR
nr_class 2
label 0 1
nr_feature 105
bias 1
w
0 
-0.000319549138987078 
-0.0003412613322330975 
6.27066023196949e-05 
0.0001682721482335764 
0.0001914259426904487 
0.0001743683628773017 
0.0001827682157532513 
0.0002613413801329782 
0.0001889916804462515 
0.0001224028292345422 
0.0001534016544955369 
0.0001728024582024213 
0.0001147595689259566 
0.0001039728864570745 
9.986009054070058e-05 
0.0001223087738877121 
0.0001206512439764278 
9.228213424330401e-05 
8.327566545546221e-05 
5.8137489094452e-05 
6.331489889561122e-05 
7.352951015981368e-05 
6.366871678115022e-05 
6.145658654941193e-05 
5.97339380043316e-05 
5.235484818443671e-05 
4.487604344923426e-05 
4.261422958634209e-05 
3.23726608429816e-05 
3.742198505853508e-05 
3.299793504243914e-05 
3.360504106093291e-05 
3.20071493344106e-05 
2.850711364274816e-05 
2.489278028944268e-05 
2.611358597572896e-05 
2.346574675085724e-05 
2.342937269900851e-05 
2.075988047392561e-05 
1.870478469844616e-05 
1.83558775467606e-05 
1.962851804614092e-05 
1.608006114141639e-05 
1.442810568052992e-05 
1.557289564009743e-05 
1.32586660190781e-05 
1.148222019591183e-05 
1.12639276241481e-05 
1.045111703234099e-05 
9.375693917988624e-06 
8.435511601543122e-06 
8.906093660111741e-06 
8.982025799700155e-06 
8.59595837084618e-06 
7.933471548247161e-06 
7.572112609095803e-06 
6.477933265001354e-06 
6.359423435256622e-06 
6.367473172853515e-06 
6.000539002834616e-06 
4.680627026364411e-06 
4.841096208800376e-06 
4.873900763224474e-06 
4.907451162512264e-06 
4.884359813065341e-06 
4.333153701668875e-06 
4.048682652146301e-06 
4.088792558661182e-06 
3.940048308758622e-06 
3.346695754103347e-06 
3.104493974363684e-06 
2.740870389515352e-06 
2.907306739909201e-06 
2.207584335897715e-06 
2.133267174426882e-06 
1.712114396711121e-06 
2.140421296029749e-06 
2.165887254090619e-06 
1.991033512953225e-06 
1.684564090644918e-06 
1.631574655756337e-06 
1.498197297505654e-06 
1.741596127306206e-06 
1.335837753094404e-06 
1.150727026571965e-06 
1.132958318147044e-06 
1.166923480668339e-06 
9.578110509559551e-07 
1.016849009365771e-06 
8.716680180712032e-07 
9.703066511905938e-07 
6.751537997716314e-07 
9.587708430493876e-07 
8.215825753839471e-07 
7.866792410673518e-07 
6.842710435264303e-07 
5.06383282766681e-07 
5.038323812709355e-07 
4.050697946098133e-07 
5.640918561120824e-07 
5.431449510749339e-07 
3.476189624051884e-07 
1.634049271969303e-07 
1.769762059581799e-19 
-2.334851411997219e-06 
