solver_type L2R_LR
nr_class 2
label 0 1
nr_feature 105
bias 1
w
0 
0.0006865421481099493 
0.0009432530164951475 
0.0002433363262752028 
0.000299551716928961 
0.0001531667463144036 
0.0001454140529856927 
0.0001759010161872456 
8.855340510607941e-05 
7.100082224648592e-05 
8.718489857872298e-05 
4.076994651410615e-05 
3.701894567181884e-05 
-6.62608558224633e-06 
7.02469744198506e-07 
2.244320045819235e-05 
1.354290469833532e-05 
-1.109279413301304e-05 
-2.487287291642466e-06 
-1.114715616226263e-05 
-1.359272528525891e-05 
-2.839837308433763e-06 
-2.868058946688512e-06 
-1.127301534289732e-05 
-1.133767684996981e-05 
-6.517442761361609e-06 
5.045123949965806e-07 
-1.747683241741837e-05 
-8.763051799577442e-06 
-2.781240978873819e-06 
-3.472908375828591e-06 
2.768030659062793e-07 
-5.409417629914322e-06 
-8.445133648264247e-06 
-8.281540048586413e-06 
-5.337235914946231e-06 
-8.955977525839327e-07 
-8.465108536984039e-08 
-1.875017050713278e-07 
-5.07899280715449e-07 
4.880353634538816e-07 
-1.785071836888723e-06 
-4.329363548405213e-07 
-1.957479060119893e-06 
3.934210938149666e-07 
-1.832735934634833e-06 
-2.701148671923927e-06 
-1.851346563570244e-06 
-7.764682465577899e-07 
-8.458016525548202e-07 
-3.303288657570642e-07 
9.132647305933878e-07 
-7.348615719184988e-07 
-4.672192686174406e-07 
-1.066866201151408e-06 
-1.263439003272946e-06 
-2.193898454460597e-06 
-1.850538185113772e-06 
-7.135526133792322e-07 
-1.627895272659204e-06 
-1.259459697618217e-06 
-1.125304278182361e-06 
-1.783623147831748e-06 
-1.616808704666496e-06 
-1.92576363411621e-06 
-1.535830046015232e-06 
-9.864514720094162e-07 
-1.652646492407846e-06 
-1.066016465957969e-06 
-1.155109167747351e-06 
-1.279172093742582e-06 
-1.350797153542336e-06 
-1.097519423456195e-06 
-1.341870079167899e-06 
-1.304943535957551e-06 
-1.691350995365864e-06 
-1.822025346903984e-06 
-1.753435115673369e-06 
-1.489464072303087e-06 
-1.684904725593076e-06 
-1.458880794541929e-06 
-1.568991410687125e-06 
-1.354380224403355e-06 
-1.026502363026226e-06 
-1.1090760591387e-06 
-1.148816160419124e-06 
-1.079291269305252e-06 
-9.804244284065094e-07 
-8.866371821701037e-07 
-8.805896307524326e-07 
-1.033042456086089e-06 
-7.81817346415809e-07 
-6.088211166599866e-07 
-7.336856202881251e-07 
-6.385560602335561e-07 
-6.966910162387998e-07 
-2.875207364867936e-07 
-6.061824189026222e-07 
-6.162988136601736e-07 
-4.284729935749633e-07 
-6.319549819707924e-07 
-6.998982022102834e-07 
-2.931862385455307e-07 
-3.804534848294368e-07 
-1.812745528555842e-21 
-4.297073293241662e-05 
