solver_type L2R_LR
nr_class 2
label 0 1
nr_feature 105
bias 1
w
0 
-0.002356737773550454 
-0.002580740554148465 
-0.001500145917195833 
-0.0005286439151094766 
-0.0004587646073747483 
-0.0003407650219901823 
-0.0002435460843584753 
-0.0002841690575036832 
-0.0001921827668580404 
-0.0002021421740854107 
-0.0001781691316564211 
-0.0001068167609998386 
-9.650699832436648e-05 
-9.304608711878124e-05 
-8.588842739763818e-05 
-4.778028324337875e-05 
-4.793674022066942e-05 
-4.255782134669323e-05 
-4.155622765651441e-05 
-4.27462356541352e-05 
-2.752022408078831e-05 
-2.70943251760659e-05 
-1.621645330610908e-05 
-1.203015738533279e-05 
-1.828719992016042e-07 
-1.20965084518163e-05 
-1.737227805579781e-05 
-1.616540519876307e-06 
7.199997570422592e-06 
4.56735853926818e-06 
-8.134106000218179e-08 
1.338203838355303e-06 
3.052229563156909e-06 
6.198338251381758e-06 
2.949613871901757e-06 
3.9011850493057e-06 
4.546623733589317e-07 
-1.38766221349934e-06 
1.342253619405362e-06 
2.612435347394959e-06 
3.320336525799111e-06 
2.275403029522556e-07 
1.660914092841139e-06 
4.980961494271598e-06 
4.242069351411188e-06 
5.074909660219974e-06 
4.188454449635905e-06 
3.504559159930832e-06 
3.573617829454647e-06 
4.753091929636633e-06 
5.286021546702704e-06 
3.756603246177226e-06 
3.000975119378406e-06 
2.244110507141828e-06 
3.926117506573452e-06 
3.768111416460358e-06 
4.384969906304266e-06 
3.754795682166218e-06 
3.867385358164296e-06 
4.249263262260849e-06 
4.363571845422029e-06 
4.823116359133789e-06 
5.142443574527395e-06 
5.094155967392694e-06 
5.353296201918751e-06 
5.257315681974297e-06 
5.271598150596915e-06 
4.948606252378945e-06 
5.031267761451935e-06 
4.914322504155586e-06 
4.705725826832378e-06 
4.219411000050929e-06 
4.641030829173154e-06 
4.335189737904989e-06 
4.431157093999592e-06 
4.019259550055613e-06 
3.993329206870371e-06 
3.962247249190918e-06 
3.852786454352646e-06 
3.827348018329349e-06 
3.725155537058635e-06 
3.5820075357778e-06 
3.545610478700773e-06 
3.218492543311884e-06 
3.078641300473112e-06 
3.260148569980948e-06 
3.466463287052167e-06 
3.167552880084182e-06 
2.945595520783783e-06 
2.909795073663559e-06 
2.623012945242248e-06 
2.608202102037683e-06 
2.712212783970638e-06 
2.633101046254908e-06 
2.489713217671852e-06 
2.489955706216201e-06 
2.33615861654734e-06 
2.369606808352357e-06 
1.976319484367792e-06 
2.011904780130873e-06 
1.822818116573033e-06 
1.604509329831234e-06 
1.757198105161956e-06 
1.985160132848586e-19 
0.0001151447553454744 
