solver_type L2R_LR
nr_class 2
label 0 1
nr_feature 105
bias 1
w
0 
-0.0002940435928375619 
-0.0004905147381585405 
-0.0003679604359973582 
-4.263438133659955e-05 
-9.140297432438899e-05 
-7.889994169023784e-05 
2.622923014216063e-05 
6.836626215490174e-06 
4.900374926041924e-06 
-4.579406844522329e-05 
-3.482826087250459e-05 
-1.926746985797031e-05 
1.823721599801572e-05 
-4.698875414294232e-06 
-1.253438434938744e-05 
5.984048660581158e-06 
1.926668382930745e-06 
-2.167177615697404e-06 
2.282822236059728e-06 
-1.240088810043535e-06 
2.518297569340391e-06 
5.091290678501336e-06 
2.754605550388207e-06 
8.004037931254734e-06 
8.035835894044903e-06 
1.217581866128371e-05 
1.453605617264604e-05 
1.25105051913358e-05 
1.152291905245538e-05 
1.761543611991235e-05 
1.301722083328504e-05 
1.247649516832334e-05 
1.003018290024471e-05 
1.345688641845098e-05 
1.303406750989337e-05 
1.182080449748144e-05 
1.26255624786483e-05 
1.404304844767106e-05 
1.424308082901541e-05 
1.274279275498032e-05 
1.342535468859534e-05 
1.21191884605143e-05 
1.085239609576256e-05 
9.494680137534597e-06 
9.473225063059248e-06 
9.24414150998504e-06 
9.371250879576908e-06 
1.049985374580396e-05 
7.824783226296089e-06 
6.467608345390075e-06 
7.13000173713004e-06 
6.751133357929654e-06 
6.257737214974304e-06 
5.833842220442893e-06 
5.359406703908411e-06 
6.000518709942613e-06 
5.945940295449555e-06 
5.916576084171215e-06 
5.481682192219059e-06 
5.119301296275688e-06 
4.793827595237927e-06 
4.919173533656885e-06 
4.741499899112625e-06 
4.374540812149808e-06 
4.133198002974497e-06 
3.492773845925468e-06 
3.329262384082809e-06 
3.315298745599836e-06 
3.325870944197233e-06 
2.759413017014278e-06 
2.348259094723933e-06 
1.810780534486513e-06 
1.711434206728764e-06 
1.340403984998233e-06 
1.279622632957082e-06 
1.598401511346499e-06 
1.798974588212872e-06 
1.846893904254461e-06 
1.593705107058103e-06 
1.521502458616822e-06 
1.711644400703896e-06 
1.49925787833635e-06 
1.422007737792259e-06 
1.249978666544586e-06 
1.150997496242823e-06 
1.12622476192709e-06 
1.121212871345583e-06 
9.099582807516942e-07 
7.169949021108959e-07 
5.956613804955702e-07 
6.326092060680738e-07 
5.525953758269742e-07 
3.895781311197408e-07 
3.804350177509173e-07 
4.245519259469166e-07 
5.323956670958136e-07 
3.662433570418726e-07 
3.219003421788655e-07 
3.459280032385766e-07 
3.222256797755202e-07 
2.095600869882491e-07 
1.112884633338599e-07 
7.510004831630147e-08 
1.274912292177939e-19 
1.262657847295762e-05 
