solver_type L2R_LR
nr_class 2
label 0 1
nr_feature 105
bias 1
w
0 
-0.001029561622356089 
-0.001120118944332706 
-0.0004020846727402054 
-0.0001866366450101111 
-0.0001181664632991349 
-5.678639163906513e-05 
5.21258294320933e-05 
1.042748383366572e-05 
-9.810400125961362e-07 
-1.050173400235826e-05 
-1.328169895575263e-05 
1.169667123229116e-05 
3.029056610497486e-05 
4.30585295763591e-05 
3.332183414654551e-05 
5.187435634976529e-05 
4.347197491130196e-05 
5.940768373698145e-05 
5.120439697070154e-05 
4.956839356783634e-05 
5.670216576395992e-05 
4.631214302471557e-05 
5.554279318915552e-05 
5.479080317980199e-05 
5.861446493128679e-05 
5.529128616457502e-05 
4.647570555188696e-05 
4.47301618258505e-05 
5.309050745948179e-05 
5.259930335351629e-05 
4.17293164948204e-05 
4.376012366889257e-05 
4.165700199942976e-05 
3.81265165299997e-05 
3.706430510484645e-05 
3.714926040314661e-05 
3.492942010753015e-05 
3.164968442883292e-05 
3.511133038126624e-05 
3.172892721420689e-05 
3.077927260751873e-05 
2.864208281533712e-05 
2.767528518624057e-05 
2.692489278226107e-05 
2.533495957831499e-05 
2.261989499180981e-05 
2.329470297036342e-05 
2.404941084966374e-05 
2.132138765910476e-05 
2.044843836493626e-05 
2.002949489010345e-05 
1.876118096260356e-05 
1.7473115326081e-05 
1.678364202244079e-05 
1.701254600829932e-05 
1.685871177574573e-05 
1.585987878619224e-05 
1.513511970609085e-05 
1.436416184049131e-05 
1.33092897033222e-05 
1.289053829987797e-05 
1.246811967861689e-05 
1.240001301024328e-05 
1.104827932523592e-05 
1.067772727997115e-05 
1.017991232785587e-05 
9.113933267537767e-06 
8.752871916596791e-06 
8.750554773469885e-06 
8.195913719058488e-06 
7.711889800701114e-06 
6.915446850725066e-06 
6.531179387218965e-06 
5.899582024819831e-06 
5.388958695068115e-06 
5.513975093031481e-06 
5.188266790536883e-06 
5.261686707731689e-06 
4.801700326797709e-06 
4.496006119613629e-06 
4.323659208834466e-06 
4.191006758811144e-06 
3.834657979633132e-06 
3.701078057906876e-06 
3.326999523828688e-06 
3.327422640639238e-06 
3.128837160443673e-06 
2.73487730496812e-06 
2.426728643019651e-06 
2.255893052547593e-06 
2.297498143714338e-06 
2.176310270913334e-06 
2.058559196392256e-06 
1.849694271697856e-06 
1.787385258997658e-06 
1.798853932030273e-06 
1.36533956303915e-06 
1.299621001035092e-06 
1.04393175702995e-06 
1.092249531199604e-06 
8.502342589331949e-07 
6.998540156640479e-07 
6.095693302302234e-07 
3.244586562563394e-19 
3.570806269578842e-05 
