solver_type L2R_LR
nr_class 2
label 0 1
nr_feature 105
bias 1
w
0 
-0.0004485353513900739 
-0.000236583740314304 
4.90736297487413e-05 
0.0002260612590098517 
0.0001551772500277688 
0.0001125424624268121 
9.762657615908347e-05 
5.662041032851372e-05 
4.807777146120826e-05 
0.0001322110724594149 
0.0001366173639994763 
0.0001103374653045194 
5.372094967397623e-05 
6.576053199585626e-05 
7.063606848489211e-05 
7.303119241599304e-05 
6.529101696242189e-05 
5.708311494155416e-05 
6.96099282229104e-05 
7.134060223825559e-05 
6.071705780312929e-05 
6.793311990107705e-05 
6.689912759171742e-05 
6.999234899677175e-05 
6.29218862878254e-05 
6.660422738554991e-05 
6.430172427240047e-05 
5.620393619738417e-05 
5.38822483482563e-05 
5.903146562632086e-05 
5.693672609453433e-05 
5.661419831221972e-05 
5.762131714813153e-05 
5.249123323720162e-05 
5.125245357694287e-05 
5.098486333211324e-05 
4.351189564099461e-05 
4.463766011147475e-05 
4.467299895431096e-05 
3.959435520715775e-05 
3.872155196967057e-05 
3.69494364581358e-05 
3.274964177203173e-05 
2.953131910838701e-05 
2.902446875854532e-05 
2.652159228156993e-05 
2.496332126278409e-05 
2.248858582137111e-05 
2.392903235775389e-05 
2.06192965334723e-05 
1.973438866566853e-05 
1.783567132961988e-05 
1.759339706684412e-05 
1.643836557730119e-05 
1.529903575560905e-05 
1.446611817405422e-05 
1.321248266734611e-05 
1.379574914237708e-05 
1.248096226323849e-05 
1.130941855377437e-05 
1.059781188235953e-05 
1.024373719644873e-05 
9.759195595390327e-06 
9.478237121187787e-06 
9.726990941316284e-06 
8.642762922435602e-06 
7.423334642511215e-06 
7.138848239844586e-06 
7.093412291911675e-06 
7.006901302895259e-06 
6.807546792828304e-06 
6.222320468191356e-06 
6.015614025678765e-06 
5.597206752228493e-06 
4.962497667942057e-06 
4.811688093683752e-06 
4.708906994352554e-06 
4.302066424341741e-06 
4.336421338831687e-06 
3.831716510610004e-06 
3.535181101961872e-06 
3.338369556923281e-06 
3.151991570152112e-06 
3.186643918322418e-06 
2.867390885200318e-06 
2.525690382254667e-06 
2.562606102852332e-06 
2.005261934815713e-06 
1.935035386423294e-06 
2.140577151249818e-06 
1.807355350444277e-06 
1.689718382344021e-06 
1.446328540085414e-06 
1.392479376055928e-06 
1.017373269121515e-06 
1.03643134678377e-06 
9.153776164242472e-07 
1.159178664456024e-06 
7.937465995139025e-07 
5.356361038285423e-07 
4.258353055844026e-07 
4.370331128329441e-07 
2.128821456451119e-07 
2.898474630593184e-19 
3.046983274202447e-06 
