solver_type L2R_LR
nr_class 2
label 0 1
nr_feature 105
bias 1
w
0 
-0.0001641012760869671 
-4.690742022356083e-05 
-3.501249725976309e-05 
-5.811764208459623e-05 
-6.349482153235014e-06 
-5.62787914510894e-07 
8.093789330033059e-05 
5.32405125575012e-05 
2.621539964180804e-05 
2.917283542356097e-05 
2.690234810411152e-05 
8.257706228546047e-05 
5.431317291733118e-05 
4.694467370164304e-05 
3.828903226015372e-05 
4.797082189152388e-05 
3.683437291858443e-05 
2.446350104971403e-05 
3.171900819622413e-05 
7.479141822297883e-06 
1.405910953917343e-05 
1.85406775242571e-05 
1.926284651769526e-05 
1.801499463732604e-05 
1.070294701838212e-05 
1.081555276620989e-05 
2.464008926456071e-07 
1.913755118601446e-06 
-4.742982973161454e-07 
4.048526448194674e-06 
5.019268497319158e-07 
3.243803805325302e-06 
1.173906555608153e-06 
-4.891416093251287e-06 
-5.9998086697228e-06 
-2.745994402614111e-06 
-5.578914742873026e-06 
-1.11867706606273e-06 
-5.180516492572786e-08 
-4.245460257496071e-06 
-3.967157862880266e-07 
2.1278333360473e-06 
-6.382112017963552e-07 
2.323019376632229e-06 
1.230778448900424e-06 
-3.736615397515212e-07 
3.11910208106885e-07 
-1.016227002605977e-07 
2.051893383265556e-06 
1.971102778810899e-06 
1.384575090454016e-06 
2.240066832593887e-06 
1.964191493544228e-06 
1.930450261749238e-06 
1.454715788374193e-06 
1.079405699334352e-06 
1.059506033510087e-06 
1.192068186516167e-06 
8.935219311041415e-07 
1.347419359796147e-06 
6.502564755365537e-07 
3.66445099932289e-07 
8.371053461791519e-07 
6.422775970972813e-07 
6.473239432950634e-07 
2.019996482809912e-07 
6.00680843266778e-07 
6.951371798416621e-07 
6.89166524042933e-07 
6.224671708831162e-07 
6.978335227296028e-07 
7.377015706452207e-07 
5.014172301514354e-07 
4.172679569421422e-07 
4.848610723860282e-07 
6.142583828444056e-07 
6.198080747942907e-07 
7.955372023905574e-07 
4.575875200009148e-07 
5.152404038147e-07 
3.662357357179831e-07 
3.655590093813899e-07 
4.360402662029204e-07 
1.165655710759716e-07 
1.836514014606515e-07 
2.991991225792723e-07 
5.200222210383867e-07 
2.77719050821957e-07 
2.825057815035738e-07 
3.095065907348628e-07 
4.235497537096832e-07 
2.421335730389801e-07 
3.448881792496845e-07 
1.236808437288384e-07 
1.591335182759631e-07 
1.276997250851778e-07 
1.458294138534331e-07 
6.670249369694203e-08 
7.603645964871501e-08 
3.724734122855172e-07 
1.906409143546051e-07 
7.923697014181802e-08 
1.550593665729176e-07 
-7.277527131405659e-20 
3.169182983763387e-06 
