solver_type L2R_LR
nr_class 2
label 0 1
nr_feature 105
bias 1
w
0 
0.0003001000815453042 
-0.0002239943465546656 
-0.0005092029319306719 
3.862855348444575e-05 
-0.0001010101199020665 
8.346195341869659e-06 
0.0001066100299146657 
3.82531905615391e-05 
-1.120706529928924e-05 
1.051325220077301e-05 
-5.679186649754242e-05 
-5.080799075621043e-05 
-3.404605805571757e-05 
-5.820864380533831e-06 
-1.882305899254188e-05 
5.191763058248208e-06 
-1.414280355031941e-05 
-4.771422716084038e-07 
-1.431119262602092e-05 
-1.530291251166359e-05 
-1.535112763093472e-05 
3.730351904436597e-06 
-3.276286840803509e-06 
-6.74527767534726e-06 
-6.775351445704496e-06 
-4.739403863070534e-06 
-2.014923699758672e-06 
7.002922983707515e-07 
-3.294479307880866e-06 
-9.782495787717605e-06 
-4.329926983160384e-06 
-6.314510897630857e-06 
-4.701367870386662e-07 
-4.242070431610343e-06 
-1.38189391870068e-06 
3.052670467425505e-06 
2.164384830598128e-06 
3.57072186275015e-06 
6.674522130940606e-07 
-5.095782464057155e-07 
2.962866184615795e-06 
2.135364688734491e-06 
1.702186941488489e-06 
3.84933495346108e-06 
5.573729531921538e-06 
4.63904100324267e-06 
4.26622079426446e-06 
3.767530534310713e-06 
2.198039576873238e-06 
2.976188145371734e-06 
2.634696358115167e-06 
2.524090933266328e-06 
2.297925101375035e-06 
2.007192061462577e-06 
2.164445507718072e-06 
2.164886696528646e-06 
1.372889092322346e-06 
1.757057924440779e-06 
1.246063860365966e-06 
1.368212769427271e-06 
1.504420380945527e-06 
9.612684608878648e-07 
1.07190668010188e-06 
1.115023187730092e-06 
9.848847083137225e-07 
1.180216457352243e-06 
4.959926961747504e-07 
1.173933023005471e-06 
9.560942497805636e-07 
1.227604530544991e-06 
1.780164117223447e-06 
1.23162998477536e-06 
1.123173562274704e-06 
9.465187376507785e-07 
1.226690889197927e-06 
1.052990310328921e-06 
1.176864921035783e-06 
1.219039693935479e-06 
1.159850871154352e-06 
8.549518363451388e-07 
1.05730759325288e-06 
6.283978809684337e-07 
4.855342018989682e-07 
5.247651461768259e-07 
3.389203476032708e-07 
6.083816965431732e-07 
9.115685504081217e-07 
7.775998969805082e-07 
6.734224351378018e-07 
7.033775353569757e-07 
6.366847999921987e-07 
5.330460566464621e-07 
5.940135087187251e-07 
4.828021753955592e-07 
5.278793796404389e-07 
6.748120212404861e-07 
4.706749305406617e-07 
3.331215825376896e-07 
1.954949564149455e-07 
3.066920140013848e-07 
1.633699455680428e-07 
1.924054178471407e-07 
3.109720118769959e-07 
1.391469950836764e-20 
3.922795734557004e-06 
