solver_type L2R_LR
nr_class 2
label 0 1
nr_feature 105
bias 1
w
0 
-0.0004135921738345202 
-7.110723454249508e-05 
-8.43602875835102e-05 
2.022319328412147e-06 
7.193626221812365e-05 
3.940396594495845e-05 
8.277292335375978e-05 
4.000906066335204e-05 
-1.379224417328177e-05 
8.018521003747834e-05 
4.599561543679811e-05 
6.055648649924335e-05 
0.0001088227402678026 
0.0001149690905944836 
8.102370892051223e-05 
5.525293497005188e-05 
5.549986998995553e-05 
6.595563956074959e-05 
6.024257207389976e-05 
5.760331724833905e-05 
4.750557183939175e-05 
4.691055227108126e-05 
3.834785645924881e-05 
3.928644134324449e-05 
2.979180435442129e-05 
2.891182489663762e-05 
3.967549605664458e-05 
3.46943348336225e-05 
2.637858819798198e-05 
2.25117192366307e-05 
2.301012115301829e-05 
2.173332580274404e-05 
2.025036386893947e-05 
2.309913381085659e-05 
1.86301301851788e-05 
1.914516512362755e-05 
1.939916381266765e-05 
2.061673609612589e-05 
1.805351125602714e-05 
1.628833823847208e-05 
1.345892842467499e-05 
1.233452483586878e-05 
1.591140019371922e-05 
1.16398419746442e-05 
1.230195997758305e-05 
1.396251014551171e-05 
1.428661090779377e-05 
1.143484363301176e-05 
1.207056002618087e-05 
1.133036135718333e-05 
1.032811695056576e-05 
9.829289546795356e-06 
9.213603279153891e-06 
9.310125706415868e-06 
8.638832107221918e-06 
7.759871399423845e-06 
7.446011195098968e-06 
6.911213805903341e-06 
5.667659716557664e-06 
5.862138883138727e-06 
5.704263235499656e-06 
4.629891142095828e-06 
5.404903144152751e-06 
4.74866013731656e-06 
4.242471547646521e-06 
4.126960409529456e-06 
4.036833911841065e-06 
3.549821883028257e-06 
3.796055850446361e-06 
3.557346038313507e-06 
3.131707719973268e-06 
3.05179289541371e-06 
3.216183950073429e-06 
3.377143091913728e-06 
3.05539353277919e-06 
2.775767787935318e-06 
2.828615918564903e-06 
2.554198389122095e-06 
2.207199206676868e-06 
2.242233942882467e-06 
1.731407173556422e-06 
1.826658849364539e-06 
1.906821990210206e-06 
1.686095784872819e-06 
1.409234909143097e-06 
1.546277077602436e-06 
1.613476942500406e-06 
1.396108435318573e-06 
1.428774006965713e-06 
1.442741909239192e-06 
1.251317676275622e-06 
9.492289970579254e-07 
6.378432596110116e-07 
8.086220998022415e-07 
8.310232898237941e-07 
7.460155355127697e-07 
6.084576749692652e-07 
6.688838796758122e-07 
5.132716962443888e-07 
3.478899610603337e-07 
3.315620800227699e-07 
2.815301888394633e-07 
5.98541581603016e-07 
1.549421897997324e-19 
6.519264254746985e-06 
