solver_type L2R_LR
nr_class 2
label 0 1
nr_feature 105
bias 1
w
0 
-0.0001754934225438624 
-0.0005229353473796012 
-0.0002610658387565113 
-0.0001250207425659945 
-9.621472234853512e-05 
-8.845130238913947e-05 
-8.475865390947025e-05 
-0.0001331788183067147 
-0.0001459104230459736 
-6.787963066279569e-05 
-0.0001135938414554235 
-9.8873155650738e-05 
-4.277053248757477e-05 
-4.525636084902984e-05 
-5.54204717530332e-05 
-6.309536239283313e-05 
-6.187836786751147e-05 
-3.319148252504015e-05 
-3.789366533739711e-05 
-3.391718047678896e-05 
-1.895165730207288e-05 
-2.509072434313801e-05 
-1.913550215831368e-05 
-1.841232789243996e-05 
-2.108372314016977e-05 
-1.320157657743946e-05 
-9.336204363059312e-06 
-1.536100154865142e-05 
-8.920739125431565e-06 
-9.32339713750689e-06 
-7.954312442959431e-06 
-7.516239469423777e-06 
-7.751774238485536e-06 
-3.548768897136692e-06 
-5.263298829585832e-06 
-8.297766154325719e-06 
-3.217265579407791e-06 
-5.099482815931556e-06 
-5.687962161003756e-06 
-5.567040382213056e-06 
-4.838683277809159e-06 
-4.099497087639689e-06 
-1.551849442065455e-06 
-3.634025726388258e-06 
-2.45491484172677e-06 
-1.69347317118427e-06 
-1.780562886705637e-06 
-2.437309491358067e-06 
-1.902129765382829e-06 
-1.557673090943164e-06 
-1.309359682114096e-06 
1.938566139055451e-07 
5.014433437705827e-09 
-3.575502126745455e-07 
-4.07979232153838e-07 
-1.267846972595429e-06 
-6.926682563152288e-07 
-1.5734122340034e-06 
-8.509294802419637e-07 
-2.377219488812306e-07 
-2.699229379951896e-07 
-1.070997351642756e-06 
-4.531507991586754e-07 
-9.198434176916697e-07 
-7.103111503059713e-07 
-3.589486882429177e-07 
-4.543309137890707e-07 
-5.86344014469293e-07 
-4.361258705793017e-07 
1.202297749741367e-07 
-1.361104577981837e-07 
-5.353932765393919e-08 
-6.91998923644019e-08 
4.135505744308772e-07 
3.216370678938808e-07 
2.986109424964222e-07 
3.139516650585155e-07 
2.217235995847423e-07 
2.624873481318999e-07 
1.714661674867703e-07 
1.705418472349105e-07 
1.782753460512611e-08 
1.359222971704209e-07 
2.479929055838741e-07 
-9.840924582387759e-08 
2.500958221687986e-07 
3.259838758817736e-07 
3.16602121813897e-07 
2.327955696110288e-07 
3.633727692803444e-07 
2.98288148823874e-07 
2.615715311710745e-07 
2.609298235892328e-07 
2.05360043630233e-07 
2.886734592342616e-07 
1.600982366129698e-07 
6.90648616055967e-08 
1.758592335007866e-07 
1.928777230551043e-07 
-6.333017504748464e-08 
5.256419318664072e-08 
7.806929201077464e-08 
2.072888169479782e-07 
5.703970863777679e-21 
2.21691328168147e-05 
