solver_type L2R_LR
nr_class 2
label 0 1
nr_feature 105
bias 1
w
0 
0.00101176043869463 
0.0014197618491137 
0.0004527559228719948 
0.0002779882168131137 
0.0002059365637031811 
0.0001087142700975769 
0.0001424498506377245 
8.930793695004076e-05 
4.500928867574706e-05 
7.229103865573344e-05 
5.901180994443387e-05 
4.490916194688008e-05 
2.302137360547665e-05 
1.711156316072003e-05 
2.709666186081995e-05 
-7.321351895266993e-06 
-5.291713591622347e-07 
1.008387239667063e-05 
-1.68495324202725e-06 
8.632223551042693e-06 
4.518071165089898e-06 
-1.298910794292497e-05 
-1.172707763375399e-05 
-1.505460099687351e-05 
-1.523184809064379e-05 
-1.349165444644966e-05 
-6.539872727179444e-06 
-1.529666841675168e-05 
-1.940024500602228e-05 
-1.904059508384036e-05 
-1.875595727426099e-05 
-1.302209226721195e-05 
-1.39372602304831e-05 
-1.696786916756765e-05 
-1.424873606879457e-05 
-1.028477510773215e-05 
-7.869490755379663e-06 
-1.114578245513802e-05 
-8.769665977169749e-06 
-1.038124120700929e-05 
-1.013917503469723e-05 
-6.350654156893251e-06 
-9.798467041658006e-06 
-9.825783446170688e-06 
-1.002823928272179e-05 
-1.021569828533429e-05 
-8.376219576703625e-06 
-7.640049330905359e-06 
-8.458735072460546e-06 
-7.590078852580958e-06 
-6.355585728194029e-06 
-6.273700817993679e-06 
-6.032254968544872e-06 
-6.16218802093522e-06 
-6.522488015311426e-06 
-5.956709223052654e-06 
-5.715904687978733e-06 
-6.143369424629838e-06 
-5.294249855007352e-06 
-5.23492769155454e-06 
-4.568526186803017e-06 
-4.758525525208573e-06 
-4.32358982359045e-06 
-4.489323394924242e-06 
-4.44855704537697e-06 
-3.92453886925782e-06 
-3.88279832947926e-06 
-4.595409945468103e-06 
-3.946483433037987e-06 
-3.762595244339904e-06 
-3.888350052307155e-06 
-3.632481524452436e-06 
-3.225966752717951e-06 
-3.207359511986276e-06 
-2.996896606241558e-06 
-3.141152732062773e-06 
-2.813910160728899e-06 
-2.678736313959869e-06 
-2.662405767146498e-06 
-2.338079632643382e-06 
-2.554717471736677e-06 
-2.461256230715788e-06 
-2.116684486610562e-06 
-2.248863379484389e-06 
-2.15052062229912e-06 
-2.10934158767598e-06 
-2.057115734599521e-06 
-1.808421461180705e-06 
-1.561723468601081e-06 
-1.552503097926597e-06 
-1.394141265500973e-06 
-1.275005190412314e-06 
-1.353248927479307e-06 
-1.180762691431056e-06 
-1.345167334140672e-06 
-1.399410242505882e-06 
-1.345809438264437e-06 
-1.227061039484401e-06 
-1.180057035691201e-06 
-1.023077427220277e-06 
-7.802776403023996e-07 
-5.315641969832407e-07 
-6.527076864139631e-07 
-1.245617853695151e-19 
-4.19392534263142e-05 
