solver_type L2R_LR
nr_class 2
label 0 1
nr_feature 105
bias 1
w
0 
0.001523667370486607 
0.00151084767974075 
0.0008994879284799901 
0.0001373014085668196 
0.0001576288444150101 
0.0001344796801190984 
6.356546554007068e-05 
5.647403518899204e-05 
3.047838887172718e-05 
-2.117615797601677e-05 
-2.694422479381805e-05 
-2.024980275322499e-05 
-9.502274128638957e-06 
3.074042664857855e-05 
-3.003333341687701e-05 
-5.592158938893226e-05 
-1.127125450456467e-05 
-1.729162162975083e-05 
-2.269748976283007e-05 
-2.04649611418695e-05 
-1.49254962806401e-05 
-9.300083014118966e-06 
-1.80388684079259e-05 
-1.966204662359115e-05 
-3.017759385712641e-05 
-1.601086822408001e-05 
-3.237845785461375e-05 
-3.340691501900056e-05 
-3.774787987583521e-05 
-3.607150231451589e-05 
-3.612451691308069e-05 
-2.925271519658772e-05 
-3.048339364305219e-05 
-3.138958117376136e-05 
-2.822202437666472e-05 
-3.105002672728362e-05 
-2.867027215838966e-05 
-2.861526180005949e-05 
-3.100173918929035e-05 
-2.697574960534904e-05 
-2.838434415579652e-05 
-2.750285313705259e-05 
-2.467678536671434e-05 
-1.926754330044962e-05 
-2.083896114437488e-05 
-2.000758385033536e-05 
-2.002663947986784e-05 
-1.834748974382871e-05 
-1.763847171862163e-05 
-1.603989675023888e-05 
-1.639572458118086e-05 
-1.531852793530896e-05 
-1.503201330571925e-05 
-1.448591846343793e-05 
-1.382209620668574e-05 
-1.329735087014143e-05 
-1.222660605822097e-05 
-1.17602246517238e-05 
-1.188098624606889e-05 
-1.153895070442816e-05 
-1.188809952804351e-05 
-1.141748460302492e-05 
-1.076675457285576e-05 
-1.036732252791984e-05 
-9.26068760466622e-06 
-8.735343038262691e-06 
-9.024350047668259e-06 
-7.784117774213879e-06 
-7.867440785035744e-06 
-7.308501487039496e-06 
-6.89573468913272e-06 
-6.72736113230813e-06 
-6.604787331731191e-06 
-6.689011331615632e-06 
-5.680111288946353e-06 
-5.623188022620681e-06 
-5.202576649641919e-06 
-5.018929289553334e-06 
-4.681235797902288e-06 
-4.654584889822623e-06 
-4.138875770708676e-06 
-4.196848649953924e-06 
-3.859012101267237e-06 
-3.402337012714543e-06 
-3.645532407249269e-06 
-3.193641848326082e-06 
-3.119200757573348e-06 
-2.65750591190688e-06 
-2.697092163602775e-06 
-2.761064442314657e-06 
-2.441614918021375e-06 
-2.402611105177622e-06 
-2.108354980207115e-06 
-2.05402034598025e-06 
-1.963852418921166e-06 
-1.878030949601154e-06 
-1.778230739378973e-06 
-1.714279146498922e-06 
-1.585082416123401e-06 
-1.550079802863556e-06 
-1.475162564473587e-06 
-1.486371455056945e-06 
-9.123982177333467e-07 
-3.214783224995852e-19 
-7.692852418529488e-05 
