solver_type L2R_LR
nr_class 2
label 0 1
nr_feature 105
bias 1
w
0 
0.001774709911087773 
0.001289796790696776 
0.0003837033785902582 
9.363639560682178e-05 
6.554077127970469e-05 
-1.452579089884321e-09 
-3.986711091875049e-05 
-7.931831396450088e-05 
-9.125699756377328e-05 
-8.109511207115072e-05 
-9.977719003075699e-05 
-8.635946549564505e-05 
-7.528309351121063e-05 
-6.174966336077104e-05 
-9.153233689243397e-05 
-0.0001172169549399799 
-0.0001057314140843081 
-0.0001002353543431837 
-9.833498354197816e-05 
-8.873839909156447e-05 
-7.952771632139716e-05 
-6.487343836122266e-05 
-6.981200965904196e-05 
-6.282290976391198e-05 
-7.078024863615841e-05 
-6.176476111084271e-05 
-5.762062859650828e-05 
-5.922845774167061e-05 
-6.300160625215098e-05 
-6.093987961023322e-05 
-5.439046726127401e-05 
-5.122134820788873e-05 
-4.822194991171039e-05 
-4.498432594181251e-05 
-3.402771645432122e-05 
-3.908332038725661e-05 
-3.498205551102773e-05 
-3.188647454167036e-05 
-3.211853039053505e-05 
-3.073130635707018e-05 
-2.844369783022846e-05 
-2.735914507554634e-05 
-2.645480405774903e-05 
-2.133811102094787e-05 
-2.346944963114021e-05 
-1.963916341955249e-05 
-1.902353678693007e-05 
-1.88497655036071e-05 
-1.803156977734717e-05 
-1.567835927284986e-05 
-1.640169281153454e-05 
-1.513649371347359e-05 
-1.333894950619039e-05 
-1.344264872911693e-05 
-1.237491099354532e-05 
-1.235553306815832e-05 
-1.271444590162569e-05 
-1.106083330998177e-05 
-1.038702901639355e-05 
-1.042696820334071e-05 
-1.037171592155484e-05 
-9.590647065552391e-06 
-9.607487185016645e-06 
-8.932813020163053e-06 
-8.058546314245849e-06 
-7.53651222864336e-06 
-7.836540858212132e-06 
-7.114006464200546e-06 
-6.759342709989238e-06 
-6.466135593408024e-06 
-6.458343192751212e-06 
-6.617981131133722e-06 
-5.996586371019768e-06 
-5.895177390405568e-06 
-6.129541327379516e-06 
-5.785346845212473e-06 
-5.390814312975293e-06 
-5.052482371653097e-06 
-5.413490691804204e-06 
-5.199684069742608e-06 
-4.477653387579188e-06 
-4.273059640291592e-06 
-4.251915476804885e-06 
-3.993418565348629e-06 
-3.785261399928902e-06 
-3.734569331723021e-06 
-3.625992407251212e-06 
-3.183331048101951e-06 
-3.204025615383603e-06 
-2.908004467212482e-06 
-2.824030981063405e-06 
-2.815249324448333e-06 
-2.418527463959622e-06 
-2.139825206621931e-06 
-2.008931661349934e-06 
-1.838544356276252e-06 
-1.838026474023329e-06 
-1.809829075105468e-06 
-1.75234479571043e-06 
-1.595485148308692e-06 
-1.452058263215314e-06 
-1.277624314615658e-06 
-8.996959346879406e-07 
-4.372786375315451e-19 
-6.364666023261492e-05 
