solver_type L2R_LR
nr_class 2
label 0 1
nr_feature 105
bias 1
w
0 
0.001540093990530152 
0.001987240708801144 
0.000798683212023072 
0.0001956579122365216 
0.0001071769935085413 
-2.148941515719421e-05 
-9.617466633751178e-05 
-8.703599534112005e-05 
-8.238932227683105e-05 
-2.482336154590079e-05 
-1.88245775249874e-05 
-4.02799491616576e-05 
-4.710258164068197e-05 
-5.871748894984635e-05 
-2.821557448087543e-05 
-3.406899058898467e-05 
-5.995223755931316e-06 
-1.938789281526468e-05 
-3.899563353475042e-05 
-3.747533875663754e-05 
-1.719016429084227e-05 
-1.486195790817868e-05 
-1.780190344544789e-05 
-1.099855068039884e-06 
-1.575034924261657e-05 
-1.899520927705457e-05 
-1.443720740182455e-05 
-1.769791103371663e-05 
-1.896407851463241e-05 
-1.42786485563299e-05 
-1.330945051781801e-05 
-1.15853939557187e-05 
-1.292716084484643e-05 
-1.189944918947295e-05 
-1.288830429380596e-05 
-1.157946139809129e-05 
-1.226486135982938e-05 
-1.21866944034866e-05 
-1.059429956997009e-05 
-7.132407956918265e-06 
-5.821853344817847e-06 
-6.433238174662826e-06 
-4.874105546366224e-06 
-7.99273500568119e-06 
-8.212589676254654e-06 
-6.764078170549043e-06 
-6.825571006962653e-06 
-5.012700138160342e-06 
-3.929064849385841e-06 
-4.383881769192245e-06 
-4.764681368841499e-06 
-4.934290877183672e-06 
-3.911058140840838e-06 
-2.468187823761555e-06 
-2.33953106391761e-06 
-2.199526513390843e-06 
-2.896555593893107e-06 
-3.032550056689164e-06 
-1.798924159796748e-06 
-2.622914969164933e-06 
-3.172177702735031e-06 
-3.285279696994166e-06 
-3.193943810056528e-06 
-2.94948594557565e-06 
-3.054231916160503e-06 
-3.386711341871519e-06 
-3.236354081107055e-06 
-3.037457901654232e-06 
-2.528185262101202e-06 
-2.60790497777591e-06 
-2.198050191169552e-06 
-1.911451460667209e-06 
-2.532535578909807e-06 
-2.130352846662663e-06 
-2.205466045285924e-06 
-2.067216880372136e-06 
-2.221319562234459e-06 
-2.329849792875085e-06 
-2.100332476980183e-06 
-1.821582656770911e-06 
-2.073536448193798e-06 
-1.752588676989849e-06 
-1.813682333098382e-06 
-1.906920075706027e-06 
-1.642295097082468e-06 
-1.514736810172332e-06 
-1.522212496274186e-06 
-1.778980766407374e-06 
-1.782544347524642e-06 
-1.660550799591853e-06 
-1.439694333089195e-06 
-1.452464993474516e-06 
-1.410823119136771e-06 
-1.428854061196159e-06 
-1.502892598312443e-06 
-1.442789536744174e-06 
-1.268055361051715e-06 
-1.16086763573729e-06 
-1.229617739969741e-06 
-1.232266014318429e-06 
-9.647401179545581e-07 
-8.542281174350553e-07 
-7.558336013636423e-07 
-2.776782288499257e-19 
-8.025013335737236e-05 
