solver_type L2R_LR
nr_class 2
label 0 1
nr_feature 105
bias 1
w
0 
-0.0003788033107507972 
-0.0003542753920855933 
-0.0001391853941657169 
-5.027694331652666e-05 
-1.207825956438741e-05 
-5.501138149165359e-05 
3.912815600256758e-06 
-3.866609038073675e-05 
-5.853100928683208e-05 
-3.110263681960341e-05 
-4.155103782192397e-05 
-3.925354951631984e-05 
-3.083564117527411e-05 
-3.625568834415148e-05 
-3.254319738134933e-05 
-4.270685333895986e-05 
-4.913527204820301e-05 
-4.14159881683698e-05 
-2.599016815786004e-05 
-2.29354199242679e-05 
-1.72217637991865e-05 
-1.585752724241145e-05 
-1.384398010207187e-05 
-1.739129704008419e-05 
-1.621949453227897e-05 
-5.897152900079906e-06 
2.08557781512611e-06 
4.763389415827835e-06 
8.569783334355426e-07 
4.595113530318583e-06 
2.956887272649117e-06 
4.263104331849606e-06 
3.249124748511859e-06 
1.305563621537515e-06 
2.517349708567372e-06 
5.691016187100368e-06 
6.298317234718591e-06 
3.03399565508946e-06 
5.979171082683551e-06 
6.189131281312494e-06 
5.249880113306015e-06 
8.9081038784745e-06 
3.771453620355302e-06 
4.919622279256185e-06 
5.087348343146968e-06 
4.29201162881972e-06 
5.655251519968802e-06 
4.514516290821733e-06 
5.212017437856551e-06 
4.059650634049176e-06 
4.474948748475885e-06 
4.793884634863462e-06 
3.860212897515622e-06 
3.561036829069125e-06 
3.22843446877328e-06 
3.484642002979081e-06 
3.867708281981638e-06 
2.920111168594104e-06 
3.039072424199611e-06 
2.388683076152477e-06 
2.971626193644602e-06 
2.339822379825848e-06 
2.517944104347599e-06 
2.335379172313154e-06 
2.124798409497153e-06 
2.082071828825522e-06 
2.146033422579741e-06 
1.666272379919237e-06 
1.850313593289973e-06 
1.771577132798906e-06 
1.243481892137257e-06 
1.243859458818476e-06 
1.941962454712966e-06 
1.711294960569989e-06 
1.691434285182667e-06 
1.422978377662152e-06 
1.389384800593718e-06 
1.527796618128637e-06 
1.572316783580329e-06 
1.363909417635221e-06 
8.580173364944458e-07 
1.198092825635594e-06 
1.307179215810118e-06 
9.989105897523978e-07 
8.291530618978839e-07 
7.264746383432544e-07 
8.76549111496796e-07 
8.813295706057516e-07 
9.514690280012786e-07 
9.848883771678461e-07 
8.476672239611793e-07 
6.582679363386864e-07 
5.394924293133859e-07 
6.880247865553353e-07 
4.524284409067237e-07 
3.75307557615864e-07 
3.287693996664573e-07 
5.375847794504317e-07 
2.281079917366302e-07 
2.709963486652815e-07 
4.442329684819687e-07 
2.865959346724594e-07 
2.813179975506201e-07 
1.040358416060862e-19 
1.135541677197241e-05 
