solver_type L2R_LR
nr_class 2
label 0 1
nr_feature 105
bias 1
w
0 
0.0002892547513749063 
0.000489073679166517 
0.0002221602358672822 
0.0001653932943013286 
0.000122716476939015 
7.001128806777716e-05 
4.053687481876729e-05 
4.566113039241462e-05 
5.595042705744672e-05 
0.000118694996287729 
8.602676620827033e-05 
9.807940522515964e-05 
7.885001359479351e-05 
7.567912112611559e-05 
9.232465097245162e-05 
7.556261428748433e-05 
6.855516508744981e-05 
4.632334454573088e-05 
4.765561083649869e-05 
3.145244861311046e-05 
5.922842972102781e-05 
4.616338227515194e-05 
3.847549879503904e-05 
3.270665057028465e-05 
3.186092974088776e-05 
3.562710516569494e-05 
3.940097930850499e-05 
3.053685896571576e-05 
3.487757207884581e-05 
3.007045952388098e-05 
2.670731470466944e-05 
2.521994868309611e-05 
2.663450410388415e-05 
2.30271380310908e-05 
2.156045279271023e-05 
2.019623912537193e-05 
1.971477914998655e-05 
2.049791864546117e-05 
1.660450936593944e-05 
2.123088915825077e-05 
2.087525485945218e-05 
1.876662126399783e-05 
1.537127420849404e-05 
1.089609054913982e-05 
1.005522200055102e-05 
1.023682132222729e-05 
1.067414324475306e-05 
1.135721399017704e-05 
1.032188902885453e-05 
7.489893057347743e-06 
7.49980359865635e-06 
6.43967328736718e-06 
6.238092909964979e-06 
7.054336047004864e-06 
6.154099216145574e-06 
6.028516953360819e-06 
5.746360804318432e-06 
5.662503750213307e-06 
6.297294446676957e-06 
4.933798493931907e-06 
4.326003298893199e-06 
4.237342041638892e-06 
3.802620016466962e-06 
3.660990522913558e-06 
3.442834245091147e-06 
2.992072008272742e-06 
2.955070935140966e-06 
2.714165655995207e-06 
2.755195825897782e-06 
2.690543172131306e-06 
3.032121209898482e-06 
2.685321685892982e-06 
2.039871181086954e-06 
2.389077849637175e-06 
2.434776970198992e-06 
2.11204402950107e-06 
1.635224174957004e-06 
1.666559686753433e-06 
1.752450080590715e-06 
1.812890579158497e-06 
1.52697270297855e-06 
1.867142406260444e-06 
1.551545841034219e-06 
1.570635284380632e-06 
1.757007357145102e-06 
1.627090654854197e-06 
1.604660917221693e-06 
1.396305292640964e-06 
9.569891992769872e-07 
9.551510145902292e-07 
9.152843532124006e-07 
7.141761000465078e-07 
7.602406808268935e-07 
6.746135623246545e-07 
5.703681163607074e-07 
3.855969558624078e-07 
4.972612434617929e-07 
3.763713086965954e-07 
3.40489911986247e-07 
2.754192161093371e-07 
4.781111171313124e-07 
3.156120791883212e-07 
1.61928029279555e-07 
3.031582319730936e-20 
-2.700932623280824e-05 
