solver_type L2R_LR
nr_class 2
label 0 1
nr_feature 105
bias 1
w
0 
-0.0002772563797407929 
0.0001474783863180039 
0.0002936750096057551 
0.0001066096660078286 
0.0001482893702915447 
0.0001925759917549276 
0.0002009403413122498 
0.0001775010683173233 
0.0001913660827600025 
0.0001707540927433614 
0.0001321265175114989 
0.0001247444375227532 
0.0001373299061358524 
0.0001531369276019294 
0.0001302835113830335 
0.0001050356588163968 
0.0001137694709120626 
9.055274025192692e-05 
9.510152192923804e-05 
7.492339656376012e-05 
9.334712413207364e-05 
6.470790823138393e-05 
5.822705933992846e-05 
5.207944005668751e-05 
5.104172011306937e-05 
5.890312208405813e-05 
5.217257007239918e-05 
4.095229084676186e-05 
4.183357881088522e-05 
3.967373930783054e-05 
3.143318336719274e-05 
3.289830577553885e-05 
2.862204784658197e-05 
2.780861136109926e-05 
2.404733753569468e-05 
2.375540862140804e-05 
1.981565970442257e-05 
2.243360856046044e-05 
1.572742889451287e-05 
2.053909057200069e-05 
1.837484554794369e-05 
1.708830214888209e-05 
1.604473840828507e-05 
1.410132620812974e-05 
1.144378369734882e-05 
1.005068278358068e-05 
1.011004181098238e-05 
1.016888269461382e-05 
1.047711404245155e-05 
8.205517561554398e-06 
7.333347406555367e-06 
7.057352478788722e-06 
6.255026177390348e-06 
7.003609016683577e-06 
5.942158646474017e-06 
6.32735716345737e-06 
6.21698393841305e-06 
5.74023227727648e-06 
5.553602818445448e-06 
4.645704302974016e-06 
4.035573033553992e-06 
3.933470866413713e-06 
3.853345129606888e-06 
3.608573394656545e-06 
3.508113414848838e-06 
2.962091884505648e-06 
2.682280562458372e-06 
2.949174059517611e-06 
2.46342300735159e-06 
2.441250540186958e-06 
2.79100528082859e-06 
2.236397131969708e-06 
1.679675892074047e-06 
1.683748900368043e-06 
2.421275551900067e-06 
2.09066775713709e-06 
1.752435446920601e-06 
1.699585207363138e-06 
1.798907353235716e-06 
1.647981457091126e-06 
1.82346808286322e-06 
1.556364962642648e-06 
1.481036644074276e-06 
1.829017817758817e-06 
1.513637690743252e-06 
1.476146120897038e-06 
1.71332840382696e-06 
1.600453529288794e-06 
1.387781946411672e-06 
1.11261856420007e-06 
1.150542511650312e-06 
8.911275935124546e-07 
7.988975089195277e-07 
6.076354902396379e-07 
5.883067976960814e-07 
3.921764323414382e-07 
6.253324273752144e-07 
5.7906528809677e-07 
6.76250057589064e-07 
5.239521165303315e-07 
4.453629119150442e-07 
2.457524175063918e-07 
4.812953537060026e-08 
1.89025908738482e-19 
-1.382889873421533e-05 
