solver_type L2R_LR
nr_class 2
label 0 1
nr_feature 105
bias 1
w
0 
-0.0009449689596552816 
-0.0004895446546461877 
-0.000789970878313204 
3.036695787648574e-05 
-1.275906703885022e-05 
7.077230923896203e-08 
4.699301901454706e-05 
1.205941383819491e-05 
3.703513969816222e-05 
7.891934121810914e-05 
0.0001074676727759462 
0.0001125579417806423 
8.145728401166178e-05 
7.181188212474812e-05 
4.901663151477162e-05 
4.788957187254967e-05 
4.661811660042331e-05 
5.615577134808314e-05 
3.773886925316624e-05 
4.634175781925599e-05 
3.061248336945221e-05 
1.897449488002035e-05 
2.120228302244942e-05 
1.686007978731339e-05 
2.28641699447234e-05 
2.014452273821509e-05 
2.1987027141714e-05 
1.879539398037394e-05 
2.309694536624495e-05 
1.730104588617624e-05 
1.894599200983967e-05 
2.235191897326204e-05 
2.079516265203787e-05 
2.237749321045625e-05 
2.367219436319976e-05 
2.200049906899445e-05 
2.428198717303452e-05 
2.289907145929559e-05 
1.858343772294827e-05 
1.712458286738798e-05 
1.652447485874874e-05 
1.618921235167039e-05 
1.512275539230611e-05 
1.493717066958088e-05 
1.290863045586544e-05 
1.179715638691211e-05 
1.156468661243779e-05 
1.152078765518145e-05 
8.596719782256337e-06 
8.772446309528948e-06 
8.405650242510054e-06 
8.798807095968652e-06 
8.51484072745523e-06 
7.276157044019509e-06 
6.945700602057027e-06 
6.2944177776043e-06 
6.280756209674514e-06 
5.555439153192973e-06 
5.507789331907888e-06 
5.502488684162373e-06 
5.170964641441801e-06 
5.232787435911783e-06 
4.915231677685633e-06 
4.374323283909744e-06 
4.283252488315918e-06 
4.231566281270707e-06 
4.109023630140811e-06 
3.949099033023123e-06 
4.023347454903848e-06 
4.330165899047842e-06 
4.127208522525068e-06 
4.291347717909647e-06 
3.834468833354346e-06 
3.575764588672231e-06 
3.474069790435114e-06 
3.358362809162835e-06 
3.038110421797757e-06 
2.809022321050695e-06 
2.78101099716349e-06 
2.817740125044212e-06 
2.658130870980504e-06 
2.618806012032515e-06 
2.610229802531162e-06 
2.63682428095906e-06 
2.200607915962019e-06 
2.028776536851416e-06 
1.802265997316937e-06 
1.791150294971587e-06 
1.754476412596865e-06 
1.838979021719061e-06 
1.71588021686857e-06 
1.630043060066319e-06 
1.397619533418523e-06 
1.227016793890599e-06 
1.107719314618058e-06 
1.016336732680206e-06 
9.507052253872439e-07 
8.717106475502331e-07 
8.152780873294023e-07 
9.139320070569084e-07 
7.853235264355966e-07 
7.070152475785456e-07 
5.978095720388032e-07 
3.502017458127786e-19 
2.86759422795507e-05 
