solver_type L2R_LR
nr_class 2
label 0 1
nr_feature 105
bias 1
w
0 
-0.000498091777790659 
-0.0007570242453496628 
-0.000891702405340245 
-8.577375130393468e-05 
-0.0002037818427740548 
-0.0001652116696749914 
-0.0002064024542047638 
-0.0001915544223820512 
-0.0001303272178286095 
3.993983884377457e-06 
-2.265114749910569e-05 
-5.898439207395868e-05 
-4.365028077716847e-05 
-6.672748445055587e-05 
-5.106340525536849e-05 
-6.07264497409924e-05 
-4.278742206967521e-05 
-3.394535661145441e-05 
-2.430512859082868e-05 
-2.14252846896398e-05 
-2.874654669167385e-05 
-3.590295030067298e-05 
-3.00358600011894e-05 
-2.277059850571849e-05 
-1.262976082231184e-05 
-5.720831634105072e-06 
-5.071372914085087e-06 
-1.130215270303817e-05 
-1.442552802395451e-05 
-4.758360323989968e-06 
-4.170213841954705e-06 
-4.931523223739094e-06 
1.409252681056946e-06 
-2.728124356584992e-06 
-2.598922115817047e-06 
-6.554055820359225e-07 
-3.77089832405287e-06 
-8.065190181157457e-07 
-4.231040996425791e-06 
-1.281631457445662e-06 
-4.831557775739779e-06 
-4.675416686181443e-06 
-8.088806959421052e-06 
-6.420211070936937e-06 
-8.09206561800691e-06 
-5.241429814249433e-06 
-6.159844406095536e-06 
-5.132778074855832e-06 
-4.959880510269769e-06 
-3.897646885517974e-06 
-3.122051572221804e-06 
-3.758059568894723e-06 
-3.042517161570701e-06 
-2.757614926731715e-06 
-2.423611558277056e-06 
-2.190835567469473e-06 
-2.243464291168568e-06 
-2.567319871537513e-06 
-2.689033573825636e-06 
-2.001134095426427e-06 
-2.032482062070569e-06 
-2.186274516601246e-06 
-1.913810860832618e-06 
-1.796297587832027e-06 
-1.471062152397559e-06 
-1.145884980536331e-06 
-8.281332686104125e-07 
-6.895409424054671e-07 
-9.398013441183809e-07 
-1.249505924552591e-06 
-1.087894623143883e-06 
-1.209902603593112e-06 
-7.506563745869009e-07 
-6.024851721093478e-07 
-6.122456158501793e-07 
-3.934925652514253e-07 
-7.10689712324542e-07 
-4.842992958497762e-07 
-6.87710393585199e-07 
-8.832233339789813e-07 
-6.625178061299819e-07 
-9.334245149447122e-07 
-5.421253861546981e-07 
-5.441066504591524e-07 
-4.59500263789703e-07 
-2.815352268380367e-07 
-1.985760614067596e-07 
-5.013326442905431e-07 
-4.185781020785496e-07 
-6.241483903646654e-07 
-4.49150018231549e-07 
-4.350352686880923e-07 
-3.233578869061847e-07 
-1.998005361841664e-07 
-3.247789989320435e-07 
-4.598611706187084e-07 
-3.484620667883341e-07 
-3.843686944556886e-07 
-5.094819846625877e-07 
-6.527820163914862e-07 
-3.318029478508075e-07 
-4.737452933943207e-07 
-4.898014429956919e-07 
1.890284037922918e-19 
4.502677438463516e-05 
