solver_type L2R_LR
nr_class 2
label 0 1
nr_feature 105
bias 1
w
0 
0.0009621178144563209 
0.001200230649683458 
0.0007376622560311407 
4.782312437957132e-05 
7.44000126602074e-05 
2.037416025409529e-05 
-3.30775422441052e-05 
-1.831847093590598e-05 
-3.629660911110838e-05 
-4.777233491145126e-05 
-5.775461795229065e-05 
-4.374609285929838e-05 
-2.86428980699764e-05 
-1.888439206405176e-05 
-1.433613985514769e-05 
1.122397326321055e-05 
9.811926614617181e-06 
-1.505707436887221e-05 
-2.326394771434979e-05 
-1.000535220824667e-05 
-1.031883542506308e-05 
-1.760040544080798e-05 
-1.834679494148022e-05 
-1.281646072558034e-05 
-2.153358075846029e-05 
-1.571665535282589e-05 
-1.860521462925135e-05 
-2.235660670941017e-05 
-2.718569995682611e-05 
-2.497506317361214e-05 
-1.815235508153573e-05 
-2.117098757302361e-05 
-1.807843673895873e-05 
-1.795602381953002e-05 
-1.969587493847684e-05 
-2.132179132463657e-05 
-2.065718565677175e-05 
-2.102576946103443e-05 
-1.875259425182443e-05 
-1.923151668880235e-05 
-1.781073763059377e-05 
-1.621438030213625e-05 
-1.650060139276521e-05 
-1.347516532398555e-05 
-1.362289549631777e-05 
-1.296139694114498e-05 
-1.352582288736289e-05 
-1.273534861285248e-05 
-1.340715591916612e-05 
-1.250705112410238e-05 
-1.288001641314262e-05 
-1.129653940499464e-05 
-1.134166456398936e-05 
-1.114792665961827e-05 
-1.124696248182939e-05 
-9.913156560972001e-06 
-9.70481186173364e-06 
-8.908997028678754e-06 
-8.908212977938898e-06 
-8.298138420751665e-06 
-7.366255395448608e-06 
-6.601927849526311e-06 
-5.988258443306516e-06 
-6.286861493828595e-06 
-6.34306688955999e-06 
-6.089113539091191e-06 
-5.788691165946035e-06 
-5.234004966100311e-06 
-4.744416750093222e-06 
-4.795148542284793e-06 
-4.821053607104603e-06 
-3.627926164949835e-06 
-3.112513696965775e-06 
-3.180720334791028e-06 
-2.858635106128038e-06 
-2.825258000332628e-06 
-2.487910908512164e-06 
-2.30754574100272e-06 
-2.379885763449194e-06 
-2.066686635653706e-06 
-1.956984948097106e-06 
-2.148049772101464e-06 
-2.189946479905775e-06 
-2.168751743266112e-06 
-2.118039367713054e-06 
-1.918024719026131e-06 
-1.832009382059347e-06 
-1.651952487083994e-06 
-1.511773759558147e-06 
-1.573778312441593e-06 
-1.424486464459641e-06 
-1.338277412282071e-06 
-1.060746256864268e-06 
-1.069795464314132e-06 
-8.42257958918823e-07 
-8.754509454530335e-07 
-8.898090472450456e-07 
-7.409888914645682e-07 
-8.283944456460522e-07 
-4.728574641408132e-07 
-3.834152698851833e-07 
-3.172808653238829e-07 
-4.875203356904959e-07 
-2.112679101729573e-19 
-5.143353876460652e-05 
