solver_type L2R_LR
nr_class 2
label 0 1
nr_feature 105
bias 1
w
0 
-0.0003058246110415678 
-3.063262418981286e-05 
-0.0001314150599150648 
8.242613254291187e-05 
6.365348737306532e-05 
3.010182636055755e-05 
3.002997890377631e-05 
3.645858436427184e-05 
5.384852901064979e-05 
7.295835335540912e-05 
8.657451285671024e-05 
9.166210955187851e-05 
0.000106247501214234 
8.883436925729225e-05 
6.385604375432223e-05 
6.513944096514298e-05 
6.793726675072121e-05 
5.371745564112435e-05 
4.459891266336597e-05 
3.026065464123558e-05 
4.410724707000092e-05 
3.138527026308125e-05 
1.586378638958826e-05 
2.390583437199207e-05 
9.337836907984087e-06 
1.88654274127449e-05 
2.177176251083565e-05 
1.419758829236089e-05 
1.705421458903779e-05 
1.218819076346109e-05 
9.039116424974409e-06 
1.175003041635144e-05 
1.039351752546931e-05 
4.563858990519579e-06 
5.426259681728602e-06 
2.321255441977613e-06 
3.713700066346594e-06 
7.357431935681703e-06 
8.489783849466161e-06 
5.085103347148274e-06 
3.002448388023503e-06 
5.946824146364065e-06 
4.731659884807192e-06 
4.087979891491314e-06 
3.785979292817891e-06 
7.825169568278691e-07 
2.89377393538359e-06 
2.932596943642809e-07 
5.972450178181942e-07 
9.465124823955788e-08 
-2.978345457339064e-07 
4.048723699328918e-07 
5.993438898033539e-07 
4.747032521454293e-07 
3.815446496663267e-07 
5.159727019491432e-07 
6.921048212518869e-07 
6.91286023936676e-07 
2.26296734013857e-07 
3.32552738648866e-07 
7.872976696548803e-08 
-9.64876844831522e-08 
2.997695830633507e-07 
4.591959290786053e-07 
1.264011229090933e-07 
2.137940266381788e-07 
1.796445836221036e-07 
4.94853406995171e-09 
7.127170846937051e-08 
4.69920089910524e-07 
1.533000823020284e-07 
1.89660998223308e-07 
1.034701683631525e-07 
9.393604902029759e-08 
4.229112239474127e-07 
6.36133126344128e-07 
3.897132031487653e-07 
2.684258006950924e-07 
3.884140194373512e-07 
2.65216328952388e-07 
4.803899972872002e-07 
3.270776850066785e-07 
2.934215164825737e-07 
1.493251568403554e-07 
3.020034106353938e-07 
5.448886663968011e-07 
4.46783931347434e-07 
6.133288190104792e-07 
4.33738508118688e-07 
6.126691207164018e-07 
5.543916891445433e-07 
5.783314410356052e-07 
7.054598444851103e-07 
5.736218814130102e-07 
6.507800395397502e-07 
4.228729785991646e-07 
6.672100075904311e-07 
4.531325820465645e-07 
4.141402025131991e-07 
4.986973049030262e-07 
6.8683660187963e-07 
5.961108595697856e-07 
4.6145118556482e-07 
7.708919639198469e-21 
3.943766777968316e-06 
