solver_type L2R_LR
nr_class 2
label 0 1
nr_feature 105
bias 1
w
0 
-0.0003398758900907374 
-0.0002247630294314318 
-0.0002177148548573457 
-5.730881318271911e-05 
-3.136549801081004e-05 
-2.303569101541365e-05 
-5.67550538438625e-05 
-6.154999630986388e-05 
-6.841470941450636e-05 
-5.609393565643481e-05 
-7.355454542296948e-05 
-5.606235171879087e-05 
-6.463074178200836e-05 
-4.322207503476942e-05 
6.401510179512918e-06 
-5.579037103528705e-06 
-1.751003495248327e-05 
-1.961464551644025e-05 
-8.627962619895613e-06 
2.769915132827149e-06 
1.528691122040576e-05 
-3.843070364976612e-06 
-7.217629138776578e-06 
5.026581488464072e-06 
1.787061842554e-06 
1.485166120235588e-05 
1.095422303167404e-05 
1.460689509780171e-05 
1.045437541988377e-05 
2.150989850195701e-05 
3.098833411385746e-05 
2.200192388179885e-05 
2.050244253556354e-05 
2.200006345408617e-05 
1.86198241645483e-05 
2.070199849349463e-05 
2.378383412035692e-05 
2.194349829458628e-05 
2.259857080952249e-05 
2.275068759835904e-05 
2.100306915639328e-05 
1.969260255520604e-05 
1.87727289297641e-05 
1.746239365461297e-05 
1.642607707539825e-05 
1.482428497551508e-05 
1.221507211140125e-05 
1.10347611041855e-05 
1.14302991393156e-05 
9.978434035801247e-06 
8.864844298121642e-06 
8.991615758821249e-06 
8.458975885897868e-06 
7.596160984327727e-06 
6.412877701287114e-06 
7.108905717909051e-06 
6.831904212942461e-06 
7.564913428213186e-06 
6.692862009803973e-06 
6.796475748068581e-06 
6.115182974876015e-06 
6.750521547439665e-06 
6.461809707668745e-06 
4.786001714722567e-06 
4.532398225087623e-06 
5.0826995812093e-06 
4.441696834415736e-06 
4.684572023517631e-06 
4.501397304284153e-06 
4.758334529253853e-06 
4.210392494106218e-06 
4.508488671999256e-06 
4.491386256030734e-06 
4.201763749949895e-06 
3.479738639334045e-06 
3.252333117618353e-06 
3.28399395378592e-06 
3.067935771519079e-06 
3.025200613991463e-06 
2.649440400941628e-06 
2.669888692428087e-06 
2.60863955847315e-06 
2.159695588571139e-06 
2.133690776983737e-06 
1.982764203250986e-06 
2.109848910146609e-06 
1.875377632992724e-06 
1.677336376743205e-06 
1.722147484079348e-06 
1.736669390721472e-06 
1.650517282582273e-06 
1.373905576995592e-06 
1.446593855558673e-06 
1.185527001818434e-06 
1.330598917710549e-06 
1.341503798672976e-06 
1.051593369356548e-06 
9.50205648946837e-07 
7.652670876129832e-07 
9.892327979581718e-07 
8.340759875738307e-07 
9.006468868229683e-07 
6.895891416067677e-07 
2.647037126765174e-19 
1.828062936228674e-05 
