solver_type L2R_LR
nr_class 2
label 0 1
nr_feature 105
bias 1
w
0 
-0.001110970327266343 
-0.001053650416564698 
-0.0008275975983022215 
-0.0001104227722623806 
-0.0001124379997392113 
-0.0001053874300992811 
-0.0001257715439825317 
-0.0001203173133018373 
-9.661672372542109e-05 
-6.173231255530617e-05 
-5.38989879795579e-05 
-3.879476139036086e-05 
-3.895638738384448e-05 
-3.329952894176676e-05 
-5.533926915122741e-06 
-2.275720936999842e-05 
-2.97638430800636e-05 
-2.552805662473451e-05 
-2.130513421557969e-05 
-2.709943455812795e-05 
-1.809198214593566e-07 
-4.932407006235904e-07 
-2.023166094092262e-05 
-9.802740583914694e-06 
-1.464104926344894e-05 
4.793298274041826e-06 
8.602680144017068e-06 
1.076989668276962e-05 
1.306575671333153e-05 
1.23102981961111e-05 
1.907025768111754e-05 
1.783316157643599e-05 
1.387954045838325e-05 
1.31202361786166e-05 
1.23973885066552e-05 
1.564452199326891e-05 
2.03025481262365e-05 
2.062020283306637e-05 
2.055048296793491e-05 
1.733171476758249e-05 
1.485754975145296e-05 
1.834902134016238e-05 
1.640690056174068e-05 
1.613932822926268e-05 
1.272296273716354e-05 
1.061006351120275e-05 
1.050529098627865e-05 
7.580249920913229e-06 
9.910005776879538e-06 
8.498648221691045e-06 
8.449415186663961e-06 
8.931327457513055e-06 
8.298993509139804e-06 
7.846847617733538e-06 
6.858987906690486e-06 
6.465366504513433e-06 
6.81284447030124e-06 
7.658190027134622e-06 
7.193506884026742e-06 
7.132873147839327e-06 
6.038485651991445e-06 
6.24850970458037e-06 
6.367004158095673e-06 
5.367811116817886e-06 
4.791098218235043e-06 
5.39685252594176e-06 
4.785992678601632e-06 
4.585219054971925e-06 
4.901634720786852e-06 
5.122918818449996e-06 
4.217199591188203e-06 
4.102995042382858e-06 
4.186793746761767e-06 
4.043569371124163e-06 
4.159426335906703e-06 
3.803959127098529e-06 
3.701817362477468e-06 
3.314028908666685e-06 
3.230735215793431e-06 
3.187411229087507e-06 
3.043809777292612e-06 
3.123880788209835e-06 
2.504428073530715e-06 
2.542575540313079e-06 
2.629656023669662e-06 
2.684834177971213e-06 
2.434134016406674e-06 
2.553986334278263e-06 
2.406819400081804e-06 
2.598747262981152e-06 
2.520061939634876e-06 
2.249554433311978e-06 
2.234165919156583e-06 
2.189243998585882e-06 
2.247407683993998e-06 
2.110575419822642e-06 
1.905156686189299e-06 
1.518123143639231e-06 
1.448971677860275e-06 
1.493452736710297e-06 
1.654323811396341e-06 
1.566027537443302e-06 
1.199338319778904e-06 
2.043515103135001e-19 
6.22656991726262e-05 
