solver_type L2R_LR
nr_class 2
label 0 1
nr_feature 105
bias 1
w
0 
-0.001615601148388485 
-0.002127649624187215 
-0.001509746172550001 
-0.0002070238223090206 
-0.0002281338641321732 
-0.0001441257738323637 
-0.0001604415437042053 
-0.0001407931691036454 
-0.0001031615797179309 
-5.692131295573214e-05 
-4.429302623780331e-05 
-4.113363128575383e-05 
2.616256592898408e-06 
-3.022011979497729e-05 
-3.324961824500602e-05 
-3.650214634423081e-05 
-4.897609044724403e-05 
-3.242935162852063e-05 
-3.417460227631027e-05 
-2.757968353742314e-05 
-1.664443333031761e-05 
-2.839629631756836e-07 
-5.200087151011094e-06 
-1.050112453738222e-06 
-1.199409539896216e-06 
2.40487682575179e-05 
1.671125057963477e-05 
2.595497319494406e-05 
2.191964166186811e-05 
2.851991971764877e-05 
3.467695279003883e-05 
3.488921681453392e-05 
4.343087527330836e-05 
4.449659958116684e-05 
4.622438365901708e-05 
4.173431213692871e-05 
3.941917049108058e-05 
3.667527089014989e-05 
3.607496355790366e-05 
3.529008149894461e-05 
3.467054906340826e-05 
3.312783065588428e-05 
2.967241214886148e-05 
2.836524235877346e-05 
2.93154473928538e-05 
2.541482555531405e-05 
2.31743448633213e-05 
2.20410986915954e-05 
1.880392984124462e-05 
1.789808768410622e-05 
1.854510915799035e-05 
1.789267814652822e-05 
1.63063447554073e-05 
1.540340903935659e-05 
1.422450662318769e-05 
1.588702491103009e-05 
1.427638891030903e-05 
1.378832577467981e-05 
1.294934863315077e-05 
1.209535608509462e-05 
1.162349862683506e-05 
1.109957671147695e-05 
1.017679135943313e-05 
1.00169578895396e-05 
9.310152251785839e-06 
9.242265599499302e-06 
9.34057488271427e-06 
9.04152138346804e-06 
7.990722235960077e-06 
7.619061378987379e-06 
7.401361121546217e-06 
7.042370674719191e-06 
6.638364027796737e-06 
6.04734451449173e-06 
5.867579496536881e-06 
5.964403091474381e-06 
5.519100302743663e-06 
5.57051054501374e-06 
5.098969525714779e-06 
4.815845076247573e-06 
4.875058686717867e-06 
4.648121405575681e-06 
4.542155793614196e-06 
4.145816829857379e-06 
3.952884672966273e-06 
3.988635805035359e-06 
3.31171025340815e-06 
3.50045482021673e-06 
3.268136232017606e-06 
2.948456350285298e-06 
2.918179972603131e-06 
2.618627411030141e-06 
2.504440286888036e-06 
2.300737560236677e-06 
2.109561136034624e-06 
1.906646197581162e-06 
1.688206790708825e-06 
1.69295455160753e-06 
1.545670408046004e-06 
1.461706085669483e-06 
9.864697553865503e-07 
9.656843337578407e-07 
6.830871004345674e-07 
4.444381084056543e-19 
0.0001112082813758716 
