solver_type L2R_LR
nr_class 2
label 0 1
nr_feature 105
bias 1
w
0 
0.0004922301686247621 
0.0004241345520690131 
0.0006170345420998564 
0.0001226793847072146 
0.0001407514242770791 
0.0001233422422747096 
0.0001013744541856306 
6.784872475233525e-05 
7.064781191392719e-05 
6.330145740779026e-05 
6.247696794836322e-05 
2.917472991632381e-05 
7.142866474012842e-05 
4.075864102953345e-05 
5.097891108462148e-05 
3.145205985743668e-05 
5.99642765213984e-06 
1.830632288185184e-05 
1.818574336759262e-05 
3.135167871086285e-05 
2.632367316868222e-05 
3.267144842519643e-05 
3.159345578414792e-05 
2.089038366320053e-05 
2.169041358825883e-05 
2.714848888342021e-05 
1.898435691847209e-05 
1.809139950593937e-05 
2.138383188044431e-05 
1.638207984708286e-05 
8.927661344650014e-06 
1.051360979657648e-05 
9.814529646578001e-06 
7.335047319177982e-06 
4.112951080508797e-06 
7.851028913037554e-06 
9.021502592800039e-06 
6.071585436928437e-06 
8.095016494321526e-06 
6.242137028678922e-06 
5.608964353287584e-06 
2.584709041430967e-06 
2.299999655538189e-06 
3.788087830278509e-06 
3.046027992225908e-06 
2.565798000248295e-06 
3.076011454141209e-06 
2.597681311974592e-06 
2.3830901406441e-06 
2.183400588781942e-06 
2.8527575445968e-06 
1.339898249856673e-06 
1.884736473135714e-06 
1.142963772202751e-06 
9.483896779912505e-07 
8.123880164641027e-07 
3.378003263780226e-07 
8.509052056401777e-07 
6.853895220792025e-07 
7.207173660567674e-07 
5.568519977210531e-07 
2.992973687309109e-07 
2.216760967628933e-08 
7.709912490948866e-07 
7.727168031893898e-07 
9.841250666897786e-07 
2.434849200953276e-07 
2.037792619795254e-07 
1.824894708959945e-07 
1.829863606694524e-07 
9.66276160261001e-08 
1.596494640892784e-07 
7.827383755110531e-09 
2.640142066408981e-08 
-1.124869885163165e-07 
-2.025721493659855e-07 
-5.314703554818243e-08 
1.835910255610183e-08 
-1.815503333630228e-07 
-1.261982597173693e-07 
-2.798902525549723e-08 
1.654059452763141e-07 
1.358927868509127e-07 
-1.973302268639525e-07 
-1.484759350149109e-07 
-1.133131653840753e-07 
-3.252992993498719e-07 
-4.194375378870141e-07 
-3.94758817430796e-07 
-2.144392077468738e-07 
-2.818116678771263e-07 
-2.121149800290142e-07 
-5.40033145436767e-08 
2.882494616718412e-08 
-8.333423087849858e-08 
-9.880726867206422e-08 
-1.058869191765063e-07 
-2.741888756267933e-07 
-1.90624785466964e-07 
-1.640277322857765e-07 
-8.016382078064249e-08 
3.057486507455824e-08 
-1.061106473051564e-07 
1.713723167691593e-20 
-3.192256114415006e-05 
