solver_type L2R_LR
nr_class 2
label 0 1
nr_feature 105
bias 1
w
0 
0.0006670133407243532 
0.000149348363065871 
0.000219054819876756 
8.230809062871731e-05 
8.383916826029244e-05 
5.559935121006512e-05 
0.0001005457767255042 
4.228805129128535e-05 
2.345005458477112e-05 
4.472477301229574e-05 
3.024884028974378e-05 
1.373979764166255e-05 
3.867146236800612e-05 
4.411297472573636e-05 
5.67297419608781e-05 
1.625897523551311e-05 
5.117860018461768e-06 
7.851621424336161e-06 
4.70769447099641e-06 
8.76017607557002e-06 
7.151828221208497e-06 
1.275502142527774e-05 
1.372550176200697e-05 
1.427706689214994e-05 
3.559264628456882e-05 
3.071706826227897e-05 
2.666167758331215e-05 
2.27078243124384e-05 
2.962429008710201e-05 
2.703178223485796e-05 
2.067900012964303e-05 
2.070733875585195e-05 
2.38032217456282e-05 
2.124553809316454e-05 
1.878344202819788e-05 
2.315618255253842e-05 
2.291646630963066e-05 
2.093611818135846e-05 
2.203687290173646e-05 
2.05003595332621e-05 
1.921943304033845e-05 
1.821012628385198e-05 
1.892595229881111e-05 
1.511280861638881e-05 
1.44371934162571e-05 
1.408432012979442e-05 
1.330960148212525e-05 
1.341705515725976e-05 
1.212434989180265e-05 
1.193759450804405e-05 
1.159160713185806e-05 
1.004104580069955e-05 
9.771433344575345e-06 
8.377990845706767e-06 
8.933614643263807e-06 
8.223767006393436e-06 
7.011775063426679e-06 
6.861509926272005e-06 
6.418481198517975e-06 
5.658371842194318e-06 
6.150678337859004e-06 
5.629996855418032e-06 
4.88096143923507e-06 
5.389386494288785e-06 
4.421230393463751e-06 
4.490644949272661e-06 
3.871163710929522e-06 
3.323211640994533e-06 
3.407532747199562e-06 
2.92224993261102e-06 
2.658063423867031e-06 
2.346400108553753e-06 
2.068346518553213e-06 
1.975275960073277e-06 
1.591485245762837e-06 
1.784627671439807e-06 
1.600543033749183e-06 
1.589556746640005e-06 
1.392943152433256e-06 
1.447866523359815e-06 
1.107746507937516e-06 
1.443424835012227e-06 
1.273843788260574e-06 
8.1485307266715e-07 
1.17764770805323e-06 
1.017036495787642e-06 
1.04089401592001e-06 
7.149664230835652e-07 
5.007348530979197e-07 
4.379385393833539e-07 
5.55564702644263e-07 
4.419613390649711e-07 
2.624064030037857e-07 
1.190454919033429e-07 
1.923015307297781e-07 
1.006522907584557e-07 
6.312839909308556e-08 
3.208776489472055e-08 
-1.110189060203641e-08 
-4.819616515602667e-08 
-5.465461804758534e-08 
-1.105487234031141e-07 
-1.97777477361656e-07 
6.25720785031443e-20 
-2.377560803670379e-05 
