solver_type L2R_LR
nr_class 2
label 0 1
nr_feature 105
bias 1
w
0 
-0.0005441786706783241 
-0.001112244606335227 
-0.0008228659677359098 
-4.344721945425308e-05 
5.039771488630766e-06 
9.605999810714752e-05 
0.000148160022678472 
0.0001344819752288506 
0.0001172734744562055 
5.295513519710959e-05 
4.07919014021415e-05 
6.626749550604155e-05 
8.692604830706057e-05 
0.0001011107623659897 
8.756804758411198e-05 
7.182125484157184e-05 
7.903182146461574e-05 
6.265983969859112e-05 
7.151471931949777e-05 
7.676865669979007e-05 
6.020331303882608e-05 
5.638831302196997e-05 
6.210298695532612e-05 
6.146476239622763e-05 
6.891955100598117e-05 
7.861183788171399e-05 
7.848888285224465e-05 
7.200049362330877e-05 
6.64935160356519e-05 
6.521401961738531e-05 
6.89863862603754e-05 
6.872705566819108e-05 
6.763350017690678e-05 
6.65750543876363e-05 
6.828937861583897e-05 
7.182281520585572e-05 
6.493641139948264e-05 
6.090308738469037e-05 
5.968733071540532e-05 
5.557339126797989e-05 
5.412568151781607e-05 
5.135665854459544e-05 
4.705202934522981e-05 
4.290316319402021e-05 
4.177045211021594e-05 
4.046452676943945e-05 
4.024843205467603e-05 
3.748296359114941e-05 
3.321612694707396e-05 
3.230459568585851e-05 
3.201408366585907e-05 
3.065457197914832e-05 
2.818969508599025e-05 
2.68637640418015e-05 
2.572342751327154e-05 
2.464960721281341e-05 
2.259625583517231e-05 
2.225068984044854e-05 
2.062563860860331e-05 
1.850353840664895e-05 
1.833417861795469e-05 
1.699092157540519e-05 
1.604500528279166e-05 
1.517325520245532e-05 
1.425675966912677e-05 
1.352160156456212e-05 
1.301365823839219e-05 
1.219196409005428e-05 
1.168781670230933e-05 
1.112576325022308e-05 
1.056090987525609e-05 
9.60545397267423e-06 
9.259984191428371e-06 
9.229923338320498e-06 
8.149938187373151e-06 
7.458755482561492e-06 
7.340860315335038e-06 
6.733478524506373e-06 
6.576326147683554e-06 
6.446812899897249e-06 
5.667340193635483e-06 
5.573782212632904e-06 
5.140719523174177e-06 
4.897530318110297e-06 
4.585969009159949e-06 
4.456277702877669e-06 
4.151723711966695e-06 
3.75814163232026e-06 
3.57512955658953e-06 
3.437220499127022e-06 
3.009263195104325e-06 
2.736298545429644e-06 
2.429668339383609e-06 
2.257769357572714e-06 
2.057544690984634e-06 
1.865058516511873e-06 
1.795455286348099e-06 
1.45670833639983e-06 
1.30742915485977e-06 
1.146297345748101e-06 
7.978647434542302e-07 
5.968274544865266e-07 
4.967985907212707e-07 
2.855263970183619e-19 
2.539596658365036e-05 
