solver_type L2R_LR
nr_class 2
label 0 1
nr_feature 105
bias 1
w
0 
0.0008036431819520131 
0.0003675032633639049 
0.0001612365132651605 
0.0001142917488903484 
0.0002180195778624313 
9.234043119588205e-05 
6.289492776902997e-05 
6.534522916597505e-05 
8.892267970015677e-05 
6.099381347748448e-05 
3.450755259084126e-05 
1.155783967496221e-05 
7.433877716565779e-05 
6.29414895771762e-05 
3.30916307401299e-05 
2.765170727214654e-05 
1.241972910249934e-05 
2.45434007474456e-05 
3.018735725322061e-05 
1.863355228762571e-05 
2.354754674666211e-05 
7.908389243009228e-06 
-2.0609799799214e-06 
1.477574090273744e-06 
4.976770292095332e-06 
1.024570664802773e-05 
5.600858160084695e-06 
1.984056846732147e-06 
7.768352612851162e-06 
2.591301315258102e-06 
1.733870927849068e-06 
3.539770284740303e-06 
4.790337071537409e-06 
4.176103279462833e-06 
5.718475289004573e-06 
9.951503411618637e-06 
5.89368130683271e-06 
1.942232763558717e-06 
6.027672506389742e-06 
4.615341164665691e-06 
5.238922107663039e-06 
6.112234542073739e-06 
4.110847510991005e-06 
5.09857735180711e-06 
2.773764038918298e-06 
4.680789582006688e-06 
4.551971345762016e-06 
5.20009162992094e-06 
3.531090517682706e-06 
2.824814810563817e-06 
3.104505703075721e-06 
1.818355268707611e-06 
1.749902295767175e-06 
1.616195025528501e-06 
2.552795217176698e-06 
2.145898803789741e-06 
1.78843487499519e-06 
2.292599991643502e-06 
2.164749846723431e-06 
1.76712028288573e-06 
1.883537265025156e-06 
1.327629508673898e-06 
1.607683552176717e-06 
1.111999695937471e-06 
9.797273344104624e-07 
3.049475884624847e-07 
1.050087228952019e-07 
2.07349620130572e-07 
2.360680120964857e-07 
2.56530988322108e-07 
2.864103088649613e-08 
-3.537483039004289e-07 
-3.742664353136607e-07 
-5.448071542959017e-07 
-3.919958492858835e-07 
-3.748874948770161e-07 
-5.515522049746361e-07 
-3.64076987258169e-07 
-2.698993873501475e-07 
-1.971498683100828e-07 
-4.280901524630427e-07 
-6.700024946958035e-07 
-5.89720725866134e-07 
-6.181854119039864e-07 
-7.974404752135979e-07 
-4.653527159024337e-07 
-6.386218616795374e-07 
-5.640229453141964e-07 
-7.029396816544744e-07 
-7.689522802708198e-07 
-6.680202198998343e-07 
-5.86891058548621e-07 
-4.41918224376334e-07 
-6.477852729715366e-07 
-6.031312106742591e-07 
-5.439186920429837e-07 
-6.657596604397483e-07 
-7.623129775948652e-07 
-5.79662364453738e-07 
-6.668758957694529e-07 
-5.452004227864298e-07 
-2.159050264957633e-07 
2.963114735630365e-08 
-1.307941106581502e-20 
-2.888441461667184e-05 
