solver_type L2R_LR
nr_class 2
label 0 1
nr_feature 105
bias 1
w
0 
0.0001808771647368161 
7.980357348127519e-05 
-0.0001997567393187006 
-1.264532148661553e-05 
2.916220424662816e-05 
1.559439030579581e-05 
-2.126033611183914e-05 
-2.68804809351481e-05 
-4.95211824585062e-05 
-1.590947627058061e-05 
-4.358592246089167e-05 
-3.654067216491323e-05 
1.846839444025934e-06 
-4.116058855435091e-05 
1.582795399561486e-06 
-1.495241876269032e-05 
-3.329296577282358e-05 
-1.206353339806905e-05 
-1.039038699787184e-05 
-9.780535056841186e-06 
-2.034448343107586e-05 
-1.42002593139508e-05 
-1.145260571678406e-05 
-2.8384441877879e-05 
-1.96818577279558e-05 
-8.984351903597376e-06 
-1.108755271420439e-05 
-2.814331222532563e-06 
-1.049732996121461e-05 
-8.26373965839892e-06 
-6.321439305055056e-06 
-2.881505542831162e-06 
-9.061916806182171e-08 
2.024495819051296e-06 
-5.249192103909705e-07 
-3.498125600574294e-06 
-2.590144201452289e-06 
-2.820219421080325e-06 
-1.480063571897837e-06 
6.209799804616307e-07 
-9.148118377274239e-07 
-4.469737589636541e-07 
-3.752454977081332e-06 
-4.112505414460764e-06 
-2.089918599834774e-06 
1.556888810394341e-06 
1.467554244787738e-06 
1.010846605144106e-06 
-8.436028877218535e-07 
-3.591005968022629e-07 
3.931480310738002e-07 
9.414629834606214e-07 
2.458147501680472e-07 
4.277322499812893e-07 
-5.482675260338465e-07 
8.537478053912372e-07 
1.381689180330289e-06 
7.187663028001404e-07 
3.157091919546771e-07 
-2.493599065381637e-07 
-4.619241309022743e-07 
3.152114322967327e-07 
4.239671329895917e-07 
3.043740451165253e-07 
3.672372763544168e-07 
1.809739764759972e-07 
5.873580408426393e-07 
2.824636989487517e-07 
1.025898609970336e-07 
6.14594871764833e-08 
3.318869383978064e-08 
-2.453740308533333e-07 
-2.516273323590607e-07 
-6.615961142968258e-07 
-2.698022685246443e-07 
-1.302215060115826e-07 
-3.190066672718941e-07 
-1.869204148803581e-07 
-9.99055122007397e-08 
-1.801667035590425e-08 
2.244325478678398e-07 
1.356015799776819e-07 
1.537692672960907e-07 
-2.651436034479073e-07 
-4.673535380352486e-07 
-2.576977144643625e-07 
-4.862244764671216e-07 
-3.381884638913758e-07 
-2.383753510601876e-07 
-4.210559800600453e-07 
-3.862455943225646e-07 
-2.360466701484567e-07 
-2.178601624459626e-07 
-1.606814931643793e-07 
-2.22055617896967e-07 
-4.677965532630028e-07 
-5.573600116859264e-07 
-2.68128329559332e-07 
-3.533103177215623e-07 
-1.994016546930455e-07 
-4.974394976815216e-07 
-2.447008390707667e-07 
-2.025694776578211e-07 
-4.187519574641366e-20 
-1.529854573147623e-06 
