solver_type L2R_LR
nr_class 2
label 0 1
nr_feature 105
bias 1
w
0 
-0.001461254748953288 
-0.002025070662157944 
-0.001377961497445339 
-0.0003976287934015796 
-0.0002560209815626441 
-0.0002240419616853784 
-0.0001315761785232148 
-8.509111629712031e-05 
-5.487017599974589e-05 
-0.0001004551314853292 
-7.27620100903046e-05 
-9.28406315691097e-05 
6.767749238707439e-06 
2.390104143937857e-05 
6.046987149897374e-06 
-2.343145320480138e-05 
-2.083170307351265e-05 
-1.32391978684353e-05 
-1.822214111400674e-06 
-8.556486017332517e-06 
-4.888733844642772e-06 
-6.938495803108966e-06 
-5.659785286012289e-06 
5.967248805171483e-06 
2.932356641814502e-05 
2.488215799611978e-05 
2.844760962518451e-05 
2.345487519825762e-05 
2.793668608931215e-05 
3.4245842845454e-05 
3.583216262244222e-05 
3.710864026826766e-05 
3.656292588557763e-05 
3.672050595816196e-05 
3.600553025303066e-05 
4.080857656257137e-05 
3.821054250308101e-05 
3.647736385398529e-05 
3.722807851658992e-05 
3.596264100259759e-05 
3.569837776029957e-05 
3.516201013948234e-05 
3.481487814160348e-05 
3.140446796654411e-05 
2.995909109883216e-05 
3.01516860380464e-05 
3.021586683790834e-05 
2.860883873245957e-05 
2.650447444012628e-05 
2.65010686022983e-05 
2.482930947102615e-05 
2.279538024081946e-05 
2.153389902404006e-05 
2.070377196196711e-05 
2.137975638709627e-05 
2.015899042600154e-05 
1.871877838410018e-05 
1.786329294288545e-05 
1.652203410061699e-05 
1.551080032160545e-05 
1.587800535379463e-05 
1.492418678116748e-05 
1.415741906952362e-05 
1.379617614117344e-05 
1.272086491299498e-05 
1.177511735938481e-05 
1.106538757414463e-05 
1.048395537259709e-05 
9.985251753042583e-06 
9.482611303218918e-06 
8.923882370558878e-06 
8.223826498413157e-06 
7.897897418092059e-06 
7.681464427200475e-06 
7.465960424493496e-06 
7.371667862625357e-06 
6.536430094427856e-06 
6.354104575476771e-06 
6.418926051603392e-06 
6.103855920439779e-06 
5.632326034255632e-06 
5.333708666722836e-06 
4.996190769966176e-06 
4.637000482890645e-06 
4.457470334702274e-06 
4.391320456863987e-06 
4.339296996064061e-06 
3.999763436880542e-06 
3.567550384285072e-06 
3.2726725070226e-06 
3.351860568635123e-06 
3.280061183545531e-06 
2.792890304416736e-06 
2.527322374369906e-06 
2.677165572948695e-06 
2.491605983630091e-06 
2.134038544289973e-06 
1.953421861904207e-06 
1.724071523744205e-06 
1.476748873359641e-06 
1.415643336645135e-06 
1.253077590478818e-06 
1.220763187427085e-06 
4.288219549422747e-19 
8.869231347315729e-05 
