solver_type L2R_LR
nr_class 2
label 0 1
nr_feature 105
bias 1
w
0 
0.0003135238699471278 
0.0003035407130453874 
2.279020670461473e-05 
-0.0001043110896170307 
-0.0001598532669549851 
-8.19189658989188e-05 
-0.0001698669642071637 
-9.945415384929187e-05 
-0.000111005547038285 
-0.000121650368462667 
-9.407500965007591e-05 
-0.0001287092546511942 
-0.0001167488170713618 
-0.0001220308717127367 
-8.561761422404451e-05 
-8.818901564455432e-05 
-7.877081335970059e-05 
-7.191192983287138e-05 
-5.623425409300725e-05 
-5.850883700884638e-05 
-5.173439625837953e-05 
-5.170960852020961e-05 
-5.348592078707385e-05 
-5.572541568601476e-05 
-5.382284336312153e-05 
-4.444973529105162e-05 
-5.097391228649991e-05 
-4.826944166581791e-05 
-3.937489132189833e-05 
-4.03411180704221e-05 
-4.077210388269864e-05 
-3.767012641300764e-05 
-3.272942657828024e-05 
-3.438605849732988e-05 
-3.698599221590582e-05 
-3.690211923321897e-05 
-3.354833997237664e-05 
-3.155197387389169e-05 
-3.085877062795778e-05 
-2.633936610228349e-05 
-2.6712360501082e-05 
-2.511082921710249e-05 
-2.407574963750118e-05 
-2.506047496417321e-05 
-2.325690390922258e-05 
-2.235459327039084e-05 
-1.859667108470258e-05 
-1.881041170970623e-05 
-1.877071895554347e-05 
-1.760358287646338e-05 
-1.678118769877775e-05 
-1.562511334501149e-05 
-1.39626702351636e-05 
-1.324518725237188e-05 
-1.232863100508752e-05 
-1.296130433961337e-05 
-1.23429612223396e-05 
-1.061800083088908e-05 
-1.052148179155271e-05 
-9.23464230354161e-06 
-8.803704494825834e-06 
-9.047277836882146e-06 
-8.731881074934748e-06 
-8.893345364102542e-06 
-8.491984647646644e-06 
-8.075908940566554e-06 
-7.564249473447859e-06 
-6.689584494114506e-06 
-6.973967899939878e-06 
-5.703852991593124e-06 
-6.348875627021829e-06 
-5.552986717196091e-06 
-5.341903903268464e-06 
-5.52856946159956e-06 
-4.981653221516238e-06 
-4.742153551217235e-06 
-4.412239727501808e-06 
-3.652968575334598e-06 
-3.464896394236118e-06 
-3.360619335354553e-06 
-3.206249022322842e-06 
-3.113754410102319e-06 
-3.199193624998109e-06 
-3.118048192624104e-06 
-2.975675128711429e-06 
-2.587877123003545e-06 
-2.453830898504485e-06 
-1.914613209842274e-06 
-1.938793289332598e-06 
-1.96982994490445e-06 
-1.847697532621697e-06 
-1.802168958600776e-06 
-1.495894721729253e-06 
-1.290878352415676e-06 
-1.293692799046178e-06 
-1.016176579254963e-06 
-1.101091959690195e-06 
-1.041299278061419e-06 
-8.067887933678829e-07 
-8.092590428335485e-07 
-7.373243985355538e-07 
-6.873741145335204e-07 
-4.926272579368411e-07 
-2.403234237785239e-19 
-1.985510781772751e-06 
