solver_type L2R_LR
nr_class 2
label 0 1
nr_feature 105
bias 1
w
0 
0.000629119933467179 
0.0008185064239642705 
0.0005728389145887877 
0.0002987263781529104 
0.0002533488913445923 
0.0002539067826878657 
0.0002630265184635177 
0.0002520723627544613 
0.0002235684247457867 
0.0001903844012096795 
0.0001703683578235116 
0.0001334005911463406 
0.0001659876726726304 
0.0001308602428797745 
9.491553252016822e-05 
8.798232442361753e-05 
8.011812790823093e-05 
5.789917152552352e-05 
7.116652730676199e-05 
6.073030849797952e-05 
4.864109974392366e-05 
4.4147436453358e-05 
4.087789705152084e-05 
3.341296176664027e-05 
2.374230569707755e-05 
1.594738016170826e-05 
2.033296683001096e-05 
2.644457293564753e-05 
1.504100132749604e-05 
1.409159117011719e-05 
1.250885599995729e-05 
1.474350613523174e-05 
1.100884699236721e-05 
7.244108381652386e-06 
1.095827598625996e-05 
7.84180051598406e-06 
6.016727441096729e-06 
6.324589650536381e-06 
7.15765435234732e-06 
5.819255009787826e-06 
4.739601440264376e-06 
4.717666823176238e-06 
8.511884494315982e-06 
7.443997822057508e-06 
6.096393758570629e-06 
4.818158667219068e-06 
4.948189372724464e-06 
4.448896321477278e-06 
3.342254700529715e-06 
2.859478484649281e-06 
3.470708325412091e-06 
3.132595966762593e-06 
5.393446197819292e-06 
3.239473178627064e-06 
3.797810895222179e-06 
4.534534949306616e-06 
4.264813390849664e-06 
3.483949518146096e-06 
3.345254817458972e-06 
2.395853784187908e-06 
2.413993355511459e-06 
1.686219201990912e-06 
1.778604868267148e-06 
1.961812412743585e-06 
1.842890788843822e-06 
1.92733413817684e-06 
2.00586356038797e-06 
1.389967000174483e-06 
1.481712259538198e-06 
1.013939873852389e-06 
8.502948521882659e-07 
6.497693554299461e-07 
3.142360792322303e-07 
5.534261152260388e-07 
2.148347402586455e-07 
2.593564177088149e-07 
6.759875620057013e-08 
7.744410442982248e-08 
2.740148949102212e-07 
4.320504026534291e-08 
2.35206273300253e-07 
1.44251247028668e-07 
5.634795562692842e-07 
3.128592357766789e-07 
4.43128097473093e-07 
2.412217975659593e-07 
1.398071653018947e-07 
-3.352238088713628e-08 
3.428834468484435e-08 
2.572223111842761e-07 
3.553100350346756e-07 
2.483339420967455e-07 
3.831828957203386e-08 
-1.112074764423533e-07 
-1.013008162620017e-07 
2.305239569508855e-08 
-1.168520582622223e-07 
1.288125281284579e-08 
-1.890631400898344e-07 
4.195696460218966e-09 
-8.892377571103424e-08 
-2.193424709874236e-07 
-1.197084751129072e-07 
8.96719283083703e-20 
-4.426872599341066e-05 
