solver_type L2R_LR
nr_class 2
label 0 1
nr_feature 105
bias 1
w
0 
0.000951471271527446 
0.001419006833603691 
0.001442582721844686 
0.0003066933369770795 
0.0003671154932128489 
0.00036312302432929 
0.0002700216938622246 
0.0003022382303830917 
0.0002365581143767755 
0.0001679296383092012 
0.0001643157197295785 
0.000161717049944484 
0.0001591312673409302 
0.000131255146787685 
0.0001728435573130591 
0.0001642094527022593 
0.0001343065585597638 
0.000119605761310942 
0.0001318508544419507 
0.0001222164430194223 
0.0001123955693181123 
9.332782008050491e-05 
8.069182531029251e-05 
7.72417641403106e-05 
6.858608595607065e-05 
7.010376901962259e-05 
5.255237969546726e-05 
3.91191565821542e-05 
4.253036226709557e-05 
4.130965900854555e-05 
3.473987656253745e-05 
3.357017104435449e-05 
3.265012137373361e-05 
2.677980947356491e-05 
2.500900818733007e-05 
2.313536862354763e-05 
2.150615531340193e-05 
2.419332234529001e-05 
2.380006759975037e-05 
2.2220325366918e-05 
2.162969224012975e-05 
1.905765651532514e-05 
1.895267295624521e-05 
1.831565639795748e-05 
1.766427640797515e-05 
1.61601575809869e-05 
1.586849258681004e-05 
1.427132749040263e-05 
1.460785801154778e-05 
1.407139551934205e-05 
1.27954742101234e-05 
1.251540575195047e-05 
1.134447471009931e-05 
1.054766441520089e-05 
1.076915410280441e-05 
9.581562148323368e-06 
8.006605888438956e-06 
8.172861102061598e-06 
7.19706919620157e-06 
6.598881933353598e-06 
6.100763687339352e-06 
4.603095463393499e-06 
4.787474163102891e-06 
4.175233074652086e-06 
3.791426379690507e-06 
3.667836482153216e-06 
2.859792447840373e-06 
3.077292158907982e-06 
2.42753558747815e-06 
2.536928905050994e-06 
1.868092466606582e-06 
1.973981571701277e-06 
1.762782728135069e-06 
1.548072756945037e-06 
1.343031302258267e-06 
6.001556203903453e-07 
8.543435149689159e-07 
1.337918240867555e-06 
1.065056038790409e-06 
7.810739977660206e-07 
4.832271372145237e-07 
3.530407653102617e-07 
2.801607171128612e-07 
-6.197481017668841e-08 
-3.783357926797914e-07 
2.132345503111417e-07 
2.820099500741988e-07 
3.362059149192914e-07 
3.584326761428721e-07 
1.761213125645657e-07 
1.400592440917512e-07 
-4.527448109143559e-08 
-1.332254100434286e-07 
-6.949597002289452e-08 
-2.924820813225778e-07 
-2.763092972159379e-07 
-3.672716274629726e-07 
-4.745834235738317e-07 
-5.167312402156914e-07 
-6.175041881809777e-07 
-3.324135250776027e-07 
-1.899144220018902e-07 
-2.51436858062192e-07 
4.30042249784701e-20 
-8.741576095705734e-05 
