solver_type L2R_LR
nr_class 2
label 0 1
nr_feature 105
bias 1
w
0 
-0.0003083263310355947 
0.0003617908868798342 
0.0009088271350581384 
0.0001389382424487463 
0.0002975526055024793 
0.0002172547764245504 
0.0001956525858047683 
0.0002521006234580176 
0.000214165282314949 
0.0001514615791412605 
0.0002082586098998365 
0.0002274765217183371 
0.0002143780948790312 
0.000175589572752533 
0.0001846986809338355 
0.0001729803144995649 
0.0001596633273216562 
0.0001331632815488757 
0.0001491658520845731 
0.0001477470173990993 
0.0001249055562297014 
0.0001340048644111291 
0.000115022113076036 
0.0001040317560664328 
9.900438090480744e-05 
9.982964285519282e-05 
8.829451743972027e-05 
7.803527050248709e-05 
7.352320376918534e-05 
7.250790711527085e-05 
6.667302448845897e-05 
5.939803693374677e-05 
5.875540554024417e-05 
5.243208923105076e-05 
5.334851323638185e-05 
5.348123522510825e-05 
5.098845679431598e-05 
5.036232654495602e-05 
4.930123776620789e-05 
4.485456028524905e-05 
4.479971300808869e-05 
4.147260500119356e-05 
3.793176720087771e-05 
3.456851487668472e-05 
3.383825834848698e-05 
3.279005405898681e-05 
2.949079620144412e-05 
2.716133317482083e-05 
2.6854085677255e-05 
2.622124014592743e-05 
2.390286676184276e-05 
2.303001118413869e-05 
2.077633809557364e-05 
1.996539679050262e-05 
1.937981545814924e-05 
1.810115157916685e-05 
1.6679281760342e-05 
1.596475835242762e-05 
1.495197642384827e-05 
1.364475064713792e-05 
1.249734976216269e-05 
1.10894035014291e-05 
1.144127291342455e-05 
1.069031640172418e-05 
1.044914677776779e-05 
9.901563275945537e-06 
8.728796999976656e-06 
8.546088469484635e-06 
8.085340431463038e-06 
7.998197304922772e-06 
7.209261989149889e-06 
6.768254258363482e-06 
6.076716534394436e-06 
5.674423818763517e-06 
5.543978447605126e-06 
5.027651509366292e-06 
5.040396691314227e-06 
4.967138116366981e-06 
4.751249711003365e-06 
4.316733370672191e-06 
4.029781770182576e-06 
3.589826348291849e-06 
3.506207270077719e-06 
3.357231293712967e-06 
2.973114120644619e-06 
3.190059069095435e-06 
3.139178074448204e-06 
2.813160078460104e-06 
2.611449439312258e-06 
2.421141702613597e-06 
2.193941876007615e-06 
1.935859934299056e-06 
1.892545715126271e-06 
1.804235102418605e-06 
1.739941625527688e-06 
1.396885709608909e-06 
9.768771098930453e-07 
7.972406208854739e-07 
7.822621026929896e-07 
6.253397460818647e-07 
6.200215369519439e-07 
5.395049969392309e-07 
5.204050784031141e-07 
2.20245588172301e-19 
-3.047808529088934e-05 
