solver_type L2R_LR
nr_class 2
label 0 1
nr_feature 105
bias 1
w
0 
0.001079320328996592 
0.001273509888611119 
0.0009509210914338637 
0.0001532152399316374 
9.945051131392889e-05 
7.753715038208152e-05 
9.469823151921536e-05 
5.565412271017845e-05 
1.733956903667364e-05 
3.221958434094384e-05 
5.068533917360392e-05 
4.468697230823713e-05 
5.087245412284378e-05 
5.411739946180293e-05 
3.586234135251353e-05 
2.39245504488465e-05 
1.19338655320465e-05 
1.099020844207834e-05 
-6.746614896158196e-06 
9.872520966039732e-06 
1.824270894324177e-05 
5.183882536225648e-06 
6.174048857135974e-06 
6.532551189594496e-06 
-2.670420848304287e-06 
-8.741608548263628e-06 
-2.375589244680848e-05 
-2.118694388888151e-05 
-2.656161515628236e-05 
-2.481833830179237e-05 
-2.569608123145793e-05 
-2.839341977174272e-05 
-3.197549320729587e-05 
-2.610705077576553e-05 
-2.921966424891964e-05 
-2.697189781735768e-05 
-3.118945769952086e-05 
-2.778881721442796e-05 
-2.584886799923187e-05 
-2.536909831621935e-05 
-2.486161770446904e-05 
-2.227385392152382e-05 
-2.120059586936159e-05 
-2.210034189295841e-05 
-2.314523946570234e-05 
-2.213214134150698e-05 
-2.020943083474183e-05 
-1.76033207625577e-05 
-1.379751704003481e-05 
-1.515052742446342e-05 
-1.570512432497572e-05 
-1.566414717200018e-05 
-1.451131994534895e-05 
-1.490409727096848e-05 
-1.380278548543736e-05 
-1.474935324620728e-05 
-1.372187049866215e-05 
-1.282898106753658e-05 
-1.218584888953064e-05 
-1.091779018080034e-05 
-9.988822457824891e-06 
-8.882111978973087e-06 
-8.605712465834982e-06 
-9.100701583949705e-06 
-9.15271326369742e-06 
-7.72857641712026e-06 
-7.65894284298054e-06 
-7.573059576775474e-06 
-7.305291231024871e-06 
-6.99717827580177e-06 
-6.684294232190984e-06 
-6.158377613359773e-06 
-6.046194680260326e-06 
-5.582185315765135e-06 
-5.152614984599874e-06 
-4.829456526278871e-06 
-4.611883414315473e-06 
-4.374453683291008e-06 
-4.375834864720701e-06 
-3.805066104410491e-06 
-3.872662887393761e-06 
-3.773675866560632e-06 
-3.519272840106132e-06 
-3.332418937176494e-06 
-3.203046702135313e-06 
-2.975005065893082e-06 
-2.622142375546298e-06 
-2.93649462479334e-06 
-2.689929328864276e-06 
-2.514007945549813e-06 
-2.577509076188131e-06 
-2.251981134037831e-06 
-2.019712845047274e-06 
-2.124608474853962e-06 
-1.741037006354893e-06 
-1.626293575961303e-06 
-1.46026681708864e-06 
-1.387567781551106e-06 
-1.251976632363445e-06 
-1.207917108048486e-06 
-8.883655617790439e-07 
-8.497044557683968e-07 
-5.341796756077975e-07 
-2.262637164817452e-19 
-6.30826496774185e-05 
