solver_type L2R_LR
nr_class 2
label 0 1
nr_feature 105
bias 1
w
0 
-0.0001066724668060042 
-0.000365588175712383 
-0.0002263638534521444 
3.873937035839724e-05 
-2.405940864976388e-05 
1.854289680532878e-05 
2.857365610120994e-05 
1.195881703032393e-05 
1.992948327166033e-05 
-9.352087795702617e-07 
7.203806902829045e-06 
1.850699992715188e-05 
6.013563513801558e-05 
9.269503680851521e-05 
5.530281859565854e-05 
5.21930094369849e-05 
3.122853279132895e-05 
1.383126372788102e-05 
8.85323126253094e-06 
1.895180606243585e-05 
2.62363766937037e-05 
2.046398937099765e-05 
2.999543720877304e-05 
1.418336166779373e-05 
3.096078908444929e-05 
3.514161251648674e-05 
3.151744243775115e-05 
3.838269207599151e-05 
3.549700649385687e-05 
3.257373258130369e-05 
3.307277916515867e-05 
3.267975708867839e-05 
2.849030218064763e-05 
3.269630386468615e-05 
3.056861373314784e-05 
2.932725172098598e-05 
2.652815349081209e-05 
2.638715058272425e-05 
2.77941556501982e-05 
2.492607197746141e-05 
2.464008932593657e-05 
2.258820713737696e-05 
2.043373074322711e-05 
1.898599087007533e-05 
1.641292479844475e-05 
1.472004880201437e-05 
1.363695928210874e-05 
1.505170815468312e-05 
1.641575815029539e-05 
1.324906328194519e-05 
1.134141509110612e-05 
9.858998155963807e-06 
1.037021062147694e-05 
9.63982267442331e-06 
8.43918872975199e-06 
7.319232243750748e-06 
6.029933347394034e-06 
7.144929967541578e-06 
6.511559248623229e-06 
6.525750310684084e-06 
6.227787089317097e-06 
6.835851362366381e-06 
6.341369975688901e-06 
5.380621772790689e-06 
5.342227460375644e-06 
5.337015735022822e-06 
4.330002856391003e-06 
3.895107871135844e-06 
4.046749797930654e-06 
4.216771795907803e-06 
4.194018688971223e-06 
3.691233767013189e-06 
3.866977343450158e-06 
3.902657734471056e-06 
3.421636748672999e-06 
3.102540764653166e-06 
2.991561799568857e-06 
2.866732112495426e-06 
2.545266749871635e-06 
2.584375396064628e-06 
2.375922385195553e-06 
2.087882635949551e-06 
2.193177676897986e-06 
2.181885253384343e-06 
2.209577394271896e-06 
1.884808171606337e-06 
1.659496519516975e-06 
1.440781321382986e-06 
1.208945380954886e-06 
1.344401549806034e-06 
1.171055645107806e-06 
1.323731191447087e-06 
1.14765620602881e-06 
9.157041264098726e-07 
8.536553855062551e-07 
8.574395459326898e-07 
7.267641666434452e-07 
6.611430871018745e-07 
7.327092856560631e-07 
6.265807455431912e-07 
6.30148296735481e-07 
4.612840921004008e-07 
3.037724248446117e-07 
1.238931077763982e-19 
8.951957144488824e-06 
