solver_type L2R_LR
nr_class 2
label 0 1
nr_feature 105
bias 1
w
0 
0.001130428023474707 
0.001058053697997945 
0.0006620698226602525 
0.0001258271881135693 
0.0001135307862186829 
0.0001054344460870204 
0.0001071828962748141 
2.19218190773439e-05 
4.60420997621659e-05 
5.691800795869114e-06 
-3.882362689784846e-05 
-0.0001017808658315606 
-9.412484884127703e-05 
-6.653061575736112e-05 
-4.602035416678793e-05 
-5.209831655551179e-05 
-5.715615933290119e-05 
-3.182619864497316e-05 
-3.531987093281672e-05 
-1.593186548686537e-05 
-3.058996231387873e-05 
-4.23911376735125e-05 
-3.189305085466698e-05 
-3.341431038903447e-05 
-3.767860339477586e-05 
-3.008540151253508e-05 
-3.322406715861876e-05 
-3.052219992321866e-05 
-3.509517640196123e-05 
-3.308219701400378e-05 
-3.74545092488007e-05 
-3.68600922194398e-05 
-3.254300666736543e-05 
-3.442682317506053e-05 
-3.471928591653308e-05 
-2.468478574500979e-05 
-2.418340063467987e-05 
-2.48566262853448e-05 
-2.503671371508733e-05 
-2.020789598795859e-05 
-2.318331941177075e-05 
-2.271107918359513e-05 
-1.997984904920205e-05 
-1.763669368805305e-05 
-1.852955559925139e-05 
-1.665088373136816e-05 
-1.640794461144788e-05 
-1.47741123636851e-05 
-1.256971599305361e-05 
-1.416044043725959e-05 
-1.289709238056356e-05 
-1.213923461317259e-05 
-1.108978987583034e-05 
-1.067362322454104e-05 
-9.155524100999707e-06 
-9.257080916186852e-06 
-8.595353661948898e-06 
-8.75261724507593e-06 
-8.099418576053685e-06 
-8.309933469278279e-06 
-8.046754669003078e-06 
-8.251827065202768e-06 
-7.525241323847298e-06 
-7.330193800524411e-06 
-6.60032147304401e-06 
-6.565476530715575e-06 
-6.021698993525577e-06 
-5.410305603979866e-06 
-5.5910598393087e-06 
-5.358060680630609e-06 
-5.068687224272903e-06 
-4.61165946088755e-06 
-5.005394869720535e-06 
-4.594729922804881e-06 
-4.674358419907092e-06 
-4.236028097233056e-06 
-4.112464814623053e-06 
-3.832395898076742e-06 
-3.909003102484402e-06 
-3.531432639485242e-06 
-3.585673936915949e-06 
-3.461182484386911e-06 
-3.059708963823859e-06 
-2.719680455322694e-06 
-2.553271720056395e-06 
-2.469823092964729e-06 
-2.592159337739276e-06 
-2.653852247768031e-06 
-2.567774618940675e-06 
-2.332424009909251e-06 
-2.088948202123864e-06 
-2.008683470739439e-06 
-1.874777375477606e-06 
-1.670286073298794e-06 
-1.46005917502104e-06 
-1.241797554979417e-06 
-1.220260486867274e-06 
-1.111640237385669e-06 
-1.107385856802022e-06 
-9.964847025710206e-07 
-9.041609167824682e-07 
-8.801130452721794e-07 
-4.404089962768843e-07 
-3.481848495637778e-19 
-5.60160497917226e-05 
