solver_type L2R_LR
nr_class 2
label 0 1
nr_feature 105
bias 1
w
0 
-0.001969118629689437 
-0.002121895112490098 
-0.0008791669636591912 
-0.000514905620221285 
-0.0004473340725036961 
-0.0003780086796503734 
-0.0003008413602737382 
-0.0002999284730822021 
-0.0002075655685761008 
-0.0001308831416847433 
-0.0001434089118216489 
-0.0001443746731347967 
-0.0001653159062845551 
-0.0001461300910489071 
-0.0001108114461034316 
-7.999023079985488e-05 
-8.597596780353194e-05 
-7.417866895632682e-05 
-5.803472809533274e-05 
-4.958556500467485e-05 
-4.639464038788332e-05 
-2.997518608602317e-05 
-2.071096532009726e-05 
-2.289724599708609e-05 
-5.897447631395288e-06 
-1.714889959803038e-06 
-1.251759320932331e-05 
-1.098985755145925e-05 
-1.121559729374702e-06 
-3.081336061994323e-06 
-1.996532138903276e-06 
3.112437679216988e-06 
2.790332733895702e-06 
-3.366403480682512e-06 
-4.964060728413206e-06 
-3.94267204895048e-06 
-2.568765630745205e-06 
-1.667585171777595e-06 
-1.372417458707908e-06 
-3.169725828715431e-07 
-3.828187845405469e-07 
-4.537711834163524e-06 
-3.615720481002387e-06 
-2.761711867815966e-06 
-1.419156562081875e-06 
-8.964406900286688e-07 
-1.764360081584693e-06 
-1.292739855959089e-06 
-5.488944810910864e-07 
-1.488387846112088e-06 
-3.086353385200888e-07 
-9.003158534081122e-09 
-5.83390902808905e-07 
-2.828716496064519e-08 
1.001820724351029e-06 
4.919346286345557e-07 
6.420221978595425e-07 
3.954416167375627e-08 
5.094820829095276e-07 
1.513794978558193e-06 
1.723018160555364e-06 
1.451281377872674e-06 
1.02014006660836e-06 
1.363910667668817e-06 
1.633396599882608e-06 
1.390847676789712e-06 
1.522567749766875e-06 
1.577169280627775e-06 
1.803348094487075e-06 
2.118977228249585e-06 
2.602104626797831e-06 
2.933362106715587e-06 
2.521241480649744e-06 
2.493656711963091e-06 
2.366001841491084e-06 
2.079394870873923e-06 
2.126967884059907e-06 
1.899910872965873e-06 
2.133138009820066e-06 
1.662305105397614e-06 
1.439481747061704e-06 
1.47661397645466e-06 
1.384080937945868e-06 
1.65736541469905e-06 
1.728690288734675e-06 
1.736736630096012e-06 
1.685535318853407e-06 
1.372587834841253e-06 
1.389817046917633e-06 
1.291288524318252e-06 
7.921584118232522e-07 
1.081298648822855e-06 
1.024241940669245e-06 
1.276437129401402e-06 
1.330639941808735e-06 
1.28639167653568e-06 
1.440228503771813e-06 
1.079905215088588e-06 
1.025731357794983e-06 
9.627428012879737e-07 
8.380465016793434e-07 
8.604236842503198e-07 
6.561325310434479e-07 
1.676996728090929e-19 
0.0001092543235719734 
