solver_type L2R_LR
nr_class 2
label 0 1
nr_feature 105
bias 1
w
0 
-0.0007649477046272089 
-0.0005824219512840809 
-0.0007306326414148214 
-0.0002783593046860279 
-0.0002931272940156338 
-0.0002477359059564555 
-0.0002348146336234969 
-0.0002015479727376956 
-0.0001514802461172309 
-8.221439084554589e-05 
-7.935615022147018e-05 
-5.282903207217486e-05 
-6.465581011088396e-05 
-5.965362171171188e-05 
-6.624516215714778e-05 
-6.071244796932811e-05 
-7.246039057703401e-05 
-5.597305687499398e-05 
-7.083540100269528e-05 
-6.823829340452891e-05 
-5.826984817030435e-05 
-3.524637759292357e-05 
-5.322493001394046e-05 
-4.921825394996958e-05 
-3.919473089170366e-05 
-3.869802890424436e-05 
-4.007968327478638e-05 
-3.005046482856249e-05 
-2.64553195486394e-05 
-2.952614642383999e-05 
-2.208940723617334e-05 
-2.260609791784672e-05 
-1.763720026322113e-05 
-2.204632965357389e-05 
-2.197186727938072e-05 
-2.068527469419834e-05 
-1.862707690464187e-05 
-2.022150450632087e-05 
-1.993908506572824e-05 
-1.81714666672637e-05 
-1.807384408380992e-05 
-1.639043672067204e-05 
-1.448136250670808e-05 
-1.355977661758367e-05 
-1.429639344591141e-05 
-1.210191931228043e-05 
-1.287103712708702e-05 
-1.186264136115705e-05 
-1.161795714208865e-05 
-9.84284513002528e-06 
-9.068235484578584e-06 
-8.529994187703438e-06 
-8.191780698302136e-06 
-7.068793855512438e-06 
-7.111791717816186e-06 
-6.745445288794819e-06 
-6.832793228881603e-06 
-6.817692463044232e-06 
-6.244550963691206e-06 
-5.608986657544726e-06 
-5.094752078103268e-06 
-4.464061187839527e-06 
-3.981934343073997e-06 
-4.01581651276592e-06 
-3.823314189321208e-06 
-3.049300244029867e-06 
-2.533460352464242e-06 
-2.446936502174268e-06 
-2.053267275365857e-06 
-2.202155737421905e-06 
-1.850751591387834e-06 
-1.51308582373707e-06 
-1.520628044036609e-06 
-1.359063016224342e-06 
-1.018997310009752e-06 
-1.128565415053251e-06 
-1.276512790815659e-06 
-1.092511788269847e-06 
-9.364214714882038e-07 
-5.626406567902434e-07 
-6.556093159797228e-07 
-6.724090500609233e-07 
-8.631654491033206e-07 
-7.108532428312531e-07 
-4.739692693421709e-07 
-3.984683640916196e-07 
-4.289101478249084e-07 
-3.465914371627206e-07 
-2.578193756506561e-07 
-2.071199313611281e-07 
-1.123518666935738e-07 
-4.379686434184317e-08 
1.701708430513442e-07 
1.770509123060073e-07 
8.582514273727719e-08 
2.968675394197938e-07 
2.889076003264986e-07 
2.55960797493927e-07 
5.009477306067655e-07 
4.337961812386086e-07 
3.69247812137066e-07 
3.622666647357892e-07 
3.555618391708274e-07 
3.935874028302373e-20 
3.121177437526905e-05 
