solver_type L2R_LR
nr_class 2
label 0 1
nr_feature 105
bias 1
w
0 
-0.0003296264487473044 
0.00112241710917615 
0.0002637543497482057 
-7.116426350811976e-06 
0.0001214128531160124 
0.0001222556473183136 
0.0001459102686285826 
0.0001477626536841531 
0.0001704533311188815 
0.0001244025062492141 
0.0001021773301902342 
0.0001251655552888058 
0.0001077983520953484 
0.0001036417508796136 
9.68092848420087e-05 
8.565453466529866e-05 
8.966056869858703e-05 
7.898950705851945e-05 
6.493689427615388e-05 
5.025081755221752e-05 
3.797434585125005e-05 
4.133488040203815e-05 
5.059388684279769e-05 
2.602973612409064e-05 
1.739739800162463e-05 
1.847026820280516e-05 
1.69704610400795e-05 
1.425405436649262e-05 
1.148086942305688e-05 
1.041955365945816e-05 
5.251868315372925e-06 
6.456647987344148e-06 
2.58714079871275e-06 
3.533099063238691e-06 
1.339068333763462e-06 
-1.059739411746424e-06 
-6.754318408712039e-07 
-4.394415442852335e-06 
-6.780893838662247e-06 
-7.311506979711326e-06 
-4.942309920681399e-06 
-4.895499838519394e-06 
-4.843694391574057e-06 
-1.590843399936047e-06 
-4.689600858637476e-06 
-1.290943540537635e-06 
-1.537891212111039e-06 
-1.375390681784286e-06 
-2.086903555388219e-06 
-1.694060078584565e-07 
-6.533378392166802e-07 
-3.774642052889834e-07 
-6.100248474371565e-07 
-1.024172579943996e-06 
-1.26624855417556e-06 
2.189643949406497e-07 
-1.121525392503754e-07 
2.006492070319091e-07 
-5.613013866478593e-07 
2.204882066602784e-07 
-4.068456724237987e-07 
6.367774360373618e-07 
1.17385492731203e-06 
9.445856908627963e-07 
2.077773836386797e-07 
-6.055236406267038e-08 
3.985133379543822e-07 
4.819931565635058e-07 
4.441504011442944e-07 
1.716710539508051e-07 
-4.374731454834943e-07 
-1.986746751415366e-07 
-6.219980084273406e-08 
2.503259332453247e-07 
5.156650723602605e-08 
-1.259362454553473e-07 
8.28785169479949e-08 
6.341539075436456e-07 
2.551642385248797e-07 
2.360102124283328e-07 
-1.243036515977093e-07 
1.310685377187817e-07 
2.069151662611792e-07 
1.449909182236583e-07 
6.978195732465795e-08 
8.595984878593694e-08 
6.408273924544568e-08 
1.828802717653008e-07 
-4.371080171355968e-08 
-1.407383567930003e-07 
-4.151324327450845e-08 
5.260531849048561e-08 
1.387320976937661e-07 
-1.781434736419384e-08 
-7.200574864425351e-08 
-8.713460360629092e-08 
-1.38325897112557e-07 
-7.791510523810941e-08 
5.988484718604568e-08 
6.413349631496897e-07 
5.364872210324694e-07 
8.845121380241244e-08 
3.048563436735879e-08 
6.553747131352785e-20 
-2.276371762586013e-05 
