solver_type L2R_LR
nr_class 2
label 0 1
nr_feature 105
bias 1
w
0 
-0.002472587585688261 
-0.001235924053771612 
-0.001092560182818598 
3.349895662608682e-05 
9.978390140835558e-05 
0.0001335214197805373 
0.0002255176241352584 
0.0002280943484721626 
0.0002373947475715202 
0.0002736048587848196 
0.0002101533496775697 
0.0002131936335334639 
0.0001867851828457403 
0.0002053098432446785 
0.0001858673345390394 
0.0001607191908566758 
0.0001372957924733264 
0.0001439496109757246 
0.0001427149894177656 
0.000132379865126759 
0.0001184861822778262 
0.0001119891749193291 
0.0001064570756257359 
8.940613914043755e-05 
9.274653144862461e-05 
0.000100755225408275 
0.0001025428238756847 
9.122472054750655e-05 
9.396961658073176e-05 
9.081555688655768e-05 
8.297369501496486e-05 
8.398928115069998e-05 
7.353095813059697e-05 
7.828182759707943e-05 
7.463895390965014e-05 
7.369810753125695e-05 
7.106520623219889e-05 
6.767593508719935e-05 
6.305008446471302e-05 
5.485348415506084e-05 
5.460486717067543e-05 
5.184257083774269e-05 
4.752409478898851e-05 
4.475896052073192e-05 
3.996067339918279e-05 
3.977627553505748e-05 
3.639514706847145e-05 
3.428971971959562e-05 
3.391021450018255e-05 
3.154408505103279e-05 
2.901707472730174e-05 
2.803493666565174e-05 
2.681043333248329e-05 
2.563774587875732e-05 
2.457018677387708e-05 
2.364460080008666e-05 
2.192368405951535e-05 
2.192834776931203e-05 
2.096272728007944e-05 
2.099392932993221e-05 
1.852483880978138e-05 
1.82439590783383e-05 
1.768189746200286e-05 
1.646410037255803e-05 
1.555926821802003e-05 
1.54373284103209e-05 
1.504637930442825e-05 
1.396576935400904e-05 
1.345689073049983e-05 
1.238915621975753e-05 
1.155119326296013e-05 
1.131989103848694e-05 
1.099643428896605e-05 
1.083100087644305e-05 
1.028145970773683e-05 
9.435159499846897e-06 
9.05255405633304e-06 
8.658472866862902e-06 
7.99747699975603e-06 
7.746957176207716e-06 
7.23539989254054e-06 
7.188706155933048e-06 
6.963662182232757e-06 
6.522961799623294e-06 
6.690675540409845e-06 
6.154059042751466e-06 
5.504053376553758e-06 
5.358291698986312e-06 
5.12047002033042e-06 
4.762872155159105e-06 
4.516988156701349e-06 
4.297550588026899e-06 
3.884369385854443e-06 
3.543661565152962e-06 
3.195308281673878e-06 
2.977089905585242e-06 
2.928511540663472e-06 
2.773416838074892e-06 
2.594352944846128e-06 
2.588705297116746e-06 
2.40966097616478e-06 
1.892678867935621e-06 
1.425710219123531e-06 
6.987758085369792e-19 
8.23164030026045e-05 
