solver_type L2R_LR
nr_class 2
label 0 1
nr_feature 105
bias 1
w
0 
-0.000870503376479276 
-0.0007103504131582408 
-0.0001464150879493361 
-0.0002578374511554891 
-0.0001355744978138596 
-0.0001039767632185594 
-0.0001190317560996173 
-0.0001063703334230351 
-0.0001146513978116338 
-0.0001129403283175573 
-0.000134280468256271 
-7.688773839788904e-05 
-6.499974620692158e-05 
-3.561251047370546e-05 
-3.961214681624835e-05 
-1.954214470687204e-05 
1.05104754364201e-05 
-1.963711127182772e-06 
3.390802938396035e-06 
2.444156994357772e-06 
2.455506716460909e-06 
8.799478789977593e-06 
1.129957366825111e-05 
1.04639094646281e-05 
1.451199883181502e-05 
1.341926590103027e-05 
1.306727388138564e-05 
1.212825739299318e-05 
1.041192727574624e-05 
1.200177738796401e-05 
1.91856371524451e-05 
1.326612458912473e-05 
1.210021530988663e-05 
1.48503589709291e-05 
1.186224946826923e-05 
1.150189964091635e-05 
1.032614224425754e-05 
1.063665414419383e-05 
1.047143753806672e-05 
9.82062172332474e-06 
1.02147211447152e-05 
6.890754535604345e-06 
9.344643232433232e-06 
8.589094342906515e-06 
9.619517068798875e-06 
8.870346979123835e-06 
9.114575692362528e-06 
7.292085981736124e-06 
7.131004809727739e-06 
7.404002211140194e-06 
8.429493974034254e-06 
9.443738204852057e-06 
8.244987820585293e-06 
6.834420315119982e-06 
6.912110783409126e-06 
7.003329873279383e-06 
6.091621821368361e-06 
6.261309531250671e-06 
5.549035703508088e-06 
5.494598140050521e-06 
4.654462032526005e-06 
5.11719572244451e-06 
4.223930359796562e-06 
3.673477581681884e-06 
4.137692302184811e-06 
3.213840658675637e-06 
2.993832177057521e-06 
3.500532688433131e-06 
3.292279811130668e-06 
3.444754115109593e-06 
3.256944532662035e-06 
2.789895218957998e-06 
2.750508484713748e-06 
2.386498130813381e-06 
2.225130925405094e-06 
2.19913237106464e-06 
2.548420316439473e-06 
2.080788599029598e-06 
2.077537020788998e-06 
2.020237687079742e-06 
1.834065914335338e-06 
1.73474917943833e-06 
1.981243986198322e-06 
2.204062995655978e-06 
1.642988148595764e-06 
1.455240405627179e-06 
1.539767295363609e-06 
1.516250836959132e-06 
1.303294145870799e-06 
1.00254955731667e-06 
9.640824373242926e-07 
9.757815401079361e-07 
1.037993446474129e-06 
8.354991808791806e-07 
9.74056487348e-07 
9.75130770148307e-07 
7.630675731419429e-07 
5.804394586672608e-07 
6.264645277484277e-07 
5.360574166724502e-07 
4.697156222660627e-07 
4.668574115613466e-07 
5.580636478603054e-07 
6.283515419288362e-20 
4.175961695529484e-05 
