solver_type L2R_LR
nr_class 2
label 0 1
nr_feature 105
bias 1
w
0 
0.001904749914362359 
0.001638576017108033 
0.0006748379397301205 
0.0001705986695567713 
0.0001404935182675985 
7.073580748004208e-05 
3.139872609431364e-05 
7.762010746539821e-05 
6.126499143654685e-05 
4.972890486193518e-05 
2.717555328107086e-05 
6.192020661923258e-05 
5.558049385613825e-05 
3.011351911641385e-05 
1.367687741719955e-05 
4.763149960230177e-05 
2.781286173118896e-05 
2.966957610965264e-05 
1.732282827896995e-05 
1.020825777783955e-05 
2.23353510137106e-06 
-9.841891759639435e-06 
-8.918028009239645e-06 
2.105799811924645e-06 
-5.069741811448751e-06 
-6.840594001074938e-07 
-1.021900046662621e-05 
-1.260548735181922e-05 
-1.400106348256054e-05 
-1.795912684972858e-05 
-1.856424831853117e-05 
-1.498342932030104e-05 
-1.625970631830614e-05 
-1.723265444735626e-05 
-1.328232876304456e-05 
-1.409027081288373e-05 
-1.631352803324524e-05 
-1.191367387336231e-05 
-1.207303383736578e-05 
-9.505023821593967e-06 
-1.021487745859852e-05 
-9.097020991036918e-06 
-5.004399442014474e-06 
-6.335308612484576e-06 
-6.701621712471227e-06 
-5.579583156397272e-06 
-6.022505413283946e-06 
-2.93736912725675e-06 
-3.025090811770201e-06 
-4.313345731335384e-06 
-4.812634770924675e-06 
-6.129298381893809e-06 
-4.930927438534098e-06 
-4.310245904840073e-06 
-4.096156589517323e-06 
-4.599990259767952e-06 
-4.460337696368673e-06 
-4.608061347150125e-06 
-4.524519597406469e-06 
-4.237610793632134e-06 
-4.677538427176943e-06 
-3.351468624633444e-06 
-3.574446857047555e-06 
-4.058413188964602e-06 
-3.057708177875157e-06 
-3.425895378047488e-06 
-3.328400962581042e-06 
-3.505626509519848e-06 
-3.038116554866337e-06 
-3.396286148992058e-06 
-3.081651946411788e-06 
-3.459630425949041e-06 
-2.802562078004119e-06 
-2.851163267358465e-06 
-2.9675870746614e-06 
-3.222839217465273e-06 
-3.18137569466229e-06 
-3.124350600842423e-06 
-2.759949639708645e-06 
-2.573921364080769e-06 
-2.507536620060415e-06 
-2.565390589790994e-06 
-2.642532920950377e-06 
-2.523897122215417e-06 
-2.475933647105929e-06 
-2.561448707182879e-06 
-2.427736874279915e-06 
-2.093336597091189e-06 
-1.87191449399834e-06 
-1.589887953077379e-06 
-1.830089216962751e-06 
-1.781490664907877e-06 
-1.721222947930019e-06 
-1.430542267457535e-06 
-1.527723500450082e-06 
-1.302492429720184e-06 
-1.300917324600319e-06 
-1.479588199231831e-06 
-1.462407055771495e-06 
-1.355022250695924e-06 
-1.066850012267257e-06 
-9.474546627149414e-07 
-6.964836236613456e-07 
-1.220137041201644e-19 
-7.731080097127032e-05 
