solver_type L2R_LR
nr_class 2
label 0 1
nr_feature 105
bias 1
w
0 
-0.0002062586118149532 
-0.0002629069305825465 
-9.196199709474966e-05 
-8.298783245561694e-05 
-5.374596024844647e-05 
1.621601941138816e-05 
5.372011402098733e-05 
0.000107724728607294 
0.0001341008760927559 
0.0001021462990077011 
9.079991449636405e-05 
0.0001142793931756526 
8.67179413849802e-05 
6.274150908701216e-05 
7.452258991641457e-05 
9.876988307909195e-05 
8.056518563064516e-05 
6.348585257592176e-05 
5.193017198822844e-05 
4.338104489105209e-05 
3.165516651944187e-05 
4.293071379316349e-05 
3.019808273581919e-05 
2.87135938836563e-05 
2.12511890546148e-05 
1.935847242909008e-05 
2.048395137894088e-05 
2.210376929701403e-05 
1.457696150598095e-05 
9.018971248207498e-06 
6.705975804297972e-06 
7.856461657394198e-06 
8.966018614253571e-06 
1.080096817076819e-05 
1.073247362742353e-05 
1.271408771250991e-05 
3.972104990324945e-06 
4.021717324369604e-06 
2.352980054839549e-06 
5.602713158079399e-06 
5.425595122225909e-06 
2.154333157878685e-06 
4.005871487470259e-07 
7.251070340982223e-07 
3.649576939164462e-06 
-3.221635030278915e-07 
3.579799967645261e-07 
-1.206040988657141e-06 
-1.153349429667669e-06 
7.023148761812366e-07 
5.281710137253911e-07 
6.722575255795334e-07 
6.180801062852635e-08 
-3.886742362204455e-07 
9.651599133000684e-08 
-7.681492472261298e-07 
1.916952140830598e-07 
-5.302408838194704e-07 
-6.416785902915007e-07 
-6.837102545750442e-08 
-7.623515518421634e-07 
-6.789627220706015e-07 
-7.575358941758542e-07 
-2.54362699084426e-07 
4.658026810685883e-07 
-3.880890211923294e-07 
4.987548496769926e-07 
9.347355382952661e-07 
9.412208704074018e-07 
6.600697135842739e-07 
1.737105671441296e-07 
4.34857440950769e-07 
4.033834457329939e-07 
1.052217345126403e-08 
5.55637826613184e-07 
5.411591547704924e-07 
5.69377388182023e-08 
2.902483124159387e-07 
1.20774266539472e-07 
-9.137067761427179e-09 
-1.487991326184668e-07 
8.248201593250848e-09 
3.691488755806533e-08 
-7.039568234887919e-08 
-2.161288149791636e-07 
2.028836909174213e-07 
3.635907180965214e-07 
-2.792598834762941e-08 
-1.179316216743421e-08 
5.81340305096513e-08 
1.085976014560649e-07 
5.029226919878721e-08 
-3.372151371578601e-09 
-2.094150116282904e-07 
-2.28027791286533e-07 
-2.851880622188961e-07 
-6.158297612676116e-08 
1.362946915837791e-07 
1.271309293755724e-07 
2.430451680093084e-08 
-1.11855390379014e-07 
3.387448836201635e-08 
1.400566512524378e-07 
1.68886901084716e-19 
5.161699751085438e-06 
