solver_type L2R_LR
nr_class 2
label 0 1
nr_feature 105
bias 1
w
0 
-0.002254157138928612 
-0.002277343447249577 
-0.001852808135928029 
-0.0005825397374064399 
-0.0006300257902867578 
-0.0003808792578061267 
-0.0003341728851915431 
-0.0002868262397969986 
-0.0002180965074207422 
-0.0001941359586085938 
-0.00022307990260946 
-0.0001764904537940154 
-0.0001898036342945062 
-0.0001238666330178147 
-9.764351497493924e-05 
-7.983391464026605e-05 
-7.391930862793914e-05 
-8.893466150034482e-05 
-7.7283034067105e-05 
-6.465392029659438e-05 
-5.114991587587702e-05 
-4.277298492233017e-05 
-2.928578083624872e-05 
-3.086865007033221e-05 
-2.274085949834324e-05 
-9.00984349565979e-06 
-4.954421836718461e-06 
4.8775736119116e-06 
1.366402588139412e-05 
1.506355504007293e-05 
2.015607054591133e-05 
2.086609683766498e-05 
1.858128982580211e-05 
1.968262229238912e-05 
2.124993443429017e-05 
2.401523761374429e-05 
2.068385580043077e-05 
2.173011271365219e-05 
2.14503198964933e-05 
1.879030218623086e-05 
2.320527938758437e-05 
2.314688857300442e-05 
2.097723579735205e-05 
1.965165473909014e-05 
2.124122079269077e-05 
2.099308489722068e-05 
2.02820525766943e-05 
2.102351690826831e-05 
1.940734687774778e-05 
1.936009074813566e-05 
2.018640520182994e-05 
2.011931063551041e-05 
1.911248568879365e-05 
1.674913788700119e-05 
1.682360241784228e-05 
1.573354834073827e-05 
1.573324280109362e-05 
1.506883797187286e-05 
1.420096607915324e-05 
1.391214264020686e-05 
1.32798470023313e-05 
1.229219205478063e-05 
1.167386316126817e-05 
1.059767354050528e-05 
1.079287213792514e-05 
9.527222502258294e-06 
9.528592602972603e-06 
8.843852858533526e-06 
8.41702228650504e-06 
8.10868727303719e-06 
7.380938668843084e-06 
7.441879645098994e-06 
7.12127224282117e-06 
6.3362337206612e-06 
5.921396328483912e-06 
5.795511346150195e-06 
5.961850930342002e-06 
5.59109390267693e-06 
5.365719005367e-06 
5.267957645699571e-06 
4.813440730351785e-06 
4.635151432163206e-06 
4.753068959274087e-06 
4.814675092104999e-06 
4.545741393329681e-06 
4.487438371013409e-06 
4.198771072307982e-06 
3.877859229335256e-06 
3.82769629557492e-06 
3.235616723499188e-06 
3.090718829120228e-06 
3.251911787192552e-06 
2.993251390318238e-06 
2.607430997632261e-06 
2.539084762272625e-06 
2.424068939630816e-06 
2.13416574002358e-06 
2.150992767063447e-06 
2.086153108556463e-06 
1.905794383414284e-06 
1.689734422415483e-06 
1.237067697391683e-06 
1.379033398655248e-06 
3.604598374350685e-19 
0.0001445495442614863 
