solver_type L2R_LR
nr_class 2
label 0 1
nr_feature 105
bias 1
w
0 
-0.0007681842372080201 
-0.0008661141282887094 
-0.0003087186421259864 
3.848046228154877e-05 
2.943800668691929e-05 
5.701551740451749e-05 
0.0001123273441997267 
0.0001158785441781669 
9.115957231455766e-05 
7.12626496171254e-05 
6.172666692904351e-05 
8.717923373029811e-05 
5.403124905133177e-05 
6.314608960569712e-05 
7.982573856356098e-05 
9.711630135798247e-05 
9.484314489644737e-05 
8.609573224684758e-05 
8.934611905431778e-05 
9.518386695688494e-05 
8.583124816938966e-05 
7.863376029661584e-05 
7.458725169477985e-05 
7.136517872982214e-05 
7.751260741353834e-05 
7.201629205198151e-05 
6.993995988296701e-05 
6.111767518051797e-05 
5.316075304721627e-05 
4.916241550120624e-05 
4.428860207422358e-05 
4.722542146684296e-05 
4.494475172411182e-05 
4.825241212226806e-05 
4.149754129913242e-05 
3.911268320621843e-05 
3.675018236157635e-05 
3.621641138376508e-05 
3.824369197531253e-05 
3.279845676728842e-05 
3.14290094895999e-05 
3.158318860332055e-05 
2.885501226241993e-05 
2.501205154411624e-05 
2.585993712813577e-05 
2.68336629551044e-05 
2.328216623573848e-05 
2.055068340146527e-05 
1.863436728858693e-05 
1.696024162506967e-05 
1.555170484546587e-05 
1.323505768928735e-05 
1.290531678706913e-05 
1.275214994984449e-05 
1.237847314253682e-05 
1.26127652292492e-05 
1.161445471820369e-05 
1.139190736640531e-05 
1.137704077866902e-05 
9.754130206046583e-06 
9.233267293805321e-06 
9.022412373892938e-06 
8.755593437474142e-06 
7.536148454129189e-06 
7.411834019518148e-06 
6.68341078777028e-06 
6.894821478012e-06 
6.510086857844919e-06 
6.644488541208533e-06 
6.485710448435687e-06 
5.594217706339848e-06 
4.904036503759922e-06 
5.172761001083201e-06 
4.984482656818117e-06 
4.584501681587641e-06 
4.270587248477248e-06 
4.421077979002298e-06 
3.746877578667519e-06 
3.569136867215249e-06 
3.176896795385052e-06 
3.129266761943784e-06 
3.098174909420627e-06 
3.222932348387335e-06 
3.116207421004776e-06 
3.139873894807692e-06 
2.81883710296414e-06 
2.322279090737019e-06 
2.26550184230604e-06 
2.071966658054915e-06 
1.787471768889062e-06 
1.8224857726057e-06 
1.508277111093594e-06 
1.392874659521249e-06 
1.224948372855528e-06 
9.874897155198715e-07 
8.412295339245942e-07 
9.347268754548542e-07 
1.090735257406504e-06 
9.30971237404615e-07 
8.32385788759159e-07 
8.424140524834072e-07 
8.347539034680834e-07 
5.792745330110803e-07 
4.69465102634472e-19 
3.091418510904454e-05 
