solver_type L2R_LR
nr_class 2
label 0 1
nr_feature 105
bias 1
w
0 
0.0008476119663646776 
0.0006282237817511329 
0.0002395518551857782 
-0.0001509256527477458 
-0.000121551776372484 
-0.0001454442007576108 
-0.000169995719504441 
-0.0001129681305348538 
-0.0001153572119493059 
-0.0001331629298085504 
-0.0001201942951789809 
-0.0001044369133338944 
-7.593743641088563e-05 
-0.0001201643102274691 
-8.418603925198894e-05 
-9.247069693442322e-05 
-8.121376241010884e-05 
-7.38915338557441e-05 
-7.359377512509905e-05 
-7.287739449718215e-05 
-7.389485997685958e-05 
-6.7842232175871e-05 
-5.970914368003241e-05 
-6.423295615943391e-05 
-6.458671678112932e-05 
-7.37221375213408e-05 
-7.032247074591906e-05 
-5.596104769762249e-05 
-5.455551891302314e-05 
-6.013270598033463e-05 
-5.827634854623062e-05 
-4.904762214914358e-05 
-4.642466090756164e-05 
-4.971919645878679e-05 
-5.608695605093267e-05 
-4.761913114475648e-05 
-4.343470778881626e-05 
-4.17796751833728e-05 
-4.226065740969259e-05 
-3.799817757323856e-05 
-3.42922668153775e-05 
-3.152602910856569e-05 
-2.856385816201219e-05 
-2.612894691233823e-05 
-2.362737747085551e-05 
-2.17229207772101e-05 
-2.168812838286344e-05 
-2.203242317226306e-05 
-2.278205786995219e-05 
-2.014861368378574e-05 
-2.068307649496574e-05 
-1.931609793594947e-05 
-1.741966964955775e-05 
-1.624023197101602e-05 
-1.576308890844414e-05 
-1.524402089947173e-05 
-1.408261621775555e-05 
-1.414919341284865e-05 
-1.256235071319009e-05 
-1.197933588851516e-05 
-1.188221319742358e-05 
-1.092527311861985e-05 
-1.013809981886942e-05 
-1.031821418272103e-05 
-1.026018079752142e-05 
-9.592979516783694e-06 
-8.894646455842719e-06 
-8.04788159246497e-06 
-8.286617404879656e-06 
-7.800807892220123e-06 
-7.064234675830448e-06 
-6.015533215974704e-06 
-6.472776606095018e-06 
-5.791129587055048e-06 
-5.145106821455156e-06 
-5.07414336574859e-06 
-4.964491201498986e-06 
-4.771059124334701e-06 
-4.914568437876783e-06 
-3.875350690910432e-06 
-3.646220815599179e-06 
-3.597015515911267e-06 
-3.501180389197282e-06 
-3.447857486129027e-06 
-3.298082334934151e-06 
-2.945423109364342e-06 
-2.687804317372606e-06 
-2.445469994110076e-06 
-2.415524070004154e-06 
-2.124721564615345e-06 
-1.951758985758748e-06 
-1.959971815426794e-06 
-1.601574297539613e-06 
-1.607322656724295e-06 
-1.398679875457222e-06 
-1.258731694824534e-06 
-1.266206313214215e-06 
-1.075859463961162e-06 
-8.415800144474478e-07 
-7.613201538272582e-07 
-6.233518725806272e-07 
-7.609997715917319e-07 
-5.009850786696694e-07 
-2.578122352735766e-19 
-1.966096489356487e-05 
