solver_type L2R_LR
nr_class 2
label 0 1
nr_feature 105
bias 1
w
0 
0.0004865256167810675 
0.0003754183911446592 
0.0004060240563981921 
0.0002822585406899875 
0.0002724928238833609 
0.0001464930777272298 
0.0001421518723427871 
0.00016942188060698 
0.0001597045299512278 
0.0001293301455331389 
0.0001547531016535443 
0.0001802944800774009 
0.0001399638963927464 
8.74517583206182e-05 
0.0001035978826923238 
0.0001007422462553567 
9.15196356965955e-05 
8.382243318906106e-05 
8.262038731485897e-05 
6.751205531875736e-05 
6.200962270891635e-05 
5.69260335003006e-05 
5.180015813443168e-05 
4.743491158545348e-05 
4.711495461442906e-05 
3.993045224325488e-05 
4.100443350095603e-05 
3.705327758383366e-05 
3.407802409778313e-05 
2.890847259589681e-05 
2.274203999026962e-05 
2.512775578638772e-05 
2.344671927796681e-05 
2.208679550525232e-05 
1.6721291032558e-05 
2.196668939169168e-05 
2.221230171246981e-05 
2.136255880277417e-05 
1.84119139994031e-05 
2.073164013394526e-05 
1.803115647349408e-05 
1.903896937965857e-05 
1.655589119731002e-05 
1.499502245026757e-05 
1.255617875716523e-05 
1.263581951840244e-05 
1.025680970379893e-05 
9.326696635785338e-06 
6.500691015040774e-06 
5.779868816604714e-06 
5.026992343406512e-06 
4.67556537701076e-06 
4.04997988625984e-06 
4.248527814443959e-06 
4.413693014047834e-06 
3.495157264953831e-06 
3.329069131318994e-06 
3.209800442800057e-06 
3.534204992481068e-06 
2.946166203736365e-06 
2.758651356080276e-06 
2.880574278652376e-06 
3.081471491915953e-06 
2.360295190153555e-06 
2.093499002727503e-06 
1.678245088886791e-06 
1.501986860768944e-06 
1.778697106570298e-06 
1.418625639519281e-06 
1.871261313477579e-06 
2.012365222688928e-06 
1.804444484240411e-06 
1.505667933762358e-06 
1.545501829450985e-06 
1.478519806381932e-06 
1.206580020935063e-06 
1.177786603823076e-06 
1.049055974104651e-06 
6.883960274549817e-07 
8.726744672195706e-07 
8.711636622176162e-07 
1.06062447156454e-06 
9.296646130721004e-07 
9.482730859434817e-07 
9.923516698424534e-07 
9.297419404378004e-07 
6.372669014087338e-07 
7.475585379686489e-07 
6.410166167026165e-07 
4.271094997169236e-07 
7.585484751183065e-07 
4.295957861645151e-07 
2.947416370480572e-07 
4.418839795741885e-07 
3.663246998464148e-07 
3.917114559084281e-07 
2.562571723021162e-07 
3.446682840449414e-07 
1.166066229162756e-07 
2.437405792508702e-07 
2.380837357825292e-07 
3.297918969633605e-07 
8.556703090482585e-08 
-1.981173381931629e-20 
-3.380193131799547e-05 
