solver_type L2R_LR
nr_class 2
label 0 1
nr_feature 105
bias 1
w
0 
-9.468933645215459e-06 
-0.0003134003522922353 
-0.000164825813724665 
0.0001402470795128721 
6.912490329565958e-05 
2.865690053541897e-05 
5.844942846380131e-05 
4.270499069307574e-05 
3.917872972740993e-05 
8.036937198874637e-05 
0.0001052602797696739 
0.0001287201991973483 
5.203585205663841e-05 
6.240216107402395e-05 
6.857479985575534e-05 
6.427895305490271e-05 
6.352873246094951e-05 
4.821802738189163e-05 
4.669412351106909e-05 
3.54436887789827e-05 
3.901485189725651e-05 
3.387364896947782e-05 
2.968777632265868e-05 
4.300814482004577e-05 
3.577013391839684e-05 
3.343224314919556e-05 
3.275781602173703e-05 
2.65130939273006e-05 
2.682127801358037e-05 
2.137200891688143e-05 
1.6592276131893e-05 
1.882519615451516e-05 
1.618201391971261e-05 
1.839243050068161e-05 
1.831853663177313e-05 
1.738099090907999e-05 
2.136769228246952e-05 
1.90192004599058e-05 
1.822146066226927e-05 
2.033358828523391e-05 
1.943859366962936e-05 
1.648917388963641e-05 
1.662399795074665e-05 
1.622029055157638e-05 
1.290619027287688e-05 
1.321738248667196e-05 
1.178760203851937e-05 
1.21249189575145e-05 
1.083672715936175e-05 
1.006194512404613e-05 
8.300188461229055e-06 
7.779999817503206e-06 
7.895177986520721e-06 
6.931168435411137e-06 
7.264612933548101e-06 
6.896540913592196e-06 
6.273413735362543e-06 
6.03109528288061e-06 
5.952097342300385e-06 
5.149179164695011e-06 
4.503316672762851e-06 
5.000428580062461e-06 
5.149532804558973e-06 
4.998775053390294e-06 
4.965104476083953e-06 
4.384568435322642e-06 
4.029931764630541e-06 
3.910223015407373e-06 
3.797598340089741e-06 
3.786610843310837e-06 
3.81094311629234e-06 
3.35337436435546e-06 
3.07804860268708e-06 
2.531454871345049e-06 
2.350304779061574e-06 
2.155938027649563e-06 
1.986466256524185e-06 
1.827504459591365e-06 
1.642877298405626e-06 
1.698797329970982e-06 
1.567469748967481e-06 
1.682471261837597e-06 
1.723924602358722e-06 
1.656009700600397e-06 
1.603732320588611e-06 
1.46197468127465e-06 
8.980620978571665e-07 
1.135839039600274e-06 
9.241080319312184e-07 
6.230684098818969e-07 
8.636725341427587e-07 
6.424776668370618e-07 
4.326505199189594e-07 
6.365412693721852e-07 
7.093085346042372e-07 
7.735717646801483e-07 
6.367290112872658e-07 
6.58480956246119e-07 
6.457279162188565e-07 
6.305765578615647e-07 
5.918195355587672e-07 
5.903715281217338e-07 
2.84119465812417e-08 
3.175527562572957e-22 
7.652793949916101e-07 
