solver_type L2R_LR
nr_class 2
label 0 1
nr_feature 105
bias 1
w
0 
0.0004804726617429515 
0.0001147634256151073 
0.0004706961920914856 
0.0001873977010567336 
0.0001487981779777332 
0.0001049924917416779 
9.702149673266454e-05 
1.047494233925193e-05 
4.418917068587995e-05 
9.879963873110307e-05 
0.0001006491381613141 
0.0001006048355820989 
5.425020703481599e-05 
5.528480237373864e-05 
5.800832012841267e-05 
6.034043556387244e-05 
5.993232785445984e-05 
4.868663815171438e-05 
5.025772324123738e-05 
6.163553083534727e-05 
5.096158205875206e-05 
5.069050014531731e-05 
4.897531398147124e-05 
4.62740602434588e-05 
4.965157809570767e-05 
3.861765630340522e-05 
3.76658652335811e-05 
3.247941211766937e-05 
1.933609265225066e-05 
1.495529645827438e-05 
9.308116853327842e-06 
1.076330041868191e-05 
8.020329723455715e-06 
9.880358738855555e-06 
5.542067511379171e-06 
3.277748436087047e-06 
9.07322751976278e-07 
4.753018409140822e-06 
2.934031589471208e-06 
4.285295418054407e-07 
-4.939503744281911e-07 
-1.033818440659773e-06 
-1.205835734551747e-06 
-2.893850710668845e-06 
-4.957172620466818e-06 
-3.263281934525711e-06 
-4.042091583304377e-06 
-7.160953789035557e-06 
-5.818813765162157e-06 
-4.994046611379453e-06 
-6.29395546575311e-06 
-7.678109918563663e-06 
-8.88013489736812e-06 
-7.673114822263198e-06 
-7.20926159629965e-06 
-6.523771008011308e-06 
-6.434011388615473e-06 
-5.795718590536625e-06 
-4.344855786279623e-06 
-4.781930050030362e-06 
-5.291983475164188e-06 
-4.559158861157049e-06 
-3.935276167955934e-06 
-4.059782938965743e-06 
-3.503812137140756e-06 
-3.374207620311171e-06 
-2.557465206925501e-06 
-2.387584386537299e-06 
-2.162272535585061e-06 
-2.447705815294236e-06 
-2.176106322212016e-06 
-2.415676958013765e-06 
-1.616718679033517e-06 
-1.320488709494805e-06 
-1.279391824124588e-06 
-1.408039064884865e-06 
-1.028991190337722e-06 
-1.128506525928386e-06 
-1.26754957252136e-06 
-1.523448202862876e-06 
-1.154668768880279e-06 
-9.62775436105176e-07 
-7.430492674179476e-07 
-1.000203174749656e-06 
-5.542262666175477e-07 
-8.515614792108429e-07 
-6.204911301584418e-07 
-5.794427647499685e-07 
-5.632680254088877e-07 
-6.569771892049334e-07 
-6.568889169662677e-07 
-8.652118163468934e-07 
-1.001972796166632e-06 
-8.365922705644596e-07 
-1.097273287114031e-06 
-1.151914854901104e-06 
-9.449928479042228e-07 
-7.377324352708991e-07 
-8.04781128109056e-07 
-7.033323786033595e-07 
-3.638920465180239e-07 
-4.217532562375937e-07 
-4.817144116253155e-07 
3.258537167425481e-20 
-2.932078111167168e-05 
