solver_type L2R_LR
nr_class 2
label 0 1
nr_feature 105
bias 1
w
0 
0.0001000616358675906 
0.0003653720209429175 
0.0005059735384953693 
0.000158600252035316 
0.0001456377576618839 
9.757498679935001e-05 
2.334315958224757e-05 
-1.25362431590523e-05 
1.815211069492341e-05 
6.600075163611749e-05 
7.984039743582398e-05 
4.176788732824342e-05 
3.653031586722166e-05 
1.933359655293995e-05 
2.255470083603975e-05 
3.787958863713033e-05 
3.711124856409068e-05 
1.937148086764153e-05 
1.868786739616644e-05 
2.646839841162271e-05 
2.100147681036873e-05 
2.882904171716471e-05 
1.999047253849475e-05 
2.335055774694652e-05 
1.62753632998198e-05 
8.038939604743891e-06 
3.857060581999765e-06 
6.72945137161821e-06 
-5.357109040504518e-07 
-1.721839258961413e-06 
-3.135456158575785e-06 
-3.647846256496182e-06 
-7.267546427049314e-07 
-7.490815486401466e-06 
-5.863759822563431e-06 
-1.062920052892081e-05 
-9.822888101401253e-06 
-4.742710404165225e-06 
-8.915641648210513e-06 
-9.812868354592815e-06 
-8.628373451931701e-06 
-9.785851635884711e-06 
-8.739860005522023e-06 
-7.48135432810896e-06 
-8.61678260322679e-06 
-7.100601863013241e-06 
-7.067091287280581e-06 
-9.10182689796539e-06 
-9.642976809279439e-06 
-8.138420052254155e-06 
-7.275383617136294e-06 
-8.080069860104469e-06 
-8.391442857222197e-06 
-7.11166006873652e-06 
-7.315767302723124e-06 
-7.640556586622231e-06 
-6.847097453038648e-06 
-6.454127100256387e-06 
-4.930964211835581e-06 
-5.030131806727103e-06 
-5.627773009081477e-06 
-5.295837088654175e-06 
-5.077385696776981e-06 
-4.215118134981914e-06 
-3.428438873426447e-06 
-3.549969835047532e-06 
-2.985633997699378e-06 
-2.736927624983487e-06 
-2.448955343045985e-06 
-2.685715762562259e-06 
-2.330618371752428e-06 
-2.375241261756537e-06 
-1.949920217869704e-06 
-1.630657681954535e-06 
-1.672699397178517e-06 
-1.536527800126502e-06 
-1.459756558634164e-06 
-1.315163073644687e-06 
-1.341107173348565e-06 
-1.648055999813419e-06 
-1.509672440479064e-06 
-1.005538448717139e-06 
-8.622327347978816e-07 
-1.085211622217821e-06 
-1.048222711093623e-06 
-9.526528566339039e-07 
-8.277825204227975e-07 
-7.452903821750938e-07 
-7.215534093497655e-07 
-6.864805405176528e-07 
-9.564862211045298e-07 
-9.988949681258429e-07 
-9.033854765647328e-07 
-7.474279084464675e-07 
-8.847886343778915e-07 
-1.065360499903109e-06 
-1.019495709381102e-06 
-9.82839899647174e-07 
-8.813268269698371e-07 
-8.559983062791307e-07 
-5.762367034789347e-07 
-3.624261860054709e-07 
-5.887069643483789e-07 
-3.902434489118645e-21 
-2.139171798436448e-05 
