solver_type L2R_LR
nr_class 2
label 0 1
nr_feature 105
bias 1
w
0 
0.0008309848966669975 
0.001176675764153413 
0.001036830217831247 
0.0002841015655054937 
0.0002667262257749895 
0.0002382998531152732 
0.0002696765288449438 
0.0002725202438561331 
0.000190744960848715 
0.0002107543555493288 
0.0001625613871907698 
0.0001233387791243811 
7.956764720053266e-05 
8.970717491205828e-05 
0.0001225595891691548 
0.0001060545229730403 
0.0001076037823742428 
7.459641595737742e-05 
8.435334997351579e-05 
9.939575701961226e-05 
8.065874416276019e-05 
4.894375812698083e-05 
5.058241481400372e-05 
5.198490394467079e-05 
4.050746406561612e-05 
4.693911278239762e-05 
4.046191382422772e-05 
2.928223062276388e-05 
2.483276581999064e-05 
1.791371885921914e-05 
1.901602504158437e-05 
1.524342308930793e-05 
1.522563400745562e-05 
1.390207167862768e-05 
1.68830555512607e-05 
1.577035324700633e-05 
1.651436054923558e-05 
1.609353915704916e-05 
1.422830441212502e-05 
1.256412066697459e-05 
1.295248053824804e-05 
8.982446314670153e-06 
9.377804549426828e-06 
6.013983777259691e-06 
3.648701236668338e-06 
3.984602314152045e-06 
4.55932415409865e-06 
3.541678005019922e-06 
3.173935968903525e-06 
3.056282692806646e-06 
1.955853027661173e-06 
2.33624566147994e-06 
2.240804050917357e-06 
1.442865761087479e-06 
1.466579694268516e-06 
-1.904738507200245e-07 
1.090634818376741e-07 
5.625443458696861e-07 
3.121332202624052e-07 
3.92976556990321e-07 
4.100512350014483e-07 
1.059244613555395e-06 
8.845236314343835e-07 
1.162498417955775e-06 
8.849735065591168e-07 
1.067498931001085e-06 
6.05340125370418e-07 
3.660315240021191e-07 
3.885883900483668e-07 
1.148234938026243e-06 
1.032435714363297e-06 
8.3410002232976e-07 
6.30389893771863e-07 
9.437649473653726e-07 
8.376717842379452e-07 
3.841208917001924e-07 
3.02610528929552e-07 
1.119996259445932e-07 
4.720528519512497e-07 
2.604399475343845e-07 
2.337649686669303e-07 
5.491894788598268e-08 
-2.039905468196512e-07 
-5.982391261870042e-08 
-7.491209763874964e-09 
1.992774182982699e-07 
1.121636218435535e-07 
1.929202359768499e-07 
3.048844045422147e-07 
2.578430577022954e-07 
6.785224030097242e-08 
-7.091433925055331e-08 
-5.863741359496342e-08 
-1.751989045208434e-07 
-3.164287140070765e-07 
-5.433598869544035e-07 
-4.524601857264238e-07 
-6.024255510646759e-07 
-4.122671594397594e-07 
-3.417707525860188e-07 
-1.351692991487436e-07 
-2.428535628179395e-07 
-3.021170578051298e-07 
-1.72420756915404e-19 
-7.085772988856947e-05 
