solver_type L2R_LR
nr_class 2
label 0 1
nr_feature 105
bias 1
w
0 
-0.00138370423424277 
-0.001289953684651317 
-0.001087421237563536 
5.06448757656739e-05 
-3.855099691321162e-05 
4.47844146919338e-05 
3.816567106089562e-05 
3.82311143126851e-05 
3.282487356380394e-06 
5.272332605588614e-05 
9.544263476932942e-05 
0.0001040419155987479 
8.446582349125657e-05 
8.093311845361383e-05 
5.970309128012175e-05 
6.453285039642073e-05 
5.631231653575383e-05 
5.529415509639278e-05 
5.24044805890858e-05 
5.471331023908299e-05 
6.274180627946957e-05 
5.034036429495937e-05 
6.027629482388529e-05 
6.166461668653418e-05 
5.025517493001861e-05 
4.904423918229681e-05 
5.253150201259323e-05 
4.648072363259552e-05 
5.408567836530121e-05 
5.310047192090677e-05 
4.906769460362834e-05 
4.877443045976699e-05 
4.587199043465796e-05 
4.793311461655585e-05 
4.868999615176095e-05 
4.516915880767327e-05 
4.832595683991451e-05 
4.764214691355267e-05 
4.559327609121441e-05 
4.513391279096332e-05 
4.310259307034818e-05 
3.77516063752678e-05 
3.934967673758547e-05 
3.578353134359267e-05 
3.479933610344394e-05 
3.279282285503192e-05 
3.164174472989089e-05 
3.066250455038055e-05 
2.793073077352343e-05 
2.640511425250498e-05 
2.385887610418429e-05 
2.300082923788988e-05 
2.247866601260573e-05 
2.156201555532939e-05 
2.070119618122979e-05 
2.027064121901049e-05 
1.926373881579741e-05 
1.796149107036905e-05 
1.76790023732989e-05 
1.62503205849354e-05 
1.512048909407746e-05 
1.44187242802256e-05 
1.405637538143025e-05 
1.366924017014948e-05 
1.304347698101199e-05 
1.270898869488851e-05 
1.199456282477707e-05 
1.129197279435468e-05 
1.076363164093052e-05 
1.049678560324318e-05 
1.025452793917315e-05 
9.785768935988271e-06 
9.194528217810937e-06 
8.491148648463166e-06 
7.963700809704859e-06 
7.701379342020499e-06 
7.318881037934506e-06 
7.068562185702559e-06 
6.65958157813217e-06 
6.254442182640111e-06 
6.030967194773968e-06 
5.859797990195912e-06 
5.550319713917762e-06 
5.277451756133961e-06 
4.934857270730298e-06 
4.722676365505493e-06 
4.152716282536415e-06 
4.149259471020559e-06 
3.761023369152405e-06 
3.437130131811287e-06 
3.221563873603278e-06 
3.051842440993705e-06 
2.76423042011591e-06 
2.751742697003612e-06 
2.846024062445589e-06 
2.613669995067856e-06 
2.440053823095639e-06 
2.223130236081093e-06 
2.280884295285825e-06 
2.047700906209435e-06 
1.715364133472487e-06 
1.405986730493569e-06 
8.276873512335028e-07 
3.811296512715845e-19 
5.156680442282486e-05 
