solver_type L2R_LR
nr_class 2
label 0 1
nr_feature 105
bias 1
w
0 
-0.0006047424861931238 
-0.0009606201702653047 
-0.0008262834223534367 
-0.0003850523945631565 
-0.0002392097455489762 
-0.0002863042101058146 
-0.0003052061464872114 
-0.0003149349765966886 
-0.0002426111577839594 
-0.0002573267961663869 
-0.0001882859142422621 
-0.0002022269990408006 
-0.0001320185708479223 
-0.0001347491591916007 
-0.0001496103466269754 
-0.0001502722426830319 
-0.0001189508886596813 
-0.0001274999807366709 
-0.0001016273078964348 
-8.774880447028268e-05 
-7.498862092523586e-05 
-6.317944140292985e-05 
-6.403063373538433e-05 
-6.488356912429603e-05 
-6.560804315952461e-05 
-6.214381029056632e-05 
-5.724127765905877e-05 
-4.624914148435074e-05 
-3.999778586104092e-05 
-4.505748818709791e-05 
-4.166071875139769e-05 
-3.744527995280046e-05 
-3.140863484113667e-05 
-3.087187728692788e-05 
-2.624049628111095e-05 
-2.526443431882634e-05 
-2.704135380341453e-05 
-2.64746663508341e-05 
-2.603206712223704e-05 
-2.680424843939073e-05 
-2.082725052806534e-05 
-2.12241989672416e-05 
-1.983670006276877e-05 
-1.564398193104506e-05 
-1.597733771945127e-05 
-1.416943637516219e-05 
-1.306186822335138e-05 
-1.301145246350391e-05 
-1.286815521201606e-05 
-9.573237364114026e-06 
-9.334535114307344e-06 
-9.102438460957332e-06 
-1.003805604194067e-05 
-8.283015363143368e-06 
-8.334811590362346e-06 
-7.552276380963576e-06 
-6.2439233525193e-06 
-6.572459786121835e-06 
-5.457960393970141e-06 
-4.541471721850873e-06 
-4.735278719398216e-06 
-5.100311618722365e-06 
-4.945791862736205e-06 
-4.309374440706948e-06 
-3.997451267562203e-06 
-4.333274008312266e-06 
-3.371734674805788e-06 
-2.759036154683284e-06 
-3.130065739657167e-06 
-3.191952502193228e-06 
-2.854101697495373e-06 
-1.777060638893653e-06 
-1.889573600885442e-06 
-2.002561056564422e-06 
-1.442130311811641e-06 
-1.943690814458274e-06 
-1.736803517444705e-06 
-1.528475271623174e-06 
-1.053454570355372e-06 
-1.426565558679603e-06 
-9.534058333026069e-07 
-4.510652985994835e-07 
-5.631337632194031e-07 
-5.038273036065279e-07 
-6.886644020411253e-07 
-6.280127535638381e-07 
-3.346270338532435e-07 
-2.455221571682357e-07 
-6.815990948394671e-08 
-1.877622984408111e-07 
-1.9236582751657e-07 
2.341514984522616e-07 
3.47152439122271e-07 
2.269854981957188e-07 
2.370786676413656e-07 
1.643980490305999e-07 
5.49637216146275e-07 
2.698925274786484e-07 
3.270376411531012e-07 
3.89022144539978e-07 
3.918881402561639e-07 
2.143233062116096e-07 
2.324928753134326e-07 
-1.001714360169639e-19 
6.281270959465885e-05 
