solver_type L2R_LR
nr_class 2
label 0 1
nr_feature 105
bias 1
w
0 
-0.0004954870895107297 
7.218605923733153e-05 
0.0003266222049362807 
0.0001538402565576509 
0.0001262974329319858 
0.0001334815549779075 
0.0001127726959066267 
0.0001291630202654808 
0.0001049008032358246 
0.0001703959745283995 
0.0001584252634473483 
0.0001362214851955932 
8.107198637735182e-05 
6.155540215877184e-05 
0.0001002455744905077 
0.0001127099323971967 
9.011972286635065e-05 
7.634267408060661e-05 
7.1706441918277e-05 
9.247194367515457e-05 
7.779103293604236e-05 
6.240316954189412e-05 
5.661540423202645e-05 
5.675398195527437e-05 
4.284843352422338e-05 
4.53415956519805e-05 
3.229503887757346e-05 
3.173270022699018e-05 
3.117830991389094e-05 
2.236893803681343e-05 
2.554359411847102e-05 
2.212949463347226e-05 
2.282042312537563e-05 
1.792858380403648e-05 
2.106839631840895e-05 
1.485600504647564e-05 
1.738151552921182e-05 
1.859788748753542e-05 
1.534649158005187e-05 
1.289146743434827e-05 
1.138292856325787e-05 
8.713928733367278e-06 
1.050364651019666e-05 
9.242837660885362e-06 
7.20149958929502e-06 
9.469825505053267e-06 
8.382348850477055e-06 
5.45746737713717e-06 
5.513038556728727e-06 
5.36484031885549e-06 
6.442597486765554e-06 
5.832157933451697e-06 
5.671730284755134e-06 
5.110293315046154e-06 
3.926938933898962e-06 
2.302379469803562e-06 
2.37430999679547e-06 
3.142416787338231e-06 
3.180535066720551e-06 
2.76845688030231e-06 
2.269667696575024e-06 
2.423638324376214e-06 
2.255183740860918e-06 
3.338899906351126e-06 
3.150774395098805e-06 
2.6984441369779e-06 
2.235864845822326e-06 
2.248165285532064e-06 
2.294268103886106e-06 
2.629100637001302e-06 
2.346078161350952e-06 
2.007019720314085e-06 
2.064378455213738e-06 
2.347273543367549e-06 
1.787467648859315e-06 
1.639877502525311e-06 
1.48604809091924e-06 
1.333143044061799e-06 
1.535363625606283e-06 
1.208789246087783e-06 
1.146731317111219e-06 
1.303546835903589e-06 
1.121803349798535e-06 
9.936693194626127e-07 
9.538584933806151e-07 
1.179122962339922e-06 
8.298438492599197e-07 
8.524187756735664e-07 
8.634247394092949e-07 
9.511480977980665e-07 
6.047501861939767e-07 
5.969631133132124e-07 
6.882069462387937e-07 
4.663718233939854e-07 
3.033597454118823e-07 
9.660732749909048e-08 
1.259856306765743e-07 
-5.476349000183585e-08 
4.498234583266821e-08 
-3.730654249244247e-08 
1.801208228005136e-07 
3.98833737459052e-07 
6.767988336527767e-08 
1.93921352074043e-19 
-5.107520541080616e-06 
