solver_type L2R_LR
nr_class 2
label 0 1
nr_feature 105
bias 1
w
0 
0.0009830853615825945 
0.0008611221981591846 
0.000314550393428396 
1.205834441798747e-05 
2.304575048833766e-05 
2.030995930731459e-05 
6.649601077360559e-06 
9.320411249607565e-06 
-2.727546530955074e-05 
-1.251804265767142e-05 
-1.879905849308663e-06 
-6.598442014899969e-06 
-1.213924301268241e-05 
-4.640483185429324e-05 
-1.379751290626128e-05 
-1.771299637647607e-05 
-1.816687787322029e-05 
-1.968521485960923e-05 
-2.655531433130497e-05 
-3.80067998142228e-05 
-2.539864874546799e-05 
-2.680483087163697e-05 
-1.925948386709428e-05 
-3.03915363795919e-05 
-2.490352616281311e-05 
-3.600502313035963e-05 
-3.15915069280609e-05 
-1.721671924889535e-05 
-3.139761330683943e-05 
-3.692898764667284e-05 
-3.107132925074235e-05 
-2.767199163614914e-05 
-2.757663773288921e-05 
-3.278584873245657e-05 
-3.421515808018626e-05 
-3.392466850374103e-05 
-3.017605340693476e-05 
-3.249945026826399e-05 
-3.306467852933294e-05 
-2.94596290705736e-05 
-2.665598259768901e-05 
-2.746408311556122e-05 
-2.662494414650195e-05 
-2.176314482038581e-05 
-1.90527968409813e-05 
-1.604355872734771e-05 
-1.565568213928639e-05 
-1.745017099723925e-05 
-1.796107442286525e-05 
-1.590949047600637e-05 
-1.586653919676426e-05 
-1.376150726703367e-05 
-1.3043783699418e-05 
-1.29210237710126e-05 
-1.25263378190183e-05 
-1.12318105032656e-05 
-9.778802939816197e-06 
-1.028857420533418e-05 
-9.935504746828202e-06 
-8.795156726846038e-06 
-9.358687457710326e-06 
-8.579758802932742e-06 
-8.900439616553477e-06 
-8.138976983043588e-06 
-7.141055471256172e-06 
-6.639910896470357e-06 
-6.181453499868875e-06 
-5.928987779030555e-06 
-5.910816048208822e-06 
-6.14020680343285e-06 
-5.462989926289701e-06 
-5.146899546388757e-06 
-4.683802648592956e-06 
-4.462075324390306e-06 
-4.193089104137379e-06 
-4.392991621885571e-06 
-4.392596131921924e-06 
-4.341171107964155e-06 
-4.196071819123863e-06 
-3.42350747770024e-06 
-3.210981730030651e-06 
-3.106306977324869e-06 
-3.131198779903004e-06 
-3.186817209998157e-06 
-2.867458084173188e-06 
-2.605999115618841e-06 
-2.607075779068628e-06 
-2.484887406905427e-06 
-2.154771455111012e-06 
-1.932315711857331e-06 
-1.715799700408921e-06 
-1.806649929094153e-06 
-1.605799353620891e-06 
-1.528637940717347e-06 
-1.492229438008737e-06 
-1.348909109438015e-06 
-1.374095262543117e-06 
-1.131333878287381e-06 
-9.149876354278933e-07 
-7.190390876968662e-07 
-6.322038251035074e-07 
-8.141006217206e-07 
-6.541019430242667e-07 
-1.925379948424412e-19 
-3.76560662340385e-05 
