solver_type L2R_LR
nr_class 2
label 0 1
nr_feature 105
bias 1
w
0 
0.0002020153694567459 
0.0001939723259445103 
0.000159781856815116 
-0.0001070357793846229 
-1.269455869159713e-05 
-2.839573138260752e-05 
-6.903031128048458e-05 
-2.541048944321528e-05 
-6.29247468364958e-05 
-0.0001090621805365298 
-3.810328181980952e-05 
1.384362392251864e-06 
2.509970438436599e-05 
3.376147242607326e-06 
-3.163161441124983e-05 
4.345706957068643e-06 
-3.887907455540433e-06 
-8.368068885192893e-08 
-7.83763725032701e-06 
-2.048627343372735e-05 
-1.014846632796443e-05 
-4.06142690684362e-07 
3.531853494176554e-06 
1.015676689334091e-06 
-6.732344507713077e-08 
-1.067646120451197e-05 
-7.433187571320732e-07 
-8.396516825276042e-07 
-3.018212988149052e-06 
-5.714368495916076e-06 
-6.682830966197792e-07 
3.292282705390308e-07 
-6.661919390024376e-06 
-8.34172700585967e-06 
-6.187620008202263e-06 
-7.032191140230568e-06 
-3.083105647469341e-06 
-6.904660462309178e-06 
-5.99063213340976e-06 
-2.943334457072106e-06 
2.014769654971943e-07 
-3.321705354810847e-07 
-4.922521605030207e-06 
-2.382450029122772e-06 
-2.273629524257278e-06 
-2.507114807576087e-06 
-1.602390565226186e-06 
-2.219735278219852e-06 
-1.785278090445515e-06 
-5.013561378224584e-07 
-3.748398345640648e-07 
-9.411210989440113e-07 
-8.369313852891786e-08 
-5.53257387419715e-08 
2.347006761725087e-07 
-8.21764103265154e-07 
-5.125727730946683e-07 
-8.888183320058116e-07 
-1.940241940496389e-06 
-1.183427908392103e-06 
-1.242444880548677e-06 
-1.146009553875336e-06 
-1.708123880754889e-06 
-4.991272032012974e-07 
-3.115209364766052e-07 
1.529086722471295e-07 
-4.344335584890128e-07 
-2.787404506052928e-07 
-4.586629564621218e-07 
-3.801663714408213e-09 
-9.851544187461461e-08 
-4.551602148859478e-07 
-1.57886282792366e-07 
7.484575094968662e-08 
5.09474274567433e-07 
2.841695269082384e-07 
1.837921692679491e-07 
-7.126930849729403e-08 
5.711862116754875e-08 
2.628985583726955e-07 
1.989230318749249e-07 
7.132856076634053e-08 
1.514068631358625e-07 
1.03296477590968e-07 
1.20154470420968e-07 
1.432832537935013e-07 
1.876812180860688e-07 
1.737511662641296e-07 
-3.144378935839255e-09 
1.627109190631599e-07 
1.950672702939723e-07 
6.613234700542285e-08 
2.622968208719027e-07 
1.657763618244261e-07 
-4.629753327627986e-08 
2.227282840988319e-07 
3.030946065719014e-07 
2.647222185334039e-07 
4.343139639426033e-07 
4.298419008763614e-07 
1.941951316842163e-07 
-3.862006516882392e-08 
3.638591849082571e-07 
-1.355253800959635e-19 
-6.509876291368092e-06 
