solver_type L2R_LR
nr_class 2
label 0 1
nr_feature 105
bias 1
w
0 
-0.0001413503165694871 
-0.0004908652147741427 
-0.0003843869508586404 
4.387141874314798e-06 
-2.517628897660044e-05 
-0.00010712345551125 
2.667744459468246e-06 
-4.793297960525866e-05 
-5.679836984262229e-05 
-4.059344114583656e-05 
-3.51051776895694e-05 
-3.373764906268505e-05 
-3.031519764698795e-05 
-1.680643010800983e-05 
-1.589945509766464e-05 
4.134234975564618e-06 
7.633194342796763e-06 
-5.320937937476602e-06 
-1.151116130296501e-05 
-1.034425166175938e-05 
-3.283778298653486e-06 
-2.245630901192749e-06 
-3.435870953411048e-06 
7.046526814597187e-06 
4.466525130948056e-06 
5.296450440231226e-06 
7.919116790661835e-06 
6.643126537232075e-06 
9.090394790059979e-06 
1.20807673141226e-05 
1.077460365137672e-05 
1.275100902732518e-05 
1.335727836765144e-05 
8.003338777900801e-06 
1.434583509277359e-05 
1.80858762419065e-05 
1.200079343961162e-05 
1.37312682989043e-05 
1.543399695046904e-05 
1.504758323092359e-05 
1.321677617945353e-05 
1.22851828510389e-05 
1.464820242123332e-05 
1.171411144319978e-05 
1.010259645636183e-05 
9.508660031846057e-06 
9.69917224990636e-06 
1.153474138211267e-05 
1.12087315675519e-05 
9.180115029344819e-06 
8.317959598187464e-06 
7.073468099752867e-06 
6.87461916528402e-06 
6.56725229086196e-06 
5.655896122283977e-06 
5.874624158433746e-06 
5.319478801358088e-06 
5.489764642885738e-06 
4.776572054450229e-06 
4.086124011190601e-06 
4.181974660046278e-06 
4.332652809605531e-06 
4.42672453681838e-06 
4.406423747816694e-06 
3.823167916919648e-06 
3.602243035884528e-06 
3.285207280505907e-06 
2.946875533868745e-06 
3.019932084096743e-06 
2.766499876106705e-06 
2.614898755905244e-06 
2.679905375099044e-06 
2.477673227140827e-06 
1.967664484638188e-06 
1.749380996174696e-06 
1.513591404636085e-06 
1.118129963432266e-06 
1.241968683215794e-06 
1.511998318360027e-06 
1.402803849960643e-06 
1.212610375971205e-06 
1.043526108515853e-06 
8.39330243305991e-07 
9.479054335686502e-07 
1.067351040611879e-06 
1.064877470571838e-06 
1.08853444143427e-06 
7.899347437778056e-07 
7.959271891710602e-07 
7.309733853225386e-07 
6.38830239462952e-07 
6.010933386276836e-07 
5.172007080063126e-07 
3.275725711801175e-07 
2.489893176665324e-07 
3.176457581278614e-07 
1.887528362560106e-07 
4.369777108893669e-08 
2.504964733366551e-07 
6.188014160197766e-08 
1.185259877705555e-07 
4.054707998130865e-07 
1.491934977768034e-07 
9.228048906338979e-21 
1.493585277923145e-05 
