solver_type L2R_LR
nr_class 2
label 0 1
nr_feature 105
bias 1
w
0 
0.0004621451803319348 
0.0004720435509405043 
0.000102230693803977 
7.113049700421642e-05 
7.030207508497836e-05 
3.094547992716096e-05 
-3.097938071149888e-05 
-1.937565950405826e-05 
1.000550466028754e-05 
-1.067257583900457e-09 
5.373238026902269e-05 
1.791465216344277e-05 
2.144985808478946e-05 
-1.002406858228775e-05 
-1.815058123088466e-05 
-1.97674287163369e-06 
-3.124366929510119e-05 
-1.956226625996044e-05 
-2.343190595869431e-05 
-1.915636512990864e-05 
-1.629465815016329e-05 
-2.224425293490738e-05 
-1.973281878121085e-05 
-2.094062840051849e-05 
-2.579353287738096e-05 
-2.862733916730239e-05 
-2.14506485896282e-05 
-3.085294864444437e-05 
-2.661493253772817e-05 
-2.290881730206734e-05 
-2.40888928164509e-05 
-1.653382478371274e-05 
-1.984063643373308e-05 
-1.923011433491657e-05 
-1.694963249700036e-05 
-1.366188772399058e-05 
-1.276015583373085e-05 
-1.100736024277215e-05 
-8.782007993935356e-06 
-1.186216095314439e-05 
-9.094240768351797e-06 
-8.507009019174298e-06 
-8.311995399234262e-06 
-6.548430885962912e-06 
-1.161890199887717e-05 
-9.531367514229363e-06 
-8.27430962943692e-06 
-8.532983866520065e-06 
-6.997187232999828e-06 
-6.506815364241893e-06 
-6.129304592684767e-06 
-6.259708537036828e-06 
-5.920332890369274e-06 
-6.633722853533064e-06 
-4.986524838963601e-06 
-6.110087089717053e-06 
-4.419721476863558e-06 
-4.160086884709845e-06 
-3.590413150072528e-06 
-4.170594561492474e-06 
-4.025156306486242e-06 
-3.618340653166686e-06 
-2.460653282980272e-06 
-2.787903433131387e-06 
-2.76978432209692e-06 
-2.529026672022638e-06 
-2.713013881426404e-06 
-3.007783895905919e-06 
-2.912566718313074e-06 
-2.606260982223518e-06 
-2.721110360573985e-06 
-2.440322994979946e-06 
-2.111707600404225e-06 
-1.767086589156211e-06 
-1.438665166695529e-06 
-1.71611666704913e-06 
-1.792573447868804e-06 
-1.418044224420677e-06 
-1.613321750391879e-06 
-1.514074477322675e-06 
-1.09611416165497e-06 
-1.173225465887536e-06 
-1.075261302662005e-06 
-7.979283301772285e-07 
-5.707889664970219e-07 
-6.151248543613807e-07 
-4.836533459976716e-07 
-2.538563086578039e-07 
-4.287966727988579e-07 
-4.480645351827586e-07 
-5.37615275335484e-07 
-5.039489441568303e-07 
-3.615900491505784e-07 
-1.965762669680495e-07 
-5.046938760437441e-07 
-4.732248309494246e-07 
-5.030340854322834e-07 
-6.040022164567353e-07 
-3.305676986164189e-07 
-2.688896478362219e-07 
-2.918666678254351e-07 
-1.374422839218846e-07 
-2.093312076285593e-07 
-6.010087636326247e-20 
-2.149324410790065e-05 
