solver_type L2R_LR
nr_class 2
label 0 1
nr_feature 105
bias 1
w
0 
-0.0001307943660012943 
-0.0003708382936043681 
-2.425947979992639e-05 
-8.441799514273193e-05 
-0.0001114768859157966 
-0.0001115288840026365 
-7.379865365377694e-05 
-9.699506235683312e-05 
-5.511019567240051e-05 
-8.501494618742538e-05 
-6.05281816225403e-05 
-5.463142966849292e-05 
8.609808040957174e-06 
-9.366366636318724e-06 
-4.476077090812739e-05 
-4.995191274633312e-05 
-2.941656694202664e-05 
-3.088880744298461e-05 
-4.084379638096526e-05 
-3.812018859096235e-05 
-2.761836025161257e-05 
-2.33378616105634e-05 
-2.010829595586942e-05 
-2.281636875910868e-05 
-2.786760139605515e-05 
-1.901508481632993e-05 
-1.615077979746429e-05 
-1.92367984541078e-05 
-1.550160651285997e-05 
-2.121607243918317e-06 
-5.836333003643999e-06 
-1.029106240445975e-05 
-1.037345366291193e-05 
-1.26440969716677e-05 
-6.622791474617007e-06 
-6.935405625213848e-06 
-5.992787357413767e-06 
-4.528752707579618e-06 
-3.431505734527261e-06 
-5.065621518906654e-06 
-1.562511450660891e-06 
-2.209307517639491e-06 
-5.19432818063065e-06 
-6.564569176826291e-06 
-8.315592889475114e-06 
-5.607552649250031e-06 
-5.315540226861866e-06 
-4.631918049474749e-06 
-3.664375293387006e-06 
-5.021893089187669e-06 
-3.165487032382554e-06 
-2.686388137503514e-06 
-3.212352325090709e-06 
-3.203167299875832e-06 
-2.083868210523489e-06 
-2.406753048400057e-06 
-2.062670026082416e-06 
-1.816259719195223e-06 
-1.555644889912804e-06 
-1.527478855052824e-06 
-1.837509639079372e-06 
-8.67259706715453e-07 
-3.267745667773075e-07 
-1.014789183750788e-06 
-1.480888148279422e-06 
-6.404126231811291e-07 
-6.46724449627087e-07 
-1.085421188929923e-06 
-8.740643015332382e-07 
-1.122086320372592e-07 
-2.422221990369635e-07 
-6.452406402843816e-07 
-1.237005296725069e-07 
-2.191216735931523e-08 
5.967384718852135e-08 
-2.163199343752719e-07 
-2.237890622182279e-07 
-5.748516246065706e-08 
1.619860677210399e-07 
2.170606983356453e-08 
1.017031884307754e-07 
6.763653957931191e-08 
3.689295160890207e-08 
-9.353419689933495e-08 
3.503623214741051e-08 
-1.913258989393499e-07 
-4.282833069171142e-08 
3.565524008586888e-07 
7.192847290362569e-08 
3.726064969465295e-07 
3.25597748862353e-07 
1.477303585064127e-07 
1.583337944713118e-07 
2.920156948734622e-07 
2.190688641515466e-07 
1.466128651416063e-07 
3.270965268477842e-07 
1.050669649475437e-07 
1.172255524293085e-07 
3.885875123522719e-08 
-7.332302591173411e-08 
9.095736490358211e-08 
-4.435607271077254e-08 
5.070337795023741e-20 
1.636520485795341e-05 
