solver_type L2R_LR
nr_class 2
label 0 1
nr_feature 105
bias 1
w
0 
-0.0002492731118721976 
2.268043115497456e-05 
-0.0002507224408980916 
0.0001405845725021015 
0.0001210644444488188 
0.0001254552800415421 
0.0001344891291457956 
0.0001448767938602554 
0.0001540694806657101 
0.0001123676195102038 
8.40767216321306e-05 
0.0001131568197057344 
0.000107734132172628 
9.138555373488254e-05 
8.721477395270319e-05 
8.628690367928783e-05 
7.211413535113797e-05 
5.697742780097177e-05 
5.320736071242796e-05 
5.103765955073284e-05 
4.666265963507156e-05 
3.715712258328205e-05 
2.838744155718961e-05 
3.099116152551573e-05 
3.43356824148706e-05 
3.359679315122401e-05 
3.204515784262152e-05 
2.486386991468832e-05 
3.063699423670766e-05 
3.311283925140993e-05 
2.822375258509901e-05 
2.480743055109669e-05 
2.453033790182032e-05 
2.606341888360575e-05 
2.437790146966048e-05 
2.229926548933672e-05 
2.012688069333033e-05 
1.930848849195026e-05 
1.955656769151649e-05 
1.74398346807708e-05 
1.663200000789324e-05 
1.447961188443248e-05 
1.43667492295268e-05 
1.323803789559019e-05 
1.289659453976912e-05 
1.251154104401331e-05 
1.103738640962196e-05 
1.127232199628518e-05 
8.96199944033371e-06 
9.156132833253301e-06 
7.704134804193208e-06 
7.87874155987622e-06 
7.853865613278554e-06 
7.202713029128321e-06 
6.139092167164206e-06 
6.049909994451158e-06 
6.049415982556075e-06 
5.584558506189164e-06 
4.833994180867614e-06 
4.498287553104664e-06 
4.29684519073506e-06 
4.217596690924578e-06 
4.456693389224532e-06 
4.518727074418507e-06 
4.035931006679756e-06 
3.841831597289208e-06 
3.116084946527135e-06 
3.213862970508209e-06 
3.302848061382698e-06 
3.204534483578218e-06 
3.189579272168111e-06 
2.888154222524781e-06 
2.259066703273618e-06 
2.093771820921048e-06 
1.96906699098697e-06 
1.95232326748678e-06 
1.88312044977898e-06 
1.882280560388621e-06 
1.670598881544472e-06 
1.872162512088282e-06 
1.821094878689237e-06 
1.519745772622831e-06 
1.709444416852737e-06 
1.575586674683053e-06 
1.436433330427355e-06 
1.476093330585712e-06 
1.112148138753899e-06 
1.119340651221176e-06 
9.666357506809214e-07 
7.294530377105685e-07 
9.164233500869379e-07 
7.870783299701119e-07 
8.550912896130799e-07 
6.638794742634648e-07 
7.166175743203112e-07 
6.790824120618874e-07 
5.086848193235469e-07 
4.05601730247476e-07 
3.310922401280331e-07 
3.321033672721278e-07 
1.388926284346939e-07 
1.379142169921505e-08 
1.409719573443825e-07 
1.203984307441999e-19 
-1.733574744527152e-18 
