solver_type L2R_LR
nr_class 2
label 0 1
nr_feature 105
bias 1
w
0 
-0.001302481093001174 
-0.001074962197418696 
-0.0008250319285368533 
-0.0002284239051599163 
-0.0002430671945080642 
-0.0001363205921410543 
-0.0001501919452084272 
-0.000109154367394075 
-7.215388643156445e-05 
-5.608936536625174e-05 
-2.778513004038853e-05 
-3.716297256394439e-05 
-5.79834540704174e-05 
-6.246918613472915e-05 
-1.392168694355466e-05 
-1.544733757166238e-05 
-5.221862488627213e-06 
-6.960050604835648e-07 
-6.713223970705194e-06 
-1.322805446298161e-05 
-6.330771170403726e-06 
-2.356400577003477e-06 
-3.225968509922951e-06 
9.228880639347476e-07 
-2.080296548628148e-06 
3.996858614260436e-06 
2.765913453698417e-08 
7.710067788107881e-06 
1.628801760525011e-06 
-3.452368525628471e-06 
-2.11400854840329e-06 
-2.126355292071918e-06 
-9.3022970007775e-07 
-3.541428918313864e-06 
-5.340864363782673e-06 
-3.405446235231701e-06 
-5.362831654156717e-06 
-4.581356259843191e-06 
-6.73039319998063e-06 
-2.206888057478303e-06 
-3.696195299709993e-06 
-1.826417305489131e-06 
-3.751461962413047e-06 
-4.992499680857527e-07 
-3.411372785754702e-06 
-3.700229848821663e-06 
-2.03174399215364e-06 
-3.854043820068046e-06 
-2.865741473890608e-06 
-2.736973587839893e-06 
-3.411395237126162e-06 
-2.178260298473e-06 
-2.769628321663282e-06 
-1.427585617350863e-06 
-8.045662113484004e-07 
-1.626728429376527e-06 
-1.440076622517651e-06 
-1.346325276066012e-06 
-1.955524822248378e-06 
-1.491509039502705e-06 
-1.205759073816855e-06 
-1.05302777339611e-07 
-6.948147350656138e-07 
-7.967622287228435e-07 
-5.731376959866155e-07 
6.104745204785451e-07 
-2.512915066353178e-07 
8.754238552177974e-07 
7.362407053899862e-07 
1.200800584333892e-06 
1.004841401677462e-06 
8.050610899875414e-07 
9.848537913305344e-07 
6.435579127038419e-07 
1.463052245145214e-06 
1.223906271897248e-06 
1.624626047539091e-06 
1.374170758501467e-06 
1.481974887176734e-06 
1.621095400546751e-06 
1.444831076037883e-06 
1.241278275872058e-06 
1.2095659690718e-06 
1.193084989040172e-06 
9.241181450810306e-07 
1.236916160290703e-06 
1.28159703327861e-06 
1.534087458185606e-06 
1.346870015756525e-06 
1.26609523731581e-06 
1.328552454613546e-06 
1.060810199264994e-06 
1.072250131461396e-06 
1.178359920637915e-06 
1.287697962551569e-06 
1.424164091994606e-06 
1.157367891671788e-06 
9.960184341859155e-07 
9.813788557104087e-07 
1.137799199131753e-06 
1.080430047639337e-06 
8.506795669933875e-07 
7.66035292393709e-07 
1.973794235683474e-19 
7.086280622942086e-05 
