solver_type L2R_LR
nr_class 2
label 0 1
nr_feature 105
bias 1
w
0 
0.0001972369168306627 
0.0007570126047691153 
0.0005393780809547381 
2.010140363820594e-05 
0.0001066504550510442 
8.231980396130768e-05 
1.294879949137786e-05 
2.429530293613655e-05 
1.651472608232581e-05 
-1.811327331183443e-05 
4.511793693028257e-05 
3.838203713738306e-05 
8.113626018150053e-05 
4.479558806462095e-05 
2.9908996977704e-05 
4.282913314162672e-05 
4.254213782593833e-05 
5.821787302434163e-05 
3.449964089188966e-05 
3.390969049569077e-05 
4.202014219781375e-05 
4.270831949233801e-05 
3.56510796408596e-05 
3.488408506237794e-05 
2.608424755508598e-05 
2.898913477382389e-05 
2.700131692895258e-05 
3.218638940259659e-05 
2.460171156053341e-05 
2.196806828841565e-05 
2.033354313888699e-05 
1.758439930954994e-05 
1.523658570285586e-05 
9.499191506936157e-06 
1.001396012811259e-05 
7.473578264037099e-06 
6.814158886038526e-06 
6.146970146548717e-06 
5.786600195458783e-06 
7.287098959461409e-06 
8.967915642154094e-06 
1.118316809398231e-05 
5.562501884435162e-06 
6.403237787708023e-06 
5.257744297039196e-06 
3.208816378010815e-06 
5.125067102090489e-06 
2.918386536605748e-06 
2.668743514951814e-06 
3.129071211191956e-06 
2.523293816791178e-06 
2.571264218072262e-06 
2.67696202142069e-06 
3.49129823842253e-06 
3.621041797893832e-06 
2.992563752368217e-06 
2.787806554756729e-06 
1.881359027207173e-06 
1.053317674826994e-06 
1.17263750417932e-06 
1.867993913882859e-06 
1.809114974204503e-06 
1.000227029366038e-06 
1.288805917267449e-06 
1.224835878117961e-06 
2.234297171227242e-06 
1.384232739224695e-06 
1.328243177525871e-06 
9.184086979577632e-07 
1.541482307364432e-06 
1.418355335638394e-06 
8.33530957108911e-07 
7.018534847614654e-07 
6.696825322429696e-07 
1.540889335570393e-06 
1.204848477089317e-06 
1.12120702333389e-06 
8.693914767682202e-07 
1.01338579630927e-06 
1.063585053528589e-06 
9.475696016788559e-07 
6.011320172486499e-07 
5.095453640885893e-07 
4.890260234377766e-07 
2.935133451562874e-07 
4.343013597516381e-07 
3.957645904691451e-07 
6.213740853560372e-07 
3.256417280053158e-07 
5.51287950065427e-07 
7.082108446562533e-07 
6.6904063832838e-07 
6.265753321139372e-07 
4.397378259353227e-07 
3.98340124075989e-07 
5.082470598447662e-07 
6.776388304367745e-07 
4.876481447889277e-07 
5.872669400991321e-07 
5.0870231273836e-07 
4.305926992778546e-07 
3.162363927528767e-07 
4.949203756726859e-07 
-5.619364183408097e-20 
-2.802981636321909e-05 
