solver_type L2R_LR
nr_class 2
label 0 1
nr_feature 105
bias 1
w
0 
-0.0004977131562161873 
-8.529021200902434e-05 
0.0004518383023325151 
0.0002122754332972593 
0.0003016218358997646 
0.0002705422877849228 
0.0002340708710179649 
0.0002795301515242421 
0.0002120891912761593 
0.0001630057355370284 
0.0001836479397018767 
0.0001666483967167143 
0.0001035513356724307 
0.0001021175168619608 
0.0001349291354497834 
0.0001501189756309805 
0.0001092321262222334 
9.226368588861643e-05 
0.0001026307711931859 
9.377689021554853e-05 
8.575871520237634e-05 
7.380380030471367e-05 
6.820012330683214e-05 
7.742754802074439e-05 
6.764976393286243e-05 
6.41284405764631e-05 
6.114566407595644e-05 
5.286898870315245e-05 
5.081574781033524e-05 
4.483149200126319e-05 
4.330971121740288e-05 
4.644071041700065e-05 
4.364880566189581e-05 
4.122222799118618e-05 
4.296746053224564e-05 
4.248852864645053e-05 
3.929535335388398e-05 
3.839398743733176e-05 
3.877196399424523e-05 
3.255310194183328e-05 
3.154397316135305e-05 
2.717176581582858e-05 
2.938054837218718e-05 
3.003589542744045e-05 
2.643568256014759e-05 
2.471913208036777e-05 
2.478316589549031e-05 
2.404057279997233e-05 
2.236851101661181e-05 
2.285175364342508e-05 
2.021699683952627e-05 
1.955750638640712e-05 
1.870892240081768e-05 
1.726532480215421e-05 
1.7582265826047e-05 
1.573803758102543e-05 
1.572473298450829e-05 
1.450037759232016e-05 
1.312480238101652e-05 
1.212839325112771e-05 
1.14802455225147e-05 
1.108413611798119e-05 
1.067749040236265e-05 
1.071568793524006e-05 
9.82324033708171e-06 
9.046607545647777e-06 
8.006009385116822e-06 
7.664675213595093e-06 
7.094304398301586e-06 
6.403267821413261e-06 
6.254747352140796e-06 
6.175429218746705e-06 
5.713298012599388e-06 
5.778680597285616e-06 
5.350048129289258e-06 
4.719565204343991e-06 
4.45614720396301e-06 
4.018808607636638e-06 
3.581447604046565e-06 
3.573926158961949e-06 
3.165931357141273e-06 
3.092180297573198e-06 
3.123286549137583e-06 
3.160694883409557e-06 
3.239738055102153e-06 
3.001507719965981e-06 
2.581981436928615e-06 
2.376119872907503e-06 
2.346407692389668e-06 
1.957666727171412e-06 
1.722015489213962e-06 
1.568527611088263e-06 
1.59163575031861e-06 
1.604919900477012e-06 
1.261690856889347e-06 
1.146933747331298e-06 
8.733237923037839e-07 
6.989556969649251e-07 
6.632069905337294e-07 
6.812980779152183e-07 
4.963324885926304e-07 
3.46067251296219e-07 
4.926808569689788e-07 
1.401232821633974e-19 
-1.158295200484284e-05 
