solver_type L2R_LR
nr_class 2
label 0 1
nr_feature 105
bias 1
w
0 
0.001243309015308106 
0.0006503134873692657 
0.0002823023975362591 
9.095964847432717e-05 
7.644693934271312e-06 
8.229312979270502e-05 
2.866281066807057e-05 
5.873378322089305e-05 
-1.171417771912058e-05 
-4.794175580102434e-05 
-1.983412008478875e-05 
3.9821762738944e-05 
1.621012202628936e-05 
1.69761297180443e-06 
-1.320712566176881e-05 
8.107792156195439e-06 
1.207228397374575e-05 
5.816811725352598e-06 
5.046091569453669e-06 
-9.826622664678719e-06 
-7.982291122575756e-06 
-2.741623876406784e-06 
-4.343254265944316e-06 
4.369049466221057e-06 
3.034186765692454e-06 
-6.094392478958448e-06 
-9.689120466452089e-07 
1.040249823984331e-06 
-3.296806395954922e-06 
-9.102754190747506e-06 
-3.497765245236566e-06 
4.856861505729835e-06 
-1.291687130823146e-06 
-9.209567307117176e-07 
-1.02721416138478e-06 
-2.673980654619956e-07 
2.8860105912394e-06 
-6.185459631040148e-07 
2.180140222538268e-06 
2.408108149933991e-06 
1.713025846033462e-06 
9.625851488307185e-07 
-1.099320818677626e-06 
-5.300231680987043e-07 
1.223627382809468e-06 
2.349129299708592e-06 
2.267335519189746e-06 
2.533218794254295e-06 
2.148059853600808e-06 
1.610425045474995e-06 
-2.796922274045444e-07 
1.1708585022635e-06 
5.160940823312978e-07 
7.983307165430558e-07 
1.910495358219788e-06 
6.726501610810804e-07 
-4.511095239428335e-07 
-1.738897709563189e-07 
-1.073258905813542e-06 
-5.032966979335587e-07 
-1.225263818713763e-06 
-7.778834704358835e-07 
-1.907229205999059e-06 
-1.222807779310702e-06 
-9.273317300672556e-07 
-6.214112622156653e-07 
-9.425698645544375e-07 
-8.336361908043623e-07 
-9.556050239246685e-07 
-5.014931919725523e-07 
-1.027758676735993e-06 
-6.238804703278379e-07 
-9.537934575399443e-07 
-8.166657988395219e-07 
-8.576479136771814e-07 
-7.758614948667047e-07 
-4.912436559712433e-07 
-4.879764024961277e-07 
-7.034239193382936e-07 
-6.089067837430076e-07 
-7.480587058467006e-07 
-8.466412184141291e-07 
-7.322692500316798e-07 
-5.231435507971962e-07 
-6.91718215122656e-07 
-6.635834103847515e-07 
-6.550527081433752e-07 
-5.554415107154498e-07 
-5.8973045053968e-07 
-7.294937079456556e-07 
-8.528067461322051e-07 
-8.550140107192804e-07 
-6.670097072019611e-07 
-7.460219625044391e-07 
-7.32874375724772e-07 
-5.669862012055415e-07 
-7.690076326548919e-07 
-5.342564208604507e-07 
-4.264670272271394e-07 
-3.464438384232971e-07 
-4.558269839712837e-07 
-5.734170610668655e-07 
-3.219826345106049e-07 
-1.635755945209839e-19 
-4.405788699395781e-05 
