solver_type L2R_LR
nr_class 2
label 0 1
nr_feature 105
bias 1
w
0 
-0.0005391434560288099 
-0.0002062916551216676 
-0.0005054587357699799 
-0.0001774590511647373 
-0.0001904288051177112 
-0.0001431398380874358 
-0.0001415125053008921 
-0.0001903170594807161 
-0.0001267460439115408 
-9.312228499987305e-05 
-9.780902661505277e-05 
-0.000104112503914548 
-7.97463461484274e-05 
-7.839857025894764e-05 
-7.556411638061888e-05 
-6.135298987060569e-05 
-4.485720096224653e-05 
-3.649879642831212e-05 
-3.93789004458118e-05 
-3.328290878378665e-05 
-3.771295729735247e-05 
-3.658669990401251e-05 
-3.800922021148982e-05 
-3.92936075341612e-05 
-3.77000843530473e-05 
-3.074734627532138e-05 
-3.141804727895958e-05 
-2.442640134304157e-05 
-2.35002005179636e-05 
-1.821721742820298e-05 
-1.387458413823822e-05 
-1.576129820124002e-05 
-1.68925762934831e-05 
-1.646365077437622e-05 
-1.413967276661846e-05 
-8.86974241091894e-06 
-5.929150292130605e-06 
-5.993263048726293e-06 
-7.137056526557525e-06 
-5.53881205337826e-06 
-6.842641268286744e-06 
-5.201571206471407e-06 
-4.390722646825686e-06 
-2.328573716403604e-06 
-1.508858374376518e-06 
-2.057130943317494e-06 
-3.989157187226121e-06 
-4.048600941084835e-06 
-3.327538767891654e-06 
-3.392484127671458e-06 
-1.999983870150875e-06 
-2.437370137870771e-06 
-2.447713026722325e-06 
-2.619400385771641e-06 
-1.981891539045758e-06 
-2.358518703418188e-06 
-1.982797709697446e-06 
-1.309184817310947e-06 
-1.073900642656087e-06 
-9.80453210628046e-07 
-1.370763880125995e-06 
-8.042501710544393e-07 
-8.102581189498215e-07 
-6.538827208182186e-07 
-5.203606022897931e-07 
-5.426341224549476e-07 
-5.500964704785872e-07 
-3.199676164998222e-07 
-1.54795613428157e-07 
-8.286380655874222e-08 
2.532589977283391e-08 
-5.365611906422251e-08 
1.701992718196072e-07 
3.798219113452709e-07 
2.390883896769737e-07 
1.650395072675513e-07 
1.745501933233027e-07 
4.577026223788017e-07 
-2.225954433571425e-08 
1.566049129932448e-07 
9.330975044341203e-08 
2.925343528608112e-07 
1.903567146304729e-07 
2.765305266542898e-07 
1.65419405040277e-07 
2.442287445653108e-07 
3.388225796334755e-07 
4.234187925298755e-07 
3.211760911294207e-07 
1.929519156621444e-07 
1.266489789320952e-07 
3.101455828358016e-07 
4.492350167239378e-07 
4.705277772293019e-07 
3.402972696320921e-07 
4.917815667447732e-07 
5.600300254717708e-07 
5.990881542923492e-07 
5.460692731419044e-07 
4.233489361938155e-07 
4.724574904378626e-07 
1.695550481869349e-07 
2.305445426634417e-07 
-1.657934313515032e-21 
2.07570282904074e-05 
