solver_type L2R_LR
nr_class 2
label 0 1
nr_feature 105
bias 1
w
0 
0.001423623685220855 
0.0009997631382882412 
0.0002349407765789886 
7.303573116566841e-05 
-1.714671198720776e-05 
-8.243733392932959e-05 
-0.0001139231910681188 
-0.0001295931739623844 
-0.0001737034707115408 
-0.0001563344967603195 
-0.0001271073587864732 
-0.0001285101964560234 
-4.722566231893588e-05 
-8.347680923947999e-05 
-8.267343361863443e-05 
-7.168637093422309e-05 
-7.268746033704681e-05 
-7.157573503157093e-05 
-5.980726909964179e-05 
-6.965670170251264e-05 
-6.406694269884462e-05 
-6.894755493820379e-05 
-6.308325442780939e-05 
-5.091690115391072e-05 
-6.165950049295597e-05 
-5.533599842335403e-05 
-5.293585469741018e-05 
-5.211239483378277e-05 
-4.459944578323251e-05 
-5.163290716448507e-05 
-4.476397217977292e-05 
-4.746712453119721e-05 
-4.490876762249873e-05 
-4.000058666262334e-05 
-4.105008751039474e-05 
-3.75873212994855e-05 
-3.483354158320233e-05 
-2.669231804936668e-05 
-2.644157270325354e-05 
-2.16924979810781e-05 
-2.402790323233098e-05 
-2.380525013665575e-05 
-2.135181079034248e-05 
-1.977613612211785e-05 
-2.048939746160371e-05 
-1.929376682275581e-05 
-1.890499646046342e-05 
-1.732053554491525e-05 
-1.533479896565387e-05 
-1.596553866809248e-05 
-1.433976533675604e-05 
-1.464741031069568e-05 
-1.330918610975779e-05 
-1.241819878375781e-05 
-1.218427678414273e-05 
-1.128941006529792e-05 
-1.047946373729866e-05 
-1.03153810636813e-05 
-1.029464296724467e-05 
-9.962286005976512e-06 
-9.311568917050886e-06 
-9.096197556447315e-06 
-8.412811916094449e-06 
-8.286811095549077e-06 
-8.287705221386625e-06 
-7.434635702541424e-06 
-7.431682415199014e-06 
-6.872304225730211e-06 
-6.379236302891206e-06 
-5.442188010595981e-06 
-5.280478030463831e-06 
-4.90435988944613e-06 
-4.911672588929055e-06 
-4.574867949267933e-06 
-4.711655848492723e-06 
-4.584798402200575e-06 
-4.131056357652952e-06 
-3.964686518651723e-06 
-3.669772105619311e-06 
-3.531560450519111e-06 
-3.297432353224193e-06 
-3.478550792151886e-06 
-3.160636486420586e-06 
-3.049632960502529e-06 
-3.010394176527553e-06 
-2.760969010635086e-06 
-2.508239481503762e-06 
-2.57905762215996e-06 
-2.108167790402794e-06 
-2.154284998047177e-06 
-1.867586971579713e-06 
-1.867461941466704e-06 
-1.802767068933281e-06 
-1.528413300721103e-06 
-1.364850639056116e-06 
-1.442454796384382e-06 
-1.155233856279945e-06 
-1.212496239659254e-06 
-1.077463740830487e-06 
-9.489403344569104e-07 
-8.148276315618441e-07 
-8.178359891223543e-07 
-8.735744244381078e-07 
-4.030248948277151e-19 
-3.598965499982631e-05 
