solver_type L2R_LR
nr_class 2
label 0 1
nr_feature 105
bias 1
w
0 
0.0003318228824736261 
0.0001911074982263328 
-3.467214165972512e-05 
-0.000129332357633606 
-0.0001678221101407952 
-8.207865035942725e-05 
-8.596937848462261e-05 
-8.818566482256226e-05 
-7.454729117083083e-05 
-0.0001577371746496277 
-0.0001786656894105296 
-0.000156005497956442 
-0.0001031759298624409 
-0.0001227798569179069 
-0.0001057130928013147 
-0.0001006296936192885 
-7.730096132196612e-05 
-8.248324577247734e-05 
-7.364674707582512e-05 
-6.425952884814449e-05 
-5.164779476783743e-05 
-5.220833703150288e-05 
-5.145716936972242e-05 
-5.339174367379746e-05 
-5.129525267998414e-05 
-4.72699867398162e-05 
-4.931424220667888e-05 
-4.006382953001589e-05 
-4.136124571297898e-05 
-4.750554745628957e-05 
-4.334004136058286e-05 
-4.3927564939897e-05 
-4.177270975257489e-05 
-4.279603821604687e-05 
-4.351064458731792e-05 
-4.223153501398049e-05 
-3.656336775360328e-05 
-3.840172219756958e-05 
-3.728326167409733e-05 
-3.478466640150646e-05 
-3.420634666793968e-05 
-2.861051765433808e-05 
-3.088257471726225e-05 
-2.424193819277858e-05 
-2.311950049559582e-05 
-2.305169319121795e-05 
-2.157682277928283e-05 
-2.026800272326954e-05 
-1.902728729134458e-05 
-1.626410524024932e-05 
-1.401828663654864e-05 
-1.439013223440733e-05 
-1.396885336742973e-05 
-1.225596852364389e-05 
-1.124205111283474e-05 
-1.036659117287367e-05 
-9.561953636919996e-06 
-9.88716317124944e-06 
-8.636382925235478e-06 
-7.793398256200412e-06 
-7.845959533226118e-06 
-7.761422000503878e-06 
-7.893377256699247e-06 
-7.025118429425386e-06 
-6.886435817798534e-06 
-6.749279108662962e-06 
-6.631511876677421e-06 
-6.021342269064992e-06 
-6.060198639131038e-06 
-5.801410836593399e-06 
-5.343872115884461e-06 
-5.039832228807975e-06 
-5.036139092543074e-06 
-4.647544202654491e-06 
-4.29893305827764e-06 
-4.13963570282164e-06 
-3.842921561500765e-06 
-3.318887251201051e-06 
-3.496991288445711e-06 
-3.15177614616762e-06 
-2.752102466432381e-06 
-2.650139060866129e-06 
-2.726489454994937e-06 
-2.489024544393764e-06 
-2.245255039003613e-06 
-2.00127483642914e-06 
-2.021398849127636e-06 
-1.76242549840986e-06 
-1.401729021137003e-06 
-1.617472942153293e-06 
-1.491587470570312e-06 
-1.369608399621893e-06 
-7.904385409296554e-07 
-5.961391434891682e-07 
-7.401957598846351e-07 
-3.99538262311034e-07 
-3.36233798149189e-07 
-3.247363659713559e-07 
-4.954559463075324e-07 
-5.123140913005039e-07 
-3.851282281161979e-07 
-4.860394759323948e-07 
1.956440543166518e-09 
-9.622321864098365e-20 
1.395665444800592e-16 
