solver_type L2R_LR
nr_class 2
label 0 1
nr_feature 105
bias 1
w
0 
0.0003800402720167981 
0.0005388058290840222 
7.542962374951374e-06 
-2.791846012811021e-05 
6.418302635836497e-06 
-1.979400305827668e-05 
-2.843034444997127e-05 
-3.524098960248924e-05 
-5.882221590559078e-05 
8.167310518349646e-05 
8.61227777739489e-06 
-6.786103576121425e-06 
2.265543676344553e-06 
1.009700287027389e-09 
9.323520713377334e-06 
-1.605131857344204e-05 
-1.28746288412795e-05 
-3.914134099667698e-05 
-3.402215205941944e-05 
-2.642366362104655e-05 
-1.615186878610068e-05 
-2.450092655271722e-05 
-1.770377622593612e-05 
-1.821934774718447e-05 
-1.173606088909791e-05 
-1.217479427751252e-05 
-1.080506053862137e-05 
-1.941711244447881e-06 
2.31493169409472e-06 
-2.588268181545482e-06 
-8.124559689709027e-06 
-2.264708921390818e-06 
-4.47812976053844e-08 
3.130955262936918e-06 
3.771394241315998e-06 
3.944352165638653e-06 
4.511236410845224e-06 
1.629195182805417e-06 
4.049210377982661e-06 
2.391073410765844e-06 
3.551466503584465e-06 
1.806859831936279e-06 
3.528613344543232e-06 
5.057007608701728e-07 
2.100017758154606e-06 
1.099791450224377e-06 
2.989540768148982e-06 
6.856725632660474e-06 
5.583386258166448e-06 
5.180970488459888e-06 
6.089549104676015e-06 
6.378982172987814e-06 
5.51270054709557e-06 
4.434513138892589e-06 
4.433310543278535e-06 
4.129989203108328e-06 
3.563758814873704e-06 
4.206521824283698e-06 
3.867374281196957e-06 
2.919873962457446e-06 
2.93412310113891e-06 
2.943277701252803e-06 
2.713289201015642e-06 
2.530307885239824e-06 
2.211693314528488e-06 
2.347288632221635e-06 
1.698409044700342e-06 
1.017176906867073e-06 
1.030779563321193e-06 
7.55882398113139e-07 
8.024952088868435e-07 
5.565106840101371e-07 
1.627400196413093e-07 
-1.722783954320873e-07 
-1.692184049247882e-08 
7.078054814165765e-08 
-2.288784434996402e-07 
-2.729350964305118e-07 
-5.247112180175322e-07 
-4.711924550536044e-07 
-2.827966569769652e-07 
-3.607887364479808e-07 
-1.60273863441927e-07 
-2.104837790728716e-08 
-7.007599578801314e-08 
-1.222592015965814e-07 
-3.799026380572593e-07 
-5.202526661362983e-07 
-4.567301330497831e-07 
-5.866202463800527e-07 
-6.771403308515734e-07 
-3.617699369124078e-07 
-8.788759874372132e-07 
-1.036013232546024e-06 
-9.081360995896885e-07 
-9.071764292686513e-07 
-5.675545104144681e-07 
-6.918214058278586e-07 
-3.532399401426556e-07 
-5.620569778892102e-07 
-5.175214338891977e-07 
-5.281076215592466e-07 
-5.960247319952196e-07 
-1.014216792752574e-19 
-1.685884357681762e-05 
