solver_type L2R_LR
nr_class 2
label 0 1
nr_feature 105
bias 1
w
0 
0.001251810308565567 
0.001387380656929976 
0.0006575599784701438 
-3.528817620395526e-05 
9.859645134791463e-05 
-6.283650683188733e-06 
-7.579243661528801e-05 
-8.627316776182045e-06 
-2.6808946849011e-05 
-5.58240682477301e-05 
-8.944252096050316e-05 
-6.085371332926584e-05 
-3.775113681103252e-05 
-5.634785664268388e-05 
-3.320808137018942e-05 
-3.082077801580187e-05 
-2.206704790842403e-05 
-2.926857450844245e-05 
-3.065260911099544e-05 
-4.188112833015231e-05 
-3.63454250625399e-05 
-4.579691225657807e-05 
-4.943248436140877e-05 
-3.805262598816615e-05 
-3.838068699875171e-05 
-3.739365613861675e-05 
-4.991239763085903e-05 
-5.30547940779149e-05 
-5.412848906583834e-05 
-5.616906630245114e-05 
-5.449961912435067e-05 
-5.248956249395964e-05 
-5.319554135918383e-05 
-5.096303311630044e-05 
-4.705468334469949e-05 
-4.460677482821919e-05 
-4.702984368584786e-05 
-4.392448742676024e-05 
-4.341325851240534e-05 
-4.123438136390789e-05 
-3.82806446815928e-05 
-3.522267258987269e-05 
-3.257833279325025e-05 
-3.232119224334211e-05 
-2.977776870622979e-05 
-2.901981275429075e-05 
-2.656790413488764e-05 
-2.535038766606122e-05 
-2.505116505534319e-05 
-2.433572682100421e-05 
-2.355460670187691e-05 
-2.208921458764932e-05 
-2.045197868993315e-05 
-2.012272958925131e-05 
-1.915740559404266e-05 
-1.814630373511158e-05 
-1.67141287074259e-05 
-1.534493313550099e-05 
-1.434044679509125e-05 
-1.384172720639233e-05 
-1.334105492978092e-05 
-1.300910141335e-05 
-1.239484611209853e-05 
-1.201494607747773e-05 
-1.121034320256582e-05 
-1.109939734826123e-05 
-9.84922111625479e-06 
-9.627695623961461e-06 
-8.90430243242886e-06 
-8.834304425922605e-06 
-8.137620174070788e-06 
-7.967042726281572e-06 
-7.631551484381616e-06 
-7.114299335573572e-06 
-7.281944504586848e-06 
-6.918058094677336e-06 
-6.566559265515567e-06 
-6.177514726949739e-06 
-5.744993418413631e-06 
-5.658343548051131e-06 
-5.600867853237655e-06 
-5.285211690784022e-06 
-5.193823087589111e-06 
-4.934670137303566e-06 
-4.804183519023369e-06 
-4.492493172208494e-06 
-4.165379959263421e-06 
-4.279563363890575e-06 
-3.696113962213216e-06 
-3.555474542224579e-06 
-3.481496222413065e-06 
-3.161935993041379e-06 
-2.989576387319558e-06 
-2.715589730681478e-06 
-2.634697757685977e-06 
-2.50391649142383e-06 
-2.421850792557416e-06 
-2.20268262232071e-06 
-2.138397448776258e-06 
-1.870545254855413e-06 
-1.62543377185377e-06 
-1.42231939004685e-06 
-1.156265049505065e-06 
-2.794349927901305e-19 
-4.982144261658148e-05 
