solver_type L2R_LR
nr_class 2
label 0 1
nr_feature 105
bias 1
w
0 
0.0002295707909158506 
0.0004641799415981476 
0.0001766459288617938 
-0.0001464166830992255 
-8.274330036554558e-05 
-7.414464266076578e-05 
-0.0001152637061248821 
-8.852228719887187e-05 
-7.393974281387548e-05 
-0.0001731512329402047 
-0.0001562821949425532 
-0.000167808625807415 
-8.388065893838842e-05 
-0.0001094105619412042 
-7.825511889616275e-05 
-6.817429611326549e-05 
-5.553906389654279e-05 
-6.920593343003192e-05 
-5.641542373726135e-05 
-6.929267370256279e-05 
-4.885901013305761e-05 
-4.585809611134892e-05 
-4.789024130461495e-05 
-5.064860991769973e-05 
-4.936733115057442e-05 
-5.44322523009148e-05 
-6.467635054347088e-05 
-5.087758153956316e-05 
-5.24881103566831e-05 
-6.091857716677163e-05 
-5.46936560077835e-05 
-5.596933670057057e-05 
-5.910834296113907e-05 
-5.544919893007748e-05 
-5.677591705982367e-05 
-5.483720351904351e-05 
-5.048552063386082e-05 
-4.853079797598341e-05 
-4.900635216286556e-05 
-4.518407969495221e-05 
-4.374800288127333e-05 
-3.936952962896981e-05 
-3.797682023055762e-05 
-3.322202315827008e-05 
-3.244398546530058e-05 
-3.171231170340199e-05 
-2.876245433140047e-05 
-2.764377527620376e-05 
-2.65789671929029e-05 
-2.389043833321547e-05 
-2.203994270079132e-05 
-2.128315574498209e-05 
-2.056997723619435e-05 
-1.931454209199264e-05 
-1.758686533768941e-05 
-1.745716606874457e-05 
-1.560715146292467e-05 
-1.488088695687287e-05 
-1.358906895883e-05 
-1.189328325302306e-05 
-1.161020274034046e-05 
-1.142115380254401e-05 
-1.179941649712227e-05 
-1.074969784242816e-05 
-1.030415298873056e-05 
-9.300657214752146e-06 
-8.274107971454696e-06 
-8.020903097361451e-06 
-7.70490274858519e-06 
-7.145384857995895e-06 
-6.596659403223128e-06 
-6.492432023185907e-06 
-6.285626958479069e-06 
-5.93972000764131e-06 
-5.285012324550645e-06 
-5.274845541959324e-06 
-4.686739802858338e-06 
-4.390728691020348e-06 
-4.22002620609701e-06 
-4.172331452477089e-06 
-3.926632018956868e-06 
-3.433465693271812e-06 
-3.520154201480086e-06 
-3.284497736368469e-06 
-3.163060242077998e-06 
-2.648746835857323e-06 
-2.478063266778717e-06 
-2.189097101936042e-06 
-1.850138499699906e-06 
-1.85057457074554e-06 
-1.73334102592313e-06 
-1.559993225272586e-06 
-9.28482376300978e-07 
-9.138318504340683e-07 
-8.268944943091094e-07 
-6.60743883907811e-07 
-6.012193089968313e-07 
-6.855470524682038e-07 
-7.500154615245088e-07 
-5.64357514229859e-07 
-3.243477512462293e-07 
-3.253587684751023e-07 
1.567574516851936e-07 
-2.576915158105335e-19 
-4.485852787576467e-06 
