solver_type L2R_LR
nr_class 2
label 0 1
nr_feature 105
bias 1
w
0 
0.0004248156838402381 
0.0002820373974050642 
-0.000419242924065692 
-6.198003864901956e-05 
-0.0001332162702532515 
-0.0001583225337601062 
-0.0001652015273484354 
-0.0001961255013528206 
-0.0001578174474565669 
-0.0001172186305508526 
-0.0001087475006132864 
-0.0001371214135886527 
-0.0001028796742526832 
-0.0001123596541934157 
-9.584215005413394e-05 
-0.0001277616079744199 
-0.0001093056034049398 
-0.0001133597692801816 
-0.0001079235813182955 
-0.0001049030048187885 
-8.998322204502318e-05 
-9.342212150904062e-05 
-8.148370055398656e-05 
-8.138989621609872e-05 
-7.170013178944497e-05 
-6.60862163694394e-05 
-6.797224567997825e-05 
-5.906250731814036e-05 
-5.930329934315195e-05 
-5.141613542752131e-05 
-5.500070287934574e-05 
-4.282577113978893e-05 
-4.124823103100358e-05 
-3.846207064657905e-05 
-3.484645542779194e-05 
-3.463930590567298e-05 
-2.947125352954449e-05 
-3.275156819316224e-05 
-3.080599909920445e-05 
-2.511342630927255e-05 
-2.209206730390698e-05 
-2.214019656111689e-05 
-2.076475987608617e-05 
-1.831269441668504e-05 
-1.65106355571395e-05 
-1.746270651250809e-05 
-1.674762822342653e-05 
-1.396579553772488e-05 
-1.261322061604044e-05 
-1.131223406394791e-05 
-1.018337488243824e-05 
-9.783963524816349e-06 
-9.790423105335138e-06 
-1.017281455721461e-05 
-9.025172417709395e-06 
-8.333558868083577e-06 
-8.587879232687327e-06 
-7.631838079272158e-06 
-7.426625850069674e-06 
-7.119812353620768e-06 
-6.94235476319174e-06 
-6.590172943316805e-06 
-5.764246714640078e-06 
-5.709718450675746e-06 
-5.370161792245368e-06 
-4.872807149216481e-06 
-4.639384828398612e-06 
-4.510882692398261e-06 
-4.424972865061167e-06 
-4.17616112865555e-06 
-4.060020005265455e-06 
-4.143501602519274e-06 
-4.364146620241316e-06 
-4.395321457121308e-06 
-3.738172851108023e-06 
-3.275194878668944e-06 
-3.240504485304776e-06 
-2.908706869203837e-06 
-3.102442946524197e-06 
-2.892249106594836e-06 
-2.722878748346122e-06 
-2.716505157037773e-06 
-2.403927182280126e-06 
-2.271948681949711e-06 
-2.034714683476234e-06 
-1.751473778084373e-06 
-1.773212788770722e-06 
-1.842926479646051e-06 
-1.783848288291638e-06 
-1.87123054077406e-06 
-1.616623805228638e-06 
-1.3435814649607e-06 
-1.508295330296816e-06 
-1.462942247404375e-06 
-1.356828124332261e-06 
-1.041586405355373e-06 
-9.227191317553161e-07 
-8.609147926928451e-07 
-5.265848203469677e-07 
-5.172059056809679e-07 
-6.593133280053193e-07 
-8.206462273910637e-07 
-4.93238776754076e-07 
-2.728833794230575e-19 
3.725694071305775e-06 
