solver_type L2R_LR
nr_class 2
label 0 1
nr_feature 105
bias 1
w
0 
-0.001248451509714096 
-0.001579254861294584 
-5.886125667132892e-05 
-0.00010410221009638 
-3.144129028708953e-05 
-1.845248986536779e-06 
5.37729796076442e-05 
5.386762455481485e-05 
0.0001110355499191821 
0.0001053090292704357 
7.364933841448922e-05 
7.706088271430173e-05 
6.571345791167495e-05 
0.000111450451873684 
8.022607116635296e-05 
9.094871343440144e-05 
8.180624633968634e-05 
8.437468450056449e-05 
6.977296653022495e-05 
7.198380863914466e-05 
7.480356656963544e-05 
6.869762037224691e-05 
7.050956299168691e-05 
6.006665424593197e-05 
6.299906181759743e-05 
6.714788432780818e-05 
5.757518345610142e-05 
4.847755089404916e-05 
5.205862325056068e-05 
4.46636342687818e-05 
3.310734621044422e-05 
3.486742715253606e-05 
3.441371563245162e-05 
3.569064967738277e-05 
3.102989917769282e-05 
2.768220922210182e-05 
2.698342475202349e-05 
2.349314373145185e-05 
2.152099104433506e-05 
1.80385227708484e-05 
1.678988210116344e-05 
1.42106644016474e-05 
1.33216622926237e-05 
1.238577845977224e-05 
1.220279456188192e-05 
1.09061335078604e-05 
1.18298168731573e-05 
1.002308706993186e-05 
9.299386160005116e-06 
8.01991972812222e-06 
8.447812170406619e-06 
7.490975036372945e-06 
7.887449739158928e-06 
7.346104177619896e-06 
7.251316883399916e-06 
6.290097384146749e-06 
6.922845426806916e-06 
5.935464321397186e-06 
6.169600929091173e-06 
5.869015029170583e-06 
5.335063183988328e-06 
4.547422989955297e-06 
4.432226013789358e-06 
5.187481071296882e-06 
4.911425626954283e-06 
4.058987319537472e-06 
4.390456088823701e-06 
4.371655634092686e-06 
4.852073831275725e-06 
4.502464863716541e-06 
4.202792548249091e-06 
4.254105477682914e-06 
4.383062377633074e-06 
4.07244644248008e-06 
4.114109420803656e-06 
3.689399185843967e-06 
3.554831409078663e-06 
3.625896265647107e-06 
3.252905910194612e-06 
2.992843638403698e-06 
3.023268757395135e-06 
3.152176484407904e-06 
2.615694994721758e-06 
2.667717800828404e-06 
2.538924828387472e-06 
2.422511288024683e-06 
2.559254886373364e-06 
2.42957472280701e-06 
2.284763357175413e-06 
2.362765457605828e-06 
2.073339064713903e-06 
2.334102607006277e-06 
1.974494880334185e-06 
2.050956727039741e-06 
1.840458023193333e-06 
1.812575704346967e-06 
1.79664369575653e-06 
1.753605845265592e-06 
1.382108492285423e-06 
1.558352904273522e-06 
1.539717049993322e-06 
1.083619152937968e-06 
1.09770415356839e-06 
1.977232777391849e-19 
5.215189576970493e-05 
