solver_type L2R_LR
nr_class 2
label 0 1
nr_feature 105
bias 1
w
0 
-0.0007631241891408052 
-0.0008486449999850357 
-0.0003949872081619245 
-0.0002210541154160459 
-0.0001926904863810136 
-0.000187760627968038 
-0.0001457343512863726 
-0.0001281548395877525 
-8.437001176198844e-05 
-8.155453702393677e-05 
-4.344928253553397e-05 
-6.431636990023143e-05 
-0.000121231280283956 
-0.0001014471000186892 
-0.0001016118381407101 
-9.230652169303679e-05 
-8.895693489802826e-05 
-6.880663126034186e-05 
-6.942291225532375e-05 
-7.009957105462981e-05 
-7.064092733993442e-05 
-5.214676881994193e-05 
-5.087009200646831e-05 
-3.62787816587238e-05 
-2.620810957578049e-05 
-3.692057657177361e-05 
-2.921242454055149e-05 
-3.077222110951502e-05 
-2.338841299972876e-05 
-1.770968056604916e-05 
-1.172163890235329e-05 
-1.446357896887176e-05 
-1.15958775854989e-05 
-1.044597766304291e-05 
-8.056934726600514e-06 
-4.553927057711997e-06 
-8.503871229766053e-06 
-8.836917123798449e-06 
-9.467873132758526e-06 
-9.502787856554063e-06 
-5.01860143586106e-06 
-4.964204421987594e-06 
-6.832840298090815e-06 
-4.631754122499685e-06 
-4.190451304057037e-06 
-4.62634080190291e-06 
-2.300818230334758e-06 
-3.001265845785658e-06 
-3.204140180261396e-06 
-1.877099247872789e-06 
-1.785708101914358e-07 
-1.779425814098956e-07 
-4.290083565102899e-07 
-4.593831215744009e-07 
-1.197846037309127e-06 
1.26347209632472e-07 
-3.866136806947811e-07 
-3.256737649848557e-07 
-4.0130557997715e-07 
-3.150690797888921e-07 
-4.623563921786836e-07 
-6.045599464312533e-07 
3.485726545390575e-07 
1.235078251816126e-07 
7.01973330754779e-07 
9.950082131621429e-07 
9.955737519416693e-08 
5.291343038940729e-07 
8.199557252234359e-07 
-1.222187402145934e-07 
2.544296768101813e-07 
8.611928343514179e-08 
1.99486918450066e-07 
4.237758354885121e-07 
3.33996197858357e-07 
5.342493967687521e-08 
-7.479884308026711e-08 
1.936864214532865e-07 
4.111706117964964e-07 
5.36272445435119e-07 
2.396160372431891e-07 
1.280896310221831e-07 
-6.879286824727526e-08 
2.239399612112286e-07 
1.897045937055461e-07 
6.569440981575152e-08 
4.416553765267007e-07 
4.718433155188678e-07 
2.331042481970322e-07 
5.486599354303261e-07 
4.368279822992e-07 
5.386007053072384e-07 
5.886202970297785e-07 
4.27122134805222e-07 
4.769283089923588e-07 
3.423842174739732e-07 
4.229980082444802e-07 
1.897270356055279e-07 
5.19920356545872e-07 
3.381434597809542e-07 
2.638171001864594e-07 
6.744859713506816e-08 
4.99249181173813e-07 
-7.585185814914978e-20 
5.180179755702715e-05 
