solver_type L2R_LR
nr_class 2
label 0 1
nr_feature 105
bias 1
w
0 
2.449488340048621e-05 
-9.453305783162844e-05 
0.0003525930307764032 
-0.0001479571500189782 
-0.0001048086349592842 
-0.0001290700195721208 
-0.0001286786985676645 
-7.480767258265495e-05 
-9.711084776622558e-05 
-7.984582822205582e-05 
-1.216324782938075e-05 
-5.777237313008226e-05 
-0.0001160138026771757 
-7.748518021241729e-05 
-7.316362533415138e-05 
-7.707226014578319e-05 
-7.021251018621788e-05 
-5.468535064535561e-05 
-4.766937022635741e-05 
-4.174865165267652e-05 
-5.205618835600372e-05 
-2.908850572332822e-05 
-2.855417494067431e-05 
-2.587472482785189e-05 
-1.889184135966856e-05 
-1.928946042365172e-05 
-1.509671066725997e-05 
-2.249392007052968e-05 
-7.900215833746187e-06 
-1.2207568240648e-05 
-1.243520937716923e-05 
-1.047067748995472e-05 
-1.345043365934709e-05 
-1.387747368551582e-05 
-1.377502406721083e-05 
-1.099822550447952e-05 
-1.400701904696291e-05 
-1.841719554825075e-05 
-1.67255713370279e-05 
-1.701907778118589e-05 
-1.029743728381973e-05 
-9.927406639419799e-06 
-1.274688587031066e-05 
-1.460130945109571e-05 
-1.248889604235265e-05 
-9.862176514245101e-06 
-7.205345024449748e-06 
-7.48601266334462e-06 
-8.659250081724128e-06 
-7.883788539376392e-06 
-6.94059435893984e-06 
-6.609021079913475e-06 
-7.326160655065292e-06 
-6.892810375538829e-06 
-7.09388658815027e-06 
-6.286424690568954e-06 
-5.575069937218646e-06 
-5.764697977041648e-06 
-5.244726561827265e-06 
-4.273526833131618e-06 
-4.193091892448315e-06 
-4.570903127221652e-06 
-4.276295127594165e-06 
-3.959514260363287e-06 
-3.76889322933312e-06 
-3.803933952880628e-06 
-3.670361554665086e-06 
-3.819250664163286e-06 
-3.340301808143197e-06 
-2.895678842406197e-06 
-2.531360328345939e-06 
-2.519351122216339e-06 
-2.571243198564258e-06 
-2.417468760157559e-06 
-2.102702789446382e-06 
-2.025225743272128e-06 
-2.019107960063616e-06 
-1.80731059378521e-06 
-1.941233694005181e-06 
-1.87759976514857e-06 
-1.739774746355492e-06 
-1.658961491757291e-06 
-1.610326363868054e-06 
-1.479691634362185e-06 
-1.052413256197382e-06 
-1.341060356790336e-06 
-8.867128239529927e-07 
-7.718443206844773e-07 
-8.333143190319504e-07 
-5.49289241020547e-07 
-3.313491581266618e-07 
-4.043047808084673e-07 
-3.910277368291099e-07 
-4.075381742064092e-07 
-5.207028919488536e-07 
-4.761342281584003e-07 
-4.727181152851509e-07 
-5.070151508676795e-07 
-1.360875015840965e-07 
-2.226430512557609e-07 
-1.997987827931002e-07 
-3.483952194936837e-07 
-2.698537606815614e-07 
-1.187305040643868e-19 
5.036559335132628e-06 
