solver_type L2R_LR
nr_class 2
label 0 1
nr_feature 105
bias 1
w
0 
0.001991304936333792 
0.001820735454229456 
0.000862900798308837 
0.0001965278918966263 
0.0002073232437379249 
7.354914428639014e-05 
-1.12573997774018e-05 
9.866097569354743e-06 
-1.005510769023552e-05 
-2.669034376070775e-05 
-5.20518148512411e-05 
-2.206538451323176e-05 
2.08412131226416e-05 
2.186229905931064e-06 
-4.006856677988966e-06 
-1.258443272674912e-05 
-4.519460587857876e-06 
-1.261838127313417e-05 
-1.604830772805848e-05 
-3.442962511625819e-05 
-2.858912813572278e-05 
-4.147133545071929e-05 
-4.142458271981545e-05 
-2.889581230482692e-05 
-3.394188178384131e-05 
-3.226664530839157e-05 
-4.032297308732869e-05 
-4.4785502888813e-05 
-3.689755697833355e-05 
-4.322764414164041e-05 
-4.000541055229993e-05 
-3.940388155206664e-05 
-3.774301210309958e-05 
-3.95287517588029e-05 
-3.377196117684136e-05 
-2.912674350670818e-05 
-3.555351451822941e-05 
-3.044284708797798e-05 
-2.62789109546473e-05 
-2.56910090332499e-05 
-2.487447855943667e-05 
-2.520411557903001e-05 
-2.292940926341792e-05 
-2.12302539990202e-05 
-2.122808457485676e-05 
-2.015498789239585e-05 
-1.718990802695419e-05 
-1.621500166381636e-05 
-1.627214306008166e-05 
-1.543864018120131e-05 
-1.39131982622457e-05 
-1.372206290292019e-05 
-1.287963567420273e-05 
-1.250336265242656e-05 
-1.202423301328222e-05 
-1.137209362862691e-05 
-1.019958825607464e-05 
-9.875479459628229e-06 
-9.142653886208741e-06 
-9.229617253547492e-06 
-9.231321214215069e-06 
-8.855009724541401e-06 
-8.624599824024005e-06 
-8.538524640018664e-06 
-8.275453203941124e-06 
-7.905793480901777e-06 
-7.792555494287175e-06 
-7.587209623775554e-06 
-7.010833892105595e-06 
-6.88909080163309e-06 
-6.2549867197635e-06 
-6.061666555085683e-06 
-5.848208181116333e-06 
-5.6492219298546e-06 
-5.803734674193985e-06 
-5.619015811434889e-06 
-5.457375257305099e-06 
-4.977192492159834e-06 
-4.846820219638713e-06 
-4.823775035460404e-06 
-4.551176359431086e-06 
-4.542693944166847e-06 
-4.149588641623043e-06 
-4.075869911785957e-06 
-3.827547728901349e-06 
-3.750476374356997e-06 
-3.605633780062061e-06 
-3.853842741862359e-06 
-3.301980352622898e-06 
-3.314086493683402e-06 
-3.314027947517973e-06 
-3.107482041517476e-06 
-3.052246823117771e-06 
-2.678377649096573e-06 
-2.566642848609153e-06 
-2.508615100962495e-06 
-2.245670184031824e-06 
-2.237651547249847e-06 
-2.066212816276727e-06 
-1.909610000159355e-06 
-1.869989545793877e-06 
-1.671232046823136e-06 
-1.589835824156866e-06 
-2.312045193644617e-19 
-7.54964725573795e-05 
