solver_type L2R_LR
nr_class 2
label 0 1
nr_feature 105
bias 1
w
0 
0.001296684324336348 
0.001317131639659431 
0.0005861548249870649 
-2.29162476528066e-05 
7.004956404730691e-05 
-2.50107705148044e-05 
-2.925967980904565e-05 
-5.173755728652466e-05 
-9.592690368654442e-05 
-0.0001172706490010945 
-7.786486871335132e-05 
-5.532353240143803e-05 
-5.676770570513689e-05 
-5.747439706032096e-05 
-7.029873140838793e-05 
-4.721533881255896e-05 
-7.452058760364697e-05 
-5.726536935343969e-05 
-4.886370110344069e-05 
-5.459889800152871e-05 
-6.703446362358825e-05 
-5.713220976259515e-05 
-5.875921619227462e-05 
-5.460663488481409e-05 
-4.637871489966527e-05 
-5.646642909474167e-05 
-5.912976813311562e-05 
-5.07656583415401e-05 
-5.592742024257628e-05 
-5.612534233305378e-05 
-5.036553787729627e-05 
-5.490061259590959e-05 
-5.599914028503179e-05 
-5.524782979965474e-05 
-5.320675543088848e-05 
-5.031055922514384e-05 
-4.685144007775884e-05 
-4.516528569738376e-05 
-4.452229534134793e-05 
-4.124516145462174e-05 
-3.898141208260845e-05 
-3.880149863854402e-05 
-3.584597104515448e-05 
-3.285601227392463e-05 
-3.016396606902391e-05 
-2.649178923416597e-05 
-2.506260715996312e-05 
-2.67276872307857e-05 
-2.499650030313941e-05 
-2.36123007134971e-05 
-2.145657422178815e-05 
-1.935738479897062e-05 
-1.93876221595541e-05 
-1.74507775877521e-05 
-1.727362670812103e-05 
-1.603305673964721e-05 
-1.485168545602675e-05 
-1.527570116802137e-05 
-1.420947511427584e-05 
-1.351427710234122e-05 
-1.287333974936454e-05 
-1.273961237503881e-05 
-1.186079664096074e-05 
-1.096757433441203e-05 
-9.996985290618509e-06 
-9.710343089243415e-06 
-9.651127630520718e-06 
-9.299493475707094e-06 
-8.962274979628169e-06 
-8.105414725108899e-06 
-7.73315811062755e-06 
-7.780143866975421e-06 
-7.285740386351179e-06 
-7.114874405969086e-06 
-6.610738471179909e-06 
-6.419104678147973e-06 
-6.20534810540042e-06 
-5.913680132211835e-06 
-5.288334584194096e-06 
-5.272344810652414e-06 
-4.888892237552452e-06 
-5.087077100524445e-06 
-4.918886251695912e-06 
-4.214215287489473e-06 
-4.129048270618097e-06 
-4.339593201975146e-06 
-3.902096690657012e-06 
-3.340854058162126e-06 
-3.298185260390171e-06 
-3.212133985790835e-06 
-3.083529644485577e-06 
-2.923898320973012e-06 
-2.554024540478915e-06 
-2.644524258802407e-06 
-2.25838927442518e-06 
-2.065254411317605e-06 
-2.082262162809532e-06 
-1.907712432805681e-06 
-1.869892469953347e-06 
-1.462857896036876e-06 
-1.363906819870365e-06 
-1.128859354262125e-06 
-7.239811192644574e-07 
-3.329371162151252e-19 
-5.348373390663348e-05 
