solver_type L2R_LR
nr_class 2
label 0 1
nr_feature 105
bias 1
w
0 
-0.0005725811837974377 
-4.025256410698495e-05 
3.472632151711541e-06 
0.0001082080922678516 
6.43011265120646e-05 
0.0001130377972475604 
0.0001822613106463275 
9.038280312642954e-05 
0.0001219656096991325 
9.593496900755857e-05 
8.892988331877403e-05 
8.506617200046343e-05 
3.573113565205538e-05 
5.199889076357861e-05 
6.068493843819694e-05 
5.869034554071853e-05 
1.471821313513125e-05 
1.729981957269133e-05 
9.985782153902816e-06 
-7.205813887940648e-06 
-4.196106597973263e-06 
1.247819725029579e-07 
2.570370266541952e-06 
9.968515210464249e-06 
1.940259532644318e-08 
-2.601967372341012e-06 
-4.785678464631945e-06 
-5.425678099347647e-06 
-9.569680374406906e-06 
-1.148405801631677e-05 
-1.025630124244452e-05 
-1.161855730034527e-05 
-1.367366813549649e-05 
-1.119746220518381e-05 
-9.966877570471494e-06 
-9.362440869476135e-06 
-1.259315757211974e-05 
-1.465229939938134e-05 
-1.23950343774472e-05 
-1.248765825657476e-05 
-1.335116408626849e-05 
-1.179451940423339e-05 
-1.3203529609899e-05 
-1.22838882256484e-05 
-1.399448000814699e-05 
-1.505822340733226e-05 
-1.187018481710195e-05 
-1.147373298535873e-05 
-1.116461800579259e-05 
-9.47134101160442e-06 
-9.936481982299334e-06 
-9.021413797146417e-06 
-8.465673720081242e-06 
-9.84349277041595e-06 
-8.109894251124857e-06 
-7.373314346410875e-06 
-6.913401071867323e-06 
-5.863837732185341e-06 
-5.517557748759275e-06 
-5.09306168233921e-06 
-4.589282159607649e-06 
-4.067265791772233e-06 
-4.120532901988859e-06 
-3.381706565253349e-06 
-3.333906060050611e-06 
-3.683239219216832e-06 
-3.040022610187214e-06 
-3.357790631208604e-06 
-2.801402096348742e-06 
-3.345211836519135e-06 
-2.635024728272844e-06 
-2.588475176696982e-06 
-2.001761566550675e-06 
-1.522787992165348e-06 
-1.423797072044546e-06 
-1.546257601350857e-06 
-1.115153233056171e-06 
-1.527350153038439e-06 
-1.49933679916994e-06 
-1.060295928131803e-06 
-9.950652332932629e-07 
-8.733624938920145e-07 
-5.230009570457793e-07 
-6.918507036306576e-07 
-3.198058037325308e-07 
-4.228133155587348e-07 
-3.075209713246897e-07 
-9.189424641718228e-08 
-2.01273184367639e-07 
-4.14978947289137e-08 
-1.699717235405331e-07 
-1.65593872025473e-07 
-1.751828757996087e-07 
-3.040164453396494e-07 
-2.313041443162907e-07 
1.554414282243827e-07 
-5.637043162810886e-08 
7.812072386348257e-08 
-5.339316627188936e-08 
3.388478549939243e-07 
1.393054891901e-07 
2.545240047463095e-07 
5.485718055053277e-07 
-1.578039459734028e-19 
7.43340047015914e-06 
