solver_type L2R_LR
nr_class 2
label 0 1
nr_feature 105
bias 1
w
0 
0.0007685780845040443 
0.0006081959256575084 
0.0004671872782873458 
0.0001123606015149819 
0.0001139277032173254 
8.204496700421496e-05 
8.648002979758787e-05 
0.0001066986473858121 
7.033673149176442e-05 
-1.577888965802796e-05 
2.114544154238285e-05 
-1.963078217758142e-05 
2.852285280924656e-05 
2.978328920722069e-05 
-1.438541841930188e-05 
-2.234656276515068e-05 
-1.963122983580126e-05 
-2.451885442744271e-05 
-1.953080213654609e-05 
-2.286677151959549e-05 
-1.900752198146906e-05 
-2.055970590039379e-05 
-1.547028031000409e-05 
-2.620882540759134e-05 
-2.987294538062714e-05 
-2.768461994949795e-05 
-2.988111350117756e-05 
-2.146908858778478e-05 
-1.815517979667862e-05 
-1.826248896117896e-05 
-2.216562080021108e-05 
-2.239552002965221e-05 
-2.104667862674039e-05 
-1.498414572409231e-05 
-1.79046976915707e-05 
-1.519659939650417e-05 
-1.659270818286191e-05 
-1.586918848756575e-05 
-1.604239436670421e-05 
-1.944666132099351e-05 
-1.526303810798522e-05 
-1.317051753653124e-05 
-8.874710020647503e-06 
-1.406445582064598e-05 
-1.171393891463549e-05 
-9.942589621887992e-06 
-7.662544127608558e-06 
-7.122461126141059e-06 
-6.44462776379095e-06 
-6.470989738813117e-06 
-6.027392749784674e-06 
-5.252565355417504e-06 
-5.928294201156192e-06 
-5.32633606348463e-06 
-5.835919772511005e-06 
-5.828672951606779e-06 
-4.585393443444796e-06 
-5.50084244578538e-06 
-4.899878896813108e-06 
-4.287114887303442e-06 
-3.593915138041806e-06 
-3.273448614479178e-06 
-2.772823532600935e-06 
-3.241220692707313e-06 
-3.489442171669971e-06 
-3.043895024621607e-06 
-2.641190613984426e-06 
-2.720702912226118e-06 
-2.843073586649909e-06 
-2.830383990430799e-06 
-2.400286257145189e-06 
-2.387300242157877e-06 
-2.335574998255583e-06 
-2.012836902058144e-06 
-1.903837554768546e-06 
-2.22248312058981e-06 
-1.551861438607644e-06 
-1.838539229974995e-06 
-1.925761954039145e-06 
-1.548446331850303e-06 
-1.584818509805756e-06 
-1.277481777329351e-06 
-1.347055768679655e-06 
-1.203387084591583e-06 
-1.129391115479869e-06 
-1.040938621000609e-06 
-9.61153937472575e-07 
-5.716451133813016e-07 
-7.286537596567581e-07 
-4.838513113327792e-07 
-4.013531686847803e-07 
-3.447491652793855e-07 
-6.399319123430965e-07 
-6.148960851352438e-07 
-7.192131823749559e-07 
-8.291911062055522e-07 
-7.955160834205493e-07 
-7.336762107756926e-07 
-6.607040336126438e-07 
-6.348999761158248e-07 
-4.345013640393506e-07 
-5.220827846305463e-07 
-6.990175079663144e-07 
-1.971000593900256e-19 
-3.964995532197215e-05 
