solver_type L2R_LR
nr_class 2
label 0 1
nr_feature 105
bias 1
w
0 
0.001336406663089331 
0.001066912960759033 
0.0006545964246301864 
0.0001895167298565757 
0.0001914341338744395 
0.0001864426676590921 
0.0001477184090346641 
0.0001616818635524118 
7.884355822239348e-05 
4.28632077436741e-05 
2.111061740531611e-05 
7.351216434121414e-06 
-1.301793775884385e-05 
-2.003837176824574e-05 
6.453617426506572e-05 
5.084952718312225e-05 
4.636160207476298e-05 
3.097514105169374e-05 
5.103269936844121e-05 
2.975419112162756e-05 
2.800881978427284e-05 
1.727296013459019e-05 
2.013699707986779e-05 
1.377464734610523e-05 
2.098535911673207e-05 
1.429942892999711e-05 
2.224922556641211e-05 
1.615777857139262e-05 
2.007052144200474e-05 
1.348812369408642e-05 
8.430040081556737e-06 
1.305094408246849e-05 
9.302106376876104e-06 
8.764748342182853e-06 
1.222982938362444e-05 
1.028293411312449e-05 
1.021121896620646e-05 
9.41769987761028e-06 
1.170752845109519e-05 
1.004040223872526e-05 
1.06674149942559e-05 
5.525419031956382e-06 
5.95978943574086e-06 
2.179402894894814e-06 
5.504294121034673e-06 
3.966137013798764e-06 
5.673518855732078e-06 
4.221890540931658e-06 
6.041171215444295e-06 
5.496423639124894e-06 
4.255212910927281e-06 
3.611225339673153e-06 
2.409246190989577e-06 
3.051693882659723e-06 
2.710545847735846e-06 
2.640836599647293e-06 
2.143026268820942e-06 
2.649845222222961e-06 
1.798136111110592e-06 
1.455463984004712e-06 
1.196544361494916e-06 
2.093631645030968e-06 
2.105591474093173e-06 
1.870959603562657e-06 
1.236975258865407e-06 
1.539600146149235e-06 
9.351477600407257e-07 
9.71304333685787e-07 
1.004743763398049e-06 
5.664969827759857e-07 
2.574125321139167e-07 
6.010589435339639e-09 
-2.689725789057478e-07 
2.034063735376442e-08 
-1.485383039485022e-07 
-2.47781704907811e-07 
-7.367617089498699e-07 
-1.115008075088261e-06 
-9.035272798285581e-07 
-1.242316719227248e-06 
-1.292553030879248e-06 
-1.306617275311033e-06 
-9.897389712343622e-07 
-9.341723859058324e-07 
-9.756060448441184e-07 
-1.244162827343086e-06 
-8.346970660421749e-07 
-9.710675754036386e-07 
-1.139988400205779e-06 
-9.048147220718678e-07 
-1.233654717168579e-06 
-9.194765707375373e-07 
-1.20082903212691e-06 
-1.289695885328529e-06 
-1.132783818976881e-06 
-1.080718843300904e-06 
-9.06407337186692e-07 
-1.123770321858069e-06 
-1.175923702886993e-06 
-8.630421031373944e-07 
-7.229445340350283e-07 
-6.770304988807685e-07 
-5.748744371708061e-07 
9.950647425771913e-21 
-6.82386476551187e-05 
