solver_type L2R_LR
nr_class 2
label 0 1
nr_feature 105
bias 1
w
0 
-0.0003986994553618685 
0.0004765861484545044 
7.078002793357784e-05 
0.0001702005545755852 
0.0001236825916159187 
0.0001593522605353896 
0.0001663856884704613 
5.745264614829977e-05 
6.901705281242387e-05 
4.500464396399331e-06 
-2.864796794352675e-05 
-2.378560599553693e-05 
3.276423618704684e-06 
5.578949799189424e-06 
-1.574745943346326e-05 
-7.403886248364326e-06 
-2.662432500443909e-05 
-2.291499019441002e-05 
-3.7575331155253e-05 
-5.701742221342569e-05 
-3.235039491715748e-05 
-3.020913691351531e-05 
-2.119451608238237e-05 
-2.66087961134502e-05 
-2.962394921771882e-05 
-3.379085776031272e-05 
-2.7608764174171e-05 
-2.882319248331061e-05 
-2.849076960639762e-05 
-2.661837738942642e-05 
-2.248067008889955e-05 
-2.642601806387333e-05 
-2.222373062893468e-05 
-2.008877839903572e-05 
-2.008040065231589e-05 
-2.367760504076618e-05 
-2.369632281755616e-05 
-2.748482781108087e-05 
-2.814434368714425e-05 
-2.196314285796272e-05 
-2.14628391377659e-05 
-1.742067745279178e-05 
-1.834589716708692e-05 
-1.678016020000516e-05 
-1.512424040122136e-05 
-1.380481003655293e-05 
-1.183755771427517e-05 
-1.344065523138871e-05 
-1.183990425370585e-05 
-1.000573880614069e-05 
-9.929944994255835e-06 
-8.567332053758819e-06 
-9.077450681997413e-06 
-8.631150981034924e-06 
-6.777641523007601e-06 
-6.257373917490245e-06 
-5.340276343484765e-06 
-5.276321798859309e-06 
-5.153513021971774e-06 
-4.768043369311395e-06 
-4.602311058335167e-06 
-4.320494574333557e-06 
-3.608037663277831e-06 
-3.04387399737209e-06 
-3.73702404488574e-06 
-3.431319716417029e-06 
-3.074234341957334e-06 
-2.534696897730266e-06 
-2.525683842250246e-06 
-2.916514903985798e-06 
-2.762274301663138e-06 
-2.550460292574848e-06 
-2.110179713926251e-06 
-1.751097497840648e-06 
-1.382053131751974e-06 
-1.369810416915471e-06 
-1.383279822174632e-06 
-1.648381157528163e-06 
-1.617374382433037e-06 
-1.509901626450737e-06 
-1.336659003145174e-06 
-9.02238499189015e-07 
-1.032878978913683e-06 
-1.195992703126748e-06 
-1.152585179942337e-06 
-1.076213827491083e-06 
-7.108310996963497e-07 
-4.949185325034385e-07 
-5.675131969672373e-07 
-4.35550832734526e-07 
-4.835149694887706e-07 
-7.441139535281461e-07 
-5.389769104605921e-07 
-4.087586041149773e-07 
-3.256408362327327e-07 
-2.04308798716037e-07 
-2.444252530061084e-07 
-1.84089029687349e-07 
-5.103602319182312e-07 
6.240560672723627e-09 
-3.566037626278821e-10 
1.242582124430361e-07 
4.680463513853151e-07 
-1.744732927828901e-19 
-4.020443327909566e-06 
