solver_type L2R_LR
nr_class 2
label 0 1
nr_feature 105
bias 1
w
0 
0.00192817896891367 
0.001598104531339855 
0.001060252249572758 
0.0004496163279874826 
0.0003920868295225259 
0.000265504127651351 
0.000212883455745182 
0.000226402600003212 
0.0001782455326207701 
0.0001076900416841973 
0.0001206136868791295 
5.94343108648367e-05 
8.172298911518288e-05 
5.644288016183702e-05 
7.514828627166446e-05 
5.925970626375331e-05 
5.89602751002162e-05 
5.401418563087963e-05 
4.397070788257578e-05 
3.551117297804045e-05 
3.608623088754023e-05 
3.049802442278594e-05 
2.735162407682817e-05 
2.076723536171264e-05 
2.09470198472074e-05 
2.411162049001964e-05 
2.333664334787174e-05 
1.766004388583551e-05 
2.134700904923002e-05 
2.255408586826563e-05 
1.684256686969703e-05 
1.644708866488561e-05 
1.726321580822615e-05 
1.987944337563611e-05 
1.813020886518002e-05 
1.84615584188371e-05 
1.757661982130862e-05 
1.396172101810435e-05 
1.54556316597542e-05 
1.11152841170289e-05 
1.100399791292586e-05 
9.56241495061e-06 
9.845570285827608e-06 
5.886866527757659e-06 
8.019855359978416e-06 
7.368872004016268e-06 
6.626900572980458e-06 
6.439755883041397e-06 
6.706194656888077e-06 
5.89438613121563e-06 
5.561590685148949e-06 
4.975967171215553e-06 
4.526935517475721e-06 
4.187216581192296e-06 
3.818089544245148e-06 
3.959500476960864e-06 
3.215795365192692e-06 
2.532529042484938e-06 
2.650125067710209e-06 
1.819899293999521e-06 
1.818644849118619e-06 
2.874044801034381e-06 
2.612718458623552e-06 
2.080853117131318e-06 
1.423987209717518e-06 
1.460922322283803e-06 
1.296306946364415e-06 
1.394588920240399e-06 
1.179841945755155e-06 
6.695213023807358e-07 
9.052666742327691e-07 
5.092515008488267e-07 
1.565693018697252e-07 
2.658443272068336e-07 
2.339934316097088e-07 
-2.940468391574973e-07 
-3.321267788065071e-07 
-6.651810937231887e-07 
-6.700293793814162e-07 
-5.42364321181115e-07 
-8.356662650789678e-07 
-7.356827184623987e-07 
-6.138667451154435e-07 
-7.775697270954888e-07 
-8.104244377098424e-07 
-1.002028917255674e-06 
-9.63682773000611e-07 
-8.099232405427774e-07 
-1.156804254496492e-06 
-6.740211634766978e-07 
-9.3496444127885e-07 
-7.960610196723522e-07 
-1.051702972375261e-06 
-1.106476885272965e-06 
-1.163321592697687e-06 
-1.047820786263442e-06 
-9.673991358212672e-07 
-9.725792688477159e-07 
-9.082807878117797e-07 
-8.435279337611208e-07 
-7.421211721198775e-07 
-6.981746325383802e-07 
-5.483528509611798e-07 
-2.954553632388265e-20 
-0.0001050040356127384 
