solver_type L2R_LR
nr_class 2
label 0 1
nr_feature 105
bias 1
w
0 
0.001475545059813242 
0.00117295400187179 
0.0003797781145763871 
6.466764193051244e-05 
-1.177560261737594e-05 
3.199033955861642e-05 
3.978017732576645e-05 
1.255424793330251e-05 
-6.26814499638891e-05 
-0.0001243660138492451 
-9.602652756715346e-05 
-6.518357550932081e-05 
-0.0001145941613394701 
-0.0001081751693676123 
-7.436922738597101e-05 
-7.76909564079523e-05 
-6.163310111704202e-05 
-6.430893279700275e-05 
-6.153534078328874e-05 
-6.895964815354618e-05 
-7.303544441025519e-05 
-6.088599942569449e-05 
-3.810876546947578e-05 
-3.948590764836891e-05 
-5.065926832238411e-05 
-5.889710499388905e-05 
-6.018565365285852e-05 
-5.990377762321717e-05 
-5.371070404564837e-05 
-5.103720532509869e-05 
-5.078065693749641e-05 
-4.37673069460674e-05 
-4.60002409048662e-05 
-3.77069136203735e-05 
-4.165810651817209e-05 
-3.894002856971468e-05 
-3.534863922281266e-05 
-3.224241805068527e-05 
-3.187696115105445e-05 
-2.80644456777234e-05 
-2.640038570532449e-05 
-2.662430074239669e-05 
-2.365269727792764e-05 
-1.956243551382643e-05 
-1.786197214298255e-05 
-1.722250217526219e-05 
-1.475331707560421e-05 
-1.458824975836937e-05 
-1.428109850352673e-05 
-1.322379540820563e-05 
-1.251703994881592e-05 
-1.270494850342832e-05 
-1.051444871800592e-05 
-1.013055284927201e-05 
-1.048738635753827e-05 
-1.011387143455888e-05 
-8.371910324001765e-06 
-7.600009845025542e-06 
-7.08798841922695e-06 
-7.101207753400282e-06 
-7.048003166060464e-06 
-6.557326686342664e-06 
-6.08105994691202e-06 
-5.285659235354675e-06 
-5.400453162851302e-06 
-5.422853566341117e-06 
-5.404561722123714e-06 
-5.098158449360599e-06 
-5.271218325370016e-06 
-5.367631429111378e-06 
-5.206751453054173e-06 
-4.646656233001254e-06 
-4.51984118753883e-06 
-4.854501540026669e-06 
-4.661253226966831e-06 
-4.019488041137494e-06 
-3.848158795758895e-06 
-3.699947909402194e-06 
-3.799482631732484e-06 
-3.457946880602728e-06 
-3.286459388098545e-06 
-3.256268984801545e-06 
-3.177323714248421e-06 
-2.849258111020713e-06 
-2.592345120632235e-06 
-2.532199086184325e-06 
-2.502847274120462e-06 
-2.616429000337924e-06 
-2.465128967391911e-06 
-2.205074915157949e-06 
-2.157028685668395e-06 
-1.915983501094305e-06 
-1.805065154770494e-06 
-1.812667611717854e-06 
-1.780235863516272e-06 
-1.443736645268877e-06 
-1.264473693146687e-06 
-1.398733169579607e-06 
-1.105374440668885e-06 
-8.537026969119632e-07 
-1.090326255917111e-06 
-7.203266356910978e-07 
-6.638924259455064e-07 
-3.240931737707093e-19 
-4.49761599316019e-05 
