solver_type L2R_LR
nr_class 2
label 0 1
nr_feature 105
bias 1
w
0 
0.0006829552209734678 
0.0008466363029232981 
0.0001977424727081113 
0.0003406241380279063 
0.0001738550677989279 
0.0002134470649779615 
0.0001253876091012363 
0.0001314074954175982 
8.572232582153057e-05 
5.521071691962513e-05 
6.687103313359197e-05 
3.65928976631503e-05 
4.110377689886171e-05 
5.571039418926439e-05 
4.559961550353675e-05 
3.214698622796912e-05 
3.495257567514359e-05 
3.111153894984355e-05 
2.980492955476895e-05 
1.900538254105161e-05 
2.504329836694129e-05 
2.657588585174417e-05 
2.666172114260317e-05 
1.37849480739363e-05 
1.727457344066823e-05 
2.087448432602376e-05 
1.157483833873005e-05 
1.134320259430968e-05 
1.902076334788609e-05 
1.758330246619315e-05 
1.585471684670218e-05 
1.809875997660532e-05 
1.619623222667073e-05 
1.628213337045295e-05 
1.291021853631975e-05 
1.395811118003661e-05 
1.211741206221465e-05 
1.05133177195335e-05 
1.149696283797711e-05 
9.866957248408344e-06 
8.63769588510843e-06 
9.408550735665762e-06 
9.242556397346915e-06 
1.070593959174595e-05 
9.536393795848754e-06 
6.511877163203027e-06 
6.782541117139491e-06 
7.9311571600857e-06 
7.954468636665573e-06 
6.846833032857657e-06 
6.39800915993017e-06 
6.93134494883817e-06 
6.082174656160593e-06 
5.431656678853978e-06 
4.152847272640856e-06 
4.393140000040452e-06 
3.657544780104445e-06 
3.19246721007973e-06 
2.76126403805537e-06 
3.063048550771988e-06 
3.012038793875863e-06 
2.674914619681996e-06 
2.484448452892631e-06 
2.291698115577558e-06 
2.101230358341884e-06 
2.054012110954813e-06 
2.301354993966156e-06 
1.97718507142208e-06 
2.122670201890256e-06 
1.944828029296271e-06 
1.482523860369087e-06 
1.336169665481168e-06 
1.158542040637071e-06 
9.280247032318863e-07 
1.167567458627695e-06 
1.100578347878073e-06 
7.026580076406558e-07 
4.411721153570223e-07 
4.555687459033243e-07 
5.387449063331342e-07 
5.124004064185033e-07 
1.497730713909211e-07 
1.476812739691334e-07 
1.275000903892411e-07 
-1.104889309653319e-07 
6.940933667454261e-08 
-3.654832367929146e-08 
-8.494014634197e-08 
-2.8216632744532e-07 
-2.190397827491037e-08 
2.666946118592827e-08 
-2.407362121077482e-07 
-1.433396523696687e-07 
-3.84323331777275e-07 
-2.392479650226177e-07 
-2.603494790935035e-07 
-4.10561349748109e-07 
-3.352264318155387e-07 
-4.431586764761719e-07 
5.158593989067443e-08 
1.968300347581663e-08 
-9.147696787270803e-08 
-2.738677577556461e-07 
-3.173687938967644e-20 
-4.208786251688646e-05 
