solver_type L2R_LR
nr_class 2
label 0 1
nr_feature 105
bias 1
w
0 
0.0001001895706910607 
0.0001175008876556236 
-0.0001208476184129785 
3.831487346506896e-05 
1.516314074239226e-05 
9.910366411418854e-06 
-6.065239169720548e-06 
-7.892083731609585e-05 
-9.921092396725841e-05 
-0.0001179714079869568 
-0.0001096863152245663 
-0.0001080920269907711 
-6.303780158534221e-05 
-6.577991675167629e-05 
-6.482219347393487e-05 
-6.32465799085441e-05 
-8.613342639442107e-05 
-6.470393176019588e-05 
-6.070391751999877e-05 
-6.048851844302453e-05 
-4.674266123059592e-05 
-4.891120639868742e-05 
-3.924802594117545e-05 
-4.373701837954178e-05 
-3.635736025398734e-05 
-3.986421375877236e-05 
-3.773009271971708e-05 
-3.306345694303237e-05 
-2.984149778952691e-05 
-2.696080258582278e-05 
-2.563251754679389e-05 
-2.679415042575667e-05 
-2.508501839338628e-05 
-2.314695238836698e-05 
-2.186876956813064e-05 
-2.672654760038826e-05 
-1.941635473743355e-05 
-2.174775013527342e-05 
-2.341272455007136e-05 
-1.888341721270808e-05 
-1.803609440979896e-05 
-1.538768146694255e-05 
-1.479937407933276e-05 
-1.294636613624099e-05 
-1.265362152856169e-05 
-1.119230328583346e-05 
-1.01889352916879e-05 
-1.242177898095109e-05 
-9.707969531225179e-06 
-9.452306045744711e-06 
-8.518263072968609e-06 
-6.806233551083703e-06 
-7.705214902227059e-06 
-5.8164745507671e-06 
-5.526201956428979e-06 
-4.075920877876469e-06 
-3.820134467583496e-06 
-4.893876976969073e-06 
-4.155592850815719e-06 
-3.735780026194443e-06 
-3.947422380876526e-06 
-3.550893593199903e-06 
-3.175778686501752e-06 
-2.366147791997573e-06 
-2.306126283897902e-06 
-2.070065885279864e-06 
-2.315372772852889e-06 
-2.267554117737636e-06 
-2.54831789388685e-06 
-2.154011654502817e-06 
-2.273397089303994e-06 
-2.400841258325309e-06 
-2.09433322336078e-06 
-1.917551461274529e-06 
-1.694586183828692e-06 
-1.345904308613279e-06 
-1.562595166623895e-06 
-1.516167083160979e-06 
-1.230691517387438e-06 
-1.586114256169223e-06 
-1.167275439010436e-06 
-1.228148857693776e-06 
-1.311812984571082e-06 
-1.084749088483906e-06 
-1.091427439068801e-06 
-1.354952231625635e-06 
-9.13044131879033e-07 
-6.589992102495035e-07 
-7.266788065382778e-07 
-6.5883096266611e-07 
-5.397532763143403e-07 
-7.052148028965208e-07 
-4.103531344585745e-07 
-4.330023536566964e-07 
-4.042475171711564e-07 
-3.075769662698023e-07 
-2.318411112723374e-07 
-3.04103271946911e-07 
-3.701775021130407e-07 
-2.170009112326665e-07 
-5.17436051095157e-08 
-5.138378932824964e-09 
1.16142758531306e-07 
-7.763856325620891e-20 
1.934483966977179e-06 
