solver_type L2R_LR
nr_class 2
label 0 1
nr_feature 105
bias 1
w
0 
-0.0002896500749810517 
-0.0007040203892560695 
-0.0002683836116700357 
-0.000114198935133687 
-5.771737732697986e-05 
2.134693047775987e-05 
8.904247636190029e-05 
7.475200175066266e-05 
3.051540202353362e-05 
3.433578781543186e-05 
1.242803499583547e-05 
3.877157704472881e-05 
3.419416912229837e-06 
9.000545662969231e-06 
8.823742191457113e-05 
5.802464219825842e-05 
3.59474733167039e-05 
1.643679259875612e-05 
4.181147881945878e-05 
3.302387801886737e-05 
2.865013771427116e-05 
1.798163212009203e-05 
1.421003076942329e-05 
1.846372169925719e-05 
1.746314348220006e-05 
2.306863000635921e-05 
2.407906139540854e-05 
2.602249850410316e-05 
2.637390513549436e-05 
1.961169189847355e-05 
1.61042174898586e-05 
2.240845606571431e-05 
1.675291442983885e-05 
1.794673485369397e-05 
1.967206301073099e-05 
2.013732814259332e-05 
1.881029877209567e-05 
1.815187494747286e-05 
2.09457915192483e-05 
1.808115952066574e-05 
1.66283721647912e-05 
1.593709774239603e-05 
1.49412491772906e-05 
1.242374388461503e-05 
1.177405313934888e-05 
7.626258314108466e-06 
1.012017171624571e-05 
1.075525662813178e-05 
1.17204255154767e-05 
1.071185378871416e-05 
9.424930565774626e-06 
7.888004911281883e-06 
7.389101075311489e-06 
7.257775134837311e-06 
7.025533362672804e-06 
6.61938306756029e-06 
6.194469399071976e-06 
7.061787742456866e-06 
6.299950438645079e-06 
5.939243014950248e-06 
5.381254992351386e-06 
5.943944293969718e-06 
5.116163482531349e-06 
4.987846866699625e-06 
5.233374067003343e-06 
4.8509377671822e-06 
4.199693610888106e-06 
3.413740881656088e-06 
3.665344370784398e-06 
3.177067466051243e-06 
3.305123339511589e-06 
2.93921973778201e-06 
2.890887285343833e-06 
3.012963372704771e-06 
2.272651015651474e-06 
2.299296713399022e-06 
2.233917179512074e-06 
1.569217326689667e-06 
1.62520188543405e-06 
1.475556399882183e-06 
1.502807075769024e-06 
1.185796535879149e-06 
1.581741133458753e-06 
1.514263312232414e-06 
1.697880568056776e-06 
1.382291288280607e-06 
1.535291205868588e-06 
1.319096464795662e-06 
1.160841848311658e-06 
1.113061661622684e-06 
8.56241528452425e-07 
1.024961342820212e-06 
9.140057297837883e-07 
5.493372853217363e-07 
5.225548142013722e-07 
8.115061507725863e-07 
6.574318624070797e-07 
6.043094824500099e-07 
4.528317647594705e-07 
7.052603946643215e-07 
5.322208570818759e-07 
5.103785065179817e-07 
3.358796476938255e-07 
9.993446999232788e-20 
2.14571773343773e-05 
