solver_type L2R_LR
nr_class 2
label 0 1
nr_feature 105
bias 1
w
0 
0.001137254308580959 
0.001065561356861054 
0.0001703701235963559 
2.03851601981333e-05 
-7.609701954913603e-06 
-3.235727829617387e-05 
-4.376866327188967e-05 
-2.040811265639736e-05 
-4.165681323486159e-05 
-5.604683604144289e-05 
-5.615191943988547e-05 
-3.987700938651539e-05 
-5.278677468946817e-05 
-3.633524555155158e-05 
-4.678387930193314e-05 
-2.907665715722921e-05 
-3.928431028625427e-05 
-4.537815115003265e-05 
-3.617802142189181e-05 
-5.082650302786875e-05 
-4.563554511875841e-05 
-4.285089237353306e-05 
-5.282588956260173e-05 
-5.390914767222476e-05 
-4.929107867320969e-05 
-4.447635336987551e-05 
-4.263290132887508e-05 
-3.665730258520411e-05 
-3.58146937129786e-05 
-4.043998345958846e-05 
-3.468254829956574e-05 
-3.919960661626185e-05 
-3.468288935963968e-05 
-3.292365949116889e-05 
-3.530264937981835e-05 
-2.985235725465719e-05 
-3.391913880470829e-05 
-3.354184365125801e-05 
-3.018289775788966e-05 
-2.909302369046533e-05 
-2.835915302434078e-05 
-2.574014969571111e-05 
-2.540081063461686e-05 
-2.085479823317251e-05 
-1.777732683668931e-05 
-1.774195648107234e-05 
-1.653654605993884e-05 
-1.489414523564921e-05 
-1.531614612792458e-05 
-1.49979559746039e-05 
-1.362991851242924e-05 
-1.171481240449433e-05 
-1.178204864366419e-05 
-1.096416994277431e-05 
-1.101889377632931e-05 
-1.067478462072623e-05 
-9.621447480295861e-06 
-9.757498692862496e-06 
-9.714150660384009e-06 
-8.730637442188444e-06 
-8.129944335985134e-06 
-8.434503560886736e-06 
-8.133069492881904e-06 
-8.147562150627031e-06 
-7.499482692568608e-06 
-7.325039581932173e-06 
-6.962358550610823e-06 
-6.322857133287831e-06 
-5.763978451912142e-06 
-5.209917723630745e-06 
-5.25528464992228e-06 
-5.115537405910597e-06 
-4.643937193360262e-06 
-4.930115378226131e-06 
-4.168023168664354e-06 
-4.299328595835024e-06 
-4.129400158028851e-06 
-4.034953111732959e-06 
-3.926577775012725e-06 
-3.479412334376166e-06 
-3.291038343318863e-06 
-3.549687133403736e-06 
-3.438590259864498e-06 
-2.961591267824937e-06 
-3.185036189966422e-06 
-3.041472908333936e-06 
-2.777486581946919e-06 
-2.504730868549838e-06 
-2.482962154017348e-06 
-2.347262617992498e-06 
-2.235072933400867e-06 
-2.337984313605447e-06 
-1.920672817424773e-06 
-1.970849924966181e-06 
-1.784006177182909e-06 
-1.721620776509767e-06 
-1.692319034465659e-06 
-1.483849205682425e-06 
-1.65033658431694e-06 
-9.875305829699269e-07 
-1.007258867261941e-06 
-8.155084871529325e-07 
-7.577689167708041e-07 
-2.802622342595059e-19 
-4.143398149624617e-05 
