solver_type L2R_LR
nr_class 2
label 0 1
nr_feature 105
bias 1
w
0 
0.001088015878840451 
0.001317453051816049 
0.0006060232102995966 
0.0003455515069647726 
0.0002186401947667513 
0.0002209535653969092 
0.0001346290016886563 
0.0001621858129551355 
7.518802161184096e-05 
-1.969971251940345e-05 
9.752370206076539e-06 
3.803410363504423e-05 
4.337790052523855e-05 
2.349694600114167e-05 
2.631208923759102e-05 
2.17840076235029e-05 
2.052528237577672e-05 
1.840838555621273e-05 
3.031132652356999e-06 
-1.08077427442752e-05 
-9.0917353164601e-06 
2.035674574464099e-06 
4.499987751258776e-06 
1.170950001868879e-05 
7.704446749314493e-06 
2.37934012885033e-06 
-1.180201443552849e-05 
-6.129000860364882e-06 
-5.892521542778322e-06 
-1.508801090950355e-06 
-1.249664297639542e-06 
-2.070823636652344e-06 
-7.705616803941159e-06 
-9.042477433215418e-06 
-6.874864049467474e-06 
-4.536665157503222e-06 
-5.093409020670978e-06 
-7.036976840376242e-06 
-2.874537337168801e-06 
-2.677777484227254e-06 
-2.592323355811934e-06 
-1.889750634649549e-06 
-2.67711045018693e-06 
-2.742762583080085e-06 
-1.76795401966059e-06 
-3.607357139907099e-06 
-2.59517877196048e-06 
-1.886374665855992e-06 
-2.151612437495414e-06 
-8.578364454054374e-07 
-1.150620399614804e-06 
-6.120860739322997e-07 
-1.450273205795173e-06 
-9.164542746298422e-07 
-1.112971546289447e-06 
-1.836068822464938e-06 
-1.380930723700806e-06 
-1.53616163513583e-06 
-2.075237952323916e-06 
-1.350859877055022e-06 
-1.401893243634128e-06 
-1.670852391689554e-06 
-1.888091142436124e-06 
-9.848787779904649e-07 
-1.180646471789376e-06 
-1.168165390723636e-06 
-6.34790825906259e-07 
-9.605353251006013e-07 
-8.504730097447325e-07 
-9.387094535181224e-07 
-8.958929317984141e-07 
-1.242032993713087e-06 
-1.382438097894504e-06 
-1.258581361927462e-06 
-1.355266408041913e-06 
-1.363225400016219e-06 
-1.494589461043425e-06 
-1.790282364884433e-06 
-1.309685158348195e-06 
-1.786178428335296e-06 
-1.765946910559424e-06 
-1.765294838161547e-06 
-1.534632621581704e-06 
-1.906211279973524e-06 
-1.886931584848541e-06 
-1.744218306718499e-06 
-1.58530506251693e-06 
-1.438678337598755e-06 
-1.465094951910521e-06 
-1.231752790041585e-06 
-1.119766598169965e-06 
-1.336183982726595e-06 
-1.204706192962086e-06 
-1.115520463453909e-06 
-1.0015026349227e-06 
-9.841202358383854e-07 
-1.115621244732168e-06 
-9.913819301995038e-07 
-1.102574829552814e-06 
-7.06183370812513e-07 
-6.851323998231535e-07 
-5.746868703273974e-07 
-4.739473473043719e-07 
-8.271758898417538e-20 
-6.147895408770529e-05 
