solver_type L2R_LR
nr_class 2
label 0 1
nr_feature 105
bias 1
w
0 
0.001881637670103674 
0.001780797176359776 
0.0009962337539953347 
0.0002706100302316054 
0.0001460120215980907 
7.32138568722749e-05 
4.688368681284948e-05 
7.835008269490396e-05 
3.213309301144156e-05 
-6.056421312404028e-05 
-6.728946709841986e-05 
-3.743809024392244e-05 
-5.409602988401247e-05 
-4.677939156047828e-05 
-4.726420081671332e-05 
-6.820676046733994e-05 
-5.899893372020308e-05 
-5.283667179527692e-05 
-5.25773502227439e-05 
-7.571369502119514e-05 
-5.455458600560606e-05 
-5.617890829333612e-05 
-6.25536855395221e-05 
-5.555323292406491e-05 
-6.081584912477828e-05 
-5.573795877772418e-05 
-5.935031023507504e-05 
-5.118991014022558e-05 
-5.085902688428018e-05 
-4.749548144493965e-05 
-4.430297243634246e-05 
-4.871786457012034e-05 
-4.798947370917278e-05 
-4.967602029274921e-05 
-4.528710099415452e-05 
-3.949789303013378e-05 
-3.612823773853395e-05 
-3.765633459001237e-05 
-3.198333131752344e-05 
-2.819523736809772e-05 
-2.779890916265928e-05 
-2.583725122295469e-05 
-2.377181905808653e-05 
-2.167991753220112e-05 
-1.927628563658049e-05 
-1.979211187640459e-05 
-1.865682151215997e-05 
-1.684946337795735e-05 
-1.764733749448207e-05 
-1.639457367661903e-05 
-1.600788421355846e-05 
-1.45861961900479e-05 
-1.470392943587504e-05 
-1.238409691811535e-05 
-1.168272477338192e-05 
-1.145990716342731e-05 
-1.058145311285639e-05 
-1.011562810234016e-05 
-9.836409998326097e-06 
-9.153292267300836e-06 
-9.190749078653784e-06 
-8.684260908044383e-06 
-9.07812500413962e-06 
-8.171773766337377e-06 
-8.363776222920597e-06 
-8.221970940329374e-06 
-7.258909657112831e-06 
-7.24332943186292e-06 
-6.739952882295112e-06 
-6.517748579320995e-06 
-5.994238569280175e-06 
-6.181996510113349e-06 
-5.921543128041168e-06 
-5.800710793453618e-06 
-5.371061482055077e-06 
-5.473055871421815e-06 
-5.173729095965984e-06 
-5.179710452150527e-06 
-4.731426458845315e-06 
-5.133817814079224e-06 
-4.889060923255561e-06 
-4.607989435154736e-06 
-4.243666441700581e-06 
-4.534345681608336e-06 
-4.059728388389427e-06 
-3.893758192458145e-06 
-3.501922896977935e-06 
-3.330272164877036e-06 
-3.08022429075408e-06 
-3.037245679767556e-06 
-2.799371260505481e-06 
-2.983638274037725e-06 
-2.693190017361436e-06 
-2.51958676343783e-06 
-2.51484356857572e-06 
-2.336032989429117e-06 
-2.022077032595248e-06 
-1.97324806223292e-06 
-2.011631834778799e-06 
-1.659090469325638e-06 
-1.532764667172077e-06 
-1.194491531599954e-06 
-1.187288592935043e-06 
-3.199339733448444e-19 
-8.109730873345662e-05 
