solver_type L2R_LR
nr_class 2
label 0 1
nr_feature 105
bias 1
w
0 
-0.002710427946679541 
-0.001733065287097519 
-0.001233435101482018 
-0.0003768590452194306 
-0.0003494054398852213 
-0.0002665614917535675 
-0.0001306973183517671 
-0.0001157821938143031 
-5.04036188937275e-05 
-6.404955346656838e-05 
-5.96983287078183e-05 
-5.604350611043094e-05 
-2.585540967916399e-05 
-1.529241185740716e-05 
-2.311629297635991e-05 
-1.40449248065273e-05 
-1.345213317004835e-05 
-3.624466092197177e-05 
-2.121435487886495e-05 
-2.502917036552098e-05 
-1.823979645729534e-05 
-3.190331122591985e-05 
-2.399862004859935e-05 
-2.065981778434618e-05 
-1.244225874187487e-05 
-7.128747924117294e-06 
1.153925292258629e-06 
4.288650383473797e-06 
-1.266051746959972e-06 
1.343822789624053e-05 
1.871601072313464e-05 
1.447451634230002e-05 
1.168325500615507e-05 
1.133714085647817e-05 
1.031828867901506e-05 
1.503962723286065e-05 
1.286558232543135e-05 
1.839809743656004e-05 
1.786981666300601e-05 
1.562583153405376e-05 
1.531537485677088e-05 
1.965041937956138e-05 
1.58629655650872e-05 
1.487534331100098e-05 
1.561871973302084e-05 
1.254784454360687e-05 
1.466527248027715e-05 
1.465162430430711e-05 
1.213846841493627e-05 
1.196559263498928e-05 
1.156170596392521e-05 
1.071542398089189e-05 
1.202547914669682e-05 
1.171610369985339e-05 
1.264020673580244e-05 
1.143895772698578e-05 
1.148975167008005e-05 
1.106112036309624e-05 
1.090919011702359e-05 
1.014381256206472e-05 
9.707427076759879e-06 
1.001583982379936e-05 
9.409129670510202e-06 
8.961068572398363e-06 
8.160228445425801e-06 
7.385291771734076e-06 
7.682799482211357e-06 
7.151407641172093e-06 
6.740139132645277e-06 
7.185663151976082e-06 
6.755395891755925e-06 
6.371796159208345e-06 
5.892434651466562e-06 
5.719497065852641e-06 
5.985936602473267e-06 
5.895658952607497e-06 
5.645331023819661e-06 
5.288313292360451e-06 
5.155473894208362e-06 
4.663554825129788e-06 
4.500362697993568e-06 
4.489627751005558e-06 
4.30599093295549e-06 
4.284559155620661e-06 
4.308171053370482e-06 
4.234601287863161e-06 
4.184712943148021e-06 
4.591278286527178e-06 
4.056124524148683e-06 
3.742253891926645e-06 
3.423807003284946e-06 
3.322950614755074e-06 
3.066236000628847e-06 
3.279059724084624e-06 
2.945632893348117e-06 
2.824454056181784e-06 
2.664907561940317e-06 
2.353217248681375e-06 
2.358118068074141e-06 
2.160148901224062e-06 
1.959211788861816e-06 
1.633995349134727e-06 
1.461145532305354e-06 
2.744314495735593e-19 
0.0001325710747683776 
