solver_type L2R_LR
nr_class 2
label 0 1
nr_feature 105
bias 1
w
0 
-0.001075948442928788 
-0.0008046127895306675 
-0.00058967454866241 
-5.662950178148579e-05 
-0.000100145666244948 
-1.763832458548964e-05 
-2.528500697771694e-05 
-7.566724325082636e-06 
2.513907495099039e-05 
9.086594412823358e-05 
0.0001230349492268618 
0.0001179037070444394 
7.780887524338523e-05 
4.652532537145197e-05 
0.0001039871570716313 
8.281811982335053e-05 
7.13918012592771e-05 
6.633437243882545e-05 
5.499307945040207e-05 
5.926018735465581e-05 
6.257648597417689e-05 
5.785545261617234e-05 
5.503137170255817e-05 
5.900084086488801e-05 
4.162441479832352e-05 
4.341258067103813e-05 
5.192832954412989e-05 
5.153684799642134e-05 
5.114918935239929e-05 
4.840660544500137e-05 
4.856830641181471e-05 
5.010014143655548e-05 
4.360295774278103e-05 
4.255282653118518e-05 
4.512323374940456e-05 
4.255043048988916e-05 
4.227125008416812e-05 
4.123166447817536e-05 
3.882555136388776e-05 
3.725909544676593e-05 
3.690982861440473e-05 
3.42383870446174e-05 
3.381315684760296e-05 
3.134125180748752e-05 
2.770547337794489e-05 
2.734735288312428e-05 
2.478337788367907e-05 
2.324752929900611e-05 
2.31110025241517e-05 
2.1713101681791e-05 
2.087970569465233e-05 
1.891690149559158e-05 
1.735673868442163e-05 
1.629065139308238e-05 
1.668326003156073e-05 
1.529403776023308e-05 
1.41934446773962e-05 
1.410259729013386e-05 
1.368799295248303e-05 
1.293515833428546e-05 
1.227749192162479e-05 
1.155640247200168e-05 
1.047780613526773e-05 
1.03053223499814e-05 
1.063108155368794e-05 
9.124468119010256e-06 
9.326493359306171e-06 
8.710338391284486e-06 
8.077463743601035e-06 
7.523396481103649e-06 
7.298064694286621e-06 
7.13126117306589e-06 
7.036108550235956e-06 
6.662318837598509e-06 
6.438887228183366e-06 
6.197203061974243e-06 
5.770996594513666e-06 
5.346557193582621e-06 
5.374803337256667e-06 
5.171260548277452e-06 
4.721848382477516e-06 
4.741772896508405e-06 
4.183164618945513e-06 
4.142866616982123e-06 
4.037422090597179e-06 
3.669517635877939e-06 
3.508413387439946e-06 
3.121671018987756e-06 
2.95436933341647e-06 
2.758016678895608e-06 
2.585312625765331e-06 
2.475367347182081e-06 
2.089666100627975e-06 
2.157912144903595e-06 
2.029283609340309e-06 
1.818824599864e-06 
1.525160929049126e-06 
1.681465618152096e-06 
1.348883059098551e-06 
1.15839542369983e-06 
1.175102070188553e-06 
1.12337318783716e-06 
5.479039706134714e-07 
2.916660899661381e-19 
4.416787953879677e-05 
