solver_type L2R_LR
nr_class 2
label 0 1
nr_feature 105
bias 1
w
0 
-0.0008189769869913156 
-0.0005610300188794995 
-0.0003450608975647031 
-0.0001751570354574175 
-0.0001653831017595301 
-0.0001173798018138568 
-7.393384939438767e-05 
-8.63562600561981e-05 
-5.984963284305056e-05 
-5.978614243712906e-06 
5.977203679289593e-06 
-5.450760194701181e-05 
-7.690532805168549e-05 
-7.513222669982604e-05 
-5.718597712428762e-05 
-5.146566840282946e-05 
-6.769445296247798e-05 
-4.669466708019644e-05 
-5.118198194812806e-05 
-5.570002517374139e-05 
-5.596576417715032e-05 
-4.310323168278894e-05 
-5.545514488927368e-05 
-5.211772154482904e-05 
-5.515329346420128e-05 
-5.629656144984649e-05 
-6.005815069368693e-05 
-5.178170538129251e-05 
-5.533630195433674e-05 
-5.980419312687078e-05 
-5.877179035517383e-05 
-5.182736585697628e-05 
-5.195047584303308e-05 
-4.450920063177934e-05 
-4.658898002632171e-05 
-4.320340294120308e-05 
-4.43359128609855e-05 
-4.243222755497567e-05 
-4.241715065152103e-05 
-4.202258287707148e-05 
-3.976023546303701e-05 
-3.811664211832122e-05 
-3.557582930174387e-05 
-3.196880178432255e-05 
-3.168629340662617e-05 
-2.958442784339167e-05 
-2.72640974410594e-05 
-2.558840310350741e-05 
-2.372054542418192e-05 
-2.203092238136122e-05 
-2.018585618335082e-05 
-1.880965049011105e-05 
-1.853600064545999e-05 
-1.803035255586129e-05 
-1.663153375523205e-05 
-1.444823323057629e-05 
-1.410419196306516e-05 
-1.345492518242139e-05 
-1.270665827885177e-05 
-1.08051390061609e-05 
-1.10774302943165e-05 
-9.870470366821148e-06 
-9.612023812119391e-06 
-9.235535677040296e-06 
-9.014574299104881e-06 
-8.523498366282036e-06 
-7.601775380240437e-06 
-6.648389324335812e-06 
-6.292528404031456e-06 
-6.489737766563943e-06 
-5.51854626608788e-06 
-5.619314094781521e-06 
-4.180179086444325e-06 
-4.576638034239285e-06 
-3.953147448208941e-06 
-3.456298481163021e-06 
-3.158474386993303e-06 
-3.007049559709132e-06 
-3.108444751102846e-06 
-2.549528752992643e-06 
-2.517092257493701e-06 
-2.295295747538584e-06 
-2.510139851306422e-06 
-1.891185653867237e-06 
-1.817115500526773e-06 
-1.554097928754977e-06 
-1.547111436180427e-06 
-1.324659461046586e-06 
-1.337583083457874e-06 
-1.075785035554859e-06 
-1.199495060486092e-06 
-8.41118601963861e-07 
-6.230149283503563e-07 
-4.869980069223692e-07 
-3.976462972703188e-07 
-2.493381509311582e-07 
-3.646187452633605e-07 
-3.379588859659433e-07 
-1.433194269867117e-07 
-5.123140280469536e-08 
6.517080392544461e-09 
-3.167855686394778e-07 
1.333557326691745e-07 
-1.627803461255335e-19 
4.044954214070001e-05 
