solver_type L2R_LR
nr_class 2
label 0 1
nr_feature 105
bias 1
w
0 
-0.001689301770761365 
-0.001070100501817175 
-0.0007648136957131646 
-7.135079673994461e-05 
-0.0001322245324100598 
-3.46090450669484e-05 
-7.141727450581157e-06 
1.576055485245712e-05 
1.243796053456008e-05 
9.265853163785605e-05 
9.488013105036865e-05 
4.402844151619869e-05 
5.770199302188883e-06 
-1.845682346494815e-05 
2.901797754797279e-05 
1.372185430969977e-05 
2.49359645966996e-05 
3.351680872730803e-05 
2.866198793174268e-06 
4.760436653384921e-06 
1.292457982676364e-05 
2.106493553356229e-05 
1.511773563063302e-05 
2.146646600834174e-05 
1.605488085952453e-05 
7.737680510938999e-06 
1.128783868180776e-05 
1.330509128023595e-05 
1.755779928871564e-05 
1.474797973060047e-05 
1.504670945572448e-05 
2.049265764402445e-05 
1.867136032702807e-05 
1.968932612549589e-05 
2.214860486726601e-05 
2.02533323005802e-05 
2.099245664115294e-05 
1.75662100975493e-05 
1.464459583190069e-05 
1.50874028870387e-05 
1.407745359165792e-05 
1.351005562279807e-05 
1.503965789157958e-05 
1.484363253985701e-05 
1.214004465939448e-05 
1.263754909388488e-05 
1.085644496706429e-05 
1.062084305104904e-05 
9.690753340981519e-06 
9.291504275219619e-06 
9.536533081101995e-06 
8.336773074706094e-06 
7.784738988275357e-06 
7.794427412670085e-06 
7.877518579644842e-06 
7.482884825211211e-06 
7.329009603786785e-06 
7.312680727966366e-06 
7.508233438190061e-06 
7.27010205431557e-06 
7.08916995096902e-06 
6.228541829710636e-06 
5.920108889152805e-06 
5.697217154390441e-06 
5.500676295891177e-06 
4.664039049995611e-06 
4.882910335663014e-06 
5.123977567663899e-06 
4.714974017746271e-06 
4.653223774975343e-06 
4.860195670520539e-06 
4.743974055215202e-06 
4.821345496717391e-06 
4.265469509766401e-06 
4.428816637341873e-06 
4.563568602588477e-06 
4.432096800075834e-06 
4.004248289920323e-06 
3.784377578802953e-06 
3.505641364753871e-06 
3.341078429325423e-06 
3.535668282542275e-06 
2.84930374553605e-06 
3.116188909532001e-06 
2.965424354237893e-06 
2.933105112565092e-06 
2.605827421759866e-06 
2.430536147995166e-06 
2.464960084724247e-06 
2.398660745348154e-06 
2.257574413660892e-06 
2.289650940160823e-06 
2.009755668093387e-06 
2.005729894404233e-06 
2.064933056921986e-06 
1.956514038448738e-06 
1.624628172727874e-06 
1.6217618784587e-06 
1.42812293258657e-06 
1.32871296425605e-06 
1.178741697296051e-06 
9.351838354439341e-07 
7.196063911199552e-07 
3.033220336866491e-19 
6.798898725207312e-05 
