solver_type L2R_LR
nr_class 2
label 0 1
nr_feature 105
bias 1
w
0 
0.0008886181479010025 
0.0007633338560209553 
0.0006314653449606964 
0.0002558313869948639 
0.0002737026423469406 
0.000300912679072528 
0.0002403929545124152 
0.0001980135833014478 
0.0001240307687576608 
0.0001325813535130052 
0.0001201617403115288 
8.839337774989314e-05 
9.452004962165043e-05 
7.120486868970893e-05 
0.0001085850430471067 
8.118242724721928e-05 
8.228437087768407e-05 
7.092894314460267e-05 
6.981011080761166e-05 
6.83522737244293e-05 
6.519436604816471e-05 
6.279228730590464e-05 
4.281703039026639e-05 
4.820157155056355e-05 
4.431236095248288e-05 
4.747007983288071e-05 
4.505807498168325e-05 
4.12815660465671e-05 
3.824803517768165e-05 
3.491724712983628e-05 
3.180004377464195e-05 
2.855028789652535e-05 
2.793057038908639e-05 
2.821160932000528e-05 
2.862384767623241e-05 
2.722578707677601e-05 
2.666424762529809e-05 
2.556029416475719e-05 
2.437335731058409e-05 
2.396930091422711e-05 
2.103423359012912e-05 
1.799941824994782e-05 
1.903311392651658e-05 
1.693551933761664e-05 
1.7149767052273e-05 
1.580788937398966e-05 
1.468169722306884e-05 
1.280362679231738e-05 
1.19554590900313e-05 
9.949269989108956e-06 
1.001942692158901e-05 
9.942599407307061e-06 
9.083432159442296e-06 
7.985334795089169e-06 
8.152700430428592e-06 
7.581936140707938e-06 
6.927342623531948e-06 
5.852812683664776e-06 
6.318359609845607e-06 
6.385743506854914e-06 
4.62222578941032e-06 
4.926328444639324e-06 
4.03497091009376e-06 
4.088401750893781e-06 
4.073670633446301e-06 
3.545326071065152e-06 
2.767463950262862e-06 
2.515137566186629e-06 
2.567998469586882e-06 
2.302800343525409e-06 
2.820870282513492e-06 
2.392733230516414e-06 
2.087659079108617e-06 
1.872965334614986e-06 
1.612956278559872e-06 
1.632897238332635e-06 
1.772988508262809e-06 
1.209002611300511e-06 
1.189787946613798e-06 
8.508752111810436e-07 
1.059568234128894e-06 
7.787179230293083e-07 
8.666583942829437e-07 
7.16857571620519e-07 
5.708430882972536e-07 
4.618797274606917e-07 
4.651178695733292e-07 
2.788337884032326e-07 
3.229711784456675e-07 
2.415816987561617e-07 
1.977887904102989e-07 
1.942276120695763e-07 
1.217719102487618e-07 
1.383762555092132e-07 
1.215087472058342e-07 
-6.057924347958744e-08 
1.453227029741388e-10 
-3.119645221238694e-08 
-2.663417113080618e-08 
-3.310351212114994e-07 
-3.848728288712117e-07 
-2.797621895006848e-07 
-7.197674904010678e-08 
1.559933492308969e-19 
-4.504175372971253e-05 
