solver_type L2R_LR
nr_class 2
label 0 1
nr_feature 105
bias 1
w
0 
0.00175141713868773 
0.001524426949665307 
0.001063246511567533 
0.0003016991237514919 
0.0002034330629243782 
0.0001263995891261733 
7.296039740563874e-05 
7.130027336609192e-06 
1.866282108606282e-05 
-1.406733781960319e-05 
-1.652189296299526e-05 
-6.692866166258682e-05 
-6.402727054123842e-05 
-3.667343687650347e-05 
-3.128309416983854e-05 
-4.649006078628389e-05 
-5.999333573915252e-05 
-3.777298925199925e-05 
-1.718706429777556e-05 
-3.019951962572948e-05 
-2.686244133683514e-05 
-2.471470608418729e-05 
-2.189160043292474e-05 
-2.101767160872622e-05 
-2.144774594336594e-05 
-3.572383017904712e-05 
-2.967669554496928e-05 
-3.233662706884888e-05 
-3.137233427278925e-05 
-3.283838918957849e-05 
-3.138308384561454e-05 
-2.820979681543424e-05 
-3.412860175834282e-05 
-3.037768671566845e-05 
-2.6684855452772e-05 
-2.55636983122462e-05 
-2.51064469381789e-05 
-2.338822097656372e-05 
-2.117839461106867e-05 
-2.20740160432062e-05 
-1.91833518740245e-05 
-1.944979833794145e-05 
-1.966397160766767e-05 
-2.006836021964338e-05 
-2.28894640875997e-05 
-1.899024834388331e-05 
-1.547734444347215e-05 
-1.281641096443078e-05 
-1.274323733582999e-05 
-1.331533949158969e-05 
-1.329423679108628e-05 
-1.341821170574e-05 
-1.305187602454416e-05 
-1.165973613627544e-05 
-1.108452360088177e-05 
-1.137414129916901e-05 
-1.071756577002392e-05 
-9.810191682313816e-06 
-1.000010678283926e-05 
-1.013778995897425e-05 
-9.445064390942894e-06 
-9.349090182528266e-06 
-8.739439095405076e-06 
-8.394362332873486e-06 
-8.243814290942974e-06 
-7.926586664770378e-06 
-8.10175500310745e-06 
-7.103094602923297e-06 
-6.998424144717012e-06 
-6.362376985459057e-06 
-6.083074035684781e-06 
-6.191273604683976e-06 
-5.8533515805442e-06 
-5.60992389146148e-06 
-5.077835529436399e-06 
-4.93240343112804e-06 
-4.97040259541592e-06 
-5.038384707982129e-06 
-4.659880122401713e-06 
-4.581219294139716e-06 
-4.258254592706696e-06 
-3.968566240060412e-06 
-3.966797507939257e-06 
-3.494614925226682e-06 
-3.559923647604769e-06 
-3.222758750457252e-06 
-3.116484138444035e-06 
-3.089213645242219e-06 
-2.996547299283627e-06 
-2.774342905077308e-06 
-2.535028134245996e-06 
-2.635391279735871e-06 
-2.456532926822665e-06 
-2.470419506051505e-06 
-2.232064518848028e-06 
-2.342220655908881e-06 
-1.98654815400346e-06 
-1.952063387613891e-06 
-1.82803827000105e-06 
-1.524103854949217e-06 
-1.193141447542622e-06 
-9.952463170884478e-07 
-8.88500722506828e-07 
-3.091967590966991e-19 
-8.38299036956489e-05 
