solver_type L2R_LR
nr_class 2
label 0 1
nr_feature 105
bias 1
w
0 
-0.000225824694392591 
0.0001039640370152825 
-0.0001572756304614809 
3.559636977606573e-05 
-2.233846976070232e-05 
-8.45704420818992e-05 
-0.0001338513088139276 
-9.358550649412868e-05 
-4.021365147824221e-05 
-1.60347528174384e-05 
5.582343297383166e-07 
2.01163797986961e-05 
-3.408372487381326e-05 
-1.954485015921319e-05 
-1.76685833077732e-05 
-2.232964249384748e-05 
-1.440163600626506e-05 
-1.391211447238913e-05 
-1.534496880842166e-05 
-2.328729713873431e-05 
-2.13860395222501e-05 
-7.853586636461775e-06 
-2.310510451175621e-05 
-2.758059878766418e-05 
-1.343492918739815e-05 
-9.25142170055528e-06 
-5.998988475563822e-06 
-6.360917242508208e-06 
-9.287252337814488e-06 
1.831047157865465e-06 
-7.075696296272493e-07 
-2.66552243714907e-06 
-2.168946929286314e-06 
-3.862143259966293e-06 
-1.101072658599456e-06 
-3.377010218054616e-06 
-2.707721248097513e-06 
-2.714637549773904e-06 
-3.965071686712487e-06 
-7.118424181547493e-07 
-3.55155628408336e-06 
-2.989874177770522e-06 
-5.008014731080234e-06 
-4.121773224439832e-06 
-3.13488154582495e-06 
-4.168911641162796e-06 
-5.17990378297549e-06 
-5.854281995421601e-06 
-6.551133911809882e-06 
-6.291549185736439e-06 
-6.198275018069968e-06 
-6.677437816308268e-06 
-6.413690326839298e-06 
-5.811219965953578e-06 
-4.710711506896051e-06 
-4.923591120043746e-06 
-4.754137357587283e-06 
-5.346119385882538e-06 
-4.300009716619143e-06 
-4.091688591851936e-06 
-3.42391798048103e-06 
-3.553038476708166e-06 
-3.82135887094227e-06 
-3.579538525572729e-06 
-3.064072407657862e-06 
-2.368694539818451e-06 
-2.411371339993571e-06 
-2.172557970869275e-06 
-2.2039138128555e-06 
-1.684568067807318e-06 
-1.790202715359594e-06 
-1.596152473965488e-06 
-9.392990613590576e-07 
-1.113945223117825e-06 
-7.025027962857653e-07 
-8.987174786175672e-07 
-1.292908377687004e-06 
-1.096134571733302e-06 
-1.076197782051281e-06 
-8.197204647370509e-07 
-8.476145454182813e-07 
-6.408696080749745e-07 
-5.383496693808828e-07 
-4.365309369695118e-07 
-3.47304766010546e-07 
-2.216581239084234e-07 
-3.607840819076966e-07 
-4.830754072004006e-07 
-4.333106020253868e-07 
-4.136290541903024e-07 
-5.209551456861202e-07 
-5.140038452814569e-07 
-3.871630758770191e-07 
-4.957825576114092e-07 
-3.297635167242959e-07 
-4.365155507255544e-07 
-3.534331944199008e-07 
-5.559071959970877e-08 
-2.136983218519795e-07 
-1.200515792462484e-07 
-1.5350953097374e-07 
-3.650938218128208e-07 
-3.466183135985602e-07 
-7.081689345453745e-20 
7.842707657599625e-06 
