solver_type L2R_LR
nr_class 2
label 0 1
nr_feature 105
bias 1
w
0 
0.0007147661145252606 
0.001004112040065524 
0.0008987570025150065 
0.0004879085734054212 
0.0004782814877240079 
0.0004430021260148235 
0.0004547004175478875 
0.000398267117789484 
0.0003645528995180217 
0.000319523393483439 
0.0002835733234729789 
0.0002700339896101174 
0.0002416093016068356 
0.0001817922729134711 
0.0001822244247613987 
0.0001760408406783365 
0.0001468916992575124 
0.0001414911090631442 
0.000122941590435872 
0.0001117377944245353 
0.0001060383571349531 
9.893372143139288e-05 
8.499260016968248e-05 
8.129744307078199e-05 
7.115760880197361e-05 
6.279597093590679e-05 
5.822880561741331e-05 
5.457853632217498e-05 
5.374219250122008e-05 
4.191663014846532e-05 
3.370385896991509e-05 
3.511058384402625e-05 
3.503312719651844e-05 
3.045004789778096e-05 
3.163280001404599e-05 
2.856962549671573e-05 
2.753000522606273e-05 
2.509186022631558e-05 
2.586482751104812e-05 
2.67041722242149e-05 
2.162870124037114e-05 
1.907641896522605e-05 
1.806053084566058e-05 
1.553524333063858e-05 
1.707651084937593e-05 
1.553375740066048e-05 
1.414846168491273e-05 
1.080928777443596e-05 
9.576542171127957e-06 
8.708991740150316e-06 
8.482890541310433e-06 
9.043643517212485e-06 
8.133884066794445e-06 
7.346297057027442e-06 
6.274509426108495e-06 
6.333238782210369e-06 
6.026762450530656e-06 
5.445041643269882e-06 
5.500074436099148e-06 
5.120333691679121e-06 
4.163490691592438e-06 
4.499426878695711e-06 
3.963370740224356e-06 
3.736684862869342e-06 
3.754135673531333e-06 
3.401184258568599e-06 
3.029027913899061e-06 
3.187914577707146e-06 
2.759972557210748e-06 
2.773900182785257e-06 
3.109968800474875e-06 
2.343645383018625e-06 
2.180600993563277e-06 
1.982281626319635e-06 
1.864324685350775e-06 
2.165453884830707e-06 
2.195365880597232e-06 
1.494459525991447e-06 
1.433295477887301e-06 
1.102087521597599e-06 
1.234606233755624e-06 
1.096731651678626e-06 
9.483365160215056e-07 
9.396526634483441e-07 
8.166391650082263e-07 
9.760484496890284e-07 
7.946908982677189e-07 
6.647181560025743e-07 
5.544334961184986e-07 
5.345833218439034e-07 
5.746861189548156e-07 
5.142076398313705e-07 
4.006015074067043e-07 
3.36637618870157e-07 
3.506749936281392e-07 
3.636014536016071e-07 
3.85485091893188e-07 
2.287545658961795e-07 
1.992375085210676e-07 
2.290721740603159e-08 
3.753224387135589e-08 
-1.013319820478436e-07 
1.97238887080582e-07 
1.558559699373171e-19 
-5.330433970872966e-05 
