solver_type L2R_LR
nr_class 2
label 0 1
nr_feature 105
bias 1
w
0 
0.001309541951654154 
0.001164614922555273 
0.0007028103385618695 
7.559910703811902e-05 
9.810007812449625e-05 
-3.736445399855855e-05 
-2.729444711568993e-05 
-2.89956539361152e-05 
-4.415588668893e-05 
-5.191489588756616e-05 
-1.833202648375392e-06 
-4.861958243830301e-06 
3.989812673642839e-05 
3.039644183179033e-06 
2.66504575392461e-05 
6.820385507602079e-06 
9.897381965214864e-06 
1.285741473579261e-05 
8.876896592774377e-06 
1.844679448670673e-05 
1.738474268076009e-05 
8.856103601234238e-06 
1.607035872827615e-05 
2.486920435438764e-05 
1.927407566854273e-05 
1.106357199211029e-05 
7.513888610580696e-06 
1.057009237291625e-05 
7.248781810830123e-06 
-1.435775376778674e-06 
-1.145806775289164e-06 
-3.30473987706669e-07 
1.912528586008059e-06 
1.445332948854825e-06 
2.334073628867826e-06 
4.005223822632602e-06 
4.775252216983915e-07 
1.03230704547426e-06 
-5.364891068807174e-07 
3.31213254213892e-07 
8.474289610973043e-08 
4.008337700755456e-07 
8.382999190819611e-07 
8.09443938309993e-07 
6.812196323394491e-07 
-7.160404941391022e-07 
1.185002009311862e-06 
1.201675328400241e-06 
-4.088712815398655e-07 
-6.192270837893085e-07 
-2.304801468041347e-06 
-6.720192865926337e-07 
4.374699357927699e-07 
-7.064976837561232e-07 
-3.574235313267998e-07 
-5.925871177737441e-07 
-1.001806119923952e-06 
-1.26284267875615e-06 
-1.16495157616523e-06 
-1.0723819167448e-06 
-1.315357088054475e-06 
-9.189073576637803e-07 
-1.23189505826007e-06 
-1.490777798289064e-06 
-1.083465842948295e-06 
-1.287666911120322e-06 
-7.941623416287154e-07 
-1.451040267240367e-06 
-1.282238572049813e-06 
-1.25996980679699e-06 
-1.413214371731556e-06 
-1.184647582549482e-06 
-8.424840174656056e-07 
-1.08714419355504e-06 
-1.068114435436226e-06 
-1.170122549675351e-06 
-1.342251801584433e-06 
-1.429301648295043e-06 
-1.370989156179661e-06 
-1.233411500500042e-06 
-1.386516736523087e-06 
-1.335396484966841e-06 
-1.18184434698192e-06 
-1.014875965938493e-06 
-1.15718587550749e-06 
-9.147130473431902e-07 
-1.229359849958623e-06 
-1.240666894242299e-06 
-1.379353290011067e-06 
-1.179937087787992e-06 
-9.773636444790278e-07 
-1.052489662289442e-06 
-9.814083570466084e-07 
-9.943919416966739e-07 
-7.995610646355954e-07 
-6.900572786489351e-07 
-6.026264923165575e-07 
-6.675528765372693e-07 
-5.453625957765002e-07 
-5.2825355221914e-07 
-3.490114383317464e-07 
-5.493766901099383e-07 
-5.467493231693983e-07 
-2.970569802761855e-19 
-5.944319391314625e-05 
