solver_type L2R_LR
nr_class 2
label 0 1
nr_feature 105
bias 1
w
0 
-0.003143998939700841 
-0.002469480393516453 
-0.001441679702300536 
-0.0004748747960620676 
-0.0004136590537660885 
-0.0003008285335379795 
-0.0001482972746367077 
-8.576578486361505e-05 
1.50856630513241e-05 
-1.144579864044127e-05 
-5.228979551430243e-06 
1.693519796308743e-05 
9.658235467227163e-06 
1.340896824174413e-05 
1.180103237230525e-05 
1.831841919705094e-05 
2.420146449411536e-05 
1.045934590921163e-05 
7.967105779343921e-06 
7.016813326282078e-06 
1.146976015892773e-05 
3.711541831338779e-06 
1.168149653397585e-05 
6.770527867002186e-06 
1.036850405479399e-05 
1.340733664246444e-05 
2.584593552790706e-05 
2.948999151961538e-05 
3.194375391983838e-05 
3.456045293492176e-05 
3.254288554218945e-05 
2.882469262478284e-05 
2.604757487162753e-05 
2.56703890024136e-05 
2.472344669343103e-05 
2.629358261949476e-05 
2.114021160631006e-05 
2.268134144787548e-05 
2.196260321682678e-05 
1.895290287634724e-05 
1.667520868907786e-05 
1.928764408858028e-05 
1.794514467438031e-05 
1.623646878296629e-05 
1.883170000979305e-05 
1.707926889298707e-05 
1.778359242283532e-05 
1.577651507095658e-05 
1.363299236655528e-05 
1.447988822505811e-05 
1.287829023383798e-05 
1.151823952010538e-05 
1.207517475979041e-05 
1.195122048223256e-05 
1.24713578462181e-05 
1.125210964689593e-05 
1.145192116703246e-05 
1.108477105222547e-05 
1.146399393267012e-05 
1.102596742477541e-05 
1.067944069845458e-05 
1.086516381742659e-05 
1.006065285705369e-05 
9.807416776978827e-06 
8.861111517256225e-06 
8.755905717727473e-06 
8.771694925862869e-06 
8.326255774622439e-06 
7.496708997309143e-06 
7.663399325388673e-06 
7.171269190733158e-06 
6.948204635647883e-06 
6.591231287312376e-06 
6.258089448042119e-06 
6.303818947200663e-06 
6.0500705341073e-06 
5.671719227615122e-06 
5.253713307326642e-06 
5.32980222863783e-06 
4.960392248517196e-06 
4.912739379827202e-06 
4.928708118395522e-06 
4.851956814430698e-06 
4.549491846445294e-06 
4.590214875163396e-06 
4.067303183217561e-06 
3.852529814497306e-06 
3.867678986597485e-06 
3.802844715803398e-06 
3.572898929510151e-06 
3.498574925346182e-06 
3.385510655819561e-06 
3.158474328926807e-06 
3.223403750756187e-06 
2.977098551340654e-06 
2.656836323559577e-06 
2.554637481821948e-06 
2.398895334984768e-06 
2.311181621918389e-06 
2.221277426544981e-06 
2.074305070415234e-06 
1.745265958181232e-06 
1.650531038207485e-06 
2.812720617605649e-19 
0.000159208729991807 
