solver_type L2R_LR
nr_class 2
label 0 1
nr_feature 105
bias 1
w
0 
-9.812692637415943e-05 
-1.710915954315451e-05 
0.0001831101706548183 
0.0002330991995228963 
0.0002656319947746189 
0.0002980783463180991 
0.0003451941778608455 
0.0003195637109944625 
0.0002921761294463164 
0.000221742214170672 
0.000150968601065228 
0.0001800291539025237 
0.0001381760736188466 
0.000153613282846801 
0.0001236714340869677 
9.397027949405631e-05 
0.0001006434974897304 
7.761577224978996e-05 
8.472910491453181e-05 
6.547776950611612e-05 
7.309405491256274e-05 
6.767860270741173e-05 
5.107883117767792e-05 
5.061507819856389e-05 
4.513081990719841e-05 
5.043601672538501e-05 
4.943427683920799e-05 
4.130781478978794e-05 
3.804028468557312e-05 
3.774266993198671e-05 
3.136449220795711e-05 
2.970543996087884e-05 
3.172453269795241e-05 
2.853386239444085e-05 
2.828648100727334e-05 
2.959695914438958e-05 
3.169470360981901e-05 
3.103994538103266e-05 
2.962026874417442e-05 
2.667754477075525e-05 
2.463430610035305e-05 
2.54656072952111e-05 
2.173900141693427e-05 
2.193707361766828e-05 
1.655657749749603e-05 
1.571556099140046e-05 
1.691363407427816e-05 
1.633383719451856e-05 
1.495922982330982e-05 
1.434016510592745e-05 
1.420765374293824e-05 
1.418739569692128e-05 
1.338028635895116e-05 
1.189151760061658e-05 
1.270838773162079e-05 
1.167846705188951e-05 
1.052347528882746e-05 
1.005131729035016e-05 
9.82500810908424e-06 
9.090101266126716e-06 
8.234187859260408e-06 
7.185830347317901e-06 
6.163308078824535e-06 
5.98577856070162e-06 
6.000654743029308e-06 
5.343243236952432e-06 
4.693987197968313e-06 
4.510070509608403e-06 
4.839914224010479e-06 
4.614492858640611e-06 
4.466077580544753e-06 
3.837327956025369e-06 
3.394115008385932e-06 
3.030829839508982e-06 
2.667828266382864e-06 
2.818610786208473e-06 
2.334089756152919e-06 
2.437061920953919e-06 
2.402087811991335e-06 
2.289627148391973e-06 
2.257473171713938e-06 
1.854014034344025e-06 
2.087054518763017e-06 
1.479200347744022e-06 
1.515414662198874e-06 
1.537005519032211e-06 
1.069600208420082e-06 
9.020943386789259e-07 
1.085608732007934e-06 
1.037094789134155e-06 
1.241518948908663e-06 
1.312021843823088e-06 
9.967818368506706e-07 
8.439785643440871e-07 
9.070096882062877e-07 
8.753028159807791e-07 
6.758104111502038e-07 
7.015874470807903e-07 
6.896985367460032e-07 
4.778550555787541e-07 
2.235142651751895e-07 
6.214918613835371e-07 
2.19668192734626e-07 
3.038281042760121e-19 
-1.953679753183525e-05 
