solver_type L2R_LR
nr_class 2
label 0 1
nr_feature 105
bias 1
w
0 
-2.818026153453177e-05 
-7.079529808784084e-05 
0.0003191829994705482 
1.308666334272077e-05 
3.182959368837848e-05 
6.73258600335912e-05 
0.0001247263816124096 
5.459625478496422e-05 
3.470224241330146e-05 
5.448323614138904e-05 
3.858271087710254e-05 
5.486090962372748e-05 
1.106644491937577e-05 
5.229812574824111e-05 
1.245445440084403e-05 
1.400979884454579e-05 
3.236357897869688e-05 
2.223572160545988e-05 
2.75050856216875e-05 
1.109454032066606e-05 
2.596829022737984e-05 
2.963756835394077e-05 
2.35822908865024e-05 
3.367379718714458e-05 
2.616730000191738e-05 
2.25200137600465e-05 
1.860648794862706e-05 
1.238071921099379e-05 
6.37691494005544e-06 
1.069020555965244e-05 
6.090632564448212e-06 
1.222130502339887e-06 
3.594071284913462e-06 
5.398143868071403e-06 
4.879083631502887e-06 
4.874912226389914e-06 
8.643058407088717e-06 
7.925545609822631e-06 
6.544621989531303e-06 
3.633953225820738e-06 
2.137395940092539e-06 
2.20426345555681e-06 
2.024571566546199e-06 
-2.984646460067648e-07 
-8.854909507635428e-07 
-7.552642222347546e-07 
2.090638190509821e-06 
2.497445478821437e-06 
2.285890391689835e-06 
7.767643976805859e-07 
1.445142060047508e-06 
1.894670794819652e-06 
2.748322324470612e-06 
1.177482450210285e-06 
1.498782996614813e-06 
9.975892181023561e-07 
1.083921460472109e-06 
4.750457891389801e-07 
4.184382833528656e-07 
2.6620477822906e-07 
4.381767597010507e-07 
1.60522271183044e-07 
3.026127687009725e-07 
3.903341491314942e-07 
7.805128157322117e-07 
8.201735409345502e-08 
-3.566889449967938e-07 
9.804212811213561e-08 
4.327102365512139e-07 
5.519600215099927e-07 
3.139604604890443e-07 
1.669819115251108e-07 
2.195556826633696e-07 
3.605910027700308e-07 
6.159387641356133e-07 
7.134373645611569e-08 
-4.317599644108919e-08 
2.724035045419396e-07 
4.506789029726263e-07 
1.88386866834499e-07 
3.342605744227371e-07 
4.112318442435712e-07 
5.372370360030514e-07 
3.933636514273042e-07 
2.800989887870554e-07 
2.704139173215191e-07 
2.777955340568387e-07 
1.656084950234196e-07 
3.707281912344499e-07 
1.25136704291066e-07 
1.904582882605492e-07 
4.863733999636923e-07 
3.583989691530846e-07 
3.683306125622459e-07 
2.14133968483234e-07 
2.8830041834031e-07 
3.982281570124599e-07 
2.101976914112342e-07 
1.810072819358169e-07 
2.551719057161552e-07 
1.955925507052508e-07 
3.192307252289828e-07 
4.05100041118923e-07 
-7.395619879503632e-20 
-6.432588719842286e-06 
