solver_type L2R_LR
nr_class 2
label 0 1
nr_feature 105
bias 1
w
0 
-0.001802055258925019 
-0.001618293144828539 
-0.0007271771779722723 
-0.00019297284835789 
-7.748643760517025e-05 
-5.810538575734764e-05 
-2.39093966151244e-05 
-2.536855965389248e-05 
2.113904148061643e-05 
2.914831657687211e-06 
3.549817189389e-05 
3.247533543690787e-05 
3.120827449649361e-05 
2.767069426535157e-05 
3.201372308204002e-06 
8.661369576869293e-06 
9.787079956265302e-06 
2.197052674158523e-05 
4.021891462908562e-05 
3.863896848880375e-05 
4.521327383816004e-05 
3.878554233887864e-05 
3.288980900951431e-05 
3.065864913550699e-05 
3.781506732452896e-05 
5.247841090920344e-05 
5.014817924165248e-05 
4.487749605602226e-05 
4.226213365757551e-05 
4.113177457243543e-05 
3.232659877608985e-05 
3.100031574855107e-05 
3.130686270856772e-05 
2.548123750586978e-05 
2.50005573284732e-05 
2.279433762549995e-05 
2.137233701939032e-05 
2.59971726196928e-05 
2.149623479295722e-05 
2.294887247031288e-05 
2.215455707152886e-05 
2.056786250180333e-05 
2.06327808576952e-05 
1.470544170012353e-05 
1.262433511162133e-05 
1.16532478011772e-05 
1.178970240287235e-05 
1.189751944473971e-05 
1.150617699844419e-05 
1.056011882741379e-05 
9.700602579130186e-06 
9.834500097274016e-06 
9.838309619375097e-06 
1.074458435122133e-05 
9.599096146113204e-06 
9.377460161891276e-06 
9.196215288875279e-06 
8.497097105609114e-06 
8.106669594249962e-06 
7.594223981127966e-06 
7.755646209755405e-06 
6.359823951896614e-06 
7.074015758692489e-06 
6.983099859958085e-06 
6.140390203788554e-06 
6.462160371057703e-06 
6.326097628989986e-06 
6.036965426594364e-06 
5.632449847341032e-06 
5.723430075549497e-06 
5.450829714823173e-06 
5.340482221165202e-06 
4.910677701187521e-06 
5.057826777238553e-06 
4.925389036613732e-06 
4.611515434583253e-06 
4.515583034463868e-06 
4.381582575710202e-06 
4.130986183064166e-06 
3.719335236287876e-06 
3.782335725874306e-06 
3.705272132658595e-06 
3.401677455623531e-06 
3.20860354720401e-06 
2.955371672314187e-06 
3.075336265211704e-06 
2.785407372912074e-06 
2.696460465289267e-06 
2.917414730162107e-06 
2.636088972344503e-06 
2.247263057543172e-06 
2.135544377651158e-06 
2.047028336431594e-06 
1.8133230617241e-06 
1.952261135207594e-06 
1.781287040109389e-06 
1.70954494249567e-06 
1.595385847258063e-06 
1.555349703916237e-06 
1.264276163530959e-06 
1.234490132387138e-06 
1.124561513875264e-06 
7.002106648391417e-07 
2.029021929531677e-19 
7.361525341555551e-05 
