solver_type L2R_LR
nr_class 2
label 0 1
nr_feature 105
bias 1
w
0 
-0.001145204487154294 
-0.0009399595336369615 
-0.0004202110004613037 
-0.0001375409838750579 
-7.042824744222065e-05 
-9.375163929118994e-05 
1.686479254459257e-05 
5.033176974942088e-05 
3.613941101344414e-05 
2.708275790993895e-05 
2.430470685139923e-05 
8.404181783053053e-05 
8.015282912932355e-05 
7.293455591099577e-05 
6.658336723893668e-05 
6.036554335547667e-05 
6.030536713458294e-05 
6.173703201605504e-05 
7.064215148966972e-05 
4.996668213952376e-05 
4.758314289757295e-05 
5.617783382652724e-05 
5.493319457416221e-05 
5.305549949380181e-05 
6.117813575791139e-05 
5.361407874161498e-05 
5.842746446465911e-05 
4.609757710987087e-05 
5.591903992241554e-05 
5.048301412563969e-05 
5.099136305960464e-05 
4.036867912124403e-05 
4.016734873684123e-05 
3.817207719702152e-05 
4.041399445950444e-05 
3.889437293806529e-05 
3.694724673161384e-05 
3.461648507311094e-05 
3.180387431414053e-05 
3.394315014868804e-05 
3.008667853867776e-05 
3.060096569257759e-05 
2.885613614733481e-05 
2.742878860471412e-05 
2.487408414994621e-05 
2.470866150616679e-05 
2.530388417703456e-05 
2.35545652056526e-05 
2.323708326533041e-05 
2.107311955632331e-05 
2.022633190690279e-05 
1.98908598090054e-05 
1.955627821352134e-05 
1.707369211390668e-05 
1.624014727557884e-05 
1.589153307118055e-05 
1.491620563549668e-05 
1.515462804899117e-05 
1.471160976731884e-05 
1.313628363641222e-05 
1.246759510789416e-05 
1.216781616274431e-05 
1.168351576823474e-05 
1.077548852366874e-05 
9.85740785179382e-06 
9.278271064869577e-06 
8.958922494662615e-06 
8.442250954457635e-06 
7.994079423564093e-06 
7.049052692117444e-06 
6.984243055020297e-06 
6.51381075515846e-06 
6.39146741325268e-06 
6.444385131349534e-06 
6.087288825996343e-06 
5.650025921206621e-06 
5.258781804766538e-06 
4.805030081985821e-06 
4.475756941781112e-06 
4.625322502575192e-06 
4.380631030819571e-06 
4.249480087030624e-06 
3.978154568191401e-06 
3.986850538213835e-06 
4.092749907710812e-06 
3.658397359016885e-06 
3.555809960117896e-06 
3.179243245039056e-06 
3.014937039096306e-06 
2.818863778699048e-06 
2.807233284050902e-06 
2.483442025260308e-06 
2.36914251840578e-06 
2.326253917392063e-06 
2.279575699050286e-06 
1.787106968534649e-06 
1.731586989509982e-06 
1.485188337608923e-06 
1.4836229999433e-06 
1.48190256489434e-06 
1.172937768213619e-06 
1.014279024197773e-06 
1.010497092978714e-06 
2.383287067646547e-19 
4.881848863826977e-05 
