solver_type L2R_LR
nr_class 2
label 0 1
nr_feature 105
bias 1
w
0 
-0.00160864501341324 
-0.001027070795230603 
-0.000291621429570558 
7.843507172590504e-05 
0.0001130479687038302 
0.0001915382882889302 
0.0002002537681722374 
0.0001687667844811167 
0.0002423841168388084 
0.0001977687424694934 
0.0002047622253826311 
0.0001690972999843888 
0.0001410300712108218 
0.000154431759154386 
0.0001491409034223972 
0.0001440524835376754 
0.0001343763378249481 
0.0001496166422872416 
0.0001324808611994049 
0.0001316708426705404 
0.0001347794352039142 
0.0001169882282594436 
0.0001126355287437553 
0.0001135070375713485 
0.0001095339506506913 
0.0001074785155539665 
0.0001022943741675918 
0.0001020763175639136 
9.17085206653607e-05 
8.594355164744872e-05 
7.608237452546112e-05 
7.785573320268974e-05 
7.481137976289715e-05 
7.440588018389801e-05 
7.082038239757361e-05 
6.312120701772328e-05 
5.853266234301752e-05 
5.893392543939667e-05 
5.521105885569573e-05 
4.949698119186823e-05 
4.797407667159659e-05 
4.33204776708419e-05 
4.361808261530252e-05 
3.907950463208832e-05 
3.404984834709332e-05 
3.188146549747156e-05 
3.001557519861999e-05 
3.007652769594115e-05 
2.912878822218199e-05 
2.710880686415127e-05 
2.56964924078523e-05 
2.521887562168111e-05 
2.406971372770663e-05 
2.243362426964463e-05 
2.121455943371393e-05 
1.932809091028567e-05 
1.848701636073696e-05 
1.849219363041027e-05 
1.751938179341639e-05 
1.664368059725428e-05 
1.605471088626751e-05 
1.444678935734934e-05 
1.442491599994599e-05 
1.355971282581073e-05 
1.196632617929587e-05 
1.18472818865689e-05 
1.101198155962329e-05 
1.053017755660076e-05 
1.00420360257652e-05 
9.651959447048397e-06 
9.726123957607674e-06 
9.179781439065008e-06 
8.362939125352661e-06 
7.979727299564565e-06 
7.5900524928469e-06 
7.094742132671875e-06 
7.013350460663135e-06 
6.561100444872857e-06 
6.435451807917212e-06 
6.16736211544671e-06 
5.845866336558045e-06 
5.506508496753628e-06 
5.077656081073382e-06 
4.901169337372346e-06 
4.684675245453605e-06 
4.59467080160446e-06 
4.046677091604813e-06 
3.738918792738217e-06 
3.689629737048953e-06 
3.354036171703712e-06 
3.003158495199615e-06 
2.920630656519126e-06 
2.591481444865293e-06 
2.386008929104228e-06 
2.258717121042191e-06 
2.155190685950746e-06 
1.974499739105127e-06 
1.769275007288967e-06 
1.522686602573172e-06 
1.426820926541841e-06 
1.345552725060986e-06 
1.156166489012761e-06 
7.923214450927377e-07 
6.649804591965889e-19 
4.081428839496194e-05 
