solver_type L2R_LR
nr_class 2
label 0 1
nr_feature 105
bias 1
w
0 
-0.0001821590154787823 
-0.000200604391205236 
-0.0003926430700802449 
-0.0004558439205246061 
-0.0004048828413901757 
-0.0003346644507034185 
-0.0003646313807063789 
-0.000321300545583995 
-0.000288407282937015 
-0.0002760522042472376 
-0.0002806324210281616 
-0.0002577109989713615 
-0.0002427896202123206 
-0.0001849100483946654 
-0.0002300357371757714 
-0.0001774596367051261 
-0.0001832366892206268 
-0.0001570866272842529 
-0.0001750998732255722 
-0.0001664764619327364 
-0.0001584459429388978 
-0.0001567731229791866 
-0.0001378861946006265 
-0.0001379640002207198 
-0.0001225035213014862 
-0.0001246317225622791 
-0.0001251433271869009 
-0.0001188262714216118 
-0.0001160209319651388 
-0.0001164821643982019 
-0.0001129044077258265 
-0.0001131528555636789 
-0.0001087803384917819 
-0.0001020767741351682 
-0.0001005713739907876 
-9.464230896421282e-05 
-9.083937604380699e-05 
-8.738729295820126e-05 
-8.430028683965902e-05 
-8.091555786146565e-05 
-7.835813020233727e-05 
-7.310250797805775e-05 
-6.923339625980984e-05 
-6.444620644262634e-05 
-5.729469625841526e-05 
-5.658359322592233e-05 
-5.320163716753741e-05 
-5.041841896018679e-05 
-4.616437406044316e-05 
-4.191221185705492e-05 
-4.004955644769971e-05 
-3.800645028750258e-05 
-3.617059344140732e-05 
-3.427584432391105e-05 
-3.283493376991623e-05 
-3.123023558711303e-05 
-2.878819948980406e-05 
-2.754083156089032e-05 
-2.567689316745947e-05 
-2.364024034663112e-05 
-2.235862062829741e-05 
-2.094989594151209e-05 
-1.991803203374898e-05 
-1.903770235670217e-05 
-1.772627150240352e-05 
-1.662100075648357e-05 
-1.617382221552266e-05 
-1.505276317402239e-05 
-1.426677158122512e-05 
-1.352807639964042e-05 
-1.229586756918482e-05 
-1.201348570584053e-05 
-1.110602595182424e-05 
-1.086028166443512e-05 
-9.693090420073718e-06 
-9.380214072526002e-06 
-8.88364679668281e-06 
-8.219917146380218e-06 
-8.01513666763726e-06 
-7.338766235208554e-06 
-6.963673744621238e-06 
-6.682558781918972e-06 
-6.10077124487704e-06 
-5.849969048262543e-06 
-5.179754746773044e-06 
-4.899708919178167e-06 
-4.690805940312368e-06 
-4.175656347082583e-06 
-3.92368874931551e-06 
-3.569741959386786e-06 
-3.58001118206182e-06 
-3.190064078655962e-06 
-2.663063453713069e-06 
-2.399805404376854e-06 
-2.260691399895319e-06 
-2.152096290929861e-06 
-2.076590944352593e-06 
-1.813542650582137e-06 
-1.412270134772622e-06 
-1.354234931800836e-06 
-8.757244573015048e-07 
-1.054389921705659e-06 
-4.869671188115987e-07 
-5.318830989195623e-19 
3.376310547516974e-05 
