solver_type L2R_LR
nr_class 2
label 0 1
nr_feature 105
bias 1
w
0 
-0.0009145447840497906 
-0.0009388602578582634 
-0.0007855188790894951 
-0.0004969639883504924 
-0.0004032766849188534 
-0.0003973326402059951 
-0.0003623431378387911 
-0.0003703478167302278 
-0.0003396637031465957 
-0.0003107270664765538 
-0.0002877232317894963 
-0.0002353734012454785 
-0.000209874850588831 
-0.0001939665911675879 
-0.0002319758440362061 
-0.0002005443223356254 
-0.0001913012254773874 
-0.0001657485463990336 
-0.0001575994498998433 
-0.0001412913579163125 
-0.0001325265828268548 
-0.000126831280370125 
-0.0001175965579263038 
-0.0001170002855179493 
-0.0001013463495501667 
-9.054463747824352e-05 
-8.346621676430973e-05 
-8.335871060376727e-05 
-8.245264534714538e-05 
-7.608363332452223e-05 
-7.152809318048233e-05 
-7.47066084775364e-05 
-7.218482519389753e-05 
-7.357073736395438e-05 
-7.175625355110575e-05 
-6.630848045154928e-05 
-6.316855622320502e-05 
-5.711709592777029e-05 
-5.55120527966151e-05 
-4.719754110057808e-05 
-4.649156870847522e-05 
-4.580435553195232e-05 
-4.158478987400787e-05 
-3.945096130837926e-05 
-3.581300641797026e-05 
-3.454054258437344e-05 
-3.129836713171978e-05 
-3.001113587274499e-05 
-2.772174773241909e-05 
-2.453177816387455e-05 
-2.383211547501489e-05 
-2.165048356104576e-05 
-2.104204338439763e-05 
-1.847109977662327e-05 
-1.855855590436092e-05 
-1.67913833285759e-05 
-1.565414222984863e-05 
-1.498094109140871e-05 
-1.398756071734243e-05 
-1.264027313984727e-05 
-1.181136992454415e-05 
-1.181639173961193e-05 
-1.076087316449173e-05 
-9.846420721551912e-06 
-9.463527029760329e-06 
-8.61821930599432e-06 
-8.133124114138405e-06 
-7.536793035032916e-06 
-7.142984741903102e-06 
-6.360125682586983e-06 
-5.652804439549387e-06 
-5.59389834591608e-06 
-5.070723434770511e-06 
-4.497792112983818e-06 
-4.16437730883236e-06 
-4.244541517030521e-06 
-3.847263738036642e-06 
-3.592791881993665e-06 
-3.628845893918605e-06 
-3.456856142310484e-06 
-3.211675672385485e-06 
-2.839254479415059e-06 
-2.811138398098355e-06 
-2.576971287805116e-06 
-2.179489194044064e-06 
-2.122987031434999e-06 
-1.969339910904411e-06 
-1.452570192632738e-06 
-1.234653629954769e-06 
-1.160468911574864e-06 
-1.457464484671516e-06 
-1.426094935258317e-06 
-8.320664888211929e-07 
-7.081091435334894e-07 
-5.735304505014004e-07 
-5.712461935950231e-07 
-4.262215076778568e-07 
-4.06968367628619e-07 
-1.980637966568993e-07 
-1.947533396848896e-07 
-2.967009716622112e-08 
-1.768617308721546e-07 
-6.204924690323301e-08 
-4.596683576542374e-19 
6.646511161157139e-05 
