solver_type L2R_LR
nr_class 2
label 0 1
nr_feature 105
bias 1
w
0 
0.00156479536195798 
0.0007164348206415807 
0.0005418872754797022 
0.0003002312444110016 
0.0002172914444115119 
0.0001911370189342628 
0.000211566261104062 
0.0001735633918784893 
0.0001013263710805919 
9.942985084240448e-05 
3.110895606919519e-06 
3.688029634796178e-05 
-1.651455490412013e-05 
1.726313761992863e-05 
4.250718805014139e-05 
1.696996808729283e-05 
-1.220799549819145e-06 
-3.950760155184431e-06 
-3.36623230592593e-06 
-7.601234178538583e-06 
-2.655408079082385e-06 
-1.612797166416338e-05 
-8.236356507786495e-06 
-1.273728199040792e-05 
-1.202235893480818e-05 
-1.939014246550551e-05 
-1.188084933577834e-05 
-2.276673299944242e-05 
-1.941966438897797e-05 
-8.347407256533521e-06 
-1.374002217040311e-05 
-1.455097663111402e-05 
-1.199389563706232e-05 
-1.590575707353979e-05 
-1.362198224498149e-05 
-1.57289740597778e-05 
-1.252309675635189e-05 
-1.144969123702081e-05 
-1.181090342272742e-05 
-8.853906063974794e-06 
-1.001021283276788e-05 
-1.35948277289195e-05 
-7.969478345502244e-06 
-7.406494697824786e-06 
-8.752674353474834e-06 
-5.96347894612941e-06 
-5.655035213104417e-06 
-4.702194626792173e-06 
-4.320664294457261e-06 
-6.05596751517869e-06 
-5.664694446872738e-06 
-5.055112725013301e-06 
-3.500793110097971e-06 
-3.288214685234738e-06 
-4.828225739420883e-06 
-4.639565614659925e-06 
-3.926308088157932e-06 
-3.962180755512359e-06 
-3.337700899252697e-06 
-4.112281114701876e-06 
-3.638479516326532e-06 
-3.756554525556168e-06 
-3.991036635294045e-06 
-4.252827967620054e-06 
-3.542766947037418e-06 
-4.057624904913399e-06 
-3.240452153942609e-06 
-3.780355841665251e-06 
-3.489422590367125e-06 
-4.055311402578435e-06 
-3.134925003471467e-06 
-2.666974837124143e-06 
-3.146390637327808e-06 
-2.822062292574705e-06 
-2.940019166312313e-06 
-3.233046019163975e-06 
-2.634417776205933e-06 
-2.920411951649226e-06 
-2.824727811588017e-06 
-2.619461080197963e-06 
-2.552897122450304e-06 
-2.282233744309739e-06 
-2.060630295734776e-06 
-2.264965550799883e-06 
-2.127846576943642e-06 
-2.100910490494827e-06 
-1.982208962538648e-06 
-1.903843051045852e-06 
-1.696869928948504e-06 
-1.859297879336498e-06 
-1.465367843185119e-06 
-1.350121837153058e-06 
-1.460366046090064e-06 
-1.542577856938477e-06 
-1.175877318691341e-06 
-1.214468262660833e-06 
-1.151756892133112e-06 
-8.314799776092385e-07 
-1.014090370798175e-06 
-1.117657150114119e-06 
-1.035283525896943e-06 
-8.279261798471522e-07 
-8.535129973534241e-07 
-8.560134940369358e-20 
-6.741921075820975e-05 
