solver_type L2R_LR
nr_class 2
label 0 1
nr_feature 105
bias 1
w
0 
-0.0001148847033486757 
0.0001528394360518844 
0.0003480853780907701 
0.0001184231897189594 
0.0001949956202479505 
0.0001959717551280856 
0.0001862741851599628 
0.0001984924901246078 
0.0001261929207164216 
8.61109166117839e-05 
0.0001154675827881113 
0.0001168447604323141 
0.0001166871151165227 
9.608444595898835e-05 
8.493799472811879e-05 
0.0001064687327473046 
0.0001080209162180791 
9.228392629808745e-05 
8.464236382184985e-05 
6.406793654745129e-05 
7.002886645058026e-05 
6.908213437658824e-05 
7.679164954610789e-05 
7.097613509343798e-05 
6.806800481059702e-05 
6.375027785218359e-05 
6.228215477280648e-05 
4.934577904383526e-05 
5.9037732758289e-05 
5.787979621361831e-05 
5.211046475262992e-05 
4.677186028763788e-05 
4.726885386828894e-05 
4.526520553085736e-05 
4.38778909410598e-05 
4.495871062242052e-05 
4.399995233939805e-05 
3.825730577456299e-05 
3.714396847896702e-05 
3.803040562361341e-05 
3.6893664476723e-05 
3.350179669896239e-05 
3.280829585226991e-05 
2.959668715891141e-05 
2.893224220345976e-05 
2.659535945801908e-05 
2.856040494379809e-05 
2.716067961889132e-05 
2.748411860403143e-05 
2.47674713228092e-05 
2.308930245416449e-05 
2.270501398871405e-05 
2.181054013484741e-05 
2.024898268471608e-05 
1.964662991802678e-05 
1.916712708625312e-05 
1.758024905938852e-05 
1.697558646571453e-05 
1.638813429243178e-05 
1.504786854608828e-05 
1.365157850189042e-05 
1.30790062164431e-05 
1.248395818218905e-05 
1.156175011398179e-05 
1.110037927156233e-05 
9.790948790206143e-06 
9.166331892770377e-06 
8.827834801205468e-06 
8.071825191002323e-06 
7.270291426972184e-06 
7.565179950071516e-06 
7.041173599437701e-06 
6.587568608059495e-06 
6.625970861254253e-06 
5.492753039576869e-06 
5.443061260843554e-06 
5.207993516540896e-06 
4.399633794868118e-06 
4.245148620308954e-06 
4.212314980001823e-06 
3.83839421263253e-06 
3.52563854805608e-06 
3.298693081868565e-06 
3.327428002237706e-06 
3.309277102940478e-06 
3.10189300751913e-06 
2.824378700802284e-06 
2.633924518058404e-06 
2.634619236288733e-06 
2.290128213825205e-06 
2.246136033092221e-06 
2.016525065465491e-06 
1.788189273142833e-06 
1.613138632587626e-06 
1.40353990318842e-06 
1.273715071374155e-06 
1.19879654550493e-06 
1.004046072439659e-06 
1.010795885929467e-06 
6.570303078247433e-07 
3.440721587042556e-07 
3.01021426898436e-07 
2.234596367692835e-07 
1.368683377829496e-19 
-1.779261922019897e-05 
