solver_type L2R_LR
nr_class 2
label 0 1
nr_feature 105
bias 1
w
0 
-0.0001678070413804492 
-0.0003971418578103432 
-0.0003128612720010053 
4.77575562920318e-05 
9.160261586666253e-05 
4.018838425096465e-05 
0.0001352295847209075 
0.0001226862651976903 
5.280210364380816e-05 
3.873000150027063e-05 
3.558027947155284e-05 
2.286552687661984e-05 
7.689365846987022e-05 
6.314647844191183e-05 
3.372355211152465e-05 
1.236902916544702e-05 
1.398831138124002e-05 
1.535320327954604e-05 
1.665300807283923e-05 
6.7317015963373e-06 
2.628796552275905e-05 
1.732480352239644e-05 
2.095662278309049e-05 
9.826595119964239e-06 
1.345240139804496e-05 
1.524009881362071e-05 
1.652344792960747e-05 
2.808811168921521e-05 
2.684962292150439e-05 
2.56193873338597e-05 
2.51411396180847e-05 
2.004805106464833e-05 
2.293518776100568e-05 
2.623992644929678e-05 
2.29794578582336e-05 
2.422188698000742e-05 
2.220045974000074e-05 
2.40890811742734e-05 
2.257778027656835e-05 
2.180288083276595e-05 
2.034009158607245e-05 
2.022669274251303e-05 
2.036364949713225e-05 
1.614210049424732e-05 
1.549474757415666e-05 
1.569362752393516e-05 
1.781719783002657e-05 
1.563702198089819e-05 
1.516549686961205e-05 
1.448002321658086e-05 
1.295752861816128e-05 
1.246918053068394e-05 
1.291860022022076e-05 
1.133613133434479e-05 
1.088934514257012e-05 
1.109939330300111e-05 
9.884023651385135e-06 
9.3705379182795e-06 
9.388626684764714e-06 
8.236832908232838e-06 
8.143436334367112e-06 
7.781666221961307e-06 
7.69313434116943e-06 
6.634792928396098e-06 
6.052410230226888e-06 
5.935645359584461e-06 
6.045870885892786e-06 
5.090428210660118e-06 
5.486640293413994e-06 
4.759898368349288e-06 
4.346665578701283e-06 
4.48506084901977e-06 
3.87496215890165e-06 
3.927093429757161e-06 
3.466250148969602e-06 
3.396652026348759e-06 
2.901828096786294e-06 
2.992722972026818e-06 
2.850669868583035e-06 
2.731435329150095e-06 
2.608814706433788e-06 
2.261239950520274e-06 
1.960674071399657e-06 
1.94306586904476e-06 
1.907928775595692e-06 
1.73610770752882e-06 
1.842386579437608e-06 
1.42354206852764e-06 
1.416883805334277e-06 
1.409753942797838e-06 
1.205013738822257e-06 
1.245927071035281e-06 
1.281016619011902e-06 
1.122910338854287e-06 
1.338264766300352e-06 
1.073509537356078e-06 
9.238065031649978e-07 
9.299761612446106e-07 
1.016545625864686e-06 
6.790360284432163e-07 
6.790853007241139e-07 
2.626746196704676e-07 
3.314883385521107e-07 
7.94392875704022e-20 
8.691594398421825e-06 
