solver_type L2R_LR
nr_class 2
label 0 1
nr_feature 105
bias 1
w
0 
0.0001773165473676254 
0.0003077748022689776 
9.691387812106931e-06 
0.0001728266935211142 
0.0001630060547318993 
0.0001576098645143852 
0.0001356600971722436 
0.0001173638474225163 
0.0001100005626994652 
7.983690769086422e-05 
0.0001310063726105394 
0.0001001795684693036 
6.635536134101597e-05 
7.49034744045673e-05 
7.406634197377148e-05 
8.184310556253989e-05 
6.387452987303899e-05 
6.456791144991395e-05 
4.344127281008907e-05 
4.014135091813911e-05 
3.839022496431964e-05 
3.022151918712165e-05 
3.100780680003436e-05 
1.656391173488291e-05 
1.632913608076141e-05 
1.519941338487372e-05 
1.11929922424308e-05 
1.531905021699497e-05 
1.155013759241141e-05 
7.876983573833317e-06 
1.289855272570481e-05 
9.073077566054692e-06 
5.216234088936662e-06 
6.961497874793286e-06 
4.849011784676761e-06 
4.999180365813643e-06 
7.139643483253551e-06 
5.514139367260712e-06 
4.994150730718669e-06 
5.838398785380829e-06 
5.852381946703571e-06 
6.112950193245382e-06 
5.45790441067069e-06 
4.439977350096415e-06 
5.481619721024959e-06 
4.968053488160339e-06 
4.167651055148965e-06 
5.010247649940481e-06 
4.188445545522388e-06 
3.435407902628605e-06 
3.074085752585193e-06 
3.191578995309257e-06 
2.647090019309857e-06 
3.000307383547463e-06 
2.374937387262616e-06 
2.015431955440446e-06 
2.117423371783832e-06 
1.90271423048041e-06 
2.058563256813582e-06 
1.181430639891427e-06 
1.51396233888911e-06 
1.533227138533286e-06 
1.287540243359658e-06 
1.17742969854036e-06 
1.47610099997409e-06 
9.550988813331493e-07 
9.509520164194631e-07 
3.079357719838318e-07 
4.665379979834624e-07 
9.003469913197875e-07 
7.807332003224363e-07 
3.104253874911498e-07 
5.986613746842027e-07 
9.877972008111269e-07 
6.852354105403544e-07 
4.786487426758299e-07 
5.264798449922271e-07 
6.550684913054591e-07 
2.560432747403031e-07 
2.949107118324296e-07 
1.807457445560955e-07 
2.185719444123633e-07 
1.500003694081896e-08 
3.403884798539241e-07 
3.19472587030093e-07 
1.556163097381045e-07 
4.886008472169673e-08 
4.561514382979572e-07 
4.916657895331644e-07 
5.676598271724521e-07 
6.428933209170072e-07 
4.269345200546738e-07 
3.871129555059795e-07 
4.420238155185658e-07 
3.152590070764896e-07 
3.062162354770875e-07 
2.527086335205832e-07 
2.002594565140439e-07 
2.064178158687425e-07 
8.111755646122813e-08 
2.194067833457706e-07 
-9.613403216137054e-09 
7.499026480279924e-08 
-6.075992545409292e-20 
-1.386645832266422e-05 
