solver_type L2R_LR
nr_class 2
label 0 1
nr_feature 105
bias 1
w
0 
0.001196183853755149 
0.0008842117844397115 
0.000179335606059363 
3.427465322301273e-05 
-7.791135959655346e-05 
-8.002672169470534e-06 
-8.278830692662476e-05 
-0.0001271261586053021 
-0.0001413118315494724 
-0.0001407157454367399 
-0.0001624003583996789 
-0.0002152298654049688 
-0.0001786766417908112 
-0.0001574411660966376 
-0.0001578711061233495 
-0.0001641276959970064 
-0.0001627024279739616 
-0.0001417441106097841 
-0.0001222786752012569 
-0.0001224886879895285 
-0.0001187650452094077 
-0.0001121179120944614 
-0.0001090481528581622 
-0.0001166508769935379 
-0.000114201463076468 
-0.0001060819310380251 
-9.64999285558939e-05 
-9.596353688803073e-05 
-8.76610219499179e-05 
-9.380879081754896e-05 
-8.350828845449334e-05 
-8.279704584069245e-05 
-7.956976104189946e-05 
-7.25598974320175e-05 
-6.766605058591417e-05 
-6.705519392172662e-05 
-6.830757892346319e-05 
-6.193004938144079e-05 
-5.940497521171164e-05 
-6.072067172889967e-05 
-5.754277813437444e-05 
-5.213700366041711e-05 
-4.982099417299861e-05 
-4.441271166022465e-05 
-4.274984772641175e-05 
-3.968833128377462e-05 
-3.803339014496068e-05 
-3.639814386409268e-05 
-3.461922569719582e-05 
-3.255430829391987e-05 
-3.016724769045934e-05 
-2.823567195716681e-05 
-2.786478787979551e-05 
-2.645597461881819e-05 
-2.625859052209074e-05 
-2.413809817939835e-05 
-2.248178103139185e-05 
-2.152820002243719e-05 
-2.100952615480399e-05 
-1.939034728337948e-05 
-1.787232300350859e-05 
-1.776726864179424e-05 
-1.633471173261935e-05 
-1.603619328361272e-05 
-1.48231018490324e-05 
-1.406024471943374e-05 
-1.37703043585785e-05 
-1.317028581196693e-05 
-1.207993703859182e-05 
-1.033812910002442e-05 
-1.010583507468288e-05 
-1.00306589193777e-05 
-9.557663374435453e-06 
-9.165283699529673e-06 
-8.493552738688209e-06 
-8.386995756760444e-06 
-7.6423504791578e-06 
-7.362173155481628e-06 
-7.009076017882835e-06 
-6.515238470475045e-06 
-5.940518524117532e-06 
-5.842863925858573e-06 
-5.756804777897073e-06 
-5.616842171192684e-06 
-5.090402311456639e-06 
-4.738794017982299e-06 
-4.181747810458676e-06 
-3.920656081728989e-06 
-3.839129110799495e-06 
-3.240146487504511e-06 
-3.428194118315713e-06 
-3.087353470858638e-06 
-2.665764591340904e-06 
-2.529221455603047e-06 
-2.270237284707887e-06 
-2.286243920967956e-06 
-1.939476306545363e-06 
-1.818090467999302e-06 
-1.315314842928431e-06 
-1.668962556315205e-06 
-1.12684171329035e-06 
-1.109028893720069e-06 
-8.222342430587604e-07 
-4.23112141887654e-19 
-3.36272551035502e-05 
