solver_type L2R_LR
nr_class 2
label 0 1
nr_feature 105
bias 1
w
0 
-0.0003571382104122459 
-0.0002980687721093769 
3.405501359254765e-05 
0.0003420407932873866 
0.0002364432661761643 
0.0003258345949257673 
0.0002713062937211275 
0.0002400391585669086 
0.000204631383436742 
0.0001782306977575488 
0.0001664124947264095 
0.0001553497409740075 
0.0001435761032128897 
0.0001503021731043747 
0.0001152111179858973 
0.00013252183013335 
0.0001037123176469375 
0.000109625209125368 
0.0001021805592097843 
0.0001021790020543773 
9.849682408585107e-05 
8.461810264968444e-05 
8.286192293182922e-05 
7.654456594349608e-05 
6.755550486003641e-05 
7.719227618475324e-05 
7.029378535608884e-05 
6.265870509316516e-05 
6.736482921181527e-05 
6.804304200528526e-05 
5.940525011357839e-05 
5.321611568461094e-05 
5.120342253364748e-05 
4.883500491114887e-05 
4.607097488432283e-05 
4.666182846097135e-05 
4.460128985783962e-05 
4.314138650434918e-05 
4.419155194353066e-05 
3.682869521049953e-05 
3.60085852407603e-05 
3.700422577674165e-05 
3.311482758777655e-05 
3.087074376521185e-05 
2.838675665238962e-05 
2.758056361298376e-05 
2.616354569500494e-05 
2.517175919636637e-05 
2.383330203915182e-05 
2.296436948347956e-05 
2.268312393172452e-05 
1.950155046975477e-05 
1.918695060700641e-05 
1.933909052821894e-05 
1.831070395792887e-05 
1.799960153235851e-05 
1.732662180907082e-05 
1.544140612230554e-05 
1.481977164277373e-05 
1.406731869031283e-05 
1.306429975558468e-05 
1.206461394611238e-05 
1.091773098991312e-05 
1.06085628386713e-05 
1.105841797665036e-05 
1.00924631810185e-05 
9.308913112441825e-06 
8.796969809352142e-06 
8.640657631278876e-06 
7.726326470469282e-06 
7.467299944003067e-06 
6.749444081191331e-06 
6.575036773061661e-06 
6.54835382861641e-06 
6.382158639010295e-06 
5.822966317929659e-06 
5.369344228783135e-06 
5.004881760130624e-06 
4.869049394147734e-06 
4.433796502553756e-06 
4.179230609322793e-06 
4.105970094606136e-06 
4.380265215043345e-06 
3.852335258473337e-06 
4.038653807271906e-06 
3.614915336167724e-06 
3.201944599919032e-06 
3.11306822108223e-06 
2.949164782514573e-06 
2.935503470219818e-06 
2.850825483983295e-06 
2.942598861846626e-06 
2.302709212614945e-06 
2.253866645785993e-06 
2.076359228259534e-06 
1.980821730778959e-06 
2.088891614635629e-06 
1.928452324200893e-06 
1.563785244676614e-06 
1.457091081167226e-06 
1.094511236880103e-06 
9.083674738272479e-07 
9.255037829109319e-07 
2.117767617710694e-19 
-7.242570794349496e-06 
