solver_type L2R_LR
nr_class 2
label 0 1
nr_feature 105
bias 1
w
0 
-0.001484317028988013 
-0.001231545943699106 
-0.000543683554741909 
-3.387955454960223e-06 
8.432462385295706e-05 
0.0001090986155198825 
0.0001511028409871081 
0.0001693296848294351 
0.0001738388995664792 
0.0001045895033677274 
0.0001815629311145056 
0.000147112701784188 
0.000146464987135499 
0.0001330979086337763 
0.0001164876215919673 
0.0001211831849564072 
0.0001336234403478007 
0.0001129141675898223 
0.0001088112310250916 
0.0001026904872818256 
9.77357733406176e-05 
8.654566789993693e-05 
8.012321291722381e-05 
8.201352410081883e-05 
7.294218602334281e-05 
7.004403416322768e-05 
7.23672992596268e-05 
7.664045048852433e-05 
7.326063063753037e-05 
7.661520106761771e-05 
7.165804919491097e-05 
6.668517598214208e-05 
6.252259883207062e-05 
6.362964226851489e-05 
6.112199846974424e-05 
5.848384263612865e-05 
5.668244934606531e-05 
5.506963219050653e-05 
5.310454284960268e-05 
5.212860032648645e-05 
5.146964344907971e-05 
4.965739941149543e-05 
4.494241559997753e-05 
3.941390014183964e-05 
3.905987167124248e-05 
3.817594510241342e-05 
3.445559409443223e-05 
3.414950858844711e-05 
3.245975384877711e-05 
3.018283179153274e-05 
2.840708405803122e-05 
2.636618604194142e-05 
2.544274109648153e-05 
2.42845683451213e-05 
2.366086585329546e-05 
2.160253232951161e-05 
2.077224789468894e-05 
1.961179742942728e-05 
1.929783384879866e-05 
1.731514914443794e-05 
1.676136806186375e-05 
1.585293759267639e-05 
1.507604680893295e-05 
1.46231427577999e-05 
1.403197411554819e-05 
1.302067943222099e-05 
1.232571927860326e-05 
1.162000469547158e-05 
1.079208716339076e-05 
1.050708135353997e-05 
1.010552491791725e-05 
9.690184121135412e-06 
9.256423393078304e-06 
9.113719273992118e-06 
8.516344209473403e-06 
7.804011452584366e-06 
7.617559738367507e-06 
7.47989765425903e-06 
6.923666821868177e-06 
6.381147267932046e-06 
6.213338812250009e-06 
5.898066005855414e-06 
5.394411078477324e-06 
5.497109663373375e-06 
5.416245469062544e-06 
5.02364341404333e-06 
4.68310426558494e-06 
4.492995005687079e-06 
4.325565617349828e-06 
4.148015724076067e-06 
3.743409721006379e-06 
3.464072832139502e-06 
3.315750313103474e-06 
3.133269578586459e-06 
2.838741995593232e-06 
2.512600144767045e-06 
2.440440488898853e-06 
2.281720726797653e-06 
2.042765319898101e-06 
1.853737223546138e-06 
1.913847851815761e-06 
1.564792098320453e-06 
1.325090935173429e-06 
3.7510720372929e-19 
4.011247930563644e-05 
