solver_type L2R_LR
nr_class 2
label 0 1
nr_feature 105
bias 1
w
0 
-4.069908141314997e-05 
-0.0001710182171607255 
-0.0001625903578091334 
-0.000208633752604207 
-0.0001901475661470219 
-0.0001514200686873813 
-0.0001745349781711116 
-0.0001585222304359154 
-0.0001400932638982325 
-0.0001333224300416669 
-0.0001254789737625756 
-0.0001183923483863231 
-0.0001247501741117886 
-0.0001328236894111962 
-0.0001316382210199515 
-0.0001055328294303396 
-0.0001157613583183005 
-0.0001038768338697546 
-8.282678698271906e-05 
-7.969569902707886e-05 
-7.138007213748409e-05 
-6.343040537071082e-05 
-5.298488830233967e-05 
-5.659753004876252e-05 
-5.079349270867338e-05 
-4.902890272331227e-05 
-5.149348034381793e-05 
-5.303793803925681e-05 
-3.911335755562528e-05 
-3.787569151256635e-05 
-3.905091023600795e-05 
-3.754150304790667e-05 
-3.969786357752996e-05 
-3.600697776009838e-05 
-3.466838647152657e-05 
-3.515195513899349e-05 
-3.259504711950575e-05 
-2.740501279899618e-05 
-2.698140392259564e-05 
-2.68961981680355e-05 
-2.664186441580932e-05 
-2.629745600715904e-05 
-2.126343725954805e-05 
-2.294401354041849e-05 
-1.868801522210148e-05 
-1.701285764431518e-05 
-1.613964603264128e-05 
-1.52887323168753e-05 
-1.574848989524781e-05 
-1.471865120556282e-05 
-1.357005725646017e-05 
-1.245151221193447e-05 
-1.17145975363259e-05 
-1.133533577532699e-05 
-1.126893517798142e-05 
-1.074777697662825e-05 
-1.0048088285263e-05 
-9.606378082214705e-06 
-1.035425044737389e-05 
-8.680400591473777e-06 
-7.212978063917204e-06 
-6.596048630288665e-06 
-6.590794563583e-06 
-7.048799613138562e-06 
-6.968083407972715e-06 
-6.43479321479274e-06 
-5.95483374822587e-06 
-5.058277668081116e-06 
-5.104205698313481e-06 
-4.862772441802284e-06 
-5.127570757679824e-06 
-4.771371501156878e-06 
-4.387610596176524e-06 
-4.30533154782178e-06 
-3.839001653143302e-06 
-3.927506445430994e-06 
-3.216894171609152e-06 
-2.727505673448245e-06 
-2.805120605846651e-06 
-2.140823456794039e-06 
-2.128660006395203e-06 
-1.969511949336535e-06 
-2.353368701633134e-06 
-2.139858524499381e-06 
-2.007170780176962e-06 
-1.842820849960188e-06 
-1.426891885858452e-06 
-1.32450998480031e-06 
-1.257683264188808e-06 
-1.012515005499625e-06 
-1.104554636145049e-06 
-1.17542739905949e-06 
-9.548495602468476e-07 
-8.083011446082241e-07 
-8.760316877169084e-07 
-7.715045257936523e-07 
-6.404302462940592e-07 
-4.373794746514281e-07 
-2.923179741465082e-07 
1.722000556183915e-07 
4.2178485388809e-08 
-1.319161473707672e-07 
-3.527305832257179e-08 
-8.369798801031672e-20 
1.973761163630316e-05 
