solver_type L2R_LR
nr_class 2
label 0 1
nr_feature 105
bias 1
w
0 
0.0006526595777688477 
0.0004483889870246103 
0.000376831788393505 
7.018169408337495e-05 
7.58687753194865e-05 
6.471867545481136e-05 
3.29194850930275e-05 
1.016549420845463e-05 
-8.231407372295991e-06 
-1.651391039712655e-05 
-8.18590630924258e-06 
3.696744152250878e-06 
-1.886617723294912e-05 
4.88128335682045e-06 
-7.400480870837084e-06 
4.257338526728247e-07 
8.756260485096972e-06 
4.163760284711311e-06 
-2.221113623089643e-06 
-4.644263673587859e-06 
2.950948745859078e-06 
8.091567214994992e-06 
1.354453529388799e-05 
-5.764895358086514e-06 
-7.323792122528255e-06 
-1.947681812043661e-06 
-1.218532207626866e-05 
-5.15222836178357e-06 
-7.078891748832709e-06 
-5.665478748412884e-06 
-4.976001886402683e-06 
-4.376976942294587e-06 
-5.668493239029213e-06 
-8.708050878610644e-06 
-1.065562763730415e-05 
-8.080651183680509e-06 
-5.854021980564416e-06 
-5.11316208289591e-06 
-7.849877353065192e-06 
-5.921184316883839e-06 
-5.602254806952362e-06 
-5.640892645659474e-06 
-4.434510140116313e-06 
-3.715072638655613e-06 
-2.841446200397345e-06 
-3.500954954201071e-06 
-4.438962873237388e-06 
-2.539644009056155e-06 
-2.636886455719533e-06 
-2.057329385141788e-06 
-2.054762479094088e-06 
-1.409519573346277e-06 
-2.549090741976742e-06 
-2.191408881359283e-06 
-2.09862332536387e-06 
-2.138918476982098e-06 
-1.795173526701475e-06 
-2.380729630675526e-06 
-2.318778160393132e-06 
-1.344454306562953e-06 
-1.531470203314462e-06 
-1.871576291486484e-06 
-1.566516901602075e-06 
-1.518305860442881e-06 
-1.399330624043443e-06 
-1.437114824285016e-06 
-1.284008814854213e-06 
-1.943502906444236e-06 
-1.496204065737114e-06 
-1.569807725568476e-06 
-1.043308442098308e-06 
-1.538746398124539e-06 
-1.344194110347351e-06 
-9.661001347683972e-07 
-1.309008285000032e-06 
-1.02581256152871e-06 
-1.125448632363763e-06 
-7.144800206125764e-07 
-1.186602235287912e-06 
-1.149879727554994e-06 
-1.114651178201154e-06 
-1.180193621995227e-06 
-1.131584596423489e-06 
-1.175713218231418e-06 
-1.227015514813295e-06 
-1.248283410658409e-06 
-1.078293968692737e-06 
-7.169235994110011e-07 
-6.761573222774303e-07 
-5.369276103570918e-07 
-4.166127453184272e-07 
-3.955498431655787e-07 
-5.222807852221326e-07 
-5.247707465320491e-07 
-4.786518566011856e-07 
-3.615826737345913e-07 
-4.698004580067426e-07 
-5.061650185427712e-07 
-4.774590545509452e-07 
-5.103944571041567e-07 
-3.35079592382724e-07 
-3.012129331613671e-07 
-4.785237573954943e-07 
-2.421771064076343e-19 
-1.707803847876141e-05 
