solver_type L2R_LR
nr_class 2
label 0 1
nr_feature 105
bias 1
w
0 
-0.001117115941088919 
-0.001362367366627144 
-0.001033895437657703 
-0.0003521303162606754 
-0.0002899614853444558 
-0.0002593930511133716 
-0.0002088309592366162 
-0.0002012214659462365 
-0.0001688195037843163 
-6.822967765191393e-05 
-7.357739900360795e-05 
-7.898936938667218e-05 
-9.138368654076348e-05 
-8.04715428026664e-05 
-8.904910595446326e-05 
-9.115555312116574e-05 
-9.991274177734085e-05 
-9.349900000777052e-05 
-8.170269623095174e-05 
-7.530828195724223e-05 
-6.475006689946966e-05 
-6.456645483727486e-05 
-6.647476405422196e-05 
-6.216793458957068e-05 
-5.747454910169895e-05 
-4.74315912570939e-05 
-4.237442339961344e-05 
-4.471258146696585e-05 
-3.921606110215683e-05 
-3.765628792286091e-05 
-2.5134619192752e-05 
-2.428363773137668e-05 
-2.106205922548983e-05 
-1.849283184883171e-05 
-1.757476743604332e-05 
-1.570922392867574e-05 
-1.289472955470545e-05 
-1.092044557357598e-05 
-1.044851076247991e-05 
-5.735047502750053e-06 
-6.716150796946871e-06 
-4.418796067036281e-06 
-5.268155543821806e-06 
-7.73913269834265e-06 
-4.319121458951292e-06 
-2.814040066844543e-06 
-3.81618891023581e-06 
-1.251895365929067e-06 
9.372974760291919e-07 
1.102712690944573e-06 
1.684143292131412e-07 
6.050790996655355e-07 
5.51235163081608e-07 
4.880399250015571e-07 
-3.793614755926402e-07 
3.87350483766162e-07 
-3.253135016802317e-07 
7.317382354134231e-08 
-2.778981017929204e-07 
-5.872433226046608e-07 
5.808647704798015e-08 
-9.247782152973242e-08 
6.749641439025281e-08 
-4.98157283579193e-08 
5.828778595392559e-07 
1.50052223880506e-08 
1.470795282866595e-07 
7.354571013551853e-07 
5.282748112341442e-07 
6.921021347866853e-07 
7.888050792141725e-07 
9.320598290315707e-07 
9.337005619393291e-07 
8.529846599037615e-07 
8.183934149790115e-07 
6.08681430579012e-07 
5.901750245451503e-07 
4.840514392505245e-07 
7.418572027266372e-07 
6.107627958774666e-07 
5.458340112377541e-07 
5.903192395284889e-07 
7.784383141951748e-07 
5.132668868295853e-07 
6.092858042180333e-07 
5.834855412250724e-07 
5.724865064504484e-07 
3.959770275807982e-07 
4.288184512969463e-07 
2.986214997425317e-07 
3.797606790978134e-07 
1.580270979879273e-07 
3.700306333901906e-07 
3.918054692755402e-07 
4.902101327639161e-07 
5.313956495493047e-07 
3.754409653024063e-07 
6.512744508534958e-07 
4.122999340481836e-07 
3.21324594025091e-07 
3.689760887240051e-07 
4.742907971120335e-07 
4.035732459571229e-07 
1.125517698626005e-19 
7.107294525080521e-05 
