solver_type L2R_LR
nr_class 2
label 0 1
nr_feature 105
bias 1
w
0 
0.0004346063029881608 
0.00107294331309493 
0.0009214387783802116 
0.0001161602887267242 
0.0001078806742197159 
0.0001240766834659206 
0.0001526375903280583 
0.0001010247177709596 
9.485111464539604e-05 
0.0001472942517419034 
6.992580104083035e-05 
3.396389367178427e-05 
2.471551666158607e-05 
6.571638390490792e-05 
6.521210842449673e-05 
3.867075757217714e-05 
3.104679348180756e-05 
2.74185873609326e-05 
3.510886676814408e-05 
2.370026644953542e-05 
1.832682870089841e-05 
1.544897389643416e-05 
1.884301792324278e-05 
1.260174637081471e-05 
2.062652290268181e-05 
1.795539468250074e-05 
1.319101458290579e-05 
1.753378434252446e-05 
1.001793337064854e-05 
3.845722225071357e-06 
4.012812342556665e-06 
4.912146320055209e-06 
1.440381039359615e-06 
2.175113744311114e-06 
-7.178408332470262e-07 
1.518470188858801e-06 
-1.347525035075409e-06 
-5.221328518221958e-06 
-4.05229986466932e-06 
-7.93308073291238e-06 
-6.172158363144119e-06 
-6.123055154888294e-06 
-6.161505875525659e-06 
-8.129134187336381e-06 
-8.23779681462216e-06 
-7.399680115798792e-06 
-8.033940846479561e-06 
-6.673403920501864e-06 
-6.785115669431543e-06 
-7.131017496845484e-06 
-5.705545610551655e-06 
-5.406042239157514e-06 
-5.991496500764169e-06 
-5.107874816974589e-06 
-5.990956947721136e-06 
-5.209153253182313e-06 
-5.378494347758697e-06 
-4.980629327177821e-06 
-4.556729906153529e-06 
-4.762198838239644e-06 
-5.2827770831091e-06 
-4.785535239171853e-06 
-4.529659040363522e-06 
-4.282560982100781e-06 
-4.082389166685715e-06 
-4.527150147090827e-06 
-3.765698698529691e-06 
-3.430910077141686e-06 
-3.071644586929642e-06 
-2.888430505484076e-06 
-3.153497418721607e-06 
-2.519012040878958e-06 
-2.206358473893072e-06 
-2.62033646299458e-06 
-2.236971626197522e-06 
-2.219057185111697e-06 
-2.380169352126614e-06 
-1.936506722282542e-06 
-2.148470844055311e-06 
-1.894892386390499e-06 
-1.834101055101825e-06 
-1.603617933053072e-06 
-1.733581142255995e-06 
-1.809159050265354e-06 
-2.046933241559913e-06 
-1.990214607403137e-06 
-1.982494652143481e-06 
-1.853528631950612e-06 
-1.750920630293865e-06 
-1.493522812021753e-06 
-1.509422884190243e-06 
-1.359931191072532e-06 
-1.235757326523198e-06 
-1.047699652542623e-06 
-8.817648092895345e-07 
-1.071287345662356e-06 
-1.077469582568782e-06 
-8.165292286712996e-07 
-8.165833633450205e-07 
-8.579904822150859e-07 
-8.995489439007474e-07 
-7.676996434915945e-07 
-7.341388545501178e-07 
-2.92886898845869e-20 
-4.943184877269757e-05 
