solver_type L2R_LR
nr_class 2
label 0 1
nr_feature 105
bias 1
w
0 
0.001925763483398222 
0.001682457664662773 
0.001176384700546148 
0.0004316681053606561 
0.0004016572578293423 
0.0003311327442080425 
0.0002777063515650268 
0.0002039264183749158 
0.0001788874380489911 
0.0001222596537821619 
8.81670663796062e-05 
9.087921734955699e-05 
5.966231568966792e-05 
7.45562000692601e-05 
7.690086341374374e-05 
7.781736317311104e-05 
5.096437786092268e-05 
5.458698697138476e-05 
3.737264222848104e-05 
4.663196052835523e-05 
5.358791685154215e-05 
3.501617328674664e-05 
3.155530002891691e-05 
2.655756042370172e-05 
1.170023087372696e-05 
1.969590822076921e-05 
1.336945355010451e-05 
1.283381954245789e-05 
1.505918467220359e-05 
1.347048517230025e-05 
4.109195874542166e-06 
3.8011399670301e-06 
1.896589371652031e-06 
-1.291711818602503e-06 
1.215742572039984e-06 
1.221761415726314e-06 
3.132275726273919e-06 
2.472639256425657e-06 
2.919987813481841e-06 
2.210762744259757e-06 
1.348930432126822e-06 
2.044924854055168e-06 
1.752991196968738e-06 
1.246587441324031e-06 
1.690671379475799e-06 
-3.6921884519468e-07 
-1.165555449828199e-06 
-2.019369386517727e-06 
-4.572835103614885e-07 
-3.63150952962814e-07 
-8.240239799590212e-07 
-1.162442430188205e-06 
-2.483571751689767e-07 
-8.708814915731021e-07 
-8.7142204893809e-07 
-9.235692124814661e-07 
-1.344538827439709e-08 
-6.660570083583589e-07 
-5.139071400954459e-07 
-1.173355670714559e-06 
-1.724207242856879e-06 
-2.246091326906961e-06 
-2.409207721134175e-06 
-2.16975059804103e-06 
-1.251226071220916e-06 
-1.857856643169857e-06 
-2.514938324632754e-06 
-2.403094934646362e-06 
-2.474794944098883e-06 
-3.161761465228841e-06 
-2.895835480783848e-06 
-2.859084105560179e-06 
-2.629350765382539e-06 
-2.417025111610299e-06 
-2.737436251644753e-06 
-2.505292324452178e-06 
-2.560977689123563e-06 
-2.318729435400235e-06 
-2.454382700317616e-06 
-2.542289459471176e-06 
-2.757827008826696e-06 
-2.311191034851075e-06 
-2.030650780411482e-06 
-2.181753222297686e-06 
-1.664180892405647e-06 
-1.655715123631491e-06 
-1.720223024527094e-06 
-1.713046028968464e-06 
-1.379241087901133e-06 
-1.522056714258534e-06 
-1.565505480914829e-06 
-1.480983263109737e-06 
-1.708326225915766e-06 
-1.394323895905307e-06 
-1.342978602328973e-06 
-1.374630453172527e-06 
-1.245951062945775e-06 
-1.203981254800948e-06 
-1.308124671543562e-06 
-1.003394999751159e-06 
-1.188007386582296e-06 
-9.343401178024256e-07 
-8.488217048652355e-07 
-2.800790000945357e-19 
-0.0001069494991774279 
