solver_type L2R_LR
nr_class 2
label 0 1
nr_feature 105
bias 1
w
0 
-0.0005572236257433983 
-0.0002643369076422865 
0.0001415352497340757 
9.849864574479054e-05 
0.000185961687803692 
0.0001748675702778166 
0.000206728417648391 
0.0001992596713842836 
0.0002355334851414059 
0.0002149494474637085 
0.0001877743890867625 
0.0001953701280367546 
0.00017829904889434 
0.0001540877280438943 
0.0001433601248641745 
0.0001528480691762945 
0.0001336823848411171 
0.0001356771135265064 
0.0001159718789031626 
0.000116179698467183 
0.0001109658167107073 
0.0001028278905989678 
8.565901364465588e-05 
8.158912352002981e-05 
8.163922613062534e-05 
7.210653225329477e-05 
6.060987550750411e-05 
5.783558492061236e-05 
5.483174136923617e-05 
5.211845554130457e-05 
4.666718406613767e-05 
4.422499455473935e-05 
4.521624796298771e-05 
4.247216909363358e-05 
3.366765428408799e-05 
3.180581601929282e-05 
3.21473608528892e-05 
3.079344187253393e-05 
2.991398841285645e-05 
2.900362987436574e-05 
2.659617386721399e-05 
2.361713130317286e-05 
2.277669660759231e-05 
2.15467302874639e-05 
1.974715297866241e-05 
1.954995542023901e-05 
1.9064759541832e-05 
1.763299760514985e-05 
1.530885283122248e-05 
1.293903415693845e-05 
1.218094280561753e-05 
1.178569083360563e-05 
1.10178253606458e-05 
9.779816422791936e-06 
1.019979853959937e-05 
9.556323835835824e-06 
9.15583999134328e-06 
8.456097167007914e-06 
8.075371438085794e-06 
7.896578806595738e-06 
7.21880657189044e-06 
6.989951952305923e-06 
6.112127397250095e-06 
6.427234647865735e-06 
6.657480197035689e-06 
5.944977585900339e-06 
5.87986663732766e-06 
5.538652692034251e-06 
5.19966760294005e-06 
5.145303605975581e-06 
4.628886786684793e-06 
4.904568303957504e-06 
4.429975562700429e-06 
4.313041517739008e-06 
4.017518882831427e-06 
3.753768918878821e-06 
3.392093708269015e-06 
3.181922147457597e-06 
3.034779970371499e-06 
2.739311651872959e-06 
2.660957378480229e-06 
2.750073600402167e-06 
2.651582085452887e-06 
2.544549709909509e-06 
2.08746766994854e-06 
2.088071757307387e-06 
2.082647690971452e-06 
1.928101074313989e-06 
1.739241152000237e-06 
1.424205752018436e-06 
1.319643628765627e-06 
1.488850018041962e-06 
1.401510107837389e-06 
1.124900888984083e-06 
1.311722256351975e-06 
1.148292983396295e-06 
8.172382217223462e-07 
8.375870015465779e-07 
6.708892671190953e-07 
6.571167146866184e-07 
5.591048793006347e-07 
5.606392670722769e-07 
5.41242966052938e-07 
1.857666987956073e-19 
-1.439449399372418e-16 
