solver_type L2R_LR
nr_class 2
label 0 1
nr_feature 105
bias 1
w
0 
0.0005147848612490612 
0.0005973888942060261 
0.0003384916650769458 
0.0002406581574073275 
0.0001155001452401655 
0.0001379831614093777 
8.593277104276665e-05 
3.389029166892297e-06 
-2.326218359582253e-06 
1.049985051813917e-05 
3.55541785988572e-05 
9.050089383164178e-06 
-2.493927481357938e-05 
-1.879006068339677e-05 
9.291440987086308e-06 
2.066394076517589e-05 
-1.988021706763768e-06 
5.880577882963466e-06 
6.88646797886307e-06 
4.052479852520086e-06 
1.123774138672287e-05 
2.37427146678324e-05 
1.17007546852258e-05 
5.208677121809929e-06 
-6.329358830139675e-07 
3.945356856411536e-06 
7.34642679794875e-08 
4.680086247319362e-06 
7.394838050238272e-06 
2.646137390660509e-06 
9.343218487506829e-07 
1.052683492089659e-06 
-1.163451772568899e-06 
-1.241975393833536e-06 
-3.898368343570158e-06 
1.100665957943668e-06 
-1.057137992684654e-06 
9.305420317651358e-07 
-2.237131862954545e-06 
-1.586992206694527e-06 
-7.977422229070902e-07 
-8.230806482316365e-07 
-4.095553560639856e-06 
-7.529652633433977e-07 
-2.718166994341964e-06 
-9.346082288598436e-07 
2.937904007473364e-08 
1.523193210009954e-07 
-1.395414831913276e-06 
-1.939810341106823e-06 
-4.299979695533889e-07 
-8.586966032514594e-07 
-4.637452101663389e-07 
-5.994128522617526e-07 
-2.263087803009092e-07 
-8.886398673837239e-07 
-7.399850820892932e-07 
-3.745002515058233e-07 
-3.929335520626309e-07 
-1.27567380141589e-06 
-8.484195484608896e-07 
-6.691345258906005e-07 
-3.114536578609082e-07 
-2.534156928691899e-07 
-1.278814924726904e-07 
-5.189703908309323e-07 
-4.470798239978303e-07 
-5.432579872693638e-08 
5.129283488060606e-07 
-1.932175021239696e-07 
-1.353235857266423e-07 
2.359379102078776e-07 
5.521611604990474e-07 
-1.461757091671006e-07 
-2.273681937924418e-09 
-1.492906766019991e-07 
-2.154538825265981e-07 
-3.848497249358438e-07 
8.073055321592865e-08 
1.865404792004434e-07 
1.366861564946552e-07 
2.010177965387584e-07 
-5.214908485838588e-08 
-5.183877706832552e-07 
-2.115966427011767e-07 
-1.806886187486227e-07 
-9.714353050485562e-08 
-1.061475094475941e-07 
-2.138178817379625e-07 
-8.509029387451126e-08 
-1.044775914404141e-08 
1.43061042778255e-07 
6.532628000336554e-08 
-1.217429598263064e-07 
6.589898574331272e-08 
-3.877200177571199e-08 
-1.871207434682627e-07 
-7.669139279765439e-08 
-3.090829994561604e-08 
6.306926890714969e-08 
-6.164124094918147e-08 
3.896210087864871e-07 
3.837628555568967e-08 
-1.851378557751422e-19 
-2.905165566976152e-05 
