solver_type L2R_LR
nr_class 2
label 0 1
nr_feature 105
bias 1
w
0 
-0.00132585217613198 
-0.0009953200590235194 
-0.000572338364915778 
-8.702667278196247e-05 
-4.190547924378786e-05 
3.67513030326107e-05 
-3.810862829208605e-06 
4.04873523839501e-05 
2.447860885205619e-05 
0.0001048570732015916 
8.352856684420867e-05 
7.190935800221134e-05 
6.040530598371322e-05 
7.792487656078996e-05 
6.385791991733615e-05 
3.623608421779837e-05 
3.711473066047227e-05 
1.056209193207446e-05 
5.502970526217991e-05 
4.815014913609564e-05 
3.896194073558476e-05 
3.117098027195926e-05 
5.200482982011883e-05 
5.089018650761049e-05 
4.583856248561102e-05 
4.808093837283101e-05 
5.589373257671544e-05 
4.580121542508728e-05 
4.538014822750114e-05 
4.272872889782987e-05 
4.441808939532622e-05 
3.629825246429984e-05 
3.742326854717587e-05 
3.191611919906441e-05 
3.095752640441513e-05 
2.75516049850955e-05 
3.238978149266538e-05 
3.112916220091085e-05 
2.539755060770622e-05 
2.681422424573442e-05 
2.498663014415883e-05 
2.934137155065225e-05 
2.93234205200391e-05 
2.25197889535819e-05 
2.052790187249284e-05 
2.084519100908615e-05 
1.898577471939546e-05 
2.044471006508263e-05 
1.953976007622185e-05 
1.728272744706475e-05 
1.480458744820061e-05 
1.379363923660503e-05 
1.369851334076951e-05 
1.323235669566047e-05 
1.270129589402088e-05 
1.27748006418609e-05 
1.134141055333158e-05 
1.066045736872878e-05 
1.083231659348304e-05 
1.007033674289038e-05 
9.535755075512191e-06 
8.70524830653036e-06 
8.721136359825233e-06 
8.111323250874202e-06 
7.380529630615191e-06 
7.207574761958876e-06 
6.495970675741758e-06 
6.471471588802757e-06 
6.540655650178578e-06 
6.700900030537686e-06 
6.604568295328142e-06 
5.925813470950736e-06 
5.340107670601252e-06 
5.415642827063788e-06 
4.943330200245413e-06 
4.653569380698607e-06 
4.525509978035154e-06 
4.425263104566088e-06 
3.856313331306169e-06 
3.772305844905207e-06 
3.66037148729313e-06 
3.786520396692328e-06 
3.58735475343479e-06 
3.310317966983709e-06 
3.063969558007935e-06 
2.712752737014163e-06 
2.754922753166663e-06 
2.446960872626308e-06 
2.54586458532174e-06 
2.400864187983432e-06 
2.294813605857298e-06 
2.135275317842483e-06 
1.958809486019025e-06 
1.880186086017477e-06 
1.98043712512611e-06 
1.630118487765063e-06 
1.668119658162413e-06 
1.531752213148529e-06 
1.1232889246484e-06 
8.515511312334884e-07 
7.586715974859052e-07 
7.976924775010919e-07 
2.407338737419372e-07 
3.000767264319203e-19 
5.385412421940277e-05 
