solver_type L2R_LR
nr_class 2
label 0 1
nr_feature 105
bias 1
w
0 
0.001292938120283424 
0.0009771835064705003 
0.001074372272801741 
0.0001626253781045514 
0.0001607888048962887 
6.148528638694519e-05 
6.572211012143909e-05 
3.689043588278053e-05 
2.564174506520978e-05 
6.758995831455011e-06 
-3.124101722148863e-05 
-4.720207071625102e-06 
-9.754981338534029e-06 
-2.80246910733953e-05 
-2.127800710892908e-05 
-3.557218850753237e-05 
-3.314845988804135e-05 
-2.19523394162189e-05 
-3.221993542589261e-06 
-1.800025598537651e-05 
3.173990782289443e-06 
9.458124512204508e-07 
-7.594063567322096e-07 
-1.342175413207786e-05 
-6.042984876465534e-06 
-9.994160980897738e-06 
-1.247861244356903e-05 
-1.112981146748582e-05 
-1.057261585040198e-05 
-1.265124008349426e-05 
-1.247193508923406e-05 
-1.32633428146993e-05 
-1.093177086798063e-05 
-1.146574641364439e-05 
-1.342184746792972e-05 
-1.799698390310659e-05 
-1.729715370613863e-05 
-1.442618878377949e-05 
-1.259806076066016e-05 
-1.244301541784086e-05 
-1.383954871855311e-05 
-1.481271467991387e-05 
-1.298020318642307e-05 
-1.171166394766897e-05 
-1.043111384427805e-05 
-1.032493068158937e-05 
-9.600576525476667e-06 
-9.787956953393641e-06 
-1.03386608404928e-05 
-1.072630855882753e-05 
-9.165507150195198e-06 
-9.57237680361266e-06 
-9.387837460405109e-06 
-9.133981500917476e-06 
-7.833996726952517e-06 
-7.510678070788998e-06 
-6.404472095661403e-06 
-7.1980451197454e-06 
-6.871361368433394e-06 
-6.597843697751252e-06 
-5.971357783191616e-06 
-5.287395040467383e-06 
-5.376748248467923e-06 
-4.781371965608341e-06 
-4.968378232504439e-06 
-5.561716712527469e-06 
-5.316508253722347e-06 
-4.787880320519068e-06 
-4.762022486983697e-06 
-4.723032590523444e-06 
-4.119026438663657e-06 
-4.683900596791987e-06 
-4.362657500943404e-06 
-3.748820322864922e-06 
-3.770825342363855e-06 
-3.410545894217611e-06 
-3.389842529961435e-06 
-3.440462431716748e-06 
-3.691707187353618e-06 
-3.214565424828366e-06 
-3.038131618506169e-06 
-2.658502277177409e-06 
-2.860474757920507e-06 
-2.670053923338933e-06 
-2.62212663378396e-06 
-2.507007959133919e-06 
-2.424052086576598e-06 
-2.33002669120439e-06 
-2.167692936358024e-06 
-1.81928543527439e-06 
-1.755151188502171e-06 
-1.792863469029905e-06 
-1.753407621486948e-06 
-1.493042261299475e-06 
-1.298671909328485e-06 
-9.710711812200542e-07 
-1.00960547598457e-06 
-9.175098177627966e-07 
-9.004748358798362e-07 
-1.009028455171756e-06 
-7.566476467575516e-07 
-9.16723074853422e-07 
-8.940919573439825e-07 
-2.071802566120622e-19 
-5.998751999849349e-05 
