solver_type L2R_LR
nr_class 2
label 0 1
nr_feature 105
bias 1
w
0 
-0.0002514555707969192 
-0.000106179059151333 
0.0001574412516854712 
-2.604141394382553e-05 
8.463290996150897e-06 
5.458136948385434e-05 
3.085323187427253e-05 
4.152950824836202e-05 
5.900144714735629e-05 
6.482782543938721e-05 
-1.849709751182936e-06 
2.404623859034616e-05 
-1.493511761895763e-05 
2.320002942443854e-05 
7.226625522752534e-05 
7.117266557534323e-05 
7.687129525096132e-05 
6.425213541336762e-05 
3.848895566865222e-05 
5.553187706657406e-05 
5.555932564357085e-05 
5.273753252017408e-05 
4.558005062983679e-05 
3.937703517941268e-05 
5.095902520519637e-05 
5.66449993099563e-05 
4.287477552669748e-05 
4.906950904516853e-05 
4.259130329969498e-05 
3.951486415411535e-05 
3.659417270353368e-05 
3.889670840906959e-05 
3.372241813139209e-05 
3.985147024958898e-05 
3.647352887460741e-05 
3.762033401018648e-05 
3.540680595394878e-05 
3.448036594431964e-05 
3.251800628833396e-05 
3.040410229953673e-05 
2.871389426142401e-05 
2.888007609267584e-05 
2.861551348492664e-05 
2.490546323255561e-05 
2.424531153426447e-05 
2.16401099458095e-05 
2.158524939576573e-05 
2.203675107265254e-05 
2.135681818166289e-05 
1.922437116541474e-05 
1.786560529687859e-05 
1.650026372348394e-05 
1.60390277607996e-05 
1.450934417031366e-05 
1.399216420668091e-05 
1.364535549209604e-05 
1.238788937656909e-05 
1.249201061656686e-05 
1.172886404387682e-05 
1.063385930193799e-05 
9.710212402646341e-06 
9.068837406110156e-06 
8.337322628120574e-06 
8.096000725281563e-06 
7.719941988464504e-06 
6.785497284177211e-06 
6.145532990154379e-06 
6.021206144448011e-06 
5.98914622064194e-06 
5.836057642002712e-06 
5.514483378676165e-06 
5.593522808729316e-06 
5.041142523925059e-06 
4.902366530291104e-06 
4.079329943188747e-06 
4.110293866486931e-06 
3.867160978893194e-06 
3.951887843726497e-06 
3.471804126255518e-06 
3.075110059064288e-06 
2.762667918438268e-06 
2.639747361377326e-06 
2.548548461479038e-06 
2.248492536377539e-06 
2.437505947548787e-06 
2.180918535424468e-06 
2.194798263235517e-06 
2.056736636438631e-06 
1.852899177749922e-06 
1.958403839960255e-06 
1.676112989097987e-06 
1.768523034559071e-06 
1.144108982851883e-06 
1.215102210195074e-06 
1.167831180926626e-06 
1.262770669125152e-06 
1.01280753365401e-06 
1.015256464237098e-06 
9.659294444041381e-07 
5.629998549339062e-07 
4.110957186056854e-07 
4.26750947759262e-07 
4.104318330094476e-07 
-6.838855207431382e-22 
2.019678051170815e-06 
