solver_type L2R_LR
nr_class 2
label 0 1
nr_feature 105
bias 1
w
0 
-0.0008152029038591878 
3.647825306528307e-05 
1.723397047379579e-05 
-4.67929991921168e-05 
8.491792148480956e-05 
7.658647051670404e-05 
8.370453514282839e-05 
0.000127824269318675 
0.000153152251195895 
0.0001054548675495744 
0.00011665906362857 
0.0001054895932257904 
0.0001620610611043963 
0.0001125096901846861 
9.215518266097899e-05 
0.0001032711621508338 
8.118985133645932e-05 
8.488026148870801e-05 
8.009143658831262e-05 
7.652879817860424e-05 
8.09884417301512e-05 
6.414506399775769e-05 
6.450369357597564e-05 
5.644334419678696e-05 
5.426039362541691e-05 
5.395609996950857e-05 
4.431965526656448e-05 
3.849160375303394e-05 
3.605080655670901e-05 
3.736840931550917e-05 
3.163859184592041e-05 
3.606859750811716e-05 
3.363368238684463e-05 
2.863921066452409e-05 
2.592101321031765e-05 
2.318154991025284e-05 
2.573170206284947e-05 
2.496001894046464e-05 
2.425799666263285e-05 
2.401228475722267e-05 
2.232529794681203e-05 
1.831382240833078e-05 
1.808647359826308e-05 
1.648795953734906e-05 
1.560412052666488e-05 
1.39712452512066e-05 
1.462866203821799e-05 
1.288843109492411e-05 
1.144146872659896e-05 
9.306955875730647e-06 
9.109313334938642e-06 
9.546482486483729e-06 
7.475220474296787e-06 
7.71021278270563e-06 
8.159172893906859e-06 
7.193605921937805e-06 
7.526967242086477e-06 
6.816350296419992e-06 
6.781646237687911e-06 
6.07607735171286e-06 
5.554575769811018e-06 
4.869671018578904e-06 
4.927539189844048e-06 
5.021152318863607e-06 
4.757712899318698e-06 
4.605717216277134e-06 
4.223597489677404e-06 
3.937590723770028e-06 
3.448735962976038e-06 
4.317505518832296e-06 
3.827181080303782e-06 
3.612469560686911e-06 
3.108790529480164e-06 
2.879525914580027e-06 
3.240768695920494e-06 
2.834043136100362e-06 
2.588124686334397e-06 
2.471392137805477e-06 
2.411780476405906e-06 
2.14222393390389e-06 
2.280362515730035e-06 
2.402114920663803e-06 
2.304893193588433e-06 
2.415726454982763e-06 
2.091648515954365e-06 
2.035121337788763e-06 
1.773450286909534e-06 
1.657428675906561e-06 
1.583925002121394e-06 
1.475003341357195e-06 
1.401126576925402e-06 
1.409406527533455e-06 
1.17134530239919e-06 
1.008806610014035e-06 
1.153819140158649e-06 
1.115672189886128e-06 
7.799056281641189e-07 
8.585440086716465e-07 
6.356381754345832e-07 
6.028958994596874e-07 
4.47798072622051e-07 
3.591135492555525e-07 
6.010381103294935e-07 
1.485604188397861e-19 
8.309883109489518e-06 
