solver_type L2R_LR
nr_class 2
label 0 1
nr_feature 105
bias 1
w
0 
-0.0008670316779962052 
-0.0005420214024912477 
-0.0005253789162227886 
-0.0001921144864633025 
-0.0001508495286402327 
-0.0001354557859148549 
-8.500869593165968e-05 
-0.0001218430370804683 
-0.0001190475030711904 
-2.478015691546908e-05 
4.152467069519588e-06 
-2.95876406850713e-05 
-2.108466400820998e-06 
-3.200761323631518e-06 
-2.050724194573952e-05 
-2.828896199034396e-06 
-2.345482407052131e-05 
-6.526498821210654e-06 
-7.322645882717075e-06 
-1.858453028701801e-05 
-1.285260254790236e-05 
-2.04760528217132e-05 
-1.232932445578793e-05 
-1.412467140883936e-05 
-1.433250289629731e-05 
-1.08353283496127e-05 
-1.161361457591825e-05 
-1.537494350634807e-05 
-1.358470326782011e-05 
-1.525623421676717e-05 
-2.049064509614764e-05 
-1.785492293128841e-05 
-1.991070900925314e-05 
-1.786038529432312e-05 
-1.624043221654374e-05 
-1.585234484306536e-05 
-1.564951560136783e-05 
-1.605429267004864e-05 
-1.282426948246353e-05 
-1.237780348271254e-05 
-1.127503957564312e-05 
-1.04477943424086e-05 
-7.859043526107025e-06 
-8.254476005968812e-06 
-7.378800737584071e-06 
-7.671516745018428e-06 
-5.375011032769659e-06 
-5.587840798904374e-06 
-6.099005530547173e-06 
-7.139054518401079e-06 
-6.195178299555304e-06 
-6.08244587359279e-06 
-6.536608337435449e-06 
-5.254509698028722e-06 
-4.472313819154198e-06 
-4.373421638592201e-06 
-3.197070042720838e-06 
-4.2568914905639e-06 
-3.775441288215096e-06 
-3.169918823609245e-06 
-2.982805511270018e-06 
-3.237412977011326e-06 
-2.336424064090017e-06 
-2.602043511885225e-06 
-2.463591351925277e-06 
-2.122370248149832e-06 
-1.607089908326318e-06 
-1.543873260378301e-06 
-1.399977093426699e-06 
-4.569735213737958e-07 
-1.221495124042019e-06 
-1.374810733704841e-06 
-1.785073677639083e-06 
-1.522205501049293e-06 
-8.71470302445411e-07 
-6.115956644204366e-07 
-6.887482160884135e-07 
-3.942543187449017e-07 
-5.312368173498564e-07 
-7.246105056152065e-07 
-3.220317837373607e-07 
-1.368756978942487e-07 
-1.625053762003121e-07 
3.782068257443714e-08 
4.192572399034765e-08 
-1.150196518530888e-08 
1.238668213820423e-07 
2.33645885257969e-07 
2.719985541342872e-07 
1.579062222481759e-07 
2.197385798602646e-07 
2.27827505928858e-07 
2.8735836457847e-07 
8.954113487082032e-08 
1.162094161426551e-07 
1.674487727122173e-07 
-1.653713422324716e-08 
1.511764795890193e-07 
2.0802251669619e-07 
2.293186322654726e-07 
2.026915722123434e-07 
1.622824164862756e-07 
1.699419298590351e-07 
1.009510347475954e-19 
3.741006915365955e-05 
