solver_type L2R_LR
nr_class 2
label 0 1
nr_feature 105
bias 1
w
0 
-0.0001452134783377863 
0.0002519862617298262 
5.724768219136585e-06 
0.0002410002701727872 
0.0002115310446251436 
0.0001408978658963386 
0.0001225315272724079 
0.000129307310971289 
0.0001096683781441203 
0.0001352004997362263 
0.000147193206385373 
0.0001652400978059392 
0.0001279095386946319 
0.0001190529228677405 
0.000118808330245736 
0.0001272401791845909 
0.0001322564364188783 
0.0001078724371478794 
8.874449791760999e-05 
8.54042409596022e-05 
7.795539218112229e-05 
6.734026997805696e-05 
6.790948662510909e-05 
7.101012841144173e-05 
7.343976230856381e-05 
5.936600009077619e-05 
6.451429935213303e-05 
5.030375709027134e-05 
4.66264733529337e-05 
4.691197978647592e-05 
4.930305199036371e-05 
4.88667415620871e-05 
5.176924525159448e-05 
4.966692118567642e-05 
4.681283281741004e-05 
4.509311087352662e-05 
3.818570966076454e-05 
3.599134150489315e-05 
3.465209409177875e-05 
3.336226006386977e-05 
3.401970034727711e-05 
2.64692397584447e-05 
2.657235577697594e-05 
2.50454974908397e-05 
2.302916885193178e-05 
2.107822858582494e-05 
2.035881287417099e-05 
2.049097203376648e-05 
1.901448582321701e-05 
1.926276393451132e-05 
1.707287562681307e-05 
1.461302078381845e-05 
1.394568457547274e-05 
1.259124146039089e-05 
1.343581341555046e-05 
1.265290356759073e-05 
1.162966889739739e-05 
1.091466356067842e-05 
1.039058101173464e-05 
9.133948951898108e-06 
8.665224884206342e-06 
7.729124900036284e-06 
7.482964885083482e-06 
7.651662416941813e-06 
7.147629673953415e-06 
6.444286737766828e-06 
5.851788080973525e-06 
5.6570384450897e-06 
5.880121122639913e-06 
5.053762327300365e-06 
5.532348974343536e-06 
5.065286688269337e-06 
4.704007312591932e-06 
4.526910326336952e-06 
3.824427366751113e-06 
3.903492117952082e-06 
3.512884427125985e-06 
3.177758563844383e-06 
2.724860393091633e-06 
3.083031042549875e-06 
2.395222427411598e-06 
2.502230408411982e-06 
2.12315132907927e-06 
2.021690633344485e-06 
1.807478985654921e-06 
1.634986291767671e-06 
1.580097135454507e-06 
1.337392358162307e-06 
1.115456575610417e-06 
1.019084988831174e-06 
7.770333268047348e-07 
8.93590159768861e-07 
5.928037238051598e-07 
6.156782255352887e-07 
4.834974678929931e-07 
1.891338729031943e-07 
3.080365786399885e-07 
2.351557026723325e-07 
1.313605830259675e-07 
9.068417199656291e-08 
-9.946650681817183e-08 
3.783634207597647e-08 
1.591314198325165e-07 
2.080517804449621e-19 
-1.53450295167461e-05 
