solver_type L2R_LR
nr_class 2
label 0 1
nr_feature 105
bias 1
w
0 
-3.213539379118762e-05 
0.000808008679223135 
0.0001950394720213505 
0.0001557240028393349 
0.0001165020186642105 
0.0001137616374475641 
5.208108355952194e-05 
5.759921036045544e-05 
5.796318306738393e-05 
0.0001027793560954364 
8.921311458243588e-05 
0.0001046219878216455 
5.440903254855381e-05 
7.080094975422692e-05 
7.468758587118251e-05 
9.030424108763807e-05 
8.729838641269617e-05 
7.874557290762094e-05 
4.673266074260504e-05 
5.77443634863933e-05 
6.095572433860672e-05 
4.900392459509083e-05 
4.611297963398866e-05 
4.655801389512753e-05 
4.531972865445708e-05 
4.000142134871437e-05 
3.86147111371154e-05 
3.439336282648954e-05 
2.839361225930539e-05 
2.84493657473356e-05 
2.351487971603939e-05 
2.698841160091554e-05 
2.427770912450017e-05 
2.765694340949565e-05 
2.53437353288436e-05 
2.495006484929056e-05 
2.230521029538302e-05 
2.137554377110132e-05 
1.935778026510648e-05 
1.686993027267383e-05 
1.498522693263105e-05 
1.086213608557103e-05 
1.312803297264834e-05 
1.316474905860226e-05 
1.254856140649083e-05 
1.18824861361847e-05 
1.190242818257792e-05 
1.162757183424065e-05 
1.020151747193721e-05 
1.005349047812039e-05 
7.334234128683435e-06 
6.282468363626654e-06 
7.316645299708472e-06 
5.765874037105568e-06 
6.838039381431464e-06 
6.217328561601817e-06 
5.695961127494402e-06 
5.442248406334042e-06 
5.127671865135035e-06 
4.457345587257107e-06 
4.406411727672537e-06 
4.140171313936447e-06 
3.725717316135573e-06 
3.732298948629534e-06 
3.219789089893729e-06 
2.760680570526796e-06 
2.39108853178529e-06 
2.74095410024811e-06 
2.62601690071036e-06 
2.524337864333287e-06 
2.898428788392908e-06 
2.93148457259798e-06 
2.438141616717254e-06 
2.352458436176004e-06 
1.676128808857427e-06 
1.616055843890827e-06 
1.716758240196679e-06 
1.63464140624624e-06 
1.209612975213265e-06 
1.565289187365751e-06 
1.086016607201378e-06 
1.131757350194713e-06 
8.567224719131759e-07 
9.505028104261468e-07 
9.446725766816209e-07 
7.874838722968545e-07 
9.956470509645726e-07 
6.759471452938583e-07 
5.073545880068074e-07 
7.275412730643228e-07 
4.248236423832998e-07 
5.592809451443786e-07 
1.151485380084433e-07 
3.481127847998542e-07 
2.780679969036828e-07 
4.788511128229129e-07 
5.661062303893608e-07 
4.335764802256418e-07 
1.792562981023334e-07 
1.093314078406103e-07 
6.608820442212059e-08 
-1.677120874122676e-08 
1.284865972568059e-07 
-8.830238963003283e-20 
-2.402413299386113e-05 
