solver_type L2R_LR
nr_class 2
label 0 1
nr_feature 105
bias 1
w
0 
-0.0009510829708200496 
-0.0009068434480089082 
-0.0001070160549423585 
-0.0001208382852390146 
-5.932200490409492e-06 
-2.608090276622304e-05 
-2.240899395206229e-05 
6.033908124699327e-05 
2.500022112258217e-05 
5.998687362774674e-05 
-3.993917260086189e-06 
1.87853662834077e-05 
6.565063582039113e-07 
1.393404322100102e-05 
3.884651704961688e-05 
2.226060154582112e-05 
4.311860874778869e-05 
1.744827596146347e-05 
3.745570752348893e-05 
4.337782675901951e-05 
3.858264307731482e-05 
3.728875458405793e-05 
4.025838298984605e-05 
3.813138167261664e-05 
5.095747582267423e-05 
5.46416510676363e-05 
4.881893537689115e-05 
4.653113332280564e-05 
4.539949420917829e-05 
3.986054078599032e-05 
4.3424999445681e-05 
3.760899360976365e-05 
3.7931205878675e-05 
3.513460558824472e-05 
3.316794657111273e-05 
3.261234002047338e-05 
3.596758757630231e-05 
3.327875615371067e-05 
2.924621089766707e-05 
3.129086670814441e-05 
2.927067266393814e-05 
3.142940248294373e-05 
2.931639376573506e-05 
2.352940239044013e-05 
2.127664889715502e-05 
2.040659576270833e-05 
1.953800525164772e-05 
2.135968547897312e-05 
2.123139940718386e-05 
1.864484974850417e-05 
1.692273133901508e-05 
1.551873852430783e-05 
1.420663816871465e-05 
1.310669200666024e-05 
1.265572281147145e-05 
1.316329531801633e-05 
1.137313566481647e-05 
1.134580594885738e-05 
1.114426994216629e-05 
9.96660083778215e-06 
9.47601124613612e-06 
8.530437715215725e-06 
8.445498063389102e-06 
7.950966571585996e-06 
7.291467353702342e-06 
6.93562554191162e-06 
6.390326839309598e-06 
6.247284868391537e-06 
6.236745639476322e-06 
5.867182030524515e-06 
5.628748150707891e-06 
5.410468978108053e-06 
4.864631062429229e-06 
5.189696354950876e-06 
4.525282258819145e-06 
4.539904701404537e-06 
3.971967621383812e-06 
3.804656060096364e-06 
3.338083615787399e-06 
3.112774107515424e-06 
2.994618106414685e-06 
2.929716636373844e-06 
2.957189964578222e-06 
2.74195160812951e-06 
2.646137564363409e-06 
2.213518738085673e-06 
2.184609793061024e-06 
2.027005189377824e-06 
2.122451359860548e-06 
1.934069026345606e-06 
1.994555861378089e-06 
1.919000903990831e-06 
1.582248947079688e-06 
1.464391180971108e-06 
1.475542307302399e-06 
1.31488730420594e-06 
1.174496973284324e-06 
1.193899232662946e-06 
1.137735812704547e-06 
6.81997797329536e-07 
4.362850843804926e-07 
5.089095264260292e-07 
2.649558645166449e-07 
1.680959884674227e-19 
3.920507913196757e-05 
