solver_type L2R_LR
nr_class 2
label 0 1
nr_feature 105
bias 1
w
0 
-0.0001201627752287133 
-0.0002856009682484231 
-7.863905779711114e-05 
-0.0002145268653367886 
-0.0002341085299049458 
-0.0002572267523340706 
-0.0002702458573788348 
-0.0002212509700814993 
-0.0001975818536600548 
-0.0001601453815627883 
-0.0001266938474631303 
-0.0001536997222145145 
-0.0001284171118118478 
-9.564739989214774e-05 
-0.0001260512974155116 
-0.0001096644447011331 
-0.0001169083792729591 
-0.0001194187055106459 
-0.0001142071167441715 
-9.99105554623653e-05 
-9.297051329071082e-05 
-9.190640220748093e-05 
-7.624582126528588e-05 
-7.41041149414773e-05 
-7.447565619346477e-05 
-7.10188552272236e-05 
-6.562416225884016e-05 
-5.161200070866001e-05 
-5.290854875971671e-05 
-5.281213387684133e-05 
-5.359106893475115e-05 
-4.763876445683465e-05 
-4.661984295434001e-05 
-4.149503782420445e-05 
-3.542040752396594e-05 
-3.572161157704239e-05 
-3.375389063557723e-05 
-3.837998300045896e-05 
-3.009043706752205e-05 
-3.204510090397375e-05 
-2.735343944450933e-05 
-2.376391619844801e-05 
-2.198542561590734e-05 
-2.021096302881803e-05 
-1.890937654882067e-05 
-1.951353572910798e-05 
-1.632580995253529e-05 
-1.624639331445605e-05 
-1.510468606233088e-05 
-1.56768545868269e-05 
-1.318631299960217e-05 
-1.286071412619172e-05 
-1.158981100041174e-05 
-1.176306813147657e-05 
-1.172627994362563e-05 
-1.013560663101822e-05 
-9.766333833381763e-06 
-9.086729350972549e-06 
-8.867279423677064e-06 
-8.660884500339904e-06 
-7.970869454536379e-06 
-6.662934711784394e-06 
-5.904267245757035e-06 
-6.560770429087444e-06 
-6.271114544010543e-06 
-5.982010593878442e-06 
-5.140771532417235e-06 
-4.898247678230996e-06 
-4.665646000856772e-06 
-4.717530080041884e-06 
-4.772632792001128e-06 
-4.46693005612254e-06 
-3.813063984899472e-06 
-3.4241389209072e-06 
-2.978501448628467e-06 
-3.107431056170952e-06 
-3.077269221887971e-06 
-2.979552811265362e-06 
-2.862207415668766e-06 
-2.275676825214159e-06 
-2.387599472355484e-06 
-2.10630768817028e-06 
-1.770637010062687e-06 
-1.732561911983802e-06 
-1.424742098134021e-06 
-1.457394045716092e-06 
-1.044118654544812e-06 
-1.365959149846079e-06 
-1.378530922893416e-06 
-9.959845049823244e-07 
-1.118464702174349e-06 
-9.473370518935637e-07 
-6.062256916234033e-07 
-5.872481312980128e-07 
-8.091748431142853e-07 
-5.531536210069921e-07 
-4.084881553856238e-07 
-5.113076096188065e-07 
-4.144363232612167e-07 
-3.476853848414285e-07 
-2.237243681873553e-07 
3.433200829812619e-08 
4.535050666459714e-08 
-1.215292198730049e-19 
2.75160807086207e-05 
