solver_type L2R_LR
nr_class 2
label 0 1
nr_feature 105
bias 1
w
0 
0.001955456433923535 
0.001703575008873903 
0.0009460693993113949 
-6.65369280890178e-05 
-7.041397968374453e-05 
-0.0001243165364784258 
-0.0001780897840520849 
-0.0001825958746215661 
-0.0001719256602341922 
-0.0002272548396466323 
-0.0001625534095417933 
-0.0001934016062358186 
-0.0001856994108085737 
-0.000157662607555346 
-0.0001684343690161234 
-0.0001148510670970876 
-0.0001189511588851238 
-0.0001091153345474679 
-0.0001069529176696302 
-0.0001074193497817712 
-0.0001098999860064567 
-8.634368058946355e-05 
-8.747508600881857e-05 
-8.987936711670143e-05 
-9.261117683941456e-05 
-9.772101359605101e-05 
-9.316609010487676e-05 
-8.047568583646635e-05 
-8.774885587626587e-05 
-9.124928139104205e-05 
-8.547868832914233e-05 
-8.537914630891805e-05 
-8.455444479842001e-05 
-8.375697965222683e-05 
-8.312090345359303e-05 
-8.191735254237151e-05 
-7.702019728774607e-05 
-7.139679306284854e-05 
-7.046967860931938e-05 
-6.541534740319787e-05 
-6.434421368590289e-05 
-6.028223921452458e-05 
-5.517703181305604e-05 
-5.43630787028386e-05 
-4.900040978520351e-05 
-4.626570464672157e-05 
-4.343096548834353e-05 
-4.143243072368021e-05 
-3.934991281810788e-05 
-3.788453661285956e-05 
-3.705619524752961e-05 
-3.549651255501442e-05 
-3.334175044119496e-05 
-2.936526384220798e-05 
-2.858639493336875e-05 
-2.901706034548182e-05 
-2.596089920232999e-05 
-2.376317386262959e-05 
-2.407100585909061e-05 
-2.211838437354005e-05 
-2.154070064196461e-05 
-2.007225100755979e-05 
-1.962850022228545e-05 
-1.879260503936252e-05 
-1.810013832066655e-05 
-1.745138236689247e-05 
-1.674690040747602e-05 
-1.48999917521683e-05 
-1.447350520723951e-05 
-1.433726943355998e-05 
-1.362833067101892e-05 
-1.251873260633384e-05 
-1.239622995278585e-05 
-1.160867197547099e-05 
-1.118510625190655e-05 
-1.04979781494699e-05 
-9.715462189507057e-06 
-9.304265190983628e-06 
-9.070532765403747e-06 
-8.5094076801547e-06 
-8.060371751485243e-06 
-7.316314466717836e-06 
-7.108402470341292e-06 
-6.809222696885315e-06 
-6.274937816390928e-06 
-6.003909126599242e-06 
-5.553740490314524e-06 
-5.043956440096746e-06 
-4.930381540972217e-06 
-4.840759260402969e-06 
-4.655758400452163e-06 
-4.283394433097622e-06 
-3.755593860123592e-06 
-3.490540802459582e-06 
-3.324170836493542e-06 
-2.962322161983191e-06 
-2.967549928449045e-06 
-2.760662579487952e-06 
-2.443467753120987e-06 
-2.364300225677843e-06 
-1.952363623795633e-06 
-1.752451425231672e-06 
-1.370235803490447e-06 
-5.874139234781485e-19 
-6.919093509565311e-05 
