solver_type L2R_LR
nr_class 2
label 0 1
nr_feature 105
bias 1
w
0 
0.0002251826059321303 
0.0005306703221170558 
2.218448132582795e-05 
-0.0001569747343247702 
-0.0001567269318270515 
-0.0001400717590843032 
-0.00012418910194832 
-0.0001912867609556798 
-0.0001595529773011856 
-0.0001524034327688843 
-0.000151489504507845 
-0.0001500389753821013 
-0.0001567082068860133 
-0.0001386228744300279 
-0.000130347052270668 
-0.0001212060081037671 
-0.0001163857707131074 
-8.722651319613731e-05 
-7.97608203042566e-05 
-8.88538282460965e-05 
-8.760728105663396e-05 
-8.753151847626707e-05 
-8.466908705747771e-05 
-8.017617229507781e-05 
-7.834640339493277e-05 
-7.900429005798046e-05 
-7.45486864504293e-05 
-6.72473971604217e-05 
-6.336259437000659e-05 
-6.507287556147998e-05 
-6.689552294850675e-05 
-6.288751049331533e-05 
-5.910137484871665e-05 
-5.703295244188511e-05 
-5.921224182904461e-05 
-5.277918203771578e-05 
-5.137016820994564e-05 
-4.710832734891475e-05 
-4.460549289417161e-05 
-4.316077455981577e-05 
-4.210045432683162e-05 
-3.865355284697427e-05 
-3.591090559811132e-05 
-3.409784597559859e-05 
-3.029541697718474e-05 
-2.973280202978702e-05 
-2.883927691858875e-05 
-2.7275547177886e-05 
-2.621608397473594e-05 
-2.351056311520012e-05 
-2.291615451716288e-05 
-2.148299589303319e-05 
-2.040267589519631e-05 
-1.977484265155324e-05 
-1.893522209742605e-05 
-1.751320966427481e-05 
-1.611517189020596e-05 
-1.499174133112054e-05 
-1.372685580182504e-05 
-1.337672579572918e-05 
-1.23060867387872e-05 
-1.110015099507036e-05 
-1.078969371532189e-05 
-1.038317218049886e-05 
-1.005434775338381e-05 
-9.515521370340977e-06 
-8.821700368599103e-06 
-8.37793151834985e-06 
-7.884797546949455e-06 
-7.586216846680379e-06 
-7.78076460810169e-06 
-6.608225642209842e-06 
-6.092763146524171e-06 
-6.046142542299546e-06 
-5.487068769545166e-06 
-5.040824829402415e-06 
-4.91969831289704e-06 
-4.565486427977167e-06 
-4.794471016004689e-06 
-4.228581648947591e-06 
-3.770413608020648e-06 
-3.650783048447047e-06 
-3.495277007847909e-06 
-3.606546412238827e-06 
-3.213911169681516e-06 
-3.002755208005183e-06 
-2.525534078152493e-06 
-2.399414091809821e-06 
-2.335022073992574e-06 
-2.138937750382902e-06 
-2.083381353296784e-06 
-1.801042209533883e-06 
-1.723918480734059e-06 
-1.689986074484791e-06 
-1.504762119760294e-06 
-1.248499524870124e-06 
-1.174031872220824e-06 
-1.110744627547445e-06 
-1.059911034594934e-06 
-8.281324439497254e-07 
-6.406048209946635e-07 
-6.581206704964868e-07 
-4.589199759229748e-07 
-2.640223770379516e-19 
-1.439011064137124e-16 
