solver_type L2R_LR
nr_class 2
label 0 1
nr_feature 105
bias 1
w
0 
0.001211482636114118 
0.0006972643965077975 
0.0003260823389050354 
-0.0001494395291515562 
-0.0001739495482509097 
-0.0001266483035149579 
-0.0001807817603174212 
-0.0002348103448801434 
-0.0002173057872803439 
-0.000204535502265639 
-0.0001800677357383024 
-0.0001844865970976182 
-0.0001965903970256271 
-0.0001774524760265502 
-0.000157230820324777 
-0.0001362121861247079 
-0.0001363240638175549 
-0.0001143920765712674 
-0.00011310360688933 
-0.0001232251739024442 
-0.0001116974539466759 
-0.0001116043572634908 
-0.0001092515022481827 
-0.0001058973154656992 
-0.0001067137212503641 
-0.0001047018110727818 
-9.635974494905312e-05 
-8.739398349611103e-05 
-8.537888744082915e-05 
-8.912715756406947e-05 
-8.230950120584899e-05 
-7.745370602824923e-05 
-7.247099539951774e-05 
-7.304202431248033e-05 
-7.439138127761391e-05 
-7.203067973273943e-05 
-6.438868892389244e-05 
-6.730261186949139e-05 
-5.804607125398854e-05 
-5.697338387592748e-05 
-5.413194146465844e-05 
-5.210229517893452e-05 
-4.96290369938303e-05 
-4.430551883294643e-05 
-4.104134080232453e-05 
-4.042245474324828e-05 
-3.851430884762696e-05 
-3.897971945517843e-05 
-3.609208646021483e-05 
-3.430312618837435e-05 
-3.264578636721413e-05 
-3.035011013451161e-05 
-2.96027626032826e-05 
-2.843392405939398e-05 
-2.72330407759784e-05 
-2.518284873301819e-05 
-2.407309574222394e-05 
-2.258291212773446e-05 
-2.208773898736117e-05 
-2.071797656119282e-05 
-1.947738541381295e-05 
-1.769146734051737e-05 
-1.727927198072102e-05 
-1.62727567665092e-05 
-1.564973396977906e-05 
-1.443351458384496e-05 
-1.354707230068757e-05 
-1.285505894245423e-05 
-1.215728057244767e-05 
-1.171099655615229e-05 
-1.152036537968477e-05 
-1.078351131158742e-05 
-1.006086404097643e-05 
-9.496794036877467e-06 
-8.74377031253342e-06 
-8.210784165310371e-06 
-7.676503841494383e-06 
-7.688912913904682e-06 
-7.70781284845018e-06 
-6.986194595285805e-06 
-6.519328084409678e-06 
-6.293747933277897e-06 
-6.10558190214943e-06 
-5.965032181422035e-06 
-5.630542152393785e-06 
-5.046037236386403e-06 
-4.451861915971862e-06 
-4.25427962031616e-06 
-4.191294719536252e-06 
-4.106676580949489e-06 
-3.747006319327945e-06 
-3.41314183820722e-06 
-3.314928180627404e-06 
-3.20267812306594e-06 
-2.87969176423823e-06 
-2.534492534819918e-06 
-2.357152539061361e-06 
-1.975497719849944e-06 
-1.821493688579695e-06 
-1.72759170812859e-06 
-1.476200609758014e-06 
-1.172691553493354e-06 
-8.771063768283226e-07 
-5.454919788826709e-19 
-2.140270955172548e-05 
