solver_type L2R_LR
nr_class 2
label 0 1
nr_feature 105
bias 1
w
0 
-0.0007006466253983791 
-0.0005776660078822622 
-0.000827354864841105 
-0.000350579529429502 
-0.0004337897330374323 
-0.00040454773341321 
-0.0003683933321359843 
-0.0003659540035267836 
-0.0002807969198545605 
-0.0002271781360378667 
-0.000212585791000215 
-0.0002090921886286923 
-0.0002041901271502693 
-0.0001997877730493729 
-0.0001696764902797036 
-0.0001644525179889621 
-0.0001843137360884384 
-0.0001740113097274049 
-0.0001550828965403115 
-0.0001410742474256952 
-0.0001262711516414687 
-0.0001198186212018991 
-0.0001065307486882252 
-0.0001033210116895408 
-0.0001015309992660451 
-9.575737270694018e-05 
-9.657792887175468e-05 
-8.495706581337346e-05 
-7.523094889216101e-05 
-7.280172720596196e-05 
-7.039061658057395e-05 
-6.222720585178302e-05 
-6.507034460610152e-05 
-5.907489933467022e-05 
-5.945713926973393e-05 
-5.866354881309233e-05 
-5.224752260430333e-05 
-4.869360742281466e-05 
-4.831804713957518e-05 
-4.351405340611062e-05 
-4.019687560403534e-05 
-3.266247563685304e-05 
-3.333720943333132e-05 
-2.970473061287363e-05 
-2.830301794689551e-05 
-2.52029422719014e-05 
-2.407952009244248e-05 
-2.463149345819848e-05 
-2.395241351761058e-05 
-2.152918068202566e-05 
-2.166859465271973e-05 
-1.870507039510297e-05 
-1.800275507130245e-05 
-1.522110335935246e-05 
-1.526938458494159e-05 
-1.542082231920765e-05 
-1.401744800302087e-05 
-1.276696413201745e-05 
-1.198590357743267e-05 
-1.049541463521159e-05 
-9.650492314939069e-06 
-1.019287433929262e-05 
-8.608088430257833e-06 
-7.743978188732516e-06 
-7.24094267039339e-06 
-7.178802378867392e-06 
-6.556178903248318e-06 
-6.279429904326832e-06 
-6.072678879160152e-06 
-5.550365081157375e-06 
-4.789248055471417e-06 
-4.454137861674748e-06 
-4.477965445372796e-06 
-3.807076007409224e-06 
-3.607176033930128e-06 
-3.304569852865799e-06 
-3.29724067592371e-06 
-3.32723825072783e-06 
-3.076152926988603e-06 
-2.776359585430474e-06 
-2.294259516521272e-06 
-2.146655156313941e-06 
-2.174554473927043e-06 
-2.039697527431035e-06 
-1.664085501843822e-06 
-1.464682185409467e-06 
-1.458280748266306e-06 
-1.362598382429914e-06 
-1.010026489758916e-06 
-1.052681990324994e-06 
-1.092002136644293e-06 
-1.057910235007885e-06 
-6.837163610133957e-07 
-6.529998345146316e-07 
-4.813047821523658e-07 
-4.388800567252991e-07 
-5.060806639667845e-07 
-4.57965197283404e-07 
-4.373876680549785e-07 
-2.716826689340646e-07 
-1.07142539405566e-07 
-1.529316038815117e-07 
2.519285141312608e-07 
-1.731438099614655e-19 
6.711373288904774e-05 
