solver_type L2R_LR
nr_class 2
label 0 1
nr_feature 105
bias 1
w
0 
-0.0004015873851632563 
-3.232790662825938e-05 
-0.0002788677755609119 
-9.720976571171028e-05 
-8.259350148936417e-05 
-9.271236191592259e-05 
-4.265882472948436e-05 
-6.504431198243949e-05 
-4.713770550826266e-05 
-2.315272857954002e-05 
-3.991730408790455e-05 
-1.761721903821366e-05 
-1.237313665103793e-05 
-1.941959081805371e-05 
-1.362300708272432e-05 
-2.209449314102884e-05 
-2.089901962631445e-05 
-1.601394218023224e-05 
-5.939269946150549e-06 
-9.153425130342805e-06 
-5.938190184912539e-06 
-8.600502916310194e-06 
-8.206661250165486e-06 
-6.625037383897339e-06 
-2.082310377363399e-06 
-3.816878192387427e-06 
-2.956446189061041e-06 
-5.493734345756738e-06 
7.478835670458591e-07 
7.097341545613197e-06 
4.29601963690806e-06 
2.70095163874467e-06 
3.612724022694802e-06 
6.403630755272428e-06 
4.095567088235177e-06 
6.667793505624643e-06 
4.907007668773743e-06 
6.222212292213242e-06 
5.353005852717743e-06 
5.712918320775779e-06 
5.284194181677374e-06 
4.429527132325458e-06 
7.003969407582209e-06 
4.373468205533899e-06 
4.220536995702696e-06 
4.261416185783999e-06 
4.54153758573767e-06 
3.903562529691067e-06 
2.9394965453929e-06 
4.58658751548333e-06 
3.350505583812131e-06 
2.5950106200679e-06 
2.762216356399977e-06 
2.753857677562324e-06 
2.690093550692224e-06 
2.741676863842261e-06 
3.246680617699659e-06 
3.124460944279341e-06 
3.410083017046668e-06 
3.072174549951951e-06 
2.883821791787776e-06 
2.566682142959361e-06 
2.714852433021649e-06 
2.54427920595882e-06 
2.401763906090947e-06 
2.183184389366836e-06 
1.985638128364809e-06 
1.790149244465607e-06 
1.687235653959145e-06 
1.291791169888831e-06 
1.263959605157195e-06 
1.632629777099186e-06 
1.754216577515415e-06 
1.409160260890719e-06 
1.100465210432537e-06 
1.366427023721409e-06 
1.137423625342741e-06 
1.450881188714415e-06 
1.152887576895295e-06 
1.22139034553391e-06 
1.299925648837535e-06 
1.326893910764394e-06 
1.114580944490909e-06 
1.061935749096098e-06 
1.060681422005814e-06 
8.355307378287424e-07 
7.653985819389887e-07 
7.428756523647517e-07 
5.786346395662031e-07 
8.812889764593867e-07 
8.689611072475581e-07 
9.166775965641218e-07 
8.156338252309048e-07 
8.446003060405893e-07 
7.376216795317955e-07 
7.177747315690105e-07 
5.722295857599532e-07 
4.618504557706483e-07 
3.85200583407369e-07 
3.223551065173587e-07 
3.416005572004355e-07 
2.871924872829405e-07 
9.450694802431295e-08 
8.098177954718841e-20 
1.08924715006779e-05 
