solver_type L2R_LR
nr_class 2
label 0 1
nr_feature 105
bias 1
w
0 
0.0006815363897772021 
0.0003886339681366783 
0.0009402735331960554 
8.935363496183449e-05 
0.0001330120859670169 
4.149168260067897e-05 
5.862408450400132e-05 
0.000122842447283042 
0.0001425369213881568 
0.0001317337774299594 
0.0001076199155722797 
9.66669465170795e-05 
8.46861047564964e-05 
7.903109251443659e-05 
5.296883932899033e-05 
4.563555871145692e-05 
3.103977387290867e-05 
4.818715737360141e-05 
4.290684416737495e-05 
3.987978436856196e-05 
3.460339530724864e-05 
2.576140909022454e-05 
1.219744492514997e-05 
2.261274207656888e-05 
1.582653409152332e-05 
2.658553133085623e-05 
2.704791036846631e-05 
1.223551440787966e-05 
8.677086187001483e-06 
4.59952722208851e-07 
-1.253534404639848e-06 
-6.743799654628369e-06 
-4.091666510316933e-06 
-4.410997556222977e-06 
-5.454864611796751e-06 
-9.781929438700118e-06 
-1.077345950462375e-05 
-8.959136953755362e-06 
-1.008464533425007e-05 
-1.088464775749912e-05 
-1.300015945661857e-05 
-1.200640156903926e-05 
-1.318328837936262e-05 
-1.260251645877124e-05 
-1.509838403593854e-05 
-1.440564323608377e-05 
-1.546623783121241e-05 
-1.567718404502885e-05 
-1.269261602337688e-05 
-1.256655804389721e-05 
-1.286575210359542e-05 
-1.362630483045491e-05 
-1.29704399601268e-05 
-1.230938409941029e-05 
-1.146181423246813e-05 
-1.020430539227821e-05 
-1.000100822205215e-05 
-9.59964641108496e-06 
-9.158594002735296e-06 
-1.006057898149219e-05 
-8.5715835893201e-06 
-8.173340857113762e-06 
-7.79108379640557e-06 
-7.550933671827e-06 
-7.783525541211142e-06 
-7.202849741599251e-06 
-7.192294779075002e-06 
-6.251342960014405e-06 
-5.65158358018296e-06 
-4.806121374941897e-06 
-4.813641460864707e-06 
-4.505118370357349e-06 
-4.819863243012801e-06 
-4.668844818327924e-06 
-4.304725054028684e-06 
-3.863141082913453e-06 
-3.417059569236579e-06 
-3.192620431207269e-06 
-2.991118689413362e-06 
-3.08353826501997e-06 
-2.985695262008307e-06 
-3.166922582284009e-06 
-2.889869841174295e-06 
-2.456590673490239e-06 
-2.753507058703579e-06 
-2.685838996452713e-06 
-2.253897515937359e-06 
-2.285797935903193e-06 
-2.140938788107216e-06 
-2.014760984321592e-06 
-1.797002911176819e-06 
-1.752316614696985e-06 
-1.640198442171512e-06 
-1.878445641845524e-06 
-1.485945686499679e-06 
-1.296214398047392e-06 
-1.165825845974372e-06 
-1.140333611469997e-06 
-9.927718994879923e-07 
-1.115961440359554e-06 
-1.057830353296041e-06 
-7.286659880009074e-07 
-6.728632246059402e-07 
7.149638290514492e-20 
-4.026468945187757e-05 
