solver_type L2R_LR
nr_class 2
label 0 1
nr_feature 105
bias 1
w
0 
-0.001690236744285903 
-0.001659761529700371 
-0.000478735155117507 
-0.0002745704885875589 
-0.0001457197199596692 
-0.0001438525810595788 
-0.0001045473619849996 
-5.408992706075357e-05 
3.449435428194177e-05 
-1.809172153899901e-05 
-8.409612907975551e-06 
-8.270895897276706e-06 
1.463752054556825e-05 
1.050435546529032e-05 
-5.463563717673252e-07 
-2.540119393654299e-05 
-2.968238842735295e-05 
-8.293317037828817e-06 
-9.821437695962224e-06 
-1.456685816707073e-05 
-1.14651752534617e-05 
4.969913090511597e-06 
4.6087935988774e-07 
4.313422851528773e-06 
1.102765717678711e-05 
1.603715183777151e-05 
1.63988736829084e-05 
1.715322840319362e-05 
1.301908620206611e-05 
7.538173994527502e-06 
7.594401437355904e-06 
6.637219219286928e-06 
1.194358500775804e-05 
9.642125760839973e-06 
9.8401217508231e-06 
1.095471521865107e-05 
5.472656949557784e-06 
7.142232456005339e-06 
8.134628656704297e-06 
6.8611539208058e-06 
5.235690520990274e-06 
3.670186005167325e-06 
3.802273013040899e-06 
3.457327052270841e-06 
2.480753565435604e-06 
3.787316080969387e-06 
1.946184658073667e-06 
2.489252072219709e-07 
2.107175274972011e-06 
4.690809943293121e-06 
3.551109086477125e-06 
2.134913963599131e-06 
2.267690548417311e-06 
2.121025768022729e-06 
2.424972626538942e-06 
1.4903705633259e-06 
2.024133019183546e-06 
1.701541084080422e-06 
2.072701081653611e-06 
1.284576122612858e-06 
2.02842868837192e-06 
1.339102133534843e-06 
1.383658657298486e-06 
1.852361432172405e-06 
1.702933232141095e-06 
1.667080207334362e-06 
2.014184957632406e-06 
2.289323008273743e-06 
2.093988492989143e-06 
2.254996312066305e-06 
2.278717405087221e-06 
2.204269476351134e-06 
2.032773956988694e-06 
2.219576990101139e-06 
2.204589880791865e-06 
2.256146985890952e-06 
2.422480631075315e-06 
2.164519339500535e-06 
2.493748150111433e-06 
2.025030074611993e-06 
1.942370480971518e-06 
1.871034907575369e-06 
1.900175699596337e-06 
1.94451201999146e-06 
1.602988652439427e-06 
1.637845550532314e-06 
1.680504652268819e-06 
1.895911631470578e-06 
1.794381381777675e-06 
1.632567939988052e-06 
1.379687067575177e-06 
1.626572963196728e-06 
1.410290081422166e-06 
1.223231225097714e-06 
1.296757990259454e-06 
1.369566123400409e-06 
1.277157729072911e-06 
1.107450106699132e-06 
1.187841152858008e-06 
1.096445443879959e-06 
1.092184802840119e-06 
8.41366926073284e-07 
9.074240773531892e-07 
2.01195316553396e-19 
7.606742123191113e-05 
