solver_type L2R_LR
nr_class 2
label 0 1
nr_feature 105
bias 1
w
0 
0.001262961535255375 
0.001468307454002648 
0.0004836089724176512 
7.215083254575635e-05 
5.629376866441889e-06 
-1.2680415982163e-05 
-2.967508367727496e-05 
-6.335378321163117e-05 
-0.0001129355012360646 
-0.0001486526289023133 
-0.0001634333555389359 
-0.0001165745597149239 
-0.0001289504531863092 
-0.0001392136227525986 
-9.238146350181134e-05 
-0.000104424774635991 
-0.0001047568745304675 
-0.0001108926556143469 
-0.000102928001271836 
-8.196575623382282e-05 
-7.911409563915059e-05 
-6.845761981250283e-05 
-5.209034735392499e-05 
-6.340966600594454e-05 
-6.395607781345882e-05 
-5.143085646371784e-05 
-4.641722373639271e-05 
-5.235842040406126e-05 
-4.742257791144404e-05 
-4.873690877287354e-05 
-4.604496758190703e-05 
-3.643308906977397e-05 
-4.246043743780687e-05 
-3.34942079569425e-05 
-3.671249840647498e-05 
-3.779296212959264e-05 
-3.333681652776726e-05 
-3.567108713149626e-05 
-3.135686940681021e-05 
-2.907023691914501e-05 
-2.52758281336539e-05 
-1.847205637550475e-05 
-1.980933151007159e-05 
-1.751262638857846e-05 
-1.633989931191067e-05 
-1.554882630262325e-05 
-1.324373583655468e-05 
-1.530882689588819e-05 
-1.546774880855125e-05 
-1.449127529043121e-05 
-1.46519472701257e-05 
-1.174787485993368e-05 
-1.158936365805472e-05 
-1.033187493139429e-05 
-9.452548948327064e-06 
-1.066631262771386e-05 
-9.635789078556097e-06 
-9.424047124559422e-06 
-8.999174662238633e-06 
-8.690065261167298e-06 
-7.612087024884052e-06 
-7.747910305784782e-06 
-7.054406634415431e-06 
-6.369553002022178e-06 
-6.293845070900571e-06 
-6.117697171071519e-06 
-5.978284108078328e-06 
-6.153187379580782e-06 
-6.223824004906178e-06 
-5.475543590610924e-06 
-5.179843301043553e-06 
-5.202643406610962e-06 
-5.371440070667004e-06 
-5.020644884604386e-06 
-4.678277350071142e-06 
-4.177896241826521e-06 
-4.248704630853684e-06 
-4.441178529278368e-06 
-4.061936366743952e-06 
-4.205118729080237e-06 
-3.698164129254534e-06 
-3.868919328967242e-06 
-3.899331711361502e-06 
-3.277475218441312e-06 
-2.988644005186443e-06 
-3.299771961536333e-06 
-3.173673398077692e-06 
-2.607768465377219e-06 
-2.405668653097134e-06 
-2.490174621293739e-06 
-2.373611142002398e-06 
-2.367921860344101e-06 
-2.10716512236478e-06 
-2.124793786641391e-06 
-1.960460390393032e-06 
-1.71664209950466e-06 
-1.915057298587e-06 
-1.633365342071042e-06 
-1.389083157486276e-06 
-1.118806528240259e-06 
-9.577904739512669e-07 
-8.437999913333418e-07 
-3.75600149471706e-07 
-2.019850881830452e-19 
-5.405333024183582e-05 
