solver_type L2R_LR
nr_class 2
label 0 1
nr_feature 105
bias 1
w
0 
0.0008657345327214139 
0.0004640829912114288 
0.0001894330103404872 
9.979847360590286e-05 
-3.52909227262173e-05 
4.808263341487651e-05 
-3.352989020619804e-05 
-2.131547057118086e-05 
-7.221347355917085e-05 
-7.077507273071664e-05 
-6.06626558996153e-05 
-7.320170717632117e-05 
-0.0001091151664637473 
-6.74489630399025e-05 
-2.9489568180311e-05 
-4.111741164970733e-05 
-2.547952419942984e-05 
-3.307531753036369e-05 
-3.984547906078733e-05 
-3.962945975766816e-05 
-4.092785082999305e-05 
-3.876579151999942e-05 
-3.750980598071772e-05 
-4.219915679224256e-05 
-3.076134482410154e-05 
-2.757445695757287e-05 
-1.980357015142754e-05 
-1.338325091314565e-05 
-1.135770629858151e-05 
-1.551954438530149e-05 
-1.197024091799906e-05 
-6.206431055969578e-06 
-5.109462009628305e-06 
-3.969181244187081e-06 
-5.511792748531008e-06 
-7.857371707535683e-06 
-1.412033181080854e-06 
-6.705153220280058e-06 
-9.523352073773833e-07 
2.094683188787985e-06 
1.803155169831595e-06 
-1.025911451005971e-06 
8.209314869788983e-07 
7.092859041735907e-07 
5.286540709358843e-07 
2.454572586851756e-06 
2.165802198661311e-06 
-1.39363938115547e-07 
1.186706405040567e-06 
5.911724806606703e-07 
-6.772896407843321e-08 
1.37325985742265e-06 
-7.129807260333326e-09 
5.549244488492772e-07 
1.863484394992651e-06 
8.896565262828319e-07 
6.10098514572065e-07 
5.232117565712261e-07 
-2.613263901599752e-07 
-1.350207351343049e-07 
-5.316137138144896e-07 
-7.657662886806683e-07 
-1.258130001045033e-06 
-4.475446488256913e-07 
-4.413603067098036e-07 
-9.150541645147139e-08 
-9.037045596535686e-07 
-6.716569084008003e-07 
-1.053234640996268e-06 
-6.86823090422407e-07 
-9.859500142570619e-07 
-1.300945947444434e-06 
-1.2203161538646e-06 
-9.792015449750063e-07 
-1.463878785901561e-06 
-8.594117160776504e-07 
-8.651259744412407e-07 
-1.200011566036483e-06 
-1.421757935065491e-06 
-1.455804125471238e-06 
-1.259567962407127e-06 
-1.236517380952346e-06 
-1.278776598551403e-06 
-1.113769465262854e-06 
-1.155522597794816e-06 
-9.024441424353113e-07 
-9.952596355727387e-07 
-1.187266849861738e-06 
-1.116518198307905e-06 
-1.182775475416373e-06 
-8.826535306066855e-07 
-1.024883183779474e-06 
-1.015317361433994e-06 
-8.59575324635618e-07 
-7.782517247941763e-07 
-7.013273893052978e-07 
-8.846449064439542e-07 
-7.324886903587456e-07 
-6.765895189070196e-07 
-8.407313185685294e-07 
-7.197236347102356e-07 
-3.621492758291051e-07 
-5.948090966841849e-07 
-4.550336665216795e-20 
-2.364320734524689e-05 
