solver_type L2R_LR
nr_class 2
label 0 1
nr_feature 105
bias 1
w
0 
0.0008100027315567579 
0.0007526061911330959 
0.0008411873192083473 
5.378529015589719e-05 
0.0001025747472819941 
3.572383998752027e-05 
7.859891685768439e-06 
7.068995510504684e-06 
6.617499733983871e-06 
4.058732213692693e-05 
5.167605449821846e-05 
3.22682430029567e-05 
1.525027616778181e-05 
-1.996696607629679e-06 
5.647433610500833e-06 
-4.496884072676764e-06 
6.81657543934628e-07 
-2.839939985347295e-06 
1.220943303822869e-05 
3.939433240471451e-06 
1.179702922134304e-05 
-3.490972104275498e-06 
-1.56566900994471e-05 
-9.223389819743809e-06 
-1.85540878738313e-05 
-1.285462654495873e-05 
-1.48190347458084e-05 
-1.885292219531468e-05 
-2.090299468663208e-05 
-2.350227138887826e-05 
-2.022139943457658e-05 
-2.337978703229607e-05 
-2.001692840316765e-05 
-1.971119922915003e-05 
-1.856127095956254e-05 
-2.195417703055216e-05 
-2.173558971766438e-05 
-2.0559335225339e-05 
-2.425927230909596e-05 
-2.245326986508788e-05 
-2.432702899263093e-05 
-2.05495841080435e-05 
-2.269966826504016e-05 
-2.00739698693278e-05 
-1.93845068019819e-05 
-1.974815097527788e-05 
-2.046010644067728e-05 
-2.129191571508953e-05 
-1.871639509883198e-05 
-1.892925830990713e-05 
-1.753539932843384e-05 
-1.688152546303639e-05 
-1.656362610627486e-05 
-1.530340756836627e-05 
-1.460139641723097e-05 
-1.313205476433399e-05 
-1.265480655169241e-05 
-1.199308967732327e-05 
-1.187188579603655e-05 
-1.150381921230583e-05 
-1.076214593112895e-05 
-9.674877236444987e-06 
-8.765925646817347e-06 
-8.639241396576364e-06 
-9.565959433802942e-06 
-8.832090193289872e-06 
-8.698165388248814e-06 
-7.639228177721639e-06 
-6.923056584343479e-06 
-6.442298527141828e-06 
-5.891165031901522e-06 
-5.471614723382436e-06 
-5.821138325410024e-06 
-5.618769443024327e-06 
-5.065661329080019e-06 
-4.3974222678294e-06 
-4.09414613653836e-06 
-3.511983580272265e-06 
-3.611937181358578e-06 
-3.420801934540576e-06 
-3.316044441955134e-06 
-3.359834642798317e-06 
-2.869489614035439e-06 
-2.887173163216222e-06 
-2.823625160637091e-06 
-2.858730223623956e-06 
-2.56682050088288e-06 
-2.481282539840728e-06 
-2.185627108007337e-06 
-1.925671061587616e-06 
-1.635583472079407e-06 
-1.680930658666158e-06 
-1.39494492314321e-06 
-1.405714233030695e-06 
-1.329452609065066e-06 
-1.011840542169167e-06 
-8.989629722535914e-07 
-8.605627283202504e-07 
-9.549286327115844e-07 
-9.320828720183155e-07 
-7.651576996046322e-07 
-5.54057957505241e-07 
-5.717832538966085e-07 
-6.112766070931029e-20 
-4.302675726295597e-05 
