solver_type L2R_LR
nr_class 2
label 0 1
nr_feature 105
bias 1
w
0 
0.00124234387167838 
0.001177419138705532 
0.0006194830884687568 
0.0002901888003483739 
0.0002541750015187487 
9.961270948700987e-05 
9.06188469277467e-05 
0.0001220235778905002 
8.696143068108767e-05 
8.819632764833839e-05 
8.318316239129711e-05 
9.307595889068002e-05 
6.789328940325891e-05 
7.061281472713123e-05 
5.229097916085378e-05 
5.734562866572024e-05 
7.474898303884488e-05 
5.895453534097213e-05 
4.08245629018535e-05 
4.2429638856807e-05 
2.63673046532827e-05 
2.562422523983419e-05 
1.776638851613342e-05 
9.969974764559939e-06 
1.06324171054701e-05 
3.386386040398469e-07 
-2.14965446267924e-06 
-3.87058843690042e-06 
-4.291099582660409e-06 
-1.431248476862754e-08 
-1.750729023118346e-06 
-1.111642310702017e-06 
5.541353423535259e-07 
-5.335238186133849e-06 
-4.761434023005292e-06 
-6.982459488096404e-06 
-5.945788345520525e-06 
-9.930658806772861e-06 
-9.427674170709203e-06 
-8.433072356106699e-06 
-6.185771794042674e-06 
-6.671072461241766e-06 
-7.005911634046574e-06 
-9.844701609901989e-06 
-1.03474720954877e-05 
-6.622077675520451e-06 
-5.180814403368386e-06 
-4.273141167020777e-06 
-4.675314507501295e-06 
-6.175970156480812e-06 
-5.798857578478779e-06 
-5.323384586719001e-06 
-5.416611414292823e-06 
-6.052770837870455e-06 
-6.17536553637398e-06 
-4.728918321748486e-06 
-4.415544229965869e-06 
-4.420059965212079e-06 
-5.223814540929438e-06 
-4.909660807073801e-06 
-4.285439710449636e-06 
-4.901946091917581e-06 
-4.963018900962479e-06 
-4.417840309766409e-06 
-3.83275062922423e-06 
-4.400990155798931e-06 
-3.515828468741595e-06 
-3.412626749707872e-06 
-3.541161702475838e-06 
-3.268025664469356e-06 
-3.578876491928183e-06 
-3.202129173047959e-06 
-2.963158126525161e-06 
-2.920754810646882e-06 
-3.019747958281952e-06 
-2.897125605855693e-06 
-2.455526528802446e-06 
-2.345076701711458e-06 
-2.180470974440426e-06 
-2.48098137314118e-06 
-2.381495710333155e-06 
-2.189039074314039e-06 
-1.776596093487806e-06 
-1.579352964342352e-06 
-1.852130400601927e-06 
-1.672198712939689e-06 
-1.521130377459286e-06 
-1.716069199517181e-06 
-1.70859941698714e-06 
-1.506179984450172e-06 
-1.688192486219943e-06 
-1.67398272746569e-06 
-1.498945318084547e-06 
-1.197319644220154e-06 
-1.044068702906342e-06 
-1.289456355294263e-06 
-1.117394401168578e-06 
-1.165442568026901e-06 
-1.074517706963154e-06 
-9.494752475863996e-07 
-5.894343844246295e-07 
-6.382902678937069e-07 
-5.726941010352541e-07 
-2.606650955083353e-19 
-6.373193357715671e-05 
