solver_type L2R_LR
nr_class 2
label 0 1
nr_feature 105
bias 1
w
0 
0.0007271746266310754 
0.0004491648438029256 
0.0002201935178488126 
7.887222019551338e-05 
-2.673496106366953e-05 
-1.093142834182647e-05 
-4.479286215197046e-05 
-6.784100178087908e-05 
-9.245828645568196e-05 
-1.209035029038993e-05 
-6.442202311186357e-05 
-8.650099940577015e-05 
-4.659721612837952e-05 
-3.798253447985105e-05 
-4.374834283171316e-05 
-3.168887092018612e-05 
-4.142466765644114e-05 
-1.420751315996848e-05 
-2.188920277596948e-05 
-1.467510513833326e-05 
-1.438621027361311e-05 
-2.512236790768147e-05 
-1.811425134460766e-05 
-2.075502139247401e-05 
-1.846986397035521e-05 
-1.513314418373366e-05 
-5.249999904730063e-06 
-1.273673881033497e-05 
-8.534443288916454e-06 
-4.937628101280247e-06 
3.49835926039079e-06 
3.923072691778851e-06 
-3.071477149080683e-06 
-2.527403173412096e-06 
-2.348600490628028e-06 
-1.854151156678973e-06 
-1.277043410534438e-06 
1.753631655726691e-06 
-2.6817959533076e-07 
-1.175316928618109e-06 
-2.328831326862361e-06 
7.584519709967876e-07 
-7.72948319181952e-07 
-1.457500104749392e-06 
-5.756228165367541e-07 
-1.341918423996802e-06 
-1.80364167672884e-06 
2.382372543831567e-07 
1.65491802714777e-07 
-1.161692571378728e-06 
-3.478897544697017e-08 
1.047556384361687e-07 
-2.180347289479095e-06 
1.350548393741584e-07 
2.920817281001045e-07 
-4.1062895035665e-07 
1.418269603248721e-07 
-4.182640562178337e-07 
2.35095872806846e-07 
-2.004161950304851e-07 
-5.650467404229689e-07 
-1.037637271034119e-06 
-1.021490124306576e-06 
-1.473820135152539e-06 
-1.585862409235343e-06 
-1.728900869672214e-06 
-2.226141273469841e-06 
-1.315077972775769e-06 
-1.081804089279452e-06 
-9.786574393568998e-07 
-1.082897095526157e-06 
-1.543861827675185e-06 
-1.328707220291524e-06 
-1.678778755652847e-06 
-1.562265374462406e-06 
-1.411281913408733e-06 
-1.690034674914617e-06 
-1.534529260099123e-06 
-1.719037910800867e-06 
-1.472593234494157e-06 
-1.414763389865281e-06 
-1.309437594678351e-06 
-1.459737919699276e-06 
-1.5143958724752e-06 
-1.576969637749697e-06 
-1.582579259009719e-06 
-1.569486502791347e-06 
-1.657515518412309e-06 
-1.487861896773042e-06 
-1.439733924839174e-06 
-1.266013134101689e-06 
-1.299434446435565e-06 
-1.388371059253205e-06 
-1.306473135260453e-06 
-1.275156591478838e-06 
-1.282947674013048e-06 
-1.28601163099775e-06 
-1.195177283660869e-06 
-1.066371217489577e-06 
-1.023195875630216e-06 
-1.11201504848598e-06 
-1.083766334877368e-06 
-1.205405660711847e-06 
-7.165719866211073e-21 
-2.57894623989401e-05 
