solver_type L2R_LR
nr_class 2
label 0 1
nr_feature 105
bias 1
w
0 
-0.0009836217427231949 
-0.000851949185167448 
-0.0005618234664530319 
-0.0003851801534914236 
-0.0003194697698864159 
-0.0003109705222404617 
-0.0002714824563988761 
-0.0003279460342415956 
-0.0002733927491998114 
-0.0001918193450680617 
-0.0001301188423761792 
-0.0001488509249925329 
-8.229802155036789e-05 
-0.0001038587533496229 
-0.0001284252126759473 
-9.761062508470674e-05 
-9.066090074388427e-05 
-9.476904735557778e-05 
-9.127676364145103e-05 
-7.237827872634291e-05 
-7.459440476256004e-05 
-5.103895173838042e-05 
-5.179067038790447e-05 
-5.207541217901245e-05 
-4.866979643903581e-05 
-4.915088970068149e-05 
-4.561695523137948e-05 
-4.269468464475676e-05 
-3.649749383978094e-05 
-4.15256728187736e-05 
-2.875761943114144e-05 
-3.531763012155961e-05 
-3.288348680477031e-05 
-3.001923191181763e-05 
-3.115728661989511e-05 
-2.974437729298015e-05 
-3.082483413774565e-05 
-3.039151067775832e-05 
-3.017545490596917e-05 
-2.75106569012887e-05 
-2.305112925024115e-05 
-2.508776702055334e-05 
-2.412484205133743e-05 
-1.924421097817689e-05 
-1.914164265799262e-05 
-1.923517222060027e-05 
-1.699454122448712e-05 
-1.392684415237006e-05 
-1.385174446697988e-05 
-1.403422025039096e-05 
-1.11050998390446e-05 
-9.698563761122527e-06 
-1.076192165671083e-05 
-1.054981442139605e-05 
-9.505652955481342e-06 
-9.203505297048527e-06 
-8.63622686941182e-06 
-8.518966473487226e-06 
-8.444913211469954e-06 
-7.076759326112382e-06 
-6.134572458614637e-06 
-5.75980710580362e-06 
-5.209805387949373e-06 
-5.243067736956901e-06 
-4.461075216965503e-06 
-4.020753636382701e-06 
-3.589649915330829e-06 
-3.307559689396711e-06 
-3.438523425796141e-06 
-2.59605765178413e-06 
-2.765520018484892e-06 
-2.186604818863068e-06 
-1.757774210458284e-06 
-1.794687342467055e-06 
-1.057482511803352e-06 
-9.988511950481917e-07 
-1.141066638661942e-06 
-1.328107089146573e-06 
-9.601509661312352e-07 
-9.489745645930969e-07 
-2.247988437255686e-07 
1.570167842034095e-08 
-4.083587189066406e-08 
-1.291089300094226e-07 
-7.007946357956984e-08 
-1.854178089840518e-07 
-9.544793919593304e-08 
-1.33672332466184e-07 
-1.631600542874419e-07 
-5.382527139598938e-08 
-7.546673022528338e-08 
1.006993035214982e-07 
9.686820486074524e-08 
1.394027980749241e-07 
3.312027367910987e-07 
1.674519272984556e-07 
1.383107958356402e-07 
1.235621053355544e-07 
3.96693039497598e-07 
5.777543868880055e-07 
4.071958621804297e-07 
2.238860969994919e-07 
4.621161904149197e-07 
4.644319129263327e-20 
6.788672250268586e-05 
