solver_type L2R_LR
nr_class 2
label 0 1
nr_feature 105
bias 1
w
0 
0.0003612488111321664 
5.718356098057056e-05 
0.0005864037250647036 
0.0001513538556869366 
0.0002420494690466174 
0.000156198922510709 
0.0001969383024069936 
0.0001722335660112155 
0.0001748681729111853 
0.0001953102058089333 
0.000191627435106733 
0.000170764047430097 
0.0001450994670405873 
0.0001194430189207971 
0.0001035790869535884 
0.0001314519162728713 
0.0001083900405853755 
0.0001107681755498249 
8.987154802618312e-05 
8.754230491270513e-05 
8.979664439000267e-05 
8.212433827279339e-05 
7.060551874153122e-05 
5.783580370031928e-05 
6.324407500309765e-05 
5.016746595372191e-05 
3.590108446946841e-05 
3.499285343528413e-05 
3.504379864054024e-05 
3.178243412093083e-05 
2.378336395709987e-05 
2.179280668665737e-05 
2.252510309867874e-05 
1.475099226119954e-05 
1.309332686964682e-05 
1.04870253609907e-05 
1.03822835549529e-05 
5.348625841053739e-06 
6.259512425373384e-06 
6.954279364582129e-06 
4.822261372367852e-06 
4.083465398371585e-06 
-1.346692274453291e-06 
7.420423767416679e-07 
-7.317423787559439e-07 
-4.636768885813702e-07 
3.658719360776355e-08 
-2.068864500216709e-06 
-2.655598347493063e-06 
-2.626786027406214e-06 
-1.196965553998764e-06 
2.437440994788063e-07 
-3.686211623342711e-07 
-9.70583470250336e-07 
-7.369224497124106e-07 
-1.078368873904702e-06 
-8.12011212992721e-07 
-6.933174030221487e-07 
-5.603292560491406e-07 
-5.601449490998166e-07 
-9.334432054493165e-07 
-1.580345397440416e-06 
-1.389363768655713e-06 
-9.477451659578179e-07 
-6.856101747225015e-07 
-1.662023558825757e-07 
-9.803034823737703e-08 
-2.214793362152649e-07 
-1.679777878055475e-08 
2.11453447392692e-07 
1.799142550192796e-07 
4.481104726368688e-07 
7.305973583269157e-07 
3.872166037956474e-07 
6.03757198684874e-07 
2.82866895384074e-07 
3.049774186799776e-07 
2.238373178825697e-07 
7.697111462573948e-07 
4.983789203732228e-07 
2.439710275116243e-07 
5.617631696648487e-07 
4.913587021812704e-07 
2.21555295898824e-07 
1.859575345091461e-07 
2.674753015830137e-07 
3.331744378086249e-07 
3.314417963463668e-07 
1.734565136589619e-07 
2.008269572934927e-07 
2.127841751944499e-07 
1.867281925128062e-07 
3.631331759449398e-07 
3.886819806423115e-07 
4.175413072128422e-07 
4.733398677547854e-07 
3.351102554252045e-07 
2.387836124398351e-07 
1.943632812800974e-07 
2.470580595369007e-07 
3.149349434231427e-07 
3.848905758866402e-07 
3.513682007881935e-07 
-1.249722842366063e-19 
-2.952250510310573e-05 
