solver_type L2R_LR
nr_class 2
label 0 1
nr_feature 105
bias 1
w
0 
-3.144730080880697e-05 
0.0005684934572262631 
0.0004798328536425821 
-8.624513463098035e-05 
2.557203350954628e-05 
3.260792493203479e-05 
-6.918352263891089e-06 
5.056295294880948e-05 
-4.426357234566506e-05 
-2.025884166384127e-05 
-4.295437930987031e-05 
1.152741673117809e-06 
8.961037783852284e-06 
6.363896763784077e-06 
1.779103594145032e-05 
2.714920742635941e-05 
4.503139087664024e-05 
4.233824133811437e-05 
3.941251095817792e-05 
2.343460032806418e-05 
4.150360780994339e-05 
3.754178377242904e-05 
2.983812840498808e-05 
3.663485351115265e-05 
3.054816189848022e-05 
3.403490297576169e-05 
2.047903999203179e-05 
2.121140647663378e-05 
1.95505045949564e-05 
2.258063828654385e-05 
2.897489145985269e-05 
2.528221269321106e-05 
2.366023360652781e-05 
1.89067618687305e-05 
1.541048735376119e-05 
1.247755846994349e-05 
1.280921530092663e-05 
1.603937635834035e-05 
1.388351354417351e-05 
1.478320919411724e-05 
1.295621263764328e-05 
1.440396236442585e-05 
1.44319180195681e-05 
9.60704358737484e-06 
9.615342297276802e-06 
7.520440267637188e-06 
6.447422743918902e-06 
9.063594537457917e-06 
9.373943470664331e-06 
9.765328606311006e-06 
9.119651699405212e-06 
7.535337775051363e-06 
6.732270031322414e-06 
6.338413598691567e-06 
7.030865108608298e-06 
5.571412419396901e-06 
5.482072916199332e-06 
4.948794920588173e-06 
4.910532040756237e-06 
4.355424273221177e-06 
4.25022810184207e-06 
3.802015351256669e-06 
3.78585832182004e-06 
3.708949812624714e-06 
3.262839277596025e-06 
2.754644283077004e-06 
2.886399172086158e-06 
2.714982876159033e-06 
2.338008709052486e-06 
1.984994891130536e-06 
1.913999987798969e-06 
2.114520284436549e-06 
1.510131253827627e-06 
1.495769436548767e-06 
1.022380984088704e-06 
1.088142804392009e-06 
1.092252814532626e-06 
9.201494437593469e-07 
1.077721210879343e-06 
1.050423835353789e-06 
9.247029595753598e-07 
8.056728301784733e-07 
5.524612195575767e-07 
8.32980436820629e-07 
4.801447797374173e-07 
7.731564743494714e-07 
6.596749551310385e-07 
6.00394609842171e-07 
7.490663849892487e-07 
3.491478743576725e-07 
6.821899774184246e-07 
7.914918394865309e-07 
7.130430604709057e-07 
6.5701181057474e-07 
4.784557113865798e-07 
1.466335176951819e-07 
3.289938500633056e-07 
8.131471663574724e-08 
2.607889778020554e-07 
1.531532664894853e-07 
9.719406618186086e-08 
3.926447952122317e-08 
-1.663378975328898e-07 
-1.350622582779777e-19 
-1.587662574821433e-05 
