solver_type L2R_LR
nr_class 2
label 0 1
nr_feature 105
bias 1
w
0 
-5.223101971568072e-05 
0.0001832221600997026 
7.383208801205661e-05 
-0.0001176315145026765 
-0.0001052147956925237 
-3.645990592941765e-05 
-7.806720860635736e-05 
-3.78723393812077e-05 
-0.0001526901322316031 
-6.668584555043548e-05 
-0.0001030208793693342 
-8.683127370093938e-05 
-7.437945274115602e-05 
-5.043532938117001e-05 
-5.15059951869071e-06 
-9.990288826057779e-06 
-9.73265201447944e-06 
7.134922889738183e-06 
1.048156289360653e-05 
-1.018893196948294e-05 
1.397153517391344e-05 
8.219397621153299e-06 
7.873032426465202e-06 
6.126393031542667e-06 
1.835590668909434e-05 
2.0472398167498e-05 
2.020370788026912e-05 
1.132225281699655e-05 
1.379076905956806e-05 
1.499151881398582e-05 
2.232848110076579e-05 
2.398581101651314e-05 
1.894001613896274e-05 
1.839805741221145e-05 
1.471786906639784e-05 
1.268197232097542e-05 
1.238404274637024e-05 
1.600071063893496e-05 
1.365862216723707e-05 
1.75448784366557e-05 
1.509241024672195e-05 
1.862413205012651e-05 
1.632655466674919e-05 
1.220154495299289e-05 
1.254471085580392e-05 
1.051950943541299e-05 
9.145340330261641e-06 
1.069572727240971e-05 
1.203336429490558e-05 
1.052374933515449e-05 
1.066099019027418e-05 
1.040668407169163e-05 
8.162027610781072e-06 
8.674345158231227e-06 
8.662924532324815e-06 
7.341958242189839e-06 
7.650307446056057e-06 
6.755622164941458e-06 
6.842427488906576e-06 
5.550478269044525e-06 
4.937004411987365e-06 
4.613229009596801e-06 
3.991027825780549e-06 
3.700885392036585e-06 
3.456209689859507e-06 
2.897346033532169e-06 
2.749481441137485e-06 
2.497818526639781e-06 
2.617219715017158e-06 
2.631602414223922e-06 
2.082966885530629e-06 
2.063638720943447e-06 
1.808924372133897e-06 
1.366886528400061e-06 
1.128443187934039e-06 
1.396446658255191e-06 
1.095875635648292e-06 
8.584572755738828e-07 
9.225956663679643e-07 
9.734753737660985e-07 
6.789827879718878e-07 
6.746626279701179e-07 
4.848878136671064e-07 
5.911960484524305e-07 
5.343167997354017e-07 
5.44915129470855e-07 
5.022735280236037e-07 
2.657478307313432e-07 
5.243139281721171e-07 
1.793418295036131e-07 
2.848341896810465e-07 
3.184106023006833e-07 
5.1972791115207e-08 
1.529842753894254e-07 
3.87305854397228e-08 
-1.715421626105631e-07 
-8.219089888686971e-08 
-4.186393800888565e-08 
-6.020655726946599e-08 
9.031832360640914e-09 
-1.749292192941774e-08 
-8.152122210795459e-08 
-2.917927831674093e-07 
1.029250279259272e-19 
3.015038442394971e-06 
