solver_type L2R_LR
nr_class 2
label 0 1
nr_feature 105
bias 1
w
0 
-1.285320820021408e-05 
0.0003539970628584703 
0.0004531020934327802 
-0.0002359866346612392 
-0.0001339771652049978 
-0.0001438204848419524 
-0.0001717212029208966 
-0.0001542338985509854 
-7.910544466727031e-05 
-5.453649505349843e-05 
-8.354456257320422e-05 
-7.020497242588388e-05 
-4.61664242820347e-05 
-3.328001109671145e-05 
-5.553007027801247e-05 
-5.909841568694347e-05 
-4.381289679146786e-05 
-3.790203507327376e-05 
-3.074768341992668e-05 
-3.28418717716003e-05 
-2.610973358688369e-05 
-2.539302328294195e-05 
-2.222685418396227e-05 
-2.695992101820305e-05 
-3.377530181149432e-05 
-2.865864049068721e-05 
-2.996475143437259e-05 
-3.237640887163547e-05 
-2.694885234768388e-05 
-2.696192749640562e-05 
-3.182821489333888e-05 
-3.010089874227632e-05 
-3.271521278151238e-05 
-2.809942357714822e-05 
-2.922148790829808e-05 
-2.755877058356374e-05 
-2.638752386312874e-05 
-2.693411599633288e-05 
-2.625500499307859e-05 
-2.385729893011517e-05 
-2.048597455466506e-05 
-1.845474645268659e-05 
-1.584019114443808e-05 
-1.116235055875252e-05 
-1.420893166893439e-05 
-1.193426857406718e-05 
-1.164182998228228e-05 
-1.14471815594811e-05 
-1.116699252978637e-05 
-1.031985028750541e-05 
-9.244228055267828e-06 
-9.386095796347766e-06 
-8.868664590817631e-06 
-7.986175329831751e-06 
-8.137210614633149e-06 
-7.30093182982987e-06 
-7.49513135373907e-06 
-7.548820947746141e-06 
-5.682458107697213e-06 
-5.698781971101449e-06 
-5.242585686569551e-06 
-5.519349174583749e-06 
-4.992921520877197e-06 
-5.239532952226008e-06 
-4.942614470939486e-06 
-4.826516973948395e-06 
-4.565593993764475e-06 
-4.698368971861703e-06 
-4.457015777840681e-06 
-4.045914774011711e-06 
-3.58152709413633e-06 
-3.51548730528676e-06 
-3.677261351436738e-06 
-3.339981769207813e-06 
-3.164055722105187e-06 
-2.728995722717508e-06 
-2.522706491257502e-06 
-2.390272182098649e-06 
-2.416588377942829e-06 
-2.099439296596664e-06 
-2.3115536727721e-06 
-2.305826185837029e-06 
-2.108416997642988e-06 
-1.948789854174381e-06 
-2.042315574044955e-06 
-2.066312077029238e-06 
-1.875684042227111e-06 
-1.738144719911579e-06 
-1.486971612876806e-06 
-1.536497544736861e-06 
-1.39848798782237e-06 
-1.257761284899035e-06 
-1.350851915414534e-06 
-9.612617877530337e-07 
-1.03495319057857e-06 
-7.76241127834088e-07 
-7.610114376549494e-07 
-6.338004448141864e-07 
-5.491695182580874e-07 
-6.698711164890512e-07 
-6.639669942175564e-07 
-2.435668976216986e-07 
-1.667953544346933e-07 
-9.753075694123391e-20 
-8.284986520778062e-17 
