solver_type L2R_LR
nr_class 2
label 0 1
nr_feature 105
bias 1
w
0 
-0.0009525773664145145 
-0.000544154906900502 
-0.0006822940379990133 
-0.0003859798327189 
-0.000378337383444641 
-0.0002773291727413976 
-0.0002910103342061661 
-0.0002404901780047012 
-0.0001520985407407355 
-0.0001620633967016709 
-0.0001411103003700898 
-0.0001151597915223013 
-9.303110490080312e-05 
-0.0001123548503014502 
-0.0001108333778621852 
-0.0001065359886005743 
-8.735652758501972e-05 
-9.87511697849539e-05 
-9.221470863340496e-05 
-8.83831275037888e-05 
-7.705345187535949e-05 
-6.56773931784532e-05 
-6.35240726851599e-05 
-6.339626508121039e-05 
-7.297334832296244e-05 
-6.411209518242322e-05 
-6.100546946258304e-05 
-5.77266108425734e-05 
-5.405245080344694e-05 
-5.333628238342603e-05 
-5.601746071788326e-05 
-5.259425284219731e-05 
-5.555973211961628e-05 
-4.906847576843372e-05 
-5.291710874417517e-05 
-4.861798102792786e-05 
-4.3688467273531e-05 
-4.064750230734634e-05 
-3.866388132343636e-05 
-3.180806108311537e-05 
-3.421501780546042e-05 
-3.176486875762648e-05 
-2.794044680023992e-05 
-2.390466717962252e-05 
-2.554103597670185e-05 
-2.340206850256921e-05 
-2.344717371734709e-05 
-2.176948603422137e-05 
-2.033714293328902e-05 
-1.929404320807285e-05 
-1.774629456179605e-05 
-1.727295104766837e-05 
-1.533684224034795e-05 
-1.485467891657694e-05 
-1.441766590512545e-05 
-1.242814112193436e-05 
-1.23002071186265e-05 
-1.208595337084017e-05 
-1.103879405875738e-05 
-1.043738659347174e-05 
-9.282574449935826e-06 
-7.942799578465276e-06 
-7.660304861186269e-06 
-7.53781531672785e-06 
-7.666603272843055e-06 
-7.64331295237971e-06 
-6.920602415821873e-06 
-6.014099764006662e-06 
-5.724781580903293e-06 
-5.087007294375159e-06 
-4.314559773616521e-06 
-4.101885358151998e-06 
-3.815689075924889e-06 
-3.808341781798286e-06 
-3.453417719428246e-06 
-3.262815300502224e-06 
-2.856132932696673e-06 
-2.597401760890446e-06 
-2.540013865475958e-06 
-2.359167804355481e-06 
-2.311164900327239e-06 
-2.331744489327343e-06 
-2.202702659523358e-06 
-2.053489410754214e-06 
-1.669918876319102e-06 
-1.66236426291495e-06 
-1.41543761710759e-06 
-1.314115458714019e-06 
-8.933438931233931e-07 
-7.962130502603994e-07 
-7.427679899168905e-07 
-7.152134975402391e-07 
-6.444727960186493e-07 
-3.111289581982793e-07 
-1.726494358408375e-07 
9.449717449753138e-08 
-3.924268002628397e-08 
1.208067459912864e-07 
3.053088737812789e-07 
1.693926642704077e-07 
2.9590200238929e-07 
2.121834145806821e-07 
5.465618950721449e-07 
-1.576359108188167e-19 
5.221908068630878e-05 
