solver_type L2R_LR
nr_class 2
label 0 1
nr_feature 105
bias 1
w
0 
0.000360932256675707 
0.0005679808030594921 
0.0005946953503285931 
-0.0001442931206425621 
-3.297388471728454e-05 
-7.70111785309432e-05 
-0.0001036262968025734 
-8.33130060543785e-05 
-7.47743529102162e-05 
-9.803207936711347e-05 
-6.090530437230235e-05 
-2.436859462133875e-05 
-4.796913024211075e-06 
-1.743783168012989e-05 
-6.232038932579522e-05 
-1.112817291801124e-05 
8.785367415725531e-06 
4.926085736637825e-06 
4.823046042738923e-07 
7.68373293747765e-06 
1.263873068283935e-05 
2.013947127173963e-05 
1.943342927960135e-05 
2.312662743428273e-05 
1.233013661558493e-05 
4.543790702672092e-06 
5.59492761971069e-07 
1.865725483043242e-06 
1.581135499250054e-06 
2.586446743962486e-07 
9.731749074660907e-06 
1.906103744362934e-06 
6.509511472537392e-07 
-7.247146340243367e-07 
-2.629780341236245e-06 
-3.48631432278564e-06 
-3.041307800722417e-06 
3.577960048856758e-07 
-3.313264923411376e-06 
-5.376161771112832e-06 
-2.923109106606231e-06 
-4.143785461154244e-06 
-1.809664814194117e-06 
-1.799444487781045e-06 
-2.304134102851696e-06 
-4.572943705700195e-06 
-3.706458113702658e-06 
6.273150696327599e-07 
3.108244077088177e-07 
4.374574233572965e-08 
7.785985176428667e-07 
-2.526633250337098e-08 
-1.478512982484012e-06 
-8.882853306429809e-07 
-6.855857667186552e-07 
-1.373684060980604e-06 
-1.289930532343001e-06 
-1.115691067429403e-06 
-1.891642063732136e-06 
-1.32050535900839e-06 
-5.523839788583334e-07 
-6.085925566809304e-07 
-1.02180091830281e-07 
-1.409996060536346e-07 
-2.773187319739301e-07 
-5.19174503318095e-07 
-2.820628325448673e-07 
-1.654735260091024e-07 
-2.477358470068901e-07 
-7.888965878074404e-07 
-8.361061898415307e-07 
-9.432340477433557e-07 
-1.149961697243107e-06 
-7.943974179880806e-07 
-8.808182336094698e-07 
-9.105998534460804e-07 
-8.17776547523574e-07 
-8.228618266083664e-07 
-5.311070748793942e-07 
-5.126138060966127e-07 
1.851948185521308e-07 
9.690642446761768e-08 
-2.168582857611947e-07 
-7.698736853167911e-09 
-2.183577364469253e-07 
-2.986547802335491e-07 
-3.575497281937663e-07 
-2.471457626048068e-07 
-3.220239521333157e-07 
-4.714992173865819e-07 
-1.277380570372806e-07 
5.258797796389085e-10 
-6.89073028584427e-08 
-7.294986658460011e-08 
-5.239772566759361e-08 
-2.474394942792239e-07 
-2.006431777359757e-07 
-3.56021205893353e-07 
-1.193634142695554e-07 
-2.112004967948835e-07 
-1.696248776498328e-07 
-3.758167843148794e-07 
-3.501039815866793e-07 
-2.250336172356177e-19 
-2.093107755543726e-05 
