solver_type L2R_LR
nr_class 2
label 0 1
nr_feature 105
bias 1
w
0 
0.0005031071417809823 
0.0001053792135162372 
-2.810233435669705e-05 
0.00015276609133475 
0.000100644435414046 
0.000109608931986847 
9.279297816614718e-05 
0.0001134081008159945 
8.755786399894329e-05 
4.355276476830076e-05 
7.452117563733623e-05 
9.285193141936867e-05 
2.411181290231762e-05 
2.406130405989561e-05 
3.402618819431302e-06 
3.972603024519299e-05 
4.26838313405359e-05 
2.547101136690494e-05 
4.284143354296727e-06 
9.64638204466687e-06 
-4.628924631002051e-06 
3.160877710015052e-06 
4.983915455929686e-06 
-1.778299326359808e-06 
-5.471493531305155e-06 
-1.311730564496382e-05 
-1.473752553259206e-05 
-1.895857357863419e-05 
-1.956568848242938e-05 
-1.98499642033467e-05 
-2.525710162969522e-05 
-2.527971078425671e-05 
-2.71357226574121e-05 
-2.29134511636272e-05 
-2.689634722246001e-05 
-2.585933407943408e-05 
-2.260016463907765e-05 
-2.123426054428168e-05 
-2.156171997350632e-05 
-1.830448830852119e-05 
-2.030858963718388e-05 
-1.950590149475875e-05 
-2.067440583821175e-05 
-1.902169494572571e-05 
-1.862200677301725e-05 
-1.732846392689928e-05 
-1.740438993270691e-05 
-1.65378591970433e-05 
-1.54312817488714e-05 
-1.424136417992061e-05 
-1.370944518270438e-05 
-1.227489326747117e-05 
-1.1365170760837e-05 
-1.113273731523535e-05 
-1.055468895688447e-05 
-9.886828530223214e-06 
-9.756302463063387e-06 
-9.140756110832018e-06 
-9.060682228125094e-06 
-8.670520696877712e-06 
-8.282809444175285e-06 
-7.31957344075958e-06 
-7.369916375381928e-06 
-6.502924306253445e-06 
-5.87202086112807e-06 
-5.491781210642085e-06 
-5.268301505426796e-06 
-4.54174273006877e-06 
-4.190223098631265e-06 
-3.723544790826549e-06 
-3.493378935729822e-06 
-3.331141309728619e-06 
-2.721832210498728e-06 
-3.13458565269132e-06 
-2.800722190236056e-06 
-2.902889613927333e-06 
-2.346095207550908e-06 
-2.083395620667734e-06 
-1.917122663532885e-06 
-2.13058945502668e-06 
-2.121896992462779e-06 
-2.064270966081855e-06 
-1.85241395839125e-06 
-2.060959683985656e-06 
-1.591535581187176e-06 
-1.631026961641499e-06 
-1.286502008984078e-06 
-1.063652991358307e-06 
-1.035026659002978e-06 
-9.927496990813359e-07 
-1.009236282140492e-06 
-9.030095464640345e-07 
-9.289621005172319e-07 
-7.860304551632187e-07 
-5.970541343545161e-07 
-3.353522730457493e-07 
-4.351837785782706e-07 
-2.726322408127413e-07 
-1.074393750409051e-07 
-3.446450510518704e-07 
-1.85972659045051e-07 
-1.813472018002983e-07 
9.408246920209555e-08 
-2.039631493622958e-19 
-1.734367243067623e-05 
