solver_type L2R_LR
nr_class 2
label 0 1
nr_feature 105
bias 1
w
0 
0.0009508830570287557 
0.0006951364354424558 
0.000689751151209289 
8.851158885201071e-05 
0.000111581107261025 
9.305010222030152e-05 
3.230538088839713e-05 
6.902735063719466e-05 
4.944993506147208e-05 
7.433500918093195e-05 
6.470444459756095e-05 
8.707619594412807e-05 
6.423113922343003e-05 
7.77346948668864e-05 
3.155858994888003e-05 
3.577911381451402e-05 
3.449443298682567e-05 
4.336400977773009e-05 
3.54834162567209e-05 
3.060016920220057e-05 
2.038261390152462e-05 
1.93088033754591e-05 
2.142928377168634e-05 
1.252689463459354e-05 
9.572593040625975e-06 
8.536863211848842e-06 
1.280072847224742e-05 
5.374023143751446e-06 
7.092848068250363e-06 
8.741010164548934e-06 
3.597046809894753e-06 
5.012729572995325e-06 
-3.402559017100757e-08 
1.009465471738723e-06 
1.906165673907368e-06 
4.277866248504252e-06 
1.425123593296673e-06 
-4.97531950185607e-07 
-7.389855469390971e-07 
-7.980694377309399e-07 
4.185349565255593e-06 
3.576484718799737e-06 
2.682002107676162e-06 
1.778675956716125e-06 
-4.420065731711526e-07 
1.058262997869049e-06 
7.385221960512285e-07 
8.422347045211168e-07 
7.348822294928183e-07 
7.758932920605873e-07 
-4.595097527940167e-07 
-1.845991758733979e-07 
-2.888260339755005e-07 
4.634747783830884e-07 
6.517665465546594e-07 
7.732848175919987e-07 
4.700983136900039e-07 
-5.021030548339986e-08 
2.265097700825475e-07 
-2.324778524375013e-07 
-7.500684582495234e-07 
-9.718008616565575e-07 
-6.509854561853729e-07 
-1.116869748792968e-06 
-3.186928511264765e-07 
-5.538272264999533e-07 
-8.73091681509158e-07 
-1.047150015234314e-06 
-5.951330016276614e-07 
-5.914199803741263e-07 
-4.207947908861424e-07 
-1.092625326892829e-06 
-8.576897661516075e-07 
-8.243455960600527e-07 
-1.12821131630158e-06 
-8.726683539534977e-07 
-8.417922818732681e-07 
-8.181068986458916e-07 
-6.994440955461017e-07 
-6.85363272700677e-07 
-1.068389838128049e-06 
-1.144295617102739e-06 
-1.075838680533864e-06 
-9.263645773370555e-07 
-1.172378530767982e-06 
-1.26628967968626e-06 
-9.803449873990012e-07 
-8.479920869712287e-07 
-1.050320691341154e-06 
-1.060805215244368e-06 
-8.703421647046162e-07 
-7.621494583597991e-07 
-1.007831242468833e-06 
-1.064775156552798e-06 
-1.015765347677303e-06 
-8.656488893952567e-07 
-8.619079185942884e-07 
-7.11904047754345e-07 
-6.6029549335042e-07 
-8.699011515977227e-07 
-9.401216048922426e-07 
-3.890294738180195e-07 
-5.775142148646032e-07 
-3.139343456249428e-20 
-3.472211221772393e-05 
