solver_type L2R_LR
nr_class 2
label 0 1
nr_feature 105
bias 1
w
0 
0.0001022895355369513 
-0.000191569481092305 
9.374709222525233e-05 
6.859604794811533e-05 
3.569843782125151e-05 
3.905521713113367e-05 
3.118312362859123e-05 
5.861268639262113e-05 
7.107828147510986e-05 
7.50489451581128e-05 
9.569219326729266e-05 
0.0001258702220477603 
0.0001281150585879504 
8.879467762611495e-05 
6.35127971049708e-05 
6.798966296314809e-05 
6.87143709717736e-05 
7.362941580463566e-05 
6.501782203548724e-05 
6.906482761002123e-05 
5.564498341443442e-05 
4.887986182387902e-05 
5.526223572844907e-05 
4.911419330604591e-05 
4.621355840496668e-05 
3.915285827361202e-05 
3.810523008558831e-05 
3.400300085648813e-05 
3.551966404274694e-05 
3.504239273185871e-05 
3.311479274776954e-05 
3.305923058143837e-05 
3.252250415322462e-05 
2.910395628166933e-05 
2.961768439672696e-05 
3.064041747651972e-05 
2.8024878180004e-05 
2.565015703316469e-05 
2.514133720677752e-05 
2.391638561555499e-05 
2.264942315601089e-05 
2.20780856195148e-05 
1.891421256499867e-05 
1.512685710092835e-05 
1.26685397665839e-05 
1.413472488771838e-05 
1.283663262595242e-05 
1.234202909189929e-05 
1.065041570541298e-05 
9.506693070056324e-06 
9.331515729636132e-06 
8.633168679479847e-06 
8.537132149659738e-06 
9.136520928346949e-06 
8.443363796421255e-06 
8.437513230692898e-06 
7.218039701278454e-06 
6.664443528973439e-06 
5.896988596999449e-06 
5.373278253138767e-06 
4.991606410191328e-06 
5.321485649775422e-06 
5.33059367483038e-06 
4.3419105806286e-06 
4.355939983685271e-06 
3.976957046608105e-06 
3.878466457633849e-06 
3.498426146045461e-06 
3.614965188511693e-06 
3.334360364910524e-06 
3.295879387183557e-06 
2.924182092664509e-06 
3.000544490629058e-06 
3.037712184817338e-06 
2.442232539414789e-06 
2.348693156256688e-06 
2.115995492046458e-06 
2.137008396916388e-06 
2.00435284862972e-06 
1.70893841823851e-06 
1.5883522926855e-06 
1.519490763940278e-06 
1.400919399554614e-06 
1.236860057411206e-06 
1.212171228789942e-06 
1.149018949389099e-06 
9.431527740953611e-07 
1.007114080258701e-06 
8.149203379912011e-07 
8.665878057585808e-07 
9.682918450512038e-07 
7.371349095949606e-07 
5.95016232483757e-07 
1.712590470500939e-07 
2.873306009195877e-07 
4.844750992844896e-07 
3.557745361664233e-07 
3.222851900547391e-07 
3.823280062431923e-07 
3.265695411023508e-07 
3.906744594964828e-08 
1.051043552869335e-07 
-1.770928017038226e-07 
1.058426297433808e-19 
-4.293267585303027e-06 
