solver_type L2R_LR
nr_class 2
label 0 1
nr_feature 105
bias 1
w
0 
-7.604157014152901e-05 
0.0001829004238009112 
-9.43067887671366e-06 
0.0002321613685350656 
0.0002024237257810098 
0.0001465110780330693 
9.969403246474857e-05 
0.0001085405441829934 
0.0001006927092838694 
0.0001640711437502184 
0.0001519293214538958 
0.0001532085364982963 
0.0001716734141593485 
0.0001657367790831524 
0.0001336919428103365 
0.0001115179882496359 
8.917713417089665e-05 
8.606109134044067e-05 
8.096877295099444e-05 
8.691518379015159e-05 
9.657244499631213e-05 
8.535981750055401e-05 
7.0160125089954e-05 
6.848408856622265e-05 
6.815768341061046e-05 
6.850363541272392e-05 
6.510911079149149e-05 
6.070981911666197e-05 
6.320866865074053e-05 
6.538223011110516e-05 
6.31802572551096e-05 
5.790081152878889e-05 
6.228757596744481e-05 
5.581000125018783e-05 
5.735629656843865e-05 
5.5729076009257e-05 
5.058858931477813e-05 
4.836370410401344e-05 
4.443384015673156e-05 
4.43759420144757e-05 
4.130349277266937e-05 
3.448373495649089e-05 
3.445999506414148e-05 
3.094812818370303e-05 
2.976709758766239e-05 
2.95000670288504e-05 
2.605390779395427e-05 
2.576712264347437e-05 
2.405520987359912e-05 
2.356953131016728e-05 
2.113529432477471e-05 
2.033094350608792e-05 
1.95356812571195e-05 
1.754057195522547e-05 
1.723082911374179e-05 
1.598515184742164e-05 
1.53980678309548e-05 
1.386049064149571e-05 
1.221555806913054e-05 
1.150525285842318e-05 
1.110163833485448e-05 
1.113924380029028e-05 
1.022860271826875e-05 
1.014291425134393e-05 
9.429071354989673e-06 
8.797717372377382e-06 
8.588870855162274e-06 
7.864048880386478e-06 
7.297427446885726e-06 
7.14410377796136e-06 
6.52590902848074e-06 
6.297880989776813e-06 
5.711405916758754e-06 
5.244604335624294e-06 
4.921562680287351e-06 
4.549169613667068e-06 
4.320595350872728e-06 
4.466074400752933e-06 
4.368606481889635e-06 
3.850876273785465e-06 
3.356515492410933e-06 
3.275657593328582e-06 
3.208060084608902e-06 
3.133699130751282e-06 
2.957549849877739e-06 
2.869079424031665e-06 
2.245875595224048e-06 
2.142139308163774e-06 
1.83775173909252e-06 
1.742150108397832e-06 
1.790309377884765e-06 
1.563390905407648e-06 
1.221104662820668e-06 
1.226256693152452e-06 
9.968684626678231e-07 
6.527036205959111e-07 
7.813645378099576e-07 
7.179978627205638e-07 
8.508800124310958e-07 
5.37090119100941e-07 
3.480468311967455e-07 
4.697277112994558e-07 
1.346968373685832e-07 
3.308197064482675e-19 
-1.505637545563427e-05 
