solver_type L2R_LR
nr_class 2
label 0 1
nr_feature 105
bias 1
w
0 
0.0003899591288582971 
0.0002187587904832567 
-0.000115007411918546 
0.0001944583590082079 
0.0001188859969712216 
0.0001380506196887567 
9.875907696592988e-05 
6.221280845625796e-05 
3.322291966416874e-05 
4.693159715667858e-05 
3.37929916825938e-05 
2.706495448165128e-05 
6.737428707261502e-05 
5.733729988706309e-05 
6.287017089878015e-05 
5.905304491782314e-05 
4.095946266060448e-05 
4.341746887774854e-05 
2.313529003918415e-05 
2.724271743772201e-05 
3.521090314323211e-05 
1.70908402087243e-05 
1.251420517439686e-05 
1.757171771488222e-05 
3.030519512207109e-05 
3.405260016307726e-05 
3.032781557360923e-05 
2.988455631676553e-05 
3.494675732445777e-05 
3.378868649205663e-05 
3.01229977343989e-05 
2.920484680445035e-05 
3.165439798166912e-05 
3.211721874403161e-05 
3.240852842132585e-05 
2.570147234070521e-05 
2.609739288625607e-05 
2.808995105627764e-05 
2.665512083063645e-05 
2.651206092271135e-05 
2.433143322298055e-05 
2.617009641686511e-05 
2.255877892179516e-05 
2.178176782635607e-05 
2.105973774788824e-05 
1.807214768895804e-05 
1.420151305961975e-05 
1.441682687087237e-05 
1.553560180319415e-05 
1.372500877082842e-05 
1.255663708912483e-05 
1.202898500328265e-05 
1.029983521660637e-05 
1.026950036887983e-05 
9.349528081290529e-06 
1.043990902671736e-05 
9.29268159841153e-06 
8.947212626321964e-06 
8.136848547641928e-06 
7.818819382230147e-06 
6.806489729337554e-06 
5.738781634514457e-06 
5.275359424027999e-06 
5.098409278058985e-06 
5.041452080903283e-06 
4.713385619949818e-06 
4.212121241891241e-06 
3.622861280307621e-06 
3.905455163752586e-06 
3.798020101115495e-06 
3.897336161209888e-06 
4.120806277488808e-06 
4.01067939695145e-06 
3.815253171224825e-06 
3.460565694465551e-06 
3.143157516511692e-06 
3.18632821885999e-06 
3.068262089017542e-06 
2.551747638311052e-06 
2.195888435344701e-06 
1.960167951219405e-06 
2.150083442122796e-06 
2.250858249599038e-06 
2.061416407278058e-06 
1.789905049224157e-06 
1.726302702030437e-06 
1.593486998845203e-06 
1.244357064943459e-06 
1.600092389951289e-06 
1.573083267954101e-06 
1.434000172343808e-06 
1.223025808558034e-06 
1.132077261998821e-06 
1.052721409157315e-06 
9.324166288623635e-07 
7.875549010674692e-07 
5.906857256191226e-07 
6.729070904790728e-07 
3.217238139668411e-07 
4.255004642001198e-07 
5.084111283120192e-07 
4.251750196592219e-07 
3.167977044741958e-07 
-1.752840091464543e-19 
-1.843957624819719e-05 
