solver_type L2R_LR
nr_class 2
label 0 1
nr_feature 105
bias 1
w
0 
0.001935395154920284 
0.001957492157027278 
0.001543527264013705 
0.0004043619745976232 
0.00037299316410928 
0.0002391145244569247 
0.0001958055586754206 
0.0001271311199441468 
0.0001085542443811214 
6.064163931550291e-05 
5.985166549343394e-05 
5.145643035842581e-05 
2.784503956885289e-05 
7.98782931090182e-06 
1.982812804889149e-05 
1.807946348843904e-05 
1.542374712811969e-05 
8.602457246678776e-06 
6.093907151584551e-06 
7.148221563165089e-06 
7.864292461244211e-06 
2.579569414349432e-06 
-1.464327252150322e-06 
3.159531511085108e-06 
-9.687398178199599e-06 
-1.525966047179879e-05 
-1.904210074179173e-05 
-2.32890192288614e-05 
-2.51177174555801e-05 
-3.315486319099682e-05 
-2.756196504631101e-05 
-3.026428803820456e-05 
-2.523318316571037e-05 
-2.39092228803819e-05 
-2.454751420355152e-05 
-2.376007924541187e-05 
-2.495596164632098e-05 
-2.260444082228908e-05 
-2.249856526502572e-05 
-2.019296431584407e-05 
-2.018841192705616e-05 
-2.138997068688951e-05 
-2.254674787272815e-05 
-1.72556909009221e-05 
-1.739524963094647e-05 
-1.607486554886885e-05 
-1.603695915749909e-05 
-1.671425502303096e-05 
-1.584503254669535e-05 
-1.552626256539423e-05 
-1.446617609052534e-05 
-1.317345424776077e-05 
-1.223467964520689e-05 
-1.160636353356833e-05 
-1.098892353053749e-05 
-1.119414977899208e-05 
-1.063358643593758e-05 
-9.881265331926492e-06 
-9.890082379613731e-06 
-9.229503925912525e-06 
-8.439122384803963e-06 
-8.270100191666555e-06 
-8.673973234185114e-06 
-9.071980930977361e-06 
-8.559480517774124e-06 
-7.985464495272746e-06 
-7.441457215839349e-06 
-6.978769425885183e-06 
-7.037628531186176e-06 
-6.786140741756344e-06 
-6.537632248809298e-06 
-6.299831284141717e-06 
-6.24085748379835e-06 
-5.357133685015076e-06 
-5.384933581198854e-06 
-5.021419126685213e-06 
-5.034742831300383e-06 
-4.728869970259649e-06 
-4.504963890334461e-06 
-4.358319416045349e-06 
-4.076006128891805e-06 
-4.185923348583639e-06 
-3.928999721004822e-06 
-3.750988775723077e-06 
-3.58481003704065e-06 
-3.443064892096952e-06 
-3.135206146553296e-06 
-2.994567268460858e-06 
-2.965228832472951e-06 
-2.790256050146023e-06 
-2.632661969394736e-06 
-2.619725990827921e-06 
-2.77099527239342e-06 
-2.302046333883751e-06 
-2.105674720701776e-06 
-2.008996924006165e-06 
-1.932498789492851e-06 
-2.015997188787707e-06 
-1.89808199276159e-06 
-1.924894397812909e-06 
-1.870858557794681e-06 
-1.545371025654829e-06 
-1.149663911698916e-06 
-2.83037857214751e-19 
-9.295060315145212e-05 
