solver_type L2R_LR
nr_class 2
label 0 1
nr_feature 105
bias 1
w
0 
-0.0004392939177425537 
-0.0002211456857841463 
-6.903882919272013e-05 
-0.0005507456608647825 
-0.0003578479541159172 
-0.0003161179581068337 
-0.0002610110169723864 
-0.0002470989488869356 
-0.0003019503338006395 
-0.0003359757239373972 
-0.0003201667791869441 
-0.0002886873429995577 
-0.0002254682498985843 
-0.0001709198277802188 
-0.0001999785029875493 
-0.0001961097187304727 
-0.0001698118399715275 
-0.0001643537404594799 
-0.0001631234864553683 
-0.0001490111976654956 
-0.0001394143325288319 
-0.0001205498887497657 
-0.0001205920151951028 
-0.0001204493791010259 
-0.0001121703237794359 
-0.0001167143253186582 
-0.0001170795090241627 
-0.000106386838206763 
-0.0001029029975419231 
-0.0001050128608934945 
-9.557993659625625e-05 
-9.329782708111488e-05 
-8.908604891941071e-05 
-8.52089843722576e-05 
-8.506230430979789e-05 
-7.971551151305714e-05 
-7.804708630467411e-05 
-7.782747729642166e-05 
-7.591233426605318e-05 
-6.831533516255729e-05 
-6.415187770824826e-05 
-5.928515498647117e-05 
-5.472809314736677e-05 
-4.918753085526307e-05 
-4.559117256086469e-05 
-4.238156592612892e-05 
-4.012429242943566e-05 
-3.735750622257175e-05 
-3.29386807326721e-05 
-3.054661882658142e-05 
-2.893687835074275e-05 
-2.865016017530955e-05 
-2.70622040870924e-05 
-2.574325716308741e-05 
-2.311018307077232e-05 
-2.18786402343418e-05 
-2.048838813633217e-05 
-1.98716318728169e-05 
-1.835962133074553e-05 
-1.661748006056032e-05 
-1.605295280399963e-05 
-1.535894949505364e-05 
-1.516371420797095e-05 
-1.3717051161085e-05 
-1.292307894172953e-05 
-1.313291105285303e-05 
-1.169984832219245e-05 
-1.135392519168899e-05 
-1.0826514010308e-05 
-1.037206039899667e-05 
-9.392163213656046e-06 
-8.797090603213866e-06 
-7.877070998221946e-06 
-7.54733969478789e-06 
-6.894410324888237e-06 
-6.673403701574014e-06 
-6.577819493285497e-06 
-6.212560506302714e-06 
-5.82196672566357e-06 
-5.402529088655969e-06 
-5.140189173392605e-06 
-4.761136462353252e-06 
-4.323728420183621e-06 
-3.88716780691533e-06 
-3.536903064794125e-06 
-3.40281344278402e-06 
-3.088664125021039e-06 
-2.925269863411619e-06 
-2.890879964250636e-06 
-2.486125573500935e-06 
-2.527989593259963e-06 
-2.216463268954298e-06 
-1.786030630154471e-06 
-1.533663285399335e-06 
-1.38308433144031e-06 
-1.35639431468302e-06 
-1.027984466896695e-06 
-7.204601535538847e-07 
-7.039530586951377e-07 
-6.313186510348519e-07 
-6.076085295373361e-07 
-5.796278829423384e-07 
-2.824950387698482e-07 
-4.361751583607299e-19 
3.176468254160753e-05 
