solver_type L2R_LR
nr_class 2
label 0 1
nr_feature 105
bias 1
w
0 
0.0007455887836289352 
0.0007209023222482122 
0.0001627666850061579 
0.0002585328473406178 
0.0001647012750068975 
0.0001540779483681721 
6.886356828805725e-05 
2.84865384891797e-05 
-1.98405003309582e-05 
2.479943380217228e-05 
2.471774259176225e-05 
3.980067348513929e-05 
7.560994249282135e-05 
7.790555234828108e-05 
4.709225271108068e-05 
4.588682065300271e-05 
3.077808599510408e-05 
2.360625329909399e-05 
1.065356116610964e-05 
2.003222462818085e-05 
2.949625634163461e-05 
1.43349304030998e-05 
1.233085322104048e-05 
1.71936649295585e-05 
2.58192542584365e-05 
2.106670518017885e-05 
1.695290629404458e-05 
2.236033431455135e-05 
3.348314384413963e-05 
2.905170351059722e-05 
2.589964468667123e-05 
2.490917403628277e-05 
2.713191191686914e-05 
2.697074424011488e-05 
2.976749850449884e-05 
2.737194200797779e-05 
2.096374857796301e-05 
2.222938053739183e-05 
2.113717290446211e-05 
2.184751353325949e-05 
1.998650137986089e-05 
1.701383465106383e-05 
1.613480517293037e-05 
1.57174352838016e-05 
1.713001798087693e-05 
1.730437145730643e-05 
1.264188861871779e-05 
1.236910045352544e-05 
1.269650468336889e-05 
1.252922753432043e-05 
1.026063483305973e-05 
9.767690997343742e-06 
8.728120482594323e-06 
7.741532406432954e-06 
7.608696143935564e-06 
7.970080639480516e-06 
8.006526021779219e-06 
7.089371798022971e-06 
6.186477434213273e-06 
6.055658867269464e-06 
5.317111408649983e-06 
4.946798260571904e-06 
4.442649257865645e-06 
4.476032678613046e-06 
3.726167175308659e-06 
3.64291681797091e-06 
3.291721124131281e-06 
2.971437843613518e-06 
2.600853332556993e-06 
2.961321998484236e-06 
2.610965791096196e-06 
2.672122064958114e-06 
2.49305097883776e-06 
1.871599919890375e-06 
1.854834723100541e-06 
1.541287606971902e-06 
1.602497568147998e-06 
1.74620762225234e-06 
1.509551773819532e-06 
1.261249138646212e-06 
9.870376310604179e-07 
1.246656896686699e-06 
1.346980084493993e-06 
1.209731747850442e-06 
1.162287046433823e-06 
9.715366545508564e-07 
6.291483135752464e-07 
4.146679424858011e-07 
4.725195950400357e-07 
4.873574839353372e-07 
4.735552068769233e-07 
1.093624219734225e-07 
3.196321578676745e-08 
2.264687521331758e-07 
5.036069354371042e-09 
-1.942446102147769e-07 
-2.20812274811945e-07 
8.45293780779662e-08 
1.980898111792391e-08 
-7.901342094717711e-08 
-1.383059368526682e-07 
-9.554467781303441e-08 
-2.941344455655805e-07 
-1.771345501961646e-20 
-3.845283433301312e-05 
