solver_type L2R_LR
nr_class 2
label 0 1
nr_feature 105
bias 1
w
0 
0.0006483795002026061 
0.0005630157639910991 
0.001027542906881834 
-5.750422040756984e-05 
-0.0001076081568842575 
-0.0001046175179383109 
-0.0001005162673012928 
-0.0001361405909936821 
-7.22600786120007e-05 
-3.416147839075731e-05 
-3.239472968790532e-05 
-3.510610370820671e-05 
-0.0001305177306696106 
-0.0001481525717313269 
-0.0001256469344058169 
-9.767345643750212e-05 
-8.120841815807337e-05 
-8.217690907519982e-05 
-6.057471874849123e-05 
-6.540187441297377e-05 
-6.531489276896972e-05 
-6.478085940487079e-05 
-7.348219017294308e-05 
-7.092397074413313e-05 
-6.037203380465302e-05 
-6.953065709288495e-05 
-7.071585249694682e-05 
-6.603519690250546e-05 
-7.367949193292411e-05 
-7.23197156911796e-05 
-6.949101061368975e-05 
-6.449969277180862e-05 
-6.922881688731388e-05 
-6.879647458043215e-05 
-6.849092918482923e-05 
-6.615450654925604e-05 
-6.625518009176505e-05 
-6.56467138485093e-05 
-6.339264318692584e-05 
-6.311661058369515e-05 
-6.030102116126929e-05 
-5.756926208903126e-05 
-5.252526962959218e-05 
-4.969483147761566e-05 
-4.896996763609392e-05 
-4.478074247548358e-05 
-4.286505718195879e-05 
-4.075375246397314e-05 
-3.669358722230444e-05 
-3.666640556505739e-05 
-3.517210583102071e-05 
-3.337590690742811e-05 
-3.348909163924094e-05 
-3.110605749902714e-05 
-3.057455016503536e-05 
-2.843529342374392e-05 
-2.636261242314925e-05 
-2.576342224840757e-05 
-2.315919761010233e-05 
-2.150040947107889e-05 
-2.022631529401417e-05 
-1.99314718207506e-05 
-1.731326550982753e-05 
-1.731461319742463e-05 
-1.657913224510994e-05 
-1.584390380162932e-05 
-1.523269735799997e-05 
-1.369152975447787e-05 
-1.370022315325737e-05 
-1.205103355926203e-05 
-1.134451608364376e-05 
-1.049578737254096e-05 
-1.040434108578508e-05 
-9.543808049992977e-06 
-8.722037041137553e-06 
-8.50993123452388e-06 
-7.99589728436362e-06 
-7.598867326916424e-06 
-7.199292577822872e-06 
-6.905176753349983e-06 
-6.227320013864208e-06 
-6.000492387177647e-06 
-6.007417588573679e-06 
-5.441027313038348e-06 
-5.189989812176435e-06 
-4.848242255036479e-06 
-4.194684268613962e-06 
-4.042848846973232e-06 
-3.985976574162377e-06 
-3.623891119982339e-06 
-3.216689315728554e-06 
-2.888118917469181e-06 
-2.830615897600436e-06 
-2.619788992627478e-06 
-2.330427678885899e-06 
-2.275358744755235e-06 
-1.794011681382159e-06 
-1.909835749789313e-06 
-1.77129905091016e-06 
-1.356877463402095e-06 
-1.321178257874869e-06 
-9.170822912366184e-07 
-9.524217310978e-07 
-5.296395403171699e-19 
-2.616474759180238e-05 
