solver_type L2R_LR
nr_class 2
label 0 1
nr_feature 105
bias 1
w
0 
0.003230777751797168 
0.002731542449333951 
0.001642562167104176 
0.0003475336254790415 
0.0001897202542788306 
8.157022608560848e-05 
-3.233343007668277e-06 
-5.759599988644145e-05 
-6.966474984772957e-05 
-9.708697051994929e-05 
-8.432485746236323e-05 
-7.22138696329251e-05 
-0.0001440558213457942 
-0.0001620896947573854 
-0.0001442971045303816 
-0.0001060886814383923 
-0.0001018610101202612 
-8.727189945120426e-05 
-8.894589622086978e-05 
-9.554017457744631e-05 
-8.981803680019039e-05 
-9.292694026251193e-05 
-8.895588514536911e-05 
-8.239972402773884e-05 
-8.505613141211594e-05 
-9.417161800336873e-05 
-9.660312395447542e-05 
-9.146988317962366e-05 
-9.253753950382657e-05 
-9.691618910938845e-05 
-9.28524286840345e-05 
-8.76992004272942e-05 
-9.183076037563817e-05 
-8.62796141769647e-05 
-8.674442589905486e-05 
-8.277217390710744e-05 
-7.917945876374167e-05 
-7.677289767948114e-05 
-7.184492656485089e-05 
-6.807579025522235e-05 
-6.377832972803026e-05 
-6.321935299249056e-05 
-5.783249417046846e-05 
-5.388600898775343e-05 
-5.205144854040917e-05 
-4.819188775640359e-05 
-4.626968413173024e-05 
-4.405240852006247e-05 
-4.147766547195853e-05 
-4.052025147966189e-05 
-3.760148034594117e-05 
-3.675464937507208e-05 
-3.621077404820397e-05 
-3.333039575325448e-05 
-3.255264077069927e-05 
-3.24045076632585e-05 
-2.978063302221586e-05 
-2.924153453406578e-05 
-2.741609841399855e-05 
-2.598226614758007e-05 
-2.371904684675847e-05 
-2.283737426743409e-05 
-2.156160381305263e-05 
-2.156123324251612e-05 
-2.033003117443656e-05 
-1.955189297501586e-05 
-1.856761744929457e-05 
-1.788042445887964e-05 
-1.754459403688251e-05 
-1.578303175588761e-05 
-1.53533250691725e-05 
-1.447622075666345e-05 
-1.402291531958752e-05 
-1.298824762442093e-05 
-1.23672424983833e-05 
-1.155488939655747e-05 
-1.125621287427861e-05 
-1.086812264287648e-05 
-1.048348569645402e-05 
-1.018901752172881e-05 
-9.416062782739917e-06 
-9.211934578288641e-06 
-8.924752780299202e-06 
-8.252722755704677e-06 
-7.692867459994642e-06 
-7.336565086156038e-06 
-6.74950846633943e-06 
-6.455922189896864e-06 
-6.172683087778088e-06 
-5.782028100520034e-06 
-5.33246830401801e-06 
-5.040675431535507e-06 
-5.008077076687984e-06 
-4.638249629559124e-06 
-4.238755924266774e-06 
-4.073803156923849e-06 
-3.729935164381027e-06 
-3.698229427227993e-06 
-3.237825232626301e-06 
-3.011328538254652e-06 
-2.913649266011483e-06 
-2.211241577680514e-06 
-1.938586172246697e-06 
-8.298600953155989e-19 
-0.0001199785180212691 
