solver_type L2R_LR
nr_class 2
label 0 1
nr_feature 105
bias 1
w
0 
-0.00138423632943474 
-0.0008623026159700507 
-0.0004439568038805161 
-5.621763801344556e-05 
-0.0001075942903801381 
-4.147988112243136e-05 
-4.207658203693148e-05 
1.206760688193589e-05 
5.254847496446875e-05 
0.0001287127962002968 
0.0001429791904320732 
5.587055495129633e-05 
9.938966969732558e-05 
7.159138840244347e-05 
5.43962441005914e-05 
3.965095563217275e-05 
4.813404236537583e-05 
4.471591543782132e-05 
4.278977369551248e-05 
4.400224206692405e-05 
4.291678302661157e-05 
3.563396410909729e-05 
4.833932382678327e-05 
4.992769542464927e-05 
4.080081365240313e-05 
4.142946271200437e-05 
4.893569758173259e-05 
5.149436311957033e-05 
4.606639107808936e-05 
3.677086782933932e-05 
4.140948935077564e-05 
4.120078235232569e-05 
4.162829616779823e-05 
3.805260128656294e-05 
3.494337108449839e-05 
3.364747804877357e-05 
3.702168478872466e-05 
3.366675562585271e-05 
3.07014722235075e-05 
2.954851103708752e-05 
2.549471060403583e-05 
2.712831662711515e-05 
2.539367074711952e-05 
2.427913246692026e-05 
2.249853975794649e-05 
2.181252611140422e-05 
1.800932796369129e-05 
1.589435094409611e-05 
1.657886571520095e-05 
1.424953329544342e-05 
1.700796736715407e-05 
1.732352836250165e-05 
1.576720887143416e-05 
1.491338082955289e-05 
1.400390461881522e-05 
1.293705681528176e-05 
1.154387115713737e-05 
1.129094714351866e-05 
1.047644982233422e-05 
9.7315710345908e-06 
9.978720357776328e-06 
9.07155322439036e-06 
8.676182875642426e-06 
8.461524987962908e-06 
8.566164015252511e-06 
8.15342774162846e-06 
7.408490144153684e-06 
6.830265378122402e-06 
6.38974420163753e-06 
6.152640393020278e-06 
5.804877242555971e-06 
5.424924566345647e-06 
5.652320797849412e-06 
5.676413055884043e-06 
5.050139854546621e-06 
4.922576013909041e-06 
4.672947194291778e-06 
4.420279093885106e-06 
4.38957833616691e-06 
4.190329148113442e-06 
3.930658173474057e-06 
3.715158895999942e-06 
3.516163942122507e-06 
3.125856965897666e-06 
3.084934389748933e-06 
2.958593464100442e-06 
2.821655108570931e-06 
2.57340442966218e-06 
2.565604407475012e-06 
2.350123269508427e-06 
2.209901676792188e-06 
1.895165112430124e-06 
1.633608947883281e-06 
1.550273382001659e-06 
1.382355169986187e-06 
1.270359000062735e-06 
1.161135018282999e-06 
1.203164051472968e-06 
8.620535146290416e-07 
1.038679953386501e-06 
9.556545435843725e-07 
8.862211578260002e-07 
8.568204476428063e-07 
4.407114048769205e-19 
5.350256927766906e-05 
