solver_type L2R_LR
nr_class 2
label 0 1
nr_feature 105
bias 1
w
0 
0.0009291372507474405 
0.0004647529763306278 
0.0005215838021088104 
0.0002072716772156042 
0.0001390917027091023 
0.0001937148264814079 
0.0001833123075589285 
0.0001296305860881438 
8.040721625841783e-05 
3.311499168207193e-05 
2.414466220165035e-05 
2.389834510537191e-05 
1.354238938984153e-05 
4.569114507050547e-05 
3.881770975328725e-05 
6.329548215698679e-05 
5.134437437482299e-05 
5.071499945108194e-05 
4.665820116820498e-05 
3.497147216981417e-05 
2.116772913348982e-05 
2.375318461055509e-05 
3.170276591398276e-05 
3.61306969787815e-05 
3.538331613416096e-05 
2.710478552719692e-05 
2.153302606376507e-05 
2.233430372423186e-05 
2.069495982318973e-05 
2.842963524699717e-05 
2.487269295078958e-05 
1.953363720986508e-05 
2.251518817484201e-05 
1.39766871646747e-05 
1.632921392881539e-05 
1.386158555496845e-05 
1.070528668052165e-05 
7.655581866644233e-06 
7.697757852757828e-06 
5.859788632064037e-06 
8.268334232414899e-06 
8.018825800285711e-06 
7.97048573612432e-06 
5.149839519360039e-06 
3.980437115719638e-06 
2.324636361985463e-06 
4.92143888526953e-06 
3.380953638339665e-06 
1.965752772828767e-06 
2.277030029504104e-06 
1.390255557587061e-06 
1.426988939553497e-06 
1.735654277823464e-06 
1.645236246846135e-06 
1.318998145629622e-06 
8.993262361634579e-07 
1.283636730608676e-06 
1.222555563391066e-06 
2.185271504790299e-07 
1.678695677287218e-07 
2.002545266581616e-07 
-6.822701252271058e-07 
-4.089612097085373e-07 
-1.653892541666368e-07 
-1.15821035078253e-07 
-4.046115901309429e-07 
7.325542755727484e-08 
5.584590394059274e-07 
7.837031082440387e-07 
5.297984571303704e-07 
3.696568733268978e-07 
8.385882977504188e-08 
-2.822363418371002e-07 
5.125199854624198e-07 
1.018190265000129e-07 
2.305029016703546e-08 
-1.889811535400866e-07 
-3.206233936375327e-07 
-5.449759730129819e-07 
-5.946555863917863e-07 
-6.80219228145047e-07 
-5.223640374199749e-07 
-2.754058636542851e-07 
-4.352257713025633e-07 
-2.009018339967229e-07 
-2.915414153367886e-07 
-5.250530646025399e-07 
-3.516368687321073e-07 
-4.234557342563485e-07 
-4.073232367243785e-07 
-2.395601443437656e-07 
-3.567347491970557e-07 
-3.453528990514702e-07 
-3.156131493329803e-07 
-3.562832431570402e-07 
-3.083314289819242e-07 
-3.710212052757509e-07 
-3.319693970004966e-07 
-4.198614713573882e-07 
-8.788325461016318e-08 
-3.465096305906376e-07 
-3.695958826722188e-07 
-3.788791036415118e-07 
-1.245522241513125e-19 
-4.770409628080793e-05 
