solver_type L2R_LR
nr_class 2
label 0 1
nr_feature 105
bias 1
w
0 
8.248583990228793e-06 
0.0006639302881460046 
0.0006216184545337274 
-3.378262518214995e-05 
7.788100679763762e-05 
5.829774991627719e-05 
5.79896956420619e-05 
3.178734994552351e-05 
-5.39315733151337e-06 
-6.655682528093555e-05 
-5.692715538122374e-05 
-6.027730003710858e-05 
-3.635687920819645e-05 
-2.067777106860252e-05 
-1.408569283769564e-05 
-2.679999782475459e-05 
-2.171179617418423e-05 
-3.367027589417377e-05 
-3.164303895190994e-05 
-3.123334469092211e-05 
-2.506666442917426e-05 
-1.81287842923279e-05 
-3.189252129382035e-05 
-3.303141209076851e-05 
-3.731586830230973e-05 
-4.686346688020463e-05 
-4.998189465455232e-05 
-4.51396606329024e-05 
-4.2853351646308e-05 
-4.999095849614159e-05 
-3.862561401079879e-05 
-4.397024895119175e-05 
-3.698474370751469e-05 
-3.499348398588344e-05 
-3.501282748871473e-05 
-3.575423786325985e-05 
-3.596828726826947e-05 
-3.953047313074502e-05 
-4.058234602985872e-05 
-3.483530943262126e-05 
-3.390518887395453e-05 
-3.156320224381523e-05 
-3.2078745061338e-05 
-2.4367226480685e-05 
-2.44356534727314e-05 
-2.297898362096532e-05 
-2.148931553648941e-05 
-2.13907046328129e-05 
-1.884926457688245e-05 
-1.731248961281719e-05 
-1.702373929676947e-05 
-1.604147101476449e-05 
-1.526609433639353e-05 
-1.429036934069245e-05 
-1.182912798194242e-05 
-1.12453090532216e-05 
-1.131571556598032e-05 
-1.034905600895671e-05 
-9.767529119730731e-06 
-8.854914205210327e-06 
-8.918335560120369e-06 
-8.683635961638096e-06 
-8.571798203854577e-06 
-7.912535739297178e-06 
-7.646633762804415e-06 
-7.406130869260094e-06 
-6.697324147325351e-06 
-5.946354972622711e-06 
-6.005033674450825e-06 
-5.81464836020976e-06 
-5.526501215799943e-06 
-5.066821548833628e-06 
-4.901002387887945e-06 
-4.512734148452264e-06 
-4.149362941658165e-06 
-4.045022407060728e-06 
-4.078853047979197e-06 
-3.945993933252395e-06 
-3.572188334399518e-06 
-3.362258573023588e-06 
-3.010122479230331e-06 
-2.983586004031878e-06 
-2.693246317944934e-06 
-2.543055116248558e-06 
-2.648832860872231e-06 
-2.486665589669785e-06 
-2.14776635533729e-06 
-1.963975748655389e-06 
-2.018004669952485e-06 
-1.698394992904581e-06 
-1.59252593510554e-06 
-1.653179804776665e-06 
-1.507366902646389e-06 
-1.169224020480211e-06 
-9.404696313641874e-07 
-8.669221385115397e-07 
-5.918968514169619e-07 
-6.12478712163233e-07 
-6.748780021650423e-07 
-6.554064464369207e-07 
-6.927700051771325e-07 
-7.903308780876972e-07 
-4.463248176126472e-07 
-1.928728421733099e-19 
-1.496553761076984e-05 
