solver_type L2R_LR
nr_class 2
label 0 1
nr_feature 105
bias 1
w
0 
-0.0008870942055888624 
-0.0006868663798000899 
-0.000581942746403752 
-0.0003698674572201407 
-0.0002813801313750989 
-0.0002229282693013196 
-0.0002016026152691656 
-0.0002060813394062673 
-0.0002196540279780898 
-0.0002072658605946809 
-0.0001798885630804729 
-0.0001715356697630147 
-0.0001351735020239539 
-8.079795898688595e-05 
-0.0001033550141341603 
-0.0001208032756300803 
-0.0001137098238533975 
-9.606411478664859e-05 
-0.0001000847140655006 
-8.421005592240643e-05 
-8.365930595794402e-05 
-7.827516644192866e-05 
-7.876111456058361e-05 
-7.397053902793016e-05 
-7.3287271599388e-05 
-6.073424802048625e-05 
-5.892361867884702e-05 
-5.798849371159772e-05 
-5.572655614460217e-05 
-5.037859575519191e-05 
-4.968729517237582e-05 
-4.753823168954666e-05 
-4.565812328251512e-05 
-4.335517839546385e-05 
-4.103151567600408e-05 
-3.701344487693568e-05 
-3.348202440440152e-05 
-3.200239027909852e-05 
-3.200241206119601e-05 
-2.818569608437896e-05 
-2.613434001757838e-05 
-2.352111943287074e-05 
-2.084622503865175e-05 
-1.814216475794168e-05 
-1.593274095153059e-05 
-1.500874905565227e-05 
-1.527795702359643e-05 
-1.372765465613936e-05 
-1.125065870732105e-05 
-1.059673149161078e-05 
-9.40543129701258e-06 
-8.8539014522003e-06 
-8.183253801142942e-06 
-7.520568569359134e-06 
-6.830844903168957e-06 
-6.457433856671679e-06 
-5.218379525171701e-06 
-5.740634366951133e-06 
-5.118739799215676e-06 
-4.603968545272322e-06 
-4.902128768111958e-06 
-4.575647601072603e-06 
-4.414603014979549e-06 
-3.962951228634693e-06 
-3.52544308492234e-06 
-3.740050114071093e-06 
-3.143715714759201e-06 
-3.350932847508749e-06 
-3.135291471823773e-06 
-3.093853498187244e-06 
-2.51712630646953e-06 
-2.339016759158592e-06 
-2.070372323460252e-06 
-1.67916131750752e-06 
-1.418243088294768e-06 
-1.29753220458575e-06 
-1.203661857962552e-06 
-1.075197029769129e-06 
-1.029707741175392e-06 
-9.605969904982975e-07 
-9.231756810864394e-07 
-9.017879557095743e-07 
-7.366533196709485e-07 
-6.732696243791189e-07 
-3.544287042892082e-07 
-3.702462060687748e-07 
-2.027233087261373e-07 
-1.986962657490737e-07 
-1.777961913955552e-07 
-9.636674019842082e-09 
-9.706428416144902e-08 
-1.223447025133648e-07 
7.979980334507859e-08 
1.977770335059464e-07 
2.583229823456291e-07 
5.772460485669423e-08 
2.352743995160817e-07 
4.557480592874685e-07 
3.540946632006107e-07 
1.379258969593582e-07 
3.89281597455553e-07 
4.523688169054377e-07 
4.138109469323535e-07 
-1.600027327199428e-19 
3.641660463792556e-05 
