solver_type L2R_LR
nr_class 2
label 0 1
nr_feature 105
bias 1
w
0 
-0.0004033188279764424 
-0.000370196415830085 
-0.0006510629859143639 
-0.0001788859568975904 
-0.0001703242987361752 
-0.0001003902761503052 
-0.0001088050461128676 
-8.586953262139507e-05 
-0.0001158758246626892 
-7.720738140598781e-05 
-5.531116107482591e-05 
-6.149809735381912e-05 
-6.998922573594213e-05 
-6.259901221292017e-05 
-3.872875991744062e-05 
-6.33463809653424e-05 
-6.182879404269204e-05 
-5.840123980669646e-05 
-5.170078503139487e-05 
-4.667920619386257e-05 
-5.182214823767358e-05 
-4.97179916958743e-05 
-4.392269958392472e-05 
-4.139965025404939e-05 
-4.033111340421203e-05 
-2.367261683852951e-05 
-2.358731582343646e-05 
-2.33496655503426e-05 
-2.167424710717841e-05 
-1.404098727731104e-05 
-1.173897609723195e-05 
-1.363884216127449e-05 
-1.281909600898622e-05 
-1.000367829603001e-05 
-9.722043724007099e-06 
-5.78097388563979e-06 
-5.661056860142181e-06 
-8.68407313051375e-06 
-7.717188567910705e-06 
-7.446234250400646e-06 
-7.187671178829896e-06 
-4.455596432019078e-06 
-5.029296683911186e-06 
-2.155807191379972e-06 
-7.335419780878877e-07 
-6.180150531127384e-07 
-1.451465585415277e-06 
-8.615948589772268e-07 
-1.17371848968158e-06 
-7.525930543980637e-07 
-1.867694948767424e-06 
-2.573641092049514e-06 
-1.862324316023346e-06 
-1.671077270234566e-06 
-2.512797075027476e-06 
-1.626052398347969e-06 
-2.01625368719398e-06 
-1.307917865564911e-06 
-1.502527097933465e-06 
-7.521577570589924e-07 
-1.331441987711088e-07 
1.31512611710367e-07 
3.887926810269721e-07 
-3.127091275098666e-07 
-4.240894331678932e-07 
-4.168674204789686e-07 
-4.105286068151851e-07 
-7.863686597190022e-08 
-1.007320277196522e-07 
-1.808369319992557e-07 
-2.031910155910413e-07 
-4.154355236230058e-07 
-1.920576401479499e-07 
-3.199885126074047e-07 
-2.36775904397079e-08 
2.70505945186597e-07 
2.814784876940823e-07 
4.024067010570576e-07 
-2.205208918141395e-08 
4.133998742717142e-07 
2.837982390565346e-07 
2.408371521098925e-07 
3.012707967180034e-07 
2.310713023292503e-07 
1.901897597805258e-09 
-9.822061521668333e-08 
-1.689042731789521e-07 
3.22568428706017e-08 
6.272830556870918e-08 
1.590720779490438e-07 
3.241888228224836e-07 
1.767993442061888e-07 
5.370079664585286e-07 
5.480938502889402e-07 
5.693584630371343e-07 
4.290709796553517e-07 
2.86813777278474e-07 
4.258419823483871e-07 
5.983029545896713e-08 
2.166968438912381e-07 
1.307667159968444e-07 
1.542549213722453e-07 
-8.230499601382814e-08 
9.342705343952695e-20 
2.826982688034562e-05 
