solver_type L2R_LR
nr_class 2
label 0 1
nr_feature 105
bias 1
w
0 
0.0003437588046728187 
0.000103810742184226 
-0.0001232296794873733 
6.032485258962042e-05 
6.049036375298959e-05 
6.631980361413434e-05 
-2.756910735241323e-05 
-3.928270474689473e-05 
-4.088878908248242e-05 
-5.112598743204633e-05 
-4.697194866529004e-06 
-7.074342691106365e-05 
-2.587111377288676e-05 
-2.004296844055148e-05 
-3.681240166959153e-05 
-6.263231089005611e-05 
-6.082046983366112e-05 
-4.545042392049713e-05 
-5.892299986386866e-05 
-3.769122254505306e-05 
-4.71811871102614e-05 
-5.349440541253334e-05 
-4.614230570567015e-05 
-5.014743839429766e-05 
-4.66070398963781e-05 
-4.123122302172099e-05 
-3.985301643932858e-05 
-3.353279527259979e-05 
-3.494314649545671e-05 
-3.783445439541199e-05 
-3.659139283570232e-05 
-3.060499321857544e-05 
-2.976682230227193e-05 
-2.741415949528132e-05 
-2.544639975864399e-05 
-2.38322320304396e-05 
-2.255695213441393e-05 
-2.122094048120011e-05 
-2.145528810574898e-05 
-1.975346682552656e-05 
-1.752692846277973e-05 
-1.648684813534489e-05 
-1.586725117337331e-05 
-1.700234956283338e-05 
-1.628963480017204e-05 
-1.418646559366852e-05 
-1.31449482145626e-05 
-1.241165873923049e-05 
-1.020307354164757e-05 
-9.992519465493478e-06 
-1.031269682650018e-05 
-9.762004182124178e-06 
-8.668368602610671e-06 
-8.479920509790611e-06 
-8.025708933557143e-06 
-7.558323228899177e-06 
-7.560103943398323e-06 
-7.043754813022046e-06 
-7.67164514144851e-06 
-7.46282241958802e-06 
-6.529504967824655e-06 
-6.766777132825346e-06 
-6.193523115307834e-06 
-5.998299425663247e-06 
-5.460112858766397e-06 
-4.756505668979026e-06 
-4.700035933112741e-06 
-4.77483589189892e-06 
-4.061381116604734e-06 
-3.591452296028108e-06 
-3.69204230094425e-06 
-4.1011302040117e-06 
-3.78426799101155e-06 
-3.833907505373966e-06 
-3.664758535095741e-06 
-3.306660273248804e-06 
-3.011531962948828e-06 
-2.869546143005445e-06 
-2.893784292086926e-06 
-2.527886841929042e-06 
-2.483476724049339e-06 
-2.4826777446163e-06 
-2.120515996609173e-06 
-2.024658342487192e-06 
-1.799414644975466e-06 
-1.693033660076174e-06 
-1.174432531779993e-06 
-1.14878394601631e-06 
-1.157198675899766e-06 
-7.920756144208211e-07 
-1.190564195287664e-06 
-1.157719619789679e-06 
-1.152479932864305e-06 
-9.189227508490347e-07 
-8.758365319808538e-07 
-8.259731937328229e-07 
-5.865769797635649e-07 
-5.790307981709085e-07 
-5.639358484418146e-07 
-6.452920187833251e-07 
-4.467310095311122e-07 
-4.011841774725713e-07 
-2.811054880992159e-07 
-7.398550120452048e-20 
-6.242577376808647e-06 
