solver_type L2R_LR
nr_class 2
label 0 1
nr_feature 105
bias 1
w
0 
-0.0005875674631242776 
-0.0002153337511513231 
-0.0003378573348050803 
-1.501520858157675e-05 
-2.959836752597986e-05 
1.46914000068545e-05 
9.546833829077646e-06 
-3.370475993255296e-05 
-1.443091574417743e-05 
-7.292856396849813e-06 
1.998963215374115e-05 
-2.316057532385112e-05 
-9.089747988392552e-06 
-2.144763089971469e-06 
-1.02567816148096e-06 
-1.62978909067096e-05 
-3.354443169863112e-05 
-1.929216326978804e-05 
-2.682842414545813e-05 
-2.184688230691609e-05 
-2.889594618489008e-05 
-2.399886928482003e-05 
-1.871765515549138e-05 
-2.017017600136433e-05 
-1.918611937182959e-05 
-1.724169242197709e-05 
-1.793097638775702e-05 
-1.151770746806139e-05 
-1.296624837967556e-05 
-1.392099066615768e-05 
-1.151057579588469e-05 
-1.54912844354175e-05 
-1.147069648795582e-05 
-1.268093667424886e-05 
-1.01437954965988e-05 
-1.364141705453562e-05 
-1.25392041580927e-05 
-1.418170985496313e-05 
-1.428643919451963e-05 
-1.369716701385735e-05 
-1.269620097429305e-05 
-1.240822950188409e-05 
-1.238431049222718e-05 
-1.448053326589089e-05 
-1.215733795275112e-05 
-1.069432356687977e-05 
-1.019005755220268e-05 
-1.029677754664502e-05 
-9.327344065626788e-06 
-9.612345217176033e-06 
-1.061279271950549e-05 
-1.029842109414641e-05 
-8.619802247944456e-06 
-8.308154987309352e-06 
-7.567269279316681e-06 
-7.193530085318471e-06 
-7.006671013237843e-06 
-7.594664271626641e-06 
-7.806507617365767e-06 
-6.639572155671886e-06 
-6.308450716420649e-06 
-5.233695855330399e-06 
-4.304623901936511e-06 
-4.497652615596464e-06 
-4.28866650582581e-06 
-3.34636869950721e-06 
-3.583634378195504e-06 
-3.320592537757153e-06 
-2.703434101769325e-06 
-2.112217501579006e-06 
-2.184092634994875e-06 
-2.197836177079886e-06 
-1.954852011861931e-06 
-1.666674362294195e-06 
-1.376577635248836e-06 
-1.217915051460182e-06 
-1.17627317044924e-06 
-1.003025655331928e-06 
-8.611674861895003e-07 
-7.117724823368016e-07 
-8.614293968920741e-07 
-9.743150182865902e-07 
-7.984413794442839e-07 
-5.147893285565854e-07 
-6.941793041323851e-07 
-5.287495083979941e-07 
-1.41535505849965e-07 
1.005508766201104e-07 
-1.924442332632498e-07 
1.876716000823052e-07 
-1.432205378823912e-07 
-2.02031419813607e-07 
-3.043932897761809e-09 
2.162235833853458e-07 
2.091988353411298e-07 
1.945800878870551e-07 
3.654939292307239e-07 
4.384054596405621e-07 
4.465071925045094e-07 
4.116700742395862e-07 
5.378038263067403e-07 
3.964288394353034e-07 
6.403865476814429e-07 
4.277531653530796e-20 
2.25322292649917e-05 
