solver_type L2R_LR
nr_class 2
label 0 1
nr_feature 105
bias 1
w
0 
-0.000146645155729686 
0.0001982526769946557 
0.0006029957134921435 
2.958923086026087e-05 
2.977778984776175e-05 
9.109289844220099e-05 
0.0001028776924509521 
7.204169394499452e-05 
8.180637897070427e-05 
5.564056619437047e-05 
4.533779600974696e-05 
3.430247486716112e-05 
-1.824264967346245e-06 
1.123223549218548e-05 
4.219866022376436e-05 
1.64106630235143e-05 
2.442011708887611e-07 
-3.002549202910939e-06 
1.412745093594717e-05 
6.424574919270904e-07 
-6.608113365040037e-07 
-4.641121865855944e-07 
7.772555135002475e-07 
5.663515650369485e-06 
1.038689993212842e-05 
8.883932714016759e-06 
2.100108657243228e-06 
7.015599412637047e-06 
2.169891333529487e-06 
-4.250636968662435e-08 
-5.077565897529679e-06 
-5.453908170108317e-06 
-9.386563711345814e-07 
-4.375033436287532e-06 
-2.920332149008626e-06 
-2.797919056072304e-06 
-7.716685313812777e-06 
-9.889347073556909e-06 
-8.501651976147019e-06 
-1.037966688104475e-05 
-9.346654408841969e-06 
-1.082736721312523e-05 
-8.385635936957005e-06 
-8.307392437803183e-06 
-3.428754700580166e-06 
-4.807008135893128e-06 
-5.75195229026729e-06 
-7.249362719587187e-06 
-6.723314312628307e-06 
-5.487805073092587e-06 
-5.019353637432935e-06 
-5.067064230318015e-06 
-4.451202759918829e-06 
-4.834034506159889e-06 
-4.140039309667141e-06 
-4.462750048687385e-06 
-3.977712683093471e-06 
-4.410182952239512e-06 
-4.226718621371273e-06 
-3.573457660659578e-06 
-4.574531083619295e-06 
-3.300423377248586e-06 
-3.09620059005666e-06 
-3.188557435958003e-06 
-2.803372374891858e-06 
-2.370335688743143e-06 
-2.54550525645665e-06 
-2.747832989148977e-06 
-2.207548453903414e-06 
-1.917544939624426e-06 
-2.021507052242959e-06 
-1.656414155156543e-06 
-1.595571407836471e-06 
-1.433864253566334e-06 
-1.434915268770684e-06 
-1.015815886046912e-06 
-1.031687411716296e-06 
-9.93022017317124e-07 
-5.771081449612203e-07 
-8.299007302846991e-07 
-1.140236631039092e-06 
-1.102209880623507e-06 
-8.816696139350004e-07 
-8.431070151259586e-07 
-8.923265922639655e-07 
-9.145319978329588e-07 
-9.070912233466215e-07 
-7.248195510089794e-07 
-6.296631168658941e-07 
-4.266853656253229e-07 
-5.3738267717216e-07 
-4.844759335279366e-07 
-5.767973589068022e-07 
-3.395608423752911e-07 
-4.7779959102731e-07 
-4.726420385475459e-07 
-5.18613220923528e-07 
-3.048486172562615e-07 
-1.415087875088796e-07 
7.882058684988604e-08 
-5.852578560510981e-08 
1.872395553511318e-08 
1.611533525221751e-07 
1.330537475694462e-19 
-1.13073045295086e-05 
