solver_type L2R_LR
nr_class 2
label 0 1
nr_feature 105
bias 1
w
0 
-0.001011435335593297 
-0.0008698673524340014 
-0.0007381577657911605 
-0.0001723982680638112 
-0.0001325243289769983 
-5.323896779235011e-05 
8.998737183594834e-06 
3.17167041464579e-05 
7.073957352186659e-06 
-6.340425241071541e-06 
-1.570603420621314e-05 
-1.613826931595266e-05 
-2.065446735676268e-05 
6.740810370844848e-06 
-1.046977279594399e-05 
-1.75144825909111e-05 
-1.076277223764067e-05 
-3.002301742876266e-09 
-4.484701570408943e-06 
1.173851415360018e-06 
-2.566361281835683e-06 
-4.831404284225011e-08 
9.908211449774127e-06 
-4.84103627648591e-07 
-6.111571012939023e-06 
3.389830853340729e-06 
1.208560851416977e-05 
8.556624472854557e-06 
1.165948747792099e-05 
1.734629966309246e-05 
1.498287521959593e-05 
1.278866098726987e-05 
1.43828857082723e-05 
1.169272862043915e-05 
1.54176395462138e-05 
1.761383636857426e-05 
1.589700037121052e-05 
1.472418336240174e-05 
1.369540614788922e-05 
1.525128490940891e-05 
1.451565451535059e-05 
1.477811421046332e-05 
1.205473849126817e-05 
1.517831152709768e-05 
1.374367336396495e-05 
1.257952092142112e-05 
1.216932439733221e-05 
1.327508845389546e-05 
1.211346696294868e-05 
1.16501236008674e-05 
1.047297123194567e-05 
9.347817874466224e-06 
9.12414814040301e-06 
9.135146249644488e-06 
7.721107714256369e-06 
8.705067332840813e-06 
8.412615462156413e-06 
8.095225528378255e-06 
7.965735518648411e-06 
7.280205268597315e-06 
6.917494434677967e-06 
6.575953483486281e-06 
6.348729302900381e-06 
5.785191641552969e-06 
5.267396667717917e-06 
5.478366188940311e-06 
5.356512409373224e-06 
5.447648491505823e-06 
5.256774539855069e-06 
4.674396501370639e-06 
4.391491177011781e-06 
3.935680151843904e-06 
3.901507009971781e-06 
3.8715309594915e-06 
4.05998158516692e-06 
4.05389796794909e-06 
3.578515111933936e-06 
3.395699905079793e-06 
3.171223573548962e-06 
3.339462979315901e-06 
3.232316470205447e-06 
3.191111366817055e-06 
2.992815444692452e-06 
2.87441516191019e-06 
2.558148126597964e-06 
2.635927040106632e-06 
2.560346176392473e-06 
2.600745805794211e-06 
2.400011845398878e-06 
2.21544950775304e-06 
2.263361340550417e-06 
2.118547541775737e-06 
2.128743907985757e-06 
2.139906244495279e-06 
2.053427010858069e-06 
1.907785327616336e-06 
1.798007553256584e-06 
1.65688891690294e-06 
1.452676624834757e-06 
1.390947678760342e-06 
1.177824214737701e-06 
1.022344175711236e-06 
6.738949938064029e-07 
9.372168512041351e-20 
4.585970118826287e-05 
