solver_type L2R_LR
nr_class 2
label 0 1
nr_feature 105
bias 1
w
0 
0.001319030650626237 
0.00108676732444988 
0.0005498004394047769 
-0.0001022028678215474 
-0.0001458287938513426 
-0.0001106097961599384 
-0.0001633181171763711 
-0.0002039986843202732 
-0.0001627925978720575 
-0.0002491523381485263 
-0.0001775490063056103 
-0.0001935176806757137 
-0.0002277195830162536 
-0.0001883844475964057 
-0.0001770881533309303 
-0.0001665892273470344 
-0.0001684827037450287 
-0.000171672230418625 
-0.0001782651461320039 
-0.0001755020254422252 
-0.0001685549645001962 
-0.0001522101914720994 
-0.0001480887368399887 
-0.0001465474516637994 
-0.0001372503967238767 
-0.0001344668862958168 
-0.0001428069948516339 
-0.0001257032776725386 
-0.0001216409285110596 
-0.0001189249790062251 
-0.000108349136553515 
-0.0001083338423450532 
-9.983105874346246e-05 
-9.784355859351319e-05 
-9.596169156836964e-05 
-9.254988675247533e-05 
-9.092183977590057e-05 
-8.634952682175573e-05 
-8.713210047408583e-05 
-8.03991990446127e-05 
-7.595836498456627e-05 
-7.119395352375668e-05 
-6.807420879787745e-05 
-6.015217817905589e-05 
-5.392188771180126e-05 
-5.233713171901059e-05 
-5.066335190812356e-05 
-4.977408397303436e-05 
-4.50411393807715e-05 
-4.167705759719355e-05 
-3.778456004043795e-05 
-3.597792885558348e-05 
-3.526572586054234e-05 
-3.393550702170212e-05 
-3.285425312634849e-05 
-3.167750111183977e-05 
-2.947053378942824e-05 
-2.810930317211594e-05 
-2.698612440202037e-05 
-2.463128734440574e-05 
-2.293139028655354e-05 
-2.213386666542569e-05 
-2.083848549229908e-05 
-1.887913726413778e-05 
-1.848999724668978e-05 
-1.766778476568952e-05 
-1.661265609968673e-05 
-1.552052481549452e-05 
-1.538249124379887e-05 
-1.44714569923628e-05 
-1.345559269860422e-05 
-1.252049214944097e-05 
-1.168356985650681e-05 
-1.137288943073976e-05 
-1.012497711263427e-05 
-9.724998821614809e-06 
-9.015493814144758e-06 
-8.840448400593935e-06 
-8.246846652291009e-06 
-7.952378129458795e-06 
-7.646134977888393e-06 
-7.187990861491219e-06 
-7.120739315637457e-06 
-6.944894137041564e-06 
-6.754376791475619e-06 
-6.323487904352089e-06 
-5.508984741565364e-06 
-4.95133418692968e-06 
-4.721617828625479e-06 
-4.197195615181444e-06 
-3.785113393133467e-06 
-3.901147872546829e-06 
-3.567466459179939e-06 
-3.246431943613668e-06 
-3.048965725997768e-06 
-2.969366875915044e-06 
-2.62674245139855e-06 
-2.310828481633694e-06 
-1.958811321222957e-06 
-1.429680378069349e-06 
-1.21062576555652e-06 
-1.035272790325609e-06 
-6.984023070722956e-07 
-6.645241783839045e-19 
-3.804740880942207e-05 
