solver_type L2R_LR
nr_class 2
label 0 1
nr_feature 105
bias 1
w
0 
0.001147722520266381 
0.0008387928460841995 
0.0009886554313258931 
0.0001119197641469 
3.615063829024845e-05 
4.423812804826476e-05 
3.169036162208414e-05 
-4.698723376623882e-05 
-7.097127721152745e-05 
-7.116083593150426e-05 
-6.949387738439488e-05 
-8.695596249593194e-05 
-0.0001410918644268075 
-0.000109037648351072 
-7.213841335144061e-05 
-9.247949292602668e-05 
-0.0001025926107392979 
-9.163705157309388e-05 
-6.007846197154087e-05 
-7.399254607750214e-05 
-6.865515916809217e-05 
-6.863418467951958e-05 
-6.676034576151692e-05 
-5.513307702306458e-05 
-4.507298401704287e-05 
-4.866441285583819e-05 
-6.126200965958082e-05 
-5.397587394327067e-05 
-4.838571111985515e-05 
-5.911286289083787e-05 
-6.43400619873647e-05 
-6.006172556121483e-05 
-5.614195618373037e-05 
-5.758315607959598e-05 
-5.607626633915169e-05 
-5.323034003484513e-05 
-5.08943486162422e-05 
-5.136408380982266e-05 
-4.924252387582492e-05 
-4.533917413316537e-05 
-4.391646450362506e-05 
-4.404186782169408e-05 
-3.806035627820302e-05 
-3.623503118332531e-05 
-3.289438410459167e-05 
-3.422829565749773e-05 
-3.391105592591135e-05 
-3.437425866339268e-05 
-3.151156770750967e-05 
-3.049741354447423e-05 
-2.803244228783214e-05 
-2.649660698839977e-05 
-2.484505733812436e-05 
-2.430481601577546e-05 
-2.365814863046377e-05 
-2.159132167336896e-05 
-1.99787429824654e-05 
-1.891237165785836e-05 
-1.768078031211353e-05 
-1.79993834602814e-05 
-1.719166676121265e-05 
-1.596894820442877e-05 
-1.439076557366775e-05 
-1.385373610598387e-05 
-1.345588140733732e-05 
-1.267616639182357e-05 
-1.204560768397912e-05 
-1.172459172284678e-05 
-1.103470337594863e-05 
-1.017115136344546e-05 
-9.701614339403756e-06 
-8.841949630804457e-06 
-8.601381262763124e-06 
-8.433808982275558e-06 
-8.32778424320279e-06 
-7.279617003014697e-06 
-7.428616354763078e-06 
-6.931264617919115e-06 
-6.589115584129692e-06 
-6.069303317252903e-06 
-6.034578162014973e-06 
-5.727934550001559e-06 
-5.055348826591107e-06 
-4.947273798048923e-06 
-4.626339978259404e-06 
-4.483009905263737e-06 
-4.334211469719968e-06 
-4.168068172107522e-06 
-3.54229235028474e-06 
-3.36368622847976e-06 
-3.024948401582229e-06 
-2.989038001941476e-06 
-3.010961085344611e-06 
-2.695657979639102e-06 
-2.630397040788647e-06 
-2.486088754123827e-06 
-2.20433041764945e-06 
-1.997676088319293e-06 
-1.795311259311705e-06 
-1.353665237224813e-06 
-1.273911984489418e-06 
-1.002490637913344e-06 
-9.435722720065693e-07 
-1.941382087088486e-19 
-4.861764225284888e-05 
