solver_type L2R_LR
nr_class 2
label 0 1
nr_feature 105
bias 1
w
0 
0.0006068745639011689 
0.0001689672549549077 
3.986234043495495e-05 
1.697675353400596e-05 
-3.889182509333078e-06 
-0.000138596681808594 
-0.0001274340149992138 
-0.0001644192137673258 
-0.0001114549134442786 
-0.0001299610828244721 
-0.0001080399348617484 
-7.918510298188519e-05 
-4.870288953382449e-05 
-6.185133864679717e-05 
-8.42794757220938e-05 
-7.055477344753092e-05 
-7.337536736830389e-05 
-5.54733927478582e-05 
-5.25595658234989e-05 
-5.511020762912581e-05 
-4.808040632495597e-05 
-4.795110546839422e-05 
-6.386596503792014e-05 
-6.301053097853231e-05 
-4.983730522946319e-05 
-5.286673868125061e-05 
-3.879060477435675e-05 
-4.662450573376145e-05 
-3.614723732731395e-05 
-3.426600447438678e-05 
-4.188740825992114e-05 
-3.879709445727444e-05 
-4.010315554657989e-05 
-4.128325872501477e-05 
-3.76097632111605e-05 
-3.760241705490736e-05 
-3.119258945445248e-05 
-3.446132908942937e-05 
-2.969688619328823e-05 
-2.981357261995598e-05 
-2.838793828676848e-05 
-2.461855517647016e-05 
-2.25887583860319e-05 
-2.234826577932767e-05 
-2.023468544405461e-05 
-1.922051572326875e-05 
-1.88134761949583e-05 
-1.902908924628529e-05 
-1.911700775774531e-05 
-1.951108716757401e-05 
-1.960376285086816e-05 
-1.8289345200316e-05 
-1.699717300393663e-05 
-1.655341941033842e-05 
-1.436094727278887e-05 
-1.42906147977681e-05 
-1.257133056238718e-05 
-1.264249453955756e-05 
-1.222055035027813e-05 
-1.204284122674797e-05 
-1.06929641292506e-05 
-9.938041502682961e-06 
-1.050743302935823e-05 
-9.158075288848917e-06 
-8.768097973042566e-06 
-8.629186876533977e-06 
-7.766864155507445e-06 
-7.783765140252216e-06 
-6.972347242128809e-06 
-5.905995542161312e-06 
-6.28418128888478e-06 
-6.090370408407177e-06 
-5.974691500008289e-06 
-5.559188176541132e-06 
-4.675006143984932e-06 
-4.555358522616994e-06 
-4.45590324772383e-06 
-4.143755452873437e-06 
-3.557016767118747e-06 
-3.505032903158182e-06 
-3.351177882088051e-06 
-3.103682958580669e-06 
-3.049412422799048e-06 
-2.899770676795893e-06 
-2.589280992418931e-06 
-2.201159593833633e-06 
-2.414240986775957e-06 
-2.229715211966745e-06 
-1.98698767877195e-06 
-2.112458997159784e-06 
-1.951090359226185e-06 
-1.836724556083463e-06 
-1.820631785657079e-06 
-1.59984552283275e-06 
-1.327747204508455e-06 
-1.456432927112374e-06 
-1.418402143292158e-06 
-9.348275390326152e-07 
-9.676225823257069e-07 
-1.118824738936309e-06 
-7.976071950305181e-07 
-7.113110507480024e-07 
-1.571791409522732e-07 
-1.793234415133326e-19 
-1.014830607796698e-05 
