solver_type L2R_LR
nr_class 2
label 0 1
nr_feature 105
bias 1
w
0 
-0.0003538642422950112 
-0.0005498992683246663 
-0.0001691751959288323 
-7.22710355523784e-05 
-4.201339635210137e-05 
-5.391758656169409e-06 
-2.137546324387495e-05 
5.150234007601997e-06 
9.386646436556902e-06 
1.631283959144108e-05 
3.337334856926837e-05 
3.185539735197932e-05 
2.619637358565358e-05 
3.383449319919271e-05 
-2.739356915665787e-05 
1.059773421586157e-05 
1.884208401632676e-05 
1.516289195538936e-05 
2.634226096720973e-05 
3.428637975644012e-05 
1.950591838489183e-05 
3.266619068250772e-05 
2.18538426315868e-05 
1.632015511240199e-05 
2.144374031703405e-05 
1.314226781154199e-05 
1.919507424888534e-05 
2.043485364505209e-05 
1.467440858992528e-05 
1.447754718150934e-05 
1.479752305089639e-05 
1.401328331413705e-05 
1.448613469901277e-05 
1.068795323963149e-05 
9.807320683623597e-06 
1.182042434297133e-05 
9.248638074772647e-06 
1.016260627042887e-05 
8.887836886691003e-06 
7.660707765087441e-06 
7.433391090537465e-06 
7.041891559323274e-06 
6.472171020609574e-06 
8.067257494818014e-06 
8.110528842058033e-06 
7.645043994908601e-06 
5.162758969130752e-06 
4.742333550558417e-06 
4.930142253247298e-06 
4.321276761395418e-06 
4.677087209499197e-06 
3.25159406500243e-06 
3.640296978335672e-06 
3.405136381013521e-06 
3.21730361854178e-06 
3.034470074061641e-06 
2.485173584634078e-06 
2.146975565888166e-06 
1.743232414199429e-06 
1.853429796686828e-06 
1.492091464208704e-06 
1.674562900876039e-06 
1.525765069531769e-06 
1.360162877952137e-06 
1.565860211569386e-06 
1.637836993050902e-06 
1.448601143355402e-06 
1.274333939741247e-06 
1.757216644104927e-06 
1.422796122824465e-06 
1.506146199172734e-06 
1.007110852895511e-06 
1.062762611552716e-06 
1.104752127235312e-06 
1.084798251239791e-06 
8.512360270389071e-07 
9.515412498834357e-07 
1.100998750268372e-06 
1.142988432848588e-06 
1.044274478339591e-06 
9.951169306648078e-07 
9.996124711292267e-07 
8.306904491387383e-07 
7.775314205953978e-07 
8.38049145728796e-07 
6.368000069305716e-07 
7.942623796748454e-07 
8.612122321242858e-07 
8.046601504922788e-07 
2.998282566326571e-07 
3.213509349442235e-07 
4.419516857118737e-07 
3.109786161408422e-07 
4.340892418609632e-07 
4.199132169245679e-07 
5.069806091440691e-07 
3.443001175838458e-07 
2.044445878707996e-07 
2.073387756634313e-07 
2.505075819405667e-07 
2.75256004082068e-07 
4.718505050802067e-07 
1.883965452217462e-07 
9.039703106579703e-20 
1.111986880731222e-05 
