solver_type L2R_LR
nr_class 2
label 0 1
nr_feature 105
bias 1
w
0 
-0.0004393660515156118 
-0.0006630689673269658 
-0.0003391551140246816 
-0.000386478541986898 
-0.0003735519432007356 
-0.0002933672750629901 
-0.0003847897142974816 
-0.0003368699443332989 
-0.00025683263854447 
-0.0002980648933573129 
-0.00021766339975473 
-0.0002226413087540983 
-0.0002416445716967904 
-0.0002218563995504517 
-0.0002113535992501973 
-0.0001822370910441934 
-0.0001800023352877191 
-0.0001699356655829914 
-0.0001523385171968724 
-0.0001508460139003338 
-0.0001392186453208596 
-0.0001212495156338324 
-0.0001143147382619506 
-0.0001084003115933874 
-0.000109474719569982 
-0.0001006788116496737 
-0.0001085025652844279 
-9.361059969744847e-05 
-9.179231128529583e-05 
-8.271048786944986e-05 
-7.681208526043365e-05 
-7.645766576884079e-05 
-6.513496332255924e-05 
-6.684344876187556e-05 
-6.309583720081749e-05 
-5.785654733394016e-05 
-5.609008279270505e-05 
-5.393672207223319e-05 
-5.097967881934461e-05 
-5.022606709141633e-05 
-4.645497883809265e-05 
-4.243881429757575e-05 
-4.299009155134027e-05 
-3.374865924485338e-05 
-3.438257397766186e-05 
-3.156409073289741e-05 
-2.918757717352444e-05 
-2.829218683498283e-05 
-2.598309643381376e-05 
-2.19670011104318e-05 
-2.211227053213771e-05 
-1.921015878941447e-05 
-1.925363890127704e-05 
-1.985403433648992e-05 
-1.853521023257776e-05 
-1.80034642985241e-05 
-1.691203462102993e-05 
-1.544149363073791e-05 
-1.589090919534934e-05 
-1.392366563669535e-05 
-1.228340184358132e-05 
-1.165897616778221e-05 
-1.062381623986201e-05 
-1.0181809107368e-05 
-1.018747549905817e-05 
-9.223213009290544e-06 
-8.117575677025769e-06 
-7.167397865686365e-06 
-7.139465762165415e-06 
-6.798237753313906e-06 
-6.201537704115836e-06 
-5.842437143175029e-06 
-5.64965884391263e-06 
-5.196197530425309e-06 
-4.163234013722756e-06 
-4.209242484538352e-06 
-3.712187841151746e-06 
-3.619707775933674e-06 
-3.110399907124376e-06 
-2.643490582544174e-06 
-2.580120639203867e-06 
-2.299808869037859e-06 
-2.390899082435893e-06 
-2.380667286625797e-06 
-2.65892281202389e-06 
-2.071006608457851e-06 
-1.688635082061174e-06 
-1.304521688454654e-06 
-1.312356234885932e-06 
-1.156376120256328e-06 
-8.771618346516283e-07 
-7.586802379912107e-07 
-7.778317707083989e-07 
-6.984217171936789e-07 
-7.327144228778298e-07 
-6.669990487949682e-07 
-5.6579121491267e-07 
-5.295791219986086e-07 
-3.826513175743834e-07 
-2.952378098142124e-09 
3.240332380148897e-07 
2.815685609905556e-07 
5.750708097111552e-07 
-4.433626852554839e-19 
5.484375541972985e-05 
