solver_type L2R_LR
nr_class 2
label 0 1
nr_feature 105
bias 1
w
0 
-0.0006973734673061575 
-0.0006587066351806002 
-0.0003813570340652085 
-0.0003512698461074763 
-0.000316337069017139 
-0.0002264707358131051 
-0.0001813469987696152 
-0.0002027529310888339 
-0.00017793323828257 
-0.0001820943453555738 
-0.0001433628535933595 
-0.0001197645744701091 
-0.0001642785836295974 
-0.0001366773766985051 
-0.0001347978872313258 
-0.0001306805406586111 
-0.0001227416169189372 
-0.0001297430097173075 
-0.0001304740321083029 
-0.0001108464555944004 
-0.0001092123819837787 
-0.0001016773719318932 
-8.81592447578602e-05 
-8.600752985460203e-05 
-8.110560427240736e-05 
-7.68202458831109e-05 
-8.600970619505896e-05 
-7.50687516074493e-05 
-6.774457554793107e-05 
-7.032771817409755e-05 
-6.063073403654497e-05 
-6.311368938829456e-05 
-5.625456852631918e-05 
-5.141991348710905e-05 
-5.251121173573006e-05 
-4.630761237624719e-05 
-4.577601366273835e-05 
-4.144765080033201e-05 
-4.504472258128242e-05 
-3.964254802550181e-05 
-3.915778363073804e-05 
-3.751445905125166e-05 
-3.434193411242147e-05 
-3.0785243324234e-05 
-2.510939192701898e-05 
-2.628730171056424e-05 
-2.3961378029654e-05 
-2.324664495215177e-05 
-2.014353962539896e-05 
-2.03442652153185e-05 
-1.682962896819208e-05 
-1.745086619357092e-05 
-1.573832183365166e-05 
-1.470284438896213e-05 
-1.425592862167236e-05 
-1.437548338266214e-05 
-1.30675647277492e-05 
-1.213008738923184e-05 
-1.136681782782834e-05 
-1.032498268200482e-05 
-9.707591705642185e-06 
-9.252457102147244e-06 
-8.839045462642424e-06 
-7.931166743613597e-06 
-7.188251404789549e-06 
-7.123157966345878e-06 
-7.276387621505541e-06 
-6.670855464572728e-06 
-6.544906675053749e-06 
-5.433856624774555e-06 
-5.533165190688272e-06 
-4.37900630400535e-06 
-4.337889659248482e-06 
-4.309726616777705e-06 
-3.59197254662499e-06 
-3.291187092066505e-06 
-2.934658087367876e-06 
-2.811639810507577e-06 
-2.863536267701005e-06 
-2.941691734969773e-06 
-2.821867353104956e-06 
-2.417972528566716e-06 
-2.317581548718251e-06 
-2.116814600598002e-06 
-2.041018478395005e-06 
-2.001329455821361e-06 
-1.462519056435247e-06 
-1.326204763613669e-06 
-1.296505781655453e-06 
-9.350629487635092e-07 
-8.470390792712468e-07 
-9.881715205310648e-07 
-8.541502366001342e-07 
-7.559352405425551e-07 
-6.054494762650131e-07 
-5.359749970319613e-07 
-2.909182084548728e-07 
-1.670190243638733e-07 
-1.021070454772659e-07 
6.662715236886136e-08 
1.734263477394621e-08 
2.277641872008506e-07 
4.403556860087655e-07 
-1.873413661466564e-19 
5.257721234457897e-05 
