solver_type L2R_LR
nr_class 2
label 0 1
nr_feature 105
bias 1
w
0 
-0.0008756559548914919 
-0.000636991370896013 
-0.0001338021830474646 
-0.0002480329936110276 
-0.0001759081536298272 
-0.0001757517144151254 
-0.0001940998399859135 
-0.0001624863823037232 
-0.0001444945733114128 
-5.33648387957317e-05 
-1.411568319219799e-05 
-2.348809818940984e-05 
-4.279930743838572e-05 
-5.755129870058025e-05 
-3.961630429936998e-05 
-4.939976018018791e-05 
-5.612939326971531e-05 
-4.225539774857964e-05 
-2.972504810927908e-05 
-3.162595865975283e-05 
-1.403930000725531e-05 
8.024724159474347e-08 
-1.41756189077081e-05 
-1.712760756034839e-06 
-1.889363660366626e-05 
-1.687759159747178e-05 
-1.555815589374644e-05 
-2.367070672079423e-05 
-1.549463774637484e-05 
-2.129727734386283e-05 
-1.977948235192354e-05 
-1.747524609888113e-05 
-2.280369808305885e-05 
-2.434835445544074e-05 
-2.036351567322382e-05 
-2.394287886231807e-05 
-1.922278311303312e-05 
-1.509564925754357e-05 
-2.130935559352538e-05 
-1.517774390795917e-05 
-1.671925584974708e-05 
-1.390796091582841e-05 
-1.135594678810559e-05 
-1.479588612024244e-05 
-1.461157311687067e-05 
-1.491151113002821e-05 
-1.488043814481628e-05 
-1.389682250673121e-05 
-1.301314830344144e-05 
-1.221014277551554e-05 
-1.229105943503621e-05 
-1.09002375514751e-05 
-1.146931485755733e-05 
-1.062676493161817e-05 
-1.004524892521019e-05 
-9.082592581724955e-06 
-8.237544514020859e-06 
-8.365125197473584e-06 
-6.575822471350687e-06 
-6.41531936765516e-06 
-5.787328460794862e-06 
-6.250563030607165e-06 
-5.879782110261509e-06 
-5.635944985705879e-06 
-4.751430567952623e-06 
-4.566118305576676e-06 
-3.855579033840115e-06 
-4.175884875278939e-06 
-4.078969346148941e-06 
-3.046107305526612e-06 
-2.460705771042972e-06 
-2.216762460492598e-06 
-2.160453576231024e-06 
-2.056317897872408e-06 
-1.360135236863981e-06 
-1.234950833881215e-06 
-1.145409400846256e-06 
-1.24238653480415e-06 
-7.615672776894667e-07 
-6.971781748817627e-07 
-7.881358544282754e-07 
-5.581313043445961e-07 
-3.343579919953881e-07 
8.781924833188188e-08 
2.832644907814323e-07 
1.085440182684363e-07 
2.915281480289275e-08 
2.763838316530717e-07 
3.704934141309197e-07 
3.620588764795825e-07 
4.791195622427263e-07 
5.172030634017504e-07 
6.148719934350971e-07 
5.762256498544447e-07 
6.212888434610225e-07 
5.344626646147637e-07 
6.561683029711706e-07 
7.271182216559893e-07 
6.726758609258488e-07 
8.815780152804702e-07 
6.598118216460919e-07 
3.48065769061129e-07 
2.411676299212662e-07 
9.077642220641141e-20 
4.575272977990049e-05 
