solver_type L2R_LR
nr_class 2
label 0 1
nr_feature 105
bias 1
w
0 
-0.001316355497163134 
-0.0007473595194690922 
-0.0002862149027218106 
-0.0001330209836932844 
-9.008431852315405e-05 
-0.0001212596434643788 
-0.0001475016430031636 
-8.375825539304826e-05 
-1.338674486222115e-05 
3.535838975407392e-05 
7.994221954181912e-05 
8.875708940184049e-05 
4.82037102700865e-05 
-6.720488819106026e-06 
2.820444896467995e-05 
3.032161537405887e-05 
2.689459924325006e-05 
3.681858474222026e-05 
4.189942917199958e-05 
4.157153162268148e-05 
4.430323087741653e-05 
3.636101516147833e-05 
3.147347740229314e-05 
3.453004284852991e-05 
3.390855549935725e-05 
1.410745011915554e-05 
8.723579046187078e-06 
7.029359438443523e-06 
2.638825487354071e-06 
5.393477861673927e-06 
7.280945898288975e-06 
7.328520494656701e-06 
3.463062421152246e-06 
4.287542454710995e-06 
4.31355010814342e-06 
-1.301792641924193e-06 
-2.353492950014225e-06 
-2.798155859769685e-06 
-8.259975796977778e-07 
-4.918006911827491e-06 
-3.022284463374352e-06 
-4.982857824070487e-06 
-3.785907741895197e-06 
-5.853011799407822e-06 
-7.07640118285297e-06 
-7.408325439082866e-06 
-7.220532513447195e-06 
-7.04220146757139e-06 
-6.776822750921669e-06 
-6.336002414904518e-06 
-5.936764680814388e-06 
-7.38752058420715e-06 
-6.031741046111023e-06 
-5.618717980498353e-06 
-5.737198855485188e-06 
-5.561874177266694e-06 
-3.960685656864052e-06 
-3.733039917406814e-06 
-2.714906605928474e-06 
-1.790227521152445e-06 
-1.475227224611657e-06 
-2.10844291974555e-06 
-1.2332823859977e-06 
-1.577912176273012e-06 
-1.385679779981602e-06 
-1.960847752565955e-06 
-1.36841149532845e-06 
-1.17972298474326e-06 
-5.878111687349508e-07 
-8.077769000031763e-07 
-4.315872110937954e-07 
-4.816394650446547e-07 
3.16476041541668e-07 
1.514255848151227e-07 
2.986942494312011e-07 
5.993685237806214e-08 
3.465241881922994e-07 
7.831563417096062e-08 
3.554155600678522e-07 
1.744618654050531e-07 
1.460744160082164e-07 
3.878593718128312e-07 
3.878077143903934e-07 
5.598001986282754e-07 
5.098665843401948e-07 
4.823630912414517e-07 
5.663620045133029e-07 
3.968225950007027e-07 
2.708919977733254e-07 
3.590768615903044e-07 
5.215558197014122e-08 
5.247070981941414e-07 
9.914604316003392e-08 
4.964075835750819e-07 
3.552400598696926e-07 
4.747247926264404e-07 
4.971782473871968e-07 
4.055365824121371e-07 
4.793348392423923e-07 
4.32769644941323e-07 
6.064156922802513e-07 
4.916508403325456e-07 
3.881847747195511e-07 
1.593761330897741e-19 
5.139637079708321e-05 
