solver_type L2R_LR
nr_class 2
label 0 1
nr_feature 105
bias 1
w
0 
0.001594584036556632 
0.001367206568663401 
0.0006730850635604539 
0.0003639770757984322 
0.0002235686409226823 
0.0001862694103796376 
0.0001445784743705038 
0.0001630175457399656 
9.615917284492057e-05 
0.0001214236585101014 
6.3003925346072e-05 
6.38909298610014e-05 
2.813943669260827e-05 
1.569106733051732e-05 
6.250431266255609e-05 
5.684993251806247e-05 
4.791412017406593e-05 
4.68217866070154e-05 
4.786400608987591e-05 
4.940993889779031e-05 
4.238399168471771e-05 
2.342869123189911e-05 
2.073651328272739e-05 
1.389223757537772e-05 
1.670217928936799e-05 
1.964743895566357e-05 
2.558979321233444e-05 
2.822393393386596e-05 
2.489620589812012e-05 
2.647258905883437e-05 
2.944262981843405e-05 
2.18135163517633e-05 
2.020820024276912e-05 
1.495523320567964e-05 
2.018583144261551e-05 
1.584905139979818e-05 
1.829914168739891e-05 
1.528449905737426e-05 
1.143989533488331e-05 
1.137343378123235e-05 
1.33096532229523e-05 
1.121845347299775e-05 
1.034532812591203e-05 
5.810207455025098e-06 
6.758878164061078e-06 
8.770542750014491e-06 
7.448817992156919e-06 
7.418761269612219e-06 
6.26947588627283e-06 
5.068031906754639e-06 
6.231899072400051e-06 
5.632379030191334e-06 
4.983921136207405e-06 
5.044484040742192e-06 
3.262810625768121e-06 
3.131759877446328e-06 
3.115483672530259e-06 
2.423891178929611e-06 
2.191162077403087e-06 
1.806239565984658e-06 
1.082704931519098e-06 
1.627161321810284e-06 
6.68771962690507e-07 
8.037846572835567e-07 
4.143963800291665e-07 
6.247707880156541e-07 
3.237236917298441e-07 
-3.521232092312759e-07 
6.735897961779102e-08 
1.145502951616306e-07 
1.964288000850321e-07 
-4.029688334613723e-07 
-9.475291860840558e-08 
4.572909984036263e-08 
-3.706547788863778e-07 
-3.459320275487533e-07 
-4.006168746219057e-07 
-5.687745462407996e-07 
-4.849577529153928e-07 
-8.382014000836105e-07 
-8.873025297491926e-07 
-8.37451468673071e-07 
-8.610543983881754e-07 
-6.951497636955588e-07 
-7.65612884721544e-07 
-9.627031965889668e-07 
-8.494369179848464e-07 
-1.108749953394923e-06 
-9.161936671404645e-07 
-7.702691442901106e-07 
-7.608905340932561e-07 
-7.150348740865074e-07 
-9.01687963254248e-07 
-1.020823029699576e-06 
-1.053900181913673e-06 
-8.913715749503518e-07 
-8.809117914964339e-07 
-9.327477508084226e-07 
-8.542287793019148e-07 
-7.705696462936264e-07 
-8.300893835644005e-07 
-7.415983631914092e-07 
-6.217729246785236e-07 
1.187528001284788e-19 
-7.07915770949069e-05 
