solver_type L2R_LR
nr_class 2
label 0 1
nr_feature 105
bias 1
w
0 
-0.0006526746773177562 
-0.0006379591895706177 
-0.0005360275325609464 
-5.410590271414691e-05 
-6.732795025205112e-05 
-2.632049141293966e-05 
6.741718995556976e-05 
2.122152219238473e-05 
2.547175423577606e-05 
1.800246628806597e-06 
-6.037338780390519e-06 
-5.178739241174363e-05 
-7.906981702341274e-11 
-1.594043687561213e-05 
-1.430056061134088e-05 
2.664344012245066e-06 
-1.37231951830208e-06 
-1.599339577535716e-05 
-1.144029386110766e-05 
1.498233166106758e-05 
2.008494528942083e-05 
1.859676294757886e-05 
1.674036648517101e-05 
8.448178999834799e-06 
7.223003441266865e-06 
6.11644521619372e-06 
1.498399528957489e-05 
1.855483023815514e-05 
1.973140492446654e-05 
1.58497706052319e-05 
1.938465986027272e-05 
1.43386258591306e-05 
1.967148307154819e-05 
1.719922249654939e-05 
1.51615310102404e-05 
1.818955503456562e-05 
2.033159063461879e-05 
1.682160129875577e-05 
1.701493656690304e-05 
1.517150014193241e-05 
1.631763008423058e-05 
2.044006866359458e-05 
1.420296769908052e-05 
1.482678003480745e-05 
1.425550249434668e-05 
1.551167656168448e-05 
1.224433903755684e-05 
1.050696233807564e-05 
8.135888230880512e-06 
8.583400490225643e-06 
8.464187131087285e-06 
8.907260984555437e-06 
9.742086233472121e-06 
8.657698280841568e-06 
7.546854366982991e-06 
7.468217782915595e-06 
7.202569072475855e-06 
6.750033507847829e-06 
6.711014656962082e-06 
6.825389592772151e-06 
6.220761530137653e-06 
5.630621229579773e-06 
5.674300946860186e-06 
6.047406307222743e-06 
5.019652719139906e-06 
4.880067716671604e-06 
4.552608836734122e-06 
4.277420105572885e-06 
4.151591406584518e-06 
4.140254058789292e-06 
3.945981708012413e-06 
3.727732397105129e-06 
3.583210884417897e-06 
3.495873865220339e-06 
3.377147543018352e-06 
3.258825183460658e-06 
2.865205099299043e-06 
3.118410243364775e-06 
2.866502189165654e-06 
2.776721008565609e-06 
2.752641037132747e-06 
2.757966944308154e-06 
2.578619185825407e-06 
2.500434837367724e-06 
2.403855247035869e-06 
2.233594886968925e-06 
2.116362190967892e-06 
2.260134411547618e-06 
2.039039527851531e-06 
1.952479603569247e-06 
1.838494504616869e-06 
1.673115815068366e-06 
1.670032271449966e-06 
1.460736972807813e-06 
1.403522043173855e-06 
1.321929081772134e-06 
1.051751858356186e-06 
1.027889564004995e-06 
9.570311064956598e-07 
1.052492683612386e-06 
1.051430007924596e-06 
1.221727399679381e-06 
1.009713628916106e-06 
2.108021879220169e-19 
3.277615836291105e-05 
