solver_type L2R_LR
nr_class 2
label 0 1
nr_feature 105
bias 1
w
0 
0.001672084383301662 
0.001736832985482121 
0.0008770407974722291 
0.0002676725223064079 
0.0002944362759463997 
0.0001820277484285806 
0.0001904205923486946 
0.0001928932582880465 
4.136018943829664e-05 
-1.105919798248747e-05 
1.440661951652187e-06 
6.756961873404018e-05 
4.265261145598179e-05 
2.951377607286628e-05 
4.926319245588372e-05 
5.846486595716297e-05 
7.331238765660703e-05 
6.190631812012925e-05 
6.729288143162255e-05 
5.600282148548575e-05 
6.290216724203286e-05 
4.491427667200466e-05 
5.167383301351323e-05 
5.173451389990688e-05 
4.511263974591919e-05 
4.965114891950924e-05 
4.684442879342106e-05 
3.664713768823065e-05 
2.794363956936976e-05 
2.940957716284582e-05 
3.103634234582496e-05 
3.336135538705265e-05 
2.688344680094181e-05 
2.679460557242774e-05 
2.731062654465245e-05 
2.420096852740504e-05 
2.447492502503432e-05 
2.432572457383744e-05 
2.538157369039129e-05 
2.337090625166335e-05 
2.316316307884896e-05 
2.093505293585792e-05 
2.043250187280205e-05 
1.843159855151346e-05 
1.852901811273204e-05 
1.559247775943786e-05 
1.324117569112037e-05 
1.400576010927057e-05 
1.354875704617048e-05 
1.335810961336081e-05 
1.061842936862011e-05 
1.130243034098167e-05 
1.030228743774107e-05 
1.013555500366638e-05 
1.053093571327149e-05 
9.737919142322984e-06 
9.078216994935682e-06 
7.910394072224641e-06 
6.689453514156038e-06 
5.614492665009019e-06 
4.985712585866448e-06 
4.72918166482798e-06 
4.493138403985306e-06 
4.553350200568822e-06 
4.464174928793318e-06 
4.571298128840328e-06 
4.20317038705505e-06 
3.030511458092001e-06 
2.792019397257813e-06 
2.44785080628742e-06 
2.301096970615095e-06 
2.053017728635411e-06 
2.062523880509996e-06 
1.679692320325106e-06 
7.93879097574005e-07 
1.175779105356164e-06 
8.459033763566894e-07 
9.928110777709197e-07 
8.023409367766668e-07 
6.451027118032901e-07 
4.302761336633742e-07 
4.811243414914421e-07 
4.679781567687789e-08 
-6.497737465713002e-08 
6.981036673544184e-08 
1.489277419366919e-07 
8.284950682662727e-08 
3.55772514027261e-07 
4.102557859956465e-08 
5.824273578572312e-09 
2.439653638864331e-07 
1.389157437212501e-07 
-3.160351912517179e-07 
-3.587178920395541e-07 
-4.445173294223482e-07 
-1.054652244270486e-08 
-2.169166278842726e-07 
-3.329309063875363e-07 
-2.943156503488366e-07 
-4.86612499516491e-07 
-4.974247640961254e-07 
-5.275534453371006e-07 
-7.539861258271612e-07 
-9.62070031126266e-20 
-9.306925756295436e-05 
