solver_type L2R_LR
nr_class 2
label 0 1
nr_feature 105
bias 1
w
0 
-0.0008411547780829131 
-0.0002657795399801294 
-4.217686958155376e-06 
5.787418469004153e-05 
0.0001067308709292914 
0.0001294463241147915 
0.0001353466321343579 
0.0001173754853084515 
7.918119028895426e-05 
3.796627208746821e-05 
2.900327221323784e-05 
3.845094782511267e-05 
3.955780364085317e-05 
4.369377890662564e-05 
3.35730706799481e-05 
7.097032170141137e-05 
7.529457285947096e-05 
6.203455564123561e-05 
5.008831616608429e-05 
5.827809663899741e-05 
4.552150691613542e-05 
5.0191235625647e-05 
3.923625842968962e-05 
2.968760893827192e-05 
2.061141615079333e-05 
1.65655798647113e-05 
2.028542656984625e-05 
1.607362355595043e-05 
2.658414072677537e-05 
1.368360017803224e-05 
1.727161630069057e-05 
1.389205708198676e-05 
2.043255597212852e-05 
1.633432210618626e-05 
1.534364991528781e-05 
1.76969900778577e-05 
1.754762911948525e-05 
1.218846885170191e-05 
1.308603194637113e-05 
1.324160753090355e-05 
9.852341797537666e-06 
1.403213557550437e-05 
9.015603713536085e-06 
1.122618456498789e-05 
1.332737958132487e-05 
1.277816274093343e-05 
1.269554961066546e-05 
1.121063262672547e-05 
1.095299328538097e-05 
1.023320048872395e-05 
9.74725445474544e-06 
9.250345128950629e-06 
9.696334223608618e-06 
8.838053068339986e-06 
7.849837089440528e-06 
7.651208807784606e-06 
7.43592314692262e-06 
7.106407306355574e-06 
6.9719109521339e-06 
7.059561283761076e-06 
5.674373761020975e-06 
5.178483220209111e-06 
5.120428787137814e-06 
5.573943679283066e-06 
5.267910348760215e-06 
5.001685829770609e-06 
4.216827846045442e-06 
4.189539511094171e-06 
3.552876992546099e-06 
3.459825925610388e-06 
3.385375162591587e-06 
3.414319613469329e-06 
3.591864006380642e-06 
3.226755409628598e-06 
3.214545766640674e-06 
3.256811400003369e-06 
2.889943682311828e-06 
2.892386858273941e-06 
2.872176475412846e-06 
2.574084918328077e-06 
2.472515822273842e-06 
2.547875771802344e-06 
2.451057377235293e-06 
2.486829043088729e-06 
2.266564096589281e-06 
2.105250570938851e-06 
2.046264064653753e-06 
1.822618650942373e-06 
1.725203137272987e-06 
1.578344229703048e-06 
1.631856411105114e-06 
1.507945341860951e-06 
1.456189427828586e-06 
1.329942101876429e-06 
1.001613490635714e-06 
1.163714294512732e-06 
9.814104170174423e-07 
9.67875724217785e-07 
7.934293463081477e-07 
9.535792783013305e-07 
9.085761559559303e-07 
1.068640838067411e-06 
7.204044139154074e-07 
1.330775283120463e-19 
1.694360851426121e-05 
