solver_type L2R_LR
nr_class 2
label 0 1
nr_feature 105
bias 1
w
0 
0.0008163520316183534 
0.001096724352344702 
0.001197891826111669 
0.0002310308229299138 
0.0003473412887396156 
0.0002557811574318313 
0.0002423032427538982 
0.0002594344918570891 
0.0001950131584194689 
0.0001700248550296935 
0.0002080052715629594 
0.0001868676551461804 
0.0001671335925682592 
0.0001348726381201212 
0.0001136554531404487 
0.0001142189560577109 
9.991985921352824e-05 
0.0001069937311663531 
0.0001015523972882294 
8.769188365193565e-05 
9.223180389826244e-05 
8.982335642898538e-05 
8.934988961795188e-05 
8.887212435325176e-05 
7.718618617485672e-05 
6.008888828127542e-05 
6.720137823164689e-05 
4.953567591069689e-05 
4.531359017458325e-05 
3.924317689650276e-05 
3.516517603844689e-05 
3.711880034554023e-05 
3.289503814494942e-05 
3.673339094276043e-05 
3.238446308173315e-05 
3.069311529678252e-05 
2.940691813039842e-05 
2.735701732158642e-05 
2.348079568750618e-05 
2.141809630841186e-05 
2.012948679000664e-05 
2.061044814807088e-05 
1.785480002442754e-05 
1.756906388770661e-05 
1.352449644223038e-05 
1.280408460445659e-05 
1.257866685416343e-05 
1.117495800781841e-05 
1.142657883281403e-05 
1.076349464984163e-05 
1.04915566865367e-05 
1.042025029834173e-05 
9.92770832088736e-06 
8.343220256348765e-06 
8.098900744165261e-06 
7.01528684380217e-06 
6.859330513859016e-06 
6.827319220698771e-06 
6.524613956495436e-06 
6.261079042439705e-06 
5.670850946767485e-06 
4.553124742170476e-06 
3.700411717635577e-06 
3.911040694143897e-06 
3.822557097971257e-06 
3.429274529886491e-06 
3.612944724063219e-06 
3.48274948887381e-06 
3.723287563166155e-06 
3.108854921685183e-06 
2.342293161320837e-06 
2.391788429725395e-06 
2.314263426633383e-06 
2.296356794039141e-06 
1.574312369555437e-06 
1.316991218476793e-06 
1.408392544551103e-06 
1.029232443471508e-06 
9.577796194639909e-07 
1.062262293316321e-06 
9.048839135299925e-07 
8.410799483434076e-07 
6.792689003699774e-07 
9.114882070054264e-07 
7.730409608498733e-07 
6.061417599853333e-07 
2.259015167054679e-07 
1.675874937742675e-07 
2.975972637548717e-07 
2.77164864551796e-07 
4.528594549874932e-07 
1.873181882408948e-07 
2.641437001704639e-07 
4.482394656437788e-07 
2.205598325175722e-07 
-3.102910336864026e-08 
-1.078976247695566e-07 
-9.40264456459791e-08 
-9.101516422178521e-08 
-2.109213344600698e-07 
-3.855082959488128e-07 
-3.818662370218872e-07 
-1.032049839122291e-07 
7.063338041049161e-20 
-7.450765769776676e-05 
