solver_type L2R_LR
nr_class 2
label 0 1
nr_feature 105
bias 1
w
0 
5.679129538902657e-06 
-0.0002742196021887791 
-0.0002744675016675366 
0.0002505294180415515 
0.000160682414654064 
6.125588993468018e-05 
0.0001304355678127414 
0.0001287366560988079 
0.000144265261818913 
0.0001447406745315415 
0.0001620517374294355 
0.0001041324749865131 
0.0001582579536976493 
9.75456846756489e-05 
9.331132856943097e-05 
8.084180941255675e-05 
7.149294193336692e-05 
6.727764961227589e-05 
6.645127382086872e-05 
7.646799975335226e-05 
7.423922623404824e-05 
7.645116364058809e-05 
7.134401792176955e-05 
6.363454315057426e-05 
5.642958345922565e-05 
5.580244021423961e-05 
5.43865995581482e-05 
6.126314989169503e-05 
5.877627317021426e-05 
5.769534559361119e-05 
5.608156774816486e-05 
4.918400360292745e-05 
4.870905094936164e-05 
4.79356880688927e-05 
4.558520189383056e-05 
4.381517357524037e-05 
4.20600066177806e-05 
3.675680938122075e-05 
3.473865926369897e-05 
3.093100758417189e-05 
3.177665958284296e-05 
3.167448533875914e-05 
2.405172249903601e-05 
2.15107360604081e-05 
1.764373361857103e-05 
1.985739185902694e-05 
1.669251292096932e-05 
1.310810043941928e-05 
1.177589970607765e-05 
1.242380110445569e-05 
1.09251530120661e-05 
1.07991178113944e-05 
1.064071315264545e-05 
9.172471861754149e-06 
9.217185328418739e-06 
7.981557712525866e-06 
8.042426121094987e-06 
7.103230457312116e-06 
6.535355370906331e-06 
6.467141852888969e-06 
6.794541301119038e-06 
5.695017531720505e-06 
5.263577956240813e-06 
5.268390406886344e-06 
4.671677385966944e-06 
4.639518768023141e-06 
4.5264574329145e-06 
4.157490853291443e-06 
4.640737971771283e-06 
4.801505733080921e-06 
4.277465434963002e-06 
3.619824120638988e-06 
3.475613218891301e-06 
3.665858658590499e-06 
3.22577563595694e-06 
3.20535875983526e-06 
2.899448123867821e-06 
2.764903710611226e-06 
2.640635988533761e-06 
2.371933564701397e-06 
2.314215059209466e-06 
1.974972085077133e-06 
2.215221356205646e-06 
2.315898351766959e-06 
2.086485273076196e-06 
1.848602854040828e-06 
1.558647001697246e-06 
1.734884295711052e-06 
1.501824296906993e-06 
1.349972561126898e-06 
1.300323107593263e-06 
1.430940076963302e-06 
1.178991529211897e-06 
1.200091624577616e-06 
1.162631332710305e-06 
8.824802180717897e-07 
8.115711349297629e-07 
5.813693591314601e-07 
7.939814668994022e-07 
6.87439220038001e-07 
6.307069967806347e-07 
7.967519270425173e-07 
6.891229114143798e-07 
2.485503774718783e-19 
-4.420239161909876e-06 
