solver_type L2R_LR
nr_class 2
label 0 1
nr_feature 105
bias 1
w
0 
0.0006109253842827948 
0.0001867400415287329 
0.0002680461794745696 
0.0003281523112278749 
0.0002222451474954775 
0.0001916165423223974 
0.000192487159939489 
0.0001635246198016421 
0.0001705338872985515 
0.0001910066162563297 
0.0001780144267401263 
0.0001403765276648837 
0.0001638602628567772 
0.0001147950868289411 
0.0001175597505265861 
9.427224189126247e-05 
7.60703962972456e-05 
6.069430528356259e-05 
6.711630327829938e-05 
7.158030088670663e-05 
6.953267106472378e-05 
5.188357018455034e-05 
5.384832959245542e-05 
6.78549677568955e-05 
5.584160592649685e-05 
6.116375389633248e-05 
5.875588735365264e-05 
5.994463273997234e-05 
5.069456240916064e-05 
5.825148011127398e-05 
5.840220544384222e-05 
5.508462738652744e-05 
5.286191762656938e-05 
5.012020689872987e-05 
5.03502541758168e-05 
4.692386471199812e-05 
4.777044051894712e-05 
4.417917592849856e-05 
4.253307880380591e-05 
4.34674590313736e-05 
4.260578155262485e-05 
3.845217527454106e-05 
3.455317100068057e-05 
3.061238095175739e-05 
3.026905265932195e-05 
2.852091909627966e-05 
2.527980191101014e-05 
2.254882781068661e-05 
2.240907244983613e-05 
1.987234291277902e-05 
1.919598388833012e-05 
1.77315872506604e-05 
1.633314860703368e-05 
1.638121640210862e-05 
1.486896937939542e-05 
1.449788803870352e-05 
1.385275473434597e-05 
1.35174682376493e-05 
1.242719400818991e-05 
1.114035845841645e-05 
1.035526412680393e-05 
8.860759034907837e-06 
8.828448939661194e-06 
8.780987363551071e-06 
8.020174800136169e-06 
8.209332647807624e-06 
7.298795812389508e-06 
6.686370129335633e-06 
6.569433954233872e-06 
5.707277037102404e-06 
5.81310130048183e-06 
5.493893747933799e-06 
4.938132546117622e-06 
5.086602644234322e-06 
4.353437824557683e-06 
4.043033788074848e-06 
3.495936407477496e-06 
3.297763954623763e-06 
3.130549249882689e-06 
2.90649159085736e-06 
2.38474279720971e-06 
2.647355411777093e-06 
2.572805240810317e-06 
2.161967554821238e-06 
2.296281277604977e-06 
1.707129353709418e-06 
1.267122609805449e-06 
1.130430372638487e-06 
1.24357030404683e-06 
1.236125790592002e-06 
1.295661093882147e-06 
1.003203626670964e-06 
6.315709175861782e-07 
4.113976143350777e-07 
4.832368501804205e-07 
3.059625493546166e-07 
4.203085369578571e-07 
3.924326194818023e-07 
1.559491841899328e-07 
8.320438409426545e-08 
7.139777422553916e-08 
4.196958978303054e-08 
-1.268038256901942e-07 
2.670921394975876e-19 
-3.020773268305355e-05 
