solver_type L2R_LR
nr_class 2
label 0 1
nr_feature 105
bias 1
w
0 
-0.0003389332153714752 
-0.0006519110407807369 
-0.0003505609887248782 
-0.000141133176055305 
-8.352793743219319e-05 
-8.762218640783387e-05 
-5.78605328845452e-05 
-9.491595713989456e-05 
-0.0001200888698344963 
-7.36635442884152e-05 
-6.834573488535701e-05 
-6.426148742627858e-05 
-2.530552780926135e-05 
-3.620472705258786e-05 
-3.203833369129613e-05 
-4.562475819266675e-05 
-2.895817226900598e-05 
-3.568034593765052e-05 
-3.501591873662607e-05 
-2.970437809154008e-05 
-2.183904791011283e-05 
-1.363379533168978e-05 
-2.112558650758404e-05 
-2.066086828581054e-05 
-1.866441669983586e-05 
-9.618918775453467e-06 
-1.527497372600596e-05 
-1.001043597371337e-05 
-1.517753885536995e-05 
-1.193092113139161e-05 
-7.084337925635385e-06 
-6.493876241866222e-06 
-5.127134069815324e-06 
-9.504648752272764e-06 
-8.272964602706001e-06 
-1.003351675537517e-05 
-5.729835690611354e-06 
-9.110423414408487e-06 
-6.030590402716603e-06 
-2.584391468964377e-06 
-2.163760581114044e-06 
-6.471509481767895e-07 
1.212140704256292e-07 
-1.985143399052348e-06 
-6.660161867933694e-07 
4.06108276910736e-07 
9.277031114600772e-08 
1.060403599821458e-06 
9.08403960588834e-07 
1.166926177303102e-06 
2.313169622855886e-06 
1.533431677617848e-06 
1.23319291781696e-06 
1.574162329772137e-06 
2.339770666632733e-06 
1.260582449198945e-06 
1.527473459579788e-06 
1.531585572982695e-06 
1.619898971313121e-06 
7.199412896512123e-07 
1.109642439072332e-06 
5.824188078300915e-07 
9.119173116130181e-08 
3.178654619400101e-07 
6.074928453032588e-07 
1.719731653838954e-07 
-1.11265333611225e-08 
2.980462552536547e-07 
-5.377777796774935e-07 
-3.412784194058774e-07 
-1.120566956415104e-07 
-1.59616395285077e-07 
-1.195508589678e-07 
6.179500170947073e-08 
2.529105722701142e-08 
4.683054464229996e-08 
-1.259257142856595e-07 
-6.517493365168185e-08 
1.908689032973778e-07 
2.274475140721103e-07 
9.789992669911347e-08 
9.776891926061251e-08 
-8.026903847003664e-08 
1.165128665641325e-07 
-5.143488504462544e-08 
-8.938267029998291e-08 
-1.312544813128403e-07 
-7.115675273258999e-08 
9.032700341418992e-08 
-1.88704522747015e-07 
-5.613799533801554e-08 
-2.896006251070993e-07 
-6.201408975154501e-08 
-6.625448364843348e-08 
-9.819591411066305e-08 
-8.735258172851318e-08 
-1.383929793917324e-08 
2.459236310019068e-08 
4.501893359850495e-08 
-1.092472828630582e-07 
-1.633151495317412e-07 
-2.333054888094608e-07 
-3.024559142259835e-07 
3.733681310687538e-20 
1.84062399789802e-05 
