solver_type L2R_LR
nr_class 2
label 0 1
nr_feature 105
bias 1
w
0 
-0.001691777538947419 
-0.001134771440727531 
-0.0002948642960734394 
-3.595372547749641e-05 
7.538791945172376e-05 
5.333794927026258e-05 
6.068741468783334e-05 
0.0001375157138090879 
0.0001836635816472485 
0.0001079371131246683 
0.0001132128103692929 
0.0001030461815144381 
7.055506829794566e-05 
3.859839106047008e-05 
6.679333538694215e-05 
4.082878313044033e-05 
5.429104945492013e-05 
5.847064950172514e-05 
6.455615392468635e-05 
7.132614591727704e-05 
7.477178083413447e-05 
7.037701719029566e-05 
6.332226274086115e-05 
5.541044168734986e-05 
4.903983567135993e-05 
5.036325101278192e-05 
4.980170651831795e-05 
5.072113387099487e-05 
4.627235007195817e-05 
3.843275089018995e-05 
3.759440394835504e-05 
4.49157870573524e-05 
3.924084188799111e-05 
3.7708891887624e-05 
3.645185105036425e-05 
3.607054444795562e-05 
3.429737609936993e-05 
3.266261599304056e-05 
3.234518274477847e-05 
2.841809712839522e-05 
2.733875865060775e-05 
2.291390668154043e-05 
2.067912999468539e-05 
1.91873765537437e-05 
1.50661245296172e-05 
1.643185377187632e-05 
1.476553936675138e-05 
1.578455420262226e-05 
1.490999954763034e-05 
1.36430943713191e-05 
1.235255733712026e-05 
1.319879158545588e-05 
1.217847134453345e-05 
1.099029834399934e-05 
1.02273785579042e-05 
1.053713130505565e-05 
1.006590166197652e-05 
9.709307269814645e-06 
9.85327727396856e-06 
9.787393180560084e-06 
8.498837737855791e-06 
8.778343429144924e-06 
7.479891019677193e-06 
7.263453083901698e-06 
6.65703272187313e-06 
6.68152912280175e-06 
6.56260499108187e-06 
6.475678127081837e-06 
5.96533658065348e-06 
5.68070372035605e-06 
5.499891430662851e-06 
5.334775635938163e-06 
5.120550666759234e-06 
4.706777005499927e-06 
5.21004196095789e-06 
4.558433483070569e-06 
4.379915089120241e-06 
4.233622470043818e-06 
4.108495157413515e-06 
3.93365586581005e-06 
3.741688578634444e-06 
3.562870876882944e-06 
3.432907291435145e-06 
3.25226323057231e-06 
3.084315182923651e-06 
3.188175236448987e-06 
3.104648164569692e-06 
2.685652939720228e-06 
2.716019663889177e-06 
2.682746408907444e-06 
2.387029815958398e-06 
2.202590614233042e-06 
2.256264613860693e-06 
2.090231237109889e-06 
1.891427304825046e-06 
1.745030818338159e-06 
1.681928279694183e-06 
1.628158056997578e-06 
1.416452878377269e-06 
1.229624844723482e-06 
9.890019681560259e-07 
7.001848699701335e-07 
7.032333597165144e-07 
2.701322444641902e-19 
5.125350910452336e-05 
