solver_type L2R_LR
nr_class 2
label 0 1
nr_feature 105
bias 1
w
0 
0.0004802095149322565 
5.729294714179295e-05 
6.92243236466758e-05 
8.622585160596631e-05 
4.625640469455881e-05 
0.0001095740670330452 
7.186771198045361e-05 
1.692621344840951e-05 
-1.256458639069437e-05 
-8.839535138412593e-05 
-6.785166917455551e-05 
-9.176962781277294e-05 
-2.673558602370209e-05 
-3.735447847903354e-05 
-5.122129513295932e-05 
-4.71749185167046e-05 
-4.775721872523044e-05 
-4.228167577423951e-05 
-4.035581402491908e-05 
-4.017937999765865e-05 
-2.838803361912074e-05 
-3.379223807845562e-05 
-3.384574862396721e-05 
-3.778394709829878e-05 
-3.12038329221337e-05 
-3.686242703483746e-05 
-3.662757349765902e-05 
-3.116123143798271e-05 
-1.804881787743744e-05 
-1.709113123442145e-05 
-1.823801535097352e-05 
-1.619887444264899e-05 
-1.157972452179245e-05 
-1.45603558047566e-05 
-1.123818444776267e-05 
-1.090488356449676e-05 
-1.348076388182385e-05 
-1.376691896164849e-05 
-1.215936959231499e-05 
-1.03727332629634e-05 
-7.147507030463931e-06 
-1.131898724874057e-05 
-1.094792330708796e-05 
-8.456115992953617e-06 
-7.036531975381105e-06 
-6.015853956095539e-06 
-5.612340884687959e-06 
-5.121950736915817e-06 
-5.216224316034538e-06 
-4.095044932583849e-06 
-3.977678717313227e-06 
-3.43080872386464e-06 
-4.334089935431746e-06 
-3.475507970161848e-06 
-2.393801678822905e-06 
-2.750624494438664e-06 
-2.134233691428457e-06 
-2.542593668416273e-06 
-2.275152162968568e-06 
-1.598143515401769e-06 
-2.336436360381947e-06 
-2.212455811653996e-06 
-1.918618880723442e-06 
-1.60779269579565e-06 
-1.354231488532652e-06 
-1.167192639913312e-06 
-1.501004358266058e-06 
-7.759699999279299e-07 
-1.183274909791105e-06 
-1.200300491970665e-06 
-7.686643200321705e-07 
-9.977029636971558e-07 
-1.081521968412134e-06 
-8.843464500660623e-07 
-8.530917262369815e-07 
-1.009686172987542e-06 
-7.18339711033242e-07 
-8.092377281110797e-07 
-7.403898371786735e-07 
-7.883776961481811e-07 
-6.754577461331684e-07 
-7.137382647949207e-07 
-5.612693211632737e-07 
-3.633632191856799e-07 
-3.360567280791112e-07 
-1.255439246140456e-07 
-2.454249766319778e-07 
-2.531417845339173e-07 
-2.930719926320837e-07 
-2.248999587350788e-07 
-2.796697946993209e-07 
-3.116772417732709e-07 
-1.751746718314559e-07 
-5.002976994761902e-08 
-1.306396904161385e-07 
-8.916227493100499e-08 
-9.262104830243086e-08 
6.12017266097536e-08 
1.413118008991484e-08 
-1.497911724229712e-07 
-1.541519038497707e-07 
-2.790688198176032e-08 
1.457198513318095e-07 
7.574723902686494e-22 
-1.083911892941435e-05 
