solver_type L2R_LR
nr_class 2
label 0 1
nr_feature 105
bias 1
w
0 
-0.001356780797991459 
-0.0008717549958367051 
-0.000396763484157706 
-2.169661392113344e-05 
3.892477104129153e-05 
0.0001225854286406108 
9.822092462979827e-05 
0.0001347017664277078 
0.000160711023470595 
4.895674717053634e-05 
5.497472673406822e-05 
6.387052554043656e-05 
5.1253364640376e-05 
4.551239466816982e-05 
6.147004920068174e-05 
4.592450182192148e-05 
5.375852123576136e-05 
4.958351189519017e-05 
4.544987462815392e-05 
4.858269713994645e-05 
4.066293300528562e-05 
4.331868513223349e-05 
4.248178545219761e-05 
2.901782100198591e-05 
3.604363825223953e-05 
3.450041335576789e-05 
3.02894668249058e-05 
2.996849241817412e-05 
3.304846593979059e-05 
2.684224590038564e-05 
2.800248679504889e-05 
3.152543122569116e-05 
3.133327799200448e-05 
2.846493777970674e-05 
3.067226949338674e-05 
2.860520589308077e-05 
2.572000980689714e-05 
2.033172074124249e-05 
2.376994343156774e-05 
1.97922773285167e-05 
2.200414983434995e-05 
1.595584505377313e-05 
1.316953141348758e-05 
1.222576244196808e-05 
1.323396625577299e-05 
1.473452342758043e-05 
1.328063072957634e-05 
1.279140362302501e-05 
1.237875663300239e-05 
1.213786266146688e-05 
1.043347840545669e-05 
1.098721729307111e-05 
9.624761784112112e-06 
9.300973599616955e-06 
9.563521798633075e-06 
8.800186245017202e-06 
8.511147891049938e-06 
8.134403680624706e-06 
8.222287661636074e-06 
8.454004529380508e-06 
6.798682328373635e-06 
6.741842605443347e-06 
6.809598631868113e-06 
6.369887844525351e-06 
5.929991533794651e-06 
5.818700386570461e-06 
5.349272882157713e-06 
5.456785766094588e-06 
5.061678005124492e-06 
4.850764933551419e-06 
4.870462181545715e-06 
4.43835740294052e-06 
4.169519732650854e-06 
4.272917873472444e-06 
3.813512412137163e-06 
3.503773896494332e-06 
3.510712594373571e-06 
3.426766413479019e-06 
3.236320735776859e-06 
2.854666720586733e-06 
2.589733048661852e-06 
2.458143433814127e-06 
2.695060621966888e-06 
2.642110207936341e-06 
2.574142213149758e-06 
2.615401069599007e-06 
2.58320876573284e-06 
2.160846475254399e-06 
2.115031810639521e-06 
2.27423130648751e-06 
1.959844871331646e-06 
1.838996537364473e-06 
1.800917489016067e-06 
1.72639351966435e-06 
1.678243286092565e-06 
1.571675259518114e-06 
1.475400599636043e-06 
1.445328107202551e-06 
1.371816261834832e-06 
9.064225445052309e-07 
8.065988145023226e-07 
7.443945139481359e-07 
7.356220842635012e-07 
3.304337457155599e-19 
4.024634461262771e-05 
