solver_type L2R_LR
nr_class 2
label 0 1
nr_feature 105
bias 1
w
0 
-0.0001563554958959851 
-3.313654981953599e-05 
-0.0003051328220263983 
0.0002076240205121449 
0.000107024934575463 
0.0001140645315458901 
2.375779996089858e-05 
4.550343003925891e-05 
2.565198296681185e-05 
6.992908360478507e-05 
0.0001098689485109644 
0.0001071015484691028 
7.89953154150218e-05 
8.329259086062597e-05 
3.49249526853537e-05 
4.556455903969221e-05 
4.81430122494961e-05 
5.123911745013678e-05 
4.005319545571164e-05 
4.182944314499651e-05 
4.62491031982387e-05 
3.663043296567702e-05 
3.557139172451267e-05 
2.972748645535685e-05 
1.049950079641381e-05 
1.477524328247132e-05 
2.961578215395277e-05 
3.114484244224325e-05 
2.998072515217548e-05 
3.691112315952252e-05 
3.67967468402227e-05 
3.18590190607809e-05 
3.250456449002262e-05 
3.142588412380834e-05 
2.802835152034205e-05 
3.111700046984508e-05 
3.151302357553377e-05 
3.137422230411107e-05 
3.02444540836605e-05 
2.757412621561146e-05 
2.697545167726017e-05 
2.633257977656544e-05 
2.741181887351824e-05 
2.611826088567166e-05 
2.319513253797968e-05 
2.211418361191381e-05 
2.256757688288577e-05 
2.071193855473845e-05 
1.784194806846019e-05 
1.709598049400324e-05 
1.645893339709135e-05 
1.684824813246876e-05 
1.549761597478781e-05 
1.317487940439541e-05 
1.185394036580236e-05 
1.175053651279039e-05 
1.101185226819812e-05 
1.063676527345159e-05 
1.072365933963182e-05 
9.848696812360892e-06 
9.624617977478123e-06 
8.69897293183985e-06 
8.700117842387991e-06 
7.926992183239109e-06 
7.839034050361964e-06 
7.117897273604398e-06 
6.617981884470944e-06 
6.182068962538563e-06 
5.659511322929277e-06 
6.02635420829238e-06 
5.089190563801995e-06 
4.568533644972966e-06 
4.223275898476908e-06 
4.249177259795803e-06 
4.079472435285285e-06 
3.978912919785562e-06 
4.298177302349931e-06 
4.101569827856382e-06 
3.739815948953834e-06 
2.97108600852174e-06 
2.92562992694488e-06 
2.706341244065064e-06 
2.6825908010987e-06 
3.100240369481887e-06 
3.099320735908806e-06 
2.662397346215816e-06 
2.577096716629106e-06 
2.547779986212513e-06 
2.240119325458407e-06 
1.877704192968427e-06 
1.542291678012489e-06 
1.450875131646121e-06 
1.215238786887087e-06 
1.320233186443072e-06 
1.1043484374249e-06 
8.693376871035369e-07 
7.762667622423518e-07 
7.543497647923208e-07 
5.083903188229827e-07 
6.583199206481353e-07 
6.139282928992332e-07 
4.183130831791324e-07 
3.412470297626967e-07 
3.170066109717609e-19 
2.452325767798405e-07 
