solver_type L2R_LR
nr_class 2
label 0 1
nr_feature 105
bias 1
w
0 
-0.001368913588233295 
-0.0002667221243092746 
7.788937079599185e-05 
-3.604174239940054e-05 
1.34158602480409e-05 
-2.49685290184599e-05 
-9.55746180348249e-05 
-0.0001604096711012343 
-2.631427977132687e-05 
-7.348070237934138e-05 
-1.628707221105793e-05 
-2.990361466107005e-05 
-4.171821804948349e-05 
-5.644014577846967e-05 
-7.002074110184838e-05 
-5.562197477487401e-05 
-4.181273995915447e-05 
-3.622193991434604e-05 
-3.308298658902559e-05 
-2.778196128197607e-05 
-3.324192930119025e-05 
-1.264021020963985e-05 
-2.39991411843686e-05 
-3.253455709140005e-05 
-2.60401080376223e-05 
-1.320919276083803e-05 
-2.09157224019802e-05 
-1.88642208930475e-05 
-2.020481330112364e-05 
-1.582746877287798e-05 
-1.737856823287219e-05 
-1.799636997453451e-05 
-1.400305565836104e-05 
-1.345743944339136e-05 
-1.758709028516103e-05 
-1.715058369769039e-05 
-1.596208006179618e-05 
-1.856302817337468e-05 
-1.870305020437007e-05 
-1.66024741136858e-05 
-1.219450051373138e-05 
-1.007890084529426e-05 
-1.554134663002646e-05 
-7.197838694948325e-06 
-1.006695067718559e-05 
-6.991269563002027e-06 
-8.22322887801268e-06 
-1.063944870068682e-05 
-9.475350410197937e-06 
-9.460473490719695e-06 
-7.039801581578679e-06 
-6.441593935506179e-06 
-6.908629304051694e-06 
-5.280391211640235e-06 
-4.909912200002328e-06 
-5.286347657902099e-06 
-5.307014552523821e-06 
-4.387622465385246e-06 
-3.723377883556597e-06 
-2.938470452469084e-06 
-3.302649650988103e-06 
-2.630802203605002e-06 
-2.369584332373809e-06 
-2.020498946907674e-06 
-1.607971012113144e-06 
-1.752742967322784e-06 
-1.002863273709837e-06 
-1.330835637238545e-06 
-8.651637459213023e-07 
-7.595365308906329e-07 
-2.224894245890199e-07 
-2.409147030317744e-07 
1.620272611854166e-07 
3.987518131395112e-07 
8.757583885190446e-07 
6.830976751040712e-07 
5.977283431881334e-07 
5.45605629518482e-07 
2.891175274425561e-07 
9.115337694426421e-08 
4.423163137004448e-07 
3.407050463324574e-07 
2.085948631433426e-07 
1.980862077355011e-07 
1.310743379074742e-07 
3.534584283492332e-07 
2.250665738122457e-07 
5.517932812579051e-07 
2.702896864280937e-07 
-7.473815868958445e-08 
2.568875718187058e-07 
3.126512314633003e-07 
6.559325114442599e-07 
6.927138948098123e-07 
5.898636106837817e-07 
8.382456287557146e-07 
7.48080486109522e-07 
6.311757748753237e-07 
9.399336709695193e-07 
9.087473505828035e-07 
5.396935072141971e-07 
6.472280135587671e-07 
9.915688879363925e-07 
1.036853493338366e-20 
4.29378559333366e-05 
