solver_type L2R_LR
nr_class 2
label 0 1
nr_feature 105
bias 1
w
0 
0.0007676735860263596 
0.0007534437243081926 
6.14945361800821e-05 
-5.163558118830626e-05 
-9.415293989996339e-06 
2.836632256748191e-05 
-6.729020928512928e-05 
7.868503474750095e-05 
-8.043915626163935e-06 
-0.0001177599762503951 
-9.773392209043228e-05 
-8.090332992291555e-05 
3.446116550025629e-07 
-4.416697645529468e-05 
-2.953410232495204e-05 
-4.796724704630106e-05 
1.122922785457501e-05 
-9.195831000681691e-06 
3.315433549258959e-06 
-2.685233398112371e-06 
-1.332085913412823e-05 
-5.87188879161297e-06 
-1.492318918854053e-06 
-4.027643513402628e-06 
1.915782344986128e-07 
-8.08219107218706e-07 
1.303861882563281e-05 
1.398148594308441e-05 
1.015319835275065e-05 
1.09248748845431e-05 
1.402400368708473e-05 
1.619028915882249e-05 
1.053670556480181e-05 
1.622649752407015e-05 
1.284102756729371e-05 
1.097180210233871e-05 
1.529688273020469e-05 
1.625529514206088e-05 
1.374855054069206e-05 
1.636719343717018e-05 
1.532272622143556e-05 
1.401858737372222e-05 
1.469764640772756e-05 
1.262183198895871e-05 
1.474753336329513e-05 
1.289334967717586e-05 
1.216213085638183e-05 
1.274056883515127e-05 
1.29218310848596e-05 
1.189333614050149e-05 
1.194711465175888e-05 
1.185883917505126e-05 
1.062498829409239e-05 
9.770337703149515e-06 
9.583730452454344e-06 
8.844899709588261e-06 
8.240763992058913e-06 
8.347266044943657e-06 
7.673147511933716e-06 
7.096016239589581e-06 
6.235304442226525e-06 
5.314923979602036e-06 
5.277326522380752e-06 
5.383358979124411e-06 
4.512167472836401e-06 
4.097389599712907e-06 
3.49170964035876e-06 
3.605872229698122e-06 
3.308793846756795e-06 
3.284882601043095e-06 
2.720687725096684e-06 
2.471306436848117e-06 
1.903878070968066e-06 
1.435552133893797e-06 
1.165208183654749e-06 
1.060715925814994e-06 
1.221307755018844e-06 
1.079978689078611e-06 
9.482466023964137e-07 
7.733589700896724e-07 
6.492617067433595e-07 
7.629655358953915e-07 
7.03183037177203e-07 
7.404768864560615e-07 
5.484407293723776e-07 
5.480552030773633e-07 
2.995138652196344e-07 
1.499032009462422e-07 
1.35720200064442e-08 
-1.241798049670055e-07 
-3.260751955600288e-07 
-3.900358415761334e-07 
-3.165730640081798e-07 
-3.967775384581582e-07 
-2.330323331856187e-07 
-4.259202427109524e-07 
-3.986557911764067e-07 
-5.483435968155259e-07 
-4.368626964925459e-07 
-3.71959204597056e-07 
-7.00921532052267e-07 
-6.598049906136064e-07 
-6.203846372971773e-07 
3.797500913816907e-20 
-3.03393476494162e-05 
