solver_type L2R_LR
nr_class 2
label 0 1
nr_feature 105
bias 1
w
0 
0.0005121443498247975 
-8.16908080894546e-05 
0.0003876999656633468 
0.0001499826563406113 
0.0002011079308153258 
0.0001673579971012499 
0.0001027019370191631 
7.403930345098519e-05 
7.137936337914306e-05 
7.50011645379053e-05 
7.716632562671831e-05 
5.680255049646114e-05 
6.906498213076827e-05 
3.751763749131683e-05 
2.781559439785569e-05 
3.176794686266282e-05 
5.821703888040482e-06 
2.737546920230653e-06 
1.402754959218437e-05 
1.798392746449155e-05 
2.449274664026255e-05 
8.603568098343164e-06 
9.532804774235572e-06 
1.004703756498908e-05 
8.992005967990177e-06 
6.786083766618594e-06 
1.41962374650859e-05 
7.166351934712983e-06 
7.626233684509189e-06 
6.505523752962153e-06 
2.206450914778325e-06 
4.273931198153044e-06 
7.556350614136973e-06 
1.184875286184339e-06 
2.947853407840308e-06 
1.566124932637195e-06 
-1.646983251584948e-06 
1.451210563229939e-07 
2.574225164911352e-06 
3.434915299074341e-06 
-1.952198956968161e-07 
-2.367098992718817e-06 
-1.720289586715845e-06 
-1.134202568025682e-06 
-1.040069439431209e-06 
-9.898993481996961e-07 
-6.920884871988235e-07 
-3.877618225837127e-07 
1.238316071197414e-06 
2.878415005446014e-07 
1.22548477213911e-07 
-2.137379801089938e-07 
-1.469612769534557e-06 
-1.277289545981437e-06 
3.85244044367677e-07 
-1.497271923554087e-07 
-3.394394458895099e-07 
-6.967701742623343e-07 
-3.537441807795711e-07 
-3.547210949248813e-07 
9.304904279207918e-08 
1.446675822737502e-07 
-8.512805648060335e-07 
-8.372650072284817e-07 
3.655273032411759e-08 
1.223212675974083e-07 
1.429031339571444e-07 
-7.098305350906826e-08 
-3.62332092219191e-07 
-4.623946661142593e-07 
-1.303052318927412e-07 
-1.987193154592026e-07 
-2.345578800885798e-07 
-3.233730015251253e-07 
-4.633661817884818e-07 
-3.847162753513829e-07 
-6.102233056687101e-07 
-6.764277445857083e-07 
-7.559631856366249e-07 
-7.759059244856962e-07 
-6.133972558039533e-07 
-3.428589045043033e-07 
-5.072041454848473e-07 
-3.729943878914727e-07 
-3.125201184872734e-07 
-1.839462068509056e-07 
-2.288314851266452e-07 
-1.992065636353377e-07 
-4.671673113715608e-07 
-4.219898956378738e-07 
-3.523627687829357e-07 
-3.396672030844166e-07 
-1.696486298380828e-07 
-1.001163175337528e-07 
-4.399901084285752e-07 
-3.855489941203053e-07 
-3.765294152787659e-07 
-3.755495899104448e-07 
-2.625559925438006e-07 
-3.144259121319786e-07 
-3.836299268531781e-07 
-3.131576548301321e-07 
-1.681075597005749e-07 
1.005435843246724e-19 
-1.881481284856812e-05 
