solver_type L2R_LR
nr_class 2
label 0 1
nr_feature 105
bias 1
w
0 
-0.0007584034326257677 
-0.0005724627039904916 
-0.0005091672977780101 
2.395736243032869e-05 
-2.775061534173868e-05 
-9.285457897918492e-05 
-4.705925424162083e-05 
-8.517832046002892e-05 
-6.742792975895166e-05 
-1.728416031001635e-05 
7.923781746476276e-06 
6.599669397240821e-06 
-4.914560342061847e-06 
-2.169338093210941e-05 
-6.003137430329355e-05 
-3.978908129892345e-05 
-2.998213097935224e-05 
-9.914451356671267e-06 
-2.223478932112701e-05 
-2.643859395945449e-05 
-1.212625925465452e-05 
-6.60508294906934e-06 
-1.029901360934659e-05 
-1.406596431033691e-05 
-2.863895696544142e-05 
-3.407181342611949e-05 
-1.433325834619125e-05 
-2.189287345885213e-05 
-2.03069769374944e-05 
-1.225886948029401e-05 
-9.776444495929577e-06 
-1.813870351547252e-05 
-1.641672346068752e-05 
-1.791480693529495e-05 
-2.273525442502942e-05 
-1.313850835829634e-05 
-1.148898872965324e-05 
-5.560014017032466e-06 
-1.193391975802175e-05 
-1.273581903325828e-05 
-1.150926761712025e-05 
-6.241480799506077e-06 
-3.772016183917116e-06 
-4.912399213858466e-06 
-6.047022631571128e-06 
-6.839247559665223e-06 
-5.784307680317695e-06 
-6.176637046116266e-06 
-5.542868567266865e-06 
-7.222563149002318e-06 
-5.259676955357569e-06 
-5.392289788816933e-06 
-4.497786685683871e-06 
-4.783098770639219e-06 
-5.419012821431964e-06 
-4.429266785658037e-06 
-4.73355087666605e-06 
-4.729794751721763e-06 
-4.837507720629073e-06 
-3.860596759523781e-06 
-3.804361994128866e-06 
-2.99020588303196e-06 
-2.280727707141667e-06 
-3.021285844424679e-06 
-2.07532326611984e-06 
-2.060995816464104e-06 
-1.267680690247691e-06 
-1.246234310164253e-06 
-1.187625463259837e-06 
-6.08520485160047e-07 
-1.0215969409425e-06 
-1.003223093756825e-06 
-8.358543968288208e-07 
-9.876039055012829e-07 
-8.494760768270853e-07 
-6.67915697992937e-07 
-2.824052533005337e-07 
-4.685975243607473e-07 
-6.14550018286203e-07 
-4.652831407927544e-07 
-1.53867311340341e-07 
-3.570097207530255e-07 
-3.269148248733526e-08 
2.881479188187969e-07 
5.634476356404359e-07 
7.829803757859062e-07 
9.446981649731612e-07 
8.037926041817753e-07 
5.096974224207102e-07 
5.989977466661616e-07 
3.860967413810196e-07 
7.019400202001019e-07 
4.433677435738036e-07 
4.452205838691412e-07 
4.782904457435286e-07 
8.415881272293632e-07 
7.266200718224739e-07 
9.193735742844015e-07 
7.260417693682459e-07 
7.326156286580494e-07 
9.21664875931366e-07 
8.695377293211706e-07 
9.20984927585682e-07 
-1.91315491107689e-21 
3.6799668044001e-05 
